Version 9.1.0
Id 
Min label:-1
Max label:0
bits:18
lda:0
0 ngram:
0 skip:
options: --automl 3 --cb_adf --cb_explore_adf --cb_type mtr --csoaa_ldf multiline --csoaa_rank --epsilon 0.200000002980232 --interaction_type cubic --keep_configs --oracle_type rand --priority_type least_exclusion --random_seed 13881481101454338915
Checksum: 2576618485
_automl_state = Experimenting
_automl_config_manager_count = 3
_automl_config_manager_champ = 0
_automl_config_manager_valid_config_size = 6
_automl_config_manager_ns_counter.size() = 9
_automl_config_manager_ns_counter.key0 = 69
_automl_config_manager_ns_counter[69] = 18
_automl_config_manager_ns_counter.key1 = 71
_automl_config_manager_ns_counter[71] = 36
_automl_config_manager_ns_counter.key2 = 77
_automl_config_manager_ns_counter[77] = 36
_automl_config_manager_ns_counter.key3 = 79
_automl_config_manager_ns_counter[79] = 36
_automl_config_manager_ns_counter.key4 = 82
_automl_config_manager_ns_counter[82] = 27
_automl_config_manager_ns_counter.key5 = 83
_automl_config_manager_ns_counter[83] = 30
_automl_config_manager_ns_counter.key6 = 84
_automl_config_manager_ns_counter[84] = 30
_automl_config_manager_ns_counter.key7 = 105
_automl_config_manager_ns_counter[105] = 36
_automl_config_manager_ns_counter.key8 = 106
_automl_config_manager_ns_counter[106] = 30
_automl_config_manager_configs.size() = 6
_automl_config_manager_configs.key0 = 0
_automl_config_manager_configs[0]_exclusions.size() = 0
_automl_config_manager_configs[0]_lease = 10
_automl_config_manager_configs[0]_state = Live
_automl_config_manager_configs.key1 = 1
_automl_config_manager_configs[1]_exclusions.size() = 1
_automl_config_manager_configs[1]_exclusions[0].size() = 3
_automl_config_manager_configs[1]_exclusions[0][0] = 69
_automl_config_manager_configs[1]_exclusions[0][1] = 69
_automl_config_manager_configs[1]_exclusions[0][2] = 69
_automl_config_manager_configs[1]_lease = 10
_automl_config_manager_configs[1]_state = New
_automl_config_manager_configs.key2 = 2
_automl_config_manager_configs[2]_exclusions.size() = 1
_automl_config_manager_configs[2]_exclusions[0].size() = 3
_automl_config_manager_configs[2]_exclusions[0][0] = 69
_automl_config_manager_configs[2]_exclusions[0][1] = 69
_automl_config_manager_configs[2]_exclusions[0][2] = 105
_automl_config_manager_configs[2]_lease = 10
_automl_config_manager_configs[2]_state = Live
_automl_config_manager_configs.key3 = 3
_automl_config_manager_configs[3]_exclusions.size() = 1
_automl_config_manager_configs[3]_exclusions[0].size() = 3
_automl_config_manager_configs[3]_exclusions[0][0] = 69
_automl_config_manager_configs[3]_exclusions[0][1] = 69
_automl_config_manager_configs[3]_exclusions[0][2] = 84
_automl_config_manager_configs[3]_lease = 10
_automl_config_manager_configs[3]_state = Live
_automl_config_manager_configs.key4 = 4
_automl_config_manager_configs[4]_exclusions.size() = 1
_automl_config_manager_configs[4]_exclusions[0].size() = 3
_automl_config_manager_configs[4]_exclusions[0][0] = 79
_automl_config_manager_configs[4]_exclusions[0][1] = 82
_automl_config_manager_configs[4]_exclusions[0][2] = 83
_automl_config_manager_configs[4]_lease = 10
_automl_config_manager_configs[4]_state = New
_automl_config_manager_configs.key5 = 5
_automl_config_manager_configs[5]_exclusions.size() = 1
_automl_config_manager_configs[5]_exclusions[0].size() = 3
_automl_config_manager_configs[5]_exclusions[0][0] = 83
_automl_config_manager_configs[5]_exclusions[0][1] = 105
_automl_config_manager_configs[5]_exclusions[0][2] = 106
_automl_config_manager_configs[5]_lease = 10
_automl_config_manager_configs[5]_state = New
_automl_config_manager_scores.size() = 3
_automl_config_manager_scores[0]_chisq_alpha = 0.05000000074505806
_automl_config_manager_scores[0]_chisq_tau = 1
_automl_config_manager_scores[0]_chisq_n = 0
_automl_config_manager_scores[0]_chisq_sumw = 0
_automl_config_manager_scores[0]_chisq_sumwsq = 0
_automl_config_manager_scores[0]_chisq_sumwr = 0
_automl_config_manager_scores[0]_chisq_sumwsqr = 0
_automl_config_manager_scores[0]_chisq_sumwsqrsq = 0
_automl_config_manager_scores[0]_chisq_rmin = 0
_automl_config_manager_scores[0]_chisq_rmax = 1
_automl_config_manager_scores[0]_chisq_wmin = 0
_automl_config_manager_scores[0]_chisq_wmax = inf
_automl_config_manager_scores[0]_ips = 0
_automl_config_manager_scores[0]_count = 0
_automl_config_manager_scores[0]_lastw = 0
_automl_config_manager_scores[0]_lastr = 0
_automl_config_manager_scores[0]_index = 0
_automl_config_manager_scores[0]_eligible_to_inactivate = false
_automl_config_manager_scores[1]_chisq_alpha = 0.05000000074505806
_automl_config_manager_scores[1]_chisq_tau = 1
_automl_config_manager_scores[1]_chisq_n = 2
_automl_config_manager_scores[1]_chisq_sumw = 0
_automl_config_manager_scores[1]_chisq_sumwsq = 0
_automl_config_manager_scores[1]_chisq_sumwr = 0
_automl_config_manager_scores[1]_chisq_sumwsqr = 0
_automl_config_manager_scores[1]_chisq_sumwsqrsq = 0
_automl_config_manager_scores[1]_chisq_rmin = 0
_automl_config_manager_scores[1]_chisq_rmax = 1
_automl_config_manager_scores[1]_chisq_wmin = 0
_automl_config_manager_scores[1]_chisq_wmax = inf
_automl_config_manager_scores[1]_ips = 0
_automl_config_manager_scores[1]_count = 2
_automl_config_manager_scores[1]_lastw = 0
_automl_config_manager_scores[1]_lastr = 1
_automl_config_manager_scores[1]_index = 3
_automl_config_manager_scores[1]_eligible_to_inactivate = false
_automl_config_manager_scores[2]_chisq_alpha = 0.05000000074505806
_automl_config_manager_scores[2]_chisq_tau = 1
_automl_config_manager_scores[2]_chisq_n = 2
_automl_config_manager_scores[2]_chisq_sumw = 0
_automl_config_manager_scores[2]_chisq_sumwsq = 0
_automl_config_manager_scores[2]_chisq_sumwr = 0
_automl_config_manager_scores[2]_chisq_sumwsqr = 0
_automl_config_manager_scores[2]_chisq_sumwsqrsq = 0
_automl_config_manager_scores[2]_chisq_rmin = 0
_automl_config_manager_scores[2]_chisq_rmax = 1
_automl_config_manager_scores[2]_chisq_wmin = 0
_automl_config_manager_scores[2]_chisq_wmax = inf
_automl_config_manager_scores[2]_ips = 0
_automl_config_manager_scores[2]_count = 2
_automl_config_manager_scores[2]_lastw = 0
_automl_config_manager_scores[2]_lastr = 1
_automl_config_manager_scores[2]_index = 2
_automl_config_manager_scores[2]_eligible_to_inactivate = true
_automl_config_manager_champ_scores.size() = 3
_automl_config_manager_champ_scores[0]_chisq_alpha = 0.05000000074505806
_automl_config_manager_champ_scores[0]_chisq_tau = 1
_automl_config_manager_champ_scores[0]_chisq_n = 0
_automl_config_manager_champ_scores[0]_chisq_sumw = 0
_automl_config_manager_champ_scores[0]_chisq_sumwsq = 0
_automl_config_manager_champ_scores[0]_chisq_sumwr = 0
_automl_config_manager_champ_scores[0]_chisq_sumwsqr = 0
_automl_config_manager_champ_scores[0]_chisq_sumwsqrsq = 0
_automl_config_manager_champ_scores[0]_chisq_rmin = 0
_automl_config_manager_champ_scores[0]_chisq_rmax = 1
_automl_config_manager_champ_scores[0]_chisq_wmin = 0
_automl_config_manager_champ_scores[0]_chisq_wmax = inf
_automl_config_manager_champ_scores[0]_ips = 0
_automl_config_manager_champ_scores[0]_count = 0
_automl_config_manager_champ_scores[0]_lastw = 0
_automl_config_manager_champ_scores[0]_lastr = 0
_automl_config_manager_champ_scores[1]_chisq_alpha = 0.05000000074505806
_automl_config_manager_champ_scores[1]_chisq_tau = 1
_automl_config_manager_champ_scores[1]_chisq_n = 2
_automl_config_manager_champ_scores[1]_chisq_sumw = 0
_automl_config_manager_champ_scores[1]_chisq_sumwsq = 0
_automl_config_manager_champ_scores[1]_chisq_sumwr = 0
_automl_config_manager_champ_scores[1]_chisq_sumwsqr = 0
_automl_config_manager_champ_scores[1]_chisq_sumwsqrsq = 0
_automl_config_manager_champ_scores[1]_chisq_rmin = 0
_automl_config_manager_champ_scores[1]_chisq_rmax = 1
_automl_config_manager_champ_scores[1]_chisq_wmin = 0
_automl_config_manager_champ_scores[1]_chisq_wmax = inf
_automl_config_manager_champ_scores[1]_ips = 0
_automl_config_manager_champ_scores[1]_count = 2
_automl_config_manager_champ_scores[1]_lastw = 0
_automl_config_manager_champ_scores[1]_lastr = 1
_automl_config_manager_champ_scores[2]_chisq_alpha = 0.05000000074505806
_automl_config_manager_champ_scores[2]_chisq_tau = 1
_automl_config_manager_champ_scores[2]_chisq_n = 2
_automl_config_manager_champ_scores[2]_chisq_sumw = 0
_automl_config_manager_champ_scores[2]_chisq_sumwsq = 0
_automl_config_manager_champ_scores[2]_chisq_sumwr = 0
_automl_config_manager_champ_scores[2]_chisq_sumwsqr = 0
_automl_config_manager_champ_scores[2]_chisq_sumwsqrsq = 0
_automl_config_manager_champ_scores[2]_chisq_rmin = 0
_automl_config_manager_champ_scores[2]_chisq_rmax = 1
_automl_config_manager_champ_scores[2]_chisq_wmin = 0
_automl_config_manager_champ_scores[2]_chisq_wmax = inf
_automl_config_manager_champ_scores[2]_ips = 0
_automl_config_manager_champ_scores[2]_count = 2
_automl_config_manager_champ_scores[2]_lastw = 0
_automl_config_manager_champ_scores[2]_lastr = 1
_automl_config_manager_index_queue.size() = 3
_automl_config_manager_index_queue[0].first = -6
_automl_config_manager_index_queue[0].second = 1
_automl_config_manager_index_queue[1].first = -10
_automl_config_manager_index_queue[1].second = 5
_automl_config_manager_index_queue[2].first = -12
_automl_config_manager_index_queue[2].second = 4
event_sum 7
action_sum 84
:1
initial_t 0
norm normalizer 1028.94
t 3
sum_loss -0.122449
sum_loss_since_last_dump 0
dump_interval 4
min_label -1
max_label 0
weighted_labeled_examples 3
weighted_labels 0
weighted_unlabeled_examples 0
example_number 3
total_features 508674
total_weight 0.408163
sd::oec.weighted_labeled_examples 3
current_pass 1
l1_state 0
l2_state 1
28:-10.1963 1.25617e-11 3.92276e-06
29:-5.87193 1.25617e-11 3.92276e-06
30:-97.9443 6.28085e-12 3.92276e-06
40:-10.2423 1.2449e-11 3.90513e-06
41:-5.89931 1.2449e-11 3.90513e-06
42:-8.18457 1.2449e-11 3.90513e-06
72:9.73706 1.02001e-09 4.99903e-05
73:10.2169 1.02001e-09 4.99903e-05
74:9.96442 1.02001e-09 4.99903e-05
184:-0.0133548 7.34694e-06 0.003
185:-0.00770172 7.34694e-06 0.003
186:-0.0106763 7.34694e-06 0.003
188:-0.0010643 0.00115227 0.0375703
189:-0.000612865 0.00115227 0.0375703
190:-0.000850405 0.00115227 0.0375703
224:0.0004868 0.408163 1
225:0.00051079 0.408163 1
226:0.000498167 0.408163 1
228:-1.1359 1.01296e-09 3.5226e-05
229:-0.654325 1.01296e-09 3.5226e-05
230:-0.907726 1.01296e-09 3.5226e-05
236:-0.10206 1.25454e-07 0.000392022
237:-0.0587898 1.25454e-07 0.000392022
238:-0.0815584 1.25454e-07 0.000392022
328:-0.934672 1.49444e-09 4.27865e-05
329:-0.538302 1.49444e-09 4.27865e-05
330:-0.746868 1.49444e-09 4.27865e-05
368:-4.00125e-05 0.816326 1
369:-2.30485e-05 0.816326 1
370:-3.19748e-05 0.816326 1
400:-0.00432304 6.99878e-05 0.00925933
401:-0.00249144 6.99878e-05 0.00925933
402:-0.00345521 6.99878e-05 0.00925933
420:-0.00430212 7.06213e-05 0.00930113
421:-0.00247818 7.06213e-05 0.00930113
422:-0.00343792 7.06213e-05 0.00930113
448:0.017215 0.000326167 0.0282685
449:0.0180634 0.000326167 0.0282685
450:0.017617 0.000326167 0.0282685
544:0.162248 3.67347e-06 0.003
545:0.170244 3.67347e-06 0.003
546:0.166037 3.67347e-06 0.003
740:-0.0117571 9.45736e-06 0.00340371
741:-0.00677453 9.45736e-06 0.00340371
742:-0.00939632 9.45736e-06 0.00340371
868:-477.884 5.72033e-15 8.37102e-08
869:-275.256 5.72033e-15 8.37102e-08
870:-381.876 5.72033e-15 8.37102e-08
980:-1.25729 8.252e-10 3.17942e-05
981:-0.723731 8.252e-10 3.17942e-05
982:-1.00449 8.252e-10 3.17942e-05
984:-321.667 1.26286e-14 1.24378e-07
985:-185.263 1.26286e-14 1.24378e-07
986:-257.037 1.26286e-14 1.24378e-07
1080:-0.0096552 1.40156e-05 0.00414356
1081:-0.00556242 1.40156e-05 0.00414356
1082:-0.00771599 1.40156e-05 0.00414356
1200:-6.63954 2.96569e-11 6.02742e-06
1201:-3.82559 2.96569e-11 6.02742e-06
1202:-5.30626 2.96569e-11 6.02742e-06
1732:1.15401 7.26016e-08 0.000421751
1733:1.21088 7.26016e-08 0.000421751
1734:1.18095 7.26016e-08 0.000421751
1864:-0.0964771 6.47274e-06 0.00398224
1865:-0.0964771 6.47274e-06 0.00398224
1866:-0.0964771 6.47274e-06 0.00398224
1944:0.0506199 3.77484e-05 0.00961684
1945:0.0531145 3.77484e-05 0.00961684
1946:0.0518019 3.77484e-05 0.00961684
1996:-0.0950125 1.44623e-07 0.000420908
1997:-0.054715 1.44623e-07 0.000420908
1998:-0.0759191 1.44623e-07 0.000420908
2088:0.0203247 0.000234034 0.0239454
2089:0.0213264 0.000234034 0.0239454
2090:0.0207993 0.000234034 0.0239454
2116:-0.473837 5.81835e-09 8.44244e-05
2117:-0.272924 5.81835e-09 8.44244e-05
2118:-0.378643 5.81835e-09 8.44244e-05
2140:-4.03635e-05 0.802552 0.991527
2141:-2.32573e-05 0.802552 0.991527
2142:-3.22584e-05 0.802552 0.991527
2180:-5.34153e-05 0.45901 0.749859
2181:-3.07979e-05 0.45901 0.749859
2182:-4.26989e-05 0.45901 0.749859
2272:-9131.9 1.56555e-17 4.37927e-09
2273:-5259.12 1.56555e-17 4.37927e-09
2274:-7296.93 1.56555e-17 4.37927e-09
2312:0.000574639 0.292869 0.847071
2313:0.000602959 0.292869 0.847071
2314:0.000588057 0.292869 0.847071
2320:-5.58198e-05 0.420283 0.717528
2321:-3.2181e-05 0.420283 0.717528
2322:-4.46195e-05 0.420283 0.717528
2360:-533850 4.59411e-21 7.50186e-11
2361:-307750 4.59411e-21 7.50186e-11
2362:-426722 4.59411e-21 7.50186e-11
2488:-56887.4 1.86122e-17 6.75277e-09
2489:-56887.4 1.86122e-17 6.75277e-09
2490:-56887.4 1.86122e-17 6.75277e-09
2512:-4.65495 6.03848e-11 8.60066e-06
2513:-2.68303 6.03848e-11 8.60066e-06
2514:-3.72063 6.03848e-11 8.60066e-06
2548:-4.00125e-05 0.816326 1
2549:-2.30485e-05 0.816326 1
2550:-3.19748e-05 0.816326 1
2576:-5404.09 4.46455e-17 7.39532e-09
2577:-3110.66 4.46455e-17 7.39532e-09
2578:-4317.44 4.46455e-17 7.39532e-09
3024:-449.617 6.46768e-15 8.90107e-08
3025:-259.073 6.46768e-15 8.90107e-08
3026:-359.336 6.46768e-15 8.90107e-08
3136:0.167262 3.45681e-06 0.00291019
3137:0.175505 3.45681e-06 0.00291019
3138:0.171168 3.45681e-06 0.00291019
3224:-0.00987552 0.000617786 0.0389047
3225:-0.00987552 0.000617786 0.0389047
3226:-0.00987552 0.000617786 0.0389047
3248:0.0004868 0.408163 1
3249:0.00051079 0.408163 1
3250:0.000498167 0.408163 1
3416:-113.889 4.6465e-12 3.37401e-06
3417:-113.889 4.6465e-12 3.37401e-06
3418:-113.889 4.6465e-12 3.37401e-06
3452:-2159.52 1.29139e-14 1.77874e-07
3453:-2159.52 1.29139e-14 1.77874e-07
3454:-2159.52 1.29139e-14 1.77874e-07
3600:-0.378612 9.10251e-09 0.000105596
3601:-0.218004 9.10251e-09 0.000105596
3602:-0.302514 9.10251e-09 0.000105596
3620:-0.112122 1.03771e-07 0.000356538
3621:-0.0645448 1.03771e-07 0.000356538
3622:-0.0895793 1.03771e-07 0.000356538
3636:0.0004868 0.408163 1
3637:0.00051079 0.408163 1
3638:0.000498167 0.408163 1
3696:0.0428748 5.26089e-05 0.0113531
3697:0.0449878 5.26089e-05 0.0113531
3698:0.043876 5.26089e-05 0.0113531
3776:-0.000389578 0.404537 0.995505
3777:-0.000389578 0.404537 0.995505
3778:-0.000389578 0.404537 0.995505
3828:-0.00038771 0.400874 0.99103
3829:-0.00038771 0.400874 0.99103
3830:-0.00038771 0.400874 0.99103
3924:0.0125116 0.000617786 0.0389047
3925:0.0131282 0.000617786 0.0389047
3926:0.0128038 0.000617786 0.0389047
3928:-1.1784 4.33816e-08 0.000326014
3929:-1.1784 4.33816e-08 0.000326014
3930:-1.1784 4.33816e-08 0.000326014
3988:-6.72325e-05 0.288848 0.594843
3989:-3.87223e-05 0.288848 0.594843
3990:-5.37241e-05 0.288848 0.594843
4052:-0.000384234 0.408163 1
4053:-0.000384234 0.408163 1
4054:-0.000384234 0.408163 1
4152:-4.0144e-05 0.809816 0.996004
4153:-2.31127e-05 0.809816 0.996004
4154:-3.20745e-05 0.809816 0.996004
4304:-0.0413813 3.51696e-05 0.00928253
4305:-0.0413813 3.51696e-05 0.00928253
4306:-0.0413813 3.51696e-05 0.00928253
4464:-0.00987552 0.000617786 0.0389047
4465:-0.00987552 0.000617786 0.0389047
4466:-0.00987552 0.000617786 0.0389047
4468:-0.152049 5.64342e-08 0.000262929
4469:-0.0875455 5.64342e-08 0.000262929
4470:-0.121487 5.64342e-08 0.000262929
4504:-0.00132978 0.00073829 0.0300733
4505:-0.000765745 0.00073829 0.0300733
4506:-0.00106254 0.00073829 0.0300733
4520:0.113931 7.44698e-06 0.00427143
4521:0.119546 7.44698e-06 0.00427143
4522:0.116592 7.44698e-06 0.00427143
4524:-0.910864 7.26016e-08 0.000421751
4525:-0.910864 7.26016e-08 0.000421751
4526:-0.910864 7.26016e-08 0.000421751
4584:0.000487635 0.406532 0.998
4585:0.000511667 0.406532 0.998
4586:0.000499021 0.406532 0.998
4592:-0.0100472 1.29455e-05 0.00398224
4593:-0.00578775 1.29455e-05 0.00398224
4594:-0.00802903 1.29455e-05 0.00398224
4684:-22.7699 2.5255e-12 1.7589e-06
4685:-13.1265 2.5255e-12 1.7589e-06
4686:-18.2007 2.5255e-12 1.7589e-06
4704:-0.0338414 5.26089e-05 0.0113531
4705:-0.0338414 5.26089e-05 0.0113531
4706:-0.0338414 5.26089e-05 0.0113531
4860:-0.000384894 0.406532 0.998
4861:-0.000384894 0.406532 0.998
4862:-0.000384894 0.406532 0.998
4900:-60488.2 3.56722e-19 6.61048e-10
4901:-34829.1 3.56722e-19 6.61048e-10
4902:-48330.6 3.56722e-19 6.61048e-10
4912:0.113931 7.44698e-06 0.00427143
4913:0.119546 7.44698e-06 0.00427143
4914:0.116592 7.44698e-06 0.00427143
4952:-0.000384234 0.408163 1
4953:-0.000384234 0.408163 1
4954:-0.000384234 0.408163 1
4968:-1.1359 1.01296e-09 3.5226e-05
4969:-0.654325 1.01296e-09 3.5226e-05
4970:-0.907726 1.01296e-09 3.5226e-05
5328:0.0125116 0.000617786 0.0389047
5329:0.0131282 0.000617786 0.0389047
5330:0.0128038 0.000617786 0.0389047
5360:-0.537931 4.51976e-09 7.44091e-05
5361:-0.309984 4.51976e-09 7.44091e-05
5362:-0.429927 4.51976e-09 7.44091e-05
5384:-0.976031 6.32313e-08 0.000393595
5385:-0.976031 6.32313e-08 0.000393595
5386:-0.976031 6.32313e-08 0.000393595
5396:-0.000408264 0.361438 0.941022
5397:-0.000408264 0.361438 0.941022
5398:-0.000408264 0.361438 0.941022
5456:-0.000396039 0.384091 0.970063
5457:-0.000396039 0.384091 0.970063
5458:-0.000396039 0.384091 0.970063
5464:132.965 5.47021e-12 3.66088e-06
5465:139.518 5.47021e-12 3.66088e-06
5466:136.07 5.47021e-12 3.66088e-06
5632:-0.0100717 1.28938e-05 0.00397427
5633:-0.00580365 1.28938e-05 0.00397427
5634:-0.00804946 1.28938e-05 0.00397427
5656:0.144309 4.64438e-06 0.00337324
5657:0.151421 4.64438e-06 0.00337324
5658:0.147679 4.64438e-06 0.00337324
5752:-0.00121277 0.000886558 0.032955
5753:-0.000698056 0.000886558 0.032955
5754:-0.000968891 0.000886558 0.032955
5792:-0.0100717 1.28938e-05 0.00397427
5793:-0.00580365 1.28938e-05 0.00397427
5794:-0.00804946 1.28938e-05 0.00397427
5924:0.0523399 3.53107e-05 0.00930113
5925:0.0549194 3.53107e-05 0.00930113
5926:0.0535621 3.53107e-05 0.00930113
6032:-0.128309 3.65879e-06 0.002994
6033:-0.128309 3.65879e-06 0.002994
6034:-0.128309 3.65879e-06 0.002994
6080:132.965 5.47021e-12 3.66088e-06
6081:139.518 5.47021e-12 3.66088e-06
6082:136.07 5.47021e-12 3.66088e-06
6220:-0.000385972 0.404502 0.995505
6221:-0.000385972 0.404502 0.995505
6222:-0.000385972 0.404502 0.995505
6240:280.817 1.22597e-12 1.7331e-06
6241:294.657 1.22597e-12 1.7331e-06
6242:287.374 1.22597e-12 1.7331e-06
6252:-6.00272 1.67184e-09 6.4e-05
6253:-6.00272 1.67184e-09 6.4e-05
6254:-6.00272 1.67184e-09 6.4e-05
6256:-0.00157109 0.000529744 0.0254742
6257:-0.00090516 0.000529744 0.0254742
6258:-0.00125556 0.000529744 0.0254742
6264:-0.000384234 0.408163 1
6265:-0.000384234 0.408163 1
6266:-0.000384234 0.408163 1
6504:-21.5489 2.81529e-12 1.85708e-06
6505:-12.4136 2.81529e-12 1.85708e-06
6506:-17.2205 2.81529e-12 1.85708e-06
6536:-12.7125 8.09361e-12 3.14876e-06
6537:-7.32689 8.09361e-12 3.14876e-06
6538:-10.1608 8.09361e-12 3.14876e-06
6764:-0.0621295 1.56089e-05 0.006184
6765:-0.0621295 1.56089e-05 0.006184
6766:-0.0621295 1.56089e-05 0.006184
6784:-1.3421 7.26825e-10 2.98389e-05
6785:-0.773723 7.26825e-10 2.98389e-05
6786:-1.0728 7.26825e-10 2.98389e-05
6972:-228.72 1.15133e-12 1.67951e-06
6973:-228.72 1.15133e-12 1.67951e-06
6974:-228.72 1.15133e-12 1.67951e-06
7184:-0.0090917 1.58274e-05 0.00440325
7185:-0.00524028 1.58274e-05 0.00440325
7186:-0.00726686 1.58274e-05 0.00440325
7352:-0.000467589 0.275596 0.821712
7353:-0.000467588 0.275596 0.821712
7354:-0.000467588 0.275596 0.821712
7392:-1.15239 4.53703e-08 0.000333402
7393:-1.15239 4.53703e-08 0.000333402
7394:-1.15239 4.53703e-08 0.000333402
7396:-0.00352678 0.000105218 0.0113531
7397:-0.00203282 0.000105218 0.0113531
7398:-0.00281893 0.000105218 0.0113531
7524:-0.0135879 0.000326167 0.0282685
7525:-0.0135879 0.000326167 0.0282685
7526:-0.0135879 0.000326167 0.0282685
7556:-0.00499552 5.22449e-05 0.008
7557:-0.00287538 5.22449e-05 0.008
7558:-0.00399097 5.22449e-05 0.008
7568:0.0125116 0.000617786 0.0389047
7569:0.0131282 0.000617786 0.0389047
7570:0.0128038 0.000617786 0.0389047
7680:-0.0010287 0.00123557 0.0389047
7681:-0.000592709 0.00123557 0.0389047
7682:-0.000822121 0.00123557 0.0389047
7768:-0.000384234 0.408163 1
7769:-0.000384234 0.408163 1
7770:-0.000384234 0.408163 1
7784:0.110783 7.8821e-06 0.00439444
7785:0.116242 7.8821e-06 0.00439444
7786:0.113369 7.8821e-06 0.00439444
7788:-0.000385972 0.404502 0.995505
7789:-0.000385972 0.404502 0.995505
7790:-0.000385972 0.404502 0.995505
7884:0.0617759 2.53364e-05 0.00787872
7885:0.0648203 2.53364e-05 0.00787872
7886:0.0632184 2.53364e-05 0.00787872
7888:-4.74416e-05 0.580483 0.843263
7889:-2.73236e-05 0.580483 0.843263
7890:-3.79095e-05 0.580483 0.843263
7928:-0.0090917 1.58274e-05 0.00440325
7929:-0.00524028 1.58274e-05 0.00440325
7930:-0.00726686 1.58274e-05 0.00440325
8068:-5.17402e-05 0.487779 0.773
8069:-2.97964e-05 0.487779 0.773
8070:-4.1343e-05 0.487779 0.773
8080:-0.0010287 0.00123557 0.0389047
8081:-0.000592709 0.00123557 0.0389047
8082:-0.000822121 0.00123557 0.0389047
8176:0.12223 6.47274e-06 0.00398224
8177:0.128254 6.47274e-06 0.00398224
8178:0.125084 6.47274e-06 0.00398224
8304:-4.14402e-05 0.762054 0.966187
8305:-2.3885e-05 0.762054 0.966187
8306:-3.31224e-05 0.762054 0.966187
8348:-92.4843 1.52958e-13 4.32867e-07
8349:-53.299 1.52958e-13 4.32867e-07
8350:-73.9178 1.52958e-13 4.32867e-07
8452:-2.4405 2.52302e-10 1.75348e-05
8453:-1.406 2.52302e-10 1.75348e-05
8454:-21.3928 1.26804e-10 1.75348e-05
8488:-7944.27 2.0724e-17 5.03854e-09
8489:-76246.7 1.0362e-17 5.03854e-09
8490:-6349.38 2.0724e-17 5.03854e-09
8544:-258.913 1.95129e-14 1.54607e-07
8545:-2484.75 9.75645e-15 1.54607e-07
8546:-206.938 1.95129e-14 1.54607e-07
8644:-0.912002 1.57016e-09 4.38571e-05
8645:-0.525256 1.57016e-09 4.38571e-05
8646:-0.728758 1.57016e-09 4.38571e-05
8728:-0.00987552 0.000617786 0.0389047
8729:-0.00987552 0.000617786 0.0389047
8730:-0.00987552 0.000617786 0.0389047
9184:0.000629681 0.243889 0.773
9185:0.000660713 0.243889 0.773
9186:0.000644385 0.243889 0.773
9192:-104.95 5.47021e-12 3.66088e-06
9193:-104.95 5.47021e-12 3.66088e-06
9194:-104.95 5.47021e-12 3.66088e-06
9252:-1.07998 1.11993e-09 3.70393e-05
9253:-0.622061 1.11993e-09 3.70393e-05
9254:-0.863011 1.11993e-09 3.70393e-05
9300:-1.43448 6.35592e-10 2.79034e-05
9301:-0.826623 6.35592e-10 2.79034e-05
9302:-1.14647 6.35592e-10 2.79034e-05
9304:-6.11075e-05 0.349995 0.654786
9305:-3.52013e-05 0.349995 0.654786
9306:-4.88329e-05 0.349995 0.654786
9464:-0.000384234 0.408163 1
9465:-0.000384234 0.408163 1
9466:-0.000384234 0.408163 1
9532:-0.0480161 2.61225e-05 0.008
9533:-0.0480161 2.61225e-05 0.008
9534:-0.0480161 2.61225e-05 0.008
9600:-0.0899267 7.44698e-06 0.00427143
9601:-0.0899267 7.44698e-06 0.00427143
9602:-0.0899267 7.44698e-06 0.00427143
9612:-4.00643e-05 0.813065 0.998
9613:-2.30705e-05 0.813065 0.998
9614:-3.20125e-05 0.813065 0.998
9624:-0.976031 6.32313e-08 0.000393595
9625:-0.976031 6.32313e-08 0.000393595
9626:-0.976031 6.32313e-08 0.000393595
9684:-0.000497012 0.243889 0.773
9685:-0.000497012 0.243889 0.773
9686:-0.000497012 0.243889 0.773
9716:-0.885936 1.66857e-09 4.52106e-05
9717:-0.510776 1.66857e-09 4.52106e-05
9718:-0.708181 1.66857e-09 4.52106e-05
9748:-23.4139 1.09888e-10 1.64081e-05
9749:-23.4139 1.09888e-10 1.64081e-05
9750:-23.4139 1.09888e-10 1.64081e-05
9764:-0.0135879 0.000326167 0.0282685
9765:-0.0135879 0.000326167 0.0282685
9766:-0.0135879 0.000326167 0.0282685
9928:-0.000384234 0.408163 1
9929:-0.000384234 0.408163 1
9930:-0.000384234 0.408163 1
10052:-6.11075e-05 0.349995 0.654786
10053:-3.52013e-05 0.349995 0.654786
10054:-4.88329e-05 0.349995 0.654786
10188:-0.131445 7.55651e-08 0.000304249
10189:-0.0756992 7.55651e-08 0.000304249
10190:-0.105032 7.55651e-08 0.000304249
10196:-0.0480161 2.61225e-05 0.008
10197:-0.0480161 2.61225e-05 0.008
10198:-0.0480161 2.61225e-05 0.008
10244:-0.0470366 5.89975e-07 0.000850129
10245:-0.0270794 5.89975e-07 0.000850129
10246:-0.0375806 5.89975e-07 0.000850129
10388:-1564.45 5.33986e-16 2.5576e-08
10389:-901.323 5.33986e-16 2.5576e-08
10390:-1250.25 5.33986e-16 2.5576e-08
10476:-2.8804 1.81034e-10 1.48532e-05
10477:-1.65925 1.81034e-10 1.48532e-05
10478:-2.30181 1.81034e-10 1.48532e-05
10656:-0.0133548 7.34694e-06 0.003
10657:-0.00770172 7.34694e-06 0.003
10658:-0.0106763 7.34694e-06 0.003
10736:-5.35666e-05 0.454893 0.746488
10737:-3.08445e-05 0.454893 0.746488
10738:-4.28006e-05 0.454893 0.746488
10756:-4.54806 6.31909e-11 8.79823e-06
10757:-2.62003 6.31909e-11 8.79823e-06
10758:-3.63454 6.31909e-11 8.79823e-06
10792:0.0004868 0.408163 1
10793:0.00051079 0.408163 1
10794:0.000498167 0.408163 1
10868:-0.0117734 9.41957e-06 0.00339691
10869:-0.00678031 9.41957e-06 0.00339691
10870:-0.00940764 9.41957e-06 0.00339691
10900:-16.1998 4.9855e-12 2.47128e-06
10901:-9.33707 4.9855e-12 2.47128e-06
10902:-12.9482 4.9855e-12 2.47128e-06
10992:-0.343037 1.10757e-08 0.000116481
10993:-0.197417 1.10757e-08 0.000116481
10994:-0.274041 1.10757e-08 0.000116481
11008:-0.487199 5.51247e-09 8.21753e-05
11009:-0.2808 5.51247e-09 8.21753e-05
11010:-0.389405 5.51247e-09 8.21753e-05
11176:-0.23357 2.3956e-08 0.000171307
11177:-0.13457 2.3956e-08 0.000171307
11178:-0.186663 2.3956e-08 0.000171307
11248:-0.00517826 4.87226e-05 0.00772562
11249:-0.00298245 4.87226e-05 0.00772562
11250:-0.00413786 4.87226e-05 0.00772562
11352:-0.102085 1.25328e-07 0.000391825
11353:-0.0587913 1.25328e-07 0.000391825
11354:-0.0815719 1.25328e-07 0.000391825
11364:-4.73659e-05 0.583397 0.845376
11365:-2.73002e-05 0.583397 0.845376
11366:-3.78586e-05 0.583397 0.845376
11372:-0.101587 1.26463e-07 0.000393595
11373:-0.0584922 1.26463e-07 0.000393595
11374:-0.0811681 1.26463e-07 0.000393595
11696:-5.17402e-05 0.487779 0.773
11697:-2.97964e-05 0.487779 0.773
11698:-4.1343e-05 0.487779 0.773
11772:-0.334186 1.1708e-08 0.000119759
11773:-0.192581 1.1708e-08 0.000119759
11774:-0.267092 1.1708e-08 0.000119759
11812:-0.155251 5.42201e-08 0.00025772
11813:-0.0894293 5.42201e-08 0.00025772
11814:-0.124064 5.42201e-08 0.00025772
11852:-0.000384234 0.408163 1
11853:-0.000384234 0.408163 1
11854:-0.000384234 0.408163 1
11948:-5.17402e-05 0.487779 0.773
11949:-2.97964e-05 0.487779 0.773
11950:-4.1343e-05 0.487779 0.773
11992:0.017215 0.000326167 0.0282685
11993:0.0180634 0.000326167 0.0282685
11994:0.017617 0.000326167 0.0282685
12032:-0.014152 6.50588e-06 0.00282307
12033:-0.136071 3.25294e-06 0.00282307
12034:-0.0113052 6.50588e-06 0.00282307
12136:0.162248 3.67347e-06 0.003
12137:0.170244 3.67347e-06 0.003
12138:0.166037 3.67347e-06 0.003
12140:-0.00363704 9.90122e-05 0.0110132
12141:-0.0020971 9.90122e-05 0.0110132
12142:-0.0029074 9.90122e-05 0.0110132
12256:-0.0977647 1.36639e-07 0.000409125
12257:-0.0563024 1.36639e-07 0.000409125
12258:-0.0781194 1.36639e-07 0.000409125
12284:-32.316 1.25401e-12 1.23942e-06
12285:-18.6298 1.25401e-12 1.23942e-06
12286:-25.8313 1.25401e-12 1.23942e-06
12788:-0.000384234 0.408163 1
12789:-0.000384234 0.408163 1
12790:-0.000384234 0.408163 1
13148:-0.00599545 3.63592e-05 0.00667383
13149:-0.00345435 3.63592e-05 0.00667383
13150:-0.00479145 3.63592e-05 0.00667383
13464:-0.630544 3.29386e-09 6.35215e-05
13465:-0.363518 3.29386e-09 6.35215e-05
13466:-0.504024 3.29386e-09 6.35215e-05
13532:0.000629681 0.243889 0.773
13533:0.000660713 0.243889 0.773
13534:0.000644385 0.243889 0.773
13540:-0.000384894 0.406532 0.998
13541:-0.000384894 0.406532 0.998
13542:-0.000384894 0.406532 0.998
13548:-0.0964771 6.47274e-06 0.00398224
13549:-0.0964771 6.47274e-06 0.00398224
13550:-0.0964771 6.47274e-06 0.00398224
13760:-0.0133548 7.34694e-06 0.003
13761:-0.00770172 7.34694e-06 0.003
13762:-0.0106763 7.34694e-06 0.003
13812:-0.630544 3.29386e-09 6.35215e-05
13813:-0.363518 3.29386e-09 6.35215e-05
13814:-0.504024 3.29386e-09 6.35215e-05
14024:-0.0010287 0.00123557 0.0389047
14025:-0.000592709 0.00123557 0.0389047
14026:-0.000822121 0.00123557 0.0389047
14044:0.0608333 2.61225e-05 0.008
14045:0.0638313 2.61225e-05 0.008
14046:0.0622538 2.61225e-05 0.008
14076:-0.520454 4.83179e-09 7.69347e-05
14077:-0.300017 4.83179e-09 7.69347e-05
14078:-0.416009 4.83179e-09 7.69347e-05
14084:-0.104845 1.19004e-07 0.000381812
14085:-0.0604177 1.19004e-07 0.000381812
14086:-0.0837951 1.19004e-07 0.000381812
14152:-0.0103453 1.2182e-05 0.00386302
14153:-0.00595461 1.2182e-05 0.00386302
14154:-0.0994378 6.09099e-06 0.00386302
14204:-0.0103973 1.20727e-05 0.00384566
14205:-0.00598655 1.20727e-05 0.00384566
14206:-0.00830746 1.20727e-05 0.00384566
14312:3.91012 6.32393e-09 0.000124473
14313:4.10282 6.32393e-09 0.000124473
14314:4.00142 6.32393e-09 0.000124473
14324:-60.9106 3.52798e-13 6.57402e-07
14325:-35.1074 3.52798e-13 6.57402e-07
14326:-48.6848 3.52798e-13 6.57402e-07
14368:-4.72422e-05 0.585738 0.847071
14369:-2.72177e-05 0.585738 0.847071
14370:-3.77544e-05 0.585738 0.847071
14396:-0.000497012 0.243889 0.773
14397:-0.000497012 0.243889 0.773
14398:-0.000497012 0.243889 0.773
14440:0.017215 0.000326167 0.0282685
14441:0.0180634 0.000326167 0.0282685
14442:0.017617 0.000326167 0.0282685
14536:0.0004868 0.408163 1
14537:0.00051079 0.408163 1
14538:0.000498167 0.408163 1
14552:-1153.86 9.80525e-16 3.46575e-08
14553:-664.432 9.80525e-16 3.46575e-08
14554:-921.966 9.80525e-16 3.46575e-08
14592:-110.531 1.06788e-13 3.61685e-07
14593:-1062.17 5.33942e-14 3.61685e-07
14594:-88.31 1.06788e-13 3.61685e-07
14632:0.000501756 0.384091 0.970063
14633:0.000526484 0.384091 0.970063
14634:0.000513472 0.384091 0.970063
14672:-1.46092 2.82171e-08 0.000262929
14673:-1.46092 2.82171e-08 0.000262929
14674:-1.46092 2.82171e-08 0.000262929
14692:-555.523 4.23184e-15 7.2e-08
14693:-319.909 4.23184e-15 7.2e-08
14694:-443.887 4.23184e-15 7.2e-08
14908:-0.0480161 2.61225e-05 0.008
14909:-0.0480161 2.61225e-05 0.008
14910:-0.0480161 2.61225e-05 0.008
14984:-0.0413123 3.53107e-05 0.00930113
14985:-0.0413123 3.53107e-05 0.00930113
14986:-0.0413123 3.53107e-05 0.00930113
15036:-0.0414887 3.49939e-05 0.00925933
15037:-0.0414887 3.49939e-05 0.00925933
15038:-0.0414887 3.49939e-05 0.00925933
15064:-4.03754e-05 0.801747 0.99103
15065:-2.32581e-05 0.801747 0.99103
15066:-3.2265e-05 0.801747 0.99103
15084:-4.02319e-05 0.809004 0.995505
15085:-2.31932e-05 0.809004 0.995505
15086:-3.21588e-05 0.809004 0.995505
15104:-1.14446 9.97017e-10 3.49478e-05
15105:-10.9922 4.98509e-10 3.49478e-05
15106:-0.914513 9.97017e-10 3.49478e-05
15136:-0.000384234 0.408163 1
15137:-0.000384234 0.408163 1
15138:-0.000384234 0.408163 1
15204:-5.74995 3.95101e-11 6.957e-06
15205:-3.31214 3.95101e-11 6.957e-06
15206:-4.59489 3.95101e-11 6.957e-06
15228:-0.0135879 0.000326167 0.0282685
15229:-0.0135879 0.000326167 0.0282685
15230:-0.0135879 0.000326167 0.0282685
15240:1.15401 7.26016e-08 0.000421751
15241:1.21088 7.26016e-08 0.000421751
15242:1.18095 7.26016e-08 0.000421751
15280:0.000501756 0.384091 0.970063
15281:0.000526484 0.384091 0.970063
15282:0.000513472 0.384091 0.970063
15692:-0.101587 1.26463e-07 0.000393595
15693:-0.0584922 1.26463e-07 0.000393595
15694:-0.0811681 1.26463e-07 0.000393595
15716:-0.00430212 7.06213e-05 0.00930113
15717:-0.00247818 7.06213e-05 0.00930113
15718:-0.00343792 7.06213e-05 0.00930113
15728:-0.743636 2.36344e-09 5.38072e-05
15729:-0.428428 2.36344e-09 5.38072e-05
15730:-0.594287 2.36344e-09 5.38072e-05
15756:-1.17491 9.4696e-10 3.40592e-05
15757:-0.676963 9.4696e-10 3.40592e-05
15758:-0.938976 9.4696e-10 3.40592e-05
15760:72072.6 1.86122e-17 6.75277e-09
15761:75624.5 1.86122e-17 6.75277e-09
15762:73755.6 1.86122e-17 6.75277e-09
15796:-3.63757 4.55125e-09 0.000105596
15797:-3.63757 4.55125e-09 0.000105596
15798:-3.63757 4.55125e-09 0.000105596
15852:-10769.7 1.12675e-17 3.71519e-09
15853:-6203.9 1.12675e-17 3.71519e-09
15854:-8606.37 1.12675e-17 3.71519e-09
15872:0.000814775 0.145731 0.597529
15873:0.000854929 0.145731 0.597529
15874:0.0008338 0.145731 0.597529
16060:0.0428748 5.26089e-05 0.0113531
16061:0.0449878 5.26089e-05 0.0113531
16062:0.043876 5.26089e-05 0.0113531
16088:-224.725 2.58279e-14 1.77874e-07
16089:-129.374 2.58279e-14 1.77874e-07
16090:-179.547 2.58279e-14 1.77874e-07
16120:0.11053 7.91372e-06 0.00440325
16121:0.115977 7.91372e-06 0.00440325
16122:0.113111 7.91372e-06 0.00440325
16136:72072.6 1.86122e-17 6.75277e-09
16137:75624.5 1.86122e-17 6.75277e-09
16138:73755.6 1.86122e-17 6.75277e-09
16148:-0.440746 6.73394e-09 9.08244e-05
16149:-0.254024 6.73394e-09 9.08244e-05
16150:-0.352275 6.73394e-09 9.08244e-05
16220:1.15914 7.19504e-08 0.000419855
16221:1.21626 7.19504e-08 0.000419855
16222:1.1862 7.19504e-08 0.000419855
16232:1.15401 7.26016e-08 0.000421751
16233:1.21088 7.26016e-08 0.000421751
16234:1.18095 7.26016e-08 0.000421751
16256:-0.355779 1.03449e-08 0.000112572
16257:-0.205102 1.03449e-08 0.000112572
16258:-0.284386 1.03449e-08 0.000112572
16492:-0.48795 5.49044e-09 8.20109e-05
16493:-0.281152 5.49044e-09 8.20109e-05
16494:-0.389967 5.49044e-09 8.20109e-05
16544:-30098.5 1.43964e-18 1.32799e-09
16545:-289287 7.19822e-19 1.32799e-09
16546:-24046.4 1.43964e-18 1.32799e-09
16672:-10.3717 5.59964e-10 3.70393e-05
16673:-10.3717 5.59964e-10 3.70393e-05
16674:-10.3717 5.59964e-10 3.70393e-05
16736:-17.2232 4.40507e-12 2.32297e-06
16737:-9.92006 4.40507e-12 2.32297e-06
16738:-13.7629 4.40507e-12 2.32297e-06
16760:-0.00141796 0.000649728 0.028212
16761:-0.000816686 0.000649728 0.028212
16762:-0.00113307 0.000649728 0.028212
16768:-0.0116569 0.000443279 0.032955
16769:-0.0116569 0.000443279 0.032955
16770:-0.0116569 0.000443279 0.032955
16944:-2.43723 2.19776e-10 1.64081e-05
16945:-1.40346 2.19776e-10 1.64081e-05
16946:-1.94742 2.19776e-10 1.64081e-05
17032:0.0004868 0.408163 1
17033:0.00051079 0.408163 1
17034:0.000498167 0.408163 1
17052:-0.0905533 1.59255e-07 0.000441687
17053:-0.0521408 1.59255e-07 0.000441687
17054:-0.072353 1.59255e-07 0.000441687
17056:-312.134 1.34411e-14 1.28317e-07
17057:-2993.97 6.72053e-15 1.28317e-07
17058:-249.512 1.34411e-14 1.28317e-07
17132:-0.0090917 1.58274e-05 0.00440325
17133:-0.00524028 1.58274e-05 0.00440325
17134:-0.00726686 1.58274e-05 0.00440325
17136:-0.0133548 7.34694e-06 0.003
17137:-0.00770172 7.34694e-06 0.003
17138:-0.0106763 7.34694e-06 0.003
17160:-40723.7 7.86762e-19 9.81724e-10
17161:-391335 3.93381e-19 9.81724e-10
17162:-32536.8 7.86762e-19 9.81724e-10
17560:-0.0480161 2.61225e-05 0.008
17561:-0.0480161 2.61225e-05 0.008
17562:-0.0480161 2.61225e-05 0.008
17640:-0.000384234 0.408163 1
17641:-0.000384234 0.408163 1
17642:-0.000384234 0.408163 1
17700:-1102.28 1.07541e-15 3.62958e-08
17701:-634.884 1.07541e-15 3.62958e-08
17702:-880.824 1.07541e-15 3.62958e-08
17752:0.000592405 0.275596 0.821712
17753:0.0006216 0.275596 0.821712
17754:0.000606238 0.275596 0.821712
17756:-4.82063 2.59368e-09 7.97152e-05
17757:-4.82063 2.59368e-09 7.97152e-05
17758:-4.82063 2.59368e-09 7.97152e-05
17760:-0.00236811 0.00023291 0.0168913
17761:-0.00136384 0.00023291 0.0168913
17762:-0.00189228 0.00023291 0.0168913
17920:-0.0374447 9.29125e-07 0.00106685
17921:-0.0215448 9.29125e-07 0.00106685
17922:-0.0299111 9.29125e-07 0.00106685
18060:-0.420199 7.42274e-09 9.53564e-05
18061:-0.242336 7.42274e-09 9.53564e-05
18062:-0.335926 7.42274e-09 9.53564e-05
18072:-0.000497012 0.243889 0.773
18073:-0.000497012 0.243889 0.773
18074:-0.000497012 0.243889 0.773
18088:-0.000384234 0.408163 1
18089:-0.000384234 0.408163 1
18090:-0.000384234 0.408163 1
18140:0.000574639 0.292869 0.847071
18141:0.000602959 0.292869 0.847071
18142:0.000588057 0.292869 0.847071
18256:-0.0100472 1.29455e-05 0.00398224
18257:-0.00578775 1.29455e-05 0.00398224
18258:-0.00802903 1.29455e-05 0.00398224
18308:-0.114131 1.00586e-07 0.000351025
18309:-0.0658185 1.00586e-07 0.000351025
18310:-0.0912402 1.00586e-07 0.000351025
18392:-0.487199 5.51247e-09 8.21753e-05
18393:-0.2808 5.51247e-09 8.21753e-05
18394:-0.389405 5.51247e-09 8.21753e-05
18536:-0.00919709 0.000669562 0.0389047
18537:-0.00907587 0.000669562 0.0389047
18538:-0.00913965 0.000669562 0.0389047
18568:-0.001414 0.000652334 0.0282685
18569:-0.000814044 0.000652334 0.0282685
18570:-0.00112974 0.000652334 0.0282685
18820:-0.575857 3.93955e-09 6.9469e-05
18821:-0.331635 3.93955e-09 6.9469e-05
18822:-0.460142 3.93955e-09 6.9469e-05
18972:-281054 1.65574e-20 1.42418e-10
18973:-161979 1.65574e-20 1.42418e-10
18974:-224635 1.65574e-20 1.42418e-10
19012:-0.00352678 0.000105218 0.0113531
19013:-0.00203282 0.000105218 0.0113531
19014:-0.00281893 0.000105218 0.0113531
19048:-5.90676e-05 0.483453 0.769525
19049:-3.70264e-05 0.483453 0.769525
19050:-4.86242e-05 0.483453 0.769525
19056:-1.19706 4.20403e-08 0.000320934
19057:-1.19706 4.20403e-08 0.000320934
19058:-1.19706 4.20403e-08 0.000320934
19172:-0.939091 6.83197e-08 0.000409125
19173:-0.939091 6.83197e-08 0.000409125
19174:-0.939091 6.83197e-08 0.000409125
19184:-0.910864 7.26016e-08 0.000421751
19185:-0.910864 7.26016e-08 0.000421751
19186:-0.910864 7.26016e-08 0.000421751
19204:-0.0107363 1.13566e-05 0.00372986
19205:-0.00618952 1.13566e-05 0.00372986
19206:-0.00858199 1.13566e-05 0.00372986
19284:-0.34441 1.10204e-08 0.000116189
19285:-0.198423 1.10204e-08 0.000116189
19286:-0.27524 1.10204e-08 0.000116189
19340:0.000487635 0.406532 0.998
19341:0.000511667 0.406532 0.998
19342:0.000499021 0.406532 0.998
19536:-4.03754e-05 0.801747 0.99103
19537:-2.32581e-05 0.801747 0.99103
19538:-3.2265e-05 0.801747 0.99103
19556:-4.02319e-05 0.809004 0.995505
19557:-2.31932e-05 0.809004 0.995505
19558:-3.21588e-05 0.809004 0.995505
19612:-5.17402e-05 0.487779 0.773
19613:-2.97964e-05 0.487779 0.773
19614:-4.1343e-05 0.487779 0.773
19632:0.000501756 0.384091 0.970063
19633:0.000526484 0.384091 0.970063
19634:0.000513472 0.384091 0.970063
19652:-1.11343 1.05388e-09 3.59305e-05
19653:-0.64129 1.05388e-09 3.59305e-05
19654:-0.889724 1.05388e-09 3.59305e-05
19712:-0.000453567 0.292869 0.847071
19713:-0.000453567 0.292869 0.847071
19714:-0.000453567 0.292869 0.847071
19792:-0.132253 7.47575e-08 0.000302618
19793:-0.0762091 7.47575e-08 0.000302618
19794:-0.105699 7.47575e-08 0.000302618
20012:-42.6808 3.30612e-11 9e-06
20013:-42.6808 3.30612e-11 9e-06
20014:-42.6808 3.30612e-11 9e-06
20068:-1.66681 4.70204e-10 2.4e-05
20069:-0.959888 4.70204e-10 2.4e-05
20070:-1.33186 4.70204e-10 2.4e-05
20104:-0.013367 7.31758e-06 0.002994
20105:-0.00770244 7.31758e-06 0.002994
20106:-0.0106831 7.31758e-06 0.002994
20192:-4.0144e-05 0.809816 0.996004
20193:-2.31127e-05 0.809816 0.996004
20194:-3.20745e-05 0.809816 0.996004
20208:-11.8835 9.24723e-12 3.36569e-06
20209:-6.84412 9.24723e-12 3.36569e-06
20210:-9.4958 9.24723e-12 3.36569e-06
20296:-9.38011 6.84625e-10 4.09552e-05
20297:-9.38011 6.84625e-10 4.09552e-05
20298:-9.38011 6.84625e-10 4.09552e-05
20324:-0.355779 1.03449e-08 0.000112572
20325:-0.205102 1.03449e-08 0.000112572
20326:-0.284386 1.03449e-08 0.000112572
20424:-21.5489 2.81529e-12 1.85708e-06
20425:-12.4136 2.81529e-12 1.85708e-06
20426:-17.2205 2.81529e-12 1.85708e-06
20488:-4.67533 2.75623e-09 8.21753e-05
20489:-4.67533 2.75623e-09 8.21753e-05
20490:-4.67533 2.75623e-09 8.21753e-05
20620:1.15401 7.26016e-08 0.000421751
20621:1.21088 7.26016e-08 0.000421751
20622:1.18095 7.26016e-08 0.000421751
20664:1.15914 7.19504e-08 0.000419855
20665:1.21626 7.19504e-08 0.000419855
20666:1.1862 7.19504e-08 0.000419855
20720:-2480.23 9.79559e-15 1.54917e-07
20721:-2480.23 9.79559e-15 1.54917e-07
20722:-2480.23 9.79559e-15 1.54917e-07
20816:-0.00501749 5.20361e-05 0.007984
20817:-0.00289351 5.20361e-05 0.007984
20818:-0.00401113 5.20361e-05 0.007984
20904:-209720 2.97464e-20 1.90891e-10
20905:-120855 2.97464e-20 1.90891e-10
20906:-167615 2.97464e-20 1.90891e-10
20992:0.012736 2.6182e-05 0.008
20993:0.0157307 2.6182e-05 0.008
20994:0.0141549 2.6182e-05 0.008
21080:0.000489002 0.404502 0.995505
21081:0.000513101 0.404502 0.995505
21082:0.00050042 0.404502 0.995505
21112:-10.9385 1.08967e-11 3.65356e-06
21113:-105.155 5.44835e-12 3.65356e-06
21114:-8.73853 1.08967e-11 3.65356e-06
21184:3.91012 6.32393e-09 0.000124473
21185:4.10282 6.32393e-09 0.000124473
21186:4.00142 6.32393e-09 0.000124473
21476:-0.00501749 5.20361e-05 0.007984
21477:-0.00289351 5.20361e-05 0.007984
21478:-0.00401113 5.20361e-05 0.007984
21512:-0.97824 6.29787e-08 0.000392808
21513:-0.97824 6.29787e-08 0.000392808
21514:-0.97824 6.29787e-08 0.000392808
21520:-0.00937546 1.48345e-05 0.00426289
21521:-0.0901107 7.41723e-06 0.00426289
21522:-0.00749027 1.48345e-05 0.00426289
21584:0.0004868 0.408163 1
21585:0.00051079 0.408163 1
21586:0.000498167 0.408163 1
21616:-113.977 1.00576e-13 3.51006e-07
21617:-65.65 1.00576e-13 3.51006e-07
21618:-91.0789 1.00576e-13 3.51006e-07
21676:-31.787 1.29511e-12 1.25957e-06
21677:-18.3224 1.29511e-12 1.25957e-06
21678:-25.4074 1.29511e-12 1.25957e-06
21692:-5.22268e-05 0.479067 0.766066
21693:-3.00884e-05 0.479067 0.766066
21694:-4.17374e-05 0.479067 0.766066
21744:0.017215 0.000326167 0.0282685
21745:0.0180634 0.000326167 0.0282685
21746:0.017617 0.000326167 0.0282685
21776:0.0177495 0.00030693 0.0274222
21777:0.0186242 0.00030693 0.0274222
21778:0.018164 0.00030693 0.0274222
22072:-0.00456779 6.26195e-05 0.00875836
22073:-0.00263107 6.26195e-05 0.00875836
22074:-0.00365015 6.26195e-05 0.00875836
22204:-0.00504196 5.13118e-05 0.00792824
22205:-0.00290219 5.13118e-05 0.00792824
22206:-0.00402812 5.13118e-05 0.00792824
22216:0.0004868 0.408163 1
22217:0.00051079 0.408163 1
22218:0.000498167 0.408163 1
22448:40.829 5.80167e-11 1.19223e-05
22449:42.8411 5.80167e-11 1.19223e-05
22450:41.7823 5.80167e-11 1.19223e-05
22532:-1.71594 4.42472e-10 2.32815e-05
22533:-0.987438 4.42472e-10 2.32815e-05
22534:-1.37077 4.42472e-10 2.32815e-05
22540:0.0428748 5.26089e-05 0.0113531
22541:0.0449878 5.26089e-05 0.0113531
22542:0.043876 5.26089e-05 0.0113531
22620:-0.000497012 0.243889 0.773
22621:-0.000497012 0.243889 0.773
22622:-0.000497012 0.243889 0.773
22628:-248.408 2.11677e-14 1.61029e-07
22629:-143.077 2.11677e-14 1.61029e-07
22630:-198.501 2.11677e-14 1.61029e-07
22636:-0.000384234 0.408163 1
22637:-0.000384234 0.408163 1
22638:-0.000384234 0.408163 1
22660:-0.00992154 0.000612244 0.0387298
22661:-0.00992154 0.000612244 0.0387298
22662:-0.00992154 0.000612244 0.0387298
22672:-0.00647577 3.12178e-05 0.006184
22673:-0.00373304 3.12178e-05 0.006184
22674:-0.00517624 3.12178e-05 0.006184
22704:-0.378612 9.10251e-09 0.000105596
22705:-0.218004 9.10251e-09 0.000105596
22706:-0.302514 9.10251e-09 0.000105596
22712:-0.00591224 3.73374e-05 0.00676301
22713:-0.0034037 3.73374e-05 0.00676301
22714:-0.00472367 3.73374e-05 0.00676301
22856:0.11053 7.91372e-06 0.00440325
22857:0.115977 7.91372e-06 0.00440325
22858:0.113111 7.91372e-06 0.00440325
23044:-0.0177668 4.13109e-06 0.00224958
23045:-0.0102249 4.13109e-06 0.00224958
23046:-0.0141934 4.13109e-06 0.00224958
23132:-0.0480161 2.61225e-05 0.008
23133:-0.0480161 2.61225e-05 0.008
23134:-0.0480161 2.61225e-05 0.008
23184:-0.625447 3.34367e-09 6.4e-05
23185:-0.360444 3.34367e-09 6.4e-05
23186:-0.499886 3.34367e-09 6.4e-05
23224:-0.0010287 0.00123557 0.0389047
23225:-0.000592709 0.00123557 0.0389047
23226:-0.000822121 0.00123557 0.0389047
23284:-2.61154 1.91411e-10 1.53127e-05
23285:-1.50372 1.91411e-10 1.53127e-05
23286:-2.08664 1.91411e-10 1.53127e-05
23344:-11877.3 4.26987e-16 3.23437e-08
23345:-11877.3 4.26987e-16 3.23437e-08
23346:-11877.3 4.26987e-16 3.23437e-08
23440:-0.00987552 0.000617786 0.0389047
23441:-0.00987552 0.000617786 0.0389047
23442:-0.00987552 0.000617786 0.0389047
23472:0.000577297 0.290242 0.843263
23473:0.000605747 0.290242 0.843263
23474:0.000590777 0.290242 0.843263
23504:0.11053 7.91372e-06 0.00440325
23505:0.115977 7.91372e-06 0.00440325
23506:0.113111 7.91372e-06 0.00440325
23528:0.0718338 1.87436e-05 0.00677656
23529:0.0753739 1.87436e-05 0.00677656
23530:0.0735111 1.87436e-05 0.00677656
23612:1.23657 6.32313e-08 0.000393595
23613:1.29751 6.32313e-08 0.000393595
23614:1.26544 6.32313e-08 0.000393595
23636:-241.217 2.24944e-14 1.65999e-07
23637:-139.024 2.24944e-14 1.65999e-07
23638:-192.797 2.24944e-14 1.65999e-07
23676:0.000629681 0.243889 0.773
23677:0.000660713 0.243889 0.773
23678:0.000644385 0.243889 0.773
23688:-0.00145931 0.000613861 0.0274222
23689:-0.000840791 0.000613861 0.0274222
23690:-0.00116625 0.000613861 0.0274222
23844:-0.0090917 1.58274e-05 0.00440325
23845:-0.00524028 1.58274e-05 0.00440325
23846:-0.00726686 1.58274e-05 0.00440325
24028:-11085.1 4.90262e-16 3.46575e-08
24029:-11085.1 4.90262e-16 3.46575e-08
24030:-11085.1 4.90262e-16 3.46575e-08
24152:-103.531 1.22055e-13 3.86675e-07
24153:-993.549 6.10277e-14 3.86675e-07
24154:-82.7493 1.22055e-13 3.86675e-07
24164:-222.183 2.65479e-14 1.80336e-07
24165:-128.12 2.65479e-14 1.80336e-07
24166:-177.615 2.65479e-14 1.80336e-07
24188:0.0608333 2.61225e-05 0.008
24189:0.0638313 2.61225e-05 0.008
24190:0.0622538 2.61225e-05 0.008
24376:-0.0872421 7.91372e-06 0.00440325
24377:-0.0872421 7.91372e-06 0.00440325
24378:-0.0872421 7.91372e-06 0.00440325
24440:-4.67533 2.75623e-09 8.21753e-05
24441:-4.67533 2.75623e-09 8.21753e-05
24442:-4.67533 2.75623e-09 8.21753e-05
24572:-0.0135879 0.000326167 0.0282685
24573:-0.0135879 0.000326167 0.0282685
24574:-0.0135879 0.000326167 0.0282685
24868:-412384 7.68577e-21 9.70313e-11
24869:-3.95942e+06 3.84288e-21 9.70313e-11
24870:-329560 7.68577e-21 9.70313e-11
24896:-0.0413123 3.53107e-05 0.00930113
24897:-0.0413123 3.53107e-05 0.00930113
24898:-0.0413123 3.53107e-05 0.00930113
24996:-0.104845 1.19004e-07 0.000381812
24997:-0.0604177 1.19004e-07 0.000381812
24998:-0.0837951 1.19004e-07 0.000381812
25100:0.017215 0.000326167 0.0282685
25101:0.0180634 0.000326167 0.0282685
25102:0.017617 0.000326167 0.0282685
25156:5.92333 2.75623e-09 8.21753e-05
25157:6.21525 2.75623e-09 8.21753e-05
25158:6.06165 2.75623e-09 8.21753e-05
25160:-2.44455 2.18898e-10 1.63753e-05
25161:-1.40881 2.18898e-10 1.63753e-05
25162:-1.95381 2.18898e-10 1.63753e-05
25380:-0.00103342 0.00122449 0.0387298
25381:-0.000595395 0.00122449 0.0387298
25382:-0.000825879 0.00122449 0.0387298
25452:-0.00103087 0.00123063 0.0388269
25453:-0.00059404 0.00123063 0.0388269
25454:-0.000823895 0.00123063 0.0388269
25516:-4.67533 2.75623e-09 8.21753e-05
25517:-4.67533 2.75623e-09 8.21753e-05
25518:-4.67533 2.75623e-09 8.21753e-05
25584:-0.0339027 5.23987e-05 0.0113303
25585:-0.0339027 5.23987e-05 0.0113303
25586:-0.0339027 5.23987e-05 0.0113303
25676:-2.98123 6.78086e-09 0.000128892
25677:-2.98123 6.78086e-09 0.000128892
25678:-2.98123 6.78086e-09 0.000128892
25816:3142.29 9.79559e-15 1.54917e-07
25817:3297.15 9.79559e-15 1.54917e-07
25818:3215.66 9.79559e-15 1.54917e-07
25900:-0.0117571 9.45736e-06 0.00340371
25901:-0.00677453 9.45736e-06 0.00340371
25902:-0.00939632 9.45736e-06 0.00340371
26044:-57.8203 3.9101e-13 6.92089e-07
26045:-555.211 1.95505e-13 6.92089e-07
26046:-46.2061 3.9101e-13 6.92089e-07
26068:1.46 4.53703e-08 0.000333402
26069:1.53195 4.53703e-08 0.000333402
26070:1.49409 4.53703e-08 0.000333402
26176:3142.29 9.79559e-15 1.54917e-07
26177:3297.15 9.79559e-15 1.54917e-07
26178:3215.66 9.79559e-15 1.54917e-07
26256:-0.128063 3.67347e-06 0.003
26257:-0.128063 3.67347e-06 0.003
26258:-0.128063 3.67347e-06 0.003
26376:-9.87753 1.34289e-11 4.05591e-06
26377:-5.69535 1.34289e-11 4.05591e-06
26378:-7.89597 1.34289e-11 4.05591e-06
26556:-0.598332 3.65062e-09 6.68731e-05
26557:-5.74549 1.82531e-09 6.68731e-05
26558:-0.478144 3.65062e-09 6.68731e-05
26672:-27724.3 1.69491e-18 1.44093e-09
26673:-15953.3 1.69491e-18 1.44093e-09
26674:-22147 1.69491e-18 1.44093e-09
26732:0.0523399 3.53107e-05 0.00930113
26733:0.0549194 3.53107e-05 0.00930113
26734:0.0535621 3.53107e-05 0.00930113
26744:-224.725 2.58279e-14 1.77874e-07
26745:-129.374 2.58279e-14 1.77874e-07
26746:-179.547 2.58279e-14 1.77874e-07
26848:-0.48795 5.49044e-09 8.20109e-05
26849:-0.281152 5.49044e-09 8.20109e-05
26850:-0.389967 5.49044e-09 8.20109e-05
26872:-0.0500829 5.21287e-07 0.00079911
26873:-0.0288575 5.21287e-07 0.00079911
26874:-0.0400261 5.21287e-07 0.00079911
26932:-33.9467 1.13362e-12 1.17842e-06
26933:-19.5543 1.13362e-12 1.17842e-06
26934:-27.1274 1.13362e-12 1.17842e-06
27004:-11.871 9.29301e-12 3.37401e-06
27005:-6.84338 9.29301e-12 3.37401e-06
27006:-9.48886 9.29301e-12 3.37401e-06
27088:-0.440746 6.73394e-09 9.08244e-05
27089:-0.254024 6.73394e-09 9.08244e-05
27090:-0.352275 6.73394e-09 9.08244e-05
27268:-0.00121584 0.000883015 0.0328891
27269:-0.000700046 0.000883015 0.0328891
27270:-0.00097145 0.000883015 0.0328891
27352:-0.0010287 0.00123557 0.0389047
27353:-0.000592709 0.00123557 0.0389047
27354:-0.000822121 0.00123557 0.0389047
27516:-0.122665 8.67632e-08 0.000326014
27517:-0.0706362 8.67632e-08 0.000326014
27518:-0.0980133 8.67632e-08 0.000326014
27564:6.99182 1.97768e-09 6.96082e-05
27565:7.33639 1.97768e-09 6.96082e-05
27566:7.15509 1.97768e-09 6.96082e-05
27588:-0.00430212 7.06213e-05 0.00930113
27589:-0.00247818 7.06213e-05 0.00930113
27590:-0.00343792 7.06213e-05 0.00930113
27600:-0.0045563 6.28707e-05 0.00877591
27601:-0.00262317 6.28707e-05 0.00877591
27602:-0.00364036 6.28707e-05 0.00877591
27628:-6194.62 3.4047e-17 6.45814e-09
27629:-3568.75 3.4047e-17 6.45814e-09
27630:-4950.46 3.4047e-17 6.45814e-09
27688:-0.000384234 0.408163 1
27689:-0.000384234 0.408163 1
27690:-0.000384234 0.408163 1
27708:1.23657 6.32313e-08 0.000393595
27709:1.29751 6.32313e-08 0.000393595
27710:1.26544 6.32313e-08 0.000393595
27752:-55.5458 4.24552e-13 7.21163e-07
27753:-532.716 2.12276e-13 7.21163e-07
27754:-44.4037 4.24552e-13 7.21163e-07
27772:-8.66366e-05 0.174157 0.46189
27773:-4.99101e-05 0.174157 0.46189
27774:-6.92352e-05 0.174157 0.46189
27804:-0.0872421 7.91372e-06 0.00440325
27805:-0.0872421 7.91372e-06 0.00440325
27806:-0.0872421 7.91372e-06 0.00440325
27848:-0.554198 4.2532e-09 7.21815e-05
27849:-5.32135 2.1266e-09 7.21815e-05
27850:-0.442884 4.2532e-09 7.21815e-05
27860:-0.0907494 1.58619e-07 0.000440804
27861:-0.0522678 1.58619e-07 0.000440804
27862:-0.0725164 1.58619e-07 0.000440804
27876:1974.28 2.48061e-14 2.46526e-07
27877:2071.58 2.48061e-14 2.46526e-07
27878:2020.38 2.48061e-14 2.46526e-07
27904:-4.00125e-05 0.816326 1
27905:-2.30485e-05 0.816326 1
27906:-3.19748e-05 0.816326 1
27980:-0.138291 1.6575e-07 0.000393595
27981:-0.0796614 1.6575e-07 0.000393595
27982:-0.110512 1.6575e-07 0.000393595
28264:-5355.39 4.54728e-17 7.46352e-09
28265:-51474.6 2.27364e-17 7.46352e-09
28266:-4278.49 4.54728e-17 7.46352e-09
28280:-1153.86 9.80525e-16 3.46575e-08
28281:-664.432 9.80525e-16 3.46575e-08
28282:-921.966 9.80525e-16 3.46575e-08
28360:-0.00573359 3.97095e-05 0.00697454
28361:-0.0550805 1.98548e-05 0.00697454
28362:-0.00458133 3.97095e-05 0.00697454
28384:-8.36019 1.87155e-11 4.78816e-06
28385:-4.81701 1.87155e-11 4.78816e-06
28386:-80.2562 9.35776e-12 4.78816e-06
28492:-0.00188896 0.0003668 0.0211974
28493:-0.00108882 0.0003668 0.0211974
28494:-0.00150984 0.0003668 0.0211974
28628:-0.00987552 0.000617786 0.0389047
28629:-0.00987552 0.000617786 0.0389047
28630:-0.00987552 0.000617786 0.0389047
28704:-3.03622 1.41878e-10 1.31833e-05
28705:-1.7494 1.41878e-10 1.31833e-05
28706:-2.42651 1.41878e-10 1.31833e-05
28732:-0.00443355 6.64562e-05 0.00902268
28733:-0.00255334 6.64562e-05 0.00902268
28734:-0.00354268 6.64562e-05 0.00902268
28892:-0.0480161 2.61225e-05 0.008
28893:-0.0480161 2.61225e-05 0.008
28894:-0.0480161 2.61225e-05 0.008
28900:-303.619 6.53415e-13 1.26525e-06
28901:-303.619 6.53415e-13 1.26525e-06
28902:-303.619 6.53415e-13 1.26525e-06
28944:-0.00987552 0.000617786 0.0389047
28945:-0.00987552 0.000617786 0.0389047
28946:-0.00987552 0.000617786 0.0389047
29112:-12.7125 8.09361e-12 3.14876e-06
29113:-7.32689 8.09361e-12 3.14876e-06
29114:-10.1608 8.09361e-12 3.14876e-06
29128:-0.000499169 0.241702 0.769525
29129:-0.000499169 0.241702 0.769525
29130:-0.000499169 0.241702 0.769525
29172:-0.00499552 5.22449e-05 0.008
29173:-0.00287538 5.22449e-05 0.008
29174:-0.00399097 5.22449e-05 0.008
29268:54.0738 3.30612e-11 9e-06
29269:56.7386 3.30612e-11 9e-06
29270:55.3364 3.30612e-11 9e-06
29316:-1.07998 1.11993e-09 3.70393e-05
29317:-0.622061 1.11993e-09 3.70393e-05
29318:-0.863011 1.11993e-09 3.70393e-05
29340:-0.0876513 7.84274e-06 0.00438346
29341:-0.0876501 7.84274e-06 0.00438346
29342:-0.0876507 7.84274e-06 0.00438346
29352:-0.0872421 7.91372e-06 0.00440325
29353:-0.0872421 7.91372e-06 0.00440325
29354:-0.0872421 7.91372e-06 0.00440325
29404:-0.000497012 0.243889 0.773
29405:-0.000497012 0.243889 0.773
29406:-0.000497012 0.243889 0.773
29432:-32.1637 5.82547e-11 1.19467e-05
29433:-32.1637 5.82547e-11 1.19467e-05
29434:-32.1637 5.82547e-11 1.19467e-05
29604:-10.5664 1.16957e-11 3.78514e-06
29605:-6.08604 1.16957e-11 3.78514e-06
29606:-8.44355 1.16957e-11 3.78514e-06
29624:-0.131445 7.55651e-08 0.000304249
29625:-0.0756992 7.55651e-08 0.000304249
29626:-0.105032 7.55651e-08 0.000304249
29640:-0.0482385 2.58881e-05 0.00796404
29641:-0.0482385 2.58881e-05 0.00796404
29642:-0.0482385 2.58881e-05 0.00796404
29684:-5.17402e-05 0.487779 0.773
29685:-2.97964e-05 0.487779 0.773
29686:-4.1343e-05 0.487779 0.773
29800:-0.0153556 5.5503e-06 0.00260751
29801:-0.00885008 5.5503e-06 0.00260751
29802:-0.0122732 5.5503e-06 0.00260751
29820:-0.808054 1.99794e-09 4.9472e-05
29821:-0.4652 1.99794e-09 4.9472e-05
29822:-0.645607 1.99794e-09 4.9472e-05
29940:-0.0964771 6.47274e-06 0.00398224
29941:-0.0964771 6.47274e-06 0.00398224
29942:-0.0964771 6.47274e-06 0.00398224
29960:-4.13444e-05 0.765111 0.968123
29961:-2.3823e-05 0.765111 0.968123
29962:-3.30426e-05 0.765111 0.968123
29988:-0.00352678 0.000105218 0.0113531
29989:-0.00203282 0.000105218 0.0113531
29990:-0.00281893 0.000105218 0.0113531
30000:0.0125116 0.000617786 0.0389047
30001:0.0131282 0.000617786 0.0389047
30002:0.0128038 0.000617786 0.0389047
30044:-325.614 1.23232e-14 1.22866e-07
30045:-3127.18 6.16162e-15 1.22866e-07
30046:-260.197 1.23232e-14 1.22866e-07
30048:-70.4858 2.62943e-13 5.67543e-07
30049:-40.6025 2.62943e-13 5.67543e-07
30050:-56.3268 2.62943e-13 5.67543e-07
30088:-0.0948819 1.45203e-07 0.000421751
30089:-0.0546686 1.45203e-07 0.000421751
30090:-0.0758284 1.45203e-07 0.000421751
30220:-0.0107363 1.13566e-05 0.00372986
30221:-0.00618952 1.13566e-05 0.00372986
30222:-0.00858199 1.13566e-05 0.00372986
30332:-0.00762698 2.23997e-05 0.00523828
30333:-0.00438875 2.23997e-05 0.00523828
30334:-0.00609267 2.23997e-05 0.00523828
30348:-162.974 4.91672e-14 2.45418e-07
30349:-93.8622 4.91672e-14 2.45418e-07
30350:-130.228 4.91672e-14 2.45418e-07
30380:-44.2267 6.68607e-13 9.05011e-07
30381:-25.4854 6.68607e-13 9.05011e-07
30382:-35.3469 6.68607e-13 9.05011e-07
30384:0.0004868 0.408163 1
30385:0.00051079 0.408163 1
30386:0.000498167 0.408163 1
30464:-3.08562 1.37343e-10 1.29709e-05
30465:-1.77819 1.37343e-10 1.29709e-05
30466:-2.46615 1.37343e-10 1.29709e-05
30476:5.92333 2.75623e-09 8.21753e-05
30477:6.21525 2.75623e-09 8.21753e-05
30478:6.06165 2.75623e-09 8.21753e-05
30564:1.23657 6.32313e-08 0.000393595
30565:1.29751 6.32313e-08 0.000393595
30566:1.26544 6.32313e-08 0.000393595
30760:-5934.5 3.70757e-17 6.73927e-09
30761:-57016.1 1.85379e-17 6.73927e-09
30762:-4741.73 3.70757e-17 6.73927e-09
30948:-0.000384234 0.408163 1
30949:-0.000384234 0.408163 1
30950:-0.000384234 0.408163 1
31004:-1174.01 4.3709e-14 3.27242e-07
31005:-1174.01 4.3709e-14 3.27242e-07
31006:-1174.01 4.3709e-14 3.27242e-07
31040:-0.0977647 1.36639e-07 0.000409125
31041:-0.0563024 1.36639e-07 0.000409125
31042:-0.0781194 1.36639e-07 0.000409125
31048:-0.462142 6.10953e-09 8.65111e-05
31049:-0.266072 6.10953e-09 8.65111e-05
31050:-0.369242 6.10953e-09 8.65111e-05
31180:-0.00363704 9.90122e-05 0.0110132
31181:-0.0020971 9.90122e-05 0.0110132
31182:-0.0029074 9.90122e-05 0.0110132
31200:-0.0338414 5.26089e-05 0.0113531
31201:-0.0338414 5.26089e-05 0.0113531
31202:-0.0338414 5.26089e-05 0.0113531
31300:-0.128063 3.67347e-06 0.003
31301:-0.128063 3.67347e-06 0.003
31302:-0.128063 3.67347e-06 0.003
31308:-8.94766 1.63e-11 4.4685e-06
31309:-5.15241 1.63e-11 4.4685e-06
31310:-85.9585 8.15e-12 4.4685e-06
31376:-0.000535483 0.210142 0.717528
31377:-0.000535483 0.210142 0.717528
31378:-0.000535483 0.210142 0.717528
31512:-0.0481158 2.60181e-05 0.007984
31513:-0.0481158 2.60181e-05 0.007984
31514:-0.0481158 2.60181e-05 0.007984
31552:0.110783 7.8821e-06 0.00439444
31553:0.116242 7.8821e-06 0.00439444
31554:0.113369 7.8821e-06 0.00439444
31632:-1097.67 1.08673e-15 3.64862e-08
31633:-632.717 1.08673e-15 3.64862e-08
31634:-877.37 1.08673e-15 3.64862e-08
31736:-386.964 8.7426e-15 1.03488e-07
31737:-223.035 8.7426e-15 1.03488e-07
31738:-309.293 8.7426e-15 1.03488e-07
31852:-206.916 1.40765e-12 1.85708e-06
31853:-206.916 1.40765e-12 1.85708e-06
31854:-206.916 1.40765e-12 1.85708e-06
31888:0.000502819 0.382556 0.968123
31889:0.000527599 0.382556 0.968123
31890:0.00051456 0.382556 0.968123
32112:0.000487635 0.406532 0.998
32113:0.000511667 0.406532 0.998
32114:0.000499021 0.406532 0.998
32128:-0.0130026 7.7353e-06 0.00307827
32129:-0.00749316 7.7353e-06 0.00307827
32130:-0.0103922 7.7353e-06 0.00307827
32136:-34.5358 5.05288e-11 1.11263e-05
32137:-34.5358 5.05288e-11 1.11263e-05
32138:-34.5358 5.05288e-11 1.11263e-05
32144:-0.331048 1.19019e-08 0.000120747
32145:-0.190547 1.19019e-08 0.000120747
32146:-0.264477 1.19019e-08 0.000120747
32240:-0.00103673 0.0012135 0.0385557
32241:-0.000596794 0.0012135 0.0385557
32242:-0.000828286 0.0012135 0.0385557
32304:1.15634 7.23115e-08 0.000420908
32305:1.21332 7.23115e-08 0.000420908
32306:1.18334 7.23115e-08 0.000420908
32376:-0.0010287 0.00123557 0.0389047
32377:-0.000592709 0.00123557 0.0389047
32378:-0.000822121 0.00123557 0.0389047
32484:6.99182 1.97768e-09 6.96082e-05
32485:7.33639 1.97768e-09 6.96082e-05
32486:7.15509 1.97768e-09 6.96082e-05
32488:-2.61154 1.91411e-10 1.53127e-05
32489:-1.50372 1.91411e-10 1.53127e-05
32490:-2.08664 1.91411e-10 1.53127e-05
32536:-0.0133548 7.34694e-06 0.003
32537:-0.00770172 7.34694e-06 0.003
32538:-0.0106763 7.34694e-06 0.003
32584:-167.323 4.66862e-14 2.39146e-07
32585:-1606.32 2.33431e-14 2.39146e-07
32586:-133.722 4.66862e-14 2.39146e-07
32596:0.0523399 3.53107e-05 0.00930113
32597:0.0549194 3.53107e-05 0.00930113
32598:0.0535621 3.53107e-05 0.00930113
32608:0.0525635 3.49939e-05 0.00925933
32609:0.0551539 3.49939e-05 0.00925933
32610:0.0537908 3.49939e-05 0.00925933
32660:-0.00647577 3.12178e-05 0.006184
32661:-0.00373304 3.12178e-05 0.006184
32662:-0.00517624 3.12178e-05 0.006184
32740:-0.0090917 1.58274e-05 0.00440325
32741:-0.00524028 1.58274e-05 0.00440325
32742:-0.00726686 1.58274e-05 0.00440325
32844:-0.00987552 0.000617786 0.0389047
32845:-0.00987552 0.000617786 0.0389047
32846:-0.00987552 0.000617786 0.0389047
32972:-0.000384234 0.408163 1
32973:-0.000384234 0.408163 1
32974:-0.000384234 0.408163 1
33016:-0.000385972 0.404502 0.995505
33017:-0.000385972 0.404502 0.995505
33018:-0.000385972 0.404502 0.995505
33032:-1045.35 1.19779e-15 3.83053e-08
33033:-10031.5 5.98896e-16 3.83053e-08
33034:-835.521 1.19779e-15 3.83053e-08
33068:-0.0338414 5.26089e-05 0.0113531
33069:-0.0338414 5.26089e-05 0.0113531
33070:-0.0338414 5.26089e-05 0.0113531
33132:310.591 1.00274e-12 1.56739e-06
33133:325.897 1.00274e-12 1.56739e-06
33134:317.843 1.00274e-12 1.56739e-06
33152:-42.9012 7.10512e-13 9.3294e-07
33153:-24.7169 7.10512e-13 9.3294e-07
33154:-411.884 3.55256e-13 9.3294e-07
33172:-6.70253e-05 0.291462 0.597529
33173:-3.86348e-05 0.291462 0.597529
33174:-5.35736e-05 0.291462 0.597529
33236:1.59962 3.77826e-08 0.000304249
33237:1.67846 3.77826e-08 0.000304249
33238:1.63698 3.77826e-08 0.000304249
33348:-0.0966765 6.44688e-06 0.00397427
33349:-0.0966765 6.44688e-06 0.00397427
33350:-0.0966765 6.44688e-06 0.00397427
33436:0.0004868 0.408163 1
33437:0.00051079 0.408163 1
33438:0.000498167 0.408163 1
33444:-0.00145931 0.000613861 0.0274222
33445:-0.000840791 0.000613861 0.0274222
33446:-0.00116625 0.000613861 0.0274222
33544:-10.8173 1.11831e-11 3.70125e-06
33545:-103.819 5.59153e-12 3.70125e-06
33546:-8.64566 1.11831e-11 3.70125e-06
33568:-0.00443355 6.64562e-05 0.00902268
33569:-0.00255334 6.64562e-05 0.00902268
33570:-0.0425855 3.32281e-05 0.00902268
33724:-0.546294 4.38376e-09 7.3281e-05
33725:-0.314792 4.38376e-09 7.3281e-05
33726:-0.436606 4.38376e-09 7.3281e-05
33748:154.559 4.04681e-12 3.14876e-06
33749:162.176 4.04681e-12 3.14876e-06
33750:158.168 4.04681e-12 3.14876e-06
33780:310.591 1.00274e-12 1.56739e-06
33781:325.897 1.00274e-12 1.56739e-06
33782:317.843 1.00274e-12 1.56739e-06
33808:5.92333 2.75623e-09 8.21753e-05
33809:6.21525 2.75623e-09 8.21753e-05
33810:6.06165 2.75623e-09 8.21753e-05
34012:-3.5981 1.01058e-10 1.11263e-05
34013:-2.07343 1.01058e-10 1.11263e-05
34014:-2.87569 1.01058e-10 1.11263e-05
34032:-0.342875 1.11201e-08 0.000116714
34033:-0.197562 1.11201e-08 0.000116714
34034:-0.274024 1.11201e-08 0.000116714
34192:-4.00125e-05 0.816326 1
34193:-2.30485e-05 0.816326 1
34194:-3.19748e-05 0.816326 1
34212:-4.02319e-05 0.809004 0.995505
34213:-2.31932e-05 0.809004 0.995505
34214:-3.21588e-05 0.809004 0.995505
34240:-0.502521 5.18735e-09 7.97152e-05
34241:-0.289715 5.18735e-09 7.97152e-05
34242:-4.82063 2.59368e-09 7.97152e-05
34268:17.4441 3.17796e-10 2.79034e-05
34269:18.3038 3.17796e-10 2.79034e-05
34270:17.8514 3.17796e-10 2.79034e-05
34292:-0.503498 5.14082e-09 7.93568e-05
34293:-0.289773 5.14082e-09 7.93568e-05
34294:-0.402233 5.14082e-09 7.93568e-05
34360:-0.00352678 0.000105218 0.0113531
34361:-0.00203282 0.000105218 0.0113531
34362:-0.00281893 0.000105218 0.0113531
34376:-0.23357 2.3956e-08 0.000171307
34377:-0.13457 2.3956e-08 0.000171307
34378:-0.186663 2.3956e-08 0.000171307
34452:-0.0948819 1.45203e-07 0.000421751
34453:-0.0546686 1.45203e-07 0.000421751
34454:-0.0758284 1.45203e-07 0.000421751
34620:-5.17402e-05 0.487779 0.773
34621:-2.97964e-05 0.487779 0.773
34622:-4.1343e-05 0.487779 0.773
34700:0.12223 6.47274e-06 0.00398224
34701:0.128254 6.47274e-06 0.00398224
34702:0.125084 6.47274e-06 0.00398224
34836:0.0128955 0.00058135 0.03774
34837:0.013531 0.00058135 0.03774
34838:0.0131966 0.00058135 0.03774
34848:-29.0887 7.12235e-11 1.32098e-05
34849:-29.0887 7.12235e-11 1.32098e-05
34850:-29.0887 7.12235e-11 1.32098e-05
34856:-0.00503585 5.15694e-05 0.00794811
34857:-0.00290182 5.15694e-05 0.00794811
34858:-0.00402473 5.15694e-05 0.00794811
34884:-0.096922 6.41468e-06 0.00396434
34885:-0.096922 6.41468e-06 0.00396434
34886:-0.096922 6.41468e-06 0.00396434
34920:-50.666 5.09813e-13 7.90266e-07
34921:-29.1981 5.09813e-13 7.90266e-07
34922:-40.4943 5.09813e-13 7.90266e-07
34928:-0.0964771 6.47274e-06 0.00398224
34929:-0.0964771 6.47274e-06 0.00398224
34930:-0.0964771 6.47274e-06 0.00398224
34940:-7.906e-05 0.209132 0.506149
34941:-4.55512e-05 0.209132 0.506149
34942:-6.31832e-05 0.209132 0.506149
35036:0.162248 3.67347e-06 0.003
35037:0.170244 3.67347e-06 0.003
35038:0.166037 3.67347e-06 0.003
35152:-8.94766 1.63e-11 4.4685e-06
35153:-5.15241 1.63e-11 4.4685e-06
35154:-7.14943 1.63e-11 4.4685e-06
35160:-0.00141796 0.000649728 0.028212
35161:-0.000816686 0.000649728 0.028212
35162:-0.00113307 0.000649728 0.028212
35412:-0.462142 6.10953e-09 8.65111e-05
35413:-0.266072 6.10953e-09 8.65111e-05
35414:-4.44068 3.05476e-09 8.65111e-05
35416:-0.914914 7.19504e-08 0.000419855
35417:-0.914914 7.19504e-08 0.000419855
35418:-0.914914 7.19504e-08 0.000419855
35436:-0.910864 7.26016e-08 0.000421751
35437:-0.910864 7.26016e-08 0.000421751
35438:-0.910864 7.26016e-08 0.000421751
35480:0.0428748 5.26089e-05 0.0113531
35481:0.0449878 5.26089e-05 0.0113531
35482:0.043876 5.26089e-05 0.0113531
35528:-0.00524106 4.76842e-05 0.00764285
35529:-0.00302226 4.76842e-05 0.00764285
35530:-0.00418977 4.76842e-05 0.00764285
35536:-0.976031 6.32313e-08 0.000393595
35537:-0.976031 6.32313e-08 0.000393595
35538:-0.976031 6.32313e-08 0.000393595
35592:-24.2269 1.02646e-10 1.58582e-05
35593:-24.2269 1.02646e-10 1.58582e-05
35594:-24.2269 1.02646e-10 1.58582e-05
35660:-0.00172383 0.000440463 0.0232286
35661:-0.000993612 0.000440463 0.0232286
35662:-0.00137785 0.000440463 0.0232286
35776:-9.13059 1.56577e-11 4.37958e-06
35777:-5.25688 1.56577e-11 4.37958e-06
35778:-7.29519 1.56577e-11 4.37958e-06
35780:-0.0413123 3.53107e-05 0.00930113
35781:-0.0413123 3.53107e-05 0.00930113
35782:-0.0413123 3.53107e-05 0.00930113
35836:0.000487635 0.406532 0.998
35837:0.000511667 0.406532 0.998
35838:0.000499021 0.406532 0.998
35840:0.000501756 0.384091 0.970063
35841:0.000526484 0.384091 0.970063
35842:0.000513472 0.384091 0.970063
35844:-0.489519 5.46302e-09 8.18059e-05
35845:-0.282169 5.46302e-09 8.18059e-05
35846:-0.391274 5.46302e-09 8.18059e-05
35888:-0.491477 5.41402e-09 8.14382e-05
35889:-0.283208 5.41402e-09 8.14382e-05
35890:-0.392797 5.41402e-09 8.14382e-05
35920:4.32433 5.17243e-09 0.000112572
35921:4.53744 5.17243e-09 0.000112572
35922:4.42531 5.17243e-09 0.000112572
36044:-0.253795 9.35065e-07 0.00151358
36045:-0.253795 9.35065e-07 0.00151358
36046:-0.253795 9.35065e-07 0.00151358
36068:-0.0338414 5.26089e-05 0.0113531
36069:-0.0338414 5.26089e-05 0.0113531
36070:-0.0338414 5.26089e-05 0.0113531
36088:-0.0090917 1.58274e-05 0.00440325
36089:-0.00524028 1.58274e-05 0.00440325
36090:-0.00726686 1.58274e-05 0.00440325
36100:0.000102678 0.406858 0.998
36101:0.000126706 0.406858 0.998
36102:0.000114063 0.406858 0.998
36184:-3913.53 8.54082e-17 1.02286e-08
36185:-2255.35 8.54082e-17 1.02286e-08
36186:-3127.86 8.54082e-17 1.02286e-08
36192:-9.22991 1.53387e-11 4.33473e-06
36193:-5.31697 1.53387e-11 4.33473e-06
36194:-7.37592 1.53387e-11 4.33473e-06
36268:740.514 1.76399e-13 6.57402e-07
36269:777.008 1.76399e-13 6.57402e-07
36270:757.805 1.76399e-13 6.57402e-07
36340:-0.00430798 7.03391e-05 0.00928253
36341:-0.00248094 7.03391e-05 0.00928253
36342:-0.00344231 7.03391e-05 0.00928253
36380:-23.0688 2.45194e-12 1.7331e-06
36381:-13.2822 2.45194e-12 1.7331e-06
36382:-18.4318 2.45194e-12 1.7331e-06
36484:-0.00133285 0.00073534 0.0300132
36485:-0.000767731 0.00073534 0.0300132
36486:-0.00106509 0.00073534 0.0300132
36504:0.000501756 0.384091 0.970063
36505:0.000526484 0.384091 0.970063
36506:0.000513472 0.384091 0.970063
36536:-0.0948819 1.45203e-07 0.000421751
36537:-0.0546686 1.45203e-07 0.000421751
36538:-0.0758284 1.45203e-07 0.000421751
36620:-0.000396039 0.384091 0.970063
36621:-0.000396039 0.384091 0.970063
36622:-0.000396039 0.384091 0.970063
36628:262.149 1.40765e-12 1.85708e-06
36629:275.068 1.40765e-12 1.85708e-06
36630:268.271 1.40765e-12 1.85708e-06
36732:-0.112024 1.04187e-07 0.000357253
36733:-0.064539 1.04187e-07 0.000357253
36734:-0.089525 1.04187e-07 0.000357253
36780:7.66352 1.64693e-09 6.35215e-05
36781:8.04119 1.64693e-09 6.35215e-05
36782:7.84246 1.64693e-09 6.35215e-05
36816:-0.00416405 7.54968e-05 0.00961684
36817:-0.00240022 7.54968e-05 0.00961684
36818:-0.00332833 7.54968e-05 0.00961684
36820:-0.976486 1.36925e-09 4.09552e-05
36821:-0.562339 1.36925e-09 4.09552e-05
36822:-9.38011 6.84625e-10 4.09552e-05
36832:-0.980406 1.35697e-09 4.07711e-05
36833:-0.56442 1.35697e-09 4.07711e-05
36834:-0.783307 1.35697e-09 4.07711e-05
36876:-1.1359 1.01296e-09 3.5226e-05
36877:-0.654325 1.01296e-09 3.5226e-05
36878:-0.907726 1.01296e-09 3.5226e-05
36968:-0.0168165 4.62207e-06 0.0023795
36969:-0.00968738 4.62207e-06 0.0023795
36970:-0.0134386 4.62207e-06 0.0023795
36988:-0.737625 2.39918e-09 5.42125e-05
36989:-0.424685 2.39918e-09 5.42125e-05
36990:-0.58935 2.39918e-09 5.42125e-05
37044:0.11053 7.91372e-06 0.00440325
37045:0.115977 7.91372e-06 0.00440325
37046:0.113111 7.91372e-06 0.00440325
37048:-0.0948819 1.45203e-07 0.000421751
37049:-0.0546686 1.45203e-07 0.000421751
37050:-0.0758284 1.45203e-07 0.000421751
37120:-326.383 1.22503e-14 1.22501e-07
37121:-187.908 1.22503e-14 1.22501e-07
37122:-260.772 1.22503e-14 1.22501e-07
37208:5.92333 2.75623e-09 8.21753e-05
37209:6.21525 2.75623e-09 8.21753e-05
37210:6.06165 2.75623e-09 8.21753e-05
37388:-0.0117571 9.45736e-06 0.00340371
37389:-0.00677453 9.45736e-06 0.00340371
37390:-0.00939632 9.45736e-06 0.00340371
37500:-0.00837608 1.86536e-05 0.00478023
37501:-0.00482734 1.86536e-05 0.00478023
37502:-0.00669464 1.86536e-05 0.00478023
37632:-3.38249 1.14373e-10 1.18367e-05
37633:-1.94977 1.14373e-10 1.18367e-05
37634:-2.70366 1.14373e-10 1.18367e-05
38204:-502.744 2.38445e-13 7.64323e-07
38205:-502.744 2.38445e-13 7.64323e-07
38206:-502.744 2.38445e-13 7.64323e-07
38308:-1117.94 1.0432e-15 3.5748e-08
38309:-10747.3 5.216e-16 3.5748e-08
38310:-893.087 1.0432e-15 3.5748e-08
38344:-0.000455664 0.290242 0.843263
38345:-0.000455664 0.290242 0.843263
38346:-0.000455664 0.290242 0.843263
38452:-0.800673 2.04003e-09 4.99903e-05
38453:-0.461374 2.04003e-09 4.99903e-05
38454:-0.63991 2.04003e-09 4.99903e-05
38488:5.9507 2.73151e-09 8.18059e-05
38489:6.24396 2.73151e-09 8.18059e-05
38490:6.08965 2.73151e-09 8.18059e-05
38508:5.92333 2.75623e-09 8.21753e-05
38509:6.21525 2.75623e-09 8.21753e-05
38510:6.06165 2.75623e-09 8.21753e-05
38620:-0.000453567 0.292869 0.847071
38621:-0.000453567 0.292869 0.847071
38622:-0.000453567 0.292869 0.847071
38652:0.0125699 0.000612244 0.0387298
38653:0.0131894 0.000612244 0.0387298
38654:0.0128635 0.000612244 0.0387298
38820:-11.5846 9.73972e-12 3.45415e-06
38821:-111.234 4.86986e-12 3.45415e-06
38822:-9.25772 9.73972e-12 3.45415e-06
38840:-0.11997 9.07406e-08 0.000333402
38841:-0.0690906 9.07406e-08 0.000333402
38842:-0.0958629 9.07406e-08 0.000333402
38900:-4.72422e-05 0.585738 0.847071
38901:-2.72177e-05 0.585738 0.847071
38902:-3.77544e-05 0.585738 0.847071
39140:740.514 1.76399e-13 6.57402e-07
39141:777.008 1.76399e-13 6.57402e-07
39142:757.805 1.76399e-13 6.57402e-07
39316:-0.625447 3.34367e-09 6.4e-05
39317:-0.360444 3.34367e-09 6.4e-05
39318:-0.499886 3.34367e-09 6.4e-05
39372:-8.61159 1.76117e-11 4.64482e-06
39373:-4.96003 1.76117e-11 4.64482e-06
39374:-6.88144 1.76117e-11 4.64482e-06
39652:7.66352 1.64693e-09 6.35215e-05
39653:8.04119 1.64693e-09 6.35215e-05
39654:7.84246 1.64693e-09 6.35215e-05
39784:-0.00355001 0.000103857 0.0112794
39785:-0.00204622 0.000103857 0.0112794
39786:-0.0028375 0.000103857 0.0112794
39832:-1242.51 8.46314e-16 3.21984e-08
39833:-715.729 8.46314e-16 3.21984e-08
39834:-992.916 8.46314e-16 3.21984e-08
39852:-1236.62 8.53974e-16 3.23437e-08
39853:-712.227 8.53974e-16 3.23437e-08
39854:-11877.3 4.26987e-16 3.23437e-08
39912:-2.06705 3.05646e-10 1.93498e-05
39913:-19.852 1.52823e-10 1.93498e-05
39914:-1.65176 3.05646e-10 1.93498e-05
39940:0.017215 0.000326167 0.0282685
39941:0.0180634 0.000326167 0.0282685
39942:0.017617 0.000326167 0.0282685
39952:-0.000396039 0.384091 0.970063
39953:-0.000396039 0.384091 0.970063
39954:-0.000396039 0.384091 0.970063
39960:-0.000384234 0.408163 1
39961:-0.000384234 0.408163 1
39962:-0.000384234 0.408163 1
39968:-0.000385972 0.404502 0.995505
39969:-0.000385972 0.404502 0.995505
39970:-0.000385972 0.404502 0.995505
39980:-0.000385972 0.404502 0.995505
39981:-0.000385972 0.404502 0.995505
39982:-0.000385972 0.404502 0.995505
40008:0.000487635 0.406532 0.998
40009:0.000511667 0.406532 0.998
40010:0.000499021 0.406532 0.998
40160:1.23657 6.32313e-08 0.000393595
40161:1.29751 6.32313e-08 0.000393595
40162:1.26544 6.32313e-08 0.000393595
40228:-0.00989469 0.000615317 0.0388269
40229:-0.00989469 0.000615317 0.0388269
40230:-0.00989469 0.000615317 0.0388269
40384:-4.13444e-05 0.765111 0.968123
40385:-2.3823e-05 0.765111 0.968123
40386:-3.30426e-05 0.765111 0.968123
40444:-8.36019 1.87155e-11 4.78816e-06
40445:-4.81701 1.87155e-11 4.78816e-06
40446:-6.6814 1.87155e-11 4.78816e-06
40476:-4.00125e-05 0.816326 1
40477:-2.30485e-05 0.816326 1
40478:-3.19748e-05 0.816326 1
40528:-0.101587 1.26463e-07 0.000393595
40529:-0.0584922 1.26463e-07 0.000393595
40530:-0.0811681 1.26463e-07 0.000393595
40588:0.0004868 0.408163 1
40589:0.00051079 0.408163 1
40590:0.000498167 0.408163 1
40736:1.23657 6.32313e-08 0.000393595
40737:1.29751 6.32313e-08 0.000393595
40738:1.26544 6.32313e-08 0.000393595
40756:-0.000384234 0.408163 1
40757:-0.000384234 0.408163 1
40758:-0.000384234 0.408163 1
40936:-17.2232 4.40507e-12 2.32297e-06
40937:-9.92006 4.40507e-12 2.32297e-06
40938:-13.7629 4.40507e-12 2.32297e-06
41004:-2560.76 1.99206e-16 1.56214e-08
41005:-1475.05 1.99206e-16 1.56214e-08
41006:-2046.34 1.99206e-16 1.56214e-08
41100:-44.4525 6.62071e-13 9.00576e-07
41101:-25.617 6.62071e-13 9.00576e-07
41102:-35.528 6.62071e-13 9.00576e-07
41176:-0.0500829 5.21287e-07 0.00079911
41177:-0.0288575 5.21287e-07 0.00079911
41178:-0.0400261 5.21287e-07 0.00079911
41236:636.944 2.38445e-13 7.64323e-07
41237:668.334 2.38445e-13 7.64323e-07
41238:651.817 2.38445e-13 7.64323e-07
41304:0.000649117 0.229505 0.749859
41305:0.000681107 0.229505 0.749859
41306:0.000664274 0.229505 0.749859
41312:-0.00216191 0.000279685 0.0185098
41313:-0.00124575 0.000279685 0.0185098
41314:-0.00172782 0.000279685 0.0185098
41336:1.27497 5.95021e-08 0.000381812
41337:1.33781 5.95021e-08 0.000381812
41338:1.30474 5.95021e-08 0.000381812
41596:0.017215 0.000326167 0.0282685
41597:0.0180634 0.000326167 0.0282685
41598:0.017617 0.000326167 0.0282685
41612:-0.459267 6.18136e-09 8.70182e-05
41613:-0.264361 6.18136e-09 8.70182e-05
41614:-0.366919 6.18136e-09 8.70182e-05
41624:-0.000453567 0.292869 0.847071
41625:-0.000453567 0.292869 0.847071
41626:-0.000453567 0.292869 0.847071
41816:0.0627282 2.45818e-05 0.0077605
41817:0.0658196 2.45818e-05 0.0077605
41818:0.064193 2.45818e-05 0.0077605
41868:636.944 2.38445e-13 7.64323e-07
41869:668.334 2.38445e-13 7.64323e-07
41870:651.817 2.38445e-13 7.64323e-07
41996:-4.72422e-05 0.585738 0.847071
41997:-2.72177e-05 0.585738 0.847071
41998:-3.77544e-05 0.585738 0.847071
42116:-0.000384894 0.406532 0.998
42117:-0.000384894 0.406532 0.998
42118:-0.000384894 0.406532 0.998
42192:-0.310632 1.35617e-08 0.000128892
42193:-0.17902 1.35617e-08 0.000128892
42194:-2.98123 6.78086e-09 0.000128892
42200:-110.857 1.06452e-13 3.61115e-07
42201:-1063.92 5.3226e-14 3.61115e-07
42202:-88.6029 1.06452e-13 3.61115e-07
42212:-0.311579 1.34401e-08 0.000128312
42213:-0.179384 1.34401e-08 0.000128312
42214:-0.248944 1.34401e-08 0.000128312
42348:-0.000385732 0.404908 0.996004
42349:-0.000385732 0.404908 0.996004
42350:-0.000385732 0.404908 0.996004
42356:-4.531 2.9355e-09 8.48056e-05
42357:-4.531 2.9355e-09 8.48056e-05
42358:-4.531 2.9355e-09 8.48056e-05
42368:-0.0127749 0.000369145 0.0300733
42369:-0.0127749 0.000369145 0.0300733
42370:-0.0127749 0.000369145 0.0300733
42448:0.122483 6.44688e-06 0.00397427
42449:0.128519 6.44688e-06 0.00397427
42450:0.125343 6.44688e-06 0.00397427
42656:-284.418 1.61404e-14 1.40613e-07
42657:-163.818 1.61404e-14 1.40613e-07
42658:-227.277 1.61404e-14 1.40613e-07
42720:152.23 4.17177e-12 3.197e-06
42721:159.733 4.17177e-12 3.197e-06
42722:155.785 4.17177e-12 3.197e-06
42880:-4.03526e-05 0.809004 0.995505
42881:-2.33138e-05 0.809004 0.995505
42882:-3.22795e-05 0.809004 0.995505
42956:-0.128749 7.87606e-08 0.000310615
42957:-0.0741535 7.87606e-08 0.000310615
42958:-0.102881 7.87606e-08 0.000310615
43144:-0.00183166 0.000389789 0.0218516
43145:-0.00105534 0.000389789 0.0218516
43146:-0.00146383 0.000389789 0.0218516
43160:31.7885 9.57054e-11 1.53127e-05
43161:33.3551 9.57054e-11 1.53127e-05
43162:32.5308 9.57054e-11 1.53127e-05
43264:-0.000497012 0.243889 0.773
43265:-0.000497012 0.243889 0.773
43266:-0.000497012 0.243889 0.773
43524:384.666 6.53415e-13 1.26525e-06
43525:403.623 6.53415e-13 1.26525e-06
43526:393.648 6.53415e-13 1.26525e-06
43588:-214.958 2.83273e-14 1.86282e-07
43589:-123.907 2.83273e-14 1.86282e-07
43590:-171.817 2.83273e-14 1.86282e-07
43724:-0.176876 4.17494e-08 0.000226148
43725:-0.101875 4.17494e-08 0.000226148
43726:-0.14134 4.17494e-08 0.000226148
43776:-0.0480161 2.61225e-05 0.008
43777:-0.0480161 2.61225e-05 0.008
43778:-0.0480161 2.61225e-05 0.008
43888:-0.000384234 0.408163 1
43889:-0.000384234 0.408163 1
43890:-0.000384234 0.408163 1
43972:-3.41322 5.17243e-09 0.000112572
43973:-3.41322 5.17243e-09 0.000112572
43974:-3.41322 5.17243e-09 0.000112572
44280:-4.00125e-05 0.816326 1
44281:-2.30485e-05 0.816326 1
44282:-3.19748e-05 0.816326 1
44292:-1.1359 1.01296e-09 3.5226e-05
44293:-0.654325 1.01296e-09 3.5226e-05
44294:-0.907726 1.01296e-09 3.5226e-05
44380:-0.101774 1.25957e-07 0.000392808
44381:-0.0585804 1.25957e-07 0.000392808
44382:-0.0813086 1.25957e-07 0.000392808
44420:-0.63113 3.2807e-09 6.33944e-05
44421:-0.363552 3.2807e-09 6.33944e-05
44422:-0.504349 3.2807e-09 6.33944e-05
44548:-0.00457136 6.25367e-05 0.00875257
44549:-0.00263369 6.25367e-05 0.00875257
44550:-0.00365327 6.25367e-05 0.00875257
44560:-0.0956739 1.4261e-07 0.000417968
44561:-0.0551005 1.4261e-07 0.000417968
44562:-0.0764498 1.4261e-07 0.000417968
44580:-0.0953557 1.43901e-07 0.000419855
44581:-0.0549662 1.43901e-07 0.000419855
44582:-0.0762187 1.43901e-07 0.000419855
44648:-4.74416e-05 0.580483 0.843263
44649:-2.73236e-05 0.580483 0.843263
44650:-3.79095e-05 0.580483 0.843263
44704:0.171159 1.01315e-05 0.00398224
44705:0.179594 1.01315e-05 0.00398224
44706:0.175156 1.01315e-05 0.00398224
44708:14044.1 4.90262e-16 3.46575e-08
44709:14736.3 4.90262e-16 3.46575e-08
44710:14372.1 4.90262e-16 3.46575e-08
44804:-0.0117571 9.45736e-06 0.00340371
44805:-0.00677453 9.45736e-06 0.00340371
44806:-0.00939632 9.45736e-06 0.00340371
44872:-241.217 2.24944e-14 1.65999e-07
44873:-139.024 2.24944e-14 1.65999e-07
44874:-2314.85 1.12472e-14 1.65999e-07
45244:-4.7613e-05 0.575277 0.839472
45245:-2.74089e-05 0.575277 0.839472
45246:-3.80401e-05 0.575277 0.839472
45460:0.0004868 0.408163 1
45461:0.00051079 0.408163 1
45462:0.000498167 0.408163 1
45532:-0.00103342 0.00122449 0.0387298
45533:-0.000595395 0.00122449 0.0387298
45534:-0.000825879 0.00122449 0.0387298
45552:-0.0090917 1.58274e-05 0.00440325
45553:-0.00524028 1.58274e-05 0.00440325
45554:-0.00726686 1.58274e-05 0.00440325
45600:0.0004868 0.408163 1
45601:0.00051079 0.408163 1
45602:0.000498167 0.408163 1
45624:-0.00416788 7.51951e-05 0.0095976
45625:-0.00240045 7.51951e-05 0.0095976
45626:-0.00333045 7.51951e-05 0.0095976
45656:13.1403 5.59964e-10 3.70393e-05
45657:13.7879 5.59964e-10 3.70393e-05
45658:13.4471 5.59964e-10 3.70393e-05
45672:-73.0408 2.45225e-13 5.48088e-07
45673:-42.0942 2.45225e-13 5.48088e-07
45674:-58.378 2.45225e-13 5.48088e-07
45704:-0.0338414 5.26089e-05 0.0113531
45705:-0.0338414 5.26089e-05 0.0113531
45706:-0.0338414 5.26089e-05 0.0113531
45780:-4.72422e-05 0.585738 0.847071
45781:-2.72177e-05 0.585738 0.847071
45782:-3.77544e-05 0.585738 0.847071
45800:-0.125107 8.33264e-08 0.000319491
45801:-0.0720128 8.33264e-08 0.000319491
45802:-0.0999503 8.33264e-08 0.000319491
45992:152.23 4.17177e-12 3.197e-06
45993:159.733 4.17177e-12 3.197e-06
45994:155.785 4.17177e-12 3.197e-06
46144:-0.00145931 0.000613861 0.0274222
46145:-0.000840791 0.000613861 0.0274222
46146:-0.00116625 0.000613861 0.0274222
46244:-0.128063 3.67347e-06 0.003
46245:-0.128063 3.67347e-06 0.003
46246:-0.128063 3.67347e-06 0.003
46276:-0.00430212 7.06213e-05 0.00930113
46277:-0.00247818 7.06213e-05 0.00930113
46278:-0.00343792 7.06213e-05 0.00930113
46404:-245.151 1.00274e-12 1.56739e-06
46405:-245.151 1.00274e-12 1.56739e-06
46406:-245.151 1.00274e-12 1.56739e-06
46456:-0.00499552 5.22449e-05 0.008
46457:-0.00287538 5.22449e-05 0.008
46458:-0.00399097 5.22449e-05 0.008
46468:0.000487635 0.406532 0.998
46469:0.000511667 0.406532 0.998
46470:0.000499021 0.406532 0.998
46516:-0.000384234 0.408163 1
46517:-0.000384234 0.408163 1
46518:-0.000384234 0.408163 1
46536:0.017215 0.000326167 0.0282685
46537:0.0180634 0.000326167 0.0282685
46538:0.017617 0.000326167 0.0282685
46564:-0.0872421 7.91372e-06 0.00440325
46565:-0.0872421 7.91372e-06 0.00440325
46566:-0.0872421 7.91372e-06 0.00440325
46696:-0.48795 5.49044e-09 8.20109e-05
46697:-0.281152 5.49044e-09 8.20109e-05
46698:-0.389967 5.49044e-09 8.20109e-05
46700:0.0004868 0.408163 1
46701:0.00051079 0.408163 1
46702:0.000498167 0.408163 1
46828:-0.0133935 7.28104e-06 0.00298651
46829:-0.00771364 7.28104e-06 0.00298651
46830:-0.0107023 7.28104e-06 0.00298651
47084:-0.0137365 6.91363e-06 0.00291019
47085:-0.0079072 6.91363e-06 0.00291019
47086:-0.0109745 6.91363e-06 0.00291019
47092:-0.000384234 0.408163 1
47093:-0.000384234 0.408163 1
47094:-0.000384234 0.408163 1
47180:-4.02319e-05 0.809004 0.995505
47181:-2.31932e-05 0.809004 0.995505
47182:-3.21588e-05 0.809004 0.995505
47224:-4.00125e-05 0.816326 1
47225:-2.30485e-05 0.816326 1
47226:-3.19748e-05 0.816326 1
47228:0.000574639 0.292869 0.847071
47229:0.000602959 0.292869 0.847071
47230:0.000588057 0.292869 0.847071
47376:0.0441964 4.95061e-05 0.0110132
47377:0.0463745 4.95061e-05 0.0110132
47378:0.0452284 4.95061e-05 0.0110132
47444:-4.03754e-05 0.801747 0.99103
47445:-2.32581e-05 0.801747 0.99103
47446:-3.2265e-05 0.801747 0.99103
47476:-0.976031 6.32313e-08 0.000393595
47477:-0.976031 6.32313e-08 0.000393595
47478:-0.976031 6.32313e-08 0.000393595
47488:-122.231 8.7418e-14 3.27242e-07
47489:-70.3967 8.7418e-14 3.27242e-07
47490:-1174.01 4.3709e-14 3.27242e-07
47516:1.18977 6.83197e-08 0.000409125
47517:1.2484 6.83197e-08 0.000409125
47518:1.21755 6.83197e-08 0.000409125
47540:-122.732 8.66338e-14 3.25771e-07
47541:-70.663 8.66338e-14 3.25771e-07
47542:-98.0613 8.66338e-14 3.25771e-07
47692:-67.1448 2.89715e-13 5.95735e-07
47693:-38.6699 2.89715e-13 5.95735e-07
47694:-53.6531 2.89715e-13 5.95735e-07
47792:-0.000396039 0.384091 0.970063
47793:-0.000396039 0.384091 0.970063
47794:-0.000396039 0.384091 0.970063
47820:-61.0067 3.51388e-13 6.56087e-07
47821:-35.1525 3.51388e-13 6.56087e-07
47822:-48.7567 3.51388e-13 6.56087e-07
47936:-0.23357 2.3956e-08 0.000171307
47937:-0.13457 2.3956e-08 0.000171307
47938:-0.186663 2.3956e-08 0.000171307
48080:-0.00352984 0.000104797 0.0113303
48081:-0.002033 0.000104797 0.0113303
48082:-0.00282062 0.000104797 0.0113303
48220:-0.000453567 0.292869 0.847071
48221:-0.000453567 0.292869 0.847071
48222:-0.000453567 0.292869 0.847071
48252:-0.0157395 5.27164e-06 0.00254121
48253:-0.00906533 5.27164e-06 0.00254121
48254:-0.0125772 5.27164e-06 0.00254121
48272:-0.00590408 3.74872e-05 0.00677656
48273:-0.00340081 3.74872e-05 0.00677656
48274:-0.004718 3.74872e-05 0.00677656
48312:-0.00648392 3.10931e-05 0.00617163
48313:-0.00373593 3.10931e-05 0.00617163
48314:-0.00518189 3.10931e-05 0.00617163
48560:0.0611151 2.58881e-05 0.00796404
48561:0.064127 2.58881e-05 0.00796404
48562:0.0625422 2.58881e-05 0.00796404
48568:30.6939 1.02646e-10 1.58582e-05
48569:32.2065 1.02646e-10 1.58582e-05
48570:31.4106 1.02646e-10 1.58582e-05
48616:7.60505 1.67184e-09 6.4e-05
48617:7.97985 1.67184e-09 6.4e-05
48618:7.78263 1.67184e-09 6.4e-05
48644:-0.0162356 4.96073e-06 0.00246513
48645:-0.00935458 4.96073e-06 0.00246513
48646:-0.0129753 4.96073e-06 0.00246513
48872:-230.278 2.46713e-14 1.73846e-07
48873:-132.699 2.46713e-14 1.73846e-07
48874:-184.044 2.46713e-14 1.73846e-07
48928:30.6939 1.02646e-10 1.58582e-05
48929:32.2065 1.02646e-10 1.58582e-05
48930:31.4106 1.02646e-10 1.58582e-05
49068:0.000501756 0.384091 0.970063
49069:0.000526484 0.384091 0.970063
49070:0.000513472 0.384091 0.970063
49072:0.000632415 0.241702 0.769525
49073:0.000663581 0.241702 0.769525
49074:0.000647182 0.241702 0.769525
49128:0.078714 1.56089e-05 0.006184
49129:0.0825932 1.56089e-05 0.006184
49130:0.080552 1.56089e-05 0.006184
49152:-13.7687 3.17796e-10 2.79034e-05
49153:-13.7687 3.17796e-10 2.79034e-05
49154:-13.7687 3.17796e-10 2.79034e-05
49172:-0.258463 1.9594e-08 0.000154928
49173:-0.14898 1.9594e-08 0.000154928
49174:-0.206589 1.9594e-08 0.000154928
49240:-6.70253e-05 0.291462 0.597529
49241:-3.86348e-05 0.291462 0.597529
49242:-5.35736e-05 0.291462 0.597529
49252:-0.0133935 7.28104e-06 0.00298651
49253:-0.00771364 7.28104e-06 0.00298651
49254:-0.0107023 7.28104e-06 0.00298651
49280:-97.9443 6.28085e-12 3.92276e-06
49281:-97.9443 6.28085e-12 3.92276e-06
49282:-97.9443 6.28085e-12 3.92276e-06
49300:-0.800673 2.04003e-09 4.99903e-05
49301:-0.461374 2.04003e-09 4.99903e-05
49302:-0.63991 2.04003e-09 4.99903e-05
49344:-4.00643e-05 0.813065 0.998
49345:-2.30705e-05 0.813065 0.998
49346:-3.20125e-05 0.813065 0.998
49620:-0.000453567 0.292869 0.847071
49621:-0.000453567 0.292869 0.847071
49622:-0.000453567 0.292869 0.847071
49676:-13147.1 7.56262e-18 3.04372e-09
49677:-7576 7.56262e-18 3.04372e-09
49678:-10507.5 7.56262e-18 3.04372e-09
49816:4.32433 5.17243e-09 0.000112572
49817:4.53744 5.17243e-09 0.000112572
49818:4.42531 5.17243e-09 0.000112572
49880:0.000487635 0.406532 0.998
49881:0.000511667 0.406532 0.998
49882:0.000499021 0.406532 0.998
50200:-4.14082e-05 0.761291 0.965702
50201:-2.38456e-05 0.761291 0.965702
50202:-3.30869e-05 0.761291 0.965702
50292:-0.0874415 7.8821e-06 0.00439444
50293:-0.0874415 7.8821e-06 0.00439444
50294:-0.0874415 7.8821e-06 0.00439444
50388:-25.5546 1.99746e-12 1.56425e-06
50389:-245.591 9.9873e-13 1.56425e-06
50390:-20.4166 1.99746e-12 1.56425e-06
50504:-0.0100472 1.29455e-05 0.00398224
50505:-0.00578775 1.29455e-05 0.00398224
50506:-0.00802903 1.29455e-05 0.00398224
50532:0.442509 4.93679e-07 0.00109978
50533:0.464316 4.93679e-07 0.00109978
50534:0.452841 4.93679e-07 0.00109978
50564:-4.40693 6.71896e-11 9.07234e-06
50565:-2.53775 6.71896e-11 9.07234e-06
50566:-3.52129 6.71896e-11 9.07234e-06
50656:384.666 6.53415e-13 1.26525e-06
50657:403.623 6.53415e-13 1.26525e-06
50658:393.648 6.53415e-13 1.26525e-06
50668:-0.0363626 9.87357e-07 0.00109978
50669:-0.0209417 9.87357e-07 0.00109978
50670:-0.029056 9.87357e-07 0.00109978
50696:-0.0950125 1.44623e-07 0.000420908
50697:-0.054715 1.44623e-07 0.000420908
50698:-0.0759191 1.44623e-07 0.000420908
50712:-0.0948819 1.45203e-07 0.000421751
50713:-0.0546686 1.45203e-07 0.000421751
50714:-0.0758284 1.45203e-07 0.000421751
50720:-2249.39 2.58489e-16 1.77946e-08
50721:-1296.39 2.58489e-16 1.77946e-08
50722:-1797.85 2.58489e-16 1.77946e-08
50752:-0.001414 0.000652334 0.0282685
50753:-0.000814044 0.000652334 0.0282685
50754:-0.00112974 0.000652334 0.0282685
50948:-0.00352678 0.000105218 0.0113531
50949:-0.00203282 0.000105218 0.0113531
50950:-0.00281893 0.000105218 0.0113531
50992:-0.00354414 0.000104274 0.011302
50993:-0.00204347 0.000104274 0.011302
50994:-0.00283311 0.000104274 0.011302
51068:-12.5066 8.34354e-12 3.197e-06
51069:-7.20135 8.34354e-12 3.197e-06
51070:-9.99289 8.34354e-12 3.197e-06
51100:-0.00910649 1.57642e-05 0.00439444
51101:-0.00524598 1.57642e-05 0.00439444
51102:-0.00727734 1.57642e-05 0.00439444
51260:-0.000384234 0.408163 1
51261:-0.000384234 0.408163 1
51262:-0.000384234 0.408163 1
51268:-0.0134058 7.25194e-06 0.00298054
51269:-0.00771437 7.25194e-06 0.00298054
51270:-0.0107091 7.25194e-06 0.00298054
51300:-5.19079e-05 0.48583 0.771454
51301:-2.99191e-05 0.48583 0.771454
51302:-4.14894e-05 0.48583 0.771454
51496:-4.73659e-05 0.583397 0.845376
51497:-2.73002e-05 0.583397 0.845376
51498:-3.78586e-05 0.583397 0.845376
51708:-0.304523 1.40592e-08 0.000131235
51709:-0.17527 1.40592e-08 0.000131235
51710:-0.243281 1.40592e-08 0.000131235
51748:-0.170049 4.51523e-08 0.000235184
51749:-0.0979286 4.51523e-08 0.000235184
51750:-0.135878 4.51523e-08 0.000235184
51752:-0.0264624 1.86266e-06 0.00151055
51753:-0.0152348 1.86266e-06 0.00151055
51754:-0.0211427 1.86266e-06 0.00151055
51924:1.10223 7.96275e-08 0.000441687
51925:1.15655 7.96275e-08 0.000441687
51926:1.12797 7.96275e-08 0.000441687
51948:-11.8919 9.25588e-12 3.36726e-06
51949:-6.85447 9.25588e-12 3.36726e-06
51950:-9.50512 9.25588e-12 3.36726e-06
52000:-4.13444e-05 0.765111 0.968123
52001:-2.3823e-05 0.765111 0.968123
52002:-3.30426e-05 0.765111 0.968123
52120:-118.618 9.27234e-14 3.37025e-07
52121:-68.2903 9.27234e-14 3.37025e-07
52122:-94.772 9.27234e-14 3.37025e-07
52228:-0.042986 7.08457e-07 0.00093159
52229:-0.0247797 7.08457e-07 0.00093159
52230:-0.0343597 7.08457e-07 0.00093159
52384:-0.0118674 9.28876e-06 0.00337324
52385:-0.00683882 9.28876e-06 0.00337324
52386:-0.00948481 9.28876e-06 0.00337324
52460:-3.16032 1.50758e-10 1.35544e-05
52461:-27.6025 7.57693e-11 1.35544e-05
52462:-2.52642 1.50758e-10 1.35544e-05
52524:-1853.6 3.81087e-16 2.16063e-08
52525:-1068.58 3.81087e-16 2.16063e-08
52526:-1481.65 3.81087e-16 2.16063e-08
52672:-3.45462 1.09638e-10 1.15891e-05
52673:-33.1534 5.48189e-11 1.15891e-05
52674:-2.76115 1.09638e-10 1.15891e-05
52720:-4.88611e-05 0.546248 0.818018
52721:-2.8122e-05 0.546248 0.818018
52722:-3.90347e-05 0.546248 0.818018
52852:-0.0107414 1.13113e-05 0.0037224
52853:-0.006185 1.13113e-05 0.0037224
52854:-0.00858251 1.13113e-05 0.0037224
52884:-14.776 5.98672e-12 2.70809e-06
52885:-8.51355 5.98672e-12 2.70809e-06
52886:-11.8088 5.98672e-12 2.70809e-06
52940:4.60856 4.55125e-09 0.000105596
52941:4.83568 4.55125e-09 0.000105596
52942:4.71617 4.55125e-09 0.000105596
52972:-304.941 1.61473e-14 1.40278e-07
52973:-2667.32 8.11548e-15 1.40278e-07
52974:-243.676 1.61473e-14 1.40278e-07
52976:-0.0055672 4.21983e-05 0.00718978
52977:-0.0032076 4.21983e-05 0.00718978
52978:-0.0044492 4.21983e-05 0.00718978
53064:-4.00125e-05 0.816326 1
53065:-2.30485e-05 0.816326 1
53066:-3.19748e-05 0.816326 1
53116:-4.02319e-05 0.809004 0.995505
53117:-2.31932e-05 0.809004 0.995505
53118:-3.21588e-05 0.809004 0.995505
53160:-0.00166985 0.000468069 0.0239454
53161:-0.000961541 0.000468069 0.0239454
53162:-0.00133425 0.000468069 0.0239454
53468:0.000574639 0.292869 0.847071
53469:0.000602959 0.292869 0.847071
53470:0.000588057 0.292869 0.847071
53500:-55.0732 4.30972e-13 7.26595e-07
53501:-31.726 4.30972e-13 7.26595e-07
53502:-44.011 4.30972e-13 7.26595e-07
53592:-0.0136186 0.000324864 0.028212
53593:-0.0136186 0.000324864 0.028212
53594:-0.0136186 0.000324864 0.028212
53676:-25.0833 9.57056e-11 1.53127e-05
53677:-25.0815 9.57056e-11 1.53127e-05
53678:-25.0825 9.57056e-11 1.53127e-05
53748:-0.0101735 0.000581354 0.03774
53749:-0.0101723 0.000581354 0.03774
53750:-0.0101729 0.000581354 0.03774
53784:-2.28291 2.50995e-10 1.75348e-05
53785:-1.31547 2.50995e-10 1.75348e-05
53786:-1.82453 2.50995e-10 1.75348e-05
53900:-0.0101167 1.27781e-05 0.00395641
53901:-0.00583039 1.27781e-05 0.00395641
53902:-0.00808579 1.27781e-05 0.00395641
54012:-0.569093 4.02372e-09 7.02073e-05
54013:-0.327538 4.02372e-09 7.02073e-05
54014:-0.454642 4.02372e-09 7.02073e-05
54040:-89.3315 1.64051e-13 4.48289e-07
54041:-51.4958 1.64051e-13 4.48289e-07
54042:-71.4045 1.64051e-13 4.48289e-07
54044:-0.000453567 0.292869 0.847071
54045:-0.000453567 0.292869 0.847071
54046:-0.000453567 0.292869 0.847071
54056:-4.44404 6.61224e-11 9e-06
54057:-2.55966 6.61224e-11 9e-06
54058:-3.5512 6.61224e-11 9e-06
54144:1.34494 5.34453e-08 0.000361858
54145:1.41122 5.34453e-08 0.000361858
54146:1.37635 5.34453e-08 0.000361858
54228:-1.46092 2.82171e-08 0.000262929
54229:-1.46092 2.82171e-08 0.000262929
54230:-1.46092 2.82171e-08 0.000262929
54248:0.000629681 0.243889 0.773
54249:0.000660713 0.243889 0.773
54250:0.000644385 0.243889 0.773
54324:-4.67533 2.75623e-09 8.21753e-05
54325:-4.67533 2.75623e-09 8.21753e-05
54326:-4.67533 2.75623e-09 8.21753e-05
54352:5.74048 2.9355e-09 8.48056e-05
54353:6.02339 2.9355e-09 8.48056e-05
54354:5.87453 2.9355e-09 8.48056e-05
54516:-1.19706 4.20403e-08 0.000320934
54517:-1.19706 4.20403e-08 0.000320934
54518:-1.19706 4.20403e-08 0.000320934
54540:0.110783 7.8821e-06 0.00439444
54541:0.116242 7.8821e-06 0.00439444
54542:0.113369 7.8821e-06 0.00439444
54600:-1061.66 5.34396e-14 3.61838e-07
54601:-1061.66 5.34396e-14 3.61838e-07
54602:-1061.66 5.34396e-14 3.61838e-07
54664:-4.25567e-05 0.722875 0.941022
54665:-2.45339e-05 0.722875 0.941022
54666:-0.000408264 0.361438 0.941022
54716:-4.26842e-05 0.716391 0.936792
54717:-2.45791e-05 0.716391 0.936792
54718:-3.41058e-05 0.716391 0.936792
54740:-0.000384234 0.408163 1
54741:-0.000384234 0.408163 1
54742:-0.000384234 0.408163 1
54752:54.0738 3.30612e-11 9e-06
54753:56.7386 3.30612e-11 9e-06
54754:55.3364 3.30612e-11 9e-06
54924:-4.44404 6.61224e-11 9e-06
54925:-2.55966 6.61224e-11 9e-06
54926:-3.5512 6.61224e-11 9e-06
55012:-33.8756 1.13816e-12 1.18078e-06
55013:-19.5106 1.13816e-12 1.18078e-06
55014:-27.0693 1.13816e-12 1.18078e-06
55016:-0.885936 1.66857e-09 4.52106e-05
55017:-0.510776 1.66857e-09 4.52106e-05
55018:-8.49845 8.34284e-10 4.52106e-05
55068:-0.0140098 0.00030693 0.0274222
55069:-0.0140098 0.00030693 0.0274222
55070:-0.0140098 0.00030693 0.0274222
55324:-0.487199 5.51247e-09 8.21753e-05
55325:-0.2808 5.51247e-09 8.21753e-05
55326:-0.389405 5.51247e-09 8.21753e-05
55440:-3.29148 5.56007e-09 0.000116714
55441:-3.29148 5.56007e-09 0.000116714
55442:-3.29148 5.56007e-09 0.000116714
55484:-23.0688 2.45194e-12 1.7331e-06
55485:-13.2822 2.45194e-12 1.7331e-06
55486:-18.4318 2.45194e-12 1.7331e-06
55604:0.0004868 0.408163 1
55605:0.00051079 0.408163 1
55606:0.000498167 0.408163 1
55664:-0.814981 1.96818e-09 4.91021e-05
55665:-0.469613 1.96818e-09 4.91021e-05
55666:-0.651342 1.96818e-09 4.91021e-05
55740:0.0609596 2.60181e-05 0.007984
55741:0.0639638 2.60181e-05 0.007984
55742:0.062383 2.60181e-05 0.007984
55756:-0.101587 1.26463e-07 0.000393595
55757:-0.0584922 1.26463e-07 0.000393595
55758:-0.0811681 1.26463e-07 0.000393595
55808:0.00074341 0.174998 0.654786
55809:0.000780047 0.174998 0.654786
55810:0.000760769 0.174998 0.654786
56052:-0.000384234 0.408163 1
56053:-0.000384234 0.408163 1
56054:-0.000384234 0.408163 1
56148:3.14203 9.79698e-09 0.000154928
56149:3.29687 9.79698e-09 0.000154928
56150:3.2154 9.79698e-09 0.000154928
56212:-23.9218 2.28201e-12 1.67196e-06
56213:-13.7763 2.28201e-12 1.67196e-06
56214:-19.1147 2.28201e-12 1.67196e-06
56224:-23.8089 2.30267e-12 1.67951e-06
56225:-13.7104 2.30267e-12 1.67951e-06
56226:-228.72 1.15133e-12 1.67951e-06
56380:-0.000453567 0.292869 0.847071
56381:-0.000453567 0.292869 0.847071
56382:-0.000453567 0.292869 0.847071
56484:-0.000535483 0.210142 0.717528
56485:-0.000535483 0.210142 0.717528
56486:-0.000535483 0.210142 0.717528
56492:-4.531 2.9355e-09 8.48056e-05
56493:-4.531 2.9355e-09 8.48056e-05
56494:-4.531 2.9355e-09 8.48056e-05
56520:25.1064 1.53436e-10 1.93886e-05
56521:26.3437 1.53436e-10 1.93886e-05
56522:25.6926 1.53436e-10 1.93886e-05
56524:-0.976031 6.32313e-08 0.000393595
56525:-0.976031 6.32313e-08 0.000393595
56526:-0.976031 6.32313e-08 0.000393595
56800:0.0608333 2.61225e-05 0.008
56801:0.0638313 2.61225e-05 0.008
56802:0.0622538 2.61225e-05 0.008
56856:0.00362384 0.000326167 0.0282685
56857:0.00447223 0.000326167 0.0282685
56858:0.00402582 0.000326167 0.0282685
56912:25.1064 1.53436e-10 1.93886e-05
56913:26.3437 1.53436e-10 1.93886e-05
56914:25.6926 1.53436e-10 1.93886e-05
57052:-0.00430212 7.06213e-05 0.00930113
57053:-0.00247818 7.06213e-05 0.00930113
57054:-0.00343792 7.06213e-05 0.00930113
57064:-0.00432304 6.99878e-05 0.00925933
57065:-0.00249144 6.99878e-05 0.00925933
57066:-0.00345521 6.99878e-05 0.00925933
57088:-1.04502 1.19724e-09 3.82965e-05
57089:-0.602126 1.19724e-09 3.82965e-05
57090:-0.835175 1.19724e-09 3.82965e-05
57148:-0.000497012 0.243889 0.773
57149:-0.000497012 0.243889 0.773
57150:-0.000497012 0.243889 0.773
57180:-33.3759 1.17324e-12 1.19884e-06
57181:-19.2248 1.17324e-12 1.19884e-06
57182:-26.671 1.17324e-12 1.19884e-06
57188:-5.24608 4.74447e-11 7.62363e-06
57189:-3.02111 4.74447e-11 7.62363e-06
57190:-4.19187 4.74447e-11 7.62363e-06
57376:-133051 7.38782e-20 3.00834e-10
57377:-76671 7.38782e-20 3.00834e-10
57378:-106338 7.38782e-20 3.00834e-10
57448:0.12223 6.47274e-06 0.00398224
57449:0.128254 6.47274e-06 0.00398224
57450:0.125084 6.47274e-06 0.00398224
57696:1345.06 5.34396e-14 3.61838e-07
57697:1411.34 5.34396e-14 3.61838e-07
57698:1376.46 5.34396e-14 3.61838e-07
57752:5.35861 3.36697e-09 9.08244e-05
57753:5.6227 3.36697e-09 9.08244e-05
57754:5.48374 3.36697e-09 9.08244e-05
57880:-3.36682 1.1557e-10 1.18984e-05
57881:-1.94146 1.1557e-10 1.18984e-05
57882:-2.69147 1.1557e-10 1.18984e-05
57980:-5.19236e-05 0.483403 0.769525
57981:-2.98825e-05 0.483403 0.769525
57982:-4.14803e-05 0.483403 0.769525
58016:-0.00145931 0.000613861 0.0274222
58017:-0.000840791 0.000613861 0.0274222
58018:-0.00116625 0.000613861 0.0274222
58032:-0.910864 7.26016e-08 0.000421751
58033:-0.910864 7.26016e-08 0.000421751
58034:-0.910864 7.26016e-08 0.000421751
58096:0.00116826 1.01462e-05 0.00398224
58097:0.00598036 1.01462e-05 0.00398224
58098:0.00344829 1.01462e-05 0.00398224
58100:-0.000384234 0.408163 1
58101:-0.000384234 0.408163 1
58102:-0.000384234 0.408163 1
58264:0.0554691 3.14353e-05 0.00877591
58265:0.0582027 3.14353e-05 0.00877591
58266:0.0567643 3.14353e-05 0.00877591
58360:1345.06 5.34396e-14 3.61838e-07
58361:1411.34 5.34396e-14 3.61838e-07
58362:1376.46 5.34396e-14 3.61838e-07
58424:0.0110897 3.53108e-05 0.00930113
58425:0.0136722 3.53108e-05 0.00930113
58426:0.0123133 3.53108e-05 0.00930113
58504:-0.342875 1.11201e-08 0.000116714
58505:-0.197562 1.11201e-08 0.000116714
58506:-0.274024 1.11201e-08 0.000116714
58540:-52.4682 4.74984e-13 7.62795e-07
58541:-503.686 2.37492e-13 7.62795e-07
58542:-41.9321 4.74984e-13 7.62795e-07
58576:-0.128063 3.67347e-06 0.003
58577:-0.128063 3.67347e-06 0.003
58578:-0.128063 3.67347e-06 0.003
58784:-58.6985 3.799e-13 6.82186e-07
58785:-33.833 3.799e-13 6.82186e-07
58786:-46.917 3.799e-13 6.82186e-07
58900:-0.976031 6.32313e-08 0.000393595
58901:-0.976031 6.32313e-08 0.000393595
58902:-0.976031 6.32313e-08 0.000393595
58956:-0.000396039 0.384091 0.970063
58957:-0.000396039 0.384091 0.970063
58958:-0.000396039 0.384091 0.970063
59032:0.0125359 0.000615317 0.0388269
59033:0.0131537 0.000615317 0.0388269
59034:0.0128286 0.000615317 0.0388269
59108:-0.0107363 1.13566e-05 0.00372986
59109:-0.00618952 1.13566e-05 0.00372986
59110:-0.00858199 1.13566e-05 0.00372986
59128:-2.35138 2.36192e-10 1.70099e-05
59129:-1.35402 2.36192e-10 1.70099e-05
59130:-1.87882 2.36192e-10 1.70099e-05
59280:-4.67533 2.75623e-09 8.21753e-05
59281:-4.67533 2.75623e-09 8.21753e-05
59282:-4.67533 2.75623e-09 8.21753e-05
59620:1.23657 6.32313e-08 0.000393595
59621:1.29751 6.32313e-08 0.000393595
59622:1.26544 6.32313e-08 0.000393595
59940:-0.122943 8.64165e-08 0.000325362
59941:-0.0708066 8.64165e-08 0.000325362
59942:-0.0982401 8.64165e-08 0.000325362
60024:-19.8166 1.53436e-10 1.93886e-05
60025:-19.8166 1.53436e-10 1.93886e-05
60026:-19.8166 1.53436e-10 1.93886e-05
60028:1.23657 6.32313e-08 0.000393595
60029:1.29751 6.32313e-08 0.000393595
60030:1.26544 6.32313e-08 0.000393595
60184:0.0258256 6.44688e-06 0.00397427
60185:0.0318618 6.44688e-06 0.00397427
60186:0.0286856 6.44688e-06 0.00397427
60212:-4.72422e-05 0.585738 0.847071
60213:-2.72177e-05 0.585738 0.847071
60214:-3.77544e-05 0.585738 0.847071
60248:0.00362228 0.000326219 0.0282685
60249:0.00447067 0.000326219 0.0282685
60250:0.00402426 0.000326219 0.0282685
60308:-6.13905e-05 0.346856 0.651842
60309:-3.53684e-05 0.346856 0.651842
60310:-4.9061e-05 0.346856 0.651842
60412:-50.6868 5.07908e-13 7.88788e-07
60413:-29.1796 5.07908e-13 7.88788e-07
60414:-40.4965 5.07908e-13 7.88788e-07
60420:-0.124805 8.37446e-08 0.000320292
60421:-0.071841 8.37446e-08 0.000320292
60422:-0.09971 8.37446e-08 0.000320292
60456:0.022278 0.000194894 0.0218516
60457:0.0233759 0.000194894 0.0218516
60458:0.0227982 0.000194894 0.0218516
60652:0.12223 6.47274e-06 0.00398224
60653:0.128254 6.47274e-06 0.00398224
60654:0.125084 6.47274e-06 0.00398224
60756:-903.786 1.60259e-15 4.43077e-08
60757:-520.94 1.60259e-15 4.43077e-08
60758:-722.39 1.60259e-15 4.43077e-08
60880:-4.24411 7.25117e-11 9.4248e-06
60881:-2.44432 7.25117e-11 9.4248e-06
60882:-3.39135 7.25117e-11 9.4248e-06
60916:-3.08629 6.32393e-09 0.000124473
60917:-3.08629 6.32393e-09 0.000124473
60918:-3.08629 6.32393e-09 0.000124473
60968:2.15222 2.08747e-08 0.000226148
60969:2.25828 2.08747e-08 0.000226148
60970:2.20247 2.08747e-08 0.000226148
61016:4.17009 5.56007e-09 0.000116714
61017:4.3756 5.56007e-09 0.000116714
61018:4.26747 5.56007e-09 0.000116714
