Version 9.4.0
Id 
Min label:-1
Max label:0
bits:18
lda:0
0 ngram:
0 skip:
options: --automl 3 --cb_adf --cb_explore_adf --cb_type mtr --csoaa_ldf multiline --csoaa_rank --epsilon 0.200000002980232 --interaction_type cubic --oracle_type rand --priority_type favor_popular_namespaces --random_seed 13208026025966453242
Checksum: 2817551013
_automl_state = Experimenting
_automl_config_manager_count = 3
_automl_config_manager_champ = 0
_automl_config_manager_valid_config_size = 11
_automl_config_manager_ns_counter.size() = 9
_automl_config_manager_ns_counter.key0 = 69
_automl_config_manager_ns_counter[69] = 18
_automl_config_manager_ns_counter.key1 = 71
_automl_config_manager_ns_counter[71] = 36
_automl_config_manager_ns_counter.key2 = 77
_automl_config_manager_ns_counter[77] = 36
_automl_config_manager_ns_counter.key3 = 79
_automl_config_manager_ns_counter[79] = 36
_automl_config_manager_ns_counter.key4 = 82
_automl_config_manager_ns_counter[82] = 27
_automl_config_manager_ns_counter.key5 = 83
_automl_config_manager_ns_counter[83] = 30
_automl_config_manager_ns_counter.key6 = 84
_automl_config_manager_ns_counter[84] = 30
_automl_config_manager_ns_counter.key7 = 105
_automl_config_manager_ns_counter[105] = 36
_automl_config_manager_ns_counter.key8 = 106
_automl_config_manager_ns_counter[106] = 30
_automl_config_manager_configs.size() = 11
_automl_config_manager_configs[0]_exclusions.size() = 0
_automl_config_manager_configs[0]_lease = 4000
_automl_config_manager_configs[0]_state = Live
_automl_config_manager_configs[1]_exclusions.size() = 1
_automl_config_manager_configs[1]_exclusions[0].size() = 3
_automl_config_manager_configs[1]_exclusions[0][0] = 69
_automl_config_manager_configs[1]_exclusions[0][1] = 69
_automl_config_manager_configs[1]_exclusions[0][2] = 69
_automl_config_manager_configs[1]_lease = 4000
_automl_config_manager_configs[1]_state = New
_automl_config_manager_configs[2]_exclusions.size() = 1
_automl_config_manager_configs[2]_exclusions[0].size() = 3
_automl_config_manager_configs[2]_exclusions[0][0] = 69
_automl_config_manager_configs[2]_exclusions[0][1] = 69
_automl_config_manager_configs[2]_exclusions[0][2] = 105
_automl_config_manager_configs[2]_lease = 4000
_automl_config_manager_configs[2]_state = Live
_automl_config_manager_configs[3]_exclusions.size() = 1
_automl_config_manager_configs[3]_exclusions[0].size() = 3
_automl_config_manager_configs[3]_exclusions[0][0] = 69
_automl_config_manager_configs[3]_exclusions[0][1] = 69
_automl_config_manager_configs[3]_exclusions[0][2] = 84
_automl_config_manager_configs[3]_lease = 4000
_automl_config_manager_configs[3]_state = Live
_automl_config_manager_configs[4]_exclusions.size() = 1
_automl_config_manager_configs[4]_exclusions[0].size() = 3
_automl_config_manager_configs[4]_exclusions[0][0] = 79
_automl_config_manager_configs[4]_exclusions[0][1] = 82
_automl_config_manager_configs[4]_exclusions[0][2] = 83
_automl_config_manager_configs[4]_lease = 4000
_automl_config_manager_configs[4]_state = New
_automl_config_manager_configs[5]_exclusions.size() = 1
_automl_config_manager_configs[5]_exclusions[0].size() = 3
_automl_config_manager_configs[5]_exclusions[0][0] = 83
_automl_config_manager_configs[5]_exclusions[0][1] = 105
_automl_config_manager_configs[5]_exclusions[0][2] = 106
_automl_config_manager_configs[5]_lease = 4000
_automl_config_manager_configs[5]_state = New
_automl_config_manager_configs[6]_exclusions.size() = 1
_automl_config_manager_configs[6]_exclusions[0].size() = 3
_automl_config_manager_configs[6]_exclusions[0][0] = 71
_automl_config_manager_configs[6]_exclusions[0][1] = 71
_automl_config_manager_configs[6]_exclusions[0][2] = 83
_automl_config_manager_configs[6]_lease = 4000
_automl_config_manager_configs[6]_state = New
_automl_config_manager_configs[7]_exclusions.size() = 1
_automl_config_manager_configs[7]_exclusions[0].size() = 3
_automl_config_manager_configs[7]_exclusions[0][0] = 82
_automl_config_manager_configs[7]_exclusions[0][1] = 105
_automl_config_manager_configs[7]_exclusions[0][2] = 105
_automl_config_manager_configs[7]_lease = 4000
_automl_config_manager_configs[7]_state = New
_automl_config_manager_configs[8]_exclusions.size() = 1
_automl_config_manager_configs[8]_exclusions[0].size() = 3
_automl_config_manager_configs[8]_exclusions[0][0] = 84
_automl_config_manager_configs[8]_exclusions[0][1] = 84
_automl_config_manager_configs[8]_exclusions[0][2] = 84
_automl_config_manager_configs[8]_lease = 4000
_automl_config_manager_configs[8]_state = New
_automl_config_manager_configs[9]_exclusions.size() = 1
_automl_config_manager_configs[9]_exclusions[0].size() = 3
_automl_config_manager_configs[9]_exclusions[0][0] = 79
_automl_config_manager_configs[9]_exclusions[0][1] = 83
_automl_config_manager_configs[9]_exclusions[0][2] = 83
_automl_config_manager_configs[9]_lease = 4000
_automl_config_manager_configs[9]_state = New
_automl_config_manager_configs[10]_exclusions.size() = 1
_automl_config_manager_configs[10]_exclusions[0].size() = 3
_automl_config_manager_configs[10]_exclusions[0][0] = 71
_automl_config_manager_configs[10]_exclusions[0][1] = 77
_automl_config_manager_configs[10]_exclusions[0][2] = 82
_automl_config_manager_configs[10]_lease = 4000
_automl_config_manager_configs[10]_state = New
_automl_config_manager_estimators.size() = 3
_automl_config_manager_estimators[0].first_chisq_alpha = 0.01666666753590107
_automl_config_manager_estimators[0].first_chisq_tau = 1
_automl_config_manager_estimators[0].first_chisq_n = 0
_automl_config_manager_estimators[0].first_chisq_sumw = 0
_automl_config_manager_estimators[0].first_chisq_sumwsq = 0
_automl_config_manager_estimators[0].first_chisq_sumwr = 0
_automl_config_manager_estimators[0].first_chisq_sumwsqr = 0
_automl_config_manager_estimators[0].first_chisq_sumwsqrsq = 0
_automl_config_manager_estimators[0].first_chisq_rmin = 0
_automl_config_manager_estimators[0].first_chisq_rmax = 1
_automl_config_manager_estimators[0].first_chisq_wmin = 0
_automl_config_manager_estimators[0].first_chisq_wmax = inf
_automl_config_manager_estimators[0].first_ips = 0
_automl_config_manager_estimators[0].first_count = 0
_automl_config_manager_estimators[0].first_lastw = 0
_automl_config_manager_estimators[0].first_lastr = 0
_automl_config_manager_estimators[0].first_index = 0
_automl_config_manager_estimators[0].first_eligible_to_inactivate = false
_automl_config_manager_estimators[0].second_chisq_alpha = 0.01666666753590107
_automl_config_manager_estimators[0].second_chisq_tau = 1
_automl_config_manager_estimators[0].second_chisq_n = 0
_automl_config_manager_estimators[0].second_chisq_sumw = 0
_automl_config_manager_estimators[0].second_chisq_sumwsq = 0
_automl_config_manager_estimators[0].second_chisq_sumwr = 0
_automl_config_manager_estimators[0].second_chisq_sumwsqr = 0
_automl_config_manager_estimators[0].second_chisq_sumwsqrsq = 0
_automl_config_manager_estimators[0].second_chisq_rmin = 0
_automl_config_manager_estimators[0].second_chisq_rmax = 1
_automl_config_manager_estimators[0].second_chisq_wmin = 0
_automl_config_manager_estimators[0].second_chisq_wmax = inf
_automl_config_manager_estimators[0].second_ips = 0
_automl_config_manager_estimators[0].second_count = 0
_automl_config_manager_estimators[0].second_lastw = 0
_automl_config_manager_estimators[0].second_lastr = 0
_automl_config_manager_estimators[1].first_chisq_alpha = 0.01666666753590107
_automl_config_manager_estimators[1].first_chisq_tau = 1
_automl_config_manager_estimators[1].first_chisq_n = 3
_automl_config_manager_estimators[1].first_chisq_sumw = 0
_automl_config_manager_estimators[1].first_chisq_sumwsq = 0
_automl_config_manager_estimators[1].first_chisq_sumwr = 0
_automl_config_manager_estimators[1].first_chisq_sumwsqr = 0
_automl_config_manager_estimators[1].first_chisq_sumwsqrsq = 0
_automl_config_manager_estimators[1].first_chisq_rmin = 0
_automl_config_manager_estimators[1].first_chisq_rmax = 1
_automl_config_manager_estimators[1].first_chisq_wmin = 0
_automl_config_manager_estimators[1].first_chisq_wmax = inf
_automl_config_manager_estimators[1].first_ips = 0
_automl_config_manager_estimators[1].first_count = 3
_automl_config_manager_estimators[1].first_lastw = 0
_automl_config_manager_estimators[1].first_lastr = 1
_automl_config_manager_estimators[1].first_index = 3
_automl_config_manager_estimators[1].first_eligible_to_inactivate = false
_automl_config_manager_estimators[1].second_chisq_alpha = 0.01666666753590107
_automl_config_manager_estimators[1].second_chisq_tau = 1
_automl_config_manager_estimators[1].second_chisq_n = 3
_automl_config_manager_estimators[1].second_chisq_sumw = 0
_automl_config_manager_estimators[1].second_chisq_sumwsq = 0
_automl_config_manager_estimators[1].second_chisq_sumwr = 0
_automl_config_manager_estimators[1].second_chisq_sumwsqr = 0
_automl_config_manager_estimators[1].second_chisq_sumwsqrsq = 0
_automl_config_manager_estimators[1].second_chisq_rmin = 0
_automl_config_manager_estimators[1].second_chisq_rmax = 1
_automl_config_manager_estimators[1].second_chisq_wmin = 0
_automl_config_manager_estimators[1].second_chisq_wmax = inf
_automl_config_manager_estimators[1].second_ips = 0
_automl_config_manager_estimators[1].second_count = 3
_automl_config_manager_estimators[1].second_lastw = 0
_automl_config_manager_estimators[1].second_lastr = 1
_automl_config_manager_estimators[2].first_chisq_alpha = 0.01666666753590107
_automl_config_manager_estimators[2].first_chisq_tau = 1
_automl_config_manager_estimators[2].first_chisq_n = 3
_automl_config_manager_estimators[2].first_chisq_sumw = 0
_automl_config_manager_estimators[2].first_chisq_sumwsq = 0
_automl_config_manager_estimators[2].first_chisq_sumwr = 0
_automl_config_manager_estimators[2].first_chisq_sumwsqr = 0
_automl_config_manager_estimators[2].first_chisq_sumwsqrsq = 0
_automl_config_manager_estimators[2].first_chisq_rmin = 0
_automl_config_manager_estimators[2].first_chisq_rmax = 1
_automl_config_manager_estimators[2].first_chisq_wmin = 0
_automl_config_manager_estimators[2].first_chisq_wmax = inf
_automl_config_manager_estimators[2].first_ips = 0
_automl_config_manager_estimators[2].first_count = 3
_automl_config_manager_estimators[2].first_lastw = 0
_automl_config_manager_estimators[2].first_lastr = 1
_automl_config_manager_estimators[2].first_index = 2
_automl_config_manager_estimators[2].first_eligible_to_inactivate = true
_automl_config_manager_estimators[2].second_chisq_alpha = 0.01666666753590107
_automl_config_manager_estimators[2].second_chisq_tau = 1
_automl_config_manager_estimators[2].second_chisq_n = 3
_automl_config_manager_estimators[2].second_chisq_sumw = 0
_automl_config_manager_estimators[2].second_chisq_sumwsq = 0
_automl_config_manager_estimators[2].second_chisq_sumwr = 0
_automl_config_manager_estimators[2].second_chisq_sumwsqr = 0
_automl_config_manager_estimators[2].second_chisq_sumwsqrsq = 0
_automl_config_manager_estimators[2].second_chisq_rmin = 0
_automl_config_manager_estimators[2].second_chisq_rmax = 1
_automl_config_manager_estimators[2].second_chisq_wmin = 0
_automl_config_manager_estimators[2].second_chisq_wmax = inf
_automl_config_manager_estimators[2].second_ips = 0
_automl_config_manager_estimators[2].second_count = 3
_automl_config_manager_estimators[2].second_lastw = 0
_automl_config_manager_estimators[2].second_lastr = 1
_automl_config_manager_index_queue.size() = 8
_automl_config_manager_index_queue[0].first = -6
_automl_config_manager_index_queue[0].second = 1
_automl_config_manager_index_queue[1].first = -9
_automl_config_manager_index_queue[1].second = 7
_automl_config_manager_index_queue[2].first = -10
_automl_config_manager_index_queue[2].second = 8
_automl_config_manager_index_queue[3].first = -10
_automl_config_manager_index_queue[3].second = 5
_automl_config_manager_index_queue[4].first = -12
_automl_config_manager_index_queue[4].second = 10
_automl_config_manager_index_queue[5].first = -12
_automl_config_manager_index_queue[5].second = 9
_automl_config_manager_index_queue[6].first = -12
_automl_config_manager_index_queue[6].second = 6
_automl_config_manager_index_queue[7].first = -12
_automl_config_manager_index_queue[7].second = 4
_automl_config_manager_per_live_model_state_double.size() = 9
_automl_config_manager_per_live_model_state_double[0] = 527.0563162750805
_automl_config_manager_per_live_model_state_double[1] = 0.20408162474632263
_automl_config_manager_per_live_model_state_double[2] = 0
_automl_config_manager_per_live_model_state_double[3] = 499.1047319386853
_automl_config_manager_per_live_model_state_double[4] = 0.20408162474632263
_automl_config_manager_per_live_model_state_double[5] = 0
_automl_config_manager_per_live_model_state_double[6] = 513.3756726724569
_automl_config_manager_per_live_model_state_double[7] = 0.20408162474632263
_automl_config_manager_per_live_model_state_double[8] = 0
_automl_config_manager_per_live_model_state_uint64.size() = 6
_automl_config_manager_per_live_model_state_uint64[0] = 3
_automl_config_manager_per_live_model_state_uint64[1] = 36
_automl_config_manager_per_live_model_state_uint64[2] = 3
_automl_config_manager_per_live_model_state_uint64[3] = 36
_automl_config_manager_per_live_model_state_uint64[4] = 3
_automl_config_manager_per_live_model_state_uint64[5] = 36
event_sum 0
action_sum 0
:1
initial_t 0
norm normalizer 0
t 3
sum_loss -0.122449
sum_loss_since_last_dump 0
dump_interval 4
min_label -1
max_label 0
weighted_labeled_examples 3
weighted_labels 0
weighted_unlabeled_examples 0
example_number 3
total_features 508674
total_weight 0
sd::oec.weighted_labeled_examples 3
current_pass 1
l1_state 0
l2_state 1
28:-10.2068 1.25617e-11 3.92276e-06
29:-11.5468 1.25617e-11 3.92276e-06
40:-10.2529 1.2449e-11 3.90513e-06
41:-11.5988 1.2449e-11 3.90513e-06
42:-10.9165 1.2449e-11 3.90513e-06
72:9.73589 1.02001e-09 4.99903e-05
73:10.203 1.02001e-09 4.99903e-05
74:9.9582 1.02001e-09 4.99903e-05
184:-0.0133685 7.34694e-06 0.003
185:-0.0151217 7.34694e-06 0.003
186:-0.014233 7.34694e-06 0.003
188:-0.00106539 0.00115227 0.0375703
189:-0.00120527 0.00115227 0.0375703
190:-0.00113437 0.00115227 0.0375703
224:0.000486742 0.408163 1
225:0.000510096 0.408163 1
226:0.000497856 0.408163 1
228:-1.13707 1.01296e-09 3.5226e-05
229:-1.28632 1.01296e-09 3.5226e-05
230:-1.21067 1.01296e-09 3.5226e-05
236:-0.102166 1.25454e-07 0.000392022
237:-0.115576 1.25454e-07 0.000392022
238:-0.108778 1.25454e-07 0.000392022
328:-0.935635 1.49444e-09 4.27865e-05
329:-1.05846 1.49444e-09 4.27865e-05
330:-0.996201 1.49444e-09 4.27865e-05
368:-4.00537e-05 0.816326 1
369:-4.5311e-05 0.816326 1
370:-4.26461e-05 0.816326 1
400:-0.00432749 6.99878e-05 0.00925933
401:-0.00489529 6.99878e-05 0.00925933
402:-0.00460747 6.99878e-05 0.00925933
420:-0.00430655 7.06213e-05 0.00930113
421:-0.00487181 7.06213e-05 0.00930113
422:-0.00458527 7.06213e-05 0.00930113
448:0.017213 0.000326167 0.0282685
449:0.0180389 0.000326167 0.0282685
450:0.017606 0.000326167 0.0282685
544:0.162229 3.67347e-06 0.003
545:0.170013 3.67347e-06 0.003
546:0.165933 3.67347e-06 0.003
740:-0.0117692 9.45736e-06 0.00340371
741:-0.0133137 9.45736e-06 0.00340371
742:-0.0125308 9.45736e-06 0.00340371
868:-478.375 5.72033e-15 8.37102e-08
869:-541.169 5.72033e-15 8.37102e-08
870:-509.339 5.72033e-15 8.37102e-08
980:-1.25859 8.252e-10 3.17942e-05
981:-1.42388 8.252e-10 3.17942e-05
982:-1.34009 8.252e-10 3.17942e-05
984:-321.998 1.26286e-14 1.24378e-07
985:-364.268 1.26286e-14 1.24378e-07
986:-342.841 1.26286e-14 1.24378e-07
1080:-0.00966513 1.40156e-05 0.00414356
1081:-0.0109336 1.40156e-05 0.00414356
1082:-0.0102906 1.40156e-05 0.00414356
1200:-6.64637 2.96569e-11 6.02742e-06
1201:-7.51859 2.96569e-11 6.02742e-06
1202:-7.07646 2.96569e-11 6.02742e-06
1732:1.15387 7.26016e-08 0.000421751
1733:1.20923 7.26016e-08 0.000421751
1734:1.18021 7.26016e-08 0.000421751
1864:-0.0964771 6.47274e-06 0.00398224
1865:-0.101944 6.47274e-06 0.00398224
1866:-0.0991013 6.47274e-06 0.00398224
1944:0.0506138 3.77484e-05 0.00961684
1945:0.0530424 3.77484e-05 0.00961684
1946:0.0517696 3.77484e-05 0.00961684
1996:-0.0951103 1.44623e-07 0.000420908
1997:-0.107597 1.44623e-07 0.000420908
1998:-0.101268 1.44623e-07 0.000420908
2088:0.0203223 0.000234034 0.0239454
2089:0.0212974 0.000234034 0.0239454
2090:0.0207863 0.000234034 0.0239454
2116:-0.474325 5.81835e-09 8.44244e-05
2117:-0.536588 5.81835e-09 8.44244e-05
2118:-0.505027 5.81835e-09 8.44244e-05
2140:-4.0405e-05 0.802552 0.991527
2141:-4.57073e-05 0.802552 0.991527
2142:-4.30195e-05 0.802552 0.991527
2180:-5.34702e-05 0.45901 0.749859
2181:-6.04834e-05 0.45901 0.749859
2182:-5.69284e-05 0.45901 0.749859
2272:-9141.3 1.56555e-17 4.37927e-09
2273:-10341.4 1.56555e-17 4.37927e-09
2274:-9733.05 1.56555e-17 4.37927e-09
2312:0.000574571 0.292869 0.847071
2313:0.00060214 0.292869 0.847071
2314:0.000587691 0.292869 0.847071
2320:-5.58772e-05 0.420283 0.717528
2321:-6.32068e-05 0.420283 0.717528
2322:-5.94914e-05 0.420283 0.717528
2360:-534398 4.59411e-21 7.50186e-11
2361:-604502 4.59411e-21 7.50186e-11
2362:-568966 4.59411e-21 7.50186e-11
2488:-56887.4 1.86122e-17 6.75277e-09
2489:-60110.8 1.86122e-17 6.75277e-09
2490:-58434.8 1.86122e-17 6.75277e-09
2512:-4.65973 6.03848e-11 8.60066e-06
2513:-5.27108 6.03848e-11 8.60066e-06
2514:-4.96118 6.03848e-11 8.60066e-06
2548:-4.00537e-05 0.816326 1
2549:-4.5311e-05 0.816326 1
2550:-4.26461e-05 0.816326 1
2576:-5409.66 4.46455e-17 7.39532e-09
2577:-6120.12 4.46455e-17 7.39532e-09
2578:-5760 4.46455e-17 7.39532e-09
3024:-450.08 6.46768e-15 8.90107e-08
3025:-509.143 6.46768e-15 8.90107e-08
3026:-479.204 6.46768e-15 8.90107e-08
3136:0.167242 3.45681e-06 0.00291019
3137:0.175267 3.45681e-06 0.00291019
3138:0.171061 3.45681e-06 0.00291019
3224:-0.00987552 0.000617786 0.0389047
3225:-0.0104351 0.000617786 0.0389047
3226:-0.0101441 0.000617786 0.0389047
3248:0.000486742 0.408163 1
3249:0.000510096 0.408163 1
3250:0.000497856 0.408163 1
3416:-113.889 4.6465e-12 3.37401e-06
3417:-120.342 4.6465e-12 3.37401e-06
3418:-116.987 4.6465e-12 3.37401e-06
3452:-2159.52 1.29139e-14 1.77874e-07
3453:-2281.88 1.29139e-14 1.77874e-07
3454:-2218.26 1.29139e-14 1.77874e-07
3600:-0.379002 9.10251e-09 0.000105596
3601:-0.428764 9.10251e-09 0.000105596
3602:-0.40354 9.10251e-09 0.000105596
3620:-0.112237 1.03771e-07 0.000356538
3621:-0.126976 1.03771e-07 0.000356538
3622:-0.119505 1.03771e-07 0.000356538
3636:0.000486742 0.408163 1
3637:0.000510096 0.408163 1
3638:0.000497856 0.408163 1
3696:0.0428697 5.26089e-05 0.0113531
3697:0.0449267 5.26089e-05 0.0113531
3698:0.0438486 5.26089e-05 0.0113531
3776:-0.000389578 0.404537 0.995505
3777:-0.000411653 0.404537 0.995505
3778:-0.000400175 0.404537 0.995505
3828:-0.00038771 0.400874 0.99103
3829:-0.000409679 0.400874 0.99103
3830:-0.000398256 0.400874 0.99103
3924:0.0125101 0.000617786 0.0389047
3925:0.0131104 0.000617786 0.0389047
3926:0.0127958 0.000617786 0.0389047
3928:-1.1784 4.33816e-08 0.000326014
3929:-1.24518 4.33816e-08 0.000326014
3930:-1.21046 4.33816e-08 0.000326014
3988:-6.73017e-05 0.288848 0.594843
3989:-7.61367e-05 0.288848 0.594843
3990:-7.16582e-05 0.288848 0.594843
4052:-0.000384234 0.408163 1
4053:-0.000406006 0.408163 1
4054:-0.000394686 0.408163 1
4152:-4.01854e-05 0.809816 0.996004
4153:-4.54621e-05 0.809816 0.996004
4154:-4.27873e-05 0.809816 0.996004
4304:-0.0413813 3.51696e-05 0.00928253
4305:-0.0437261 3.51696e-05 0.00928253
4306:-0.0425069 3.51696e-05 0.00928253
4464:-0.00987552 0.000617786 0.0389047
4465:-0.0104351 0.000617786 0.0389047
4466:-0.0101441 0.000617786 0.0389047
4468:-0.152206 5.64342e-08 0.000262929
4469:-0.172191 5.64342e-08 0.000262929
4470:-0.16206 5.64342e-08 0.000262929
4504:-0.00133115 0.00073829 0.0300733
4505:-0.00150592 0.00073829 0.0300733
4506:-0.00141733 0.00073829 0.0300733
4520:0.113918 7.44698e-06 0.00427143
4521:0.119384 7.44698e-06 0.00427143
4522:0.116519 7.44698e-06 0.00427143
4524:-0.910864 7.26016e-08 0.000421751
4525:-0.962476 7.26016e-08 0.000421751
4526:-0.93564 7.26016e-08 0.000421751
4584:0.000487577 0.406532 0.998
4585:0.000510971 0.406532 0.998
4586:0.00049871 0.406532 0.998
4592:-0.0100575 1.29455e-05 0.00398224
4593:-0.0113776 1.29455e-05 0.00398224
4594:-0.0107085 1.29455e-05 0.00398224
4684:-22.7933 2.5255e-12 1.7589e-06
4685:-25.7833 2.5255e-12 1.7589e-06
4686:-24.2676 2.5255e-12 1.7589e-06
4704:-0.0338414 5.26089e-05 0.0113531
4705:-0.0357589 5.26089e-05 0.0113531
4706:-0.0347619 5.26089e-05 0.0113531
4860:-0.000384894 0.406532 0.998
4861:-0.000406703 0.406532 0.998
4862:-0.000395363 0.406532 0.998
4900:-60550.5 3.56722e-19 6.61048e-10
4901:-68500.8 3.56722e-19 6.61048e-10
4902:-64470.8 3.56722e-19 6.61048e-10
4912:0.113918 7.44698e-06 0.00427143
4913:0.119384 7.44698e-06 0.00427143
4914:0.116519 7.44698e-06 0.00427143
4952:-0.000384234 0.408163 1
4953:-0.000406006 0.408163 1
4954:-0.000394686 0.408163 1
4968:-1.13707 1.01296e-09 3.5226e-05
4969:-1.28632 1.01296e-09 3.5226e-05
4970:-1.21067 1.01296e-09 3.5226e-05
5328:0.0125101 0.000617786 0.0389047
5329:0.0131104 0.000617786 0.0389047
5330:0.0127958 0.000617786 0.0389047
5360:-0.538484 4.51976e-09 7.44091e-05
5361:-0.609144 4.51976e-09 7.44091e-05
5362:-0.573326 4.51976e-09 7.44091e-05
5384:-0.976031 6.32313e-08 0.000393595
5385:-1.03134 6.32313e-08 0.000393595
5386:-1.00258 6.32313e-08 0.000393595
5396:-0.000408264 0.361438 0.941022
5397:-0.000431397 0.361438 0.941022
5398:-0.000419369 0.361438 0.941022
5456:-0.000396039 0.384091 0.970063
5457:-0.00041848 0.384091 0.970063
5458:-0.000406812 0.384091 0.970063
5464:132.949 5.47021e-12 3.66088e-06
5465:139.329 5.47021e-12 3.66088e-06
5466:135.985 5.47021e-12 3.66088e-06
5632:-0.0100821 1.28938e-05 0.00397427
5633:-0.0114051 1.28938e-05 0.00397427
5634:-0.0107344 1.28938e-05 0.00397427
5656:0.144292 4.64438e-06 0.00337324
5657:0.151215 4.64438e-06 0.00337324
5658:0.147586 4.64438e-06 0.00337324
5752:-0.00121402 0.000886558 0.032955
5753:-0.00137346 0.000886558 0.032955
5754:-0.00129264 0.000886558 0.032955
5792:-0.0100821 1.28938e-05 0.00397427
5793:-0.0114051 1.28938e-05 0.00397427
5794:-0.0107344 1.28938e-05 0.00397427
5924:0.0523337 3.53107e-05 0.00930113
5925:0.0548447 3.53107e-05 0.00930113
5926:0.0535287 3.53107e-05 0.00930113
6032:-0.128309 3.65879e-06 0.002994
6033:-0.135579 3.65879e-06 0.002994
6034:-0.131799 3.65879e-06 0.002994
6080:132.949 5.47021e-12 3.66088e-06
6081:139.329 5.47021e-12 3.66088e-06
6082:135.985 5.47021e-12 3.66088e-06
6220:-0.000385972 0.404502 0.995505
6221:-0.000407842 0.404502 0.995505
6222:-0.000396471 0.404502 0.995505
6240:280.784 1.22597e-12 1.7331e-06
6241:294.256 1.22597e-12 1.7331e-06
6242:287.195 1.22597e-12 1.7331e-06
6252:-6.00272 1.67184e-09 6.4e-05
6253:-6.34285 1.67184e-09 6.4e-05
6254:-6.166 1.67184e-09 6.4e-05
6256:-0.0015727 0.000529744 0.0254742
6257:-0.00177911 0.000529744 0.0254742
6258:-0.00167448 0.000529744 0.0254742
6264:-0.000384234 0.408163 1
6265:-0.000406006 0.408163 1
6266:-0.000394686 0.408163 1
6504:-21.571 2.81529e-12 1.85708e-06
6505:-24.4023 2.81529e-12 1.85708e-06
6506:-22.9671 2.81529e-12 1.85708e-06
6536:-12.7256 8.09361e-12 3.14876e-06
6537:-14.3952 8.09361e-12 3.14876e-06
6538:-13.5489 8.09361e-12 3.14876e-06
6764:-0.0621295 1.56089e-05 0.006184
6765:-0.0656499 1.56089e-05 0.006184
6766:-0.0638194 1.56089e-05 0.006184
6784:-1.34348 7.26825e-10 2.98389e-05
6785:-1.51971 7.26825e-10 2.98389e-05
6786:-1.43038 7.26825e-10 2.98389e-05
6972:-228.72 1.15133e-12 1.67951e-06
6973:-241.68 1.15133e-12 1.67951e-06
6974:-234.941 1.15133e-12 1.67951e-06
7184:-0.00910104 1.58274e-05 0.00440325
7185:-0.0102951 1.58274e-05 0.00440325
7186:-0.00968982 1.58274e-05 0.00440325
7352:-0.000467589 0.275596 0.821712
7353:-0.000494083 0.275596 0.821712
7354:-0.000480307 0.275596 0.821712
7392:-1.15239 4.53703e-08 0.000333402
7393:-1.21768 4.53703e-08 0.000333402
7394:-1.18373 4.53703e-08 0.000333402
7396:-0.00353041 0.000105218 0.0113531
7397:-0.00399358 0.000105218 0.0113531
7398:-0.0037588 0.000105218 0.0113531
7524:-0.0135879 0.000326167 0.0282685
7525:-0.0143579 0.000326167 0.0282685
7526:-0.0139575 0.000326167 0.0282685
7556:-0.00500067 5.22449e-05 0.008
7557:-0.00565743 5.22449e-05 0.008
7558:-0.00532452 5.22449e-05 0.008
7568:0.0125101 0.000617786 0.0389047
7569:0.0131104 0.000617786 0.0389047
7570:0.0127958 0.000617786 0.0389047
7680:-0.00102976 0.00123557 0.0389047
7681:-0.00116489 0.00123557 0.0389047
7682:-0.00109639 0.00123557 0.0389047
7768:-0.000384234 0.408163 1
7769:-0.000406006 0.408163 1
7770:-0.000394686 0.408163 1
7784:0.110769 7.8821e-06 0.00439444
7785:0.116084 7.8821e-06 0.00439444
7786:0.113299 7.8821e-06 0.00439444
7788:-0.000385972 0.404502 0.995505
7789:-0.000407842 0.404502 0.995505
7790:-0.000396471 0.404502 0.995505
7884:0.0617685 2.53364e-05 0.00787872
7885:0.0647323 2.53364e-05 0.00787872
7886:0.0631789 2.53364e-05 0.00787872
7888:-4.74904e-05 0.580483 0.843263
7889:-5.37247e-05 0.580483 0.843263
7890:-5.05645e-05 0.580483 0.843263
7928:-0.00910104 1.58274e-05 0.00440325
7929:-0.0102951 1.58274e-05 0.00440325
7930:-0.00968982 1.58274e-05 0.00440325
8068:-5.17935e-05 0.487779 0.773
8069:-5.85932e-05 0.487779 0.773
8070:-5.51464e-05 0.487779 0.773
8080:-0.00102976 0.00123557 0.0389047
8081:-0.00116489 0.00123557 0.0389047
8082:-0.00109639 0.00123557 0.0389047
8176:0.122216 6.47274e-06 0.00398224
8177:0.12808 6.47274e-06 0.00398224
8178:0.125006 6.47274e-06 0.00398224
8304:-4.14828e-05 0.762054 0.966187
8305:-4.69252e-05 0.762054 0.966187
8306:-4.41664e-05 0.762054 0.966187
8348:-92.5794 1.52958e-13 4.32867e-07
8349:-104.727 1.52958e-13 4.32867e-07
8350:-98.5693 1.52958e-13 4.32867e-07
8452:-2.44301 2.52302e-10 1.75348e-05
8453:-2.76364 2.52302e-10 1.75348e-05
8454:-33.6794 1.30683e-12 1.26525e-06
8488:-7952.43 2.0724e-17 5.03854e-09
8490:-8466.96 2.0724e-17 5.03854e-09
8544:-259.179 1.95129e-14 1.54607e-07
8546:-275.947 1.95129e-14 1.54607e-07
8644:-0.912941 1.57016e-09 4.38571e-05
8645:-1.03279 1.57016e-09 4.38571e-05
8646:-0.972037 1.57016e-09 4.38571e-05
8728:-0.00987552 0.000617786 0.0389047
8729:-0.0104351 0.000617786 0.0389047
8730:-0.0101441 0.000617786 0.0389047
9184:0.000629606 0.243889 0.773
9185:0.000659816 0.243889 0.773
9186:0.000643983 0.243889 0.773
9192:-104.95 5.47021e-12 3.66088e-06
9193:-110.897 5.47021e-12 3.66088e-06
9194:-107.805 5.47021e-12 3.66088e-06
9252:-1.08109 1.11993e-09 3.70393e-05
9253:-1.223 1.11993e-09 3.70393e-05
9254:-1.15106 1.11993e-09 3.70393e-05
9300:-1.43596 6.35592e-10 2.79034e-05
9301:-1.62438 6.35592e-10 2.79034e-05
9302:-1.52887 6.35592e-10 2.79034e-05
9304:-6.11703e-05 0.349995 0.654786
9305:-6.91991e-05 0.349995 0.654786
9306:-6.51293e-05 0.349995 0.654786
9464:-0.000384234 0.408163 1
9465:-0.000406006 0.408163 1
9466:-0.000394686 0.408163 1
9532:-0.0480161 2.61225e-05 0.008
9533:-0.0507368 2.61225e-05 0.008
9534:-0.0493222 2.61225e-05 0.008
9600:-0.0899267 7.44698e-06 0.00427143
9601:-0.0950221 7.44698e-06 0.00427143
9602:-0.0923727 7.44698e-06 0.00427143
9612:-4.01056e-05 0.813065 0.998
9613:-4.53712e-05 0.813065 0.998
9614:-4.27021e-05 0.813065 0.998
9624:-0.976031 6.32313e-08 0.000393595
9625:-1.03134 6.32313e-08 0.000393595
9626:-1.00258 6.32313e-08 0.000393595
9684:-0.000497012 0.243889 0.773
9685:-0.000525174 0.243889 0.773
9686:-0.000510531 0.243889 0.773
9716:-0.886847 1.66857e-09 4.52106e-05
9717:-1.00317 1.66857e-09 4.52106e-05
9718:-0.944206 1.66857e-09 4.52106e-05
9748:-23.4139 1.09888e-10 1.64081e-05
9749:-24.7406 1.09888e-10 1.64081e-05
9750:-24.0508 1.09888e-10 1.64081e-05
9764:-0.0135879 0.000326167 0.0282685
9765:-0.0143579 0.000326167 0.0282685
9766:-0.0139575 0.000326167 0.0282685
9928:-0.000384234 0.408163 1
9929:-0.000406006 0.408163 1
9930:-0.000394686 0.408163 1
10052:-6.11703e-05 0.349995 0.654786
10053:-6.91991e-05 0.349995 0.654786
10054:-6.51293e-05 0.349995 0.654786
10188:-0.13158 7.55651e-08 0.000304249
10189:-0.148854 7.55651e-08 0.000304249
10190:-0.140098 7.55651e-08 0.000304249
10196:-0.0480161 2.61225e-05 0.008
10197:-0.0507368 2.61225e-05 0.008
10198:-0.0493222 2.61225e-05 0.008
10244:-0.047085 5.89975e-07 0.000850129
10245:-0.053268 5.89975e-07 0.000850129
10246:-0.0501339 5.89975e-07 0.000850129
10388:-1566.06 5.33986e-16 2.5576e-08
10389:-1771.59 5.33986e-16 2.5576e-08
10390:-1667.4 5.33986e-16 2.5576e-08
10476:-2.88337 1.81034e-10 1.48532e-05
10477:-3.26182 1.81034e-10 1.48532e-05
10478:-3.06998 1.81034e-10 1.48532e-05
10656:-0.0133685 7.34694e-06 0.003
10657:-0.0151217 7.34694e-06 0.003
10658:-0.014233 7.34694e-06 0.003
10736:-5.36217e-05 0.454893 0.746488
10737:-6.06621e-05 0.454893 0.746488
10738:-5.70934e-05 0.454893 0.746488
10756:-4.55274 6.31909e-11 8.79823e-06
10757:-5.15028 6.31909e-11 8.79823e-06
10758:-4.84739 6.31909e-11 8.79823e-06
10792:0.000486742 0.408163 1
10793:0.000510096 0.408163 1
10794:0.000497856 0.408163 1
10868:-0.0117856 9.41957e-06 0.00339691
10869:-0.0133328 9.41957e-06 0.00339691
10870:-0.0125485 9.41957e-06 0.00339691
10900:-16.2165 4.9855e-12 2.47128e-06
10901:-18.344 4.9855e-12 2.47128e-06
10902:-17.2656 4.9855e-12 2.47128e-06
10992:-0.34339 1.10757e-08 0.000116481
10993:-0.388495 1.10757e-08 0.000116481
10994:-0.365632 1.10757e-08 0.000116481
11008:-0.4877 5.51247e-09 8.21753e-05
11009:-0.551687 5.51247e-09 8.21753e-05
11010:-0.519252 5.51247e-09 8.21753e-05
11176:-0.233811 2.3956e-08 0.000171307
11177:-0.264496 2.3956e-08 0.000171307
11178:-0.248941 2.3956e-08 0.000171307
11248:-0.00518359 4.87226e-05 0.00772562
11249:-0.00586405 4.87226e-05 0.00772562
11250:-0.00551913 4.87226e-05 0.00772562
11352:-0.10219 1.25328e-07 0.000391825
11353:-0.115605 1.25328e-07 0.000391825
11354:-0.108805 1.25328e-07 0.000391825
11364:-4.74146e-05 0.583397 0.845376
11365:-5.36353e-05 0.583397 0.845376
11366:-5.0482e-05 0.583397 0.845376
11372:-0.101691 1.26463e-07 0.000393595
11373:-0.115043 1.26463e-07 0.000393595
11374:-0.108275 1.26463e-07 0.000393595
11696:-5.17935e-05 0.487779 0.773
11697:-5.85932e-05 0.487779 0.773
11698:-5.51464e-05 0.487779 0.773
11772:-0.334529 1.1708e-08 0.000119759
11773:-0.378425 1.1708e-08 0.000119759
11774:-0.356174 1.1708e-08 0.000119759
11812:-0.155411 5.42201e-08 0.00025772
11813:-0.17581 5.42201e-08 0.00025772
11814:-0.165469 5.42201e-08 0.00025772
11852:-0.000384234 0.408163 1
11853:-0.000406006 0.408163 1
11854:-0.000394686 0.408163 1
11948:-5.17935e-05 0.487779 0.773
11949:-5.85932e-05 0.487779 0.773
11950:-5.51464e-05 0.487779 0.773
11992:0.017213 0.000326167 0.0282685
11993:0.0180389 0.000326167 0.0282685
11994:0.017606 0.000326167 0.0282685
12032:-0.0141666 6.50588e-06 0.00282307
12034:-0.0150842 6.50588e-06 0.00282307
12136:0.162229 3.67347e-06 0.003
12137:0.170013 3.67347e-06 0.003
12138:0.165933 3.67347e-06 0.003
12140:-0.00364078 9.90122e-05 0.0110132
12141:-0.0041183 9.90122e-05 0.0110132
12142:-0.00387624 9.90122e-05 0.0110132
12256:-0.0978653 1.36639e-07 0.000409125
12257:-0.110713 1.36639e-07 0.000409125
12258:-0.104201 1.36639e-07 0.000409125
12284:-32.3492 1.25401e-12 1.23942e-06
12285:-36.5927 1.25401e-12 1.23942e-06
12286:-34.4417 1.25401e-12 1.23942e-06
12788:-0.000384234 0.408163 1
12789:-0.000406006 0.408163 1
12790:-0.000394686 0.408163 1
13148:-0.00600162 3.63592e-05 0.00667383
13149:-0.00678924 3.63592e-05 0.00667383
13150:-0.00638999 3.63592e-05 0.00667383
13464:-0.631192 3.29386e-09 6.35215e-05
13465:-0.713987 3.29386e-09 6.35215e-05
13466:-0.672018 3.29386e-09 6.35215e-05
13532:0.000629606 0.243889 0.773
13533:0.000659816 0.243889 0.773
13534:0.000643983 0.243889 0.773
13540:-0.000384894 0.406532 0.998
13541:-0.000406703 0.406532 0.998
13542:-0.000395363 0.406532 0.998
13548:-0.0964771 6.47274e-06 0.00398224
13549:-0.101944 6.47274e-06 0.00398224
13550:-0.0991013 6.47274e-06 0.00398224
13760:-0.0133685 7.34694e-06 0.003
13761:-0.0151217 7.34694e-06 0.003
13762:-0.014233 7.34694e-06 0.003
13812:-0.631192 3.29386e-09 6.35215e-05
13813:-0.713987 3.29386e-09 6.35215e-05
13814:-0.672018 3.29386e-09 6.35215e-05
14024:-0.00102976 0.00123557 0.0389047
14025:-0.00116489 0.00123557 0.0389047
14026:-0.00109639 0.00123557 0.0389047
14044:0.060826 2.61225e-05 0.008
14045:0.0637445 2.61225e-05 0.008
14046:0.0622149 2.61225e-05 0.008
14076:-0.520989 4.83179e-09 7.69347e-05
14077:-0.589335 4.83179e-09 7.69347e-05
14078:-0.55469 4.83179e-09 7.69347e-05
14084:-0.104953 1.19004e-07 0.000381812
14085:-0.118725 1.19004e-07 0.000381812
14086:-0.111744 1.19004e-07 0.000381812
14152:-0.0103559 1.2182e-05 0.00386302
14153:-0.011716 1.2182e-05 0.00386302
14204:-0.010408 1.20727e-05 0.00384566
14205:-0.0117746 1.20727e-05 0.00384566
14206:-0.0110819 1.20727e-05 0.00384566
14312:3.90965 6.32393e-09 0.000124473
14313:4.09725 6.32393e-09 0.000124473
14314:3.99893 6.32393e-09 0.000124473
14324:-60.9732 3.52798e-13 6.57402e-07
14325:-68.9727 3.52798e-13 6.57402e-07
14326:-64.9177 3.52798e-13 6.57402e-07
14368:-4.72908e-05 0.585738 0.847071
14369:-5.34973e-05 0.585738 0.847071
14370:-5.03512e-05 0.585738 0.847071
14396:-0.000497012 0.243889 0.773
14397:-0.000525174 0.243889 0.773
14398:-0.000510531 0.243889 0.773
14440:0.017213 0.000326167 0.0282685
14441:0.0180389 0.000326167 0.0282685
14442:0.017606 0.000326167 0.0282685
14536:0.000486742 0.408163 1
14537:0.000510096 0.408163 1
14538:0.000497856 0.408163 1
14552:-1155.05 9.80525e-16 3.46575e-08
14553:-1306.7 9.80525e-16 3.46575e-08
14554:-1229.83 9.80525e-16 3.46575e-08
14592:-110.645 1.06788e-13 3.61685e-07
14594:-117.809 1.06788e-13 3.61685e-07
14632:0.000501696 0.384091 0.970063
14633:0.000525768 0.384091 0.970063
14634:0.000513152 0.384091 0.970063
14672:-1.46092 2.82171e-08 0.000262929
14673:-1.5437 2.82171e-08 0.000262929
14674:-1.50066 2.82171e-08 0.000262929
14692:-556.095 4.23184e-15 7.2e-08
14693:-629.103 4.23184e-15 7.2e-08
14694:-592.095 4.23184e-15 7.2e-08
14908:-0.0480161 2.61225e-05 0.008
14909:-0.0507368 2.61225e-05 0.008
14910:-0.0493222 2.61225e-05 0.008
14984:-0.0413123 3.53107e-05 0.00930113
14985:-0.0436531 3.53107e-05 0.00930113
14986:-0.042436 3.53107e-05 0.00930113
15036:-0.0414887 3.49939e-05 0.00925933
15037:-0.0438395 3.49939e-05 0.00925933
15038:-0.0426172 3.49939e-05 0.00925933
15064:-4.0417e-05 0.801747 0.99103
15065:-4.57219e-05 0.801747 0.99103
15066:-4.30328e-05 0.801747 0.99103
15084:-4.02733e-05 0.809004 0.995505
15085:-4.55563e-05 0.809004 0.995505
15086:-4.28783e-05 0.809004 0.995505
15104:-1.14564 9.97017e-10 3.49478e-05
15106:-1.2198 9.97017e-10 3.49478e-05
15136:-0.000384234 0.408163 1
15137:-0.000406006 0.408163 1
15138:-0.000394686 0.408163 1
15204:-5.75586 3.95101e-11 6.957e-06
15205:-6.51137 3.95101e-11 6.957e-06
15206:-6.1284 3.95101e-11 6.957e-06
15228:-0.0135879 0.000326167 0.0282685
15229:-0.0143579 0.000326167 0.0282685
15230:-0.0139575 0.000326167 0.0282685
15240:1.15387 7.26016e-08 0.000421751
15241:1.20923 7.26016e-08 0.000421751
15242:1.18021 7.26016e-08 0.000421751
15280:0.000501696 0.384091 0.970063
15281:0.000525768 0.384091 0.970063
15282:0.000513152 0.384091 0.970063
15692:-0.101691 1.26463e-07 0.000393595
15693:-0.115043 1.26463e-07 0.000393595
15694:-0.108275 1.26463e-07 0.000393595
15716:-0.00430655 7.06213e-05 0.00930113
15717:-0.00487181 7.06213e-05 0.00930113
15718:-0.00458527 7.06213e-05 0.00930113
15728:-0.744401 2.36344e-09 5.38072e-05
15729:-0.842098 2.36344e-09 5.38072e-05
15730:-0.792575 2.36344e-09 5.38072e-05
15756:-1.17612 9.4696e-10 3.40592e-05
15757:-1.33046 9.4696e-10 3.40592e-05
15758:-1.25222 9.4696e-10 3.40592e-05
15760:72064 1.86122e-17 6.75277e-09
15761:75521.8 1.86122e-17 6.75277e-09
15762:73709.5 1.86122e-17 6.75277e-09
15796:-3.63757 4.55125e-09 0.000105596
15797:-3.84368 4.55125e-09 0.000105596
15798:-3.73651 4.55125e-09 0.000105596
15852:-10780.8 1.12675e-17 3.71519e-09
15853:-12195.8 1.12675e-17 3.71519e-09
15854:-11478.5 1.12675e-17 3.71519e-09
15872:0.000814677 0.145731 0.597529
15873:0.000853767 0.145731 0.597529
15874:0.00083328 0.145731 0.597529
16060:0.0428697 5.26089e-05 0.0113531
16061:0.0449267 5.26089e-05 0.0113531
16062:0.0438486 5.26089e-05 0.0113531
16088:-224.956 2.58279e-14 1.77874e-07
16089:-254.497 2.58279e-14 1.77874e-07
16090:-239.523 2.58279e-14 1.77874e-07
16120:0.110517 7.91372e-06 0.00440325
16121:0.11582 7.91372e-06 0.00440325
16122:0.11304 7.91372e-06 0.00440325
16136:72064 1.86122e-17 6.75277e-09
16137:75521.8 1.86122e-17 6.75277e-09
16138:73709.5 1.86122e-17 6.75277e-09
16148:-0.441199 6.73394e-09 9.08244e-05
16149:-0.499086 6.73394e-09 9.08244e-05
16150:-0.469743 6.73394e-09 9.08244e-05
16220:1.159 7.19504e-08 0.000419855
16221:1.21461 7.19504e-08 0.000419855
16222:1.18546 7.19504e-08 0.000419855
16232:1.15387 7.26016e-08 0.000421751
16233:1.20923 7.26016e-08 0.000421751
16234:1.18021 7.26016e-08 0.000421751
16256:-0.356144 1.03449e-08 0.000112572
16257:-0.402863 1.03449e-08 0.000112572
16258:-0.379181 1.03449e-08 0.000112572
16492:-0.488452 5.49044e-09 8.20109e-05
16493:-0.552552 5.49044e-09 8.20109e-05
16494:-0.52006 5.49044e-09 8.20109e-05
16544:-30129.5 1.43964e-18 1.32799e-09
16546:-32080.7 1.43964e-18 1.32799e-09
16672:-10.3717 5.59964e-10 3.70393e-05
16673:-10.9594 5.59964e-10 3.70393e-05
16674:-10.6538 5.59964e-10 3.70393e-05
16736:-17.2409 4.40507e-12 2.32297e-06
16737:-19.5041 4.40507e-12 2.32297e-06
16738:-18.3569 4.40507e-12 2.32297e-06
16760:-0.00141942 0.000649728 0.028212
16761:-0.00160575 0.000649728 0.028212
16762:-0.0015113 0.000649728 0.028212
16768:-0.0116569 0.000443279 0.032955
16769:-0.0123175 0.000443279 0.032955
16770:-0.011974 0.000443279 0.032955
16944:-2.43974 2.19776e-10 1.64081e-05
16945:-2.76006 2.19776e-10 1.64081e-05
16946:-2.59769 2.19776e-10 1.64081e-05
17032:0.000486742 0.408163 1
17033:0.000510096 0.408163 1
17034:0.000497856 0.408163 1
17052:-0.0906466 1.59255e-07 0.000441687
17053:-0.102548 1.59255e-07 0.000441687
17054:-0.0965153 1.59255e-07 0.000441687
17056:-312.454 1.34411e-14 1.28317e-07
17058:-332.663 1.34411e-14 1.28317e-07
17132:-0.00910104 1.58274e-05 0.00440325
17133:-0.0102951 1.58274e-05 0.00440325
17134:-0.00968982 1.58274e-05 0.00440325
17136:-0.0133685 7.34694e-06 0.003
17137:-0.0151217 7.34694e-06 0.003
17138:-0.014233 7.34694e-06 0.003
17160:-40765.6 7.86762e-19 9.81724e-10
17162:-43405.3 7.86762e-19 9.81724e-10
17560:-0.0480161 2.61225e-05 0.008
17561:-0.0507368 2.61225e-05 0.008
17562:-0.0493222 2.61225e-05 0.008
17640:-0.000384234 0.408163 1
17641:-0.000406006 0.408163 1
17642:-0.000394686 0.408163 1
17700:-1103.42 1.07541e-15 3.62958e-08
17701:-1248.26 1.07541e-15 3.62958e-08
17702:-1174.84 1.07541e-15 3.62958e-08
17752:0.000592334 0.275596 0.821712
17753:0.000620755 0.275596 0.821712
17754:0.000605859 0.275596 0.821712
17756:-4.82063 2.59368e-09 7.97152e-05
17757:-5.09378 2.59368e-09 7.97152e-05
17758:-4.95176 2.59368e-09 7.97152e-05
17760:-0.00237055 0.00023291 0.0168913
17761:-0.00268175 0.00023291 0.0168913
17762:-0.00252401 0.00023291 0.0168913
17920:-0.0374832 9.29125e-07 0.00106685
17921:-0.0424075 9.29125e-07 0.00106685
17922:-0.0399114 9.29125e-07 0.00106685
18060:-0.420631 7.42274e-09 9.53564e-05
18061:-0.475792 7.42274e-09 9.53564e-05
18062:-0.44783 7.42274e-09 9.53564e-05
18072:-0.000497012 0.243889 0.773
18073:-0.000525174 0.243889 0.773
18074:-0.000510531 0.243889 0.773
18088:-0.000384234 0.408163 1
18089:-0.000406006 0.408163 1
18090:-0.000394686 0.408163 1
18140:0.000574571 0.292869 0.847071
18141:0.00060214 0.292869 0.847071
18142:0.000587691 0.292869 0.847071
18256:-0.0100575 1.29455e-05 0.00398224
18257:-0.0113776 1.29455e-05 0.00398224
18258:-0.0107085 1.29455e-05 0.00398224
18308:-0.114248 1.00586e-07 0.000351025
18309:-0.129231 1.00586e-07 0.000351025
18310:-0.121637 1.00586e-07 0.000351025
18392:-0.4877 5.51247e-09 8.21753e-05
18393:-0.551687 5.51247e-09 8.21753e-05
18394:-0.519252 5.51247e-09 8.21753e-05
18536:-0.00919738 0.000669562 0.0389047
18537:-0.00973988 0.000669562 0.0389047
18538:-0.0094583 0.000669562 0.0389047
18568:-0.00141546 0.000652334 0.0282685
18569:-0.00160133 0.000652334 0.0282685
18570:-0.00150711 0.000652334 0.0282685
18820:-0.576449 3.93955e-09 6.9469e-05
18821:-0.652127 3.93955e-09 6.9469e-05
18822:-0.613766 3.93955e-09 6.9469e-05
18972:-281344 1.65574e-20 1.42418e-10
18973:-318258 1.65574e-20 1.42418e-10
18974:-299546 1.65574e-20 1.42418e-10
19012:-0.00353041 0.000105218 0.0113531
19013:-0.00399358 0.000105218 0.0113531
19014:-0.0037588 0.000105218 0.0113531
19048:-5.91211e-05 0.483453 0.769525
19049:-6.63531e-05 0.483453 0.769525
19050:-6.26819e-05 0.483453 0.769525
19056:-1.19706 4.20403e-08 0.000320934
19057:-1.26489 4.20403e-08 0.000320934
19058:-1.22962 4.20403e-08 0.000320934
19172:-0.939091 6.83197e-08 0.000409125
19173:-0.992302 6.83197e-08 0.000409125
19174:-0.964635 6.83197e-08 0.000409125
19184:-0.910864 7.26016e-08 0.000421751
19185:-0.962476 7.26016e-08 0.000421751
19186:-0.93564 7.26016e-08 0.000421751
19204:-0.0107473 1.13566e-05 0.00372986
19205:-0.0121571 1.13566e-05 0.00372986
19206:-0.0114425 1.13566e-05 0.00372986
19284:-0.344764 1.10204e-08 0.000116189
19285:-0.390012 1.10204e-08 0.000116189
19286:-0.367076 1.10204e-08 0.000116189
19340:0.000487577 0.406532 0.998
19341:0.000510971 0.406532 0.998
19342:0.00049871 0.406532 0.998
19536:-4.0417e-05 0.801747 0.99103
19537:-4.57219e-05 0.801747 0.99103
19538:-4.30328e-05 0.801747 0.99103
19556:-4.02733e-05 0.809004 0.995505
19557:-4.55563e-05 0.809004 0.995505
19558:-4.28783e-05 0.809004 0.995505
19612:-5.17935e-05 0.487779 0.773
19613:-5.85932e-05 0.487779 0.773
19614:-5.51464e-05 0.487779 0.773
19632:0.000501696 0.384091 0.970063
19633:0.000525768 0.384091 0.970063
19634:0.000513152 0.384091 0.970063
19652:-1.11457 1.05388e-09 3.59305e-05
19653:-1.26088 1.05388e-09 3.59305e-05
19654:-1.18672 1.05388e-09 3.59305e-05
19712:-0.000453567 0.292869 0.847071
19713:-0.000479267 0.292869 0.847071
19714:-0.000465904 0.292869 0.847071
19792:-0.132389 7.47575e-08 0.000302618
19793:-0.149762 7.47575e-08 0.000302618
19794:-0.140955 7.47575e-08 0.000302618
20012:-42.6808 3.30612e-11 9e-06
20013:-45.0992 3.30612e-11 9e-06
20014:-43.8417 3.30612e-11 9e-06
20068:-1.66852 4.70204e-10 2.4e-05
20069:-1.88758 4.70204e-10 2.4e-05
20070:-1.77654 4.70204e-10 2.4e-05
20104:-0.0133808 7.31758e-06 0.002994
20105:-0.0151366 7.31758e-06 0.002994
20106:-0.0142466 7.31758e-06 0.002994
20192:-4.01854e-05 0.809816 0.996004
20193:-4.54621e-05 0.809816 0.996004
20194:-4.27873e-05 0.809816 0.996004
20208:-11.8958 9.24723e-12 3.36569e-06
20209:-13.4574 9.24723e-12 3.36569e-06
20210:-12.6658 9.24723e-12 3.36569e-06
20296:-9.38011 6.84625e-10 4.09552e-05
20297:-9.91161 6.84625e-10 4.09552e-05
20298:-9.63525 6.84625e-10 4.09552e-05
20324:-0.356144 1.03449e-08 0.000112572
20325:-0.402863 1.03449e-08 0.000112572
20326:-0.379181 1.03449e-08 0.000112572
20424:-21.571 2.81529e-12 1.85708e-06
20425:-24.4023 2.81529e-12 1.85708e-06
20426:-22.9671 2.81529e-12 1.85708e-06
20488:-4.67533 2.75623e-09 8.21753e-05
20489:-4.94024 2.75623e-09 8.21753e-05
20490:-4.8025 2.75623e-09 8.21753e-05
20620:1.15387 7.26016e-08 0.000421751
20621:1.20923 7.26016e-08 0.000421751
20622:1.18021 7.26016e-08 0.000421751
20664:1.159 7.19504e-08 0.000419855
20665:1.21461 7.19504e-08 0.000419855
20666:1.18546 7.19504e-08 0.000419855
20720:-2480.23 9.79559e-15 1.54917e-07
20721:-2620.76 9.79559e-15 1.54917e-07
20722:-2547.69 9.79559e-15 1.54917e-07
20816:-0.00502264 5.20361e-05 0.007984
20817:-0.00568133 5.20361e-05 0.007984
20818:-0.00534743 5.20361e-05 0.007984
20904:-209936 2.97464e-20 1.90891e-10
20905:-237483 2.97464e-20 1.90891e-10
20906:-223519 2.97464e-20 1.90891e-10
20992:0.0127288 2.6182e-05 0.008
20993:0.0129226 2.6182e-05 0.008
20994:0.0128097 2.6182e-05 0.008
21080:0.000488943 0.404502 0.995505
21081:0.000512403 0.404502 0.995505
21082:0.000500108 0.404502 0.995505
21112:-10.9498 1.08967e-11 3.65356e-06
21114:-11.659 1.08967e-11 3.65356e-06
21184:3.90965 6.32393e-09 0.000124473
21185:4.09725 6.32393e-09 0.000124473
21186:3.99893 6.32393e-09 0.000124473
21476:-0.00502264 5.20361e-05 0.007984
21477:-0.00568133 5.20361e-05 0.007984
21478:-0.00534743 5.20361e-05 0.007984
21512:-0.97824 6.29787e-08 0.000392808
21513:-1.03367 6.29787e-08 0.000392808
21514:-1.00485 6.29787e-08 0.000392808
21520:-0.00938512 1.48345e-05 0.00426289
21522:-0.0099929 1.48345e-05 0.00426289
21584:0.000486742 0.408163 1
21585:0.000510096 0.408163 1
21586:0.000497856 0.408163 1
21616:-114.094 1.00576e-13 3.51006e-07
21617:-129.07 1.00576e-13 3.51006e-07
21618:-121.479 1.00576e-13 3.51006e-07
21676:-31.8197 1.29511e-12 1.25957e-06
21677:-35.9942 1.29511e-12 1.25957e-06
21678:-33.8781 1.29511e-12 1.25957e-06
21692:-5.22805e-05 0.479067 0.766066
21693:-5.91421e-05 0.479067 0.766066
21694:-5.5664e-05 0.479067 0.766066
21744:0.017213 0.000326167 0.0282685
21745:0.0180389 0.000326167 0.0282685
21746:0.017606 0.000326167 0.0282685
21776:0.0177474 0.00030693 0.0274222
21777:0.0185989 0.00030693 0.0274222
21778:0.0181526 0.00030693 0.0274222
22072:-0.00457249 6.26195e-05 0.00875836
22073:-0.00517269 6.26195e-05 0.00875836
22074:-0.00486845 6.26195e-05 0.00875836
22204:-0.00504716 5.13118e-05 0.00792824
22205:-0.00571002 5.13118e-05 0.00792824
22206:-0.00537402 5.13118e-05 0.00792824
22216:0.000486742 0.408163 1
22217:0.000510096 0.408163 1
22218:0.000497856 0.408163 1
22448:40.8241 5.80167e-11 1.19223e-05
22449:42.7829 5.80167e-11 1.19223e-05
22450:41.7563 5.80167e-11 1.19223e-05
22532:-1.7177 4.42472e-10 2.32815e-05
22533:-1.94334 4.42472e-10 2.32815e-05
22534:-1.82897 4.42472e-10 2.32815e-05
22540:0.0428697 5.26089e-05 0.0113531
22541:0.0449267 5.26089e-05 0.0113531
22542:0.0438486 5.26089e-05 0.0113531
22620:-0.000497012 0.243889 0.773
22621:-0.000525174 0.243889 0.773
22622:-0.000510531 0.243889 0.773
22628:-248.664 2.11677e-14 1.61029e-07
22629:-281.306 2.11677e-14 1.61029e-07
22630:-264.76 2.11677e-14 1.61029e-07
22636:-0.000384234 0.408163 1
22637:-0.000406006 0.408163 1
22638:-0.000394686 0.408163 1
22660:-0.00992154 0.000612244 0.0387298
22661:-0.0104837 0.000612244 0.0387298
22662:-0.0101914 0.000612244 0.0387298
22672:-0.00648243 3.12178e-05 0.006184
22673:-0.00733281 3.12178e-05 0.006184
22674:-0.00690174 3.12178e-05 0.006184
22704:-0.379002 9.10251e-09 0.000105596
22705:-0.428764 9.10251e-09 0.000105596
22706:-0.40354 9.10251e-09 0.000105596
22712:-0.00591833 3.73374e-05 0.00676301
22713:-0.0066955 3.73374e-05 0.00676301
22714:-0.00630156 3.73374e-05 0.00676301
22856:0.110517 7.91372e-06 0.00440325
22857:0.11582 7.91372e-06 0.00440325
22858:0.11304 7.91372e-06 0.00440325
23044:-0.0177851 4.13109e-06 0.00224958
23045:-0.0201212 4.13109e-06 0.00224958
23046:-0.0189371 4.13109e-06 0.00224958
23132:-0.0480161 2.61225e-05 0.008
23133:-0.0507368 2.61225e-05 0.008
23134:-0.0493222 2.61225e-05 0.008
23184:-0.62609 3.34367e-09 6.4e-05
23185:-0.70824 3.34367e-09 6.4e-05
23186:-0.666597 3.34367e-09 6.4e-05
23224:-0.00102976 0.00123557 0.0389047
23225:-0.00116489 0.00123557 0.0389047
23226:-0.00109639 0.00123557 0.0389047
23284:-2.61423 1.91411e-10 1.53127e-05
23285:-2.95748 1.91411e-10 1.53127e-05
23286:-2.78349 1.91411e-10 1.53127e-05
23344:-11877.3 4.26987e-16 3.23437e-08
23345:-12550.4 4.26987e-16 3.23437e-08
23346:-12200.4 4.26987e-16 3.23437e-08
23440:-0.00987552 0.000617786 0.0389047
23441:-0.0104351 0.000617786 0.0389047
23442:-0.0101441 0.000617786 0.0389047
23472:0.000577228 0.290242 0.843263
23473:0.000604924 0.290242 0.843263
23474:0.000590408 0.290242 0.843263
23504:0.110517 7.91372e-06 0.00440325
23505:0.11582 7.91372e-06 0.00440325
23506:0.11304 7.91372e-06 0.00440325
23528:0.0718252 1.87436e-05 0.00677656
23529:0.0752715 1.87436e-05 0.00677656
23530:0.0734653 1.87436e-05 0.00677656
23612:1.23642 6.32313e-08 0.000393595
23613:1.29575 6.32313e-08 0.000393595
23614:1.26465 6.32313e-08 0.000393595
23636:-241.465 2.24944e-14 1.65999e-07
23637:-273.146 2.24944e-14 1.65999e-07
23638:-257.087 2.24944e-14 1.65999e-07
23676:0.000629606 0.243889 0.773
23677:0.000659816 0.243889 0.773
23678:0.000643983 0.243889 0.773
23688:-0.00146081 0.000613861 0.0274222
23689:-0.00165252 0.000613861 0.0274222
23690:-0.00155534 0.000613861 0.0274222
23844:-0.00910104 1.58274e-05 0.00440325
23845:-0.0102951 1.58274e-05 0.00440325
23846:-0.00968982 1.58274e-05 0.00440325
24028:-11085.1 4.90262e-16 3.46575e-08
24029:-11713.2 4.90262e-16 3.46575e-08
24030:-11386.6 4.90262e-16 3.46575e-08
24152:-103.638 1.22055e-13 3.86675e-07
24154:-110.343 1.22055e-13 3.86675e-07
24164:-222.412 2.65479e-14 1.80336e-07
24165:-251.582 2.65479e-14 1.80336e-07
24166:-236.795 2.65479e-14 1.80336e-07
24188:0.060826 2.61225e-05 0.008
24189:0.0637445 2.61225e-05 0.008
24190:0.0622149 2.61225e-05 0.008
24376:-0.0872421 7.91372e-06 0.00440325
24377:-0.0921854 7.91372e-06 0.00440325
24378:-0.0896151 7.91372e-06 0.00440325
24440:-4.67533 2.75623e-09 8.21753e-05
24441:-4.94024 2.75623e-09 8.21753e-05
24442:-4.8025 2.75623e-09 8.21753e-05
24572:-0.0135879 0.000326167 0.0282685
24573:-0.0143579 0.000326167 0.0282685
24574:-0.0139575 0.000326167 0.0282685
24868:-412808 7.68577e-21 9.70313e-11
24870:-439524 7.68577e-21 9.70313e-11
24896:-0.0413123 3.53107e-05 0.00930113
24897:-0.0436531 3.53107e-05 0.00930113
24898:-0.042436 3.53107e-05 0.00930113
24996:-0.104953 1.19004e-07 0.000381812
24997:-0.118725 1.19004e-07 0.000381812
24998:-0.111744 1.19004e-07 0.000381812
25100:0.017213 0.000326167 0.0282685
25101:0.0180389 0.000326167 0.0282685
25102:0.017606 0.000326167 0.0282685
25156:5.92263 2.75623e-09 8.21753e-05
25157:6.2068 2.75623e-09 8.21753e-05
25158:6.05786 2.75623e-09 8.21753e-05
25160:-2.44707 2.18898e-10 1.63753e-05
25161:-2.76814 2.18898e-10 1.63753e-05
25162:-2.60539 2.18898e-10 1.63753e-05
25380:-0.00103448 0.00122449 0.0387298
25381:-0.00117025 0.00122449 0.0387298
25382:-0.00110143 0.00122449 0.0387298
25452:-0.00103193 0.00123063 0.0388269
25453:-0.00116734 0.00123063 0.0388269
25454:-0.0010987 0.00123063 0.0388269
25516:-4.67533 2.75623e-09 8.21753e-05
25517:-4.94024 2.75623e-09 8.21753e-05
25518:-4.8025 2.75623e-09 8.21753e-05
25584:-0.0339027 5.23987e-05 0.0113303
25585:-0.0358238 5.23987e-05 0.0113303
25586:-0.0348249 5.23987e-05 0.0113303
25676:-2.98123 6.78086e-09 0.000128892
25677:-3.15016 6.78086e-09 0.000128892
25678:-3.06232 6.78086e-09 0.000128892
25816:3141.91 9.79559e-15 1.54917e-07
25817:3292.67 9.79559e-15 1.54917e-07
25818:3213.65 9.79559e-15 1.54917e-07
25900:-0.0117692 9.45736e-06 0.00340371
25901:-0.0133137 9.45736e-06 0.00340371
25902:-0.0125308 9.45736e-06 0.00340371
26044:-57.8799 3.9101e-13 6.92089e-07
26046:-61.6259 3.9101e-13 6.92089e-07
26068:1.45982 4.53703e-08 0.000333402
26069:1.52987 4.53703e-08 0.000333402
26070:1.49316 4.53703e-08 0.000333402
26176:3141.91 9.79559e-15 1.54917e-07
26177:3292.67 9.79559e-15 1.54917e-07
26178:3213.65 9.79559e-15 1.54917e-07
26256:-0.128063 3.67347e-06 0.003
26257:-0.13532 3.67347e-06 0.003
26258:-0.131547 3.67347e-06 0.003
26376:-9.88768 1.34289e-11 4.05591e-06
26377:-11.1845 1.34289e-11 4.05591e-06
26378:-10.5272 1.34289e-11 4.05591e-06
26556:-0.598948 3.65062e-09 6.68731e-05
26558:-0.637713 3.65062e-09 6.68731e-05
26672:-27752.8 1.69491e-18 1.44093e-09
26673:-31398.6 1.69491e-18 1.44093e-09
26674:-29550.6 1.69491e-18 1.44093e-09
26732:0.0523337 3.53107e-05 0.00930113
26733:0.0548447 3.53107e-05 0.00930113
26734:0.0535287 3.53107e-05 0.00930113
26744:-224.956 2.58279e-14 1.77874e-07
26745:-254.497 2.58279e-14 1.77874e-07
26746:-239.523 2.58279e-14 1.77874e-07
26848:-0.488452 5.49044e-09 8.20109e-05
26849:-0.552552 5.49044e-09 8.20109e-05
26850:-0.52006 5.49044e-09 8.20109e-05
26872:-0.0501344 5.21287e-07 0.00079911
26873:-0.0567136 5.21287e-07 0.00079911
26874:-0.0533786 5.21287e-07 0.00079911
26932:-33.9816 1.13362e-12 1.17842e-06
26933:-38.442 1.13362e-12 1.17842e-06
26934:-36.181 1.13362e-12 1.17842e-06
27004:-11.8832 9.29301e-12 3.37401e-06
27005:-13.4421 9.29301e-12 3.37401e-06
27006:-12.6519 9.29301e-12 3.37401e-06
27088:-0.441199 6.73394e-09 9.08244e-05
27089:-0.499086 6.73394e-09 9.08244e-05
27090:-0.469743 6.73394e-09 9.08244e-05
27268:-0.00121709 0.000883015 0.0328891
27269:-0.0013769 0.000883015 0.0328891
27270:-0.00129589 0.000883015 0.0328891
27352:-0.00102976 0.00123557 0.0389047
27353:-0.00116489 0.00123557 0.0389047
27354:-0.00109639 0.00123557 0.0389047
27516:-0.122791 8.67632e-08 0.000326014
27517:-0.138913 8.67632e-08 0.000326014
27518:-0.130741 8.67632e-08 0.000326014
27564:6.99099 1.97768e-09 6.96082e-05
27565:7.32643 1.97768e-09 6.96082e-05
27566:7.15062 1.97768e-09 6.96082e-05
27588:-0.00430655 7.06213e-05 0.00930113
27589:-0.00487181 7.06213e-05 0.00930113
27590:-0.00458527 7.06213e-05 0.00930113
27600:-0.00456099 6.28707e-05 0.00877591
27601:-0.0051599 6.28707e-05 0.00877591
27602:-0.00485632 6.28707e-05 0.00877591
27628:-6201 3.4047e-17 6.45814e-09
27629:-7014.86 3.4047e-17 6.45814e-09
27630:-6602.31 3.4047e-17 6.45814e-09
27688:-0.000384234 0.408163 1
27689:-0.000406006 0.408163 1
27690:-0.000394686 0.408163 1
27708:1.23642 6.32313e-08 0.000393595
27709:1.29575 6.32313e-08 0.000393595
27710:1.26465 6.32313e-08 0.000393595
27752:-55.6029 4.24552e-13 7.21163e-07
27754:-59.1987 4.24552e-13 7.21163e-07
27772:-8.67257e-05 0.174157 0.46189
27773:-9.81084e-05 0.174157 0.46189
27774:-9.23385e-05 0.174157 0.46189
27804:-0.0872421 7.91372e-06 0.00440325
27805:-0.0921854 7.91372e-06 0.00440325
27806:-0.0896151 7.91372e-06 0.00440325
27848:-0.554769 4.2532e-09 7.21815e-05
27850:-0.590673 4.2532e-09 7.21815e-05
27860:-0.0908428 1.58619e-07 0.000440804
27861:-0.102768 1.58619e-07 0.000440804
27862:-0.096723 1.58619e-07 0.000440804
27876:1974.04 2.48061e-14 2.46526e-07
27877:2068.76 2.48061e-14 2.46526e-07
27878:2019.12 2.48061e-14 2.46526e-07
27904:-4.00537e-05 0.816326 1
27905:-4.5311e-05 0.816326 1
27906:-4.26461e-05 0.816326 1
27980:-0.138433 1.6575e-07 0.000393595
27981:-0.156603 1.6575e-07 0.000393595
27982:-0.147393 1.6575e-07 0.000393595
28264:-5360.91 4.54728e-17 7.46352e-09
28266:-5708.09 4.54728e-17 7.46352e-09
28280:-1155.05 9.80525e-16 3.46575e-08
28281:-1306.7 9.80525e-16 3.46575e-08
28282:-1229.83 9.80525e-16 3.46575e-08
28360:-0.0057395 3.97095e-05 0.00697454
28362:-0.00611107 3.97095e-05 0.00697454
28384:-8.36879 1.87155e-11 4.78816e-06
28385:-9.46704 1.87155e-11 4.78816e-06
28492:-0.0018909 0.0003668 0.0211974
28493:-0.00213897 0.0003668 0.0211974
28494:-0.00201322 0.0003668 0.0211974
28628:-0.00987552 0.000617786 0.0389047
28629:-0.0104351 0.000617786 0.0389047
28630:-0.0101441 0.000617786 0.0389047
28704:-3.03934 1.41878e-10 1.31833e-05
28705:-3.43821 1.41878e-10 1.31833e-05
28706:-3.23602 1.41878e-10 1.31833e-05
28732:-0.00443811 6.64562e-05 0.00902268
28733:-0.00502074 6.64562e-05 0.00902268
28734:-0.0047254 6.64562e-05 0.00902268
28892:-0.0480161 2.61225e-05 0.008
28893:-0.0507368 2.61225e-05 0.008
28894:-0.0493222 2.61225e-05 0.008
28900:-303.619 6.53415e-13 1.26525e-06
28901:-320.823 6.53415e-13 1.26525e-06
28902:-311.878 6.53415e-13 1.26525e-06
28944:-0.00987552 0.000617786 0.0389047
28945:-0.0104351 0.000617786 0.0389047
28946:-0.0101441 0.000617786 0.0389047
29112:-12.7256 8.09361e-12 3.14876e-06
29113:-14.3952 8.09361e-12 3.14876e-06
29114:-13.5489 8.09361e-12 3.14876e-06
29128:-0.000499169 0.241702 0.769525
29129:-0.000527453 0.241702 0.769525
29130:-0.000512747 0.241702 0.769525
29172:-0.00500067 5.22449e-05 0.008
29173:-0.00565743 5.22449e-05 0.008
29174:-0.00532452 5.22449e-05 0.008
29268:54.0673 3.30612e-11 9e-06
29269:56.6615 3.30612e-11 9e-06
29270:55.3019 3.30612e-11 9e-06
29316:-1.08109 1.11993e-09 3.70393e-05
29317:-1.223 1.11993e-09 3.70393e-05
29318:-1.15106 1.11993e-09 3.70393e-05
29340:-0.0876513 7.84274e-06 0.00438346
29341:-0.092618 7.84274e-06 0.00438346
29342:-0.0900356 7.84274e-06 0.00438346
29352:-0.0872421 7.91372e-06 0.00440325
29353:-0.0921854 7.91372e-06 0.00440325
29354:-0.0896151 7.91372e-06 0.00440325
29404:-0.000497012 0.243889 0.773
29405:-0.000525174 0.243889 0.773
29406:-0.000510531 0.243889 0.773
29432:-32.1637 5.82547e-11 1.19467e-05
29433:-33.9862 5.82547e-11 1.19467e-05
29434:-33.0386 5.82547e-11 1.19467e-05
29604:-10.5773 1.16957e-11 3.78514e-06
29605:-11.9657 1.16957e-11 3.78514e-06
29606:-11.2619 1.16957e-11 3.78514e-06
29624:-0.13158 7.55651e-08 0.000304249
29625:-0.148854 7.55651e-08 0.000304249
29626:-0.140098 7.55651e-08 0.000304249
29640:-0.0482385 2.58881e-05 0.00796404
29641:-0.0509719 2.58881e-05 0.00796404
29642:-0.0495507 2.58881e-05 0.00796404
29684:-5.17935e-05 0.487779 0.773
29685:-5.85932e-05 0.487779 0.773
29686:-5.51464e-05 0.487779 0.773
29800:-0.0153714 5.5503e-06 0.00260751
29801:-0.0173882 5.5503e-06 0.00260751
29802:-0.0163659 5.5503e-06 0.00260751
29820:-0.808887 1.99794e-09 4.9472e-05
29821:-0.915106 1.99794e-09 4.9472e-05
29822:-0.861264 1.99794e-09 4.9472e-05
29940:-0.0964771 6.47274e-06 0.00398224
29941:-0.101944 6.47274e-06 0.00398224
29942:-0.0991013 6.47274e-06 0.00398224
29960:-4.1387e-05 0.765111 0.968123
29961:-4.68181e-05 0.765111 0.968123
29962:-4.4065e-05 0.765111 0.968123
29988:-0.00353041 0.000105218 0.0113531
29989:-0.00399358 0.000105218 0.0113531
29990:-0.0037588 0.000105218 0.0113531
30000:0.0125101 0.000617786 0.0389047
30001:0.0131104 0.000617786 0.0389047
30002:0.0127958 0.000617786 0.0389047
30044:-325.949 1.23232e-14 1.22866e-07
30046:-347.047 1.23232e-14 1.22866e-07
30048:-70.5584 2.62943e-13 5.67543e-07
30049:-79.8196 2.62943e-13 5.67543e-07
30050:-75.1251 2.62943e-13 5.67543e-07
30088:-0.0949795 1.45203e-07 0.000421751
30089:-0.107444 1.45203e-07 0.000421751
30090:-0.101126 1.45203e-07 0.000421751
30220:-0.0107473 1.13566e-05 0.00372986
30221:-0.0121571 1.13566e-05 0.00372986
30222:-0.0114425 1.13566e-05 0.00372986
30332:-0.00763484 2.23997e-05 0.00523828
30333:-0.00863779 2.23997e-05 0.00523828
30334:-0.00812941 2.23997e-05 0.00523828
30348:-163.142 4.91672e-14 2.45418e-07
30349:-184.558 4.91672e-14 2.45418e-07
30350:-173.702 4.91672e-14 2.45418e-07
30380:-44.2722 6.68607e-13 9.05011e-07
30381:-50.0816 6.68607e-13 9.05011e-07
30382:-47.1368 6.68607e-13 9.05011e-07
30384:0.000486742 0.408163 1
30385:0.000510096 0.408163 1
30386:0.000497856 0.408163 1
30464:-3.08879 1.37343e-10 1.29709e-05
30465:-3.49408 1.37343e-10 1.29709e-05
30466:-3.28864 1.37343e-10 1.29709e-05
30476:5.92263 2.75623e-09 8.21753e-05
30477:6.2068 2.75623e-09 8.21753e-05
30478:6.05786 2.75623e-09 8.21753e-05
30564:1.23642 6.32313e-08 0.000393595
30565:1.29575 6.32313e-08 0.000393595
30566:1.26465 6.32313e-08 0.000393595
30760:-5940.61 3.70757e-17 6.73927e-09
30762:-6325.23 3.70757e-17 6.73927e-09
30948:-0.000384234 0.408163 1
30949:-0.000406006 0.408163 1
30950:-0.000394686 0.408163 1
31004:-1174.01 4.3709e-14 3.27242e-07
31005:-1240.53 4.3709e-14 3.27242e-07
31006:-1205.95 4.3709e-14 3.27242e-07
31040:-0.0978653 1.36639e-07 0.000409125
31041:-0.110713 1.36639e-07 0.000409125
31042:-0.104201 1.36639e-07 0.000409125
31048:-0.462618 6.10953e-09 8.65111e-05
31049:-0.523365 6.10953e-09 8.65111e-05
31050:-0.492572 6.10953e-09 8.65111e-05
31180:-0.00364078 9.90122e-05 0.0110132
31181:-0.0041183 9.90122e-05 0.0110132
31182:-0.00387624 9.90122e-05 0.0110132
31200:-0.0338414 5.26089e-05 0.0113531
31201:-0.0357589 5.26089e-05 0.0113531
31202:-0.0347619 5.26089e-05 0.0113531
31300:-0.128063 3.67347e-06 0.003
31301:-0.13532 3.67347e-06 0.003
31302:-0.131547 3.67347e-06 0.003
31308:-8.95687 1.63e-11 4.4685e-06
31309:-10.1328 1.63e-11 4.4685e-06
31376:-0.000535483 0.210142 0.717528
31377:-0.000565825 0.210142 0.717528
31378:-0.000550049 0.210142 0.717528
31512:-0.0481158 2.60181e-05 0.007984
31513:-0.0508422 2.60181e-05 0.007984
31514:-0.0494246 2.60181e-05 0.007984
31552:0.110769 7.8821e-06 0.00439444
31553:0.116084 7.8821e-06 0.00439444
31554:0.113299 7.8821e-06 0.00439444
31632:-1098.8 1.08673e-15 3.64862e-08
31633:-1242.95 1.08673e-15 3.64862e-08
31634:-1169.88 1.08673e-15 3.64862e-08
31736:-387.362 8.7426e-15 1.03488e-07
31737:-438.183 8.7426e-15 1.03488e-07
31738:-412.421 8.7426e-15 1.03488e-07
31852:-206.916 1.40765e-12 1.85708e-06
31853:-218.641 1.40765e-12 1.85708e-06
31854:-212.544 1.40765e-12 1.85708e-06
31888:0.000502759 0.382556 0.968123
31889:0.000526882 0.382556 0.968123
31890:0.000514239 0.382556 0.968123
32112:0.000487577 0.406532 0.998
32113:0.000510971 0.406532 0.998
32114:0.00049871 0.406532 0.998
32128:-0.0130159 7.7353e-06 0.00307827
32129:-0.0147238 7.7353e-06 0.00307827
32130:-0.0138581 7.7353e-06 0.00307827
32136:-34.5358 5.05288e-11 1.11263e-05
32137:-36.4927 5.05288e-11 1.11263e-05
32138:-35.4752 5.05288e-11 1.11263e-05
32144:-0.33139 1.19019e-08 0.000120747
32145:-0.374913 1.19019e-08 0.000120747
32146:-0.352851 1.19019e-08 0.000120747
32240:-0.0010378 0.0012135 0.0385557
32241:-0.00117409 0.0012135 0.0385557
32242:-0.00110501 0.0012135 0.0385557
32304:1.1562 7.23115e-08 0.000420908
32305:1.21168 7.23115e-08 0.000420908
32306:1.1826 7.23115e-08 0.000420908
32376:-0.00102976 0.00123557 0.0389047
32377:-0.00116489 0.00123557 0.0389047
32378:-0.00109639 0.00123557 0.0389047
32484:6.99099 1.97768e-09 6.96082e-05
32485:7.32643 1.97768e-09 6.96082e-05
32486:7.15062 1.97768e-09 6.96082e-05
32488:-2.61423 1.91411e-10 1.53127e-05
32489:-2.95748 1.91411e-10 1.53127e-05
32490:-2.78349 1.91411e-10 1.53127e-05
32536:-0.0133685 7.34694e-06 0.003
32537:-0.0151217 7.34694e-06 0.003
32538:-0.014233 7.34694e-06 0.003
32584:-167.495 4.66862e-14 2.39146e-07
32586:-178.334 4.66862e-14 2.39146e-07
32596:0.0523337 3.53107e-05 0.00930113
32597:0.0548447 3.53107e-05 0.00930113
32598:0.0535287 3.53107e-05 0.00930113
32608:0.0525572 3.49939e-05 0.00925933
32609:0.0550789 3.49939e-05 0.00925933
32610:0.0537573 3.49939e-05 0.00925933
32660:-0.00648243 3.12178e-05 0.006184
32661:-0.00733281 3.12178e-05 0.006184
32662:-0.00690174 3.12178e-05 0.006184
32740:-0.00910104 1.58274e-05 0.00440325
32741:-0.0102951 1.58274e-05 0.00440325
32742:-0.00968982 1.58274e-05 0.00440325
32844:-0.00987552 0.000617786 0.0389047
32845:-0.0104351 0.000617786 0.0389047
32846:-0.0101441 0.000617786 0.0389047
32972:-0.000384234 0.408163 1
32973:-0.000406006 0.408163 1
32974:-0.000394686 0.408163 1
33016:-0.000385972 0.404502 0.995505
33017:-0.000407842 0.404502 0.995505
33018:-0.000396471 0.404502 0.995505
33032:-1046.43 1.19779e-15 3.83053e-08
33034:-1114.12 1.19779e-15 3.83053e-08
33068:-0.0338414 5.26089e-05 0.0113531
33069:-0.0357589 5.26089e-05 0.0113531
33070:-0.0347619 5.26089e-05 0.0113531
33132:310.554 1.00274e-12 1.56739e-06
33133:325.454 1.00274e-12 1.56739e-06
33134:317.645 1.00274e-12 1.56739e-06
33152:-42.9453 7.10512e-13 9.3294e-07
33153:-48.5814 7.10512e-13 9.3294e-07
33172:-6.70942e-05 0.291462 0.597529
33173:-7.58963e-05 0.291462 0.597529
33174:-7.14344e-05 0.291462 0.597529
33236:1.59943 3.77826e-08 0.000304249
33237:1.67618 3.77826e-08 0.000304249
33238:1.63595 3.77826e-08 0.000304249
33348:-0.0966765 6.44688e-06 0.00397427
33349:-0.102154 6.44688e-06 0.00397427
33350:-0.0993062 6.44688e-06 0.00397427
33436:0.000486742 0.408163 1
33437:0.000510096 0.408163 1
33438:0.000497856 0.408163 1
33444:-0.00146081 0.000613861 0.0274222
33445:-0.00165252 0.000613861 0.0274222
33446:-0.00155534 0.000613861 0.0274222
33544:-10.8284 1.11831e-11 3.70125e-06
33546:-11.529 1.11831e-11 3.70125e-06
33568:-0.00443811 6.64562e-05 0.00902268
33569:-0.00502074 6.64562e-05 0.00902268
33724:-0.546856 4.38376e-09 7.3281e-05
33725:-0.618616 4.38376e-09 7.3281e-05
33726:-0.58224 4.38376e-09 7.3281e-05
33748:154.54 4.04681e-12 3.14876e-06
33749:161.956 4.04681e-12 3.14876e-06
33750:158.069 4.04681e-12 3.14876e-06
33780:310.554 1.00274e-12 1.56739e-06
33781:325.454 1.00274e-12 1.56739e-06
33782:317.645 1.00274e-12 1.56739e-06
33808:5.92263 2.75623e-09 8.21753e-05
33809:6.2068 2.75623e-09 8.21753e-05
33810:6.05786 2.75623e-09 8.21753e-05
34012:-3.6018 1.01058e-10 1.11263e-05
34013:-4.07442 1.01058e-10 1.11263e-05
34014:-3.83485 1.01058e-10 1.11263e-05
34032:-0.343228 1.11201e-08 0.000116714
34033:-0.38827 1.11201e-08 0.000116714
34034:-0.365438 1.11201e-08 0.000116714
34192:-4.00537e-05 0.816326 1
34193:-4.5311e-05 0.816326 1
34194:-4.26461e-05 0.816326 1
34212:-4.02733e-05 0.809004 0.995505
34213:-4.55563e-05 0.809004 0.995505
34214:-4.28783e-05 0.809004 0.995505
34240:-0.503037 5.18735e-09 7.97152e-05
34241:-0.569021 5.18735e-09 7.97152e-05
34268:17.442 3.17796e-10 2.79034e-05
34269:18.2789 3.17796e-10 2.79034e-05
34270:17.8403 3.17796e-10 2.79034e-05
34292:-0.504016 5.14082e-09 7.93568e-05
34293:-0.570218 5.14082e-09 7.93568e-05
34294:-0.536661 5.14082e-09 7.93568e-05
34360:-0.00353041 0.000105218 0.0113531
34361:-0.00399358 0.000105218 0.0113531
34362:-0.0037588 0.000105218 0.0113531
34376:-0.233811 2.3956e-08 0.000171307
34377:-0.264496 2.3956e-08 0.000171307
34378:-0.248941 2.3956e-08 0.000171307
34452:-0.0949795 1.45203e-07 0.000421751
34453:-0.107444 1.45203e-07 0.000421751
34454:-0.101126 1.45203e-07 0.000421751
34620:-5.17935e-05 0.487779 0.773
34621:-5.85932e-05 0.487779 0.773
34622:-5.51464e-05 0.487779 0.773
34700:0.122216 6.47274e-06 0.00398224
34701:0.12808 6.47274e-06 0.00398224
34702:0.125006 6.47274e-06 0.00398224
34836:0.0128939 0.00058135 0.03774
34837:0.0135126 0.00058135 0.03774
34838:0.0131884 0.00058135 0.03774
34848:-29.0887 7.12235e-11 1.32098e-05
34849:-30.737 7.12235e-11 1.32098e-05
34850:-29.88 7.12235e-11 1.32098e-05
34856:-0.00504103 5.15694e-05 0.00794811
34857:-0.00570253 5.15694e-05 0.00794811
34858:-0.00536722 5.15694e-05 0.00794811
34884:-0.096922 6.41468e-06 0.00396434
34885:-0.102414 6.41468e-06 0.00396434
34886:-0.0995583 6.41468e-06 0.00396434
34920:-50.7182 5.09813e-13 7.90266e-07
34921:-57.3731 5.09813e-13 7.90266e-07
34922:-53.9997 5.09813e-13 7.90266e-07
34928:-0.0964771 6.47274e-06 0.00398224
34929:-0.101944 6.47274e-06 0.00398224
34930:-0.0991013 6.47274e-06 0.00398224
34940:-7.91414e-05 0.209132 0.506149
34941:-8.95275e-05 0.209132 0.506149
34942:-8.42628e-05 0.209132 0.506149
35036:0.162229 3.67347e-06 0.003
35037:0.170013 3.67347e-06 0.003
35038:0.165933 3.67347e-06 0.003
35152:-8.95687 1.63e-11 4.4685e-06
35153:-10.1328 1.63e-11 4.4685e-06
35154:-9.53674 1.63e-11 4.4685e-06
35160:-0.00141942 0.000649728 0.028212
35161:-0.00160575 0.000649728 0.028212
35162:-0.0015113 0.000649728 0.028212
35412:-0.462618 6.10953e-09 8.65111e-05
35413:-0.523365 6.10953e-09 8.65111e-05
35416:-0.914914 7.19504e-08 0.000419855
35417:-0.966756 7.19504e-08 0.000419855
35418:-0.9398 7.19504e-08 0.000419855
35436:-0.910864 7.26016e-08 0.000421751
35437:-0.962476 7.26016e-08 0.000421751
35438:-0.93564 7.26016e-08 0.000421751
35480:0.0428697 5.26089e-05 0.0113531
35481:0.0449267 5.26089e-05 0.0113531
35482:0.0438486 5.26089e-05 0.0113531
35528:-0.00524644 4.76842e-05 0.00764285
35529:-0.00593451 4.76842e-05 0.00764285
35530:-0.00558572 4.76842e-05 0.00764285
35536:-0.976031 6.32313e-08 0.000393595
35537:-1.03134 6.32313e-08 0.000393595
35538:-1.00258 6.32313e-08 0.000393595
35592:-24.2269 1.02646e-10 1.58582e-05
35593:-25.5996 1.02646e-10 1.58582e-05
35594:-24.8859 1.02646e-10 1.58582e-05
35660:-0.0017256 0.000440463 0.0232286
35661:-0.001952 0.000440463 0.0232286
35662:-0.00183724 0.000440463 0.0232286
35776:-9.14 1.56577e-11 4.37958e-06
35777:-10.3402 1.56577e-11 4.37958e-06
35778:-9.7318 1.56577e-11 4.37958e-06
35780:-0.0413123 3.53107e-05 0.00930113
35781:-0.0436531 3.53107e-05 0.00930113
35782:-0.042436 3.53107e-05 0.00930113
35836:0.000487577 0.406532 0.998
35837:0.000510971 0.406532 0.998
35838:0.00049871 0.406532 0.998
35840:0.000501696 0.384091 0.970063
35841:0.000525768 0.384091 0.970063
35842:0.000513152 0.384091 0.970063
35844:-0.490022 5.46302e-09 8.18059e-05
35845:-0.554308 5.46302e-09 8.18059e-05
35846:-0.521721 5.46302e-09 8.18059e-05
35888:-0.491983 5.41402e-09 8.14382e-05
35889:-0.556542 5.41402e-09 8.14382e-05
35890:-0.523817 5.41402e-09 8.14382e-05
35920:4.32382 5.17243e-09 0.000112572
35921:4.53128 5.17243e-09 0.000112572
35922:4.42255 5.17243e-09 0.000112572
36044:-0.253795 9.35065e-07 0.00151358
36045:-0.268176 9.35065e-07 0.00151358
36046:-0.260698 9.35065e-07 0.00151358
36068:-0.0338414 5.26089e-05 0.0113531
36069:-0.0357589 5.26089e-05 0.0113531
36070:-0.0347619 5.26089e-05 0.0113531
36088:-0.00910104 1.58274e-05 0.00440325
36089:-0.0102951 1.58274e-05 0.00440325
36090:-0.00968982 1.58274e-05 0.00440325
36100:0.00010262 0.406858 0.998
36101:0.000104202 0.406858 0.998
36102:0.000103282 0.406858 0.998
36184:-3917.55 8.54082e-17 1.02286e-08
36185:-4431.59 8.54082e-17 1.02286e-08
36186:-4171.02 8.54082e-17 1.02286e-08
36192:-9.23941 1.53387e-11 4.33473e-06
36193:-10.4521 1.53387e-11 4.33473e-06
36194:-9.83739 1.53387e-11 4.33473e-06
36268:740.425 1.76399e-13 6.57402e-07
36269:775.952 1.76399e-13 6.57402e-07
36270:757.332 1.76399e-13 6.57402e-07
36340:-0.00431242 7.03391e-05 0.00928253
36341:-0.00487856 7.03391e-05 0.00928253
36342:-0.00459158 7.03391e-05 0.00928253
36380:-23.0925 2.45194e-12 1.7331e-06
36381:-26.1247 2.45194e-12 1.7331e-06
36382:-24.5877 2.45194e-12 1.7331e-06
36484:-0.00133422 0.00073534 0.0300132
36485:-0.00150935 0.00073534 0.0300132
36486:-0.00142058 0.00073534 0.0300132
36504:0.000501696 0.384091 0.970063
36505:0.000525768 0.384091 0.970063
36506:0.000513152 0.384091 0.970063
36536:-0.0949795 1.45203e-07 0.000421751
36537:-0.107444 1.45203e-07 0.000421751
36538:-0.101126 1.45203e-07 0.000421751
36620:-0.000396039 0.384091 0.970063
36621:-0.00041848 0.384091 0.970063
36622:-0.000406812 0.384091 0.970063
36628:262.118 1.40765e-12 1.85708e-06
36629:274.695 1.40765e-12 1.85708e-06
36630:268.103 1.40765e-12 1.85708e-06
36732:-0.112139 1.04187e-07 0.000357253
36733:-0.126857 1.04187e-07 0.000357253
36734:-0.119396 1.04187e-07 0.000357253
36780:7.6626 1.64693e-09 6.35215e-05
36781:8.03026 1.64693e-09 6.35215e-05
36782:7.83757 1.64693e-09 6.35215e-05
36816:-0.00416833 7.54968e-05 0.00961684
36817:-0.00471518 7.54968e-05 0.00961684
36818:-0.00443798 7.54968e-05 0.00961684
36820:-0.977491 1.36925e-09 4.09552e-05
36821:-1.10582 1.36925e-09 4.09552e-05
36832:-0.981416 1.35697e-09 4.07711e-05
36833:-1.11029 1.35697e-09 4.07711e-05
36834:-1.04496 1.35697e-09 4.07711e-05
36876:-1.13707 1.01296e-09 3.5226e-05
36877:-1.28632 1.01296e-09 3.5226e-05
36878:-1.21067 1.01296e-09 3.5226e-05
36968:-0.0168338 4.62207e-06 0.0023795
36969:-0.0190432 4.62207e-06 0.0023795
36970:-0.0179233 4.62207e-06 0.0023795
36988:-0.738384 2.39918e-09 5.42125e-05
36989:-0.83534 2.39918e-09 5.42125e-05
36990:-0.786193 2.39918e-09 5.42125e-05
37044:0.110517 7.91372e-06 0.00440325
37045:0.11582 7.91372e-06 0.00440325
37046:0.11304 7.91372e-06 0.00440325
37048:-0.0949795 1.45203e-07 0.000421751
37049:-0.107444 1.45203e-07 0.000421751
37050:-0.101126 1.45203e-07 0.000421751
37120:-326.719 1.22503e-14 1.22501e-07
37121:-369.621 1.22503e-14 1.22501e-07
37122:-347.874 1.22503e-14 1.22501e-07
37208:5.92263 2.75623e-09 8.21753e-05
37209:6.2068 2.75623e-09 8.21753e-05
37210:6.05786 2.75623e-09 8.21753e-05
37388:-0.0117692 9.45736e-06 0.00340371
37389:-0.0133137 9.45736e-06 0.00340371
37390:-0.0125308 9.45736e-06 0.00340371
37500:-0.00838469 1.86536e-05 0.00478023
37501:-0.00948482 1.86536e-05 0.00478023
37502:-0.00892716 1.86536e-05 0.00478023
37632:-3.38597 1.14373e-10 1.18367e-05
37633:-3.83017 1.14373e-10 1.18367e-05
37634:-3.60501 1.14373e-10 1.18367e-05
38204:-502.744 2.38445e-13 7.64323e-07
38205:-531.231 2.38445e-13 7.64323e-07
38206:-516.419 2.38445e-13 7.64323e-07
38308:-1119.09 1.0432e-15 3.5748e-08
38310:-1191.57 1.0432e-15 3.5748e-08
38344:-0.000455664 0.290242 0.843263
38345:-0.000481483 0.290242 0.843263
38346:-0.000468058 0.290242 0.843263
38452:-0.801497 2.04003e-09 4.99903e-05
38453:-0.906672 2.04003e-09 4.99903e-05
38454:-0.853358 2.04003e-09 4.99903e-05
38488:5.94999 2.73151e-09 8.18059e-05
38489:6.23548 2.73151e-09 8.18059e-05
38490:6.08585 2.73151e-09 8.18059e-05
38508:5.92263 2.75623e-09 8.21753e-05
38509:6.2068 2.75623e-09 8.21753e-05
38510:6.05786 2.75623e-09 8.21753e-05
38620:-0.000453567 0.292869 0.847071
38621:-0.000479267 0.292869 0.847071
38622:-0.000465904 0.292869 0.847071
38652:0.0125684 0.000612244 0.0387298
38653:0.0131715 0.000612244 0.0387298
38654:0.0128554 0.000612244 0.0387298
38820:-11.5965 9.73972e-12 3.45415e-06
38822:-12.347 9.73972e-12 3.45415e-06
38840:-0.120094 9.07406e-08 0.000333402
38841:-0.13586 9.07406e-08 0.000333402
38842:-0.127868 9.07406e-08 0.000333402
38900:-4.72908e-05 0.585738 0.847071
38901:-5.34973e-05 0.585738 0.847071
38902:-5.03512e-05 0.585738 0.847071
39140:740.425 1.76399e-13 6.57402e-07
39141:775.952 1.76399e-13 6.57402e-07
39142:757.332 1.76399e-13 6.57402e-07
39316:-0.62609 3.34367e-09 6.4e-05
39317:-0.70824 3.34367e-09 6.4e-05
39318:-0.666597 3.34367e-09 6.4e-05
39372:-8.62045 1.76117e-11 4.64482e-06
39373:-9.75205 1.76117e-11 4.64482e-06
39374:-9.17844 1.76117e-11 4.64482e-06
39652:7.6626 1.64693e-09 6.35215e-05
39653:8.03026 1.64693e-09 6.35215e-05
39654:7.83757 1.64693e-09 6.35215e-05
39784:-0.00355366 0.000103857 0.0112794
39785:-0.00401988 0.000103857 0.0112794
39786:-0.00378355 0.000103857 0.0112794
39832:-1243.79 8.46314e-16 3.21984e-08
39833:-1407.05 8.46314e-16 3.21984e-08
39834:-1324.29 8.46314e-16 3.21984e-08
39852:-1237.9 8.53974e-16 3.23437e-08
39853:-1400.4 8.53974e-16 3.23437e-08
39912:-2.06918 3.05646e-10 1.93498e-05
39914:-2.20311 3.05646e-10 1.93498e-05
39940:0.017213 0.000326167 0.0282685
39941:0.0180389 0.000326167 0.0282685
39942:0.017606 0.000326167 0.0282685
39952:-0.000396039 0.384091 0.970063
39953:-0.00041848 0.384091 0.970063
39954:-0.000406812 0.384091 0.970063
39960:-0.000384234 0.408163 1
39961:-0.000406006 0.408163 1
39962:-0.000394686 0.408163 1
39968:-0.000385972 0.404502 0.995505
39969:-0.000407842 0.404502 0.995505
39970:-0.000396471 0.404502 0.995505
39980:-0.000385972 0.404502 0.995505
39981:-0.000407842 0.404502 0.995505
39982:-0.000396471 0.404502 0.995505
40008:0.000487577 0.406532 0.998
40009:0.000510971 0.406532 0.998
40010:0.00049871 0.406532 0.998
40160:1.23642 6.32313e-08 0.000393595
40161:1.29575 6.32313e-08 0.000393595
40162:1.26465 6.32313e-08 0.000393595
40228:-0.00989469 0.000615317 0.0388269
40229:-0.0104554 0.000615317 0.0388269
40230:-0.0101638 0.000615317 0.0388269
40384:-4.1387e-05 0.765111 0.968123
40385:-4.68181e-05 0.765111 0.968123
40386:-4.4065e-05 0.765111 0.968123
40444:-8.36879 1.87155e-11 4.78816e-06
40445:-9.46704 1.87155e-11 4.78816e-06
40446:-8.91033 1.87155e-11 4.78816e-06
40476:-4.00537e-05 0.816326 1
40477:-4.5311e-05 0.816326 1
40478:-4.26461e-05 0.816326 1
40528:-0.101691 1.26463e-07 0.000393595
40529:-0.115043 1.26463e-07 0.000393595
40530:-0.108275 1.26463e-07 0.000393595
40588:0.000486742 0.408163 1
40589:0.000510096 0.408163 1
40590:0.000497856 0.408163 1
40736:1.23642 6.32313e-08 0.000393595
40737:1.29575 6.32313e-08 0.000393595
40738:1.26465 6.32313e-08 0.000393595
40756:-0.000384234 0.408163 1
40757:-0.000406006 0.408163 1
40758:-0.000394686 0.408163 1
40936:-17.2409 4.40507e-12 2.32297e-06
40937:-19.5041 4.40507e-12 2.32297e-06
40938:-18.3569 4.40507e-12 2.32297e-06
41004:-2563.39 1.99206e-16 1.56214e-08
41005:-2899.86 1.99206e-16 1.56214e-08
41006:-2729.3 1.99206e-16 1.56214e-08
41100:-44.4982 6.62071e-13 9.00576e-07
41101:-50.3371 6.62071e-13 9.00576e-07
41102:-47.3773 6.62071e-13 9.00576e-07
41176:-0.0501344 5.21287e-07 0.00079911
41177:-0.0567136 5.21287e-07 0.00079911
41178:-0.0533786 5.21287e-07 0.00079911
41236:636.868 2.38445e-13 7.64323e-07
41237:667.426 2.38445e-13 7.64323e-07
41238:651.41 2.38445e-13 7.64323e-07
41304:0.000649039 0.229505 0.749859
41305:0.000680181 0.229505 0.749859
41306:0.00066386 0.229505 0.749859
41312:-0.00216413 0.000279685 0.0185098
41313:-0.00244812 0.000279685 0.0185098
41314:-0.00230416 0.000279685 0.0185098
41336:1.27482 5.95021e-08 0.000381812
41337:1.33599 5.95021e-08 0.000381812
41338:1.30393 5.95021e-08 0.000381812
41596:0.017213 0.000326167 0.0282685
41597:0.0180389 0.000326167 0.0282685
41598:0.017606 0.000326167 0.0282685
41612:-0.45974 6.18136e-09 8.70182e-05
41613:-0.520119 6.18136e-09 8.70182e-05
41614:-0.489513 6.18136e-09 8.70182e-05
41624:-0.000453567 0.292869 0.847071
41625:-0.000479267 0.292869 0.847071
41626:-0.000465904 0.292869 0.847071
41816:0.0627207 2.45818e-05 0.0077605
41817:0.0657302 2.45818e-05 0.0077605
41818:0.0641529 2.45818e-05 0.0077605
41868:636.868 2.38445e-13 7.64323e-07
41869:667.426 2.38445e-13 7.64323e-07
41870:651.41 2.38445e-13 7.64323e-07
41996:-4.72908e-05 0.585738 0.847071
41997:-5.34973e-05 0.585738 0.847071
41998:-5.03512e-05 0.585738 0.847071
42116:-0.000384894 0.406532 0.998
42117:-0.000406703 0.406532 0.998
42118:-0.000395363 0.406532 0.998
42192:-0.310952 1.35617e-08 0.000128892
42193:-0.351752 1.35617e-08 0.000128892
42200:-110.971 1.06452e-13 3.61115e-07
42202:-118.151 1.06452e-13 3.61115e-07
42212:-0.3119 1.34401e-08 0.000128312
42213:-0.352856 1.34401e-08 0.000128312
42214:-0.332096 1.34401e-08 0.000128312
42348:-0.000385732 0.404908 0.996004
42349:-0.000407589 0.404908 0.996004
42350:-0.000396225 0.404908 0.996004
42356:-4.531 2.9355e-09 8.48056e-05
42357:-4.78774 2.9355e-09 8.48056e-05
42358:-4.65425 2.9355e-09 8.48056e-05
42368:-0.0127749 0.000369145 0.0300733
42369:-0.0134988 0.000369145 0.0300733
42370:-0.0131224 0.000369145 0.0300733
42448:0.122468 6.44688e-06 0.00397427
42449:0.128344 6.44688e-06 0.00397427
42450:0.125265 6.44688e-06 0.00397427
42656:-284.711 1.61404e-14 1.40613e-07
42657:-322.085 1.61404e-14 1.40613e-07
42658:-303.14 1.61404e-14 1.40613e-07
42720:152.212 4.17177e-12 3.197e-06
42721:159.516 4.17177e-12 3.197e-06
42722:155.688 4.17177e-12 3.197e-06
42880:-4.0394e-05 0.809004 0.995505
42881:-4.56838e-05 0.809004 0.995505
42882:-4.30022e-05 0.809004 0.995505
42956:-0.128882 7.87606e-08 0.000310615
42957:-0.145801 7.87606e-08 0.000310615
42958:-0.137225 7.87606e-08 0.000310615
43144:-0.00183355 0.000389789 0.0218516
43145:-0.00207417 0.000389789 0.0218516
43146:-0.0019522 0.000389789 0.0218516
43160:31.7847 9.57054e-11 1.53127e-05
43161:33.3098 9.57054e-11 1.53127e-05
43162:32.5105 9.57054e-11 1.53127e-05
43264:-0.000497012 0.243889 0.773
43265:-0.000525174 0.243889 0.773
43266:-0.000510531 0.243889 0.773
43524:384.62 6.53415e-13 1.26525e-06
43525:403.075 6.53415e-13 1.26525e-06
43526:393.402 6.53415e-13 1.26525e-06
43588:-215.179 2.83273e-14 1.86282e-07
43589:-243.408 2.83273e-14 1.86282e-07
43590:-229.098 2.83273e-14 1.86282e-07
43724:-0.177058 4.17494e-08 0.000226148
43725:-0.200301 4.17494e-08 0.000226148
43726:-0.188519 4.17494e-08 0.000226148
43776:-0.0480161 2.61225e-05 0.008
43777:-0.0507368 2.61225e-05 0.008
43778:-0.0493222 2.61225e-05 0.008
43888:-0.000384234 0.408163 1
43889:-0.000406006 0.408163 1
43890:-0.000394686 0.408163 1
43972:-3.41322 5.17243e-09 0.000112572
43973:-3.60663 5.17243e-09 0.000112572
43974:-3.50607 5.17243e-09 0.000112572
44280:-4.00537e-05 0.816326 1
44281:-4.5311e-05 0.816326 1
44282:-4.26461e-05 0.816326 1
44292:-1.13707 1.01296e-09 3.5226e-05
44293:-1.28632 1.01296e-09 3.5226e-05
44294:-1.21067 1.01296e-09 3.5226e-05
44380:-0.101879 1.25957e-07 0.000392808
44381:-0.11526 1.25957e-07 0.000392808
44382:-0.108477 1.25957e-07 0.000392808
44420:-0.631779 3.2807e-09 6.33944e-05
44421:-0.714705 3.2807e-09 6.33944e-05
44422:-0.67267 3.2807e-09 6.33944e-05
44548:-0.00457607 6.25367e-05 0.00875257
44549:-0.00517664 6.25367e-05 0.00875257
44550:-0.0048722 6.25367e-05 0.00875257
44560:-0.0957724 1.4261e-07 0.000417968
44561:-0.108345 1.4261e-07 0.000417968
44562:-0.101972 1.4261e-07 0.000417968
44580:-0.0954537 1.43901e-07 0.000419855
44581:-0.107976 1.43901e-07 0.000419855
44582:-0.101628 1.43901e-07 0.000419855
44648:-4.74904e-05 0.580483 0.843263
44649:-5.37247e-05 0.580483 0.843263
44650:-5.05645e-05 0.580483 0.843263
44704:0.171139 1.01315e-05 0.00398224
44705:0.17935 1.01315e-05 0.00398224
44706:0.175046 1.01315e-05 0.00398224
44708:14042.4 4.90262e-16 3.46575e-08
44709:14716.2 4.90262e-16 3.46575e-08
44710:14363.1 4.90262e-16 3.46575e-08
44804:-0.0117692 9.45736e-06 0.00340371
44805:-0.0133137 9.45736e-06 0.00340371
44806:-0.0125308 9.45736e-06 0.00340371
44872:-241.465 2.24944e-14 1.65999e-07
44873:-273.146 2.24944e-14 1.65999e-07
45244:-4.7662e-05 0.575277 0.839472
45245:-5.39212e-05 0.575277 0.839472
45246:-5.07485e-05 0.575277 0.839472
45460:0.000486742 0.408163 1
45461:0.000510096 0.408163 1
45462:0.000497856 0.408163 1
45532:-0.00103448 0.00122449 0.0387298
45533:-0.00117025 0.00122449 0.0387298
45534:-0.00110143 0.00122449 0.0387298
45552:-0.00910104 1.58274e-05 0.00440325
45553:-0.0102951 1.58274e-05 0.00440325
45554:-0.00968982 1.58274e-05 0.00440325
45600:0.000486742 0.408163 1
45601:0.000510096 0.408163 1
45602:0.000497856 0.408163 1
45624:-0.00417216 7.51951e-05 0.0095976
45625:-0.00471986 7.51951e-05 0.0095976
45626:-0.00444223 7.51951e-05 0.0095976
45656:13.1387 5.59964e-10 3.70393e-05
45657:13.7691 5.59964e-10 3.70393e-05
45658:13.4387 5.59964e-10 3.70393e-05
45672:-73.1159 2.45225e-13 5.48088e-07
45673:-82.7094 2.45225e-13 5.48088e-07
45674:-77.8464 2.45225e-13 5.48088e-07
45704:-0.0338414 5.26089e-05 0.0113531
45705:-0.0357589 5.26089e-05 0.0113531
45706:-0.0347619 5.26089e-05 0.0113531
45780:-4.72908e-05 0.585738 0.847071
45781:-5.34973e-05 0.585738 0.847071
45782:-5.03512e-05 0.585738 0.847071
45800:-0.125236 8.33264e-08 0.000319491
45801:-0.141683 8.33264e-08 0.000319491
45802:-0.133346 8.33264e-08 0.000319491
45992:152.212 4.17177e-12 3.197e-06
45993:159.516 4.17177e-12 3.197e-06
45994:155.688 4.17177e-12 3.197e-06
46144:-0.00146081 0.000613861 0.0274222
46145:-0.00165252 0.000613861 0.0274222
46146:-0.00155534 0.000613861 0.0274222
46244:-0.128063 3.67347e-06 0.003
46245:-0.13532 3.67347e-06 0.003
46246:-0.131547 3.67347e-06 0.003
46276:-0.00430655 7.06213e-05 0.00930113
46277:-0.00487181 7.06213e-05 0.00930113
46278:-0.00458527 7.06213e-05 0.00930113
46404:-245.151 1.00274e-12 1.56739e-06
46405:-259.042 1.00274e-12 1.56739e-06
46406:-251.82 1.00274e-12 1.56739e-06
46456:-0.00500067 5.22449e-05 0.008
46457:-0.00565743 5.22449e-05 0.008
46458:-0.00532452 5.22449e-05 0.008
46468:0.000487577 0.406532 0.998
46469:0.000510971 0.406532 0.998
46470:0.00049871 0.406532 0.998
46516:-0.000384234 0.408163 1
46517:-0.000406006 0.408163 1
46518:-0.000394686 0.408163 1
46536:0.017213 0.000326167 0.0282685
46537:0.0180389 0.000326167 0.0282685
46538:0.017606 0.000326167 0.0282685
46564:-0.0872421 7.91372e-06 0.00440325
46565:-0.0921854 7.91372e-06 0.00440325
46566:-0.0896151 7.91372e-06 0.00440325
46696:-0.488452 5.49044e-09 8.20109e-05
46697:-0.552552 5.49044e-09 8.20109e-05
46698:-0.52006 5.49044e-09 8.20109e-05
46700:0.000486742 0.408163 1
46701:0.000510096 0.408163 1
46702:0.000497856 0.408163 1
46828:-0.0134073 7.28104e-06 0.00298651
46829:-0.0151674 7.28104e-06 0.00298651
46830:-0.0142752 7.28104e-06 0.00298651
47084:-0.0137507 6.91363e-06 0.00291019
47085:-0.0155565 6.91363e-06 0.00291019
47086:-0.0146411 6.91363e-06 0.00291019
47092:-0.000384234 0.408163 1
47093:-0.000406006 0.408163 1
47094:-0.000394686 0.408163 1
47180:-4.02733e-05 0.809004 0.995505
47181:-4.55563e-05 0.809004 0.995505
47182:-4.28783e-05 0.809004 0.995505
47224:-4.00537e-05 0.816326 1
47225:-4.5311e-05 0.816326 1
47226:-4.26461e-05 0.816326 1
47228:0.000574571 0.292869 0.847071
47229:0.00060214 0.292869 0.847071
47230:0.000587691 0.292869 0.847071
47376:0.0441912 4.95061e-05 0.0110132
47377:0.0463115 4.95061e-05 0.0110132
47378:0.0452002 4.95061e-05 0.0110132
47444:-4.0417e-05 0.801747 0.99103
47445:-4.57219e-05 0.801747 0.99103
47446:-4.30328e-05 0.801747 0.99103
47476:-0.976031 6.32313e-08 0.000393595
47477:-1.03134 6.32313e-08 0.000393595
47478:-1.00258 6.32313e-08 0.000393595
47488:-122.356 8.7418e-14 3.27242e-07
47489:-138.419 8.7418e-14 3.27242e-07
47516:1.18962 6.83197e-08 0.000409125
47517:1.2467 6.83197e-08 0.000409125
47518:1.21679 6.83197e-08 0.000409125
47540:-122.859 8.66338e-14 3.25771e-07
47541:-138.991 8.66338e-14 3.25771e-07
47542:-130.814 8.66338e-14 3.25771e-07
47692:-67.2139 2.89715e-13 5.95735e-07
47693:-76.0377 2.89715e-13 5.95735e-07
47694:-71.5649 2.89715e-13 5.95735e-07
47792:-0.000396039 0.384091 0.970063
47793:-0.00041848 0.384091 0.970063
47794:-0.000406812 0.384091 0.970063
47820:-61.0694 3.51388e-13 6.56087e-07
47821:-69.0834 3.51388e-13 6.56087e-07
47822:-65.0211 3.51388e-13 6.56087e-07
47936:-0.233811 2.3956e-08 0.000171307
47937:-0.264496 2.3956e-08 0.000171307
47938:-0.248941 2.3956e-08 0.000171307
48080:-0.00353347 0.000104797 0.0113303
48081:-0.00399732 0.000104797 0.0113303
48082:-0.0037622 0.000104797 0.0113303
48220:-0.000453567 0.292869 0.847071
48221:-0.000479267 0.292869 0.847071
48222:-0.000465904 0.292869 0.847071
48252:-0.0157557 5.27164e-06 0.00254121
48253:-0.0178239 5.27164e-06 0.00254121
48254:-0.0167755 5.27164e-06 0.00254121
48272:-0.00591015 3.74872e-05 0.00677656
48273:-0.00668594 3.74872e-05 0.00677656
48274:-0.00629269 3.74872e-05 0.00677656
48312:-0.00649059 3.10931e-05 0.00617163
48313:-0.00734236 3.10931e-05 0.00617163
48314:-0.0069106 3.10931e-05 0.00617163
48560:0.0611078 2.58881e-05 0.00796404
48561:0.0640398 2.58881e-05 0.00796404
48562:0.0625031 2.58881e-05 0.00796404
48568:30.6902 1.02646e-10 1.58582e-05
48569:32.1628 1.02646e-10 1.58582e-05
48570:31.391 1.02646e-10 1.58582e-05
48616:7.60414 1.67184e-09 6.4e-05
48617:7.969 1.67184e-09 6.4e-05
48618:7.77778 1.67184e-09 6.4e-05
48644:-0.0162523 4.96073e-06 0.00246513
48645:-0.0183851 4.96073e-06 0.00246513
48646:-0.017304 4.96073e-06 0.00246513
48872:-230.515 2.46713e-14 1.73846e-07
48873:-260.763 2.46713e-14 1.73846e-07
48874:-245.43 2.46713e-14 1.73846e-07
48928:30.6902 1.02646e-10 1.58582e-05
48929:32.1628 1.02646e-10 1.58582e-05
48930:31.391 1.02646e-10 1.58582e-05
49068:0.000501696 0.384091 0.970063
49069:0.000525768 0.384091 0.970063
49070:0.000513152 0.384091 0.970063
49072:0.000632339 0.241702 0.769525
49073:0.00066268 0.241702 0.769525
49074:0.000646778 0.241702 0.769525
49128:0.0787046 1.56089e-05 0.006184
49129:0.0824809 1.56089e-05 0.006184
49130:0.0805017 1.56089e-05 0.006184
49152:-13.7687 3.17796e-10 2.79034e-05
49153:-14.5489 3.17796e-10 2.79034e-05
49154:-14.1433 3.17796e-10 2.79034e-05
49172:-0.258729 1.9594e-08 0.000154928
49173:-0.292672 1.9594e-08 0.000154928
49174:-0.275466 1.9594e-08 0.000154928
49240:-6.70942e-05 0.291462 0.597529
49241:-7.58963e-05 0.291462 0.597529
49242:-7.14344e-05 0.291462 0.597529
49252:-0.0134073 7.28104e-06 0.00298651
49253:-0.0151674 7.28104e-06 0.00298651
49254:-0.0142752 7.28104e-06 0.00298651
49280:-97.9443 6.28085e-12 3.92276e-06
49281:-103.494 6.28085e-12 3.92276e-06
49282:-100.608 6.28085e-12 3.92276e-06
49300:-0.801497 2.04003e-09 4.99903e-05
49301:-0.906672 2.04003e-09 4.99903e-05
49302:-0.853358 2.04003e-09 4.99903e-05
49344:-4.01056e-05 0.813065 0.998
49345:-4.53712e-05 0.813065 0.998
49346:-4.27021e-05 0.813065 0.998
49620:-0.000453567 0.292869 0.847071
49621:-0.000479267 0.292869 0.847071
49622:-0.000465904 0.292869 0.847071
49676:-13160.6 7.56262e-18 3.04372e-09
49677:-14887.6 7.56262e-18 3.04372e-09
49678:-14012.2 7.56262e-18 3.04372e-09
49816:4.32382 5.17243e-09 0.000112572
49817:4.53128 5.17243e-09 0.000112572
49818:4.42255 5.17243e-09 0.000112572
49880:0.000487577 0.406532 0.998
49881:0.000510971 0.406532 0.998
49882:0.00049871 0.406532 0.998
50200:-4.14508e-05 0.761291 0.965702
50201:-4.68928e-05 0.761291 0.965702
50202:-4.41343e-05 0.761291 0.965702
50292:-0.0874415 7.8821e-06 0.00439444
50293:-0.0923961 7.8821e-06 0.00439444
50294:-0.08982 7.8821e-06 0.00439444
50388:-25.5809 1.99746e-12 1.56425e-06
50390:-27.2374 1.99746e-12 1.56425e-06
50504:-0.0100575 1.29455e-05 0.00398224
50505:-0.0113776 1.29455e-05 0.00398224
50506:-0.0107085 1.29455e-05 0.00398224
50532:0.442456 4.93679e-07 0.00109978
50533:0.463685 4.93679e-07 0.00109978
50534:0.452559 4.93679e-07 0.00109978
50564:-4.41147 6.71896e-11 9.07234e-06
50565:-4.99065 6.71896e-11 9.07234e-06
50566:-4.69706 6.71896e-11 9.07234e-06
50656:384.62 6.53415e-13 1.26525e-06
50657:403.075 6.53415e-13 1.26525e-06
50658:393.402 6.53415e-13 1.26525e-06
50668:-0.0364 9.87357e-07 0.00109978
50669:-0.0411786 9.87357e-07 0.00109978
50670:-0.0387564 9.87357e-07 0.00109978
50696:-0.0951103 1.44623e-07 0.000420908
50697:-0.107597 1.44623e-07 0.000420908
50698:-0.101268 1.44623e-07 0.000420908
50712:-0.0949795 1.45203e-07 0.000421751
50713:-0.107444 1.45203e-07 0.000421751
50714:-0.101126 1.45203e-07 0.000421751
50720:-2251.71 2.58489e-16 1.77946e-08
50721:-2547.15 2.58489e-16 1.77946e-08
50722:-2397.39 2.58489e-16 1.77946e-08
50752:-0.00141546 0.000652334 0.0282685
50753:-0.00160133 0.000652334 0.0282685
50754:-0.00150711 0.000652334 0.0282685
50948:-0.00353041 0.000105218 0.0113531
50949:-0.00399358 0.000105218 0.0113531
50950:-0.0037588 0.000105218 0.0113531
50992:-0.00354778 0.000104274 0.011302
50993:-0.00401312 0.000104274 0.011302
50994:-0.00377723 0.000104274 0.011302
51068:-12.5194 8.34354e-12 3.197e-06
51069:-14.1632 8.34354e-12 3.197e-06
51070:-13.33 8.34354e-12 3.197e-06
51100:-0.00911586 1.57642e-05 0.00439444
51101:-0.0103123 1.57642e-05 0.00439444
51102:-0.00970583 1.57642e-05 0.00439444
51260:-0.000384234 0.408163 1
51261:-0.000406006 0.408163 1
51262:-0.000394686 0.408163 1
51268:-0.0134196 7.25194e-06 0.00298054
51269:-0.0151824 7.25194e-06 0.00298054
51270:-0.0142888 7.25194e-06 0.00298054
51300:-5.19613e-05 0.48583 0.771454
51301:-5.87784e-05 0.48583 0.771454
51302:-5.53227e-05 0.48583 0.771454
51496:-4.74146e-05 0.583397 0.845376
51497:-5.36353e-05 0.583397 0.845376
51498:-5.0482e-05 0.583397 0.845376
51708:-0.304836 1.40592e-08 0.000131235
51709:-0.344874 1.40592e-08 0.000131235
51710:-0.324579 1.40592e-08 0.000131235
51748:-0.170224 4.51523e-08 0.000235184
51749:-0.192572 4.51523e-08 0.000235184
51750:-0.181244 4.51523e-08 0.000235184
51752:-0.0264897 1.86266e-06 0.00151055
51753:-0.0299681 1.86266e-06 0.00151055
51754:-0.0282049 1.86266e-06 0.00151055
51924:1.1021 7.96275e-08 0.000441687
51925:1.15498 7.96275e-08 0.000441687
51926:1.12726 7.96275e-08 0.000441687
51948:-11.9041 9.25588e-12 3.36726e-06
51949:-13.4659 9.25588e-12 3.36726e-06
51950:-12.6742 9.25588e-12 3.36726e-06
52000:-4.1387e-05 0.765111 0.968123
52001:-4.68181e-05 0.765111 0.968123
52002:-4.4065e-05 0.765111 0.968123
52120:-118.74 9.27234e-14 3.37025e-07
52121:-134.332 9.27234e-14 3.37025e-07
52122:-126.428 9.27234e-14 3.37025e-07
52228:-0.0430302 7.08457e-07 0.00093159
52229:-0.048675 7.08457e-07 0.00093159
52230:-0.0458136 7.08457e-07 0.00093159
52384:-0.0118796 9.28876e-06 0.00337324
52385:-0.0134384 9.28876e-06 0.00337324
52386:-0.0126482 9.28876e-06 0.00337324
52460:-3.16357 1.50758e-10 1.35544e-05
52461:-46.332 7.80868e-13 9.78041e-07
52462:-3.36815 1.50758e-10 1.35544e-05
52524:-1855.51 3.81087e-16 2.16063e-08
52525:-2098.91 3.81087e-16 2.16063e-08
52526:-1975.53 3.81087e-16 2.16063e-08
52672:-3.45818 1.09638e-10 1.15891e-05
52674:-3.68191 1.09638e-10 1.15891e-05
52720:-4.89114e-05 0.546248 0.818018
52721:-5.53357e-05 0.546248 0.818018
52722:-5.20792e-05 0.546248 0.818018
52852:-0.0107524 1.13113e-05 0.0037224
52853:-0.0121642 1.13113e-05 0.0037224
52854:-0.0114486 1.13113e-05 0.0037224
52884:-14.7912 5.98672e-12 2.70809e-06
52885:-16.7323 5.98672e-12 2.70809e-06
52886:-15.7484 5.98672e-12 2.70809e-06
52940:4.60801 4.55125e-09 0.000105596
52941:4.82911 4.55125e-09 0.000105596
52942:4.71323 4.55125e-09 0.000105596
52972:-305.255 1.61473e-14 1.40278e-07
52973:-4477.46 8.36371e-17 1.0122e-08
52974:-325.014 1.61473e-14 1.40278e-07
52976:-0.00557293 4.21983e-05 0.00718978
52977:-0.00630429 4.21983e-05 0.00718978
52978:-0.00593356 4.21983e-05 0.00718978
53064:-4.00537e-05 0.816326 1
53065:-4.5311e-05 0.816326 1
53066:-4.26461e-05 0.816326 1
53116:-4.02733e-05 0.809004 0.995505
53117:-4.55563e-05 0.809004 0.995505
53118:-4.28783e-05 0.809004 0.995505
53160:-0.00167157 0.000468069 0.0239454
53161:-0.00189104 0.000468069 0.0239454
53162:-0.00177979 0.000468069 0.0239454
53468:0.000574571 0.292869 0.847071
53469:0.00060214 0.292869 0.847071
53470:0.000587691 0.292869 0.847071
53500:-55.1299 4.30972e-13 7.26595e-07
53501:-62.3658 4.30972e-13 7.26595e-07
53502:-58.6979 4.30972e-13 7.26595e-07
53592:-0.0136186 0.000324864 0.028212
53593:-0.0143903 0.000324864 0.028212
53594:-0.0139891 0.000324864 0.028212
53676:-25.0833 9.57056e-11 1.53127e-05
53677:-26.5049 9.57056e-11 1.53127e-05
53678:-25.7657 9.57056e-11 1.53127e-05
53748:-0.0101735 0.000581354 0.03774
53749:-0.0107501 0.000581354 0.03774
53750:-0.0104503 0.000581354 0.03774
53784:-2.28526 2.50995e-10 1.75348e-05
53785:-2.58514 2.50995e-10 1.75348e-05
53786:-2.43313 2.50995e-10 1.75348e-05
53900:-0.0101271 1.27781e-05 0.00395641
53901:-0.0114558 1.27781e-05 0.00395641
53902:-0.0107823 1.27781e-05 0.00395641
54012:-0.569679 4.02372e-09 7.02073e-05
54013:-0.644504 4.02372e-09 7.02073e-05
54014:-0.606576 4.02372e-09 7.02073e-05
54040:-89.4234 1.64051e-13 4.48289e-07
54041:-101.154 1.64051e-13 4.48289e-07
54042:-95.2078 1.64051e-13 4.48289e-07
54044:-0.000453567 0.292869 0.847071
54045:-0.000479267 0.292869 0.847071
54046:-0.000465904 0.292869 0.847071
54056:-4.44862 6.61224e-11 9e-06
54057:-5.03258 6.61224e-11 9e-06
54058:-4.73657 6.61224e-11 9e-06
54144:1.34478 5.34453e-08 0.000361858
54145:1.4093 5.34453e-08 0.000361858
54146:1.37549 5.34453e-08 0.000361858
54228:-1.46092 2.82171e-08 0.000262929
54229:-1.5437 2.82171e-08 0.000262929
54230:-1.50066 2.82171e-08 0.000262929
54248:0.000629606 0.243889 0.773
54249:0.000659816 0.243889 0.773
54250:0.000643983 0.243889 0.773
54324:-4.67533 2.75623e-09 8.21753e-05
54325:-4.94024 2.75623e-09 8.21753e-05
54326:-4.8025 2.75623e-09 8.21753e-05
54352:5.7398 2.9355e-09 8.48056e-05
54353:6.0152 2.9355e-09 8.48056e-05
54354:5.87086 2.9355e-09 8.48056e-05
54516:-1.19706 4.20403e-08 0.000320934
54517:-1.26489 4.20403e-08 0.000320934
54518:-1.22962 4.20403e-08 0.000320934
54540:0.110769 7.8821e-06 0.00439444
54541:0.116084 7.8821e-06 0.00439444
54542:0.113299 7.8821e-06 0.00439444
54600:-1061.66 5.34396e-14 3.61838e-07
54601:-1121.82 5.34396e-14 3.61838e-07
54602:-1090.54 5.34396e-14 3.61838e-07
54664:-4.26005e-05 0.722875 0.941022
54665:-4.81887e-05 0.722875 0.941022
54716:-4.27282e-05 0.716391 0.936792
54717:-4.83381e-05 0.716391 0.936792
54718:-4.54944e-05 0.716391 0.936792
54740:-0.000384234 0.408163 1
54741:-0.000406006 0.408163 1
54742:-0.000394686 0.408163 1
54752:54.0673 3.30612e-11 9e-06
54753:56.6615 3.30612e-11 9e-06
54754:55.3019 3.30612e-11 9e-06
54924:-4.44862 6.61224e-11 9e-06
54925:-5.03258 6.61224e-11 9e-06
54926:-4.73657 6.61224e-11 9e-06
55012:-33.9104 1.13816e-12 1.18078e-06
55013:-38.362 1.13816e-12 1.18078e-06
55014:-36.1055 1.13816e-12 1.18078e-06
55016:-0.886847 1.66857e-09 4.52106e-05
55017:-1.00317 1.66857e-09 4.52106e-05
55068:-0.0140098 0.00030693 0.0274222
55069:-0.0148036 0.00030693 0.0274222
55070:-0.0143909 0.00030693 0.0274222
55324:-0.4877 5.51247e-09 8.21753e-05
55325:-0.551687 5.51247e-09 8.21753e-05
55326:-0.519252 5.51247e-09 8.21753e-05
55440:-3.29148 5.56007e-09 0.000116714
55441:-3.47799 5.56007e-09 0.000116714
55442:-3.38101 5.56007e-09 0.000116714
55484:-23.0925 2.45194e-12 1.7331e-06
55485:-26.1247 2.45194e-12 1.7331e-06
55486:-24.5877 2.45194e-12 1.7331e-06
55604:0.000486742 0.408163 1
55605:0.000510096 0.408163 1
55606:0.000497856 0.408163 1
55664:-0.81582 1.96818e-09 4.91021e-05
55665:-0.922875 1.96818e-09 4.91021e-05
55666:-0.868608 1.96818e-09 4.91021e-05
55740:0.0609523 2.60181e-05 0.007984
55741:0.0638769 2.60181e-05 0.007984
55742:0.0623441 2.60181e-05 0.007984
55756:-0.101691 1.26463e-07 0.000393595
55757:-0.115043 1.26463e-07 0.000393595
55758:-0.108275 1.26463e-07 0.000393595
55808:0.000743321 0.174998 0.654786
55809:0.000778987 0.174998 0.654786
55810:0.000760294 0.174998 0.654786
56052:-0.000384234 0.408163 1
56053:-0.000406006 0.408163 1
56054:-0.000394686 0.408163 1
56148:3.14165 9.79698e-09 0.000154928
56149:3.29239 9.79698e-09 0.000154928
56150:3.21339 9.79698e-09 0.000154928
56212:-23.9464 2.28201e-12 1.67196e-06
56213:-27.0902 2.28201e-12 1.67196e-06
56214:-25.4966 2.28201e-12 1.67196e-06
56224:-23.8334 2.30267e-12 1.67951e-06
56225:-26.9624 2.30267e-12 1.67951e-06
56380:-0.000453567 0.292869 0.847071
56381:-0.000479267 0.292869 0.847071
56382:-0.000465904 0.292869 0.847071
56484:-0.000535483 0.210142 0.717528
56485:-0.000565825 0.210142 0.717528
56486:-0.000550049 0.210142 0.717528
56492:-4.531 2.9355e-09 8.48056e-05
56493:-4.78774 2.9355e-09 8.48056e-05
56494:-4.65425 2.9355e-09 8.48056e-05
56520:25.1034 1.53436e-10 1.93886e-05
56521:26.3079 1.53436e-10 1.93886e-05
56522:25.6766 1.53436e-10 1.93886e-05
56524:-0.976031 6.32313e-08 0.000393595
56525:-1.03134 6.32313e-08 0.000393595
56526:-1.00258 6.32313e-08 0.000393595
56800:0.060826 2.61225e-05 0.008
56801:0.0637445 2.61225e-05 0.008
56802:0.0622149 2.61225e-05 0.008
56856:0.00362178 0.000326167 0.0282685
56857:0.00367757 0.000326167 0.0282685
56858:0.00364513 0.000326167 0.0282685
56912:25.1034 1.53436e-10 1.93886e-05
56913:26.3079 1.53436e-10 1.93886e-05
56914:25.6766 1.53436e-10 1.93886e-05
57052:-0.00430655 7.06213e-05 0.00930113
57053:-0.00487181 7.06213e-05 0.00930113
57054:-0.00458527 7.06213e-05 0.00930113
57064:-0.00432749 6.99878e-05 0.00925933
57065:-0.00489529 6.99878e-05 0.00925933
57066:-0.00460747 6.99878e-05 0.00925933
57088:-1.0461 1.19724e-09 3.82965e-05
57089:-1.18338 1.19724e-09 3.82965e-05
57090:-1.11379 1.19724e-09 3.82965e-05
57148:-0.000497012 0.243889 0.773
57149:-0.000525174 0.243889 0.773
57150:-0.000510531 0.243889 0.773
57180:-33.4103 1.17324e-12 1.19884e-06
57181:-37.7958 1.17324e-12 1.19884e-06
57182:-35.5728 1.17324e-12 1.19884e-06
57188:-5.25148 4.74447e-11 7.62363e-06
57189:-5.94093 4.74447e-11 7.62363e-06
57190:-5.59145 4.74447e-11 7.62363e-06
57376:-133188 7.38782e-20 3.00834e-10
57377:-150665 7.38782e-20 3.00834e-10
57378:-141806 7.38782e-20 3.00834e-10
57448:0.122216 6.47274e-06 0.00398224
57449:0.12808 6.47274e-06 0.00398224
57450:0.125006 6.47274e-06 0.00398224
57696:1344.9 5.34396e-14 3.61838e-07
57697:1409.43 5.34396e-14 3.61838e-07
57698:1375.61 5.34396e-14 3.61838e-07
57752:5.35797 3.36697e-09 9.08244e-05
57753:5.61506 3.36697e-09 9.08244e-05
57754:5.48032 3.36697e-09 9.08244e-05
57880:-3.37028 1.1557e-10 1.18984e-05
57881:-3.81229 1.1557e-10 1.18984e-05
57882:-3.58823 1.1557e-10 1.18984e-05
57980:-5.19771e-05 0.483403 0.769525
57981:-5.88043e-05 0.483403 0.769525
57982:-5.53436e-05 0.483403 0.769525
58016:-0.00146081 0.000613861 0.0274222
58017:-0.00165252 0.000613861 0.0274222
58018:-0.00155534 0.000613861 0.0274222
58032:-0.910864 7.26016e-08 0.000421751
58033:-0.962476 7.26016e-08 0.000421751
58034:-0.93564 7.26016e-08 0.000421751
58096:0.00115658 1.01462e-05 0.00398224
58097:0.00037457 1.01462e-05 0.00398224
58098:0.000761718 1.01462e-05 0.00398224
58100:-0.000384234 0.408163 1
58101:-0.000406006 0.408163 1
58102:-0.000394686 0.408163 1
58264:0.0554624 3.14353e-05 0.00877591
58265:0.0581236 3.14353e-05 0.00877591
58266:0.0567289 3.14353e-05 0.00877591
58360:1344.9 5.34396e-14 3.61838e-07
58361:1409.43 5.34396e-14 3.61838e-07
58362:1375.61 5.34396e-14 3.61838e-07
58424:0.0110834 3.53108e-05 0.00930113
58425:0.0112566 3.53108e-05 0.00930113
58426:0.0111561 3.53108e-05 0.00930113
58504:-0.343228 1.11201e-08 0.000116714
58505:-0.38827 1.11201e-08 0.000116714
58506:-0.365438 1.11201e-08 0.000116714
58540:-52.5222 4.74984e-13 7.62795e-07
58542:-55.9209 4.74984e-13 7.62795e-07
58576:-0.128063 3.67347e-06 0.003
58577:-0.13532 3.67347e-06 0.003
58578:-0.131547 3.67347e-06 0.003
58784:-58.7589 3.799e-13 6.82186e-07
58785:-66.4679 3.799e-13 6.82186e-07
58786:-62.5601 3.799e-13 6.82186e-07
58900:-0.976031 6.32313e-08 0.000393595
58901:-1.03134 6.32313e-08 0.000393595
58902:-1.00258 6.32313e-08 0.000393595
58956:-0.000396039 0.384091 0.970063
58957:-0.00041848 0.384091 0.970063
58958:-0.000406812 0.384091 0.970063
59032:0.0125344 0.000615317 0.0388269
59033:0.0131359 0.000615317 0.0388269
59034:0.0128206 0.000615317 0.0388269
59108:-0.0107473 1.13566e-05 0.00372986
59109:-0.0121571 1.13566e-05 0.00372986
59110:-0.0114425 1.13566e-05 0.00372986
59128:-2.3538 2.36192e-10 1.70099e-05
59129:-2.66284 2.36192e-10 1.70099e-05
59130:-2.50619 2.36192e-10 1.70099e-05
59280:-4.67533 2.75623e-09 8.21753e-05
59281:-4.94024 2.75623e-09 8.21753e-05
59282:-4.8025 2.75623e-09 8.21753e-05
