Version 9.1.0
Id 
Min label:-1
Max label:0
bits:18
lda:0
0 ngram:
0 skip:
options: --automl 3 --cb_adf --cb_type mtr --csoaa_ldf multiline --csoaa_rank --keep_configs --oracle_type rand --priority_type least_exclusion --random_seed 13881481101454338915
Checksum: 2920076286
_automl_state = Experimenting
_automl_config_manager_count = 3
_automl_config_manager_champ = 0
_automl_config_manager_valid_config_size = 6
_automl_config_manager_ns_counter.size() = 10
_automl_config_manager_ns_counter.key0 = 69
_automl_config_manager_ns_counter[69] = 18
_automl_config_manager_ns_counter.key1 = 71
_automl_config_manager_ns_counter[71] = 36
_automl_config_manager_ns_counter.key2 = 77
_automl_config_manager_ns_counter[77] = 36
_automl_config_manager_ns_counter.key3 = 79
_automl_config_manager_ns_counter[79] = 36
_automl_config_manager_ns_counter.key4 = 82
_automl_config_manager_ns_counter[82] = 27
_automl_config_manager_ns_counter.key5 = 83
_automl_config_manager_ns_counter[83] = 30
_automl_config_manager_ns_counter.key6 = 84
_automl_config_manager_ns_counter[84] = 30
_automl_config_manager_ns_counter.key7 = 105
_automl_config_manager_ns_counter[105] = 36
_automl_config_manager_ns_counter.key8 = 106
_automl_config_manager_ns_counter[106] = 30
_automl_config_manager_ns_counter.key9 = 128
_automl_config_manager_ns_counter[128] = 36
_automl_config_manager_configs.size() = 6
_automl_config_manager_configs.key0 = 0
_automl_config_manager_configs[0]_exclusions.size() = 0
_automl_config_manager_configs[0]_lease = 10
_automl_config_manager_configs[0]_ips = 0
_automl_config_manager_configs[0]_lower_bound = 0
_automl_config_manager_configs[0]_state = Live
_automl_config_manager_configs.key1 = 1
_automl_config_manager_configs[1]_exclusions.size() = 1
_automl_config_manager_configs[1]_exclusions.key0 = 69
_automl_config_manager_configs[1]_exclusions[69].size() = 1
_automl_config_manager_configs[1]_exclusions[69][0] = 69
_automl_config_manager_configs[1]_lease = 10
_automl_config_manager_configs[1]_ips = 0
_automl_config_manager_configs[1]_lower_bound = inf
_automl_config_manager_configs[1]_state = New
_automl_config_manager_configs.key2 = 2
_automl_config_manager_configs[2]_exclusions.size() = 1
_automl_config_manager_configs[2]_exclusions.key0 = 69
_automl_config_manager_configs[2]_exclusions[69].size() = 1
_automl_config_manager_configs[2]_exclusions[69][0] = 77
_automl_config_manager_configs[2]_lease = 10
_automl_config_manager_configs[2]_ips = 0
_automl_config_manager_configs[2]_lower_bound = 0
_automl_config_manager_configs[2]_state = Live
_automl_config_manager_configs.key3 = 3
_automl_config_manager_configs[3]_exclusions.size() = 1
_automl_config_manager_configs[3]_exclusions.key0 = 69
_automl_config_manager_configs[3]_exclusions[69].size() = 1
_automl_config_manager_configs[3]_exclusions[69][0] = 77
_automl_config_manager_configs[3]_lease = 10
_automl_config_manager_configs[3]_ips = 0
_automl_config_manager_configs[3]_lower_bound = 0
_automl_config_manager_configs[3]_state = Live
_automl_config_manager_configs.key4 = 4
_automl_config_manager_configs[4]_exclusions.size() = 1
_automl_config_manager_configs[4]_exclusions.key0 = 82
_automl_config_manager_configs[4]_exclusions[82].size() = 1
_automl_config_manager_configs[4]_exclusions[82][0] = 106
_automl_config_manager_configs[4]_lease = 10
_automl_config_manager_configs[4]_ips = 0
_automl_config_manager_configs[4]_lower_bound = inf
_automl_config_manager_configs[4]_state = New
_automl_config_manager_configs.key5 = 5
_automl_config_manager_configs[5]_exclusions.size() = 1
_automl_config_manager_configs[5]_exclusions.key0 = 105
_automl_config_manager_configs[5]_exclusions[105].size() = 1
_automl_config_manager_configs[5]_exclusions[105][0] = 128
_automl_config_manager_configs[5]_lease = 10
_automl_config_manager_configs[5]_ips = 0
_automl_config_manager_configs[5]_lower_bound = inf
_automl_config_manager_configs[5]_state = New
_automl_config_manager_scores.size() = 3
_automl_config_manager_scores[0]_chisq_alpha = 0.05000000074505806
_automl_config_manager_scores[0]_chisq_tau = 0.9990000128746033
_automl_config_manager_scores[0]_chisq_n = 2.9970010385980608
_automl_config_manager_scores[0]_chisq_sumw = 0
_automl_config_manager_scores[0]_chisq_sumwsq = 0
_automl_config_manager_scores[0]_chisq_sumwr = 0
_automl_config_manager_scores[0]_chisq_sumwsqr = 0
_automl_config_manager_scores[0]_chisq_sumwsqrsq = 0
_automl_config_manager_scores[0]_chisq_rmin = 0
_automl_config_manager_scores[0]_chisq_rmax = 1
_automl_config_manager_scores[0]_chisq_wmin = 0
_automl_config_manager_scores[0]_chisq_wmax = inf
_automl_config_manager_scores[0]_ips = 0
_automl_config_manager_scores[0]_count = 3
_automl_config_manager_scores[0]_lastw = 0
_automl_config_manager_scores[0]_lastr = 1
_automl_config_manager_scores[0]_index = 0
_automl_config_manager_scores[0]_eligible_to_inactivate = false
_automl_config_manager_scores[1]_chisq_alpha = 0.05000000074505806
_automl_config_manager_scores[1]_chisq_tau = 0.9990000128746033
_automl_config_manager_scores[1]_chisq_n = 1.9990000128746033
_automl_config_manager_scores[1]_chisq_sumw = 0
_automl_config_manager_scores[1]_chisq_sumwsq = 0
_automl_config_manager_scores[1]_chisq_sumwr = 0
_automl_config_manager_scores[1]_chisq_sumwsqr = 0
_automl_config_manager_scores[1]_chisq_sumwsqrsq = 0
_automl_config_manager_scores[1]_chisq_rmin = 0
_automl_config_manager_scores[1]_chisq_rmax = 1
_automl_config_manager_scores[1]_chisq_wmin = 0
_automl_config_manager_scores[1]_chisq_wmax = inf
_automl_config_manager_scores[1]_ips = 0
_automl_config_manager_scores[1]_count = 2
_automl_config_manager_scores[1]_lastw = 0
_automl_config_manager_scores[1]_lastr = 1
_automl_config_manager_scores[1]_index = 3
_automl_config_manager_scores[1]_eligible_to_inactivate = false
_automl_config_manager_scores[2]_chisq_alpha = 0.05000000074505806
_automl_config_manager_scores[2]_chisq_tau = 0.9990000128746033
_automl_config_manager_scores[2]_chisq_n = 1.9990000128746033
_automl_config_manager_scores[2]_chisq_sumw = 0
_automl_config_manager_scores[2]_chisq_sumwsq = 0
_automl_config_manager_scores[2]_chisq_sumwr = 0
_automl_config_manager_scores[2]_chisq_sumwsqr = 0
_automl_config_manager_scores[2]_chisq_sumwsqrsq = 0
_automl_config_manager_scores[2]_chisq_rmin = 0
_automl_config_manager_scores[2]_chisq_rmax = 1
_automl_config_manager_scores[2]_chisq_wmin = 0
_automl_config_manager_scores[2]_chisq_wmax = inf
_automl_config_manager_scores[2]_ips = 0
_automl_config_manager_scores[2]_count = 2
_automl_config_manager_scores[2]_lastw = 0
_automl_config_manager_scores[2]_lastr = 1
_automl_config_manager_scores[2]_index = 2
_automl_config_manager_scores[2]_eligible_to_inactivate = true
_automl_config_manager_index_queue.size() = 3
_automl_config_manager_index_queue[0].first = -6
_automl_config_manager_index_queue[0].second = 1
_automl_config_manager_index_queue[1].first = -9
_automl_config_manager_index_queue[1].second = 4
_automl_config_manager_index_queue[2].first = -12
_automl_config_manager_index_queue[2].second = 5
event_sum 7
action_sum 84
:1
initial_t 0
norm normalizer 245.427
t 3
sum_loss 0
sum_loss_since_last_dump 0
dump_interval 4
min_label -1
max_label 0
weighted_labeled_examples 3
weighted_labels 0
weighted_unlabeled_examples 0
example_number 3
total_features 31066
total_weight 0.714286
sd::oec.weighted_labeled_examples 2
current_pass 1
l1_state 0
l2_state 1
824:-0.00325627 0.276448 1
825:-0.0032949 0.27746 1
826:-0.0032966 0.277586 1
2064:-0.0711837 0.00137811 0.0389047
2065:-0.0728359 0.00135993 0.0389047
2066:-0.0728295 0.00136012 0.0389047
2220:-0.00277007 0.910502 1
2221:-0.0028334 0.898491 1
2222:-0.00283368 0.898617 1
2344:0.16936 4.52105e-06 0.003
2345:0.151964 4.41295e-06 0.003
2346:0.151916 4.41408e-06 0.003
2768:-0.00384482 0.19836 0.847071
2769:-0.00389066 0.199085 0.847071
2770:-0.00389097 0.199176 0.847071
2868:-8.27312 4.28265e-08 0.000393595
2869:-8.37246 4.29832e-08 0.000393595
2870:-8.37331 4.30028e-08 0.000393595
2928:-6.56532 1.61955e-07 0.000421751
2929:-6.44961 7.26016e-08 0.000421751
2930:-6.44961 7.26016e-08 0.000421751
3860:-0.63182 1.7495e-05 0.00438346
3861:-0.646445 1.72642e-05 0.00438346
3862:-0.646509 1.72667e-05 0.00438346
3872:-0.628912 1.76534e-05 0.00440325
3873:-0.643367 1.74205e-05 0.00440325
3874:-0.643431 1.74229e-05 0.00440325
4052:-0.00272067 0.408163 1
4053:-0.00272067 0.408163 1
4054:-0.00272067 0.408163 1
4540:0.00292365 0.225891 1
4541:0.0029346 0.212868 1
4542:0.00293574 0.212868 1
5100:-0.683131 6.47274e-06 0.00398224
5101:-0.683131 6.47274e-06 0.00398224
5102:-0.683131 6.47274e-06 0.00398224
5416:-0.00272067 0.408163 1
5417:-0.00272067 0.408163 1
5418:-0.00272067 0.408163 1
5560:-11234.5 5.53358e-14 2.46526e-07
5561:-11491.6 5.46058e-14 2.46526e-07
5562:-11492.7 5.46134e-14 2.46526e-07
7360:-0.0032116 0.292869 0.847071
7361:-0.0032116 0.292869 0.847071
7362:-0.0032116 0.292869 0.847071
7928:-0.628912 1.76534e-05 0.00440325
7929:-0.643367 1.74205e-05 0.00440325
7930:-0.643431 1.74229e-05 0.00440325
8048:-0.0836948 0.000418426 0.0389047
8049:-0.0846911 0.000419957 0.0389047
8050:-0.0847077 0.000420148 0.0389047
8264:-0.695514 1.44389e-05 0.00398224
8265:-0.683131 6.47274e-06 0.00398224
8266:-0.683131 6.47274e-06 0.00398224
8540:-0.00358228 0.544052 0.773
8541:-0.00366492 0.536874 0.773
8542:-0.00366528 0.53695 0.773
8764:-0.0032116 0.292869 0.847071
8765:-0.0032116 0.292869 0.847071
8766:-0.0032116 0.292869 0.847071
9052:-0.346121 5.82722e-05 0.008
9053:-0.354104 5.75034e-05 0.008
9054:-0.354139 5.75115e-05 0.008
9288:-32.01 6.81435e-09 8.65111e-05
9289:-32.7477 6.72446e-09 8.65111e-05
9290:-32.7509 6.7254e-09 8.65111e-05
9664:-0.00273298 0.404502 0.995505
9665:-0.00273298 0.404502 0.995505
9666:-0.00273298 0.404502 0.995505
9716:-0.00272067 0.408163 1
9717:-0.00272067 0.408163 1
9718:-0.00272067 0.408163 1
11220:-0.00272067 0.408163 1
11221:-0.00272067 0.408163 1
11222:-0.00272067 0.408163 1
12204:-33.1049 2.75623e-09 8.21753e-05
12205:-33.1049 2.75623e-09 8.21753e-05
12206:-33.1049 2.75623e-09 8.21753e-05
13152:0.974607 2.03302e-06 0.003
13153:0.97821 1.91581e-06 0.003
13154:0.978589 1.91581e-06 0.003
13320:-0.447911 3.48193e-05 0.006184
13321:-0.458207 3.436e-05 0.006184
13322:-0.458144 3.43648e-05 0.006184
13372:-0.407011 1.76927e-05 0.008
13373:-0.411876 1.77574e-05 0.008
13374:-0.411926 1.77655e-05 0.008
13760:-0.923175 8.19452e-06 0.003
13761:-0.944435 8.08642e-06 0.003
13762:-0.944529 8.08755e-06 0.003
13832:-43.2663 3.72942e-09 6.4e-05
13833:-44.2676 3.68022e-09 6.4e-05
13834:-44.2719 3.68074e-09 6.4e-05
13884:-0.00421183 0.165186 0.773
13885:-0.00426184 0.16579 0.773
13886:-0.00426404 0.165866 0.773
14548:-6.44961 7.26016e-08 0.000421751
14549:-6.44961 7.26016e-08 0.000421751
14550:-6.44961 7.26016e-08 0.000421751
15504:-15569.9 2.88075e-14 1.77874e-07
15505:-15922.4 2.84275e-14 1.77874e-07
15506:-15924 2.84315e-14 1.77874e-07
15692:-7.03709 1.41052e-07 0.000393595
15693:-7.19754 1.39191e-07 0.000393595
15694:-7.19825 1.39211e-07 0.000393595
16000:-7653.46 1.19209e-13 3.61838e-07
16001:-7829.58 1.17637e-13 3.61838e-07
16002:-7830.35 1.17653e-13 3.61838e-07
16296:-0.000975571 0.634054 1
16297:-0.00100248 0.621031 1
16298:-0.00100182 0.621031 1
16920:-0.0836948 0.000418426 0.0389047
16921:-0.0846911 0.000419957 0.0389047
16922:-0.0847077 0.000420148 0.0389047
17384:-17878.6 2.18513e-14 1.54917e-07
17385:-18289.6 2.15631e-14 1.54917e-07
17386:-18287.8 2.15661e-14 1.54917e-07
18808:-0.00325627 0.276448 1
18809:-0.0032949 0.27746 1
18810:-0.0032966 0.277586 1
19020:-0.000979734 0.628366 0.995505
19021:-0.00100718 0.61546 0.995505
19022:-0.00100652 0.61546 0.995505
19064:-0.000975571 0.634054 1
19065:-0.00100248 0.621031 1
19066:-0.00100182 0.621031 1
19300:-2345.15 1.26947e-12 1.18078e-06
19301:-2399.39 1.25272e-12 1.18078e-06
19302:-2399.63 1.2529e-12 1.18078e-06
20204:-0.098427 0.000721065 0.0281415
20205:-0.100678 0.000711552 0.0281415
20206:-0.100688 0.000711652 0.0281415
21000:-0.923175 8.19452e-06 0.003
21001:-0.944435 8.08642e-06 0.003
21002:-0.944529 8.08755e-06 0.003
21508:0.00292908 0.224988 0.998
21509:0.00294055 0.212017 0.998
21510:0.00294169 0.212017 0.998
21992:-39.6261 1.86679e-09 8.21753e-05
21993:-40.085 1.87363e-09 8.21753e-05
21994:-40.1058 1.87448e-09 8.21753e-05
23888:-0.695514 1.44389e-05 0.00398224
23889:-0.711473 1.42485e-05 0.00398224
23890:-0.711544 1.42505e-05 0.00398224
24016:-6.56532 1.61955e-07 0.000421751
24017:-6.71721 1.59818e-07 0.000421751
24018:-6.71701 1.59841e-07 0.000421751
24516:-0.297799 7.87686e-05 0.00930113
24517:-0.304622 7.77294e-05 0.00930113
24518:-0.304652 7.77403e-05 0.00930113
24560:-0.299106 7.8062e-05 0.00925933
24561:-0.305947 7.70322e-05 0.00925933
24562:-0.305977 7.7043e-05 0.00925933
24668:-1598.03 2.73481e-12 1.7331e-06
24669:-1634.69 2.69873e-12 1.7331e-06
24670:-1634.85 2.69911e-12 1.7331e-06
24812:-0.115652 0.000522067 0.0239454
24813:-0.118306 0.00051518 0.0239454
24814:-0.118318 0.000515253 0.0239454
26476:-0.00278764 0.898729 0.993514
26477:-0.00285176 0.886873 0.993514
26478:-0.00285204 0.886998 0.993514
26884:-0.0979584 0.000727591 0.0282685
26885:-0.100196 0.000717993 0.0282685
26886:-0.100206 0.000718094 0.0282685
26964:-0.407011 1.76927e-05 0.008
26965:-0.411876 1.77574e-05 0.008
26966:-0.411926 1.77655e-05 0.008
27476:-0.00421183 0.165186 0.773
27477:-0.00426184 0.16579 0.773
27478:-0.00426404 0.165866 0.773
29040:-6.91104 6.32313e-08 0.000393595
29041:-6.91104 6.32313e-08 0.000393595
29042:-6.91104 6.32313e-08 0.000393595
30096:-0.00325627 0.276448 1
30097:-0.0032949 0.27746 1
30098:-0.0032966 0.277586 1
30240:-0.0713262 0.00137261 0.0388269
30241:-0.0729684 0.0013545 0.0388269
30242:-0.0729756 0.00135469 0.0388269
30312:-6.56532 1.61955e-07 0.000421751
30313:-6.71721 1.59818e-07 0.000421751
30314:-6.71701 1.59841e-07 0.000421751
30440:-0.695514 1.44389e-05 0.00398224
30441:-0.711473 1.42485e-05 0.00398224
30442:-0.711544 1.42505e-05 0.00398224
31852:0.00292365 0.225891 1
31853:0.0029346 0.212868 1
31854:0.00293574 0.212868 1
32132:0.103414 0.000180511 0.0282685
32133:0.103829 0.000170105 0.0282685
32134:0.103869 0.000170105 0.0282685
34028:-0.126758 0.000434757 0.0218516
34029:-0.129672 0.000429022 0.0218516
34030:-0.129685 0.000429082 0.0218516
34492:-0.00325627 0.276448 1
34493:-0.0032949 0.27746 1
34494:-0.0032966 0.277586 1
34540:-12.2495 4.65658e-08 0.000226148
34541:-12.5299 4.59515e-08 0.000226148
34542:-12.5276 4.5958e-08 0.000226148
36468:-67.6247 1.52721e-09 4.09552e-05
36469:-69.1754 1.50707e-09 4.09552e-05
36470:-69.1822 1.50728e-09 4.09552e-05
36628:-0.00272067 0.408163 1
36629:-0.00272067 0.408163 1
36630:-0.00272067 0.408163 1
36692:-0.00384482 0.19836 0.847071
36693:-0.00389066 0.199085 0.847071
36694:-0.00389097 0.199176 0.847071
38076:-3624.77 5.31906e-13 7.64323e-07
38077:-3707.89 5.24889e-13 7.64323e-07
38078:-3706.92 5.24963e-13 7.64323e-07
38200:-0.00286155 0.853379 0.968123
38201:-0.00292733 0.842121 0.968123
38202:-0.00292762 0.842239 0.968123
39220:-0.24438 0.000116887 0.0113303
39221:-0.250017 0.000115345 0.0113303
39222:-0.250041 0.000115362 0.0113303
40792:-0.292522 3.53107e-05 0.00930113
40793:-0.292522 3.53107e-05 0.00930113
40794:-0.292522 3.53107e-05 0.00930113
42316:-99.2601 7.08917e-10 2.79034e-05
42317:-101.546 6.99565e-10 2.79034e-05
42318:-101.557 6.99663e-10 2.79034e-05
43136:-307.717 7.37507e-11 9e-06
43137:-314.715 7.27778e-11 9e-06
43138:-314.746 7.2788e-11 9e-06
44448:-2.51771 1.10126e-06 0.00109978
44449:-2.57612 1.08674e-06 0.00109978
44450:-2.57572 1.08689e-06 0.00109978
45236:-8.6275 9.37806e-08 0.000320934
45237:-8.82772 9.25434e-08 0.000320934
45238:-8.82686 9.25564e-08 0.000320934
45296:-0.324992 5.70648e-06 0.003
45297:-0.334161 5.58928e-06 0.003
45298:-0.333939 5.58928e-06 0.003
45528:-7.06964 1.39787e-07 0.000391825
45529:-7.23311 1.37943e-07 0.000391825
45530:-7.23209 1.37962e-07 0.000391825
45548:-7.03709 1.41052e-07 0.000393595
45549:-7.19754 1.39191e-07 0.000393595
45550:-7.19825 1.39211e-07 0.000393595
46248:-0.00335701 0.260144 0.970063
46249:-0.00339659 0.261096 0.970063
46250:-0.00339835 0.261215 0.970063
46276:-0.297799 7.87686e-05 0.00930113
46277:-0.304622 7.77294e-05 0.00930113
46278:-0.304652 7.77403e-05 0.00930113
46584:-0.73965 5.35995e-06 0.00440325
46585:-0.748145 5.37957e-06 0.00440325
46586:-0.748532 5.38201e-06 0.00440325
47268:-0.286839 3.56319e-05 0.0113531
47269:-0.290276 3.57623e-05 0.0113531
47270:-0.290318 3.57786e-05 0.0113531
48036:-0.00358228 0.544052 0.773
48037:-0.00366492 0.536874 0.773
48038:-0.00366528 0.53695 0.773
48304:-0.00277007 0.910502 1
48305:-0.0028334 0.898491 1
48306:-0.00283368 0.898617 1
48312:-0.100999 0.000684679 0.0274222
48313:-0.103329 0.000675647 0.0274222
48314:-0.103312 0.000675742 0.0274222
48648:-0.0038604 0.468769 0.717528
48649:-0.00394924 0.462585 0.717528
48650:-0.00394879 0.46265 0.717528
49576:-0.00277007 0.910502 1
49577:-0.0028334 0.898491 1
49578:-0.00283368 0.898617 1
50236:-0.33999 2.61225e-05 0.008
50237:-0.33999 2.61225e-05 0.008
50238:-0.33999 2.61225e-05 0.008
50524:-0.00326979 0.653311 0.847071
50525:-0.00334511 0.644693 0.847071
50526:-0.00334544 0.644783 0.847071
50748:-0.00351922 0.243889 0.773
50749:-0.00351922 0.243889 0.773
50750:-0.00351922 0.243889 0.773
51100:-0.0836948 0.000418426 0.0389047
51101:-0.0846911 0.000419957 0.0389047
51102:-0.0847077 0.000420148 0.0389047
51676:0.00293722 0.223864 0.995505
51677:0.00294783 0.210958 0.995505
51678:0.00294897 0.210958 0.995505
51688:0.00292365 0.225891 1
51689:0.0029346 0.212868 1
51690:0.00293574 0.212868 1
51808:-756.504 1.22026e-11 3.66088e-06
51809:-774.007 1.20416e-11 3.66088e-06
51810:-774.084 1.20433e-11 3.66088e-06
52140:6.93254 4.01801e-08 0.000421751
52141:6.95917 3.78636e-08 0.000421751
52142:6.96187 3.78636e-08 0.000421751
52404:-0.00277007 0.910502 1
52405:-0.0028334 0.898491 1
52406:-0.00283368 0.898617 1
53064:-0.00277007 0.910502 1
53065:-0.0028334 0.898491 1
53066:-0.00283368 0.898617 1
53116:-0.00278259 0.902335 0.995505
53117:-0.00284658 0.890432 0.995505
53118:-0.00284686 0.890557 0.995505
53180:-0.61774 7.91372e-06 0.00440325
53181:-0.61774 7.91372e-06 0.00440325
53182:-0.61774 7.91372e-06 0.00440325
53256:-0.408816 4.18119e-05 0.00677656
53257:-0.418115 4.12603e-05 0.00677656
53258:-0.418157 4.12661e-05 0.00677656
53376:0.00301389 0.212568 0.970063
53377:0.00302584 0.200313 0.970063
53378:0.00302701 0.200313 0.970063
53644:-0.0699261 0.000617786 0.0389047
53645:-0.0699261 0.000617786 0.0389047
53646:-0.0699261 0.000617786 0.0389047
53784:0.00052383 0.472712 0.970063
53785:0.00047034 0.461409 0.970063
53786:0.00047104 0.461528 0.970063
53820:-0.00384482 0.19836 0.847071
53821:-0.00389066 0.199085 0.847071
53822:-0.00389097 0.199176 0.847071
54544:-0.286839 3.56319e-05 0.0113531
54545:-0.290276 3.57623e-05 0.0113531
54546:-0.290318 3.57786e-05 0.0113531
55496:-0.00272067 0.408163 1
55497:-0.00272067 0.408163 1
55498:-0.00272067 0.408163 1
55580:-0.00335701 0.260144 0.970063
55581:-0.00339659 0.261096 0.970063
55582:-0.00339835 0.261215 0.970063
55776:-0.346121 5.82722e-05 0.008
55777:-0.354104 5.75034e-05 0.008
55778:-0.354139 5.75115e-05 0.008
56056:-0.00277469 0.906864 0.998
56057:-0.00283825 0.894901 0.998
56058:-0.00283811 0.895026 0.998
56276:-0.00325627 0.276448 1
56277:-0.0032949 0.27746 1
56278:-0.0032966 0.277586 1
56460:0.257547 2.91154e-05 0.0113531
56461:0.258473 2.74369e-05 0.0113531
56462:0.258573 2.74369e-05 0.0113531
56852:0.0447856 6.47474e-05 0.0113531
56853:0.0401687 6.31992e-05 0.0113531
56854:0.040156 6.32155e-05 0.0113531
56976:-142.856 3.42275e-10 1.93886e-05
56977:-146.124 3.37759e-10 1.93886e-05
56978:-146.138 3.37807e-10 1.93886e-05
57212:-0.906786 3.67347e-06 0.003
57213:-0.906786 3.67347e-06 0.003
57214:-0.906786 3.67347e-06 0.003
57492:0.734038 3.58222e-06 0.00398224
57493:0.736873 3.3757e-06 0.00398224
57494:0.737159 3.3757e-06 0.00398224
58536:-0.00280426 0.384091 0.970063
58537:-0.00280426 0.384091 0.970063
58538:-0.00280426 0.384091 0.970063
58652:-0.350135 2.39159e-05 0.00930113
58653:-0.354276 2.40034e-05 0.00930113
58654:-0.354351 2.40143e-05 0.00930113
58728:-0.00272067 0.408163 1
58729:-0.00272067 0.408163 1
58730:-0.00272067 0.408163 1
58932:-0.00272067 0.408163 1
58933:-0.00272067 0.408163 1
58934:-0.00272067 0.408163 1
59556:-0.239623 5.26089e-05 0.0113531
59557:-0.239623 5.26089e-05 0.0113531
59558:-0.239623 5.26089e-05 0.0113531
59920:-0.00277007 0.910502 1
59921:-0.0028334 0.898491 1
59922:-0.00283368 0.898617 1
60336:-79926.5 1.09364e-15 3.46575e-08
60337:-81750.5 1.07922e-15 3.46575e-08
60338:-81758.5 1.07937e-15 3.46575e-08
60624:-0.407011 1.76927e-05 0.008
60625:-0.411876 1.77574e-05 0.008
60626:-0.411926 1.77655e-05 0.008
61136:-0.00421183 0.165186 0.773
61137:-0.00426184 0.16579 0.773
61138:-0.00426404 0.165866 0.773
61188:-33.8641 6.09327e-09 8.18059e-05
61189:-34.6413 6.01288e-09 8.18059e-05
61190:-34.6378 6.01373e-09 8.18059e-05
61232:-33.6973 6.14842e-09 8.21753e-05
61233:-34.4797 6.06731e-09 8.21753e-05
61234:-34.4762 6.06816e-09 8.21753e-05
61296:-0.0699261 0.000617786 0.0389047
61297:-0.0699261 0.000617786 0.0389047
61298:-0.0699261 0.000617786 0.0389047
62356:0.000510697 0.497833 0.995505
62357:0.000458009 0.485929 0.995505
62358:0.000457864 0.486054 0.995505
62368:0.000507577 0.502339 1
62369:0.000456228 0.490328 1
62370:0.000456084 0.490454 1
62888:-209.683 1.5888e-10 1.32098e-05
62889:-214.504 1.56785e-10 1.32098e-05
62890:-214.525 1.56807e-10 1.32098e-05
63680:-0.00351922 0.243889 0.773
63681:-0.00351922 0.243889 0.773
63682:-0.00351922 0.243889 0.773
64192:-0.33999 2.61225e-05 0.008
64193:-0.33999 2.61225e-05 0.008
64194:-0.33999 2.61225e-05 0.008
66020:-578.552 2.08746e-11 4.78816e-06
66021:-591.836 2.05993e-11 4.78816e-06
66022:-591.894 2.06021e-11 4.78816e-06
66468:-1.0898 5.8798e-06 0.00254121
66469:-1.11474 5.80224e-06 0.00254121
66470:-1.11485 5.80305e-06 0.00254121
66624:-9.10236 8.42827e-08 0.000304249
66625:-9.31326 8.31708e-08 0.000304249
66626:-9.31158 8.31825e-08 0.000304249
66976:-0.239623 5.26089e-05 0.0113531
66977:-0.239623 5.26089e-05 0.0113531
66978:-0.239623 5.26089e-05 0.0113531
67136:-879.392 9.02733e-12 3.14876e-06
67137:-899.858 8.90824e-12 3.14876e-06
67138:-899.948 8.90949e-12 3.14876e-06
67456:-0.297799 7.87686e-05 0.00930113
67457:-0.304622 7.77294e-05 0.00930113
67458:-0.304652 7.77403e-05 0.00930113
67792:-0.002781 0.90324 0.996004
67793:-0.00284427 0.891325 0.996004
67794:-0.00284456 0.89145 0.996004
68012:-0.00280426 0.384091 0.970063
68013:-0.00280426 0.384091 0.970063
68014:-0.00280426 0.384091 0.970063
68172:-0.923175 8.19452e-06 0.003
68173:-0.944435 8.08642e-06 0.003
68174:-0.944529 8.08755e-06 0.003
68376:-8464.5 9.7503e-14 3.27242e-07
68377:-8658.66 9.62167e-14 3.27242e-07
68378:-8659.51 9.62302e-14 3.27242e-07
69128:-0.00463638 0.325087 0.597529
69129:-0.00474339 0.320798 0.597529
69130:-0.00474259 0.320843 0.597529
69224:-0.351469 5.65187e-05 0.00787872
69225:-0.359598 5.57731e-05 0.00787872
69226:-0.359633 5.57809e-05 0.00787872
70204:-0.000975571 0.634054 1
70205:-0.00100248 0.621031 1
70206:-0.00100182 0.621031 1
70528:-0.00277469 0.906864 0.998
70529:-0.00283825 0.894901 0.998
70530:-0.00283811 0.895026 0.998
72372:-2.47763 9.82256e-08 0.000393595
72373:-2.54531 9.62081e-08 0.000393595
72374:-2.54362 9.62081e-08 0.000393595
72660:-0.00115133 0.454952 0.847071
72661:-0.00118368 0.445607 0.847071
72662:-0.0011829 0.445607 0.847071
73348:-7.2537 1.32733e-07 0.000381812
73349:-7.42046 1.30982e-07 0.000381812
73350:-7.42119 1.31e-07 0.000381812
74864:-1.0855 2.48804e-06 0.003
74865:-1.09841 2.49714e-06 0.003
74866:-1.09854 2.49828e-06 0.003
76640:-0.695514 1.44389e-05 0.00398224
76641:-0.711473 1.42485e-05 0.00398224
76642:-0.711544 1.42505e-05 0.00398224
77068:-180.889 2.13493e-10 1.53127e-05
77069:-185.024 2.10677e-10 1.53127e-05
77070:-185.042 2.10706e-10 1.53127e-05
77352:-0.00325627 0.276448 1
77353:-0.0032949 0.27746 1
77354:-0.0032966 0.277586 1
78144:-0.0979584 0.000727591 0.0282685
78145:-0.100196 0.000717993 0.0282685
78146:-0.100206 0.000718094 0.0282685
78352:-0.00325627 0.276448 1
78353:-0.0032949 0.27746 1
78354:-0.0032966 0.277586 1
79364:-0.243977 0.000117356 0.0113531
79365:-0.239623 5.26089e-05 0.0113531
79366:-0.239623 5.26089e-05 0.0113531
80200:-0.00325627 0.276448 1
80201:-0.0032949 0.27746 1
80202:-0.0032966 0.277586 1
80384:-0.0979584 0.000727591 0.0282685
80385:-0.100196 0.000717993 0.0282685
80386:-0.100206 0.000718094 0.0282685
80392:-0.00285456 0.856802 0.970063
80393:-0.00280426 0.384091 0.970063
80394:-0.00280426 0.384091 0.970063
80872:0.00292365 0.225891 1
80873:0.0029346 0.212868 1
80874:0.00293574 0.212868 1
82008:-34.7505 5.78579e-09 7.97152e-05
82009:-35.548 5.70947e-09 7.97152e-05
82010:-35.5515 5.71027e-09 7.97152e-05
82956:0.0634748 3.21497e-05 0.008
82957:0.0569186 3.1381e-05 0.008
82958:0.0570634 3.1389e-05 0.008
83048:-11.864 4.28162e-09 8.21753e-05
83049:-12.1949 4.19368e-09 8.21753e-05
83050:-12.1867 4.19368e-09 8.21753e-05
83468:0.000657618 0.300162 0.773
83469:0.000591419 0.292985 0.773
83470:0.000591234 0.29306 0.773
83728:-0.00285456 0.856802 0.970063
83729:-0.00292055 0.8455 0.970063
83730:-0.00292084 0.845618 0.970063
84764:-0.243977 0.000117356 0.0113531
84765:-0.249559 0.000115808 0.0113531
84766:-0.249529 0.000115824 0.0113531
85336:-0.00273298 0.404502 0.995505
85337:-0.00273298 0.404502 0.995505
85338:-0.00273298 0.404502 0.995505
85356:-0.00272067 0.408163 1
85357:-0.00272067 0.408163 1
85358:-0.00272067 0.408163 1
86248:-0.00277007 0.910502 1
86249:-0.0028334 0.898491 1
86250:-0.00283368 0.898617 1
86952:-0.0711837 0.00137811 0.0389047
86953:-0.0728359 0.00135993 0.0389047
86954:-0.0728295 0.00136012 0.0389047
87200:0.000507577 0.502339 1
87201:0.000456228 0.490328 1
87202:0.000456084 0.490454 1
87304:0.0751342 0.000341902 0.0389047
87305:0.0754284 0.000322191 0.0389047
87306:0.0754576 0.000322191 0.0389047
87492:-1767.07 2.23684e-12 1.56739e-06
87493:-1808.03 2.20733e-12 1.56739e-06
87494:-1808.21 2.20764e-12 1.56739e-06
87608:0.00292365 0.225891 1
87609:0.0029346 0.212868 1
87610:0.00293574 0.212868 1
87908:-0.628912 1.76534e-05 0.00440325
87909:-0.643367 1.74205e-05 0.00440325
87910:-0.643431 1.74229e-05 0.00440325
88220:-4213.92 3.93499e-13 6.57402e-07
88221:-4310.28 3.88308e-13 6.57402e-07
88222:-4309.82 3.88362e-13 6.57402e-07
88312:0.00292365 0.225891 1
88313:0.0029346 0.212868 1
88314:0.00293574 0.212868 1
88320:-0.00326979 0.653311 0.847071
88321:-0.00334511 0.644693 0.847071
88322:-0.00334544 0.644783 0.847071
88732:-43.6066 3.67386e-09 6.35215e-05
88733:-44.6091 3.62539e-09 6.35215e-05
88734:-44.6135 3.6259e-09 6.35215e-05
88872:-0.00277007 0.910502 1
88873:-0.0028334 0.898491 1
88874:-0.00283368 0.898617 1
88904:-0.00327048 0.273969 0.995505
88905:-0.0033093 0.274971 0.995505
88906:-0.00331101 0.275096 0.995505
88956:-0.00325627 0.276448 1
88957:-0.0032949 0.27746 1
88958:-0.0032966 0.277586 1
89740:-0.742367 1.26668e-05 0.00372986
89741:-0.759576 1.24997e-05 0.00372986
89742:-0.759651 1.25015e-05 0.00372986
90020:-0.00325627 0.276448 1
90021:-0.0032949 0.27746 1
90022:-0.0032966 0.277586 1
90144:-0.00285456 0.856802 0.970063
90145:-0.00292055 0.8455 0.970063
90146:-0.00292084 0.845618 0.970063
90276:-0.243977 0.000117356 0.0113531
90277:-0.249559 0.000115808 0.0113531
90278:-0.249529 0.000115824 0.0113531
90640:-0.00272067 0.408163 1
90641:-0.00272067 0.408163 1
90642:-0.00272067 0.408163 1
90800:0.00292365 0.225891 1
90801:0.0029346 0.212868 1
90802:0.00293574 0.212868 1
91152:-0.000975571 0.634054 1
91153:-0.00100248 0.621031 1
91154:-0.00100182 0.621031 1
91168:-0.00325627 0.276448 1
91169:-0.0032949 0.27746 1
91170:-0.0032966 0.277586 1
93352:-0.00285456 0.856802 0.970063
93353:-0.00292055 0.8455 0.970063
93354:-0.00292084 0.845618 0.970063
93816:-0.923175 8.19452e-06 0.003
93817:-0.944435 8.08642e-06 0.003
93818:-0.944529 8.08755e-06 0.003
94016:0.013042 0.000760328 0.0389047
94017:0.011727 0.000742148 0.0389047
94018:0.0117233 0.000742339 0.0389047
95120:-0.00272067 0.408163 1
95121:-0.00272067 0.408163 1
95122:-0.00272067 0.408163 1
95140:-0.00273298 0.404502 0.995505
95141:-0.00273298 0.404502 0.995505
95142:-0.00273298 0.404502 0.995505
95184:-866.279 9.30609e-12 3.197e-06
95185:-886.103 9.18333e-12 3.197e-06
95186:-886.191 9.18461e-12 3.197e-06
95320:-0.0032116 0.292869 0.847071
95321:-0.0032116 0.292869 0.847071
95322:-0.0032116 0.292869 0.847071
96484:-0.346121 5.82722e-05 0.008
96485:-0.354104 5.75034e-05 0.008
96486:-0.354139 5.75115e-05 0.008
96536:-1.0855 2.48804e-06 0.003
96537:-1.09841 2.49714e-06 0.003
96538:-1.09854 2.49828e-06 0.003
96996:-0.00358228 0.544052 0.773
96997:-0.00366492 0.536874 0.773
96998:-0.00366528 0.53695 0.773
97348:0.00378263 0.134976 0.773
97349:0.00379733 0.127195 0.773
97350:0.00379881 0.127195 0.773
97712:-0.00272067 0.408163 1
97713:-0.00272067 0.408163 1
97714:-0.00272067 0.408163 1
97860:0.365456 1.4457e-05 0.008
97861:0.366829 1.36235e-05 0.008
97862:0.366971 1.36235e-05 0.008
98724:-0.346121 5.82722e-05 0.008
98725:-0.354104 5.75034e-05 0.008
98726:-0.354139 5.75115e-05 0.008
99216:-0.00325627 0.276448 1
99217:-0.0032949 0.27746 1
99218:-0.0032966 0.277586 1
99236:-0.00327048 0.273969 0.995505
99237:-0.0033093 0.274971 0.995505
99238:-0.00331101 0.275096 0.995505
99592:-21.491 1.51263e-08 0.000128892
99593:-21.9861 1.49267e-08 0.000128892
99594:-21.9883 1.49288e-08 0.000128892
99792:-7.72181 4.9173e-08 0.000421751
99793:-7.8136 4.93529e-08 0.000421751
99794:-7.81416 4.93754e-08 0.000421751
99884:0.00292365 0.225891 1
99885:0.0029346 0.212868 1
99886:0.00293574 0.212868 1
100632:-0.906786 3.67347e-06 0.003
100633:-0.906786 3.67347e-06 0.003
100634:-0.906786 3.67347e-06 0.003
101824:-232.333 1.2942e-10 1.19223e-05
101825:-237.63 1.27712e-10 1.19223e-05
101826:-237.654 1.2773e-10 1.19223e-05
102060:-0.00272067 0.408163 1
102061:-0.00272067 0.408163 1
102062:-0.00272067 0.408163 1
102264:-0.697 1.43813e-05 0.00397427
102265:-0.713016 1.41915e-05 0.00397427
102266:-0.712869 1.41935e-05 0.00397427
102488:-0.00351922 0.243889 0.773
102489:-0.00351922 0.243889 0.773
102490:-0.00351922 0.243889 0.773
102828:0.00292365 0.225891 1
102829:0.0029346 0.212868 1
102830:0.00293574 0.212868 1
103000:-0.33999 2.61225e-05 0.008
103001:-0.33999 2.61225e-05 0.008
103002:-0.33999 2.61225e-05 0.008
103360:-16.1644 2.67197e-08 0.000171307
103361:-16.539 2.63672e-08 0.000171307
103362:-16.5372 2.63709e-08 0.000171307
103620:-0.00278259 0.902335 0.995505
103621:-0.00284658 0.890432 0.995505
103622:-0.00284686 0.890557 0.995505
103664:-0.00277007 0.910502 1
103665:-0.0028334 0.898491 1
103666:-0.00283368 0.898617 1
104204:-0.00277007 0.910502 1
104205:-0.0028334 0.898491 1
104206:-0.00283368 0.898617 1
104516:0.0034522 0.162083 0.847071
104517:0.00346414 0.152739 0.847071
104518:0.00346548 0.152739 0.847071
106212:-0.00326979 0.653311 0.847071
106213:-0.00334511 0.644693 0.847071
106214:-0.00334544 0.644783 0.847071
106996:-1.0855 2.48804e-06 0.003
106997:-1.09841 2.49714e-06 0.003
106998:-1.09854 2.49828e-06 0.003
107020:0.000600565 0.360443 0.847071
107021:0.00053831 0.351824 0.847071
107022:0.000538141 0.351915 0.847071
107528:-0.0711837 0.00137811 0.0389047
107529:-0.0728359 0.00135993 0.0389047
107530:-0.0728295 0.00136012 0.0389047
107584:-6.57944 1.61308e-07 0.000420908
107585:-6.73148 1.5918e-07 0.000420908
107586:-6.73214 1.59202e-07 0.000420908
107640:-0.221366 1.22934e-05 0.00440325
107641:-0.22764 1.20409e-05 0.00440325
107642:-0.227489 1.20409e-05 0.00440325
108280:-24.6064 1.15383e-08 0.000112572
108281:-25.17 1.13861e-08 0.000112572
108282:-25.169 1.13877e-08 0.000112572
109088:-0.00277007 0.910502 1
109089:-0.0028334 0.898491 1
109090:-0.00283368 0.898617 1
109540:0.000507577 0.502339 1
109541:0.000456228 0.490328 1
109542:0.000456084 0.490454 1
110312:-0.817874 4.38398e-06 0.00398224
110313:-0.827223 4.40002e-06 0.00398224
110314:-0.82765 4.40202e-06 0.00398224
111940:-0.00278259 0.902335 0.995505
111941:-0.00284658 0.890432 0.995505
111942:-0.00284686 0.890557 0.995505
112500:-33.6973 6.14842e-09 8.21753e-05
112501:-34.4797 6.06731e-09 8.21753e-05
112502:-34.4762 6.06816e-09 8.21753e-05
112612:-0.906786 3.67347e-06 0.003
112613:-0.906786 3.67347e-06 0.003
112614:-0.906786 3.67347e-06 0.003
112780:-78.6333 1.12982e-09 3.5226e-05
112781:-80.4458 1.11491e-09 3.5226e-05
112782:-80.433 1.11507e-09 3.5226e-05
112916:-0.0699261 0.000617786 0.0389047
112917:-0.0699261 0.000617786 0.0389047
112918:-0.0699261 0.000617786 0.0389047
113292:-0.813627 1.05484e-05 0.00340371
113293:-0.832195 1.04093e-05 0.00340371
113294:-0.832277 1.04107e-05 0.00340371
114332:-39.7814 4.41166e-09 6.96082e-05
114333:-40.7052 4.35347e-09 6.96082e-05
114334:-40.7092 4.35408e-09 6.96082e-05
115492:-7.65177 1.19222e-07 0.000361858
115493:-7.82909 1.17649e-07 0.000361858
115494:-7.82986 1.17666e-07 0.000361858
115548:-0.817874 4.38398e-06 0.00398224
115549:-0.827223 4.40002e-06 0.00398224
115550:-0.82765 4.40202e-06 0.00398224
116824:0.127508 7.9662e-06 0.00398224
116825:0.114449 7.77572e-06 0.00398224
116826:0.114413 7.77773e-06 0.00398224
117440:0.734038 3.58222e-06 0.00398224
117441:0.736873 3.3757e-06 0.00398224
117442:0.737159 3.3757e-06 0.00398224
117704:-32.6684 6.54832e-09 8.48056e-05
117705:-33.4135 6.46193e-09 8.48056e-05
117706:-33.4168 6.46284e-09 8.48056e-05
120272:-6.44961 7.26016e-08 0.000421751
120273:-6.44961 7.26016e-08 0.000421751
120274:-6.44961 7.26016e-08 0.000421751
120472:-0.0250692 0.000959688 0.0389047
120473:-0.0257649 0.000939977 0.0389047
120474:-0.0257478 0.000939977 0.0389047
120516:-2968.98 7.92481e-13 9.3294e-07
120517:-3038.25 7.82026e-13 9.3294e-07
120518:-3038.1 7.82136e-13 9.3294e-07
122572:-0.00327048 0.273969 0.995505
122573:-0.0033093 0.274971 0.995505
122574:-0.00331101 0.275096 0.995505
122616:-0.00325627 0.276448 1
122617:-0.0032949 0.27746 1
122618:-0.0032966 0.277586 1
122944:-8.30673 1.01209e-07 0.000333402
122945:-8.49763 9.98737e-08 0.000333402
122946:-8.49674 9.98878e-08 0.000333402
123168:-0.000975571 0.634054 1
123169:-0.00100248 0.621031 1
123170:-0.00100182 0.621031 1
123300:-0.00325627 0.276448 1
123301:-0.0032949 0.27746 1
123302:-0.0032966 0.277586 1
123384:6.93254 4.01801e-08 0.000421751
123385:6.95917 3.78636e-08 0.000421751
123386:6.96187 3.78636e-08 0.000421751
123744:1.20539 8.93531e-08 0.000421751
123745:1.08248 8.72165e-08 0.000421751
123746:1.08214 8.7239e-08 0.000421751
123872:-0.00358228 0.544052 0.773
123873:-0.00366492 0.536874 0.773
123874:-0.00366528 0.53695 0.773
124324:-115.429 5.24449e-10 2.4e-05
124325:-118.069 5.17531e-10 2.4e-05
124326:-118.081 5.17603e-10 2.4e-05
124836:-1.19419 4.89646e-06 0.002319
124837:-1.22184 4.83187e-06 0.002319
124838:-1.22196 4.83255e-06 0.002319
125028:-7.72181 4.9173e-08 0.000421751
125029:-7.8136 4.93529e-08 0.000421751
125030:-7.81416 4.93754e-08 0.000421751
125032:-37.2215 5.04119e-09 7.44091e-05
125033:-38.0799 4.97468e-09 7.44091e-05
125034:-38.0837 4.97538e-09 7.44091e-05
125352:-7.03709 1.41052e-07 0.000393595
125353:-7.19754 1.39191e-07 0.000393595
125354:-7.19825 1.39211e-07 0.000393595
125448:-0.00423056 0.390372 0.654786
125449:-0.00432754 0.385223 0.654786
125450:-0.00432712 0.385277 0.654786
125544:-0.385249 4.70665e-05 0.00718978
125545:-0.39416 4.64456e-05 0.00718978
125546:-0.394199 4.64521e-05 0.00718978
128156:-0.104887 5.48527e-05 0.00930113
128157:-0.107796 5.37261e-05 0.00930113
128158:-0.107725 5.37261e-05 0.00930113
128728:0.257547 2.91154e-05 0.0113531
128729:0.258473 2.74369e-05 0.0113531
128730:0.258573 2.74369e-05 0.0113531
129748:0.00301389 0.212568 0.970063
129749:0.00302584 0.200313 0.970063
129750:0.00302701 0.200313 0.970063
129844:0.00292365 0.225891 1
129845:0.0029346 0.212868 1
129846:0.00293574 0.212868 1
130516:-0.121829 4.05794e-05 0.008
130517:-0.125224 3.9746e-05 0.008
130518:-0.125141 3.9746e-05 0.008
130792:-0.683131 6.47274e-06 0.00398224
130793:-0.683131 6.47274e-06 0.00398224
130794:-0.683131 6.47274e-06 0.00398224
131028:-0.00126151 0.378866 0.773
131029:-0.00129628 0.371084 0.773
131030:-0.00129542 0.371084 0.773
131896:-6.76903 1.52403e-07 0.000409125
131897:-6.92567 1.50392e-07 0.000409125
131898:-6.92462 1.50414e-07 0.000409125
132196:-0.0962129 0.000326167 0.0282685
132197:-0.0962129 0.000326167 0.0282685
132198:-0.0962129 0.000326167 0.0282685
132288:-0.00325627 0.276448 1
132289:-0.0032949 0.27746 1
132290:-0.0032966 0.277586 1
132872:-2.31148 1.12782e-07 0.000421751
132873:-2.37565 1.10465e-07 0.000421751
132874:-2.37407 1.10465e-07 0.000421751
132912:-0.630485 1.75828e-05 0.00439444
132913:-0.644855 1.73509e-05 0.00439444
132914:-0.644919 1.73533e-05 0.00439444
135412:0.0546336 4.34579e-05 0.00930113
135413:0.0490825 4.24188e-05 0.00930113
135414:0.0490671 4.24297e-05 0.00930113
135788:0.314346 1.9542e-05 0.00930113
135789:0.315549 1.84154e-05 0.00930113
135790:0.315671 1.84154e-05 0.00930113
137724:-8.49441 9.67726e-08 0.000326014
137725:-8.68952 9.5496e-08 0.000326014
137726:-8.69038 9.55094e-08 0.000326014
138120:-17.878 2.18544e-08 0.000154928
138121:-18.2877 2.15661e-08 0.000154928
138122:-18.2895 2.15692e-08 0.000154928
138224:-0.350135 2.39159e-05 0.00930113
138225:-0.354276 2.40034e-05 0.00930113
138226:-0.354351 2.40143e-05 0.00930113
138236:-821.079 1.03651e-11 3.37401e-06
138237:-839.893 1.02284e-11 3.37401e-06
138238:-839.976 1.02298e-11 3.37401e-06
140464:-0.00325627 0.276448 1
140465:-0.0032949 0.27746 1
140466:-0.0032966 0.277586 1
140868:-0.292522 3.53107e-05 0.00930113
140869:-0.292522 3.53107e-05 0.00930113
140870:-0.292522 3.53107e-05 0.00930113
140960:-0.73965 5.35995e-06 0.00440325
140961:-0.748145 5.37957e-06 0.00440325
140962:-0.748532 5.38201e-06 0.00440325
141296:-0.00335701 0.260144 0.970063
141297:-0.00339659 0.261096 0.970063
141298:-0.00339835 0.261215 0.970063
141312:-0.716841 1.35874e-05 0.00386302
141313:-0.733278 1.34081e-05 0.00386302
141314:-0.73335 1.341e-05 0.00386302
142332:-0.286839 3.56319e-05 0.0113531
142333:-0.290276 3.57623e-05 0.0113531
142334:-0.290318 3.57786e-05 0.0113531
142384:-0.244897 1.0055e-05 0.00398224
142385:-0.251652 9.84845e-06 0.00398224
142386:-0.251485 9.84845e-06 0.00398224
142820:-0.00272534 0.406532 0.998
142821:-0.00272534 0.406532 0.998
142822:-0.00272534 0.406532 0.998
143024:-22.2516 1.4107e-08 0.000124473
143025:-22.7621 1.39209e-08 0.000124473
143026:-22.7644 1.39228e-08 0.000124473
143536:-168.757 2.45131e-10 1.64081e-05
143537:-172.676 2.41897e-10 1.64081e-05
143538:-172.651 2.41931e-10 1.64081e-05
143556:-86.9488 9.24093e-10 3.18579e-05
143557:-88.9469 9.11902e-10 3.18579e-05
143558:-88.9557 9.1203e-10 3.18579e-05
144068:-0.899694 8.62769e-06 0.00307827
144069:-0.920365 8.51387e-06 0.00307827
144070:-0.920456 8.51507e-06 0.00307827
144336:-0.00277007 0.910502 1
144337:-0.0028334 0.898491 1
144338:-0.00283368 0.898617 1
144796:-0.00326979 0.653311 0.847071
144797:-0.00334511 0.644693 0.847071
144798:-0.00334544 0.644783 0.847071
147472:0.115508 9.73966e-06 0.00440325
147473:0.103574 9.50678e-06 0.00440325
147474:0.103758 9.50922e-06 0.00440325
147604:-55.4138 2.27538e-09 4.99903e-05
147605:-56.6791 2.24536e-09 4.99903e-05
147606:-56.6847 2.24568e-09 4.99903e-05
148072:-0.000976846 0.63152 0.998
148073:-0.00100351 0.618549 0.998
148074:-0.00100285 0.618549 0.998
148104:0.664039 4.37971e-06 0.00440325
148105:0.666554 4.12721e-06 0.00440325
148106:0.666812 4.12721e-06 0.00440325
148436:-0.00277007 0.910502 1
148437:-0.0028334 0.898491 1
148438:-0.00283368 0.898617 1
149624:-1648.81 2.56831e-12 1.67951e-06
149625:-1687.02 2.53443e-12 1.67951e-06
149626:-1687.18 2.53479e-12 1.67951e-06
150076:-0.00326979 0.653311 0.847071
150077:-0.00334511 0.644693 0.847071
150078:-0.00334544 0.644783 0.847071
150292:-0.73965 5.35995e-06 0.00440325
150293:-0.748145 5.37957e-06 0.00440325
150294:-0.748532 5.38201e-06 0.00440325
150680:-0.648336 1.66122e-05 0.00427143
150681:-0.663045 1.63931e-05 0.00427143
150682:-0.66311 1.63954e-05 0.00427143
151240:-0.00277007 0.910502 1
151241:-0.0028334 0.898491 1
151242:-0.00283368 0.898617 1
151916:-0.00327703 0.650701 0.845376
151917:-0.00335151 0.642117 0.845376
151918:-0.00335184 0.642207 0.845376
151992:-0.239623 5.26089e-05 0.0113531
151993:-0.239623 5.26089e-05 0.0113531
151994:-0.239623 5.26089e-05 0.0113531
153556:-0.298315 7.84538e-05 0.00928253
153557:-0.305191 7.74188e-05 0.00928253
153558:-0.30514 7.74297e-05 0.00928253
153732:-0.00277469 0.906864 0.998
153733:-0.00283825 0.894901 0.998
153734:-0.00283811 0.895026 0.998
154024:-0.00325627 0.276448 1
154025:-0.0032949 0.27746 1
154026:-0.0032966 0.277586 1
154136:-0.924855 8.16178e-06 0.002994
154137:-0.946182 8.05411e-06 0.002994
154138:-0.946275 8.05524e-06 0.002994
154524:-0.346121 5.82722e-05 0.008
154525:-0.354104 5.75034e-05 0.008
154526:-0.354139 5.75115e-05 0.008
154644:0.00292365 0.225891 1
154645:0.0029346 0.212868 1
154646:0.00293574 0.212868 1
154656:0.00293722 0.223864 0.995505
154657:0.00294783 0.210958 0.995505
154658:0.00294897 0.210958 0.995505
154740:-0.00272067 0.408163 1
154741:-0.00272067 0.408163 1
154742:-0.00272067 0.408163 1
155060:-0.00280426 0.384091 0.970063
155061:-0.00280426 0.384091 0.970063
155062:-0.00280426 0.384091 0.970063
156480:-174.63 2.28976e-10 1.58582e-05
156481:-178.652 2.25955e-10 1.58582e-05
156482:-178.67 2.25987e-10 1.58582e-05
157600:-0.951822 7.71122e-06 0.00291019
157601:-0.973564 7.6095e-06 0.00291019
157602:-0.973661 7.61056e-06 0.00291019
158636:-81.3066 1.05621e-09 3.40592e-05
158637:-83.1898 1.04227e-09 3.40592e-05
158638:-83.1772 1.04242e-09 3.40592e-05
158696:-0.034475 0.000506679 0.0282685
158697:-0.0354239 0.000496272 0.0282685
158698:-0.0354003 0.000496272 0.0282685
159560:-0.00279496 0.894241 0.99103
159561:-0.00285933 0.882444 0.99103
159562:-0.00285962 0.882568 0.99103
159612:-0.00278259 0.902335 0.995505
159613:-0.00284658 0.890432 0.995505
159614:-0.00284686 0.890557 0.995505
161348:-0.350135 2.39159e-05 0.00930113
161349:-0.354276 2.40034e-05 0.00930113
161350:-0.354351 2.40143e-05 0.00930113
161440:-0.61774 7.91372e-06 0.00440325
161441:-0.61774 7.91372e-06 0.00440325
161442:-0.61774 7.91372e-06 0.00440325
163376:-0.0711837 0.00137811 0.0389047
163377:-0.0728359 0.00135993 0.0389047
163378:-0.0728295 0.00136012 0.0389047
163412:-10.5316 6.29447e-08 0.000262929
163413:-10.7727 6.21144e-08 0.000262929
163414:-10.7737 6.21231e-08 0.000262929
163960:0.000507577 0.502339 1
163961:0.000456228 0.490328 1
163962:0.000456084 0.490454 1
164112:-0.00277007 0.910502 1
164113:-0.0028334 0.898491 1
164114:-0.00283368 0.898617 1
164164:-0.00325627 0.276448 1
164165:-0.0032949 0.27746 1
164166:-0.0032966 0.277586 1
164576:0.00292365 0.225891 1
164577:0.0029346 0.212868 1
164578:0.00293574 0.212868 1
164928:0.00292365 0.225891 1
164929:0.0029346 0.212868 1
164930:0.00293574 0.212868 1
165048:-23.7324 1.2403e-08 0.000116714
165049:-24.2698 1.22394e-08 0.000116714
165050:-24.2722 1.22411e-08 0.000116714
165744:-0.0711837 0.00137811 0.0389047
165745:-0.0728359 0.00135993 0.0389047
165746:-0.0728295 0.00136012 0.0389047
166780:-0.00325627 0.276448 1
166781:-0.0032949 0.27746 1
166782:-0.0032966 0.277586 1
168060:-248.984 1.12716e-10 1.11263e-05
168061:-254.716 1.11229e-10 1.11263e-05
168062:-254.686 1.11245e-10 1.11263e-05
168208:-0.245042 0.000116304 0.011302
168209:-0.250673 0.000114769 0.011302
168210:-0.250698 0.000114785 0.011302
168228:-0.243977 0.000117356 0.0113531
168229:-0.249559 0.000115808 0.0113531
168230:-0.249529 0.000115824 0.0113531
169460:-0.927654 8.12102e-06 0.00298651
169461:-0.948675 8.01388e-06 0.00298651
169462:-0.948769 8.01501e-06 0.00298651
169648:-33.1049 2.75623e-09 8.21753e-05
169649:-33.1049 2.75623e-09 8.21753e-05
169650:-33.1049 2.75623e-09 8.21753e-05
169812:-0.00272067 0.408163 1
169813:-0.00272067 0.408163 1
169814:-0.00272067 0.408163 1
170092:-8.27312 4.28265e-08 0.000393595
170093:-8.37246 4.29832e-08 0.000393595
170094:-8.37331 4.30028e-08 0.000393595
171292:-0.0028675 0.849117 0.965702
171293:-0.00293364 0.837916 0.965702
171294:-0.00293393 0.838033 0.965702
171304:-0.00285456 0.856802 0.970063
171305:-0.00292055 0.8455 0.970063
171306:-0.00292084 0.845618 0.970063
172032:6.17179 3.39218e-09 8.21753e-05
172033:5.5536 3.31107e-09 8.21753e-05
172034:5.55185 3.31192e-09 8.21753e-05
172696:35.5729 1.52539e-09 8.21753e-05
172697:35.7111 1.43745e-09 8.21753e-05
172698:35.7249 1.43745e-09 8.21753e-05
173724:0.974607 2.03302e-06 0.003
173725:0.97821 1.91581e-06 0.003
173726:0.978589 1.91581e-06 0.003
174504:-0.00272067 0.408163 1
174505:-0.00272067 0.408163 1
174506:-0.00272067 0.408163 1
174852:-39.6261 1.86679e-09 8.21753e-05
174853:-40.085 1.87363e-09 8.21753e-05
174854:-40.1058 1.87448e-09 8.21753e-05
175164:-0.346121 5.82722e-05 0.008
175165:-0.354104 5.75034e-05 0.008
175166:-0.354139 5.75115e-05 0.008
175676:-0.00358228 0.544052 0.773
175677:-0.00366492 0.536874 0.773
175678:-0.00366528 0.53695 0.773
176328:-0.000975571 0.634054 1
176329:-0.00100248 0.621031 1
176330:-0.00100182 0.621031 1
177516:-0.00359095 0.541878 0.771454
177517:-0.00367249 0.534729 0.771454
177518:-0.00367286 0.534804 0.771454
177864:-0.00272067 0.408163 1
177865:-0.00272067 0.408163 1
177866:-0.00272067 0.408163 1
178068:-0.00325627 0.276448 1
178069:-0.0032949 0.27746 1
178070:-0.0032966 0.277586 1
178684:-7.05242 1.40488e-07 0.000392808
178685:-7.21528 1.38635e-07 0.000392808
178686:-7.21426 1.38655e-07 0.000392808
179344:0.000507577 0.502339 1
179345:0.000456228 0.490328 1
179346:0.000456084 0.490454 1
179720:0.00292365 0.225891 1
179721:0.0029346 0.212868 1
179722:0.00293574 0.212868 1
180728:0.00292908 0.224988 0.998
180729:0.00294055 0.212017 0.998
180730:0.00294169 0.212017 0.998
181936:-39.6261 1.86679e-09 8.21753e-05
181937:-40.085 1.87363e-09 8.21753e-05
181938:-40.1058 1.87448e-09 8.21753e-05
182104:-0.00277469 0.906864 0.998
182105:-0.00283825 0.894901 0.998
182106:-0.00283811 0.895026 0.998
182380:-6.91104 6.32313e-08 0.000393595
182381:-6.91104 6.32313e-08 0.000393595
182382:-6.91104 6.32313e-08 0.000393595
183968:-1192.65 4.91326e-12 2.32297e-06
183969:-1219.91 4.84844e-12 2.32297e-06
183970:-1220.04 4.84913e-12 2.32297e-06
184880:0.0179536 0.000401424 0.0282685
184881:0.0161549 0.000391826 0.0282685
184882:0.0161499 0.000391926 0.0282685
185520:-0.00272067 0.408163 1
185521:-0.00272067 0.408163 1
185522:-0.00272067 0.408163 1
186052:-0.821119 1.03604e-05 0.00337324
186053:-0.839808 1.02237e-05 0.00337324
186054:-0.839891 1.02251e-05 0.00337324
186856:-0.00272067 0.408163 1
186857:-0.00272067 0.408163 1
186858:-0.00272067 0.408163 1
186912:-0.00325627 0.276448 1
186913:-0.0032949 0.27746 1
186914:-0.0032966 0.277586 1
188204:-0.695514 1.44389e-05 0.00398224
188205:-0.711473 1.42485e-05 0.00398224
188206:-0.711544 1.42505e-05 0.00398224
190116:-0.306961 7.41229e-05 0.00902268
190117:-0.314043 7.31451e-05 0.00902268
190118:-0.314074 7.31554e-05 0.00902268
190152:-0.00325627 0.276448 1
190153:-0.0032949 0.27746 1
190154:-0.0032966 0.277586 1
190240:-33.7683 6.12385e-09 8.20109e-05
190241:-34.5453 6.04306e-09 8.20109e-05
190242:-34.5487 6.04391e-09 8.20109e-05
190584:0.103414 0.000180511 0.0282685
190585:0.103829 0.000170105 0.0282685
190586:0.103869 0.000170105 0.0282685
191052:-0.00272067 0.408163 1
191053:-0.00272067 0.408163 1
191054:-0.00272067 0.408163 1
191144:-26.2234 1.01526e-08 0.000105596
191145:-26.8299 1.00187e-08 0.000105596
191146:-26.8256 1.00201e-08 0.000105596
191352:-0.0979584 0.000727591 0.0282685
191353:-0.100196 0.000717993 0.0282685
191354:-0.100206 0.000718094 0.0282685
192216:-0.0979584 0.000727591 0.0282685
192217:-0.100196 0.000717993 0.0282685
192218:-0.100206 0.000718094 0.0282685
193556:-6.56532 1.61955e-07 0.000421751
193557:-6.71721 1.59818e-07 0.000421751
193558:-6.71701 1.59841e-07 0.000421751
194008:-8.27312 4.28265e-08 0.000393595
194009:-8.37246 4.29832e-08 0.000393595
194010:-8.37331 4.30028e-08 0.000393595
195504:0.000508406 0.500332 0.998
195505:0.000457093 0.488368 0.998
195506:0.000456949 0.488494 0.998
195652:7.42723 3.49942e-08 0.000393595
195653:7.45471 3.29768e-08 0.000393595
195654:7.45759 3.29768e-08 0.000393595
195676:-0.00325627 0.276448 1
195677:-0.0032949 0.27746 1
195678:-0.0032966 0.277586 1
196092:-7.75406 1.16207e-07 0.000357253
196093:-7.93096 1.14674e-07 0.000357253
196094:-7.93174 1.1469e-07 0.000357253
196316:1.28831 7.78207e-08 0.000393595
196317:1.15627 7.596e-08 0.000393595
196318:1.15851 7.59795e-08 0.000393595
196800:-0.00277469 0.906864 0.998
196801:-0.00283825 0.894901 0.998
196802:-0.00283811 0.895026 0.998
197064:-0.0733773 0.00129684 0.03774
197065:-0.0750781 0.00127973 0.03774
197066:-0.075072 0.00127991 0.03774
197712:0.00292365 0.225891 1
197713:0.0029346 0.212868 1
197714:0.00293574 0.212868 1
199184:-0.00272067 0.408163 1
199185:-0.00272067 0.408163 1
199186:-0.00272067 0.408163 1
200120:0.0034522 0.162083 0.847071
200121:0.00346414 0.152739 0.847071
200122:0.00346548 0.152739 0.847071
200132:-6.27194 1.77628e-07 0.000441687
200133:-6.41518 1.75284e-07 0.000441687
200134:-6.41581 1.75309e-07 0.000441687
200912:-3.46569 5.81425e-07 0.00079911
200913:-3.54553 5.73755e-07 0.00079911
200914:-3.54588 5.73836e-07 0.00079911
201680:0.00292365 0.225891 1
201681:0.0029346 0.212868 1
201682:0.00293574 0.212868 1
202096:-0.00277007 0.910502 1
202097:-0.0028334 0.898491 1
202098:-0.00283368 0.898617 1
202376:-7.72181 4.9173e-08 0.000421751
202377:-7.8136 4.93529e-08 0.000421751
202378:-7.81416 4.93754e-08 0.000421751
202444:-7.03709 1.41052e-07 0.000393595
202445:-6.91104 6.32313e-08 0.000393595
202446:-6.91104 6.32313e-08 0.000393595
203664:-0.00277007 0.910502 1
203665:-0.0028334 0.898491 1
203666:-0.00283368 0.898617 1
203684:-0.00278259 0.902335 0.995505
203685:-0.00284658 0.890432 0.995505
203686:-0.00284686 0.890557 0.995505
204464:-33.6973 6.14842e-09 8.21753e-05
204465:-34.4797 6.06731e-09 8.21753e-05
204466:-34.4762 6.06816e-09 8.21753e-05
204616:-0.00325627 0.276448 1
204617:-0.0032949 0.27746 1
204618:-0.0032966 0.277586 1
205100:-16687.4 2.50895e-14 1.65999e-07
205101:-17072.2 2.47585e-14 1.65999e-07
205102:-17073.9 2.4762e-14 1.65999e-07
205960:-0.315641 7.01238e-05 0.00877591
205961:-0.322876 6.91987e-05 0.00877591
205962:-0.322827 6.92084e-05 0.00877591
206184:-6.91104 6.32313e-08 0.000393595
206185:-6.91104 6.32313e-08 0.000393595
206186:-6.91104 6.32313e-08 0.000393595
206452:-0.0711837 0.00137811 0.0389047
206453:-0.0728359 0.00135993 0.0389047
206454:-0.0728295 0.00136012 0.0389047
206472:-30.4886 7.5108e-09 9.08244e-05
206473:-31.1949 7.41172e-09 9.08244e-05
206474:-31.198 7.41276e-09 9.08244e-05
206980:-0.00369402 0.511964 0.749859
206981:-0.00377875 0.505211 0.749859
206982:-0.00377913 0.505281 0.749859
207256:0.000507577 0.502339 1
207257:0.000456228 0.490328 1
207258:0.000456084 0.490454 1
207492:-0.35698 5.48354e-05 0.0077605
207493:-0.365103 5.4112e-05 0.0077605
207494:-0.365139 5.41196e-05 0.0077605
208796:-0.0840499 0.000988836 0.032955
208797:-0.0859692 0.000975791 0.032955
208798:-0.0859777 0.000975928 0.032955
209472:-0.00294267 0.80627 0.941022
209473:-0.00301095 0.795633 0.941022
209474:-0.00301125 0.795745 0.941022
210156:-0.00272067 0.408163 1
210157:-0.00272067 0.408163 1
210158:-0.00272067 0.408163 1
210184:-33.6973 6.14842e-09 8.21753e-05
210185:-34.4797 6.06731e-09 8.21753e-05
210186:-34.4762 6.06816e-09 8.21753e-05
210544:-0.00100488 0.596658 0.970063
210545:-0.00103285 0.584404 0.970063
210546:-0.00103217 0.584404 0.970063
210744:-0.00278259 0.902335 0.995505
210745:-0.00284658 0.890432 0.995505
210746:-0.00284686 0.890557 0.995505
211000:0.314346 1.9542e-05 0.00930113
211001:0.315549 1.84154e-05 0.00930113
211002:0.315671 1.84154e-05 0.00930113
211280:-0.0981875 0.000724684 0.028212
211281:-0.100433 0.000715124 0.028212
211282:-0.100443 0.000715224 0.028212
211580:-0.0859237 8.17243e-05 0.0113531
211581:-0.0882581 8.00458e-05 0.0113531
211582:-0.0881995 8.00458e-05 0.0113531
212400:-0.817874 4.38398e-06 0.00398224
212401:-0.827223 4.40002e-06 0.00398224
212402:-0.82765 4.40202e-06 0.00398224
212556:-0.251526 0.000110435 0.0110132
212557:-0.257227 0.000108978 0.0110132
212558:-0.257252 0.000108993 0.0110132
212680:-0.00277007 0.910502 1
212681:-0.0028334 0.898491 1
212682:-0.00283368 0.898617 1
212688:-0.00328509 0.647451 0.843263
212689:-0.00336012 0.63891 0.843263
212690:-0.00336046 0.639 0.843263
213100:-7.03709 1.41052e-07 0.000393595
213101:-7.19754 1.39191e-07 0.000393595
213102:-7.19825 1.39211e-07 0.000393595
214396:-0.00272534 0.406532 0.998
214397:-0.00272534 0.406532 0.998
214398:-0.00272534 0.406532 0.998
215028:-0.683131 6.47274e-06 0.00398224
215029:-0.683131 6.47274e-06 0.00398224
215030:-0.683131 6.47274e-06 0.00398224
215056:-33.6973 6.14842e-09 8.21753e-05
215057:-33.1049 2.75623e-09 8.21753e-05
215058:-33.1049 2.75623e-09 8.21753e-05
217600:-0.0962129 0.000326167 0.0282685
217601:-0.0962129 0.000326167 0.0282685
217602:-0.0962129 0.000326167 0.0282685
217964:-0.00326337 0.275344 0.998
217965:-0.0033021 0.276351 0.998
217966:-0.00330254 0.276477 0.998
218240:0.000507577 0.502339 1
218241:0.000456228 0.490328 1
218242:0.000456084 0.490454 1
218840:-168.918 2.81409e-10 1.75348e-05
218841:-172.807 2.77697e-10 1.75348e-05
218842:-172.824 2.77736e-10 1.75348e-05
220108:-0.00272067 0.408163 1
220109:-0.00272067 0.408163 1
220110:-0.00272067 0.408163 1
221064:-6.56532 1.61955e-07 0.000421751
221065:-6.71721 1.59818e-07 0.000421751
221066:-6.71701 1.59841e-07 0.000421751
221596:-0.00358228 0.544052 0.773
221597:-0.00366492 0.536874 0.773
221598:-0.00366528 0.53695 0.773
223336:-0.00277007 0.910502 1
223337:-0.0028334 0.898491 1
223338:-0.00283368 0.898617 1
223452:0.664039 4.37971e-06 0.00440325
223453:0.666554 4.12721e-06 0.00440325
223454:0.666812 4.12721e-06 0.00440325
224212:-7.03709 1.41052e-07 0.000393595
224213:-7.19754 1.39191e-07 0.000393595
224214:-7.19825 1.39211e-07 0.000393595
224460:-6.44961 7.26016e-08 0.000421751
224461:-6.44961 7.26016e-08 0.000421751
224462:-6.44961 7.26016e-08 0.000421751
224508:-0.0962129 0.000326167 0.0282685
224509:-0.0962129 0.000326167 0.0282685
224510:-0.0962129 0.000326167 0.0282685
224968:0.00292365 0.225891 1
224969:0.0029346 0.212868 1
224970:0.00293574 0.212868 1
226572:-61.2555 1.86106e-09 4.52106e-05
226573:-62.6682 1.83651e-09 4.52106e-05
226574:-62.6744 1.83677e-09 4.52106e-05
228076:-0.115196 0.000220913 0.0282685
228077:-0.116582 0.000221721 0.0282685
228078:-0.116588 0.000221822 0.0282685
228224:-0.00272534 0.406532 0.998
228225:-0.00272534 0.406532 0.998
228226:-0.00272534 0.406532 0.998
228276:-33.1049 2.75623e-09 8.21753e-05
228277:-33.1049 2.75623e-09 8.21753e-05
228278:-33.1049 2.75623e-09 8.21753e-05
228832:-264.718 1.33091e-10 1.19467e-05
228833:-270.739 1.31335e-10 1.19467e-05
228834:-270.765 1.31353e-10 1.19467e-05
230100:-0.00272067 0.408163 1
230101:-0.00272067 0.408163 1
230102:-0.00272067 0.408163 1
230908:-0.297799 7.87686e-05 0.00930113
230909:-0.304622 7.77294e-05 0.00930113
230910:-0.304652 7.77403e-05 0.00930113
231260:-0.698786 1.43094e-05 0.00396434
231261:-0.714738 1.41207e-05 0.00396434
231262:-0.714809 1.41226e-05 0.00396434
231272:-0.695514 1.44389e-05 0.00398224
231273:-0.711473 1.42485e-05 0.00398224
231274:-0.711544 1.42505e-05 0.00398224
231472:-0.923175 8.19452e-06 0.003
231473:-0.944435 8.08642e-06 0.003
231474:-0.944529 8.08755e-06 0.003
231592:-33.6973 6.14842e-09 8.21753e-05
231593:-34.4797 6.06731e-09 8.21753e-05
231594:-34.4762 6.06816e-09 8.21753e-05
231628:35.5729 1.52539e-09 8.21753e-05
231629:35.7111 1.43745e-09 8.21753e-05
231630:35.7249 1.43745e-09 8.21753e-05
231860:-0.346864 5.80393e-05 0.007984
231861:-0.354875 5.72736e-05 0.007984
231862:-0.354856 5.72817e-05 0.007984
232320:-0.00326337 0.275344 0.998
232321:-0.0033021 0.276351 0.998
232322:-0.00330254 0.276477 0.998
233536:-0.000975571 0.634054 1
233537:-0.00100248 0.621031 1
233538:-0.00100182 0.621031 1
234588:0.00292365 0.225891 1
234589:0.0029346 0.212868 1
234590:0.00293574 0.212868 1
236452:-0.61774 7.91372e-06 0.00440325
236453:-0.61774 7.91372e-06 0.00440325
236454:-0.61774 7.91372e-06 0.00440325
236768:-0.00277469 0.906864 0.998
236769:-0.00283825 0.894901 0.998
236770:-0.00283811 0.895026 0.998
237896:-0.00325627 0.276448 1
237897:-0.0032949 0.27746 1
237898:-0.0032966 0.277586 1
238080:-0.115196 0.000220913 0.0282685
238081:-0.116582 0.000221721 0.0282685
238082:-0.116588 0.000221822 0.0282685
239040:-619.609 1.81805e-11 4.4685e-06
239041:-633.944 1.79406e-11 4.4685e-06
239042:-634.007 1.79431e-11 4.4685e-06
239616:-0.628912 1.76534e-05 0.00440325
239617:-0.61774 7.91372e-06 0.00440325
239618:-0.61774 7.91372e-06 0.00440325
239796:0.00292365 0.225891 1
239797:0.0029346 0.212868 1
239798:0.00293574 0.212868 1
239824:-410123 4.15189e-17 6.75277e-09
239825:-419534 4.09712e-17 6.75277e-09
239826:-419576 4.09769e-17 6.75277e-09
240144:-0.00325627 0.276448 1
240145:-0.0032949 0.27746 1
240146:-0.0032966 0.277586 1
240720:-6.56532 1.61955e-07 0.000421751
240721:-6.71721 1.59818e-07 0.000421751
240722:-6.71701 1.59841e-07 0.000421751
240740:-6.59648 1.60502e-07 0.000419855
240741:-6.7467 1.58385e-07 0.000419855
240742:-6.74737 1.58407e-07 0.000419855
241220:-0.297799 7.87686e-05 0.00930113
241221:-0.304622 7.77294e-05 0.00930113
241222:-0.304652 7.77403e-05 0.00930113
242032:-0.00272067 0.408163 1
242033:-0.00272067 0.408163 1
242034:-0.00272067 0.408163 1
243040:-0.0979584 0.000727591 0.0282685
243041:-0.100196 0.000717993 0.0282685
243042:-0.100206 0.000718094 0.0282685
245896:-0.288038 8.42065e-05 0.00961684
245897:-0.294647 8.30956e-05 0.00961684
245898:-0.294677 8.31073e-05 0.00961684
246004:0.0751342 0.000341902 0.0389047
246005:0.0754284 0.000322191 0.0389047
246006:0.0754576 0.000322191 0.0389047
247148:-0.00285456 0.856802 0.970063
247149:-0.00292055 0.8455 0.970063
247150:-0.00292084 0.845618 0.970063
247716:-0.00325627 0.276448 1
247717:-0.0032949 0.27746 1
247718:-0.0032966 0.277586 1
248160:-0.243977 0.000117356 0.0113531
248161:-0.249559 0.000115808 0.0113531
248162:-0.249529 0.000115824 0.0113531
248220:-8.89887 8.81993e-08 0.000311238
248221:-9.10306 8.70358e-08 0.000311238
248222:-9.10397 8.7048e-08 0.000311238
248640:-0.292522 3.53107e-05 0.00930113
248641:-0.292522 3.53107e-05 0.00930113
248642:-0.292522 3.53107e-05 0.00930113
248732:-0.0921019 0.000823463 0.0300733
248733:-0.0941971 0.0008126 0.0300733
248734:-0.0942064 0.000812714 0.0300733
248964:-0.00337043 0.61478 0.821712
248965:-0.00344855 0.60667 0.821712
248966:-0.00344889 0.606755 0.821712
250044:-0.00326979 0.653311 0.847071
250045:-0.00334511 0.644693 0.847071
250046:-0.00334544 0.644783 0.847071
250516:-0.00277007 0.910502 1
250517:-0.0028334 0.898491 1
250518:-0.00283368 0.898617 1
251160:-0.628912 1.76534e-05 0.00440325
251161:-0.643367 1.74205e-05 0.00440325
251162:-0.643431 1.74229e-05 0.00440325
251408:7.42723 3.49942e-08 0.000393595
251409:7.45471 3.29768e-08 0.000393595
251410:7.45759 3.29768e-08 0.000393595
251624:-0.00326337 0.275344 0.998
251625:-0.0033021 0.276351 0.998
251626:-0.00330254 0.276477 0.998
251868:-706.168 1.40109e-11 3.92276e-06
251869:-722.356 1.3826e-11 3.92276e-06
251870:-722.205 1.3828e-11 3.92276e-06
252112:-0.347757 5.77495e-05 0.00796404
252113:-0.355737 5.69876e-05 0.00796404
252114:-0.355772 5.69956e-05 0.00796404
252624:-0.00359825 0.539171 0.769525
252625:-0.00368162 0.532059 0.769525
252626:-0.00368199 0.532133 0.769525
252684:-0.00272067 0.408163 1
252685:-0.00272067 0.408163 1
252686:-0.00272067 0.408163 1
252772:-0.243977 0.000117356 0.0113531
252773:-0.249559 0.000115808 0.0113531
252774:-0.249529 0.000115824 0.0113531
254232:-0.923175 8.19452e-06 0.003
254233:-0.944435 8.08642e-06 0.003
254234:-0.944529 8.08755e-06 0.003
254672:-1.82973 2.08588e-06 0.00151358
254673:-1.87145 2.05836e-06 0.00151358
254674:-1.87164 2.05865e-06 0.00151358
256440:0.00378263 0.134976 0.773
256441:0.00379733 0.127195 0.773
256442:0.00379881 0.127195 0.773
256952:0.365456 1.4457e-05 0.008
256953:0.366829 1.36235e-05 0.008
256954:0.366971 1.36235e-05 0.008
258972:-0.0715106 0.00136575 0.0387298
258973:-0.0731642 0.00134773 0.0387298
258974:-0.0731714 0.00134792 0.0387298
259596:-85609.3 9.52493e-16 3.23437e-08
259597:-87610.9 9.39928e-16 3.23437e-08
259598:-87619.6 9.4006e-16 3.23437e-08
259916:0.00292365 0.225891 1
259917:0.0029346 0.212868 1
259918:0.00293574 0.212868 1
260324:-0.297799 7.87686e-05 0.00930113
260325:-0.292522 3.53107e-05 0.00930113
260326:-0.292522 3.53107e-05 0.00930113
261348:-74.7569 1.24913e-09 3.70393e-05
261349:-76.4782 1.23265e-09 3.70393e-05
261350:-76.4858 1.23282e-09 3.70393e-05
261792:-0.628912 1.76534e-05 0.00440325
261793:-0.643367 1.74205e-05 0.00440325
261794:-0.643431 1.74229e-05 0.00440325
261992:-0.115196 0.000220913 0.0282685
261993:-0.116582 0.000221721 0.0282685
261994:-0.116588 0.000221822 0.0282685
262092:-0.00272067 0.408163 1
262093:-0.00272067 0.408163 1
262094:-0.00272067 0.408163 1
