Version 9.1.0
Id 
Min label:-1
Max label:0
bits:18
lda:0
0 ngram:
0 skip:
options: --automl 3 --cb_adf --cb_type mtr --csoaa_ldf multiline --csoaa_rank --keep_configs --oracle_type rand --priority_type least_exclusion --random_seed 13881481101454338915
Checksum: 2920076286
_automl_state = Experimenting
_automl_config_manager_count = 3
_automl_config_manager_champ = 0
_automl_config_manager_valid_config_size = 6
_automl_config_manager_ns_counter.size() = 10
_automl_config_manager_ns_counter.key0 = 69
_automl_config_manager_ns_counter[69] = 18
_automl_config_manager_ns_counter.key1 = 71
_automl_config_manager_ns_counter[71] = 36
_automl_config_manager_ns_counter.key2 = 77
_automl_config_manager_ns_counter[77] = 36
_automl_config_manager_ns_counter.key3 = 79
_automl_config_manager_ns_counter[79] = 36
_automl_config_manager_ns_counter.key4 = 82
_automl_config_manager_ns_counter[82] = 27
_automl_config_manager_ns_counter.key5 = 83
_automl_config_manager_ns_counter[83] = 30
_automl_config_manager_ns_counter.key6 = 84
_automl_config_manager_ns_counter[84] = 30
_automl_config_manager_ns_counter.key7 = 105
_automl_config_manager_ns_counter[105] = 36
_automl_config_manager_ns_counter.key8 = 106
_automl_config_manager_ns_counter[106] = 30
_automl_config_manager_ns_counter.key9 = 128
_automl_config_manager_ns_counter[128] = 36
_automl_config_manager_configs.size() = 6
_automl_config_manager_configs.key0 = 0
_automl_config_manager_configs[0]_exclusions.size() = 0
_automl_config_manager_configs[0]_lease = 10
_automl_config_manager_configs[0]_ips = 0
_automl_config_manager_configs[0]_lower_bound = 0
_automl_config_manager_configs[0]_state = Live
_automl_config_manager_configs.key1 = 1
_automl_config_manager_configs[1]_exclusions.size() = 1
_automl_config_manager_configs[1]_exclusions[0].size() = 2
_automl_config_manager_configs[1]_exclusions[0][0] = 69
_automl_config_manager_configs[1]_exclusions[0][1] = 69
_automl_config_manager_configs[1]_lease = 10
_automl_config_manager_configs[1]_ips = inf
_automl_config_manager_configs[1]_lower_bound = 0
_automl_config_manager_configs[1]_state = New
_automl_config_manager_configs.key2 = 2
_automl_config_manager_configs[2]_exclusions.size() = 1
_automl_config_manager_configs[2]_exclusions[0].size() = 2
_automl_config_manager_configs[2]_exclusions[0][0] = 69
_automl_config_manager_configs[2]_exclusions[0][1] = 77
_automl_config_manager_configs[2]_lease = 10
_automl_config_manager_configs[2]_ips = 0
_automl_config_manager_configs[2]_lower_bound = 0
_automl_config_manager_configs[2]_state = Live
_automl_config_manager_configs.key3 = 3
_automl_config_manager_configs[3]_exclusions.size() = 1
_automl_config_manager_configs[3]_exclusions[0].size() = 2
_automl_config_manager_configs[3]_exclusions[0][0] = 69
_automl_config_manager_configs[3]_exclusions[0][1] = 77
_automl_config_manager_configs[3]_lease = 10
_automl_config_manager_configs[3]_ips = 0
_automl_config_manager_configs[3]_lower_bound = 0
_automl_config_manager_configs[3]_state = Live
_automl_config_manager_configs.key4 = 4
_automl_config_manager_configs[4]_exclusions.size() = 1
_automl_config_manager_configs[4]_exclusions[0].size() = 2
_automl_config_manager_configs[4]_exclusions[0][0] = 82
_automl_config_manager_configs[4]_exclusions[0][1] = 106
_automl_config_manager_configs[4]_lease = 10
_automl_config_manager_configs[4]_ips = inf
_automl_config_manager_configs[4]_lower_bound = 0
_automl_config_manager_configs[4]_state = New
_automl_config_manager_configs.key5 = 5
_automl_config_manager_configs[5]_exclusions.size() = 1
_automl_config_manager_configs[5]_exclusions[0].size() = 2
_automl_config_manager_configs[5]_exclusions[0][0] = 105
_automl_config_manager_configs[5]_exclusions[0][1] = 128
_automl_config_manager_configs[5]_lease = 10
_automl_config_manager_configs[5]_ips = inf
_automl_config_manager_configs[5]_lower_bound = 0
_automl_config_manager_configs[5]_state = New
_automl_config_manager_scores.size() = 3
_automl_config_manager_scores[0]_chisq_alpha = 0.05000000074505806
_automl_config_manager_scores[0]_chisq_tau = 0.9990000128746033
_automl_config_manager_scores[0]_chisq_n = 2.9970010385980608
_automl_config_manager_scores[0]_chisq_sumw = 0
_automl_config_manager_scores[0]_chisq_sumwsq = 0
_automl_config_manager_scores[0]_chisq_sumwr = 0
_automl_config_manager_scores[0]_chisq_sumwsqr = 0
_automl_config_manager_scores[0]_chisq_sumwsqrsq = 0
_automl_config_manager_scores[0]_chisq_rmin = 0
_automl_config_manager_scores[0]_chisq_rmax = 1
_automl_config_manager_scores[0]_chisq_wmin = 0
_automl_config_manager_scores[0]_chisq_wmax = inf
_automl_config_manager_scores[0]_ips = 0
_automl_config_manager_scores[0]_count = 3
_automl_config_manager_scores[0]_lastw = 0
_automl_config_manager_scores[0]_lastr = 1
_automl_config_manager_scores[0]_index = 0
_automl_config_manager_scores[0]_eligible_to_inactivate = false
_automl_config_manager_scores[1]_chisq_alpha = 0.05000000074505806
_automl_config_manager_scores[1]_chisq_tau = 0.9990000128746033
_automl_config_manager_scores[1]_chisq_n = 1.9990000128746033
_automl_config_manager_scores[1]_chisq_sumw = 0
_automl_config_manager_scores[1]_chisq_sumwsq = 0
_automl_config_manager_scores[1]_chisq_sumwr = 0
_automl_config_manager_scores[1]_chisq_sumwsqr = 0
_automl_config_manager_scores[1]_chisq_sumwsqrsq = 0
_automl_config_manager_scores[1]_chisq_rmin = 0
_automl_config_manager_scores[1]_chisq_rmax = 1
_automl_config_manager_scores[1]_chisq_wmin = 0
_automl_config_manager_scores[1]_chisq_wmax = inf
_automl_config_manager_scores[1]_ips = 0
_automl_config_manager_scores[1]_count = 2
_automl_config_manager_scores[1]_lastw = 0
_automl_config_manager_scores[1]_lastr = 1
_automl_config_manager_scores[1]_index = 3
_automl_config_manager_scores[1]_eligible_to_inactivate = false
_automl_config_manager_scores[2]_chisq_alpha = 0.05000000074505806
_automl_config_manager_scores[2]_chisq_tau = 0.9990000128746033
_automl_config_manager_scores[2]_chisq_n = 1.9990000128746033
_automl_config_manager_scores[2]_chisq_sumw = 0
_automl_config_manager_scores[2]_chisq_sumwsq = 0
_automl_config_manager_scores[2]_chisq_sumwr = 0
_automl_config_manager_scores[2]_chisq_sumwsqr = 0
_automl_config_manager_scores[2]_chisq_sumwsqrsq = 0
_automl_config_manager_scores[2]_chisq_rmin = 0
_automl_config_manager_scores[2]_chisq_rmax = 1
_automl_config_manager_scores[2]_chisq_wmin = 0
_automl_config_manager_scores[2]_chisq_wmax = inf
_automl_config_manager_scores[2]_ips = 0
_automl_config_manager_scores[2]_count = 2
_automl_config_manager_scores[2]_lastw = 0
_automl_config_manager_scores[2]_lastr = 1
_automl_config_manager_scores[2]_index = 2
_automl_config_manager_scores[2]_eligible_to_inactivate = true
_automl_config_manager_index_queue.size() = 3
_automl_config_manager_index_queue[0].first = -6
_automl_config_manager_index_queue[0].second = 1
_automl_config_manager_index_queue[1].first = -9
_automl_config_manager_index_queue[1].second = 4
_automl_config_manager_index_queue[2].first = -12
_automl_config_manager_index_queue[2].second = 5
event_sum 7
action_sum 84
:1
initial_t 0
norm normalizer 245.427
t 3
sum_loss 0
sum_loss_since_last_dump 0
dump_interval 4
min_label -1
max_label 0
weighted_labeled_examples 3
weighted_labels 0
weighted_unlabeled_examples 0
example_number 3
total_features 31194
total_weight 0.714286
sd::oec.weighted_labeled_examples 2
current_pass 1
l1_state 0
l2_state 1
824:-0.00325947 0.27684 1
825:-0.0032972 0.277698 1
826:-0.00329664 0.277565 1
2064:-0.0712009 0.00137871 0.0389047
2065:-0.0728411 0.00136029 0.0389047
2066:-0.072833 0.00136009 0.0389047
2220:-0.00277032 0.910894 1
2221:-0.00283413 0.898729 1
2222:-0.00283382 0.898595 1
2344:0.169601 4.52458e-06 0.003
2345:0.152109 4.41509e-06 0.003
2346:0.151841 4.41389e-06 0.003
2768:-0.00384723 0.198641 0.847071
2769:-0.00389233 0.199256 0.847071
2770:-0.00389101 0.19916 0.847071
2868:-8.28037 4.28872e-08 0.000393595
2869:-8.37632 4.30201e-08 0.000393595
2870:-8.3734 4.29994e-08 0.000393595
2928:-6.56692 1.62024e-07 0.000421751
2929:-6.44961 7.26016e-08 0.000421751
2930:-6.44961 7.26016e-08 0.000421751
3860:-0.631973 1.75026e-05 0.00438346
3861:-0.646611 1.72688e-05 0.00438346
3862:-0.64654 1.72662e-05 0.00438346
3872:-0.628904 1.7661e-05 0.00440325
3873:-0.643533 1.74251e-05 0.00440325
3874:-0.643461 1.74225e-05 0.00440325
4052:-0.00272067 0.408163 1
4053:-0.00272067 0.408163 1
4054:-0.00272067 0.408163 1
4540:0.00292703 0.225891 1
4541:0.00293675 0.212868 1
4542:0.00293555 0.212868 1
5100:-0.683131 6.47274e-06 0.00398224
5101:-0.683131 6.47274e-06 0.00398224
5102:-0.683131 6.47274e-06 0.00398224
5416:-0.00272067 0.408163 1
5417:-0.00272067 0.408163 1
5418:-0.00272067 0.408163 1
5560:-11235.5 5.53596e-14 2.46526e-07
5561:-11494.5 5.46202e-14 2.46526e-07
5562:-11493.3 5.46121e-14 2.46526e-07
7360:-0.0032116 0.292869 0.847071
7361:-0.0032116 0.292869 0.847071
7362:-0.0032116 0.292869 0.847071
7928:-0.628904 1.7661e-05 0.00440325
7929:-0.643533 1.74251e-05 0.00440325
7930:-0.643461 1.74225e-05 0.00440325
8048:-0.0837666 0.000419018 0.0389047
8049:-0.0847557 0.000420317 0.0389047
8050:-0.0847086 0.000420115 0.0389047
8264:-0.695575 1.44452e-05 0.00398224
8265:-0.683131 6.47274e-06 0.00398224
8266:-0.683131 6.47274e-06 0.00398224
8540:-0.00358315 0.544285 0.773
8541:-0.00366586 0.537017 0.773
8542:-0.00366545 0.536937 0.773
8764:-0.0032116 0.292869 0.847071
8765:-0.0032116 0.292869 0.847071
8766:-0.0032116 0.292869 0.847071
9052:-0.346151 5.82972e-05 0.008
9053:-0.354141 5.75187e-05 0.008
9054:-0.354156 5.75101e-05 0.008
9288:-32.0178 6.81728e-09 8.65111e-05
9289:-32.7561 6.72624e-09 8.65111e-05
9290:-32.7525 6.72524e-09 8.65111e-05
9664:-0.00273298 0.404502 0.995505
9665:-0.00273298 0.404502 0.995505
9666:-0.00273298 0.404502 0.995505
9716:-0.00272067 0.408163 1
9717:-0.00272067 0.408163 1
9718:-0.00272067 0.408163 1
11220:-0.00272067 0.408163 1
11221:-0.00272067 0.408163 1
11222:-0.00272067 0.408163 1
12204:-33.1049 2.75623e-09 8.21753e-05
12205:-33.1049 2.75623e-09 8.21753e-05
12206:-33.1049 2.75623e-09 8.21753e-05
13152:0.975732 2.03302e-06 0.003
13153:0.978925 1.91581e-06 0.003
13154:0.978524 1.91581e-06 0.003
13320:-0.44802 3.48343e-05 0.006184
13321:-0.458216 3.43691e-05 0.006184
13322:-0.458166 3.4364e-05 0.006184
13372:-0.407299 1.77178e-05 0.008
13373:-0.412159 1.77727e-05 0.008
13374:-0.41193 1.77641e-05 0.008
13760:-0.923185 8.19804e-06 0.003
13761:-0.944678 8.08856e-06 0.003
13762:-0.944574 8.08736e-06 0.003
13832:-43.2768 3.73102e-09 6.4e-05
13833:-44.279 3.68119e-09 6.4e-05
13834:-44.274 3.68065e-09 6.4e-05
13884:-0.00421563 0.16542 0.773
13885:-0.00426476 0.165933 0.773
13886:-0.00426409 0.165853 0.773
14548:-6.44961 7.26016e-08 0.000421751
14549:-6.44961 7.26016e-08 0.000421751
14550:-6.44961 7.26016e-08 0.000421751
15504:-15568.5 2.88199e-14 1.77874e-07
15505:-15926.5 2.8435e-14 1.77874e-07
15506:-15924.8 2.84308e-14 1.77874e-07
15692:-7.03623 1.41113e-07 0.000393595
15693:-7.1994 1.39228e-07 0.000393595
15694:-7.1986 1.39207e-07 0.000393595
16000:-7653.56 1.19261e-13 3.61838e-07
16001:-7831.59 1.17668e-13 3.61838e-07
16002:-7830.73 1.1765e-13 3.61838e-07
16296:-0.000973555 0.634054 1
16297:-0.00100123 0.621031 1
16298:-0.00100193 0.621031 1
16920:-0.0837666 0.000419018 0.0389047
16921:-0.0847557 0.000420317 0.0389047
16922:-0.0847086 0.000420115 0.0389047
17384:-17879.4 2.18607e-14 1.54917e-07
17385:-18290.7 2.15688e-14 1.54917e-07
17386:-18292.3 2.15656e-14 1.54917e-07
18808:-0.00325947 0.27684 1
18809:-0.0032972 0.277698 1
18810:-0.00329664 0.277565 1
19020:-0.000977709 0.628366 0.995505
19021:-0.00100592 0.61546 0.995505
19022:-0.00100663 0.61546 0.995505
19064:-0.000973555 0.634054 1
19065:-0.00100123 0.621031 1
19066:-0.00100193 0.621031 1
19300:-2345.72 1.27001e-12 1.18078e-06
19301:-2400.01 1.25305e-12 1.18078e-06
19302:-2399.74 1.25287e-12 1.18078e-06
20204:-0.0984509 0.000721375 0.0281415
20205:-0.100704 0.000711741 0.0281415
20206:-0.100693 0.000711635 0.0281415
21000:-0.923185 8.19804e-06 0.003
21001:-0.944678 8.08856e-06 0.003
21002:-0.944574 8.08736e-06 0.003
21508:0.00293246 0.224988 0.998
21509:0.0029427 0.212017 0.998
21510:0.0029415 0.212017 0.998
21992:-39.6648 1.86944e-09 8.21753e-05
21993:-40.1285 1.87523e-09 8.21753e-05
21994:-40.1062 1.87433e-09 8.21753e-05
23888:-0.695575 1.44452e-05 0.00398224
23889:-0.711657 1.42522e-05 0.00398224
23890:-0.711578 1.42501e-05 0.00398224
24016:-6.56692 1.62024e-07 0.000421751
24017:-6.71807 1.59861e-07 0.000421751
24018:-6.7182 1.59837e-07 0.000421751
24516:-0.297791 7.88024e-05 0.00930113
24517:-0.304701 7.775e-05 0.00930113
24518:-0.304667 7.77385e-05 0.00930113
24560:-0.299098 7.80956e-05 0.00925933
24561:-0.306026 7.70526e-05 0.00925933
24562:-0.305992 7.70412e-05 0.00925933
24668:-1598.2 2.73598e-12 1.7331e-06
24669:-1635.11 2.69944e-12 1.7331e-06
24670:-1634.93 2.69904e-12 1.7331e-06
24812:-0.11564 0.000522292 0.0239454
24813:-0.118336 0.000515317 0.0239454
24814:-0.118323 0.00051524 0.0239454
26476:-0.0027879 0.899116 0.993514
26477:-0.00285249 0.887108 0.993514
26478:-0.00285218 0.886976 0.993514
26884:-0.0979554 0.000727904 0.0282685
26885:-0.100209 0.000718183 0.0282685
26886:-0.100211 0.000718076 0.0282685
26964:-0.407299 1.77178e-05 0.008
26965:-0.412159 1.77727e-05 0.008
26966:-0.41193 1.77641e-05 0.008
27476:-0.00421563 0.16542 0.773
27477:-0.00426476 0.165933 0.773
27478:-0.00426409 0.165853 0.773
29040:-6.91104 6.32313e-08 0.000393595
29041:-6.91104 6.32313e-08 0.000393595
29042:-6.91104 6.32313e-08 0.000393595
30096:-0.00325947 0.27684 1
30097:-0.0032972 0.277698 1
30098:-0.00329664 0.277565 1
30240:-0.0713435 0.0013732 0.0388269
30241:-0.0729872 0.00135486 0.0388269
30242:-0.0729791 0.00135466 0.0388269
30312:-6.56692 1.62024e-07 0.000421751
30313:-6.71807 1.59861e-07 0.000421751
30314:-6.7182 1.59837e-07 0.000421751
30440:-0.695575 1.44452e-05 0.00398224
30441:-0.711657 1.42522e-05 0.00398224
30442:-0.711578 1.42501e-05 0.00398224
31852:0.00292703 0.225891 1
31853:0.00293675 0.212868 1
31854:0.00293555 0.212868 1
32132:0.103534 0.000180511 0.0282685
32133:0.103905 0.000170105 0.0282685
32134:0.103862 0.000170105 0.0282685
34028:-0.126762 0.000434944 0.0218516
34029:-0.129705 0.000429135 0.0218516
34030:-0.129691 0.000429071 0.0218516
34492:-0.00325947 0.27684 1
34493:-0.0032972 0.277698 1
34494:-0.00329664 0.277565 1
34540:-12.249 4.65859e-08 0.000226148
34541:-12.5296 4.59637e-08 0.000226148
34542:-12.5282 4.59569e-08 0.000226148
36468:-67.6412 1.52787e-09 4.09552e-05
36469:-69.1932 1.50747e-09 4.09552e-05
36470:-69.1855 1.50724e-09 4.09552e-05
36628:-0.00272067 0.408163 1
36629:-0.00272067 0.408163 1
36630:-0.00272067 0.408163 1
36692:-0.00384723 0.198641 0.847071
36693:-0.00389233 0.199256 0.847071
36694:-0.00389101 0.19916 0.847071
38076:-3624.34 5.32135e-13 7.64323e-07
38077:-3707.51 5.25028e-13 7.64323e-07
38078:-3707.1 5.2495e-13 7.64323e-07
38200:-0.00286182 0.853746 0.968123
38201:-0.00292724 0.842344 0.968123
38202:-0.00292776 0.842219 0.968123
39220:-0.244439 0.000116938 0.0113303
39221:-0.250081 0.000115376 0.0113303
39222:-0.250053 0.000115359 0.0113303
40792:-0.292522 3.53107e-05 0.00930113
40793:-0.292522 3.53107e-05 0.00930113
40794:-0.292522 3.53107e-05 0.00930113
42316:-99.2704 7.09222e-10 2.79034e-05
42317:-101.573 6.9975e-10 2.79034e-05
42318:-101.561 6.99646e-10 2.79034e-05
43136:-307.791 7.37824e-11 9e-06
43137:-314.796 7.27971e-11 9e-06
43138:-314.761 7.27862e-11 9e-06
44448:-2.51833 1.10174e-06 0.00109978
44449:-2.57613 1.08702e-06 0.00109978
44450:-2.57584 1.08686e-06 0.00109978
45236:-8.62959 9.38209e-08 0.000320934
45237:-8.82825 9.25679e-08 0.000320934
45238:-8.82728 9.25542e-08 0.000320934
45296:-0.32432 5.70648e-06 0.003
45297:-0.333742 5.58928e-06 0.003
45298:-0.333977 5.58928e-06 0.003
45528:-7.06964 1.39847e-07 0.000391825
45529:-7.23324 1.37979e-07 0.000391825
45530:-7.23244 1.37959e-07 0.000391825
45548:-7.03623 1.41113e-07 0.000393595
45549:-7.1994 1.39228e-07 0.000393595
45550:-7.1986 1.39207e-07 0.000393595
46248:-0.00335869 0.260512 0.970063
46249:-0.00339858 0.26132 0.970063
46250:-0.00339838 0.261194 0.970063
46276:-0.297791 7.88024e-05 0.00930113
46277:-0.304701 7.775e-05 0.00930113
46278:-0.304667 7.77385e-05 0.00930113
46584:-0.740222 5.36755e-06 0.00440325
46585:-0.748739 5.38419e-06 0.00440325
46586:-0.74854 5.38159e-06 0.00440325
47268:-0.287054 3.56824e-05 0.0113531
47269:-0.290374 3.5793e-05 0.0113531
47270:-0.290321 3.57758e-05 0.0113531
48036:-0.00358315 0.544285 0.773
48037:-0.00366586 0.537017 0.773
48038:-0.00366545 0.536937 0.773
48304:-0.00277032 0.910894 1
48305:-0.00283413 0.898729 1
48306:-0.00283382 0.898595 1
48312:-0.10101 0.000684974 0.0274222
48313:-0.103328 0.000675826 0.0274222
48314:-0.103317 0.000675725 0.0274222
48648:-0.00386134 0.468971 0.717528
48649:-0.00394941 0.462708 0.717528
48650:-0.00394982 0.462639 0.717528
49576:-0.00277032 0.910894 1
49577:-0.00283413 0.898729 1
49578:-0.00283382 0.898595 1
50236:-0.33999 2.61225e-05 0.008
50237:-0.33999 2.61225e-05 0.008
50238:-0.33999 2.61225e-05 0.008
50524:-0.00327016 0.653592 0.847071
50525:-0.00334597 0.644864 0.847071
50526:-0.0033456 0.644768 0.847071
50748:-0.00351922 0.243889 0.773
50749:-0.00351922 0.243889 0.773
50750:-0.00351922 0.243889 0.773
51100:-0.0837666 0.000419018 0.0389047
51101:-0.0847557 0.000420317 0.0389047
51102:-0.0847086 0.000420115 0.0389047
51676:0.00294061 0.223864 0.995505
51677:0.00294998 0.210958 0.995505
51678:0.00294877 0.210958 0.995505
51688:0.00292703 0.225891 1
51689:0.00293675 0.212868 1
51690:0.00293555 0.212868 1
51808:-756.468 1.22078e-11 3.66088e-06
51809:-774.095 1.20448e-11 3.66088e-06
51810:-774.12 1.2043e-11 3.66088e-06
52140:6.94055 4.01801e-08 0.000421751
52141:6.96426 3.78636e-08 0.000421751
52142:6.9614 3.78636e-08 0.000421751
52404:-0.00277032 0.910894 1
52405:-0.00283413 0.898729 1
52406:-0.00283382 0.898595 1
53064:-0.00277032 0.910894 1
53065:-0.00283413 0.898729 1
53066:-0.00283382 0.898595 1
53116:-0.00278243 0.902723 0.995505
53117:-0.00284689 0.890667 0.995505
53118:-0.002847 0.890535 0.995505
53180:-0.61774 7.91372e-06 0.00440325
53181:-0.61774 7.91372e-06 0.00440325
53182:-0.61774 7.91372e-06 0.00440325
53256:-0.408808 4.18299e-05 0.00677656
53257:-0.418223 4.12713e-05 0.00677656
53258:-0.418177 4.12651e-05 0.00677656
53376:0.00301737 0.212568 0.970063
53377:0.00302805 0.200313 0.970063
53378:0.00302681 0.200313 0.970063
53644:-0.0699261 0.000617786 0.0389047
53645:-0.0699261 0.000617786 0.0389047
53646:-0.0699261 0.000617786 0.0389047
53784:0.000523999 0.47308 0.970063
53785:0.00047063 0.461633 0.970063
53786:0.00047081 0.461507 0.970063
53820:-0.00384723 0.198641 0.847071
53821:-0.00389233 0.199256 0.847071
53822:-0.00389101 0.19916 0.847071
54544:-0.287054 3.56824e-05 0.0113531
54545:-0.290374 3.5793e-05 0.0113531
54546:-0.290321 3.57758e-05 0.0113531
55496:-0.00272067 0.408163 1
55497:-0.00272067 0.408163 1
55498:-0.00272067 0.408163 1
55580:-0.00335869 0.260512 0.970063
55581:-0.00339858 0.26132 0.970063
55582:-0.00339838 0.261194 0.970063
55776:-0.346151 5.82972e-05 0.008
55777:-0.354141 5.75187e-05 0.008
55778:-0.354156 5.75101e-05 0.008
56056:-0.00277494 0.907254 0.998
56057:-0.00283856 0.895138 0.998
56058:-0.00283867 0.895005 0.998
56276:-0.00325947 0.27684 1
56277:-0.0032972 0.277698 1
56278:-0.00329664 0.277565 1
56460:0.257845 2.91154e-05 0.0113531
56461:0.258661 2.74369e-05 0.0113531
56462:0.258555 2.74369e-05 0.0113531
56852:0.0448715 6.47979e-05 0.0113531
56853:0.0401209 6.32299e-05 0.0113531
56854:0.0401363 6.32127e-05 0.0113531
56976:-142.89 3.42422e-10 1.93886e-05
56977:-146.162 3.37849e-10 1.93886e-05
56978:-146.145 3.37799e-10 1.93886e-05
57212:-0.906786 3.67347e-06 0.003
57213:-0.906786 3.67347e-06 0.003
57214:-0.906786 3.67347e-06 0.003
57492:0.734886 3.58222e-06 0.00398224
57493:0.737412 3.3757e-06 0.00398224
57494:0.737109 3.3757e-06 0.00398224
58536:-0.00280426 0.384091 0.970063
58537:-0.00280426 0.384091 0.970063
58538:-0.00280426 0.384091 0.970063
58652:-0.350338 2.39497e-05 0.00930113
58653:-0.354443 2.4024e-05 0.00930113
58654:-0.354355 2.40124e-05 0.00930113
58728:-0.00272067 0.408163 1
58729:-0.00272067 0.408163 1
58730:-0.00272067 0.408163 1
58932:-0.00272067 0.408163 1
58933:-0.00272067 0.408163 1
58934:-0.00272067 0.408163 1
59556:-0.239623 5.26089e-05 0.0113531
59557:-0.239623 5.26089e-05 0.0113531
59558:-0.239623 5.26089e-05 0.0113531
59920:-0.00277032 0.910894 1
59921:-0.00283413 0.898729 1
59922:-0.00283382 0.898595 1
60336:-79924.8 1.09411e-15 3.46575e-08
60337:-81771.5 1.0795e-15 3.46575e-08
60338:-81762.4 1.07934e-15 3.46575e-08
60624:-0.407299 1.77178e-05 0.008
60625:-0.412159 1.77727e-05 0.008
60626:-0.41193 1.77641e-05 0.008
61136:-0.00421563 0.16542 0.773
61137:-0.00426476 0.165933 0.773
61138:-0.00426409 0.165853 0.773
61188:-33.8654 6.09589e-09 8.18059e-05
61189:-34.6433 6.01448e-09 8.18059e-05
61190:-34.6394 6.01358e-09 8.18059e-05
61232:-33.7055 6.15106e-09 8.21753e-05
61233:-34.4817 6.06892e-09 8.21753e-05
61234:-34.4848 6.06801e-09 8.21753e-05
61296:-0.0699261 0.000617786 0.0389047
61297:-0.0699261 0.000617786 0.0389047
61298:-0.0699261 0.000617786 0.0389047
62356:0.000511291 0.498221 0.995505
62357:0.000458312 0.486165 0.995505
62358:0.00045764 0.486033 0.995505
62368:0.00050859 0.502731 1
62369:0.00045611 0.490566 1
62370:0.00045586 0.490432 1
62888:-209.707 1.58949e-10 1.32098e-05
62889:-214.559 1.56826e-10 1.32098e-05
62890:-214.535 1.56803e-10 1.32098e-05
63680:-0.00351922 0.243889 0.773
63681:-0.00351922 0.243889 0.773
63682:-0.00351922 0.243889 0.773
64192:-0.33999 2.61225e-05 0.008
64193:-0.33999 2.61225e-05 0.008
64194:-0.33999 2.61225e-05 0.008
66020:-578.528 2.08836e-11 4.78816e-06
66021:-591.988 2.06047e-11 4.78816e-06
66022:-591.923 2.06016e-11 4.78816e-06
66468:-1.08985 5.88233e-06 0.00254121
66469:-1.11503 5.80377e-06 0.00254121
66470:-1.1149 5.80291e-06 0.00254121
66624:-9.10285 8.43189e-08 0.000304249
66625:-9.31305 8.31929e-08 0.000304249
66626:-9.31202 8.31805e-08 0.000304249
66976:-0.239623 5.26089e-05 0.0113531
66977:-0.239623 5.26089e-05 0.0113531
66978:-0.239623 5.26089e-05 0.0113531
67136:-879.386 9.03122e-12 3.14876e-06
67137:-899.757 8.91061e-12 3.14876e-06
67138:-899.991 8.90928e-12 3.14876e-06
67456:-0.297791 7.88024e-05 0.00930113
67457:-0.304701 7.775e-05 0.00930113
67458:-0.304667 7.77385e-05 0.00930113
67792:-0.00278126 0.903629 0.996004
67793:-0.00284501 0.891561 0.996004
67794:-0.00284469 0.891428 0.996004
68012:-0.00280426 0.384091 0.970063
68013:-0.00280426 0.384091 0.970063
68014:-0.00280426 0.384091 0.970063
68172:-0.923185 8.19804e-06 0.003
68173:-0.944678 8.08856e-06 0.003
68174:-0.944574 8.08736e-06 0.003
68376:-8464.8 9.75449e-14 3.27242e-07
68377:-8660.89 9.62422e-14 3.27242e-07
68378:-8659.93 9.62279e-14 3.27242e-07
69128:-0.00463625 0.325226 0.597529
69129:-0.00474334 0.320883 0.597529
69130:-0.00474282 0.320835 0.597529
69224:-0.351501 5.6543e-05 0.00787872
69225:-0.35969 5.57879e-05 0.00787872
69226:-0.35965 5.57796e-05 0.00787872
70204:-0.000973555 0.634054 1
70205:-0.00100123 0.621031 1
70206:-0.00100193 0.621031 1
70528:-0.00277494 0.907254 0.998
70529:-0.00283856 0.895138 0.998
70530:-0.00283867 0.895005 0.998
72372:-2.47251 9.82256e-08 0.000393595
72373:-2.54212 9.62081e-08 0.000393595
72374:-2.54391 9.62081e-08 0.000393595
72660:-0.00114895 0.454952 0.847071
72661:-0.0011822 0.445607 0.847071
72662:-0.00118303 0.445607 0.847071
73348:-7.25546 1.3279e-07 0.000381812
73349:-7.42237 1.31017e-07 0.000381812
73350:-7.42155 1.30997e-07 0.000381812
74864:-1.08627 2.49156e-06 0.003
74865:-1.09916 2.49928e-06 0.003
74866:-1.09855 2.49808e-06 0.003
76640:-0.695575 1.44452e-05 0.00398224
76641:-0.711657 1.42522e-05 0.00398224
76642:-0.711578 1.42501e-05 0.00398224
77068:-180.906 2.13585e-10 1.53127e-05
77069:-185.071 2.10732e-10 1.53127e-05
77070:-185.051 2.10701e-10 1.53127e-05
77352:-0.00325947 0.27684 1
77353:-0.0032972 0.277698 1
77354:-0.00329664 0.277565 1
78144:-0.0979554 0.000727904 0.0282685
78145:-0.100209 0.000718183 0.0282685
78146:-0.100211 0.000718076 0.0282685
78352:-0.00325947 0.27684 1
78353:-0.0032972 0.277698 1
78354:-0.00329664 0.277565 1
79364:-0.244009 0.000117407 0.0113531
79365:-0.239623 5.26089e-05 0.0113531
79366:-0.239623 5.26089e-05 0.0113531
80200:-0.00325947 0.27684 1
80201:-0.0032972 0.277698 1
80202:-0.00329664 0.277565 1
80384:-0.0979554 0.000727904 0.0282685
80385:-0.100209 0.000718183 0.0282685
80386:-0.100211 0.000718076 0.0282685
80392:-0.00285483 0.857171 0.970063
80393:-0.00280426 0.384091 0.970063
80394:-0.00280426 0.384091 0.970063
80872:0.00292703 0.225891 1
80873:0.00293675 0.212868 1
80874:0.00293555 0.212868 1
82008:-34.752 5.78828e-09 7.97152e-05
82009:-35.5571 5.71098e-09 7.97152e-05
82010:-35.5532 5.71013e-09 7.97152e-05
82956:0.0635517 3.21748e-05 0.008
82957:0.0570136 3.13962e-05 0.008
82958:0.0570354 3.13877e-05 0.008
83048:-11.8394 4.28162e-09 8.21753e-05
83049:-12.1796 4.19368e-09 8.21753e-05
83050:-12.1881 4.19368e-09 8.21753e-05
83468:0.000658562 0.300396 0.773
83469:0.000590719 0.293127 0.773
83470:0.000590944 0.293047 0.773
83728:-0.00285483 0.857171 0.970063
83729:-0.00292046 0.845724 0.970063
83730:-0.00292098 0.845598 0.970063
84764:-0.244009 0.000117407 0.0113531
84765:-0.249569 0.000115839 0.0113531
84766:-0.249541 0.000115822 0.0113531
85336:-0.00273298 0.404502 0.995505
85337:-0.00273298 0.404502 0.995505
85338:-0.00273298 0.404502 0.995505
85356:-0.00272067 0.408163 1
85357:-0.00272067 0.408163 1
85358:-0.00272067 0.408163 1
86248:-0.00277032 0.910894 1
86249:-0.00283413 0.898729 1
86250:-0.00283382 0.898595 1
86952:-0.0712009 0.00137871 0.0389047
86953:-0.0728411 0.00136029 0.0389047
86954:-0.072833 0.00136009 0.0389047
87200:0.00050859 0.502731 1
87201:0.00045611 0.490566 1
87202:0.00045586 0.490432 1
87304:0.075221 0.000341902 0.0389047
87305:0.0754835 0.000322191 0.0389047
87306:0.0754526 0.000322191 0.0389047
87492:-1767.5 2.2378e-12 1.56739e-06
87493:-1808.5 2.20791e-12 1.56739e-06
87494:-1808.3 2.20758e-12 1.56739e-06
87608:0.00292703 0.225891 1
87609:0.00293675 0.212868 1
87610:0.00293555 0.212868 1
87908:-0.628904 1.7661e-05 0.00440325
87909:-0.643533 1.74251e-05 0.00440325
87910:-0.643461 1.74225e-05 0.00440325
88220:-4214.94 3.93668e-13 6.57402e-07
88221:-4310.5 3.88411e-13 6.57402e-07
88222:-4310.91 3.88353e-13 6.57402e-07
88312:0.00292703 0.225891 1
88313:0.00293675 0.212868 1
88314:0.00293555 0.212868 1
88320:-0.00327016 0.653592 0.847071
88321:-0.00334597 0.644864 0.847071
88322:-0.0033456 0.644768 0.847071
88732:-43.6103 3.67544e-09 6.35215e-05
88733:-44.6206 3.62635e-09 6.35215e-05
88734:-44.6157 3.62581e-09 6.35215e-05
88872:-0.00277032 0.910894 1
88873:-0.00283413 0.898729 1
88874:-0.00283382 0.898595 1
88904:-0.00327412 0.274357 0.995505
88905:-0.00331162 0.275207 0.995505
88906:-0.00331105 0.275075 0.995505
88956:-0.00325947 0.27684 1
88957:-0.0032972 0.277698 1
88958:-0.00329664 0.277565 1
89740:-0.742547 1.26723e-05 0.00372986
89741:-0.759555 1.2503e-05 0.00372986
89742:-0.759688 1.25012e-05 0.00372986
90020:-0.00325947 0.27684 1
90021:-0.0032972 0.277698 1
90022:-0.00329664 0.277565 1
90144:-0.00285483 0.857171 0.970063
90145:-0.00292046 0.845724 0.970063
90146:-0.00292098 0.845598 0.970063
90276:-0.244009 0.000117407 0.0113531
90277:-0.249569 0.000115839 0.0113531
90278:-0.249541 0.000115822 0.0113531
90640:-0.00272067 0.408163 1
90641:-0.00272067 0.408163 1
90642:-0.00272067 0.408163 1
90800:0.00292703 0.225891 1
90801:0.00293675 0.212868 1
90802:0.00293555 0.212868 1
91152:-0.000973555 0.634054 1
91153:-0.00100123 0.621031 1
91154:-0.00100193 0.621031 1
91168:-0.00325947 0.27684 1
91169:-0.0032972 0.277698 1
91170:-0.00329664 0.277565 1
93352:-0.00285483 0.857171 0.970063
93353:-0.00292046 0.845724 0.970063
93354:-0.00292098 0.845598 0.970063
93816:-0.923185 8.19804e-06 0.003
93817:-0.944678 8.08856e-06 0.003
93818:-0.944574 8.08736e-06 0.003
94016:0.0130491 0.00076092 0.0389047
94017:0.0117267 0.000742508 0.0389047
94018:0.0117176 0.000742306 0.0389047
95120:-0.00272067 0.408163 1
95121:-0.00272067 0.408163 1
95122:-0.00272067 0.408163 1
95140:-0.00273298 0.404502 0.995505
95141:-0.00273298 0.404502 0.995505
95142:-0.00273298 0.404502 0.995505
95184:-866.27 9.31009e-12 3.197e-06
95185:-886.332 9.18576e-12 3.197e-06
95186:-886.233 9.18439e-12 3.197e-06
95320:-0.0032116 0.292869 0.847071
95321:-0.0032116 0.292869 0.847071
95322:-0.0032116 0.292869 0.847071
96484:-0.346151 5.82972e-05 0.008
96485:-0.354141 5.75187e-05 0.008
96486:-0.354156 5.75101e-05 0.008
96536:-1.08627 2.49156e-06 0.003
96537:-1.09916 2.49928e-06 0.003
96538:-1.09855 2.49808e-06 0.003
96996:-0.00358315 0.544285 0.773
96997:-0.00366586 0.537017 0.773
96998:-0.00366545 0.536937 0.773
97348:0.003787 0.134976 0.773
97349:0.00380011 0.127195 0.773
97350:0.00379855 0.127195 0.773
97712:-0.00272067 0.408163 1
97713:-0.00272067 0.408163 1
97714:-0.00272067 0.408163 1
97860:0.365878 1.4457e-05 0.008
97861:0.367097 1.36235e-05 0.008
97862:0.366946 1.36235e-05 0.008
98724:-0.346151 5.82972e-05 0.008
98725:-0.354141 5.75187e-05 0.008
98726:-0.354156 5.75101e-05 0.008
99216:-0.00325947 0.27684 1
99217:-0.0032972 0.277698 1
99218:-0.00329664 0.277565 1
99236:-0.00327412 0.274357 0.995505
99237:-0.00331162 0.275207 0.995505
99238:-0.00331105 0.275075 0.995505
99592:-21.4962 1.51328e-08 0.000128892
99593:-21.9848 1.49307e-08 0.000128892
99594:-21.9894 1.49285e-08 0.000128892
99792:-7.72823 4.92426e-08 0.000421751
99793:-7.81686 4.93953e-08 0.000421751
99794:-7.81425 4.93715e-08 0.000421751
99884:0.00292703 0.225891 1
99885:0.00293675 0.212868 1
99886:0.00293555 0.212868 1
100632:-0.906786 3.67347e-06 0.003
100633:-0.906786 3.67347e-06 0.003
100634:-0.906786 3.67347e-06 0.003
101824:-232.39 1.29475e-10 1.19223e-05
101825:-237.692 1.27746e-10 1.19223e-05
101826:-237.665 1.27727e-10 1.19223e-05
102060:-0.00272067 0.408163 1
102061:-0.00272067 0.408163 1
102062:-0.00272067 0.408163 1
102264:-0.697062 1.43874e-05 0.00397427
102265:-0.712982 1.41953e-05 0.00397427
102266:-0.71312 1.41932e-05 0.00397427
102488:-0.00351922 0.243889 0.773
102489:-0.00351922 0.243889 0.773
102490:-0.00351922 0.243889 0.773
102828:0.00292703 0.225891 1
102829:0.00293675 0.212868 1
102830:0.00293555 0.212868 1
103000:-0.33999 2.61225e-05 0.008
103001:-0.33999 2.61225e-05 0.008
103002:-0.33999 2.61225e-05 0.008
103360:-16.1684 2.67312e-08 0.000171307
103361:-16.5398 2.63742e-08 0.000171307
103362:-16.538 2.63703e-08 0.000171307
103620:-0.00278243 0.902723 0.995505
103621:-0.00284689 0.890667 0.995505
103622:-0.002847 0.890535 0.995505
103664:-0.00277032 0.910894 1
103665:-0.00283413 0.898729 1
103666:-0.00283382 0.898595 1
104204:-0.00277032 0.910894 1
104205:-0.00283413 0.898729 1
104206:-0.00283382 0.898595 1
104516:0.00345619 0.162083 0.847071
104517:0.00346667 0.152739 0.847071
104518:0.00346525 0.152739 0.847071
106212:-0.00327016 0.653592 0.847071
106213:-0.00334597 0.644864 0.847071
106214:-0.0033456 0.644768 0.847071
106996:-1.08627 2.49156e-06 0.003
106997:-1.09916 2.49928e-06 0.003
106998:-1.09855 2.49808e-06 0.003
107020:0.000601118 0.360723 0.847071
107021:0.00053767 0.351995 0.847071
107022:0.000537877 0.351899 0.847071
107528:-0.0712009 0.00137871 0.0389047
107529:-0.0728411 0.00136029 0.0389047
107530:-0.072833 0.00136009 0.0389047
107584:-6.57932 1.61377e-07 0.000420908
107585:-6.73321 1.59222e-07 0.000420908
107586:-6.73247 1.59198e-07 0.000420908
107640:-0.220908 1.22934e-05 0.00440325
107641:-0.227355 1.20409e-05 0.00440325
107642:-0.227515 1.20409e-05 0.00440325
108280:-24.6089 1.15433e-08 0.000112572
108281:-25.173 1.13891e-08 0.000112572
108282:-25.1702 1.13874e-08 0.000112572
109088:-0.00277032 0.910894 1
109089:-0.00283413 0.898729 1
109090:-0.00283382 0.898595 1
109540:0.00050859 0.502731 1
109541:0.00045611 0.490566 1
109542:0.00045586 0.490432 1
110312:-0.818349 4.39019e-06 0.00398224
110313:-0.827794 4.4038e-06 0.00398224
110314:-0.827659 4.40168e-06 0.00398224
111940:-0.00278243 0.902723 0.995505
111941:-0.00284689 0.890667 0.995505
111942:-0.002847 0.890535 0.995505
112500:-33.7055 6.15106e-09 8.21753e-05
112501:-34.4817 6.06892e-09 8.21753e-05
112502:-34.4848 6.06801e-09 8.21753e-05
112612:-0.906786 3.67347e-06 0.003
112613:-0.906786 3.67347e-06 0.003
112614:-0.906786 3.67347e-06 0.003
112780:-78.6524 1.1303e-09 3.5226e-05
112781:-80.4457 1.11521e-09 3.5226e-05
112782:-80.4368 1.11504e-09 3.5226e-05
112916:-0.0699261 0.000617786 0.0389047
112917:-0.0699261 0.000617786 0.0389047
112918:-0.0699261 0.000617786 0.0389047
113292:-0.81361 1.05529e-05 0.00340371
113293:-0.832409 1.0412e-05 0.00340371
113294:-0.832317 1.04105e-05 0.00340371
114332:-39.7807 4.41356e-09 6.96082e-05
114333:-40.7157 4.35462e-09 6.96082e-05
114334:-40.7111 4.35397e-09 6.96082e-05
115492:-7.65363 1.19273e-07 0.000361858
115493:-7.8311 1.17681e-07 0.000361858
115494:-7.83024 1.17663e-07 0.000361858
115548:-0.818349 4.39019e-06 0.00398224
115549:-0.827794 4.4038e-06 0.00398224
115550:-0.827659 4.40168e-06 0.00398224
116824:0.127769 7.97241e-06 0.00398224
116825:0.114639 7.7795e-06 0.00398224
116826:0.114357 7.77738e-06 0.00398224
117440:0.734886 3.58222e-06 0.00398224
117441:0.737412 3.3757e-06 0.00398224
117442:0.737109 3.3757e-06 0.00398224
117704:-32.6695 6.55114e-09 8.48056e-05
117705:-33.4221 6.46365e-09 8.48056e-05
117706:-33.4184 6.46269e-09 8.48056e-05
120272:-6.44961 7.26016e-08 0.000421751
120273:-6.44961 7.26016e-08 0.000421751
120274:-6.44961 7.26016e-08 0.000421751
120472:-0.0250174 0.000959688 0.0389047
120473:-0.0257327 0.000939977 0.0389047
120474:-0.0257508 0.000939977 0.0389047
120516:-2969.27 7.92821e-13 9.3294e-07
120517:-3038.59 7.82233e-13 9.3294e-07
120518:-3038.25 7.82117e-13 9.3294e-07
122572:-0.00327412 0.274357 0.995505
122573:-0.00331162 0.275207 0.995505
122574:-0.00331105 0.275075 0.995505
122616:-0.00325947 0.27684 1
122617:-0.0032972 0.277698 1
122618:-0.00329664 0.277565 1
122944:-8.30704 1.01252e-07 0.000333402
122945:-8.49809 9.99002e-08 0.000333402
122946:-8.49715 9.98853e-08 0.000333402
123168:-0.000973555 0.634054 1
123169:-0.00100123 0.621031 1
123170:-0.00100193 0.621031 1
123300:-0.00325947 0.27684 1
123301:-0.0032972 0.277698 1
123302:-0.00329664 0.277565 1
123384:6.94055 4.01801e-08 0.000421751
123385:6.96426 3.78636e-08 0.000421751
123386:6.9614 3.78636e-08 0.000421751
123744:1.20653 8.94227e-08 0.000421751
123745:1.08294 8.72589e-08 0.000421751
123746:1.08161 8.72351e-08 0.000421751
123872:-0.00358315 0.544285 0.773
123873:-0.00366586 0.537017 0.773
123874:-0.00366545 0.536937 0.773
124324:-115.457 5.24675e-10 2.4e-05
124325:-118.099 5.17668e-10 2.4e-05
124326:-118.086 5.17591e-10 2.4e-05
124836:-1.19447 4.89857e-06 0.002319
124837:-1.22215 4.83315e-06 0.002319
124838:-1.22202 4.83243e-06 0.002319
125028:-7.72823 4.92426e-08 0.000421751
125029:-7.81686 4.93953e-08 0.000421751
125030:-7.81425 4.93715e-08 0.000421751
125032:-37.2202 5.04336e-09 7.44091e-05
125033:-38.0897 4.976e-09 7.44091e-05
125034:-38.0855 4.97526e-09 7.44091e-05
125352:-7.03623 1.41113e-07 0.000393595
125353:-7.1994 1.39228e-07 0.000393595
125354:-7.1986 1.39207e-07 0.000393595
125448:-0.00423075 0.39054 0.654786
125449:-0.00432781 0.385325 0.654786
125450:-0.00432733 0.385267 0.654786
125544:-0.385343 4.70867e-05 0.00718978
125545:-0.394262 4.64579e-05 0.00718978
125546:-0.394218 4.6451e-05 0.00718978
128156:-0.104671 5.48527e-05 0.00930113
128157:-0.107661 5.37261e-05 0.00930113
128158:-0.107737 5.37261e-05 0.00930113
128728:0.257845 2.91154e-05 0.0113531
128729:0.258661 2.74369e-05 0.0113531
128730:0.258555 2.74369e-05 0.0113531
129748:0.00301737 0.212568 0.970063
129749:0.00302805 0.200313 0.970063
129750:0.00302681 0.200313 0.970063
129844:0.00292703 0.225891 1
129845:0.00293675 0.212868 1
129846:0.00293555 0.212868 1
130516:-0.121577 4.05794e-05 0.008
130517:-0.125067 3.9746e-05 0.008
130518:-0.125155 3.9746e-05 0.008
130792:-0.683131 6.47274e-06 0.00398224
130793:-0.683131 6.47274e-06 0.00398224
130794:-0.683131 6.47274e-06 0.00398224
131028:-0.00125891 0.378866 0.773
131029:-0.00129466 0.371084 0.773
131030:-0.00129557 0.371084 0.773
131896:-6.77067 1.52468e-07 0.000409125
131897:-6.92572 1.50432e-07 0.000409125
131898:-6.92495 1.5041e-07 0.000409125
132196:-0.0962129 0.000326167 0.0282685
132197:-0.0962129 0.000326167 0.0282685
132198:-0.0962129 0.000326167 0.0282685
132288:-0.00325947 0.27684 1
132289:-0.0032972 0.277698 1
132290:-0.00329664 0.277565 1
132872:-2.3067 1.12782e-07 0.000421751
132873:-2.37267 1.10465e-07 0.000421751
132874:-2.37434 1.10465e-07 0.000421751
132912:-0.630478 1.75904e-05 0.00439444
132913:-0.645021 1.73555e-05 0.00439444
132914:-0.644949 1.73529e-05 0.00439444
135412:0.0547148 4.34918e-05 0.00930113
135413:0.0491329 4.24394e-05 0.00930113
135414:0.0490431 4.24278e-05 0.00930113
135788:0.314709 1.9542e-05 0.00930113
135789:0.31578 1.84154e-05 0.00930113
135790:0.31565 1.84154e-05 0.00930113
137724:-8.49475 9.68142e-08 0.000326014
137725:-8.69002 9.55213e-08 0.000326014
137726:-8.69079 9.55071e-08 0.000326014
138120:-17.8789 2.18638e-08 0.000154928
138121:-18.2924 2.15718e-08 0.000154928
138122:-18.2903 2.15686e-08 0.000154928
138224:-0.350338 2.39497e-05 0.00930113
138225:-0.354443 2.4024e-05 0.00930113
138226:-0.354355 2.40124e-05 0.00930113
138236:-821.059 1.03696e-11 3.37401e-06
138237:-840.109 1.02311e-11 3.37401e-06
138238:-840.016 1.02296e-11 3.37401e-06
140464:-0.00325947 0.27684 1
140465:-0.0032972 0.277698 1
140466:-0.00329664 0.277565 1
140868:-0.292522 3.53107e-05 0.00930113
140869:-0.292522 3.53107e-05 0.00930113
140870:-0.292522 3.53107e-05 0.00930113
140960:-0.740222 5.36755e-06 0.00440325
140961:-0.748739 5.38419e-06 0.00440325
140962:-0.74854 5.38159e-06 0.00440325
141296:-0.00335869 0.260512 0.970063
141297:-0.00339858 0.26132 0.970063
141298:-0.00339838 0.261194 0.970063
141312:-0.716908 1.35932e-05 0.00386302
141313:-0.733249 1.34117e-05 0.00386302
141314:-0.733385 1.34097e-05 0.00386302
142332:-0.287054 3.56824e-05 0.0113531
142333:-0.290374 3.5793e-05 0.0113531
142334:-0.290321 3.57758e-05 0.0113531
142384:-0.24439 1.0055e-05 0.00398224
142385:-0.251337 9.84845e-06 0.00398224
142386:-0.251514 9.84845e-06 0.00398224
142820:-0.00272534 0.406532 0.998
142821:-0.00272534 0.406532 0.998
142822:-0.00272534 0.406532 0.998
143024:-22.2536 1.41131e-08 0.000124473
143025:-22.768 1.39246e-08 0.000124473
143026:-22.7655 1.39225e-08 0.000124473
143536:-168.798 2.45236e-10 1.64081e-05
143537:-172.678 2.41961e-10 1.64081e-05
143538:-172.701 2.41925e-10 1.64081e-05
143556:-86.9699 9.2449e-10 3.18579e-05
143557:-88.9698 9.12144e-10 3.18579e-05
143558:-88.9599 9.12008e-10 3.18579e-05
144068:-0.899698 8.6314e-06 0.00307827
144069:-0.920385 8.51613e-06 0.00307827
144070:-0.9205 8.51486e-06 0.00307827
144336:-0.00277032 0.910894 1
144337:-0.00283413 0.898729 1
144338:-0.00283382 0.898595 1
144796:-0.00327016 0.653592 0.847071
144797:-0.00334597 0.644864 0.847071
144798:-0.0033456 0.644768 0.847071
147472:0.115667 9.74725e-06 0.00440325
147473:0.103668 9.51139e-06 0.00440325
147474:0.103707 9.5088e-06 0.00440325
147604:-55.4136 2.27636e-09 4.99903e-05
147605:-56.6937 2.24595e-09 4.99903e-05
147606:-56.6874 2.24562e-09 4.99903e-05
148072:-0.000974826 0.63152 0.998
148073:-0.00100226 0.618549 0.998
148074:-0.00100296 0.618549 0.998
148104:0.664806 4.37971e-06 0.00440325
148105:0.667041 4.12721e-06 0.00440325
148106:0.666768 4.12721e-06 0.00440325
148436:-0.00277032 0.910894 1
148437:-0.00283413 0.898729 1
148438:-0.00283382 0.898595 1
149624:-1648.99 2.56942e-12 1.67951e-06
149625:-1687.01 2.5351e-12 1.67951e-06
149626:-1687.26 2.53473e-12 1.67951e-06
150076:-0.00327016 0.653592 0.847071
150077:-0.00334597 0.644864 0.847071
150078:-0.0033456 0.644768 0.847071
150292:-0.740222 5.36755e-06 0.00440325
150293:-0.748739 5.38419e-06 0.00440325
150294:-0.74854 5.38159e-06 0.00440325
150680:-0.648333 1.66194e-05 0.00427143
150681:-0.663215 1.63974e-05 0.00427143
150682:-0.663142 1.6395e-05 0.00427143
151240:-0.00277032 0.910894 1
151241:-0.00283413 0.898729 1
151242:-0.00283382 0.898595 1
151916:-0.00327698 0.65098 0.845376
151917:-0.00335237 0.642287 0.845376
151918:-0.003352 0.642191 0.845376
151992:-0.239623 5.26089e-05 0.0113531
151993:-0.239623 5.26089e-05 0.0113531
151994:-0.239623 5.26089e-05 0.0113531
153556:-0.298387 7.84875e-05 0.00928253
153557:-0.305188 7.74394e-05 0.00928253
153558:-0.305155 7.74278e-05 0.00928253
153732:-0.00277494 0.907254 0.998
153733:-0.00283856 0.895138 0.998
153734:-0.00283867 0.895005 0.998
154024:-0.00325947 0.27684 1
154025:-0.0032972 0.277698 1
154026:-0.00329664 0.277565 1
154136:-0.925079 8.16529e-06 0.002994
154137:-0.946425 8.05624e-06 0.002994
154138:-0.946321 8.05504e-06 0.002994
154524:-0.346151 5.82972e-05 0.008
154525:-0.354141 5.75187e-05 0.008
154526:-0.354156 5.75101e-05 0.008
154644:0.00292703 0.225891 1
154645:0.00293675 0.212868 1
154646:0.00293555 0.212868 1
154656:0.00294061 0.223864 0.995505
154657:0.00294998 0.210958 0.995505
154658:0.00294877 0.210958 0.995505
154740:-0.00272067 0.408163 1
154741:-0.00272067 0.408163 1
154742:-0.00272067 0.408163 1
155060:-0.00280426 0.384091 0.970063
155061:-0.00280426 0.384091 0.970063
155062:-0.00280426 0.384091 0.970063
156480:-174.672 2.29075e-10 1.58582e-05
156481:-178.67 2.26015e-10 1.58582e-05
156482:-178.678 2.25982e-10 1.58582e-05
157600:-0.951732 7.71454e-06 0.00291019
157601:-0.973706 7.61151e-06 0.00291019
157602:-0.973707 7.61038e-06 0.00291019
158636:-81.3264 1.05666e-09 3.40592e-05
158637:-83.1904 1.04255e-09 3.40592e-05
158638:-83.1812 1.04239e-09 3.40592e-05
158696:-0.0344037 0.000506679 0.0282685
158697:-0.0353794 0.000496272 0.0282685
158698:-0.0354044 0.000496272 0.0282685
159560:-0.00279522 0.894626 0.99103
159561:-0.00286007 0.882678 0.99103
159562:-0.00285975 0.882547 0.99103
159612:-0.00278243 0.902723 0.995505
159613:-0.00284689 0.890667 0.995505
159614:-0.002847 0.890535 0.995505
161348:-0.350338 2.39497e-05 0.00930113
161349:-0.354443 2.4024e-05 0.00930113
161350:-0.354355 2.40124e-05 0.00930113
161440:-0.61774 7.91372e-06 0.00440325
161441:-0.61774 7.91372e-06 0.00440325
161442:-0.61774 7.91372e-06 0.00440325
163376:-0.0712009 0.00137871 0.0389047
163377:-0.0728411 0.00136029 0.0389047
163378:-0.072833 0.00136009 0.0389047
163412:-10.5342 6.29718e-08 0.000262929
163413:-10.7754 6.21308e-08 0.000262929
163414:-10.7742 6.21216e-08 0.000262929
163960:0.00050859 0.502731 1
163961:0.00045611 0.490566 1
163962:0.00045586 0.490432 1
164112:-0.00277032 0.910894 1
164113:-0.00283413 0.898729 1
164114:-0.00283382 0.898595 1
164164:-0.00325947 0.27684 1
164165:-0.0032972 0.277698 1
164166:-0.00329664 0.277565 1
164576:0.00292703 0.225891 1
164577:0.00293675 0.212868 1
164578:0.00293555 0.212868 1
164928:0.00292703 0.225891 1
164929:0.00293675 0.212868 1
164930:0.00293555 0.212868 1
165048:-23.7313 1.24084e-08 0.000116714
165049:-24.2761 1.22426e-08 0.000116714
165050:-24.2734 1.22408e-08 0.000116714
165744:-0.0712009 0.00137871 0.0389047
165745:-0.0728411 0.00136029 0.0389047
165746:-0.072833 0.00136009 0.0389047
166780:-0.00325947 0.27684 1
166781:-0.0032972 0.277698 1
166782:-0.00329664 0.277565 1
168060:-248.989 1.12765e-10 1.11263e-05
168061:-254.726 1.11259e-10 1.11263e-05
168062:-254.753 1.11242e-10 1.11263e-05
168208:-0.245075 0.000116354 0.011302
168209:-0.250683 0.0001148 0.011302
168210:-0.25071 0.000114783 0.011302
168228:-0.244009 0.000117407 0.0113531
168229:-0.249569 0.000115839 0.0113531
168230:-0.249541 0.000115822 0.0113531
169460:-0.927558 8.12451e-06 0.00298651
169461:-0.94892 8.01601e-06 0.00298651
169462:-0.948815 8.01481e-06 0.00298651
169648:-33.1049 2.75623e-09 8.21753e-05
169649:-33.1049 2.75623e-09 8.21753e-05
169650:-33.1049 2.75623e-09 8.21753e-05
169812:-0.00272067 0.408163 1
169813:-0.00272067 0.408163 1
169814:-0.00272067 0.408163 1
170092:-8.28037 4.28872e-08 0.000393595
170093:-8.37632 4.30201e-08 0.000393595
170094:-8.3734 4.29994e-08 0.000393595
171292:-0.00286736 0.849482 0.965702
171293:-0.00293439 0.838138 0.965702
171294:-0.00293407 0.838013 0.965702
171304:-0.00285483 0.857171 0.970063
171305:-0.00292046 0.845724 0.970063
171306:-0.00292098 0.845598 0.970063
172032:6.18255 3.39483e-09 8.21753e-05
172033:5.55395 3.31268e-09 8.21753e-05
172034:5.54913 3.31178e-09 8.21753e-05
172696:35.614 1.52539e-09 8.21753e-05
172697:35.7372 1.43745e-09 8.21753e-05
172698:35.7226 1.43745e-09 8.21753e-05
173724:0.975732 2.03302e-06 0.003
173725:0.978925 1.91581e-06 0.003
173726:0.978524 1.91581e-06 0.003
174504:-0.00272067 0.408163 1
174505:-0.00272067 0.408163 1
174506:-0.00272067 0.408163 1
174852:-39.6648 1.86944e-09 8.21753e-05
174853:-40.1285 1.87523e-09 8.21753e-05
174854:-40.1062 1.87433e-09 8.21753e-05
175164:-0.346151 5.82972e-05 0.008
175165:-0.354141 5.75187e-05 0.008
175166:-0.354156 5.75101e-05 0.008
175676:-0.00358315 0.544285 0.773
175677:-0.00366586 0.537017 0.773
175678:-0.00366545 0.536937 0.773
176328:-0.000973555 0.634054 1
176329:-0.00100123 0.621031 1
176330:-0.00100193 0.621031 1
177516:-0.00359056 0.542111 0.771454
177517:-0.00367344 0.534871 0.771454
177518:-0.00367303 0.534791 0.771454
177864:-0.00272067 0.408163 1
177865:-0.00272067 0.408163 1
177866:-0.00272067 0.408163 1
178068:-0.00325947 0.27684 1
178069:-0.0032972 0.277698 1
178070:-0.00329664 0.277565 1
178684:-7.05156 1.40549e-07 0.000392808
178685:-7.2154 1.38672e-07 0.000392808
178686:-7.21461 1.38651e-07 0.000392808
179344:0.00050859 0.502731 1
179345:0.00045611 0.490566 1
179346:0.00045586 0.490432 1
179720:0.00292703 0.225891 1
179721:0.00293675 0.212868 1
179722:0.00293555 0.212868 1
180728:0.00293246 0.224988 0.998
180729:0.0029427 0.212017 0.998
180730:0.0029415 0.212017 0.998
181936:-39.6648 1.86944e-09 8.21753e-05
181937:-40.1285 1.87523e-09 8.21753e-05
181938:-40.1062 1.87433e-09 8.21753e-05
182104:-0.00277494 0.907254 0.998
182105:-0.00283856 0.895138 0.998
182106:-0.00283867 0.895005 0.998
182380:-6.91104 6.32313e-08 0.000393595
182381:-6.91104 6.32313e-08 0.000393595
182382:-6.91104 6.32313e-08 0.000393595
183968:-1192.73 4.91537e-12 2.32297e-06
183969:-1219.9 4.84973e-12 2.32297e-06
183970:-1220.09 4.84901e-12 2.32297e-06
184880:0.0179986 0.000401737 0.0282685
184881:0.0161629 0.000392016 0.0282685
184882:0.016142 0.000391909 0.0282685
185520:-0.00272067 0.408163 1
185521:-0.00272067 0.408163 1
185522:-0.00272067 0.408163 1
186052:-0.821104 1.03648e-05 0.00337324
186053:-0.840024 1.02264e-05 0.00337324
186054:-0.839931 1.02249e-05 0.00337324
186856:-0.00272067 0.408163 1
186857:-0.00272067 0.408163 1
186858:-0.00272067 0.408163 1
186912:-0.00325947 0.27684 1
186913:-0.0032972 0.277698 1
186914:-0.00329664 0.277565 1
188204:-0.695575 1.44452e-05 0.00398224
188205:-0.711657 1.42522e-05 0.00398224
188206:-0.711578 1.42501e-05 0.00398224
190116:-0.306956 7.41548e-05 0.00902268
190117:-0.314124 7.31645e-05 0.00902268
190118:-0.314089 7.31536e-05 0.00902268
190152:-0.00325947 0.27684 1
190153:-0.0032972 0.277698 1
190154:-0.00329664 0.277565 1
190240:-33.7696 6.12648e-09 8.20109e-05
190241:-34.5542 6.04466e-09 8.20109e-05
190242:-34.5504 6.04376e-09 8.20109e-05
190584:0.103534 0.000180511 0.0282685
190585:0.103905 0.000170105 0.0282685
190586:0.103862 0.000170105 0.0282685
191052:-0.00272067 0.408163 1
191053:-0.00272067 0.408163 1
191054:-0.00272067 0.408163 1
191144:-26.2298 1.0157e-08 0.000105596
191145:-26.8299 1.00213e-08 0.000105596
191146:-26.8269 1.00199e-08 0.000105596
191352:-0.0979554 0.000727904 0.0282685
191353:-0.100209 0.000718183 0.0282685
191354:-0.100211 0.000718076 0.0282685
192216:-0.0979554 0.000727904 0.0282685
192217:-0.100209 0.000718183 0.0282685
192218:-0.100211 0.000718076 0.0282685
193556:-6.56692 1.62024e-07 0.000421751
193557:-6.71807 1.59861e-07 0.000421751
193558:-6.7182 1.59837e-07 0.000421751
194008:-8.28037 4.28872e-08 0.000393595
194009:-8.37632 4.30201e-08 0.000393595
194010:-8.3734 4.29994e-08 0.000393595
195504:0.000509419 0.500722 0.998
195505:0.000456974 0.488606 0.998
195506:0.000456725 0.488472 0.998
195652:7.43581 3.49942e-08 0.000393595
195653:7.46015 3.29768e-08 0.000393595
195654:7.4571 3.29768e-08 0.000393595
195676:-0.00325947 0.27684 1
195677:-0.0032972 0.277698 1
195678:-0.00329664 0.277565 1
196092:-7.75423 1.16257e-07 0.000357253
196093:-7.933 1.14704e-07 0.000357253
196094:-7.93212 1.14687e-07 0.000357253
196316:1.29026 7.78814e-08 0.000393595
196317:1.1575 7.59969e-08 0.000393595
196318:1.15794 7.59762e-08 0.000393595
196800:-0.00277494 0.907254 0.998
196801:-0.00283856 0.895138 0.998
196802:-0.00283867 0.895005 0.998
197064:-0.0733751 0.00129739 0.03774
197065:-0.0750839 0.00128007 0.03774
197066:-0.0750756 0.00127988 0.03774
197712:0.00292703 0.225891 1
197713:0.00293675 0.212868 1
197714:0.00293555 0.212868 1
199184:-0.00272067 0.408163 1
199185:-0.00272067 0.408163 1
199186:-0.00272067 0.408163 1
200120:0.00345619 0.162083 0.847071
200121:0.00346667 0.152739 0.847071
200122:0.00346525 0.152739 0.847071
200132:-6.27175 1.77704e-07 0.000441687
200133:-6.41596 1.75331e-07 0.000441687
200134:-6.41612 1.75305e-07 0.000441687
200912:-3.46567 5.81675e-07 0.00079911
200913:-3.54644 5.73907e-07 0.00079911
200914:-3.54605 5.73822e-07 0.00079911
201680:0.00292703 0.225891 1
201681:0.00293675 0.212868 1
201682:0.00293555 0.212868 1
202096:-0.00277032 0.910894 1
202097:-0.00283413 0.898729 1
202098:-0.00283382 0.898595 1
202376:-7.72823 4.92426e-08 0.000421751
202377:-7.81686 4.93953e-08 0.000421751
202378:-7.81425 4.93715e-08 0.000421751
202444:-7.03623 1.41113e-07 0.000393595
202445:-6.91104 6.32313e-08 0.000393595
202446:-6.91104 6.32313e-08 0.000393595
203664:-0.00277032 0.910894 1
203665:-0.00283413 0.898729 1
203666:-0.00283382 0.898595 1
203684:-0.00278243 0.902723 0.995505
203685:-0.00284689 0.890667 0.995505
203686:-0.002847 0.890535 0.995505
204464:-33.7055 6.15106e-09 8.21753e-05
204465:-34.4817 6.06892e-09 8.21753e-05
204466:-34.4848 6.06801e-09 8.21753e-05
204616:-0.00325947 0.27684 1
204617:-0.0032972 0.277698 1
204618:-0.00329664 0.277565 1
205100:-16688 2.51003e-14 1.65999e-07
205101:-17076.6 2.47651e-14 1.65999e-07
205102:-17074.7 2.47614e-14 1.65999e-07
205960:-0.315717 7.01539e-05 0.00877591
205961:-0.322878 6.92171e-05 0.00877591
205962:-0.322842 6.92068e-05 0.00877591
206184:-6.91104 6.32313e-08 0.000393595
206185:-6.91104 6.32313e-08 0.000393595
206186:-6.91104 6.32313e-08 0.000393595
206452:-0.0712009 0.00137871 0.0389047
206453:-0.0728411 0.00136029 0.0389047
206454:-0.072833 0.00136009 0.0389047
206472:-30.496 7.51403e-09 9.08244e-05
206473:-31.203 7.41369e-09 9.08244e-05
206474:-31.1995 7.41258e-09 9.08244e-05
206980:-0.00369491 0.512185 0.749859
206981:-0.00377972 0.505344 0.749859
206982:-0.00377931 0.505269 0.749859
207256:0.00050859 0.502731 1
207257:0.00045611 0.490566 1
207258:0.00045586 0.490432 1
207492:-0.357013 5.48589e-05 0.0077605
207493:-0.365143 5.41263e-05 0.0077605
207494:-0.365157 5.41183e-05 0.0077605
208796:-0.0840502 0.000989261 0.032955
208797:-0.0859913 0.00097605 0.032955
208798:-0.0859818 0.000975904 0.032955
209472:-0.00294338 0.806616 0.941022
209473:-0.00301173 0.795844 0.941022
209474:-0.0030114 0.795726 0.941022
210156:-0.00272067 0.408163 1
210157:-0.00272067 0.408163 1
210158:-0.00272067 0.408163 1
210184:-33.7055 6.15106e-09 8.21753e-05
210185:-34.4817 6.06892e-09 8.21753e-05
210186:-34.4848 6.06801e-09 8.21753e-05
210544:-0.0010028 0.596658 0.970063
210545:-0.00103156 0.584404 0.970063
210546:-0.00103228 0.584404 0.970063
210744:-0.00278243 0.902723 0.995505
210745:-0.00284689 0.890667 0.995505
210746:-0.002847 0.890535 0.995505
211000:0.314709 1.9542e-05 0.00930113
211001:0.31578 1.84154e-05 0.00930113
211002:0.31565 1.84154e-05 0.00930113
211280:-0.0981979 0.000724995 0.028212
211281:-0.100432 0.000715313 0.028212
211282:-0.100448 0.000715207 0.028212
211580:-0.0857461 8.17243e-05 0.0113531
211581:-0.0881475 8.00458e-05 0.0113531
211582:-0.0882096 8.00458e-05 0.0113531
212400:-0.818349 4.39019e-06 0.00398224
212401:-0.827794 4.4038e-06 0.00398224
212402:-0.827659 4.40168e-06 0.00398224
212556:-0.251533 0.000110482 0.0110132
212557:-0.257293 0.000109007 0.0110132
212558:-0.257264 0.000108991 0.0110132
212680:-0.00277032 0.910894 1
212681:-0.00283413 0.898729 1
212682:-0.00283382 0.898595 1
212688:-0.00328505 0.64773 0.843263
212689:-0.00336099 0.639079 0.843263
212690:-0.00336062 0.638984 0.843263
213100:-7.03623 1.41113e-07 0.000393595
213101:-7.1994 1.39228e-07 0.000393595
213102:-7.1986 1.39207e-07 0.000393595
214396:-0.00272534 0.406532 0.998
214397:-0.00272534 0.406532 0.998
214398:-0.00272534 0.406532 0.998
215028:-0.683131 6.47274e-06 0.00398224
215029:-0.683131 6.47274e-06 0.00398224
215030:-0.683131 6.47274e-06 0.00398224
215056:-33.7055 6.15106e-09 8.21753e-05
215057:-33.1049 2.75623e-09 8.21753e-05
215058:-33.1049 2.75623e-09 8.21753e-05
217600:-0.0962129 0.000326167 0.0282685
217601:-0.0962129 0.000326167 0.0282685
217602:-0.0962129 0.000326167 0.0282685
217964:-0.00326533 0.275734 0.998
217965:-0.00330441 0.276589 0.998
217966:-0.00330257 0.276455 0.998
218240:0.00050859 0.502731 1
218241:0.00045611 0.490566 1
218242:0.00045586 0.490432 1
218840:-168.915 2.8153e-10 1.75348e-05
218841:-172.851 2.7777e-10 1.75348e-05
218842:-172.832 2.77729e-10 1.75348e-05
220108:-0.00272067 0.408163 1
220109:-0.00272067 0.408163 1
220110:-0.00272067 0.408163 1
221064:-6.56692 1.62024e-07 0.000421751
221065:-6.71807 1.59861e-07 0.000421751
221066:-6.7182 1.59837e-07 0.000421751
221596:-0.00358315 0.544285 0.773
221597:-0.00366586 0.537017 0.773
221598:-0.00366545 0.536937 0.773
223336:-0.00277032 0.910894 1
223337:-0.00283413 0.898729 1
223338:-0.00283382 0.898595 1
223452:0.664806 4.37971e-06 0.00440325
223453:0.667041 4.12721e-06 0.00440325
223454:0.666768 4.12721e-06 0.00440325
224212:-7.03623 1.41113e-07 0.000393595
224213:-7.1994 1.39228e-07 0.000393595
224214:-7.1986 1.39207e-07 0.000393595
224460:-6.44961 7.26016e-08 0.000421751
224461:-6.44961 7.26016e-08 0.000421751
224462:-6.44961 7.26016e-08 0.000421751
224508:-0.0962129 0.000326167 0.0282685
224509:-0.0962129 0.000326167 0.0282685
224510:-0.0962129 0.000326167 0.0282685
224968:0.00292703 0.225891 1
224969:0.00293675 0.212868 1
224970:0.00293555 0.212868 1
226572:-61.2566 1.86186e-09 4.52106e-05
226573:-62.6843 1.837e-09 4.52106e-05
226574:-62.6774 1.83672e-09 4.52106e-05
228076:-0.115288 0.000221226 0.0282685
228077:-0.116627 0.000221911 0.0282685
228078:-0.11659 0.000221805 0.0282685
228224:-0.00272534 0.406532 0.998
228225:-0.00272534 0.406532 0.998
228226:-0.00272534 0.406532 0.998
228276:-33.1049 2.75623e-09 8.21753e-05
228277:-33.1049 2.75623e-09 8.21753e-05
228278:-33.1049 2.75623e-09 8.21753e-05
228832:-264.719 1.33148e-10 1.19467e-05
228833:-270.808 1.3137e-10 1.19467e-05
228834:-270.778 1.3135e-10 1.19467e-05
230100:-0.00272067 0.408163 1
230101:-0.00272067 0.408163 1
230102:-0.00272067 0.408163 1
230908:-0.297791 7.88024e-05 0.00930113
230909:-0.304701 7.775e-05 0.00930113
230910:-0.304667 7.77385e-05 0.00930113
231260:-0.698849 1.43156e-05 0.00396434
231261:-0.714922 1.41244e-05 0.00396434
231262:-0.714843 1.41223e-05 0.00396434
231272:-0.695575 1.44452e-05 0.00398224
231273:-0.711657 1.42522e-05 0.00398224
231274:-0.711578 1.42501e-05 0.00398224
231472:-0.923185 8.19804e-06 0.003
231473:-0.944678 8.08856e-06 0.003
231474:-0.944574 8.08736e-06 0.003
231592:-33.7055 6.15106e-09 8.21753e-05
231593:-34.4817 6.06892e-09 8.21753e-05
231594:-34.4848 6.06801e-09 8.21753e-05
231628:35.614 1.52539e-09 8.21753e-05
231629:35.7372 1.43745e-09 8.21753e-05
231630:35.7226 1.43745e-09 8.21753e-05
231860:-0.346895 5.80642e-05 0.007984
231861:-0.354912 5.72888e-05 0.007984
231862:-0.354873 5.72803e-05 0.007984
232320:-0.00326533 0.275734 0.998
232321:-0.00330441 0.276589 0.998
232322:-0.00330257 0.276455 0.998
233536:-0.000973555 0.634054 1
233537:-0.00100123 0.621031 1
233538:-0.00100193 0.621031 1
234588:0.00292703 0.225891 1
234589:0.00293675 0.212868 1
234590:0.00293555 0.212868 1
236452:-0.61774 7.91372e-06 0.00440325
236453:-0.61774 7.91372e-06 0.00440325
236454:-0.61774 7.91372e-06 0.00440325
236768:-0.00277494 0.907254 0.998
236769:-0.00283856 0.895138 0.998
236770:-0.00283867 0.895005 0.998
237896:-0.00325947 0.27684 1
237897:-0.0032972 0.277698 1
237898:-0.00329664 0.277565 1
238080:-0.115288 0.000221226 0.0282685
238081:-0.116627 0.000221911 0.0282685
238082:-0.11659 0.000221805 0.0282685
239040:-619.759 1.81883e-11 4.4685e-06
239041:-634.108 1.79454e-11 4.4685e-06
239042:-634.037 1.79427e-11 4.4685e-06
239616:-0.628904 1.7661e-05 0.00440325
239617:-0.61774 7.91372e-06 0.00440325
239618:-0.61774 7.91372e-06 0.00440325
239796:0.00292703 0.225891 1
239797:0.00293675 0.212868 1
239798:0.00293555 0.212868 1
239824:-410110 4.15367e-17 6.75277e-09
239825:-419642 4.0982e-17 6.75277e-09
239826:-419596 4.09759e-17 6.75277e-09
240144:-0.00325947 0.27684 1
240145:-0.0032972 0.277698 1
240146:-0.00329664 0.277565 1
240720:-6.56692 1.62024e-07 0.000421751
240721:-6.71807 1.59861e-07 0.000421751
240722:-6.7182 1.59837e-07 0.000421751
240740:-6.59637 1.60571e-07 0.000419855
240741:-6.74844 1.58427e-07 0.000419855
240742:-6.74769 1.58403e-07 0.000419855
241220:-0.297791 7.88024e-05 0.00930113
241221:-0.304701 7.775e-05 0.00930113
241222:-0.304667 7.77385e-05 0.00930113
242032:-0.00272067 0.408163 1
242033:-0.00272067 0.408163 1
242034:-0.00272067 0.408163 1
243040:-0.0979554 0.000727904 0.0282685
243041:-0.100209 0.000718183 0.0282685
243042:-0.100211 0.000718076 0.0282685
245896:-0.288055 8.42427e-05 0.00961684
245897:-0.294723 8.31177e-05 0.00961684
245898:-0.294691 8.31053e-05 0.00961684
246004:0.075221 0.000341902 0.0389047
246005:0.0754835 0.000322191 0.0389047
246006:0.0754526 0.000322191 0.0389047
247148:-0.00285483 0.857171 0.970063
247149:-0.00292046 0.845724 0.970063
247150:-0.00292098 0.845598 0.970063
247716:-0.00325947 0.27684 1
247717:-0.0032972 0.277698 1
247718:-0.00329664 0.277565 1
248160:-0.244009 0.000117407 0.0113531
248161:-0.249569 0.000115839 0.0113531
248162:-0.249541 0.000115822 0.0113531
248220:-8.90103 8.82372e-08 0.000311238
248221:-9.10541 8.70588e-08 0.000311238
248222:-9.1044 8.70459e-08 0.000311238
248640:-0.292522 3.53107e-05 0.00930113
248641:-0.292522 3.53107e-05 0.00930113
248642:-0.292522 3.53107e-05 0.00930113
248732:-0.0921109 0.000823817 0.0300733
248733:-0.0942214 0.000812815 0.0300733
248734:-0.0942109 0.000812694 0.0300733
248964:-0.00337125 0.615045 0.821712
248965:-0.00344943 0.606831 0.821712
248966:-0.00344905 0.606741 0.821712
250044:-0.00327016 0.653592 0.847071
250045:-0.00334597 0.644864 0.847071
250046:-0.0033456 0.644768 0.847071
250516:-0.00277032 0.910894 1
250517:-0.00283413 0.898729 1
250518:-0.00283382 0.898595 1
251160:-0.628904 1.7661e-05 0.00440325
251161:-0.643533 1.74251e-05 0.00440325
251162:-0.643461 1.74225e-05 0.00440325
251408:7.43581 3.49942e-08 0.000393595
251409:7.46015 3.29768e-08 0.000393595
251410:7.4571 3.29768e-08 0.000393595
251624:-0.00326533 0.275734 0.998
251625:-0.00330441 0.276589 0.998
251626:-0.00330257 0.276455 0.998
251868:-706.23 1.40169e-11 3.92276e-06
251869:-722.32 1.38297e-11 3.92276e-06
251870:-722.24 1.38277e-11 3.92276e-06
252112:-0.347788 5.77743e-05 0.00796404
252113:-0.355828 5.70027e-05 0.00796404
252114:-0.355789 5.69942e-05 0.00796404
252624:-0.00359912 0.539403 0.769525
252625:-0.00368257 0.5322 0.769525
252626:-0.00368216 0.53212 0.769525
252684:-0.00272067 0.408163 1
252685:-0.00272067 0.408163 1
252686:-0.00272067 0.408163 1
252772:-0.244009 0.000117407 0.0113531
252773:-0.249569 0.000115839 0.0113531
252774:-0.249541 0.000115822 0.0113531
254232:-0.923185 8.19804e-06 0.003
254233:-0.944678 8.08856e-06 0.003
254234:-0.944574 8.08736e-06 0.003
254672:-1.82975 2.08678e-06 0.00151358
254673:-1.87193 2.05891e-06 0.00151358
254674:-1.87172 2.0586e-06 0.00151358
256440:0.003787 0.134976 0.773
256441:0.00380011 0.127195 0.773
256442:0.00379855 0.127195 0.773
256952:0.365878 1.4457e-05 0.008
256953:0.367097 1.36235e-05 0.008
256954:0.366946 1.36235e-05 0.008
258972:-0.0715279 0.00136634 0.0387298
258973:-0.073183 0.00134809 0.0387298
258974:-0.0731749 0.00134789 0.0387298
259596:-85630.1 9.52903e-16 3.23437e-08
259597:-87633.5 9.40177e-16 3.23437e-08
259598:-87623.8 9.40037e-16 3.23437e-08
259916:0.00292703 0.225891 1
259917:0.00293675 0.212868 1
259918:0.00293555 0.212868 1
260324:-0.297791 7.88024e-05 0.00930113
260325:-0.292522 3.53107e-05 0.00930113
260326:-0.292522 3.53107e-05 0.00930113
261348:-74.7614 1.24967e-09 3.70393e-05
261349:-76.4979 1.23298e-09 3.70393e-05
261350:-76.4894 1.23279e-09 3.70393e-05
261792:-0.628904 1.7661e-05 0.00440325
261793:-0.643533 1.74251e-05 0.00440325
261794:-0.643461 1.74225e-05 0.00440325
261992:-0.115288 0.000221226 0.0282685
261993:-0.116627 0.000221911 0.0282685
261994:-0.11659 0.000221805 0.0282685
262092:-0.00272067 0.408163 1
262093:-0.00272067 0.408163 1
262094:-0.00272067 0.408163 1
