Version 9.10.0
Id 
Min label:-1
Max label:0
bits:18
lda:0
0 ngram:
0 skip:
options: --cb_adf --cb_explore_adf --cb_type mtr --csoaa_ldf multiline --csoaa_rank --epsilon 0.200000002980232 --ignore_features_dsjson_experimental FromUrl|timeofday
Checksum: 2616766463
event_sum 12
action_sum 48
:1
initial_t 0
norm normalizer 68.8235
t 12
sum_loss -3.41176
sum_loss_since_last_dump -2.05882
dump_interval 16
min_label -1
max_label 0
weighted_labeled_examples 12
weighted_labels 0
weighted_unlabeled_examples 0
example_number 12
total_features 432
total_weight 7.64706
sd::oec.weighted_labeled_examples 8
current_pass 1
l1_state 0
l2_state 1
j^originethiopia:6311:-0.0657108 1.03506 1
j^roastdark:15410:-0.0864535 3.4266 1
i^constant:26051:-0.0985767 5.15034 1
i^idCold_brew:39661:0.0237205 0.688679 1
FromUrl^nameCathy:42529:0.0130525 1.21818 1
FromUrl^nameBob:50489:-0.027199 1.72374 1
j^originbrazil:54816:0.0197341 1.90685 1
FromUrl^nameAlice:60658:-0.0638823 1.95864 1
i^idIced_mocha:110846:-0.0657108 1.03506 1
Constant:116060:-0.0985767 5.15034 1
j^organicno:124303:-0.0404107 2.25324 1
i^idLatte:152734:0.0130525 1.21818 1
i^idCappucino:153620:-0.0856676 2.20843 1
FromUrl^weatherSunny:159054:0.0669203 1.17274 1
FromUrl^weatherSnowy:173256:-0.158574 2.75943 1
j^typehot:188731:-0.0864535 3.4266 1
FromUrl^nameDave:189701:-0.0657025 0.249787 1
FromUrl^weatherRainy:194859:0.0130525 1.21818 1
j^organicyes:205927:-0.0672765 2.8971 1
j^roastlight:219055:-0.027199 1.72374 1
j^originkenya:231314:-0.0856676 2.20843 1
j^typecold:257035:-0.027199 1.72374 1
