Version 9.10.0
Id 
Min label:0
Max label:0
bits:10
lda:3
0 ngram:
0 skip:
options: --lda 3 --lda_alpha 0.00999999977648258 --lda_rho 0.00999999977648258 --random_seed 1604429228335170683
Checksum: 2115080226
0 6.25109 0.0100032 0.0100038 
1 0.0100645 15.1146 10.9832 
2 4.83408 1.63181 0.0988877 
3 0.0145674 24.7564 0.0316286 
4 0.0100054 0.0100084 1.28461 
5 19.547 0.0102792 0.0100399 
6 3.83569 0.0303236 0.0281384 
7 0.80598 2.66816 0.0100251 
8 0.0156453 0.0142888 15.1355 
9 0.010092 24.542 0.0100646 
10 0.010073 4.26756 0.0100336 
11 56.1224 1.95893 6.01593 
12 3.48259 5.16796 0.0100107 
13 0.0100875 7.51446 1.08587 
14 0.0100545 2.77578 5.2036 
15 0.0143935 0.0100225 5.63938 
16 24.7816 0.0116425 4.85099 
17 0.0109543 5.80689 8.60323 
18 0.0100325 3.83752 2.80199 
19 11.3612 0.0101956 0.0100752 
20 0.0100061 0.0138677 7.38961 
21 0.0100208 0.0100022 7.46307 
22 0.0100171 12.3287 0.0100193 
23 0.0100181 0.0356484 20.273 
24 2.4717 0.0100452 0.0100357 
25 10.5715 0.010015 2.68483 
26 9.83529 3.42824 0.0100117 
27 3.05812 0.0420976 1.31202 
28 5.97863 0.170645 27.5027 
29 0.345157 9.51497 11.6027 
30 0.0136621 1.71967 0.0125672 
31 0.0100014 0.0707612 0.188795 
32 0.010049 0.0100282 4.9096 
33 25.1828 3.62056 1.91807 
34 0.0572174 4.31648 0.21772 
35 0.72992 0.040009 5.4806 
36 10.0362 0.0703206 0.012875 
37 3.55552 1.74615 0.0100013 
38 0.010007 0.317489 2.34502 
39 6.97728 0.0100183 0.010005 
40 30.3408 0.785753 0.010017 
41 0.0100427 4.10246 0.0167305 
42 0.010199 0.0176958 1.41144 
43 9.07133 0.0105145 0.01006 
44 3.77033 0.0100321 1.75752 
45 0.0353666 13.9533 5.20886 
46 1.11664 4.52959 0.0100834 
47 3.09895 0.0100091 0.0100092 
48 0.0100541 0.0100074 6.72934 
49 2.59012 3.35375 0.0100914 
50 0.0149245 12.2336 0.0100369 
51 2.0748 2.63074 0.891284 
52 3.96089 0.0105438 0.0319546 
53 19.813 0.0587771 0.0105752 
54 6.95186 4.21533 0.0136595 
55 2.44241 0.615011 1.77352 
56 6.45236 0.179172 1.12332 
57 0.0100477 29.0113 3.52236 
58 6.51963 0.0198262 0.214573 
59 0.010002 0.0232504 37.1929 
60 8.32458 0.205712 3.72218 
61 7.01144 0.0102076 0.0100117 
62 0.010009 0.0100052 0.0100087 
63 1.47545 16.3175 4.62662 
64 3.50567 0.0100354 13.3997 
65 0.0234318 6.85694 17.3054 
66 5.43424 0.010094 0.0100147 
67 1.19096 0.010073 0.0100712 
68 0.0917067 0.0129221 3.53148 
69 0.0102622 0.163584 17.4818 
70 0.0100121 12.3266 4.70826 
71 28.3085 0.0940526 1.89739 
72 0.0100455 5.51912 0.0900655 
73 0.906811 0.30631 1.49467 
74 6.81523 6.76682 0.0191135 
75 31.33 0.0100748 0.0583182 
76 0.0221322 5.30123 0.010001 
77 6.35895 4.44169 0.0100556 
78 0.0459074 7.38899 9.52112 
79 0.010002 0.0104886 5.04329 
80 9.2455 0.13146 0.0100026 
81 1.41809 0.0103596 0.0589605 
82 0.0117736 0.0100337 3.28027 
83 9.87268 8.26322 0.0100012 
84 1.33422 4.42404 0.058613 
85 5.10821 0.0100331 0.0100337 
86 1.65461 0.0100213 3.81099 
87 2.29908 0.0100224 0.0100688 
88 0.010138 2.7986 0.0647328 
89 2.7808 0.0100157 0.0358652 
90 18.7904 0.0119237 1.59176 
91 9.88393 0.0100283 0.0358 
92 0.0100046 0.0852801 1.20709 
93 0.0100054 2.93816 0.010005 
94 9.36644 0.0100026 0.0100025 
95 0.0227061 6.14226 1.37021 
96 0.0102596 0.0106613 5.33483 
97 3.96801 4.72855 0.0100112 
98 7.31442 0.0101025 0.0101158 
99 4.33591 0.0100031 0.0326407 
100 11.686 0.704956 0.0643658 
101 0.0102133 10.0348 6.82123 
102 0.0710099 2.91513 1.62969 
103 4.67817 0.0455559 13.8271 
104 1.72023 0.0299151 0.0489509 
105 0.0103976 6.47082 0.0100597 
106 0.53686 0.15632 12.6555 
107 0.0100185 10.2279 4.30405 
108 3.25632 0.0100287 0.0100042 
109 3.25945 3.10062 13.0035 
110 9.51993 0.0996181 0.0136954 
111 0.015112 25.9699 3.79736 
112 0.0150294 0.0271267 2.46378 
113 0.0104046 0.0100691 3.71313 
114 11.4576 0.0101365 0.856381 
115 0.0100814 14.4277 0.0100158 
116 0.0100023 0.0100134 0.123404 
117 0.116651 1.83285 0.0207205 
118 0.421723 8.32144 12.261 
119 0.0103097 5.28481 2.57439 
120 0.0102531 0.89404 0.0100276 
121 0.0104999 0.0105446 0.569742 
122 6.59663 0.0100074 0.0100097 
123 0.0102836 0.0102904 4.48796 
124 6.62027 1.3572 0.0100087 
125 7.738 0.308432 1.92679 
126 1.56015 4.30857 8.87594 
127 3.15142 0.0180708 0.0149215 
128 6.2066 13.0921 8.00788 
129 0.0354253 0.0101022 6.04083 
130 0.0100026 0.0100017 14.0594 
131 0.0100049 8.81118 0.0100119 
132 7.16831 0.0100815 0.0101686 
133 0.0141906 0.0126277 1.24697 
134 0.0257363 4.65258 0.0162461 
135 0.0100048 15.3763 0.0100234 
136 7.41342 0.0100054 0.0100926 
137 38.5626 0.0189382 0.0100017 
138 2.15492 0.1471 12.799 
139 0.0100078 3.90465 0.121093 
140 0.0100035 0.0100173 19.055 
141 10.6903 4.51676 0.0350033 
142 0.0282614 7.53945 0.0183144 
143 5.77905 0.464333 0.0100759 
144 8.25734 9.27483 0.0111728 
145 10.5427 1.6529 0.423303 
146 0.0112388 0.551994 0.0104505 
147 3.47033 8.12378 0.0100808 
148 0.0100013 0.673539 14.2706 
149 9.79864 1.19093 0.0992379 
150 3.35032 5.76441 0.47369 
151 5.36838 0.0203628 0.0607538 
152 0.807652 10.874 0.0100456 
153 0.0119343 0.0100476 7.50131 
154 0.0100063 2.8647 0.0100743 
155 0.0100036 5.03634 15.4774 
156 4.99481 0.778834 0.0100478 
157 0.0100185 8.80896 0.0101114 
158 0.010006 5.76971 0.0100044 
159 0.0100028 9.46504 0.0100126 
160 8.78214 0.010004 0.034801 
161 0.010178 0.0116539 2.81485 
162 0.02677 0.0258382 1.85245 
163 0.775491 0.011535 12.21 
164 5.6355 0.0100023 0.0100015 
165 0.0262937 4.61195 0.035187 
166 11.2966 0.324069 20.1966 
167 0.0247886 0.0101345 5.38531 
168 5.83193 0.0175487 4.24726 
169 0.0100303 4.42404 0.0100123 
170 5.59261 0.0100861 1.34598 
171 3.5973 0.0937537 0.0111145 
172 0.0100109 0.0100231 10.6279 
173 0.0165089 17.2035 0.383348 
174 10.3416 0.015794 0.0100027 
175 0.0349103 0.0139702 4.68627 
176 4.82738 0.211389 2.94598 
177 2.86019 3.62566 0.068657 
178 6.68895 0.010017 0.0100056 
179 7.22229 0.0102445 0.0100173 
180 0.0106841 0.0100219 1.02033 
181 0.0106958 7.61035 0.0100012 
182 0.0124092 7.27053 0.0102245 
183 11.084 0.0100071 0.0150493 
184 0.0100645 0.0100013 0.262905 
185 0.0109051 6.1439 0.0110609 
186 0.462992 0.0309791 0.0153361 
187 0.134759 0.0107346 10.0329 
188 17.979 0.0118705 0.0100014 
189 0.0100215 5.17403 0.0116255 
190 0.0327237 0.0413245 5.05437 
191 22.7947 0.0100181 0.0114079 
192 16.5047 0.042357 1.47403 
193 8.57387 6.10477 0.955276 
194 0.0189475 0.010002 7.85134 
195 0.0225367 0.0157742 4.384 
196 0.0100044 0.0100025 3.76011 
197 11.945 0.0101117 0.49216 
198 5.13432 0.0101315 0.010616 
199 2.02308 1.6801 0.124038 
200 0.464812 1.13109 0.329307 
201 0.0100256 0.025834 9.60347 
202 4.65823 0.0103845 0.0101263 
203 5.97387 0.169865 17.2135 
204 0.0100061 0.030642 2.4365 
205 0.763078 2.49435 0.0107537 
206 11.3215 0.0100648 0.0123896 
207 29.9218 0.0181399 6.50668 
208 4.13928 17.221 0.0124074 
209 16.9602 0.208366 0.0468636 
210 0.157702 0.544329 3.4912 
211 0.0100948 0.0100208 4.05867 
212 8.74062 3.16488 0.0142558 
213 6.46691 0.0101053 0.0100677 
214 2.56081 1.53787 1.29675 
215 10.0907 5.90205 0.0373174 
216 0.0175154 2.06461 0.0100149 
217 4.58057 3.7571 0.635955 
218 2.70333 0.619871 0.0135327 
219 0.010002 0.664132 10.3973 
220 0.0332574 0.0219457 0.0387617 
221 6.48722 0.0100364 16.5142 
222 1.78128 0.0144939 0.0503957 
223 13.2984 0.0101064 0.669025 
224 0.0100172 0.0357983 6.61735 
225 2.10641 0.0100254 0.0100038 
226 2.11089 3.98445 0.0535636 
227 0.0195199 0.0148451 1.7893 
228 0.166116 0.0197522 4.08973 
229 9.62197 2.66944 0.0504301 
230 18.3193 1.44941 1.16847 
231 0.0100911 2.27238 6.17362 
232 1.37358 14.1338 0.0104182 
233 13.8692 6.86976 0.295709 
234 0.038475 0.0206771 7.42524 
235 0.0100181 4.7884 0.0100037 
236 0.0100626 7.88375 0.0100216 
237 7.83417 0.0112337 7.04031 
238 0.0303555 0.0100054 20.8448 
239 5.42772 0.0813042 0.0100015 
240 5.31413 0.0100139 0.0100125 
241 0.695016 5.48293 1.29648 
242 0.0692158 6.01606 0.0100015 
243 0.0100015 1.2389 0.0100324 
244 1.91189 0.0100418 0.0101046 
245 13.7215 0.0103947 0.0100458 
246 0.188221 0.0100886 0.0109257 
247 0.0154543 0.010003 8.82208 
248 0.473252 0.372027 0.691105 
249 4.02853 0.01007 0.010029 
250 0.0118409 0.0100068 3.57131 
251 0.0100241 0.0100337 3.40737 
252 0.176269 5.2286 0.0100244 
253 5.10477 3.55682 10.8916 
254 6.23349 0.0100283 0.740545 
255 0.0100014 0.0392762 7.92111 
256 0.0912914 0.0197114 12.9605 
257 0.0100336 5.73566 0.0527773 
258 6.04799 0.0100149 12.5223 
259 0.0129601 6.86977 0.0124559 
260 0.0100028 0.0100119 0.0794268 
261 1.68675 0.0100359 4.85533 
262 0.010004 16.2698 0.0100087 
263 0.0100028 0.17428 6.12849 
264 5.67663 0.010017 0.010133 
265 0.0100308 0.010028 2.19131 
266 0.770731 19.7838 0.794557 
267 12.4397 1.38362 0.0186409 
268 5.51421 0.0101344 7.26175 
269 4.7127 0.0100199 0.0100108 
270 0.0101237 6.55187 0.010045 
271 0.010164 9.24965 0.0308727 
272 0.0101127 3.20549 2.77782 
273 2.62559 0.0100056 0.0100095 
274 2.93468 6.41945 0.0126425 
275 0.010004 0.010027 2.05376 
276 0.0100341 7.42319 0.320065 
277 6.44207 0.0100232 3.72599 
278 0.0100648 1.89258 0.0180036 
279 7.67319 0.0102753 0.0102502 
280 0.0100346 0.0120725 3.79794 
281 2.46248 0.010033 0.0101893 
282 4.42107 2.58548 13.05 
283 0.010007 0.0100928 3.71554 
284 0.266608 0.0127498 0.0260376 
285 0.0100077 0.0100036 15.0879 
286 4.72579 0.117 0.0100568 
287 13.0258 1.84977 0.0502233 
288 0.0100609 0.0100138 5.35441 
289 0.587021 3.38841 0.0100649 
290 6.15698 2.17198 4.9529 
291 5.84902 0.010054 0.62428 
292 4.98571 0.0223879 15.2475 
293 0.010005 5.58066 0.0100028 
294 1.06334 3.46425 5.94575 
295 1.29311 0.0333055 2.18741 
296 16.6542 0.0106045 0.0106325 
297 0.0233514 10.9416 0.0130013 
298 0.0100012 4.55127 2.58154 
299 0.0100117 0.0100547 7.48377 
300 43.7387 0.0122086 0.0771816 
301 0.0101317 15.4723 0.0100987 
302 0.0101394 0.0101223 10.4891 
303 0.0100839 4.03048 0.0100596 
304 3.25001 14.1751 0.0993755 
305 2.20214 0.659248 0.0100365 
306 16.3274 1.29941 7.79863 
307 7.56391 0.011161 0.0113826 
308 0.27799 0.124031 0.220257 
309 3.24398 0.0962431 13.3127 
310 20.5268 0.0101085 0.0100242 
311 0.0148791 0.010056 32.6531 
312 0.0100216 0.0100243 4.74426 
313 0.0180444 19.7301 0.0110458 
314 15.0039 0.0101005 0.0100269 
315 7.50709 0.0241337 0.0109224 
316 0.0105643 4.65677 0.0100636 
317 0.0728207 9.61435 2.47796 
318 0.0325347 0.0100022 18.3861 
319 0.0477152 10.6177 0.0101435 
320 24.4712 0.0325724 13.053 
321 1.42508 3.20925 0.0378187 
322 3.77558 0.0198147 0.0704991 
323 0.0221072 9.2771 7.50388 
324 0.0100025 8.52195 0.0100013 
325 4.39906 0.0107886 0.0100921 
326 0.109768 0.203928 43.744 
327 14.4628 5.29936 0.0100017 
328 10.4029 0.673282 2.49073 
329 3.03711 0.109545 0.0452946 
330 1.20355 0.0683582 0.0100035 
331 0.0208919 0.127306 6.81368 
332 0.0101844 13.3293 0.0100023 
333 11.6358 1.75845 0.0100013 
334 14.5894 0.160822 0.188067 
335 0.0101732 0.0100107 5.49158 
336 1.07485 0.130051 1.76422 
337 1.41911 1.06402 0.861627 
338 6.90228 0.0757448 1.84231 
339 0.0101529 0.0100055 11.339 
340 0.0101885 4.21762 0.0100331 
341 0.0100132 39.7875 0.0143245 
342 2.17208 0.0100169 20.9826 
343 0.0100045 0.0100038 0.349665 
344 4.40201 2.78139 5.34737 
345 0.0100178 0.0148885 2.67001 
346 0.0102716 0.0102401 0.0392843 
347 0.689052 0.101563 0.0225982 
348 0.845675 0.0327403 7.39497 
349 0.0157326 0.0108852 14.5405 
350 7.04991 0.0444911 0.480333 
351 0.0101324 0.0102765 11.5737 
352 4.41112 0.0120792 0.0100207 
353 0.208586 5.89971 0.0103059 
354 15.9925 0.0251333 0.231093 
355 0.0100016 11.789 21.0776 
356 6.89024 0.010771 0.0113244 
357 5.33379 0.0114245 0.0100132 
358 5.40904 0.0100102 0.0154888 
359 0.0100015 0.0666028 15.2588 
360 0.0100016 8.3111 0.0104466 
361 6.35363 8.78116 22.8656 
362 4.40871 0.0100128 0.012495 
363 0.0102588 2.29934 7.02358 
364 5.58634 4.89485 0.502103 
365 0.0100049 0.411883 0.746971 
366 1.30206 0.77255 0.681342 
367 4.24043 0.115417 0.0867797 
368 4.33365 0.0132557 0.0270701 
369 1.08573 0.0326116 0.989807 
370 13.4409 0.0100059 9.36542 
371 7.90519 9.22296 0.0883764 
372 0.224466 3.56883 6.53643 
373 0.0395481 17.8565 6.6323 
374 5.58894 0.0100599 0.0120683 
375 7.05087 0.0100367 0.0100101 
376 2.20044 0.0128683 0.0148985 
377 0.417966 0.0100024 0.942826 
378 3.32801 0.0100125 0.0115019 
379 0.0158609 1.24285 0.0150604 
380 0.0100113 0.0100027 14.3566 
381 0.0100033 5.81352 0.118931 
382 7.11039 0.0100089 2.62013 
383 2.82621 4.03923 21.7556 
384 7.37664 0.0100886 0.0100088 
385 33.2404 0.0103183 0.0100014 
386 0.01055 0.0100023 10.4091 
387 8.12753 0.903567 0.0252073 
388 0.0101046 0.0100858 19.4977 
389 9.19896 0.0100392 0.0103918 
390 0.0109122 8.77086 0.0102285 
391 4.19125 3.99461 3.23555 
392 3.10905 2.04834 24.5964 
393 14.9507 1.62402 12.1344 
394 0.0435763 4.23066 0.0100023 
395 10.9373 0.0105079 0.0100112 
396 0.0102559 0.010108 5.1082 
397 6.13222 0.027738 21.5419 
398 0.939142 8.24621 0.0100108 
399 0.644675 6.38721 0.0129175 
400 5.00919 0.0357925 0.35853 
401 11.7557 0.0100544 0.667227 
402 0.431303 19.7125 0.0189733 
403 14.4594 0.287076 1.72445 
404 0.0100041 21.3407 0.0100013 
405 6.74749 0.0100554 0.581843 
406 2.1544 9.46049 23.4509 
407 0.0100025 0.0100604 9.42953 
408 9.86499 5.49211 0.0814184 
409 0.0100013 0.010058 0.32632 
410 24.6471 0.205171 4.44441 
411 0.0312175 5.59648 2.67402 
412 21.4546 0.0100036 0.0100057 
413 8.65046 0.0141506 32.1997 
414 0.0100855 0.0105474 14.7643 
415 17.7087 2.54694 0.0268118 
416 0.010216 15.0381 0.036314 
417 0.30856 0.0100017 0.0100521 
418 26.9801 0.802549 0.0118164 
419 5.13166 0.0365636 0.0263047 
420 0.0350127 0.0339231 0.716859 
421 0.0100018 5.63677 0.0100016 
422 28.9098 0.0107381 0.0101237 
423 18.0174 0.0101215 0.0110101 
424 0.0104609 0.0100885 9.74523 
425 0.0100054 11.6257 0.013886 
426 0.0100015 1.35591 23.2831 
427 0.0112154 0.0100094 8.67281 
428 7.48425 0.0155279 0.140991 
429 0.531293 3.41554 0.693349 
430 0.317728 0.175059 2.01539 
431 8.51873 0.0102505 0.0100265 
432 10.12 6.77308 0.0117131 
433 0.0100401 10.0648 0.0102082 
434 0.0100039 0.0100223 10.9169 
435 0.0101167 6.00843 0.0101263 
436 2.63229 0.0100027 0.0100064 
437 0.0339606 9.59007 2.52909 
438 0.0428362 5.08068 0.0100015 
439 9.20252 17.1581 47.4116 
440 0.0100664 0.0100189 0.360864 
441 0.0100233 0.0100225 6.2285 
442 86.1521 0.0130376 0.0122964 
443 0.0579561 0.0104717 14.0518 
444 1.20206 0.0246347 10.8617 
445 7.29169 0.0155347 0.0101943 
446 4.54311 0.0100777 0.0100095 
447 0.0485049 0.0100236 9.48121 
448 0.0728551 0.0100299 0.0193954 
449 0.0100264 7.25601 3.36476 
450 17.4898 0.0224226 18.1411 
451 0.010005 0.0114824 6.32618 
452 0.0100029 9.10763 0.0132433 
453 5.52704 1.69587 17.0281 
454 0.0100051 0.0101643 3.07634 
455 0.0100031 0.164883 8.64045 
456 0.598989 5.57513 0.253703 
457 1.35464 24.5518 3.99271 
458 12.3046 17.9051 0.0100175 
459 14.2423 0.0223032 0.0100634 
460 0.010129 13.5913 0.010007 
461 1.86719 0.0110458 18.8223 
462 0.2098 10.5454 0.0100013 
463 0.0202233 0.932608 0.379743 
464 0.0114584 0.256034 0.0100389 
465 19.5465 0.0559094 0.0100232 
466 0.0101807 0.0631862 0.469252 
467 0.0101984 0.0114419 0.112385 
468 0.0102612 0.0112181 11.5548 
469 13.3864 0.010411 0.010009 
470 29.6572 0.139079 0.241103 
471 0.0128664 0.0100937 7.57982 
472 5.18891 0.112967 0.0100952 
473 0.0482876 0.460415 7.86494 
474 0.0100028 0.0100079 5.9867 
475 7.04827 0.0475049 0.0596957 
476 0.0101335 9.2729 0.0100553 
477 0.0100062 0.0103853 0.554671 
478 0.0100616 0.0102365 18.1075 
479 6.59939 0.0102608 0.0114063 
480 0.999787 0.107757 4.77233 
481 0.0100017 0.010004 6.44256 
482 3.82747 0.379413 0.0180801 
483 0.010005 24.7736 0.0100173 
484 0.0100854 0.0119348 3.01135 
485 0.0100024 0.0100023 4.45683 
486 0.0135006 0.0636868 12.6773 
487 1.77793 15.1295 0.0100014 
488 0.0323009 9.49713 0.507308 
489 3.251 0.010034 0.0100109 
490 0.235821 1.46501 0.0139086 
491 1.07396 14.2449 0.334493 
492 4.18487 0.0580466 0.0100352 
493 8.99301 39.6761 8.6918 
494 0.0102123 0.0100429 9.11304 
495 0.0100046 0.0639816 6.99469 
496 0.0155109 5.28393 0.0187626 
497 28.8474 0.0100055 0.0100085 
498 4.58836 0.0139925 0.0100706 
499 0.0100281 8.87815 0.0100046 
500 0.0102606 4.88899 0.0159662 
501 3.29137 0.840251 1.01249 
502 8.2559 2.11404 2.03136 
503 6.66272 12.449 0.0101385 
504 0.0100301 3.94337 12.8811 
505 0.0100133 4.27477 0.730268 
506 4.72473 0.0101543 0.0108333 
507 0.0100099 18.9045 0.0102025 
508 0.0456466 0.0102519 29.9955 
509 0.151974 16.1785 0.010216 
510 0.0100444 0.0110111 17.6525 
511 5.18193 0.0104551 3.70796 
512 0.0100786 0.010013 8.64591 
513 9.13265 0.0100581 0.0100363 
514 0.484632 28.9789 0.013183 
515 1.14799 0.0240184 0.0213585 
516 0.0101725 9.48523 0.0100335 
517 8.78968 0.0528889 0.0100026 
518 4.88993 25.721 18.9722 
519 0.0100134 12.6002 0.0100037 
520 8.375 0.0101312 0.0100158 
521 19.5106 0.0100204 5.38981 
522 0.0160735 3.04039 33.6777 
523 0.0100111 1.79002 0.0100229 
524 7.38651 11.8745 6.81482 
525 0.0103789 0.0119229 13.509 
526 0.0100958 9.56221 0.0100023 
527 9.42832 0.0100243 0.0100093 
528 0.0101215 0.234313 7.41916 
529 0.0100047 4.26359 0.110108 
530 8.5333 2.19747 0.01382 
531 2.55793 0.246749 2.95186 
532 0.0129407 0.0106438 14.7796 
533 9.55979 0.0100719 0.0177161 
534 14.1242 0.023677 0.0130162 
535 0.0100271 0.0227993 10.64 
536 8.54902 0.0109314 1.88832 
537 0.0107461 0.0102128 8.01538 
538 0.0101873 0.201205 3.48247 
539 0.0838651 0.0696859 5.70719 
540 6.38617 0.0202627 0.0101647 
541 0.0113394 0.0100168 17.878 
542 0.0108633 0.0205373 5.18978 
543 0.0100096 11.5291 0.0100161 
544 1.80347 4.22695 0.172965 
545 0.0100043 3.51721 0.0100045 
546 0.0106638 0.787037 0.010007 
547 0.0695914 2.6153 6.20317 
548 2.19432 29.4653 0.0100133 
549 0.010101 2.1506 1.11873 
550 0.536772 0.0113277 0.544357 
551 0.0100324 0.0102105 13.6588 
552 0.0100021 0.010004 4.61647 
553 3.6311 11.0185 0.0100274 
554 0.01028 5.00733 0.010076 
555 3.51372 0.0100237 0.0246356 
556 0.0100015 0.0100012 0.160395 
557 0.011842 8.94728 0.0177668 
558 7.63021 20.0481 3.92113 
559 28.1322 0.882174 15.347 
560 0.218617 0.0302436 3.89212 
561 0.0100049 1.94949 3.01972 
562 7.69527 0.0100133 0.010038 
563 32.0483 0.010034 0.0100032 
564 0.249971 0.916554 0.0153367 
565 0.010002 10.669 0.0100016 
566 0.0100067 0.010015 3.37047 
567 4.39475 0.0332739 0.0365349 
568 3.50684 0.0100387 0.0119615 
569 0.0115005 0.036034 2.42022 
570 23.3874 65.1615 0.0100437 
571 0.0100078 0.0103421 2.74861 
572 9.32745 0.0163867 0.0136995 
573 0.0140714 4.98706 0.0100039 
574 0.0141773 0.0612424 13.7262 
575 0.237987 0.133172 0.237189 
576 0.0121319 0.0227898 11.6902 
577 6.68571 0.028057 0.0100012 
578 14.4488 0.133788 0.011864 
579 2.81532 0.226213 4.3043 
580 0.0100018 7.88736 0.0100015 
581 2.41953 0.166288 0.0100027 
582 0.0925846 0.010046 23.6204 
583 0.0100185 0.0100062 12.9597 
584 18.5148 0.0259431 0.102338 
585 0.0100017 9.6445 0.0105566 
586 0.0100304 0.0102192 13.0177 
587 2.47673 3.23701 4.37851 
588 0.0100352 1.80223 0.0100302 
589 1.49315 0.869852 0.782323 
590 39.3371 0.0100617 0.0100261 
591 21.7892 0.0100037 0.0100118 
592 0.0105594 3.804 0.0108166 
593 1.95706 1.36873 3.77313 
594 5.51331 0.0100104 0.0101366 
595 22.3104 0.837806 0.0570788 
596 0.0261357 8.14232 2.2321 
597 0.0138389 0.0143155 0.0391071 
598 14.8738 0.026516 0.0420223 
599 0.0100015 4.43712 30.955 
600 3.97366 22.7469 0.0152843 
601 9.02434 0.021179 1.90912 
602 4.19772 0.0154391 0.0100211 
603 0.0112289 0.0100715 2.394 
604 7.20768 0.0102138 0.0100139 
605 26.7877 0.0101686 0.0104911 
606 0.0100447 0.0100146 11.786 
607 14.5695 0.010316 0.0101111 
608 5.16034 0.0359795 2.15064 
609 0.0100075 0.0350172 8.68269 
610 0.0100039 0.0100009 1.21355 
611 0.0100064 10.2595 0.0100018 
612 0.0153901 0.0100046 4.11735 
613 0.981995 0.869394 1.52906 
614 7.15524 0.390202 0.0786477 
615 0.0100023 3.94073 0.0314939 
616 0.0100016 0.0243482 1.91212 
617 0.818906 0.102632 0.997131 
618 10.414 0.010007 0.0101031 
619 4.12836 7.90414 3.16736 
620 0.0100591 1.21316 13.8972 
621 3.06771 0.0156744 0.706537 
622 0.144851 17.5161 0.0302011 
623 1.60903 12.4922 0.0145158 
624 0.319024 0.0121692 0.0190821 
625 2.4188 3.17264 1.52613 
626 7.9923 0.0297296 8.50164 
627 0.0100207 9.83595 0.0100041 
628 6.25238 0.0100148 0.0100208 
629 1.22545 0.0100424 12.6772 
630 9.65289 0.0344131 0.0228398 
631 0.0718664 0.340177 0.0138855 
632 0.0100008 7.79914 0.0100013 
633 0.0102038 2.10937 0.0112782 
634 19.2495 0.0399831 0.0527879 
635 0.0100299 10.0902 0.0100219 
636 0.010015 0.0159406 8.56934 
637 0.111992 0.0100013 2.74833 
638 3.83127 0.01003 0.0227762 
639 0.0100146 5.18509 0.010103 
640 0.297284 0.010279 4.56307 
641 0.0100247 2.17565 0.0100173 
642 12.3163 9.01382 0.0229177 
643 0.010326 13.7713 0.0100712 
644 0.0100624 0.749706 0.0100099 
645 0.0147167 0.0112575 4.39117 
646 0.0100083 8.63872 0.0100066 
647 31.9327 0.0100203 0.0100037 
648 8.52784 0.0100751 0.0100063 
649 0.0752105 0.0124887 0.706762 
650 0.0100051 1.82504 2.56448 
651 14.1407 3.70362 8.27103 
652 16.604 0.0100158 0.0100209 
653 5.68015 0.0100103 11.1252 
654 0.010002 0.0100024 20.1669 
655 0.262958 6.16117 9.85387 
656 10.2166 0.0100097 0.0102762 
657 7.35556 0.644969 0.477544 
658 0.0100373 1.83256 0.0100301 
659 8.13659 0.048877 0.268896 
660 0.0100053 0.0101878 19.9911 
661 6.11102 0.0100242 0.0100024 
662 0.0101128 10.6872 0.0100016 
663 0.0170128 0.0114096 1.99781 
664 0.0100199 0.0163866 28.8532 
665 2.56624 0.0100038 0.0100067 
666 0.0419301 11.9622 0.0104309 
667 0.0187195 1.62572 4.92329 
668 8.06122 1.77012 0.573904 
669 0.0102225 0.0100082 3.38155 
670 6.20069 0.0100421 0.0847117 
671 18.9454 0.013986 0.0100019 
672 0.678063 0.284076 0.852266 
673 0.0100197 6.65119 0.0199957 
674 0.0100261 0.0102656 7.21332 
675 0.184119 0.01005 0.0100607 
676 0.0101884 0.0100284 8.99901 
677 0.0100155 4.77566 0.0100765 
678 8.23109 9.46468 0.681118 
679 20.0785 0.0244498 0.0100095 
680 2.08367 0.0100392 0.0100019 
681 0.240975 0.0776695 0.719442 
682 4.1037 0.0840751 0.0106157 
683 0.0100039 0.0100338 0.0571679 
684 0.0534583 4.60356 1.54945 
685 18.2961 0.0296363 0.0100028 
686 6.4393 11.2398 0.0100015 
687 0.0608853 0.116316 0.512789 
688 0.0277497 13.4602 0.0101224 
689 0.158059 20.2927 0.0100042 
690 0.0160969 0.010313 6.56322 
691 1.4732 0.134379 18.0114 
692 0.706961 5.05775 7.31744 
693 18.4127 0.010125 0.010005 
694 0.0100057 26.1896 0.0102077 
695 2.48262 0.0116769 0.044272 
696 0.153783 0.0103013 0.515989 
697 0.032597 0.0560668 10.6349 
698 1.09337 0.454276 0.31404 
699 29.1007 1.57643 11.7249 
700 4.3111 0.0100581 12.6646 
701 0.0100758 0.366055 2.00624 
702 0.0107493 0.0100061 7.00704 
703 0.072441 0.0103562 8.19533 
704 0.0107573 0.568304 0.0101686 
705 15.6513 9.7234 2.87152 
706 0.0108936 1.08021 0.0749003 
707 0.331055 0.0100034 0.0100044 
708 0.0100138 0.0101525 5.71109 
709 0.0100291 6.25563 0.0100296 
710 0.0109619 0.0151753 7.60515 
711 0.0103338 2.14305 7.84095 
712 0.0436588 10.6796 0.0541551 
713 15.2573 0.204543 0.025392 
714 2.98567 6.94575 0.0591168 
715 9.7011 3.23315 0.0117868 
716 0.0100045 11.4553 0.0100185 
717 4.42475 0.0100175 0.0100253 
718 0.0100399 0.0100022 2.31749 
719 0.0100093 5.15523 1.4806 
720 0.010025 19.7922 0.0104533 
721 2.8744 0.010004 0.0107324 
722 0.168089 0.0112878 5.44091 
723 0.609547 2.10531 5.86166 
724 0.0117701 0.695797 0.0108113 
725 2.40724 2.24134 1.21151 
726 5.37006 0.0100197 0.0100242 
727 7.30509 0.0100287 0.0126393 
728 0.0101097 5.5662 0.0178115 
729 0.0104701 4.90639 0.0289076 
730 0.010008 0.0100526 13.0343 
731 0.12028 0.0497585 0.752494 
732 18.1885 0.93135 0.010184 
733 4.09314 0.0318448 2.08582 
734 0.0100114 0.0100105 3.27814 
735 3.77215 0.184037 0.010501 
736 0.0869815 0.0116933 2.57673 
737 7.62432 0.0100885 0.288077 
738 6.34303 0.987298 5.32962 
739 0.010117 15.2077 0.010007 
740 13.4815 0.0100854 0.0100279 
741 3.07075 3.87934 3.67621 
742 11.1298 0.0100757 0.0100826 
743 0.101175 1.40308 0.0112295 
744 0.0100039 0.0551723 5.6503 
745 12.9104 7.61424 4.86759 
746 0.0100048 0.0200615 5.27008 
747 0.113944 0.0139034 2.28737 
748 0.0101879 0.0101845 25.4054 
749 0.688024 1.61763 0.421572 
750 1.36231 0.0100061 0.0100169 
751 0.0100145 0.922046 0.0100134 
752 0.0101318 0.0101185 10.2703 
753 0.101279 0.495229 4.35183 
754 10.9447 0.0100014 0.0100067 
755 0.0100197 0.0101863 1.32244 
756 4.83454 6.65459 0.010001 
757 4.22637 0.0437734 4.76706 
758 11.4473 20.4624 0.0100162 
759 0.0100268 9.58375 0.0100201 
760 2.72558 0.010057 0.010011 
761 0.0100076 0.0100073 6.1972 
762 2.09667 0.0685249 1.27845 
763 0.0100222 3.08101 0.0100163 
764 0.0580549 0.010008 0.0100155 
765 1.58989 0.0100125 0.0102628 
766 0.0100027 22.8405 0.010004 
767 8.34966 0.0217565 0.010146 
768 0.0100037 10.7494 0.0100026 
769 9.79615 0.010023 0.0100078 
770 0.0100214 8.71996 0.0100143 
771 0.0166848 4.91523 0.0211807 
772 0.0100586 0.0100399 9.27376 
773 0.0100129 0.0121487 3.68375 
774 0.0100043 11.4925 0.0100032 
775 0.566738 0.478082 0.0777783 
776 2.30455 1.40433 2.20162 
777 0.0100112 0.0101099 11.101 
778 1.26624 0.0104215 0.0105034 
779 0.0100564 10.1133 0.0100711 
780 11.1826 0.0100033 1.42562 
781 0.0100052 0.0100029 15.6262 
782 5.237 0.0217255 0.122007 
783 9.18842 0.0275697 1.58132 
784 0.0550977 0.0458716 0.0430937 
785 0.0102679 0.0443242 5.63397 
786 0.0970087 0.0173917 6.08072 
787 0.889833 0.0202054 0.224039 
788 7.95842 4.67958 6.54 
789 14.1915 0.0108873 13.04 
790 0.0105596 8.40578 0.0127369 
791 10.8243 4.84161 0.011095 
792 21.2913 0.0161231 12.6681 
793 0.0100021 5.93201 5.48689 
794 0.512694 0.322968 0.435108 
795 3.013 0.86996 0.203418 
796 1.98859 0.029852 1.67687 
797 7.38126 0.0100126 0.0100012 
798 5.65554 1.41308 1.77663 
799 1.47161 0.0295596 1.55653 
800 0.0154372 6.48304 0.0105688 
801 0.831443 0.765769 1.81382 
802 59.6042 33.0037 0.061703 
803 17.3682 19.7942 17.4692 
804 1.52039 5.09281 0.0246854 
805 0.607248 0.674096 0.349351 
806 0.0780201 0.0100805 13.3747 
807 18.7982 0.0162381 1.43441 
808 2.51859 0.010362 11.6415 
809 0.0100245 10.9404 0.0100702 
810 9.70347 0.0100185 0.0100022 
811 0.0133817 0.0100032 3.90533 
812 0.0100011 0.0100007 0.0100014 
813 15.3732 21.4567 7.77558 
814 2.90206 1.11982 0.121212 
815 2.18513 0.0100049 0.0100125 
816 2.21609 0.835194 0.368282 
817 0.0260612 0.0208811 11.8857 
818 0.0267127 0.020702 5.30283 
819 0.0344279 0.0274362 0.0305321 
820 7.85823 0.0100038 0.0100046 
821 0.0100042 13.5166 0.0100045 
822 0.0100397 9.67179 1.24379 
823 0.01156 0.0375124 23.3274 
824 1.72203 0.010004 0.0100391 
825 5.92134 0.0100393 0.0100174 
826 0.0103628 11.1675 0.021437 
827 9.96766 0.011207 0.010009 
828 7.21381 1.21851 0.0100012 
829 0.137991 25.1957 0.011049 
830 8.64997 0.0100496 0.0100028 
831 19.8535 0.0290739 0.566897 
832 0.0100023 5.38178 0.0100041 
833 0.427424 0.0100442 3.3783 
834 6.76278 0.0100254 0.0100507 
835 5.73206 0.0749771 0.116587 
836 10.162 0.799748 0.325257 
837 1.06941 0.058802 0.990576 
838 2.02474 4.09351 0.0168564 
839 15.5658 0.0100039 0.0100353 
840 0.0100035 5.86464 0.0100022 
841 0.0100024 40.8598 0.0990244 
842 17.6609 0.0180907 0.010014 
843 9.35024 0.0251598 0.0123996 
844 7.22331 4.59548 0.0198655 
845 0.0182174 19.5811 0.0358689 
846 0.0100331 0.0102848 26.3475 
847 4.94113 0.0156231 0.389904 
848 3.77625 0.871135 0.418492 
849 0.476802 4.61776 0.010012 
850 0.0100072 0.010004 1.75061 
851 0.0100223 2.94729 0.53082 
852 0.010031 2.35553 0.0100077 
853 2.29817 0.0119045 13.656 
854 9.11684 0.0405871 0.0101782 
855 0.0830004 3.81527 4.28538 
856 0.010098 4.07356 0.0101492 
857 6.49514 0.0100018 0.010003 
858 3.68095 0.0100143 0.0100279 
859 15.6157 0.0102364 0.659037 
860 0.0173674 6.937 0.0100462 
861 3.98218 0.0121205 0.0689499 
862 0.0152922 2.94786 0.0144893 
863 0.013741 3.4946 0.012058 
864 5.20038 0.0165117 0.0100286 
865 1.32343 0.187432 0.0230024 
866 0.0100066 0.0100253 18.5013 
867 0.01001 0.0100544 10.0454 
868 0.253638 2.3538 0.0103121 
869 0.131155 0.470589 0.201963 
870 0.010426 0.023277 11.4857 
871 8.08267 0.0100064 0.010026 
872 26.7618 1.0843 0.0623648 
873 0.0100622 0.0100798 7.0614 
874 4.22251 0.0199698 38.6113 
875 0.0100549 6.95606 0.0100602 
876 0.0449104 0.0102976 5.78796 
877 0.271473 6.13482 8.52514 
878 0.687587 0.589627 0.475901 
879 10.8796 0.141677 0.0512146 
880 0.0100094 0.0189311 3.01453 
881 1.66775 0.0222969 1.07968 
882 5.30933 0.0101776 15.0935 
883 0.0100115 2.67257 0.131287 
884 0.0111693 7.38673 2.79534 
885 3.55362 0.0100081 0.0100093 
886 5.06781 0.0100242 0.0100787 
887 0.0131249 0.012573 7.55951 
888 1.78858 0.722569 0.312413 
889 0.0100236 0.0100323 11.9617 
890 2.56384 0.60522 0.0523556 
891 0.0511188 20.5292 5.25813 
892 2.04709 0.0104968 0.0100128 
893 0.0100014 0.0243461 6.11086 
894 0.0100593 25.3437 3.22796 
895 4.65929 0.0101364 0.0100275 
896 0.389439 0.12952 1.54512 
897 2.60951 0.0343062 3.4096 
898 0.010044 4.0964 0.0100168 
899 4.44126 0.206689 0.299393 
900 0.0108935 0.0100019 8.27543 
901 9.41356 1.25791 0.010235 
902 1.86343 8.72657 3.18336 
903 0.0167963 19.1746 9.14006 
904 0.0186939 0.0100095 8.12592 
905 26.8412 0.0270413 0.0168899 
906 0.0607401 1.55169 18.5294 
907 6.19036 0.401546 23.0192 
908 0.0115858 4.0282 0.0143888 
909 11.2642 0.0100573 1.28268 
910 1.58535 0.0479761 0.387594 
911 0.0217537 0.0159455 0.680728 
912 0.23367 0.0182811 0.589416 
913 2.72066 4.08287 2.42669 
914 0.0100142 0.0100277 3.72324 
915 0.0102004 0.193828 0.01005 
916 1.25044 0.60501 0.112633 
917 0.0100257 0.0100134 10.1934 
918 6.41149 0.0100592 0.0100443 
919 7.79295 0.0221656 16.7471 
920 0.0100028 5.16021 0.0100291 
921 0.407419 0.0619532 0.0636614 
922 0.0102248 2.29796 0.299084 
923 22.9532 0.0101447 0.0100658 
924 11.4268 0.01002 0.0120168 
925 0.0101213 7.69853 0.0100264 
926 4.44152 0.0335115 2.50613 
927 10.4007 0.0108946 1.50313 
928 10.4274 0.538237 0.0100307 
929 0.0456953 7.83822 0.0100302 
930 0.0112552 8.02112 12.979 
931 0.0100092 0.010006 0.489448 
932 1.53878 0.0100008 0.010001 
933 3.67879 5.05107 12.1931 
934 0.010004 0.0100146 0.026862 
935 0.0101515 0.0105431 13.9528 
936 0.0102052 6.07645 1.99246 
937 7.39777 0.171834 8.95813 
938 0.0100082 0.0100054 19.879 
939 3.53525 2.98209 0.0100011 
940 2.27697 0.010067 0.0219059 
941 4.18817 0.0100278 0.0100293 
942 6.42413 8.10859 0.0136638 
943 7.14286 0.0100949 0.0100789 
944 1.0725 0.0140491 3.40908 
945 0.0100042 6.32289 0.0100047 
946 3.36008 0.0100086 0.0103185 
947 8.0974 0.0100222 0.0102687 
948 0.0101053 0.0100054 18.2314 
949 0.0100039 6.03409 0.0100086 
950 0.0100338 0.0865506 0.0101868 
951 6.10337 0.0101574 0.0104831 
952 0.0286755 0.010606 0.0120513 
953 0.010002 10.7007 0.0100186 
954 0.010069 0.0195075 5.83776 
955 6.7588 0.022706 0.0243399 
956 0.0101959 9.00083 0.0100033 
957 12.6031 1.41282 13.734 
958 0.0193834 0.0126999 25.1122 
959 0.0112805 0.0153045 29.9793 
960 6.76288 0.0154038 0.0100592 
961 9.07522 3.68488 2.16164 
962 0.110206 10.776 1.23302 
963 6.75588 9.38949 25.2948 
964 0.0100253 2.32327 0.0100215 
965 0.0134497 0.0104006 4.0078 
966 2.60775 0.0103392 0.0103345 
967 11.5877 6.63338 0.483061 
968 0.0100027 0.0520082 0.164399 
969 0.0163403 2.0487 2.04247 
970 13.0242 0.0103265 0.0100749 
971 0.0105355 0.0100012 7.25062 
972 4.52347 22.07 4.10919 
973 0.0100117 3.53547 1.25168 
974 0.455572 0.011522 0.0519136 
975 0.0104991 0.0100735 39.697 
976 0.0100048 7.6784 0.0100078 
977 0.010054 0.0103794 9.79537 
978 0.0100075 0.0100243 5.65108 
979 7.5715 0.010001 0.0100062 
980 0.0353237 0.0211684 1.19202 
981 11.6882 0.010039 1.58775 
982 9.00147 2.22218 0.424923 
983 5.04655 0.584976 1.6697 
984 7.96454 5.41594 0.0136177 
985 0.0100195 0.0100064 1.49692 
986 5.23964 12.582 5.23812 
987 1.99485 0.0100009 0.0463981 
988 12.0962 0.0100241 0.0100221 
989 8.42531 0.493494 4.48321 
990 0.0100084 1.02832 0.0100095 
991 0.0100117 2.25583 0.0100307 
992 0.0122113 1.112 10.5008 
993 9.26479 0.0189542 0.0160703 
994 2.92705 0.0102681 0.0101234 
995 0.0641782 2.78774 4.62618 
996 14.9965 7.0339 0.13389 
997 5.76304 16.2625 0.039753 
998 1.35212 0.0209733 1.65024 
999 0.0100517 3.2371 0.0100056 
1000 5.06644 7.81082 0.0142232 
1001 2.77487 0.0439788 0.631759 
1002 1.67512 0.0100013 0.247317 
1003 0.0101032 7.95101 0.0100516 
1004 0.536079 0.0189142 10.7764 
1005 0.011088 0.0101948 1.50934 
1006 0.22611 0.0500452 0.0618256 
1007 0.0100224 4.29257 5.10713 
1008 13.1933 0.016722 0.0103062 
1009 2.3299 0.0116282 0.0100194 
1010 0.0108659 0.0107503 2.92012 
1011 0.0130675 8.97647 0.0283676 
1012 0.0100524 0.0100234 6.36038 
1013 11.3278 2.37149 0.0100992 
1014 0.0532676 0.0131466 50.8722 
1015 0.480999 7.48731 16.1594 
1016 0.95236 0.779338 0.760156 
1017 0.0100021 0.0107865 6.53299 
1018 47.8641 0.0101618 12.2544 
1019 0.497792 0.315855 0.423842 
1020 0.0100675 3.87473 0.269418 
1021 3.71816 0.0100026 0.0100066 
1022 7.14328 5.88646 0.0103855 
1023 9.07115 0.0100451 0.0100493 
