Version 8.11.0
Id 
Min label:-1
Max label:0
bits:18
lda:0
0 ngram:
0 skip:
options: --cb_adf --cb_explore_adf --cb_sample --cb_type mtr --ccb_explore_adf --csoaa_ldf multiline --csoaa_rank --quadratic ::
Checksum: 1827071792
CCB: has_seen_multi_slot_example = 1
event_sum 24
action_sum 96
:0
Action^fff*User^a:431:-0.0419065
Action^fff*_id^index1:1661:-0.0547167
Slot^h*User^c:2034:-0.053061
User^a*_id^index2:2511:-0.0346798
User^c*j:3266:0.0147207
Action^e*Action^e*_id^index1:4791:0.0336553
Action^f*_id^index2:5298:0.0207869
Action^ff*Slot^i*_id^index1:9911:0.0367459
Action^e*Action^e:13082:-0.0326102
User^c*_id^index1:13730:0.0336553
Action^ff*User^a:14750:0.0367459
Action^ff*_id^index1:15948:0.0367459
Action^e*Slot^h*_id^index0:17264:0.00406375
Action^e*User^a*_id^index2:19394:-0.0433862
Action^e*User^c:20550:0.0336553
Action^ff*Action^ff*_id^index1:22111:0.0367459
j:23097:-0.0247811
_id^index1:25433:-0.0316406
User^a:25739:-0.049402
Action^d*User^c:26782:0.0157609
User^a*User^a*_id^index1:28919:-0.0289922
Action^fff*Action^fff*_id^index0:29418:-0.0330648
Slot^i*Slot^i:32658:-0.0316406
User^b*j:35132:0.0177661
User^b*_id^index1:45148:-0.0353938
Slot^i*Slot^i*_id^index1:45455:-0.0316406
Slot^i*User^b:46490:-0.0353938
User^c*User^c*_id^index0:46836:-0.053061
User^b*User^b*_id^index2:56120:0.0177661
Action^fff*User^c*_id^index0:57653:-0.053061
Action^f*Action^f*_id^index2:64262:0.0207869
_id^index0:68306:-0.0282409
Action^f*User^c:69205:0.0131875
Action^e*j*_id^index2:69868:-0.0433862
User^b:71687:-0.0206825
User^a*User^a*_id^index0:72060:0.0183053
Action^fff*Action^fff*_id^index1:72545:-0.0547167
Action^e*_id^index2:84641:-0.0433862
User^c*_id^index0:89129:-0.053061
Slot^i*User^c*_id^index1:91701:0.0336553
Action^f*Action^f:92808:0.0207869
Action^fff*_id^index0:94198:-0.0330648
Action^d*_id^index2:94841:0.0219729
Action^e*Action^e*_id^index0:97084:0.00406375
Action^fff*User^b:97571:-0.0353938
Slot^i*User^b*_id^index1:98871:-0.0353938
Action^d:100701:0.0219729
Slot^h*User^c*_id^index0:101156:-0.053061
Action^ff*Slot^i:102170:0.0367459
Slot^h:104617:-0.0282409
Action^ff*Action^ff:111266:0.0367459
Action^fff*Slot^i:112427:-0.0547167
Action^e*User^b*_id^index0:115322:0.00406375
Constant:116060:-0.0657629
Slot^i*User^a:117014:-0.0289922
User^b*User^b:117506:-0.0206825
User^a*j*_id^index2:118310:-0.0346798
Slot^i*_id^index1:118468:-0.0316406
Slot^i:119311:-0.0316406
User^b*_id^index0:121303:0.00406375
User^c*User^c*_id^index1:122751:0.0336553
Action^e*Slot^i*_id^index1:125257:0.0336553
Action^ff:126903:0.0367459
Slot^h*Slot^h*_id^index0:128980:-0.0282409
Action^d*j*_id^index2:128996:0.0219729
Action^fff*Slot^h:130445:-0.0330648
Action^f*j:131477:0.0207869
Action^e*_id^index0:135021:0.00406375
User^c*_id^index2:137701:0.0147207
User^a*j:138472:-0.0346798
Action^e*User^b:138680:0.00406375
User^a*User^a:139866:-0.049402
Action^d*User^b:140640:0.0177661
User^a*_id^index1:140680:-0.0289922
Action^f*j*_id^index2:144017:0.0207869
Action^e*User^c*_id^index1:146795:0.0336553
Action^e*Action^e*_id^index2:147184:-0.0433862
Action^f*User^a:147239:0.00817002
User^b*j*_id^index2:149098:0.0177661
Slot^h*User^b:150028:0.00406375
_id^index2:151326:-0.0247811
User^c*j*_id^index2:154232:0.0147207
User^a*User^a*_id^index2:154800:-0.0346798
j*j:155010:-0.0247811
Action^d*User^b*_id^index2:170302:0.0177661
User^b*_id^index2:171035:0.0177661
Action^e*Slot^h:171286:0.00406375
Action^fff*Action^fff:174568:-0.076867
Action^d*Action^d:177210:0.0219729
Action^fff*User^a*_id^index1:181540:-0.044523
Slot^h*Slot^h:182946:-0.0282409
Action^fff:183500:-0.076867
Action^ff*User^a*_id^index1:184547:0.0367459
Action^e*Slot^i:186288:0.0336553
User^b*User^b*_id^index1:194431:-0.0353938
Slot^i*User^c:194660:0.0336553
Action^d*User^c*_id^index2:196516:0.0157609
User^c*User^c:197378:-0.029448
Action^f*User^a*_id^index2:206203:0.00817002
Action^fff*Slot^h*_id^index0:208421:-0.0330648
Action^fff*User^c:209117:-0.053061
Action^f:209188:0.0207869
Slot^h*User^a:210560:0.0183053
Action^e:210597:-0.0326102
Action^fff*Slot^i*_id^index1:211944:-0.0547167
User^a*_id^index0:216067:0.0183053
User^c:218617:-0.029448
Action^e*j:221062:-0.0433862
Action^e*User^a:221492:-0.0433862
Action^e*_id^index1:222950:0.0336553
Action^d*j:223070:0.0219729
j*j*_id^index2:228536:-0.0247811
Slot^h*User^b*_id^index0:236086:0.00406375
Action^fff*User^b*_id^index1:236864:-0.0353938
User^b*User^b*_id^index0:237300:0.00406375
Action^fff*User^a*_id^index0:240815:0.0183053
Action^f*User^c*_id^index2:245969:0.0131875
Slot^h*User^a*_id^index0:246098:0.0183053
Slot^i*User^a*_id^index1:257787:-0.0289922
User^c*User^c*_id^index2:258872:0.0147207
Action^d*Action^d*_id^index2:260176:0.0219729
