Version 8.9.0
Id 
Min label:-1
Max label:0
bits:18
lda:0
0 ngram:
0 skip:
options: --cb_adf --cb_explore_adf --cb_sample --cb_type mtr --ccb_explore_adf --csoaa_ldf multiline --csoaa_rank --quadratic ::
Checksum: 1827071792
CCB: has_seen_multi_slot_example = 1
event_sum 24
action_sum 96
:0
Action^fff*User^a:431:-0.0419037
User^a*User^a*:1229:0.0183041
Slot^h*User^c:2034:-0.0530573
User^c*j:3266:0.0147191
:5987:-0.0282435
Action^d*User^b*:6703:0.0177621
User^b*:7946:0.0177621
Action^e*Action^e:13082:-0.0326172
Action^ff*User^a:14750:0.0367456
User^c*:16792:-0.0530573
Slot^i*Slot^i*:19526:-0.0316374
User^b*:19861:-0.0354002
Action^e*User^c:20550:0.0336545
j:23097:-0.0247718
User^a:25739:-0.0494035
Action^e*Action^e*:26253:0.00406543
Action^d*User^c:26782:0.0157592
Action^fff*:29255:-0.0330654
Action^d*User^c*:31925:0.0157592
Slot^i*Slot^i:32658:-0.0316374
User^b*j:35132:0.0177621
User^a*User^a*:36158:-0.0289888
Slot^h*User^c*:38549:-0.0530573
User^c*:39668:0.0147191
:40592:-0.0316374
Action^ff*Action^ff*:43926:0.0367456
Action^f*j*:45440:0.0207825
Slot^i*User^b:46490:-0.0354002
Action^e*Action^e*:48609:-0.0433955
Action^ff*:50053:0.0367456
User^b*:50278:0.00406543
User^b*j*:50555:0.0177621
User^c*:51307:0.0336545
:52239:-0.0247718
User^c*j*:55657:0.0147191
Action^ff*Slot^i*:56190:0.0367456
User^a*User^a*:57249:-0.0346667
Action^e*User^b*:57291:0.00406543
Slot^h*Slot^h*:60005:-0.0282435
Action^e*Action^e*:61310:0.0336545
Action^fff*:64436:-0.0547154
Action^f*User^c:69205:0.0131859
Action^e*Slot^i*:70784:0.0336545
User^b:71687:-0.020678
User^c*User^c*:74422:0.0336545
Slot^i*:78605:-0.0316374
Action^f*User^c*:82880:0.0131859
Action^e*Slot^h*:89793:0.00406543
Action^f*Action^f:92808:0.0207825
Action^fff*Action^fff*:94043:-0.0330654
User^c*User^c*:94249:0.0147191
Action^d*Action^d*:97089:0.0219684
Action^fff*User^b:97571:-0.0354002
Slot^i*User^b*:98302:-0.0354002
Action^d:100701:0.0219684
Action^ff*Slot^i:102170:0.0367456
Slot^h:104617:-0.0282435
Slot^i*User^c*:105468:0.0336545
Action^f*User^a*:108138:0.00816948
User^c*User^c*:109381:-0.0530573
Action^ff*Action^ff:111266:0.0367456
Action^fff*Slot^i:112427:-0.0547154
Constant:116060:-0.0657661
Slot^i*User^a:117014:-0.0289888
User^b*User^b:117506:-0.020678
Slot^i:119311:-0.0316374
Action^fff*Action^fff*:124584:-0.0547154
Action^ff:126903:0.0367456
Action^fff*User^c*:130180:-0.0530573
Action^fff*Slot^h:130445:-0.0330654
j*j*:130985:-0.0247718
Action^f*j:131477:0.0207825
User^b*User^b*:133814:-0.0354002
User^a*j:138472:-0.0346667
Action^e*User^b:138680:0.00406543
User^a*User^a:139866:-0.0494035
Action^d*User^b:140640:0.0177621
Action^ff*User^a*:142634:0.0367456
Action^fff*Slot^h*:144276:-0.0330654
Action^fff*User^a*:145645:-0.0445201
Action^f*User^a:147239:0.00816948
Slot^h*User^b:150028:0.00406543
User^a*:151986:0.0183041
User^b*User^b*:153641:0.0177621
j*j:155010:-0.0247718
Action^f*Action^f*:161815:0.0207825
User^b*User^b*:164677:0.00406543
Slot^h*User^b*:165767:0.00406543
User^a*:166622:-0.0346667
Action^f*:169891:0.0207825
Action^e*Slot^h:171286:0.00406543
Action^fff*Action^fff:174568:-0.0768618
Action^fff*User^a*:176414:0.0183041
Action^d*Action^d:177210:0.0219684
Action^e*User^c*:180386:0.0336545
Action^e*User^a*:182483:-0.0433955
Slot^h*Slot^h:182946:-0.0282435
Action^fff:183500:-0.0768618
Action^e*Slot^i:186288:0.0336545
User^a*:186433:-0.0289888
Slot^h*User^a*:187619:0.0183041
Slot^i*User^c:194660:0.0336545
User^c*User^c:197378:-0.0294459
Action^e*:201436:0.00406543
Slot^i*User^a*:201522:-0.0289888
Action^fff*User^c:209117:-0.0530573
Action^f:209188:0.0207825
Slot^h*User^a:210560:0.0183041
Action^e:210597:-0.0326172
User^a*j*:216375:-0.0346667
User^c:218617:-0.0294459
Action^e*j:221062:-0.0433955
Action^fff*User^b*:221321:-0.0354002
Action^e*User^a:221492:-0.0433955
Action^d*j:223070:0.0219684
Action^d*j*:226549:0.0219684
Action^e*j*:234493:-0.0433955
Action^e*:236335:0.0336545
Action^fff*Slot^i*:247329:-0.0547154
Action^e*:248240:-0.0433955
Action^d*:258408:0.0219684
