Version 9.8.0
Id 
Min label:-1
Max label:0
bits:17
lda:0
0 ngram:
0 skip:
options: --cb_adf --cb_explore_adf --cb_type mtr --csoaa_ldf multiline --csoaa_rank --interactions AA --interactions AB --interactions AC --interactions AD --interactions AE --interactions AF --interactions BB --interactions BC --interactions BD --interactions BE --interactions BF --interactions CC --interactions CD --interactions CE --interactions CF --interactions DD --interactions DE --interactions DF --interactions EE --interactions EF --interactions FF --noconstant
Checksum: 137690576
event_sum 36
action_sum 108
:0
E^236*E^642:0:-0.0262169
A^1122*A^1990:4:-0.0497007
A^3404*A^4119:11:-0.0216744
E^236*E^638:12:-0.062174
A^1122*A^2000:14:-0.00833503
A^1122*A^1971:17:-0.00882971
A^1145*A^11273:18:-0.150484
E^236*E^664:22:-0.0617435
E^1881*E^8240:23:-0.00645626
E^236*E^651:27:-0.0579299
D^47*D^5483:30:-0.0102999
E^236*E^655:31:-0.0672824
D^2984*D^9412:32:-0.0120176
E^236*E^673:33:-0.0555894
E^239*E^1881:34:-0.0215881
A^2448*A^12048:36:-0.00763143
B^1421*B^2438:37:-0.0493444
B^441*B^724:39:-0.0140662
A^144*A^1028:40:-0.00750595
A^144*A^1033:45:-0.00812429
D^1665*D^2213:46:-0.0258435
C^1029*C^2580:47:-0.0437876
D^42*D^3483:49:-0.0154741
A^468*A^613:53:-0.129059
E^246*E^4728:56:-0.0124221
E^1546*E^4337:59:-0.0139158
F^866*F^3713:63:-0.00769614
E^564*E^1690:64:-0.0471919
F^209*F^1073:66:-0.0391534
E^3825*E^5158:69:-0.0157481
B^1746*B^2322:72:-0.00132165
E^236*E^702:76:-0.070814
E^889*E^1735:78:-0.0144473
D^36*D^1099:79:-0.00580077
E^564*E^1705:81:-0.0347863
A^468*A^646:82:-0.106442
E^236*E^723:83:-0.0511198
E^236*E^726:84:-0.0535398
E^236*E^725:85:-0.00340483
A^144*A^984:92:-0.0245614
D^4277*D^6198:93:-0.185932
C^57*C^4194:97:-0.0161819
A^468*A^660:100:-0.103351
E^236*E^733:109:-0.044264
C^140*C^37562:112:-0.0691459
E^271*E^14793:114:-0.0175683
C^380*C^3307:115:-0.0353385
D^365*D^2678:117:-0.0162933
D^1342*D^3188:118:-0.0426006
E^889*E^1776:119:-0.0151465
E^236*E^750:124:-0.0115774
E^236*E^751:127:-0.0441709
E^236*E^516:130:-0.0545873
D^39*D^2125:132:-0.0204035
D^3635*D^9527:134:-0.00647539
A^1122*A^1865:135:-0.0741026
E^889*E^1540:139:-0.0247987
E^236*E^510:140:-0.059747
B^768*B^1574:142:-0.00659456
E^889*E^1546:145:-0.0222558
F^209*F^1243:148:-0.199664
A^468*A^709:149:-0.103688
C^1028*C^2298:152:-0.692806
C^4065*C^46611:154:-0.0370431
E^236*E^526:156:-0.109789
E^3825*E^5313:160:-0.0114671
C^1028*C^2350:164:-0.0988224
C^726*C^11408:168:-0.0433796
E^1214*E^1705:175:-0.0303558
E^236*E^564:178:-0.0637978
C^2655*C^2655:180:-0.0072846
F^868*F^4450:182:-0.755629
A^468*A^752:184:-0.086602
C^1062*C^15759:185:-0.0563747
C^22275*C^44966:187:-0.012112
E^236*E^558:188:-0.00219684
E^236*E^557:189:-0.039101
E^1214*E^1690:190:-0.0411873
F^2490*F^2939:193:-0.00831133
A^468*A^757:197:-0.142962
C^52*C^2016:198:-0.0857612
E^585*E^10037:204:-0.0153547
A^3404*A^3923:207:-0.0334725
B^441*B^802:213:-0.0215055
E^239*E^1933:214:-0.0124397
E^236*E^586:216:-0.0783041
B^768*B^1629:217:-0.0642156
E^1221*E^4599:218:-0.0248597
E^1221*E^4594:221:-0.0515829
D^1342*D^3298:228:-0.00637655
E^1540*E^1965:229:-0.00757979
A^3404*A^3899:231:-0.0276608
E^1546*E^4138:242:-0.0101726
F^866*F^3656:246:-0.0275012
E^236*E^617:249:-0.0735543
A^468*A^812:252:-0.0403896
C^2731*C^33393:254:-0.027279
D^36*D^1243:255:-0.00534283
B^441*B^495:256:-0.00255457
B^441*B^497:258:-0.0701743
E^1865*E^2028:259:-0.0339065
B^768*B^1712:260:-0.0136624
C^726*C^11306:262:-0.0489096
F^866*F^3513:263:-0.0259931
E^236*E^889:265:-0.0436282
E^564*E^2024:270:-0.0572571
B^117*B^1011:272:-0.0107642
B^441*B^481:274:-0.0314662
E^889*E^1933:276:-0.0123092
C^51*C^1399:280:-0.26434
D^55*D^8472:281:-0.0247538
D^41*D^3291:284:-0.201611
B^441*B^476:287:-0.027862
D^33*D^63:288:-0.063272
B^441*B^465:290:-0.00664093
A^1122*A^1765:291:-0.0581766
D^2988*D^11276:292:-0.00813366
E^1213*E^1443:294:-0.0180208
E^1540*E^1647:295:-0.0151452
D^35*D^411:298:-0.00909061
A^3751*A^13136:305:-0.0203373
D^35*D^434:307:-0.0568319
E^239*E^1647:308:-0.0172021
E^1213*E^1454:313:-0.0382473
B^441*B^441:314:-0.0357403
E^1213*E^1456:315:-0.051317
B^768*B^1654:318:-0.0436108
F^209*F^815:320:-0.0177216
F^209*F^814:321:-0.00703668
D^33*D^33:322:-0.0879654
A^1122*A^1800:326:-0.069808
E^239*E^1540:329:-0.0448032
E^1214*E^1865:335:-0.0356092
E^239*E^1546:339:-0.0221544
D^33*D^42:341:-0.0106174
E^271*E^14574:343:-0.0295183
D^33*D^55:344:-0.0215225
E^1540*E^1540:346:-0.0321185
D^33*D^50:349:-0.0776701
C^13494*C^44966:354:-0.00494877
D^35*D^489:356:-0.0117798
E^2207*E^8240:357:-0.00359145
C^1029*C^2893:360:-0.0776204
D^89*D^22746:365:-0.012689
C^1029*C^2871:370:-0.0827018
E^236*E^1011:371:-0.0268061
A^468*A^932:372:-0.134258
B^117*B^910:373:-0.0121765
E^1214*E^1890:374:-0.0123109
D^364*D^1798:378:-0.0307672
E^236*E^1003:379:-0.0504987
E^239*E^1589:382:-0.0219067
E^1213*E^1287:386:-0.0255847
D^35*D^264:389:-0.0162303
C^1029*C^2731:390:-0.0846085
D^41*D^3188:391:-0.0935621
E^564*E^1890:392:-0.0494202
D^1665*D^1798:393:-0.0244313
E^3825*E^5597:396:-0.0109528
E^236*E^768:398:-0.0551706
D^1029*D^8408:399:-0.0101217
F^209*F^992:403:-0.0110904
E^236*E^789:405:-0.0461973
A^811*A^7327:406:-0.0525989
D^33*D^236:407:-0.0594306
D^39*D^1865:408:-0.0280893
E^1865*E^1890:409:-0.0296586
C^1389*C^16487:410:-0.00626378
A^3404*A^3751:411:-0.0280821
E^1540*E^1735:415:-0.0187108
E^236*E^802:416:-0.0121581
C^1028*C^2097:417:-0.243004
B^400*B^const:418:-0.0303897
C^1028*C^2094:420:-0.0954271
E^236*E^805:421:-0.0427872
B^451*B^4615:422:-0.0623749
A^144*A^644:424:-0.0352312
A^1122*A^1643:425:-0.0329821
D^1994*D^3540:426:-0.0356641
C^384*C^4721:429:-0.0208716
E^236*E^800:430:-0.0134684
B^768*B^1796:432:-0.00392332
E^564*E^1865:433:-0.0394637
D^42*D^3615:437:-0.0273714
B^1746*B^2014:444:-0.0244635
F^867*F^4079:446:-0.0661004
A^467*A^510:447:-0.0802969
D^1342*D^3015:449:-0.0584779
D^33*D^161:450:-0.0511027
A^799*A^2820:453:-0.113415
E^6762*E^8734:454:-0.00686499
E^252*E^6762:456:-0.0372701
D^41*D^3118:457:-0.0166215
D^1665*D^1865:458:-0.0390203
A^497*A^11923:460:-0.00601664
B^117*B^1075:464:-0.00950552
A^2098*A^2564:466:-0.0948379
A^1528*A^34707:467:-0.0146346
A^468*A^1028:468:-0.0588033
D^55*D^8651:470:-0.1215
B^441*B^548:471:-0.0208127
D^33*D^182:473:-0.0824991
A^3090*A^8365:475:-0.162832
A^1122*A^1664:478:-0.102526
D^35*D^334:479:-0.0117604
A^1881*A^const:480:-0.0305178
D^35*D^354:483:-0.0289792
B^4037*B^8491:488:-0.011057
E^1214*E^2028:492:-0.0274657
E^1214*E^2024:496:-0.0355004
C^8856*C^11615:499:-0.0195722
B^441*B^514:501:-0.0511734
A^802*A^3675:505:-0.0200391
D^36877*D^36877:506:-0.0100793
A^471*A^1910:507:-0.121222
F^209*F^899:508:-0.0190695
D^52*D^7851:511:-0.0432142
E^1546*E^3772:512:-0.0160345
A^144*A^559:519:-0.0223227
D^3635*D^9133:520:-0.00432648
D^33*D^354:525:-0.0190358
D^33*D^357:526:-0.0306367
F^231*F^10505:536:-0.0598065
A^144*A^533:537:-0.02865
E^236*E^1164:538:-0.00230077
D^359*D^646:539:-0.0291399
C^13492*C^44966:540:-0.0171827
E^3845*E^13810:541:-0.0104501
C^441*C^27271:542:-0.00532364
A^799*A^2362:543:-0.0409846
C^7559*C^const:545:-0.20024
E^236*E^1188:546:-0.0816065
E^298*E^25081:547:-0.0232482
E^5158*E^18668:548:-0.0181036
D^33*D^314:549:-0.0225673
E^5158*E^18666:550:-0.020115
E^5158*E^18665:551:-0.00902374
E^1221*E^3845:552:-0.0214037
D^1342*D^3615:553:-0.0886123
B^768*B^1930:554:-0.0167164
E^2248*E^24559:555:-0.00469021
A^6018*A^8462:556:-0.00508956
F^209*F^1618:557:-0.0165351
D^41*D^3533:558:-0.0511027
E^5158*E^18656:560:-0.0183615
E^246*E^5230:562:-0.00711532
D^33*D^336:563:-0.0741849
E^1223*E^4728:565:-0.0134402
D^35*D^183:566:-0.01232
E^236*E^1193:569:-0.00981011
E^236*E^1196:570:-0.00526155
E^564*E^2259:571:-0.00538647
E^1865*E^2248:575:-0.0297763
D^33*D^286:577:-0.111045
A^1122*A^1540:578:-0.0855435
E^638*E^32020:580:-0.0167048
E^236*E^1221:581:-0.00711708
E^269*E^14387:582:-0.0500932
B^768*B^2031:583:-0.0378938
B^1746*B^1810:584:-0.0167778
E^1214*E^2126:586:-0.0434381
E^236*E^1214:588:-0.0402226
E^236*E^1213:589:-0.102693
D^33*D^293:590:-0.0641019
F^543*F^4199:594:-0.0780837
A^1455*A^4550:595:-0.0691324
D^33*D^298:597:-0.0296791
A^802*A^3512:598:-0.0423347
A^1122*A^1530:600:-0.0686198
D^690*D^2028:602:-0.0749149
D^42*D^3013:603:-0.00884936
D^42*D^3015:605:-0.014079
F^209*F^1573:606:-0.0105528
C^1024*C^1062:608:-0.0781143
E^1214*E^2166:610:-0.0378896
C^126*C^31415:617:-0.0328815
E^3503*E^6120:621:-0.00618407
D^733*D^const:626:-0.152656
A^1122*A^1557:627:-0.00935919
B^1750*B^3530:628:-0.0149836
A^3404*A^3525:637:-0.0225073
D^33*D^276:639:-0.031171
D^1029*D^8651:640:-0.0104198
D^55*D^8318:643:-0.073218
C^55*C^2903:644:-0.0178609
D^2658*D^9527:645:-0.00550899
E^1865*E^2166:653:-0.0252934
D^1342*D^3737:659:-0.0171575
D^117*D^34095:660:-0.00800828
E^1540*E^2495:663:-0.0280327
E^236*E^1036:666:-0.0253632
D^33*D^504:667:-0.0315907
C^3006*C^const:668:-0.0612974
E^236*E^1040:670:-0.0072991
C^51*C^2298:671:-0.738626
D^35*D^36:673:-0.0901091
E^236*E^1059:675:-0.0215487
C^55*C^2871:676:-0.0476929
D^41*D^3410:677:-0.032854
E^236*E^1063:679:-0.0401728
A^144*A^388:680:-0.0156475
A^1160*A^16893:681:-0.0447802
E^889*E^2083:682:-0.0202058
E^564*E^2115:683:-0.0340087
B^1422*B^3291:685:-0.0437597
E^236*E^1056:686:-0.0521773
C^55*C^2878:687:-0.00970419
E^564*E^2126:692:-0.0130024
E^2563*E^20228:693:-0.0161893
C^1029*C^2940:695:-0.0807215
D^41*D^3390:697:-0.0296229
E^1865*E^2115:698:-0.0270642
D^359*D^550:699:-0.0246021
D^41*D^3386:701:-0.12557
A^144*A^374:702:-0.095158
B^441*B^1340:703:-0.0187202
D^359*D^593:704:-0.0326821
C^55*C^2841:706:-0.0121042
D^41*D^3384:707:-0.0159245
D^33*D^411:708:-0.0522774
E^1214*E^2259:709:-0.0250466
D^697*D^5733:710:-0.146736
E^236*E^1081:713:-0.0230912
B^441*B^1321:714:-0.0472382
E^1214*E^2248:720:-0.0615892
D^33*D^430:721:-0.0133784
E^236*E^1110:724:-0.0509457
A^144*A^338:730:-0.0108813
E^2207*E^8066:731:-0.00849748
D^359*D^580:733:-0.0333554
C^55*C^2812:737:-0.0207435
B^117*B^773:738:-0.0256352
E^236*E^1126:740:-0.0421111
F^1519*F^4164:741:-0.0280582
C^37562*C^44781:743:-0.00691093
A^4119*A^30665:744:-0.00957818
D^35*D^92:745:-0.0148576
A^799*A^2607:746:-0.0103036
E^236*E^1118:748:-0.0406713
F^868*F^3885:749:-0.146201
D^33*D^389:750:-0.00606042
E^1221*E^4045:752:-0.0304381
F^209*F^1664:755:-0.0354997
A^3404*A^3404:756:-0.0123904
B^182*B^27819:757:-0.00866432
B^117*B^785:758:-0.0391413
E^236*E^1130:760:-0.0445597
F^231*F^10726:763:-0.0154369
A^144*A^312:764:-0.028253
E^236*E^1133:765:-0.0434904
E^236*E^1136:766:-0.0558387
F^866*F^3137:767:-0.0151501
E^239*E^2107:768:-0.0218738
E^1865*E^2538:769:-0.0298379
C^61*C^6479:770:-0.010483
B^441*B^1011:772:-0.0400453
E^1214*E^2323:773:-0.0349658
E^236*E^1416:774:-0.061982
B^767*B^802:775:-0.00872916
D^1994*D^2933:779:-0.0180639
F^209*F^1394:781:-0.0350973
E^564*E^2538:784:-0.0495259
E^1540*E^2107:787:-0.0156787
B^441*B^995:788:-0.00415086
A^799*A^2099:790:-0.0354559
A^799*A^2098:791:-0.0054842
E^236*E^1417:793:-0.0460702
C^1028*C^1403:795:-0.189032
A^5741*A^28208:799:-0.247895
D^33*D^575:800:-0.0434306
B^767*B^767:802:-0.038703
F^867*F^4450:803:-0.0251572
E^1221*E^3577:804:-0.0251594
F^1520*F^5477:809:-0.0441716
D^697*D^5500:815:-0.0240291
D^33*D^591:816:-0.0409747
D^1342*D^3384:818:-0.00858094
E^889*E^2477:820:-0.0216632
D^1342*D^3380:822:-0.0315408
B^117*B^464:823:-0.00680456
D^1012*D^1454:826:-0.0258378
A^480*A^6147:827:-0.0678107
E^236*E^1454:828:-0.00715429
E^236*E^1456:830:-0.0496443
E^236*E^1455:831:-0.0698295
A^144*A^234:834:-0.00406925
E^1865*E^2477:836:-0.0165258
D^50*D^5991:837:-0.0214997
A^802*A^3272:838:-0.00934194
E^236*E^1479:839:-0.0476865
A^520*A^20698:842:-0.00526097
D^1342*D^3386:844:-0.0328945
C^57*C^3894:845:-0.0704566
C^384*C^5012:846:-0.0141114
E^1540*E^2071:847:-0.0218275
E^564*E^2477:853:-0.0283705
E^239*E^2071:860:-0.0212193
A^144*A^217:861:-0.0392566
E^1214*E^2362:862:-0.0400865
A^1127*A^3137:864:-0.0403275
E^1546*E^3993:867:-0.0118661
C^1024*C^1321:869:-0.0837181
D^110*D^31214:872:-0.0329193
E^564*E^2433:873:-0.0197181
F^209*F^1304:875:-0.0285237
D^110*D^31213:879:-0.0373098
D^359*D^481:880:-0.0167119
D^42*D^3298:888:-0.0370689
D^365*D^1898:889:-0.00109796
F^209*F^1288:891:-0.0255319
D^33*D^533:894:-0.0307539
A^144*A^183:895:-0.00951771
B^117*B^613:898:-0.0305565
F^209*F^1520:899:-0.0478415
C^4937*C^5295:902:-0.00598365
B^130*B^5593:903:-0.0247551
D^50*D^6047:909:-0.0503589
D^358*D^644:910:-0.00938023
E^236*E^1298:912:-0.0667817
B^117*B^629:914:-0.282975
F^209*F^1504:915:-0.0383288
D^1342*D^3474:916:-0.0106089
B^768*B^2334:918:-0.0226022
E^1214*E^2433:919:-0.0195003
B^117*B^620:923:-0.0177753
A^802*A^3198:924:-0.0663341
A^1122*A^1122:928:-0.0571757
E^1865*E^2380:931:-0.103794
A^468*A^468:932:-0.111343
B^117*B^574:933:-0.0269465
C^51*C^2097:934:-0.259028
E^236*E^1305:937:-0.022441
E^1214*E^2477:939:-0.024755
E^1865*E^2362:945:-0.120948
E^564*E^2380:946:-0.0376877
C^3317*C^6827:950:-0.0092224
E^236*E^1335:951:-0.0447392
C^726*C^10622:954:-0.0568395
C^413*C^16056:955:-0.0166228
D^36*D^1434:958:-0.00559691
B^117*B^546:961:-0.126705
B^117*B^549:962:-0.0119114
E^236*E^1350:964:-0.0422491
A^1122*A^1160:966:-0.0487699
A^497*A^11413:974:-0.138753
C^52*C^1778:976:-0.0488781
A^468*A^518:978:-0.0896853
B^802*B^15240:982:-0.0315907
F^209*F^1449:986:-0.0593117
E^1221*E^3825:988:-0.142591
A^468*A^534:994:-0.10036
A^1122*A^1189:995:-0.0888759
B^117*B^511:996:-0.0644706
D^359*D^364:997:-0.0257606
D^443*D^34095:998:-0.00400118
D^42*D^3188:1002:-0.023338
E^1214*E^2538:1006:-0.0405292
E^236*E^1394:1008:-0.00628676
B^117*B^533:1010:-0.00562115
E^1540*E^2207:1015:-0.0114691
B^768*B^2362:1018:-0.0212845
D^33*D^664:1019:-0.0641698
E^236*E^1389:1021:-0.044455
C^61*C^4686:1025:-0.0107759
B^117*B^222:1029:-0.0511369
D^33*D^871:1032:-0.0539981
B^817*B^20193:1034:-0.114516
B^117*B^215:1036:-0.0251922
E^1287*E^32020:1041:-0.00665104
C^1028*C^1150:1044:-0.180965
E^1214*E^2563:1045:-0.0332758
C^45*C^307:1046:-0.00217557
B^117*B^231:1052:-0.0448262
B^117*B^233:1054:-0.0177343
E^1214*E^2614:1058:-0.0117793
D^2988*D^10008:1064:-0.00682252
C^54*C^3951:1065:-0.022969
B^117*B^189:1066:-0.036281
D^690*D^3474:1072:-0.0213537
D^359*D^1183:1074:-0.0114825
A^152*A^5334:1078:-0.0136624
C^45*C^276:1079:-0.290872
E^560*E^1189:1081:-0.110209
C^45*C^264:1083:-0.0236544
E^585*E^11205:1084:-0.0179201
B^1156*B^27819:1087:-0.00942595
E^239*E^2812:1089:-0.00141217
F^1519*F^5863:1090:-0.0281494
A^144*A^2031:1095:-0.0185181
A^468*A^1664:1096:-0.140621
E^1263*E^20228:1097:-0.0121139
D^33*D^802:1101:-0.0573242
D^4608*D^9527:1103:-0.054814
C^45*C^365:1104:-0.00790919
E^1540*E^2812:1106:-0.038902
D^690*D^3562:1112:-0.0158323
D^1342*D^2123:1117:-0.0333127
C^1032*C^2731:1119:-0.067515
C^9840*C^13494:1120:-0.00740017
B^1422*B^1823:1121:-0.0560789
C^1024*C^1575:1123:-0.0638371
C^51*C^755:1124:-0.238898
B^117*B^125:1130:-0.0143817
C^1024*C^1557:1137:-0.160871
D^36*D^102:1138:-0.164182
D^69*D^15455:1140:-0.0211477
D^364*D^3069:1141:-0.0240655
C^1024*C^1566:1144:-0.0393805
B^768*B^2493:1145:-0.0150308
D^690*D^3533:1147:-0.0216067
C^1032*C^2697:1149:-0.00537044
B^464*B^10916:1152:-0.0350316
E^246*E^3772:1156:-0.0180234
D^1665*D^3069:1158:-0.0103793
C^1024*C^1486:1160:-0.0730025
B^117*B^348:1163:-0.070626
D^697*D^4123:1164:-0.0413467
D^1422*D^36203:1165:-0.030062
D^36*D^138:1166:-0.0108489
A^1127*A^3090:1167:-0.0275494
C^52*C^946:1168:-0.0784202
D^764*D^31407:1171:-0.00713889
B^438*B^459:1173:-0.0134943
A^1455*A^6018:1175:-0.0378928
D^359*D^1028:1181:-0.0530143
D^36*D^184:1184:-0.0363407
D^41*D^1881:1186:-0.0437577
F^1509*F^1618:1193:-0.022325
D^33*D^963:1196:-0.00656888
A^1455*A^6057:1200:-0.0226466
D^359*D^1056:1201:-0.0349907
E^1223*E^4337:1202:-0.0169137
A^2099*A^3410:1203:-0.0110227
F^868*F^5477:1205:-0.0079572
D^33*D^973:1206:-0.0063328
D^1342*D^2229:1207:-0.0329495
C^1350*C^2096:1208:-0.0279145
A^1455*A^6060:1213:-0.0181631
D^359*D^1059:1214:-0.0592106
C^45*C^140:1215:-0.442449
E^1221*E^5597:1216:-0.0156023
D^358*D^968:1226:-0.0147704
B^117*B^284:1227:-0.033369
D^1342*D^2234:1228:-0.0158157
E^1865*E^2614:1229:-0.0281013
D^1342*D^2262:1232:-0.0210006
C^45*C^238:1233:-0.127688
A^812*A^7052:1236:-0.0316689
D^1029*D^9095:1244:-0.0482388
C^1028*C^1335:1247:-0.227139
D^1339*D^2986:1251:-0.00821006
B^117*B^255:1252:-0.0176823
E^239*E^2974:1255:-0.0260743
D^690*D^3386:1256:-0.0403802
E^564*E^2563:1259:-0.0381289
F^1509*F^1560:1263:-0.0958936
D^690*D^3410:1264:-0.00432242
C^1024*C^1429:1265:-0.0744514
D^3298*D^4038:1268:-0.0186914
E^1865*E^2563:1274:-0.0222088
D^1665*D^3192:1275:-0.0232953
E^560*E^1122:1276:-0.0488376
D^36*D^221:1277:-0.0101979
C^54*C^3655:1281:-0.0470528
A^802*A^2820:1282:-0.108288
A^2099*A^3272:1285:-0.0105967
F^1509*F^1520:1287:-0.0428742
A^797*A^811:1288:-0.106378
E^1221*E^5158:1289:-0.045894
E^246*E^3910:1290:-0.0105405
D^33*D^1122:1293:-0.0832397
F^1509*F^1528:1295:-0.046493
C^45*C^45:1296:-0.375884
A^468*A^1865:1297:-0.111398
C^1029*C^3864:1299:-0.0310897
B^466*B^10050:1304:-0.00883879
E^3536*E^18535:1307:-0.0178044
D^33*D^1141:1310:-0.0175995
A^2098*A^3410:1312:-0.0890573
D^1009*D^1264:1315:-0.00383206
E^889*E^2974:1317:-0.0144315
E^564*E^3008:1318:-0.0534432
E^1865*E^3027:1322:-0.0374311
B^1746*B^3184:1326:-0.0034645
A^157*A^7541:1330:-0.0131687
C^52*C^1293:1333:-0.0774628
E^271*E^const:1334:-0.0213052
E^1865*E^3008:1335:-0.0311297
F^229*F^8387:1336:-0.00874912
D^33*D^1110:1337:-0.0301108
E^564*E^3027:1339:-0.0288122
C^1029*C^3841:1340:-0.00845508
B^1100*B^5401:1345:-0.0739826
A^802*A^2757:1347:-0.194807
A^144*A^1765:1353:-0.0302764
D^702*D^6080:1354:-0.0566406
C^62*C^5295:1361:-0.00641623
C^44966*C^const:1364:-0.0808884
C^9840*C^const:1366:-0.244223
D^39*D^2938:1367:-0.0101575
E^1589*E^20770:1373:-0.00716562
C^45*C^107:1374:-0.217458
C^45*C^64:1379:-0.380773
E^585*E^10894:1381:-0.00543475
D^358*D^1127:1385:-0.00682796
D^33*D^1029:1390:-0.0135162
D^39*D^2977:1392:-0.00970138
C^62*C^5259:1405:-0.00535448
C^64*C^7559:1411:-0.0809733
E^3536*E^18666:1412:-0.019285
E^3536*E^18665:1413:-0.00741976
E^3536*E^18668:1414:-0.0148807
C^1029*C^3756:1415:-0.0230507
E^5492*E^20770:1416:-0.00924039
D^690*D^3615:1421:-0.0257513
E^250*E^7420:1424:-0.075697
E^3825*E^4594:1425:-0.00970982
E^3536*E^18656:1426:-0.117039
E^3825*E^4599:1430:-0.0106857
C^51*C^514:1431:-0.314586
E^3536*E^18661:1433:-0.00385663
C^1059*C^const:1437:-0.102504
C^1024*C^1731:1439:-0.0871391
C^381*C^2735:1442:-0.0385484
D^33*D^1213:1446:-0.0693202
D^3380*D^36832:1448:-0.0116049
C^52*C^1145:1449:-0.0700791
C^1024*C^1776:1450:-0.00753605
D^3380*D^36831:1451:-0.203298
D^39*D^2933:1452:-0.0131682
D^1345*D^4962:1453:-0.0067847
D^33*D^1232:1459:-0.0418745
A^144*A^1664:1460:-0.0298593
E^1546*E^5492:1464:-0.011172
B^1422*B^1511:1465:-0.0282419
D^33*D^1237:1470:-0.0188696
C^1033*C^3250:1473:-0.0483084
E^1214*E^3027:1477:-0.0389474
D^3298*D^4345:1479:-0.0631835
C^62*C^5402:1486:-0.0370745
C^1024*C^1655:1491:-0.0101168
E^1214*E^3008:1496:-0.0466385
C^61*C^4731:1502:-0.00577833
D^1342*D^2025:1507:-0.0297263
D^1339*D^3247:1510:-0.00921654
E^246*E^3993:1511:-0.0133333
F^868*F^5678:1514:-0.0665556
E^1221*E^5313:1516:-0.0266805
F^236*F^10494:1522:-0.0606451
D^364*D^2938:1526:-0.0245704
C^1029*C^3772:1527:-0.095781
D^33*D^1173:1534:-0.0137387
E^1881*E^8734:1541:-0.00447147
C^52*C^540:1546:-0.0798378
C^52*C^533:1549:-0.187205
C^1024*C^2131:1551:-0.17748
D^359*D^1665:1552:-0.0209486
E^2234*E^18873:1555:-0.140349
B^133*B^9217:1558:-0.0947599
A^144*A^1557:1561:-0.028773
E^642*E^33705:1563:-0.0110371
C^1029*C^4132:1567:-0.0700039
D^33*D^1342:1569:-0.0318902
A^144*A^1546:1570:-0.0285453
D^1994*D^2125:1571:-0.0279999
F^209*F^587:1572:-0.0246083
E^889*E^3231:1574:-0.00320593
E^560*E^683:1575:-0.00779055
E^8066*E^10873:1579:-0.00714517
B^768*B^2949:1585:-0.0213529
A^144*A^1536:1588:-0.159647
A^468*A^1122:1590:-0.0740167
E^8066*E^10894:1598:-0.00286744
E^8066*E^10983:1605:-0.00928935
D^33*D^1308:1607:-0.0157479
F^4450*F^7915:1609:-0.627791
E^564*E^3236:1610:-0.0219583
C^1024*C^2065:1613:-0.0252061
E^586*E^11205:1615:-0.0218429
A^468*A^1160:1616:-0.0732048
D^359*D^1727:1618:-0.0326588
D^359*D^1725:1620:-0.0235107
B^1421*B^2009:1622:-0.129023
C^23213*C^30437:1624:-0.0464343
C^55*C^3762:1627:-0.0127925
D^1009*D^1411:1628:-0.00500349
D^42*D^2028:1634:-0.0127282
D^690*D^3013:1635:-0.0692103
A^1127*A^2362:1639:-0.0106937
D^47*D^3841:1640:-0.0166153
C^380*C^3811:1643:-0.00606797
E^6442*E^9799:1645:-0.0128645
F^209*F^507:1652:-0.0350239
A^468*A^1189:1653:-0.128065
E^246*E^4138:1654:-0.0114345
C^1350*C^1513:1655:-0.116012
E^236*E^236:1658:-0.0601512
C^69*C^10369:1660:-0.00795424
D^33*D^1298:1661:-0.016071
F^867*F^5678:1663:-0.0788353
F^209*F^747:1668:-0.0339785
F^209*F^758:1673:-0.0116267
A^2490*A^30665:1679:-0.00996371
E^3825*E^3825:1680:-0.00810958
A^799*A^3512:1681:-0.0235809
D^36*D^638:1690:-0.0312212
A^152*A^5741:1705:-0.00341456
E^1214*E^3236:1716:-0.0191654
A^520*A^21901:1721:-0.00419618
E^1546*E^4728:1724:-0.0110539
E^246*E^4337:1727:-0.0156374
D^1009*D^1295:1728:-0.00573593
D^365*D^3266:1729:-0.00130989
D^1009*D^1297:1730:-0.00417436
C^2655*C^4111:1732:-0.107297
D^33*D^1434:1733:-0.0143416
C^11177*C^27279:1734:-0.147331
F^209*F^695:1736:-0.177999
B^773*B^5197:1738:-0.042232
B^1458*B^15925:1739:-0.00577103
D^41*D^2339:1748:-0.0155001
A^802*A^2362:1752:-0.24218
E^1540*E^3457:1753:-0.0293292
A^1127*A^2534:1755:-0.0279123
C^1032*C^3325:1761:-0.0166735
A^1443*A^1590:1767:-0.132479
E^269*E^const:1768:-0.298654
C^1045*C^10369:1772:-0.0257216
B^74*B^const:1776:-0.021841
C^1024*C^1943:1779:-0.00508075
E^8734*E^16063:1785:-0.00346582
E^2849*E^4337:1792:-0.0118078
E^586*E^10873:1795:-0.0138281
E^1223*E^3910:1799:-0.0113987
E^236*E^378:1800:-0.0492039
D^3291*D^3380:1801:-0.0925489
D^3291*D^3384:1805:-0.064148
E^586*E^10894:1814:-0.00662589
A^471*A^471:1818:-0.155674
D^1009*D^1776:1827:-0.00625275
A^1443*A^2039:1830:-0.0558751
E^1865*E^3536:1831:-0.0189635
A^144*A^1288:1836:-0.018043
B^475*B^15171:1842:-0.0184215
F^209*F^320:1843:-0.00779679
E^236*E^438:1844:-0.00844274
E^564*E^3536:1846:-0.0156824
A^467*A^1910:1847:-0.0946266
D^33*D^1623:1848:-0.206127
F^209*F^302:1857:-0.00448777
C^1024*C^2311:1859:-0.0806643
E^236*E^454:1860:-0.077349
E^586*E^10946:1866:-0.0101361
D^35*D^954:1867:-0.185426
C^1032*C^2971:1871:-0.00365754
D^42*D^2234:1872:-0.00702591
F^209*F^295:1880:-0.00943167
A^471*A^535:1882:-0.067379
E^236*E^464:1886:-0.063584
D^1665*D^3540:1887:-0.0150001
E^13*E^40982:1889:-0.0139909
E^560*E^1007:1891:-0.0458697
E^3825*E^3845:1892:-0.017038
B^1756*B^6762:1894:-0.0433127
E^8066*E^11205:1895:-0.009453
F^209*F^278:1897:-0.0302607
E^236*E^478:1900:-0.0557464
E^586*E^10983:1901:-0.0214647
F^209*F^277:1902:-0.0559662
E^8395*E^13810:1903:-0.00624109
E^236*E^497:1905:-0.072056
D^3291*D^3386:1907:-0.102891
D^3291*D^3390:1911:-0.00364255
C^1350*C^1776:1912:-0.109653
D^359*D^1511:1914:-0.0359509
D^359*D^1506:1919:-0.0288391
A^799*A^3272:1921:-0.030878
A^2762*A^6912:1926:-0.0325124
B^768*B^3370:1930:-0.0886327
C^1024*C^2260:1934:-0.0240333
C^1029*C^4276:1935:-0.0600902
D^3641*D^14007:1936:-0.00364484
D^3291*D^3483:1938:-0.0318897
A^802*A^2167:1941:-0.438143
F^2490*F^2769:1943:-0.0395673
D^3008*D^const:1945:-0.20601
F^866*F^1821:1947:-0.0223001
E^236*E^269:1949:-0.0842589
E^236*E^271:1951:-0.109486
D^1994*D^1994:1952:-0.0493309
E^236*E^293:1957:-0.10717
B^773*B^5424:1959:-0.108073
F^866*F^1802:1960:-0.0202699
A^1127*A^2293:1964:-0.0564364
E^1890*E^13810:1970:-0.012056
E^236*E^309:1973:-0.06294
B^724*B^const:1974:-0.0214812
E^236*E^298:1976:-0.0364464
E^236*E^297:1977:-0.0243527
A^2099*A^3675:1978:-0.0129663
A^2107*A^4546:1979:-0.0124681
E^3825*E^4045:1980:-0.00880314
E^236*E^301:1981:-0.0230594
D^1339*D^3815:1982:-0.00696271
E^1214*E^3536:1992:-0.0284078
F^209*F^438:1993:-0.00863007
A^144*A^1122:1994:-0.0157129
C^52*C^726:1996:-0.00575891
A^468*A^1530:1998:-0.0437397
C^1029*C^4340:1999:-0.069564
E^236*E^339:2003:-0.0885951
E^236*E^342:2004:-0.0289626
E^298*E^24559:2005:-0.01721
F^866*F^1897:2007:-0.0121777
A^1557*A^const:2012:-0.518151
E^2248*E^25081:2013:-0.0226293
F^229*F^8744:2015:-0.0194748
D^3291*D^3533:2016:-0.0704356
D^1659*D^1772:2017:-0.0203665
C^69*C^10247:2018:-0.0206894
E^239*E^3231:2020:-0.0324375
E^236*E^360:2022:-0.0566945
C^1024*C^2221:2025:-0.0407139
E^1223*E^3993:2026:-0.0298443
C^1024*C^2223:2027:-0.073888
C^1024*C^2226:2028:-0.0326136
F^866*F^1871:2029:-0.0171056
D^1339*D^3741:2032:-0.00381966
C^1024*C^2202:2036:-0.0224782
E^1540*E^3231:2039:-0.0242272
A^811*A^6708:2041:-0.01052
D^52*D^6319:2043:-0.0364894
E^236*E^365:2045:-0.089907
B^464*B^11206:2046:-0.00543254
A^140*A^1500:2052:-0.0191451
D^365*D^4608:2063:-0.0116253
D^46*D^3010:2068:-0.0720598
D^85*D^18778:2081:-0.0270045
B^144*B^10050:2082:-0.0336711
E^8081*E^18535:2086:-0.0172212
E^1213*E^3231:2090:-0.00234103
B^111*B^842:2095:-0.0116599
D^3641*D^10008:2099:-0.00393877
D^357*D^1342:2101:-0.00813041
B^112*B^1326:2102:-0.164129
C^51*C^3736:2105:-0.0893427
E^276*E^18873:2113:-0.0201213
A^140*A^1557:2125:-0.0271219
C^1024*C^2580:2126:-0.0335077
A^152*A^2293:2129:-0.00476442
D^357*D^1308:2131:-0.00869024
B^125*B^2514:2137:-0.00857547
A^152*A^2298:2138:-0.00606442
A^2107*A^3752:2141:-0.0136394
B^111*B^785:2144:-0.0169247
A^140*A^1533:2149:-0.0150351
A^140*A^1530:2150:-0.262664
A^464*A^1028:2152:-0.0378255
D^767*D^31407:2154:-0.0161983
E^309*E^32020:2159:-0.0169127
B^1801*B^22414:2161:-0.0161871
D^39*D^4254:2163:-0.0244901
A^464*A^1025:2165:-0.0134009
A^140*A^1546:2166:-0.0269127
D^1342*D^5237:2167:-0.0194276
B^111*B^760:2169:-0.0218959
E^236*E^2563:2179:-0.0342853
A^465*A^1530:2181:-0.0420326
A^1455*A^2942:2187:-0.048374
E^8421*E^20228:2191:-0.0411754
F^866*F^1573:2195:-0.047191
A^3404*A^6060:2196:-0.00739831
D^41*D^4962:2197:-0.0577911
C^1033*C^2016:2199:-0.0711525
B^1100*B^2036:2204:-0.00603065
E^1221*E^6578:2205:-0.0277049
C^55*C^1335:2212:-0.0104058
D^4608*D^6609:2213:-0.00150226
E^8081*E^18656:2223:-0.0146077
B^111*B^702:2227:-0.0612428
E^236*E^2614:2228:-0.0433708
E^8081*E^18665:2232:-0.00718048
E^8081*E^18666:2233:-0.0186606
E^8081*E^18668:2235:-0.014404
A^3404*A^6018:2238:-0.0165235
D^45*D^2800:2239:-0.00266575
B^111*B^678:2251:-0.00398499
D^3291*D^4345:2252:-0.0276437
D^357*D^1465:2254:-0.0294286
D^364*D^4254:2258:-0.059223
C^1024*C^2423:2259:-0.0413212
A^464*A^929:2261:-0.035661
E^3825*E^7351:2262:-0.014361
A^464*A^927:2263:-0.0163202
B^111*B^668:2269:-0.0483949
B^451*B^2874:2291:-0.0080353
B^111*B^629:2308:-0.053321
C^1024*C^2893:2313:-0.0594098
E^973*E^33705:2316:-0.0156883
B^111*B^620:2317:-0.0224622
C^1024*C^2871:2323:-0.0460757
F^1519*F^6577:2328:-0.118241
F^1509*F^2533:2330:-0.00560463
A^465*A^1160:2331:-0.0266679
C^2350*C^8857:2335:-0.0328279
B^1100*B^2362:2342:-0.0220343
C^54*C^617:2343:-0.0066575
F^1519*F^6527:2346:-0.0054106
B^2464*B^27819:2347:-0.0933375
D^357*D^1623:2348:-0.00665483
C^380*C^933:2357:-0.00199978
C^1674*C^2731:2361:-0.0574529
A^465*A^1189:2366:-0.0485991
D^45*D^2311:2372:-0.00681631
E^236*E^3008:2382:-0.032621
B^1100*B^2344:2384:-0.00802288
B^1100*B^2343:2387:-0.019872
F^231*F^8251:2390:-0.0111719
A^464*A^799:2391:-0.00456122
B^451*B^2509:2400:-0.0121107
B^111*B^526:2403:-0.00881233
E^276*E^18656:2406:-0.0409031
A^1132*A^3675:2407:-0.0183487
E^276*E^18661:2413:-0.0104464
E^276*E^18666:2416:-0.0522319
E^276*E^18665:2417:-0.0201038
D^3291*D^3899:2418:-0.0403273
D^1665*D^4075:2420:-0.0229854
E^6762*E^10894:2422:-0.00353712
A^140*A^1288:2424:-0.0160576
A^465*A^1122:2429:-0.028085
D^364*D^4075:2439:-0.0532789
D^42*D^5651:2441:-0.014884
C^3659*C^16093:2442:-0.0435799
A^464*A^616:2444:-0.0777296
C^1024*C^2771:2447:-0.047248
B^112*B^911:2455:-0.0103863
A^156*A^3960:2456:-0.0491882
A^140*A^1127:2459:-0.0432141
A^140*A^1122:2462:-0.0978873
B^111*B^464:2465:-0.012766
E^10037*E^16063:2482:-0.00605004
E^586*E^8240:2484:-0.0139376
E^252*E^4728:2502:-0.0314385
C^55*C^1059:2504:-0.0335235
D^411*D^18871:2510:-0.0389755
D^3298*D^3298:2512:-0.00919258
A^1455*A^2632:2513:-0.0587932
F^2534*F^22361:2523:-0.0183988
A^140*A^1189:2525:-0.0459103
B^112*B^995:2531:-0.0305146
D^1029*D^6319:2532:-0.0217058
C^1024*C^2731:2535:-0.0647412
E^1298*E^33705:2539:-0.00871341
D^1417*D^31213:2542:-0.0596235
E^276*E^18535:2543:-0.118888
B^19584*B^const:2546:-0.272234
A^140*A^1160:2552:-0.186669
B^762*B^1196:2554:-0.0586495
B^465*B^12339:2556:-0.0191036
D^690*D^4003:2561:-0.102064
E^586*E^8066:2570:-0.0266974
B^112*B^787:2579:-0.0174595
C^1024*C^3132:2582:-0.0188057
E^239*E^339:2584:-0.0702464
D^45*D^2126:2589:-0.00702439
C^1029*C^1029:2592:-0.127899
E^236*E^3236:2594:-0.0151873
B^108*B^215:2595:-0.0261062
A^464*A^464:2596:-0.0223542
A^156*A^3370:2598:-0.082782
B^773*B^1964:2603:-0.055875
F^868*F^6125:2605:-0.0449535
D^357*D^857:2606:-0.00846396
E^236*E^3231:2607:-0.0167702
E^239*E^363:2608:-0.0124693
B^108*B^233:2609:-0.235067
B^108*B^234:2614:-0.0713115
D^357*D^836:2619:-0.0265407
C^1028*C^3736:2622:-0.0837983
C^390*C^4721:2623:-0.00628192
A^2526*A^const:2625:-0.7301
D^697*D^3811:2628:-0.0314315
E^560*E^1751:2635:-0.00701952
D^23196*D^26948:2636:-0.00332998
A^464*A^553:2637:-0.0140991
A^464*A^550:2638:-0.00527227
F^1509*F^2232:2639:-0.0501702
B^111*B^1313:2640:-0.0268392
E^239*E^271:2644:-0.0868272
D^357*D^801:2646:-0.0406813
C^55*C^691:2648:-0.0363681
D^357*D^802:2649:-0.0718548
A^465*A^1865:2650:-0.0405035
D^5942*D^const:2655:-0.0411238
C^9840*C^16056:2658:-0.0136884
C^2423*C^37562:2659:-0.0132246
A^2448*A^13519:2663:-0.00830152
B^2136*B^26915:2667:-0.00888469
A^1132*A^3410:2670:-0.000993922
E^1890*E^14387:2673:-0.0264188
A^6694*A^20896:2674:-0.0108218
E^560*E^1756:2678:-0.0343746
E^239*E^309:2686:-0.0499139
C^8857*C^8857:2696:-0.0453654
C^64*C^5261:2697:-0.0536806
E^1221*E^6051:2702:-0.013058
F^866*F^1073:2703:-0.0613531
F^1872*F^13549:2705:-0.0029828
E^581*E^10037:2712:-0.0115958
D^3298*D^3483:2713:-0.0278121
A^140*A^1857:2721:-0.0106776
E^239*E^480:2725:-0.0443914
C^64*C^5295:2731:-0.116591
D^50*D^8318:2732:-0.0136786
C^64*C^5300:2734:-0.10069
F^866*F^1026:2736:-0.0162792
A^140*A^1865:2745:-0.283571
E^239*E^497:2746:-0.0571372
E^252*E^5492:2754:-0.0317617
B^133*B^6093:2762:-0.0120295
C^1024*C^2940:2774:-0.0617794
D^1342*D^5845:2775:-0.0777037
A^140*A^1958:2778:-0.0102265
C^74*C^9479:2781:-0.0138985
E^271*E^12092:2785:-0.0276545
C^390*C^4501:2787:-0.0123002
B^108*B^284:2788:-0.0613293
B^33246*B^const:2804:-0.0244233
B^112*B^751:2807:-0.00712542
B^111*B^1145:2808:-0.0609264
B^125*B^3184:2815:-0.0540145
E^236*E^3457:2817:-0.0516067
A^465*A^1664:2819:-0.0533573
A^6018*A^6694:2820:-0.0123661
D^354*D^428:2826:-0.0307268
D^365*D^3841:2830:-0.00756087
D^354*D^433:2831:-0.0231883
B^112*B^532:2832:-0.026507
E^581*E^9898:2837:-0.00531587
D^357*D^1127:2844:-0.00650784
D^3298*D^3615:2845:-0.0285361
B^112*B^546:2850:-0.0115543
F^866*F^921:2855:-0.00604536
E^1213*E^2974:2857:-0.0339817
E^301*E^24559:2858:-0.0102033
A^497*A^13519:2864:-0.013788
C^1350*C^2735:2873:-0.00275282
C^9840*C^15759:2875:-0.0211088
B^773*B^2201:2878:-0.0507566
B^111*B^1071:2882:-0.0132787
C^54*C^1036:2884:-0.0474
D^365*D^3912:2887:-0.0174982
B^1132*B^15240:2896:-0.0305941
E^236*E^3536:2910:-0.0100909
B^451*B^3038:2911:-0.0348051
E^3845*E^const:2928:-0.198818
B^112*B^627:2931:-0.0336785
F^1509*F^1919:2932:-0.0609093
D^364*D^4347:2935:-0.0534327
D^357*D^1029:2938:-0.0128929
D^85*D^18618:2945:-0.0405483
D^387*D^13609:2948:-0.0230454
D^2988*D^14007:2955:-0.00631382
B^112*B^376:2956:-0.0640151
B^111*B^1002:2959:-0.0450353
A^1807*A^18097:2968:-0.00492005
B^5065*B^27819:2972:-0.0194428
B^1099*B^2146:2979:-0.00231719
F^1509*F^1871:2980:-0.0273278
D^763*D^34095:2982:-0.0026394
F^1509*F^1872:2983:-0.010247
D^357*D^1213:2994:-0.00910465
A^2525*A^const:2996:-0.682299
C^55*C^584:2997:-0.0378132
B^108*B^111:3003:-0.0127335
E^239*E^246:3007:-0.0465531
B^112*B^451:3011:-0.016574
E^585*E^8240:3015:-0.0114299
F^1528*F^10512:3020:-0.0180046
D^364*D^4531:3023:-0.0466119
D^41*D^5671:3024:-0.0363681
B^451*B^3159:3030:-0.0220892
D^690*D^4206:3036:-0.0121673
A^140*A^1664:3040:-0.185987
E^2207*E^9898:3043:-0.00221092
D^357*D^1173:3050:-0.0177902
F^1193*F^6274:3061:-0.00914409
B^112*B^494:3062:-0.0547422
C^1029*C^1218:3069:-0.0840553
A^140*A^468:3084:-0.0394831
A^140*A^497:3089:-0.00277376
C^476*C^44966:3092:-0.0186963
E^564*E^751:3095:-0.0491211
B^434*B^995:3097:-0.0337436
E^564*E^760:3102:-0.0473713
D^64*D^11276:3104:-0.00644942
A^1455*A^4119:3106:-0.0496777
E^564*E^702:3108:-0.0787404
E^236*E^1690:3112:-0.0424435
B^433*B^574:3113:-0.0326758
A^140*A^438:3114:-0.145986
B^112*B^283:3115:-0.0174163
C^1674*C^3479:3117:-0.045174
A^140*A^434:3118:-0.194057
A^156*A^2848:3120:-0.0764549
A^140*A^465:3121:-0.107468
E^236*E^1705:3129:-0.0312793
B^108*B^751:3131:-0.0123775
B^451*B^1664:3133:-0.0309965
A^464*A^2090:3138:-0.00858713
B^434*B^934:3140:-0.0271973
E^236*E^1735:3143:-0.0329133
B^1750*B^3038:3144:-0.0170116
E^564*E^673:3145:-0.0618108
A^140*A^534:3146:-0.258401
A^464*A^2088:3148:-0.0184687
B^433*B^546:3149:-0.00972709
D^52*D^8472:3152:-0.0192036
C^381*C^576:3155:-0.0210439
A^2107*A^2736:3157:-0.0153482
D^1094*D^31213:3159:-0.0160576
B^433*B^559:3160:-0.0319053
D^354*D^1243:3161:-0.0331749
A^140*A^550:3162:-0.0520759
A^3751*A^11905:3168:-0.016818
A^16190*A^const:3169:-0.162432
C^57*C^1123:3170:-0.0194151
D^354*D^1237:3171:-0.0191846
D^1342*D^4194:3172:-0.0668247
D^1331*D^1750:3175:-0.00400605
E^564*E^642:3176:-0.0505007
B^3370*B^4525:3179:-0.0942235
B^434*B^910:3180:-0.00245717
C^57*C^1110:3181:-0.0141334
B^759*B^1011:3182:-0.0339274
B^433*B^519:3184:-0.00949045
C^57*C^1138:3185:-0.0458432
D^370*D^3478:3188:-0.0209669
F^1509*F^3713:3190:-0.00681526
E^564*E^655:3191:-0.0547818
D^1342*D^4206:3192:-0.0116853
A^140*A^518:3194:-0.238287
D^354*D^1213:3195:-0.012238
C^1024*C^3617:3197:-0.0343072
B^759*B^995:3198:-0.0345176
E^236*E^1540:3202:-0.0565041
C^39*C^39:3204:-0.00884323
D^84*D^const:3205:-0.0229886
B^112*B^125:3209:-0.0216563
C^64*C^5775:3211:-0.123559
E^239*E^968:3213:-0.0264311
C^1024*C^3540:3214:-0.0102573
C^413*C^const:3215:-0.078274
D^357*D^475:3216:-0.0164536
B^760*B^1194:3218:-0.0396819
B^112*B^144:3220:-0.0348589
B^108*B^842:3222:-0.0232069
A^140*A^363:3223:-0.00741359
D^357*D^483:3224:-0.0117859
A^465*A^518:3225:-0.0340403
D^45*D^3811:3232:-0.0146436
A^140*A^321:3233:-0.043382
B^108*B^858:3238:-0.0475786
A^140*A^312:3240:-0.0151161
A^465*A^534:3241:-0.0369027
B^451*B^1810:3243:-0.013324
C^1029*C^1426:3245:-0.0111717
D^1419*D^31213:3248:-0.0400521
D^47*D^2520:3249:-0.0043124
A^140*A^334:3250:-0.0471737
F^209*F^2234:3253:-0.0182539
E^1213*E^2099:3254:-0.0518576
D^5651*D^36832:3261:-0.0122838
B^1750*B^3160:3266:-0.0345927
B^759*B^1100:3269:-0.00303115
E^236*E^1594:3272:-0.0189375
A^1455*A^3899:3278:-0.0777509
A^140*A^433:3281:-0.218884
A^465*A^465:3282:-0.0153547
D^3015*D^18778:3287:-0.0195513
D^1331*D^1629:3288:-0.00731021
E^564*E^564:3290:-0.0512373
E^6762*E^10037:3295:-0.0099929
B^112*B^222:3302:-0.0821873
E^1933*E^32020:3303:-0.00762219
A^1132*A^3033:3305:-0.0954012
A^480*A^2098:3306:-0.0171194
C^1029*C^1489:3308:-0.0392854
A^465*A^468:3311:-0.0404604
D^354*D^1094:3316:-0.0266665
A^140*A^394:3318:-0.323859
D^357*D^389:3322:-0.0476792
A^140*A^388:3324:-0.0147489
A^140*A^387:3327:-0.0629544
E^889*E^889:3328:-0.0191448
B^1746*B^5197:3331:-0.0294914
C^39*C^167:3332:-0.047084
B^125*B^1654:3333:-0.0180649
C^57*C^1279:3334:-0.0326781
D^47*D^2658:3335:-0.00950286
A^140*A^217:3337:-0.0104335
B^451*B^1457:3340:-0.0258881
B^451*B^1455:3342:-0.0384666
B^451*B^1437:3344:-0.0677234
A^140*A^238:3346:-0.477405
E^239*E^586:3347:-0.0277907
A^140*A^236:3348:-0.542489
C^7559*C^16056:3349:-0.0116899
A^140*A^234:3350:-0.0537802
A^140*A^230:3354:-0.265903
E^564*E^1011:3355:-0.0623343
B^3066*B^12870:3356:-0.00582033
A^140*A^229:3357:-0.315179
B^108*B^466:3358:-0.0502902
F^209*F^1872:3363:-0.0184196
A^140*A^188:3364:-0.785938
B^760*B^1014:3366:-0.00512157
C^57*C^1305:3368:-0.00652142
B^108*B^478:3370:-0.0335187
A^140*A^183:3371:-0.0339001
C^423*C^17679:3372:-0.0184886
B^773*B^2728:3375:-0.00373398
D^357*D^573:3378:-0.00393633
E^564*E^973:3381:-0.0302202
A^480*A^2564:3384:-0.0355509
B^125*B^1710:3389:-0.038146
D^3641*D^11276:3391:-0.00469523
B^108*B^376:3392:-0.073056
B^125*B^1725:3394:-0.0334184
A^140*A^287:3395:-0.0284485
A^140*A^284:3396:-0.0246678
B^108*B^381:3397:-0.0442479
E^1213*E^2495:3402:-0.0509535
C^1024*C^3855:3403:-0.0315985
E^889*E^968:3407:-0.019743
A^140*A^305:3409:-0.0326331
E^6762*E^9898:3410:-0.0642631
B^760*B^1127:3415:-0.0870713
B^108*B^400:3416:-0.0615894
B^125*B^1746:3417:-0.0330877
C^1024*C^3841:3421:-0.0870047
E^239*E^533:3422:-0.0881525
C^54*C^1575:3425:-0.0634484
C^381*C^879:3426:-0.0147596
C^39*C^199:3428:-0.0267169
E^236*E^2024:3430:-0.0430118
C^55*C^1910:3431:-0.0272085
D^354*D^973:3435:-0.0404587
E^293*E^20770:3437:-0.0278
D^354*D^963:3441:-0.0598407
C^1024*C^3864:3442:-0.0248997
D^690*D^5845:3443:-0.0784306
E^239*E^558:3447:-0.0608139
D^40*D^5388:3448:-0.0175349
B^108*B^433:3449:-0.0076177
E^236*E^2028:3450:-0.00260733
B^802*B^15925:3451:-0.0226458
C^1024*C^3784:3458:-0.00168362
C^381*C^660:3463:-0.0183442
C^73*C^11177:3464:-0.0413867
D^354*D^802:3472:-0.0582282
B^108*B^586:3478:-0.0732799
B^433*B^751:3480:-0.00313579
B^125*B^1810:3481:-0.00312234
E^1221*E^7351:3482:-0.0334104
B^451*B^1567:3486:-0.0292051
B^451*B^1566:3487:-0.022627
C^57*C^1188:3491:-0.0503118
E^239*E^733:3494:-0.0351031
E^564*E^836:3498:-0.0568157
B^451*B^1554:3499:-0.015068
B^434*B^1340:3506:-0.0476789
A^2099*A^5206:3511:-0.0179452
A^464*A^1589:3513:-0.00812568
B^433*B^720:3515:-0.0767383
C^1028*C^3094:3516:-0.208349
C^57*C^1218:3521:-0.0627977
A^140*A^156:3524:-0.236472
A^140*A^157:3525:-0.0304151
E^564*E^800:3526:-0.0370222
B^434*B^1321:3527:-0.0280688
E^564*E^802:3528:-0.0551033
B^433*B^679:3536:-0.0459461
E^3825*E^6578:3537:-0.0119045
A^140*A^175:3539:-0.0569304
E^239*E^655:3540:-0.0446383
B^759*B^1340:3541:-0.0105486
C^13106*C^17094:3542:-0.0504274
E^236*E^1865:3545:-0.0268487
D^357*D^678:3549:-0.0489615
E^236*E^1890:3552:-0.0444401
A^480*A^2362:3554:-0.0896099
A^1455*A^3669:3556:-0.045939
B^434*B^1288:3558:-0.0650117
E^236*E^1881:3561:-0.0272205
B^108*B^549:3565:-0.00338614
F^209*F^1919:3568:-0.0252032
A^140*A^140:3572:-0.087213
B^108*B^560:3576:-0.0581404
C^55*C^2066:3579:-0.0285387
E^564*E^789:3581:-0.0513644
C^1029*C^1731:3582:-0.113885
E^8734*E^18873:3583:-0.00362532
E^2538*E^8284:3584:-0.0278983
D^50*D^9252:3586:-0.118716
E^2538*E^8287:3589:-0.00907982
C^390*C^5696:3592:-0.0231489
B^125*B^1930:3601:-0.0262386
E^889*E^1164:3603:-0.0100667
B^451*B^2201:3604:-0.0127509
E^564*E^1263:3607:-0.0285275
B^125*B^1935:3612:-0.0276343
B^434*B^481:3615:-0.010221
A^2107*A^2107:3618:-0.0238661
E^564*E^1214:3620:-0.0116495
E^889*E^1188:3627:-0.0217066
E^564*E^1221:3629:-0.0474237
B^434*B^465:3631:-0.0201756
E^889*E^1193:3632:-0.0353767
B^111*B^318:3635:-0.0265035
E^2538*E^8272:3636:-0.0244746
C^381*C^1059:3638:-0.0551186
B^434*B^441:3639:-0.0258318
E^2538*E^8273:3643:-0.0200806
A^465*A^932:3647:-0.0509434
A^2099*A^6147:3650:-0.0340152
F^1509*F^3247:3652:-0.0450823
E^236*E^2248:3654:-0.0459581
B^434*B^434:3656:-0.0603203
B^111*B^301:3660:-0.0196303
E^889*E^1223:3662:-0.0166297
E^564*E^1196:3666:-0.0587674
E^236*E^2259:3667:-0.0258056
A^1455*A^3525:3668:-0.0552669
D^42*D^4038:3676:-0.0151791
B^111*B^284:3677:-0.0179295
C^381*C^1138:3685:-0.0177527
D^697*D^2757:3686:-0.00416084
D^365*D^5224:3687:-0.00481
B^111*B^265:3688:-0.0135345
D^85*D^const:3690:-1.03306
C^1029*C^2131:3694:-0.0808934
D^2658*D^6609:3695:-0.00209069
D^354*D^1723:3705:-0.0269142
A^3404*A^4550:3706:-0.0245622
A^252*A^const:3707:-0.0587909
A^140*A^1028:3708:-0.272223
C^1024*C^4132:3710:-0.0631596
A^140*A^865:3713:-0.0181758
E^564*E^1118:3716:-0.0452252
D^45*D^3270:3717:-0.00715675
E^1213*E^1540:3719:-0.00604289
E^8066*E^8734:3726:-0.0055657
E^2538*E^8421:3727:-0.0265534
E^564*E^1130:3728:-0.0495399
D^45*D^3287:3732:-0.00773382
E^564*E^1133:3733:-0.0483659
E^236*E^2071:3735:-0.0340777
E^18535*E^33705:3738:-0.0106109
B^451*B^2338:3739:-0.0163461
E^1213*E^1546:3741:-0.0321615
D^4345*D^31213:3742:-0.00562941
A^465*A^1028:3743:-0.072129
E^1881*E^10873:3744:-0.00573957
E^564*E^1081:3745:-0.0256747
E^236*E^2083:3747:-0.046036
B^111*B^210:3751:-0.0267926
C^1024*C^4077:3753:-0.00988131
E^889*E^1059:3754:-0.0453358
B^1100*B^2495:3755:-0.0365933
C^380*C^1822:3756:-0.0120946
A^1455*A^3484:3757:-0.0425399
E^889*E^1063:3758:-0.01763
E^236*E^2098:3760:-0.0244777
E^2538*E^8395:3761:-0.0231809
B^111*B^191:3762:-0.0131066
A^1132*A^2607:3763:-0.0501902
E^1881*E^10894:3765:-0.00230377
E^564*E^1110:3772:-0.0566437
A^183*A^16404:3773:-0.00929592
B^111*B^176:3777:-0.0217919
E^236*E^2115:3779:-0.0305764
A^140*A^925:3781:-0.0212501
A^464*A^1455:3783:-0.113231
A^140*A^921:3785:-0.0295676
E^564*E^1059:3787:-0.0609401
E^564*E^1062:3788:-0.0530245
F^209*F^2738:3789:-0.0144168
E^1881*E^10983:3790:-0.00746156
E^1214*E^1221:3795:-0.0413892
C^1062*C^const:3796:-0.0176464
B^434*B^548:3802:-0.0390412
A^140*A^932:3804:-0.125133
A^1455*A^3404:3805:-0.0669177
E^1890*E^const:3807:-0.229386
C^3951*C^4065:3810:-0.0140827
D^3291*D^5845:3816:-0.0431198
E^1214*E^1263:3817:-0.00861627
B^111*B^140:3821:-0.0184808
E^239*E^1451:3824:-0.0334787
E^564*E^1036:3826:-0.0419554
E^236*E^2166:3828:-0.0683174
F^229*F^10494:3829:-0.00334022
E^239*E^1454:3831:-0.0159901
B^108*B^1326:3834:-0.0218757
F^229*F^10505:3838:-0.0235306
A^1127*A^4546:3839:-0.0209992
D^354*D^1459:3841:-0.0416509
E^1214*E^1298:3846:-0.0200852
D^354*D^1454:3852:-0.0202869
B^451*B^1966:3855:-0.0227564
A^140*A^752:3856:-0.229994
C^4276*C^4276:3858:-0.0273573
C^1674*C^4240:3860:-0.00832818
D^354*D^1434:3864:-0.0293117
A^465*A^646:3865:-0.0432992
E^1214*E^1335:3873:-0.0434156
C^1029*C^2311:3874:-0.0929487
B^451*B^1930:3875:-0.0321475
E^581*E^10873:3876:-0.010229
B^434*B^724:3882:-0.023861
E^7420*E^const:3885:-0.0351014
B^451*B^1935:3886:-0.0481908
A^465*A^660:3887:-0.0495586
E^239*E^1131:3888:-0.035262
F^1509*F^3002:3889:-0.00410469
F^209*F^2369:3890:-0.018521
E^239*E^1136:3893:-0.0357178
E^889*E^1455:3894:-0.0151783
D^354*D^1417:3895:-0.02179
E^1213*E^1965:3896:-0.0394176
D^47*D^2126:3899:-0.00826821
A^140*A^709:3901:-0.211539
E^1214*E^1305:3903:-0.0488295
E^252*E^4337:3905:-0.0395679
C^726*C^9840:3912:-0.0107397
E^581*E^10983:3914:-0.0132957
A^1132*A^2099:3919:-0.0493103
E^1214*E^1350:3922:-0.0603236
A^140*A^812:3924:-0.110151
E^239*E^1040:3925:-0.0382211
E^564*E^1455:3927:-0.0418108
D^411*D^const:3928:-0.193704
C^476*C^44781:3933:-0.0130175
A^140*A^768:3936:-0.0259371
A^156*A^2543:3939:-0.0510782
A^1132*A^2141:3941:-0.0484169
A^156*A^2536:3944:-0.0133404
E^1214*E^1389:3947:-0.043139
E^239*E^1063:3948:-0.0318556
A^140*A^757:3949:-0.0164518
D^354*D^1488:3950:-0.0504671
E^564*E^1417:3953:-0.0512224
A^156*A^2526:3954:-0.082229
A^156*A^2524:3956:-0.0473714
A^156*A^2525:3957:-0.0691927
E^236*E^2538:3960:-0.0417631
E^2538*E^8467:3961:-0.0358139
A^465*A^613:3966:-0.048969
B^125*B^2298:3969:-0.0302273
C^2016*C^5991:3971:-0.0196524
E^269*E^13810:3973:-0.0228519
E^239*E^1213:3974:-0.0814536
C^1029*C^2221:3976:-0.0573063
E^564*E^1380:3978:-0.118506
E^239*E^1223:3980:-0.0300528
C^1029*C^2226:3981:-0.0426263
A^465*A^757:3982:-0.0527247
E^1214*E^1417:3983:-0.0447093
D^52*D^8408:3984:-0.0440512
E^236*E^2323:3987:-0.0360202
E^564*E^1389:3989:-0.0912824
B^460*B^6762:3990:-0.00467012
A^140*A^616:3992:-0.0474848
A^1455*A^3214:3995:-0.0036307
C^1062*C^13492:3996:-0.03613
A^140*A^613:3997:-0.0713969
F^209*F^2533:3998:-0.00511994
E^889*E^1304:3999:-0.00992047
C^59*C^8075:4004:-0.0688641
E^586*E^8734:4006:-0.0190945
D^49*D^9527:4008:-0.00766411
E^1214*E^1455:4009:-0.0484407
E^1214*E^1454:4010:-0.0236171
E^564*E^1350:4012:-0.046975
B^759*B^820:4013:-0.0355067
A^464*A^1094:4014:-0.0487955
C^87*C^const:4017:-0.8936
A^2088*A^2088:4020:-0.0281188
A^465*A^812:4023:-0.0173171
D^3013*D^const:4026:-0.0314512
C^51*C^3094:4027:-0.222127
E^2207*E^10983:4028:-0.0730852
E^564*E^1305:4033:-0.0559483
E^3825*E^6051:4034:-0.00561203
D^1005*D^1094:4037:-0.014481
C^55*C^1557:4038:-0.00933382
F^1520*F^6527:4039:-0.00170723
E^236*E^2362:4040:-0.0682416
C^1032*C^1045:4041:-0.0813897
A^140*A^660:4044:-0.336637
E^2538*E^8615:4045:-0.0279517
A^533*A^30665:4046:-0.0364638
E^1214*E^1479:4049:-0.0401968
E^2207*E^10873:4050:-0.00425484
F^4450*F^5477:4051:-0.0474216
D^3015*D^18535:4058:-0.0390889
C^1356*C^1566:4060:-0.0204839
A^465*A^709:4062:-0.0395086
E^564*E^1335:4063:-0.0497493
C^55*C^1529:4066:-0.013629
A^1455*A^3158:4067:-0.0387492
A^140*A^637:4069:-0.0449656
E^239*E^1188:4073:-0.0647294
B^773*B^3437:4074:-0.00480601
E^1213*E^1881:4076:-0.00351213
C^1024*C^4276:4078:-0.0863827
C^4659*C^22111:4080:-0.0132603
E^239*E^1196:4081:-0.0478978
E^239*E^1193:4082:-0.0639487
A^465*A^752:4083:-0.0368251
A^140*A^652:4084:-0.0185619
A^140*A^651:4087:-0.00190973
D^42*D^4194:4088:-0.0230164
F^209*F^2438:4089:-0.0251815
A^140*A^646:4090:-0.0375703
B^108*B^1071:4091:-0.0118069
D^354*D^1342:4092:-0.0332123
B^434*B^768:4094:-0.0294116
B^126*B^785:4099:-0.0244969
E^557*E^3027:4102:-0.0187429
B^759*B^1930:4103:-0.0948298
E^225*E^298:4105:-0.0497193
F^851*F^1802:4107:-0.013352
D^678*D^1730:4108:-0.0294772
D^1029*D^3899:4112:-0.0146114
D^24*D^293:4113:-0.0111767
D^52*D^3410:4118:-0.0124408
E^557*E^3008:4123:-0.0453374
B^125*B^400:4127:-0.0301637
E^225*E^276:4131:-0.108173
E^225*E^269:4140:-0.114933
D^24*D^271:4143:-0.174755
D^24*D^258:4146:-0.0939366
D^25*D^757:4150:-0.104273
D^24*D^263:4151:-0.0878794
E^1221*E^8467:4158:-0.0260662
B^111*B^2874:4159:-0.013242
B^125*B^451:4168:-0.283884
C^64*C^2893:4169:-0.134811
A^497*A^16404:4175:-0.00812653
D^24*D^354:4178:-0.00837955
D^25*D^664:4179:-0.0052191
D^24*D^359:4183:-0.124392
E^233*E^3457:4184:-0.0564571
B^125*B^466:4185:-0.214333
E^246*E^8734:4194:-0.00692245
F^851*F^1906:4195:-0.296777
D^1028*D^3540:4196:-0.0615923
E^225*E^342:4197:-0.0368801
A^157*A^2121:4198:-0.0159894
E^232*E^3144:4210:-0.0705198
D^25*D^690:4213:-0.0247329
D^24*D^326:4214:-0.122843
E^882*E^2812:4216:-0.00684285
C^384*C^674:4220:-0.0198083
B^4345*B^5309:4222:-0.188158
E^1221*E^8615:4234:-0.0285499
D^24*D^433:4237:-0.18933
D^24*D^430:4238:-0.00408768
D^702*D^3069:4239:-0.0229854
C^59*C^664:4241:-0.0128303
D^26*D^1264:4246:-0.0153336
E^2259*E^33705:4254:-0.0108651
D^675*D^675:4258:-0.0609451
C^64*C^2731:4263:-0.0169889
C^1024*C^4595:4271:-0.0455412
E^225*E^378:4281:-0.0997116
C^59*C^637:4282:-0.00546024
A^1437*A^2018:4289:-0.00756145
D^26*D^1183:4293:-0.0129064
B^224*B^40078:4294:-0.0226196
A^812*A^3960:4296:-0.0223973
B^1756*B^10446:4298:-0.00796072
E^232*E^3306:4300:-0.0963652
E^232*E^3307:4303:-0.0524266
B^125*B^586:4305:-0.104964
D^25*D^533:4310:-0.0819835
D^24*D^476:4312:-0.0121498
D^26*D^1204:4314:-0.0228827
E^225*E^478:4317:-0.124922
B^108*B^1810:4318:-0.00516245
B^112*B^3271:4319:-0.0212378
B^451*B^842:4323:-0.0173968
E^558*E^3457:4327:-0.0398066
D^52*D^3483:4335:-0.128348
F^1179*F^2939:4338:-0.0466156
E^1546*E^8240:4340:-0.00554759
A^136*A^2000:4348:-0.0162662
E^2182*E^2288:4352:-0.0130956
C^384*C^460:4358:-0.014346
D^702*D^2938:4364:-0.0234649
C^64*C^2580:4366:-0.0760559
E^231*E^2974:4367:-0.0264137
D^678*D^1488:4370:-0.111383
B^465*B^6093:4374:-0.0209807
F^852*F^1968:4376:-0.00489323
D^61*D^15455:4380:-0.0104135
D^24*D^533:4385:-0.081851
E^233*E^3307:4386:-0.0358182
C^59*C^521:4390:-0.0216425
D^365*D^6429:4394:-0.0171707
D^25*D^475:4396:-0.018398
D^26*D^842:4400:-0.0423571
D^25*D^494:4409:-0.0186914
E^232*E^3327:4411:-0.0965002
E^1221*E^8287:4418:-0.0126417
B^108*B^1399:4419:-0.0148339
A^457*A^546:4421:-0.028817
E^1221*E^8284:4423:-0.0271458
B^441*B^4523:4428:-0.037583
D^374*D^1888:4434:-0.0200821
C^23854*C^30436:4436:-0.0273798
E^252*E^10983:4439:-0.0294601
B^132*B^11206:4442:-0.0285491
B^451*B^481:4444:-0.0216538
D^24*D^606:4446:-0.207456
B^451*B^460:4449:-0.0103247
F^522*F^588:4450:-0.026847
E^1221*E^8256:4451:-0.0137999
D^26*D^767:4453:-0.0275452
A^457*A^516:4455:-0.0434492
D^52*D^3615:4459:-0.0317523
B^451*B^464:4461:-0.174949
E^1221*E^8269:4464:-0.031729
E^1221*E^8272:4467:-0.0250055
B^108*B^1452:4468:-0.00322528
E^233*E^3231:4470:-0.0491654
D^678*D^1465:4475:-0.0453449
B^759*B^2277:4476:-0.0135328
D^24*D^690:4482:-0.0212413
B^451*B^553:4484:-0.0257998
D^24*D^697:4485:-0.00894469
B^125*B^773:4490:-0.109213
B^451*B^559:4494:-0.00556641
B^451*B^539:4498:-0.00743066
C^64*C^2423:4499:-0.0857481
F^1503*F^2789:4500:-0.00385015
E^581*E^4138:4501:-0.0113062
D^26*D^1009:4503:-0.00883879
D^25*D^334:4505:-0.0329507
E^230*E^2182:4506:-0.00469633
C^820*C^44966:4508:-0.021371
E^233*E^3144:4511:-0.0599187
D^24*D^664:4516:-0.0201946
B^759*B^2348:4517:-0.0481366
B^434*B^2376:4518:-0.0138796
B^451*B^532:4521:-0.0350085
E^2207*E^4337:4522:-0.00900766
D^26*D^965:4523:-0.0169406
B^434*B^2362:4528:-0.0593149
B^760*B^1930:4530:-0.239484
B^434*B^2360:4534:-0.170308
B^117*B^5197:4538:-0.00153948
C^5295*C^22275:4544:-0.0394406
B^759*B^2376:4545:-0.0181736
B^1738*B^3189:4547:-0.022119
B^434*B^2343:4549:-0.00495263
D^3386*D^36354:4552:-0.0320859
C^140*C^33393:4553:-0.0871753
E^225*E^236:4555:-0.056554
B^434*B^2330:4560:-0.0771401
B^759*B^2360:4561:-0.0347203
E^557*E^2563:4566:-0.0204023
B^433*B^1710:4569:-0.0875719
D^49*D^1865:4570:-0.0311439
B^451*B^608:4573:-0.0043432
D^25*D^269:4574:-0.00541416
E^557*E^2614:4577:-0.0501983
F^528*F^2369:4581:-0.0093494
D^26*D^910:4596:-0.0195406
E^1221*E^8395:4598:-0.0236782
D^702*D^2933:4599:-0.030415
C^393*C^4092:4603:-0.0240352
B^451*B^575:4606:-0.0151723
A^136*A^1426:4610:-0.0358144
B^451*B^1194:4611:-0.0335052
E^581*E^3993:4612:-0.0184647
E^607*E^const:4614:-0.940912
B^133*B^12301:4618:-0.045629
E^557*E^3536:4619:-0.027619
B^111*B^3437:4620:-0.125691
D^690*D^6047:4621:-0.0155426
D^52*D^2874:4622:-0.0585771
E^269*E^18535:4626:-0.0512373
E^233*E^3008:4631:-0.110341
D^349*D^702:4637:-0.0799291
D^678*D^1237:4639:-0.0135913
B^133*B^12339:4640:-0.0162295
B^132*B^10916:4644:-0.010845
B^533*B^33246:4645:-0.0151672
D^45*D^8288:4655:-0.00746472
C^61*C^2146:4661:-0.0213173
B^451*B^1156:4665:-0.0161072
B^760*B^1810:4666:-0.0258122
F^851*F^2335:4670:-0.0268181
C^1356*C^6827:4675:-0.0346374
E^558*E^2849:4679:-0.020401
E^2563*E^24559:4680:-0.0161893
D^51*D^3562:4683:-0.021743
C^384*C^1170:4684:-0.0166111
D^73*D^11276:4687:-0.0120036
D^349*D^642:4689:-0.0706069
B^3387*B^11970:4691:-0.0267725
C^126*C^27380:4692:-0.0175825
D^349*D^646:4693:-0.0355292
F^528*F^2234:4706:-0.00307638
C^59*C^1350:4707:-0.00287012
B^117*B^4731:4712:-0.0250509
D^25*D^161:4714:-0.0241897
E^558*E^2812:4716:-0.0336182
D^678*D^1188:4718:-0.0114312
D^55*D^4194:4719:-0.0062228
D^55*D^4206:4723:-0.00546045
E^233*E^2974:4725:-0.0359804
D^50*D^2123:4729:-0.0257898
B^112*B^2923:4731:-0.0282336
D^45*D^8240:4735:-0.0183685
E^3236*E^33705:4737:-0.0191816
D^50*D^2214:4740:-0.0281322
F^529*F^3756:4743:-0.00866375
D^678*D^1094:4744:-0.0167292
F^229*F^5493:4746:-0.018339
E^269*E^18665:4748:-0.0213526
E^269*E^18666:4749:-0.0554996
D^349*D^593:4750:-0.0515655
E^269*E^18668:4751:-0.0428473
E^269*E^18661:4752:-0.0110988
D^25*D^89:4754:-0.0160889
B^434*B^1629:4755:-0.064071
D^25*D^85:4758:-0.0250251
D^678*D^1110:4760:-0.0121311
F^229*F^5477:4762:-0.00649719
E^269*E^18656:4763:-0.0434455
D^50*D^2223:4765:-0.0138131
B^760*B^1710:4766:-0.0106943
D^25*D^76:4767:-0.0181564
F^231*F^6577:4768:-0.0194228
A^457*A^585:4770:-0.0151034
E^10037*E^14793:4772:-0.0135043
D^3309*D^5670:4773:-0.00957948
B^760*B^1654:4774:-0.0118263
A^136*A^1533:4777:-0.018298
A^1137*A^3512:4779:-0.0214173
D^678*D^1122:4780:-0.0157891
F^1504*F^3513:4781:-0.0175702
D^39*D^6752:4785:-0.0170821
D^348*D^493:4789:-0.00659773
A^457*A^575:4792:-0.00163493
A^136*A^1546:4794:-0.0148004
E^1221*E^8081:4796:-0.036465
D^349*D^606:4797:-0.0611535
E^276*E^12092:4802:-0.0228852
D^349*D^532:4803:-0.0178894
D^1028*D^2933:4805:-0.03476
F^2828*F^4504:4808:-0.023292
D^2658*D^5483:4809:-0.00677229
E^558*E^2974:4810:-0.0253661
D^50*D^2269:4811:-0.00904875
E^233*E^2812:4819:-0.0476979
C^820*C^44781:4821:-0.0148763
E^2248*E^20228:4822:-0.0216966
B^433*B^1964:4823:-0.424445
B^451*B^1381:4824:-0.0125418
C^62*C^1575:4825:-0.0274264
B^441*B^5401:4826:-0.0102837
C^22568*C^27274:4828:-0.00560028
E^2538*E^7351:4829:-0.032715
D^349*D^512:4831:-0.0185053
E^1881*E^3772:4835:-0.0140036
A^1137*A^3574:4841:-0.0266599
D^25*D^33:4842:-0.0148192
B^451*B^1361:4844:-0.0169675
D^89*D^18778:4845:-0.0211619
B^108*B^2338:4846:-0.0175565
E^2207*E^3993:4850:-0.00768038
E^882*E^3457:4851:-0.00810056
B^759*B^1629:4852:-0.0162562
D^25*D^50:4853:-0.042387
D^55*D^4345:4856:-0.0291087
D^25*D^42:4861:-0.0086902
C^59*C^1218:4863:-0.20792
D^24*D^52:4864:-0.012981
B^111*B^3184:4865:-0.00718633
B^1712*B^const:4866:-0.0193224
D^24*D^55:4871:-0.0903768
D^24*D^42:4874:-0.00789915
D^678*D^963:4877:-0.0427413
C^4276*C^5300:4882:-0.0427397
D^24*D^41:4885:-0.11694
D^678*D^973:4887:-0.0652428
D^349*D^443:4888:-0.0121191
B^111*B^3158:4891:-0.0212634
F^229*F^5863:4892:-0.0237413
B^465*B^5593:4898:-0.0414404
D^24*D^24:4900:-0.727138
D^24*D^25:4901:-0.0152576
F^528*F^1919:4903:-0.0175198
B^108*B^2014:4906:-0.00922784
B^451*B^911:4910:-0.0238958
E^263*E^6707:4912:-0.0232413
D^52*D^3188:4916:-0.0226952
C^4276*C^5261:4917:-0.0232816
F^2806*F^3463:4921:-0.0165418
F^1179*F^3656:4925:-0.0176993
D^349*D^481:4926:-0.0287995
B^451*B^894:4927:-0.02119
C^388*C^1618:4928:-0.0132279
D^55*D^3899:4934:-0.0196077
E^2234*E^const:4935:-0.00736242
B^451*B^1011:4938:-0.0106284
E^229*E^2248:4939:-0.00691896
D^24*D^111:4943:-0.0990462
C^384*C^888:4946:-0.020879
B^108*B^1930:4950:-0.0309658
D^24*D^103:4951:-0.11824
B^451*B^996:4953:-0.00771702
F^1504*F^3656:4956:-0.0127881
C^52*C^5991:4959:-0.0304439
D^24*D^85:4961:-0.0371208
E^581*E^3772:4967:-0.0186143
E^1881*E^3910:4973:-0.00818926
D^349*D^433:4974:-0.0558008
D^24*D^69:4977:-0.0261415
E^229*E^2288:4979:-0.0121294
D^26*D^1295:4981:-0.00901664
A^812*A^3370:4982:-0.0375416
D^50*D^1881:4983:-0.0247476
D^24*D^61:4985:-0.268951
C^1045*C^13328:4987:-0.0170116
C^62*C^1674:4990:-0.023095
E^1881*E^3993:4992:-0.0155254
F^528*F^1821:4993:-0.00415835
D^24*D^179:4995:-0.0356597
D^24*D^182:4998:-0.0370181
D^2678*D^14007:5001:-0.00434887
A^811*A^3752:5005:-0.0119961
D^24*D^175:5007:-0.218033
D^1434*D^36203:5009:-0.0103802
C^5012*C^38612:5010:-0.0104366
C^64*C^2940:5014:-0.140181
D^24*D^167:5015:-0.122888
C^3951*C^5259:5016:-0.00733828
E^10037*E^14566:5017:-0.00748827
B^222*B^40078:5024:-0.0866151
C^1033*C^7890:5025:-0.0494745
D^24*D^140:5032:-0.220032
E^229*E^2087:5034:-0.0298199
D^1029*D^4852:5035:-0.0836769
C^384*C^1138:5036:-0.0147328
D^55*D^4003:5038:-0.162597
D^349*D^359:5044:-0.0435765
F^529*F^3463:5048:-0.0157394
D^349*D^349:5050:-0.0665975
B^125*B^1326:5053:-0.0262713
F^1503*F^2234:5055:-0.0116015
D^1028*D^3192:5056:-0.0589425
B^433*B^2201:5058:-0.182721
D^50*D^2025:5063:-0.0230125
D^24*D^236:5064:-0.0081719
C^1024*C^5261:5065:-0.0236596
D^55*D^4038:5067:-0.00810547
F^851*F^2769:5068:-0.058188
D^24*D^239:5071:-0.264057
B^3038*B^3038:5072:-0.0716575
B^112*B^2514:5074:-0.0274857
E^229*E^2122:5077:-0.0166735
D^24*D^231:5079:-0.15796
D^24*D^220:5080:-0.130029
D^50*D^2028:5082:-0.0266706
D^348*D^660:5084:-0.024756
E^882*E^3231:5085:-0.00669313
D^24*D^222:5086:-0.0929235
E^233*E^2602:5089:-0.112938
A^1455*A^8275:5094:-0.0580081
D^24*D^204:5096:-0.129708
D^26*D^1411:5097:-0.0200216
C^1024*C^5295:5099:-0.0513752
D^24*D^208:5100:-0.0888204
D^24*D^209:5101:-0.0996331
C^1024*C^5300:5102:-0.0332258
D^24*D^207:5103:-0.195858
C^384*C^1045:5105:-0.040706
B^1091*B^5307:5106:-0.0194298
D^26*D^1426:5112:-0.030637
D^24*D^193:5117:-0.00597663
A^3751*A^18017:5120:-0.0143002
F^1520*F^8251:5123:-0.00486516
D^25*D^1730:5125:-0.0243248
E^225*E^1335:5126:-0.0334098
A^136*A^925:5129:-0.025854
E^3825*E^8284:5131:-0.010844
D^25*D^1723:5132:-0.0218047
E^3825*E^8287:5134:-0.00398562
E^233*E^2493:5140:-0.141263
E^233*E^2495:5142:-0.0668136
D^24*D^1308:5144:-0.0686305
F^529*F^2088:5147:-0.00440702
B^759*B^2949:5148:-0.128744
C^64*C^3841:5149:-0.197395
E^225*E^1298:5153:-0.0338317
F^1179*F^1871:5158:-0.0172389
D^702*D^2213:5159:-0.0469808
E^2207*E^5492:5161:-0.00723034
C^390*C^4194:5166:-0.14312
E^557*E^2028:5167:-0.00693923
E^3825*E^8273:5168:-0.0129243
C^64*C^3864:5170:-0.0539838
E^557*E^2024:5171:-0.0405951
C^59*C^1788:5173:-0.0345014
E^230*E^3368:5176:-0.00669364
C^59*C^1789:5178:-0.0297336
D^26*D^85:5179:-0.0182255
E^3825*E^8269:5180:-0.0113437
A^784*A^1910:5182:-0.0436599
D^678*D^757:5183:-0.0107474
A^3410*A^3410:5184:-0.0353724
D^349*D^1173:5186:-0.0411136
D^348*D^767:5187:-0.0152505
F^1504*F^1872:5188:-0.0148668
F^1504*F^1871:5191:-0.0130485
B^1768*B^6068:5192:-0.00832608
E^225*E^1389:5196:-0.0606518
A^1760*A^2009:5197:-0.0252648
F^1179*F^1821:5200:-0.0124283
E^225*E^1380:5203:-0.0635805
E^1881*E^5230:5205:-0.00973219
D^1000*D^1527:5207:-0.0206776
D^41*D^6047:5208:-0.09564
A^1760*A^2021:5209:-0.0253376
E^231*E^1776:5213:-0.0166835
A^6060*A^20896:5216:-0.00353305
A^782*A^1127:5217:-0.0362651
E^233*E^2477:5220:-0.0177098
E^2849*E^8066:5233:-0.0113459
D^348*D^814:5234:-0.015164
C^62*C^916:5236:-0.0111201
E^225*E^1350:5237:-0.0576158
D^40*D^7703:5239:-0.0437091
E^276*E^13810:5240:-0.0215059
B^434*B^2949:5243:-0.0264023
D^678*D^690:5244:-0.0207219
F^1504*F^1897:5245:-0.00487752
D^24*D^1342:5246:-0.0360312
A^457*A^1127:5248:-0.037456
A^782*A^1288:5250:-0.026836
D^24*D^1459:5251:-0.124717
E^3825*E^8421:5252:-0.0116559
D^24*D^1465:5253:-0.0609984
D^26*D^224:5254:-0.0156416
F^1504*F^1940:5256:-0.00762918
F^529*F^2232:5259:-0.00741791
A^188*A^24036:5260:-0.0897484
E^225*E^1454:5261:-0.0330852
E^225*E^1455:5262:-0.0680771
E^233*E^2362:5265:-0.156733
E^233*E^2367:5270:-0.0538379
D^3309*D^4107:5272:-0.0171329
D^24*D^1434:5274:-0.0101611
F^851*F^2938:5275:-0.0960272
E^231*E^1540:5281:-0.0555655
C^1029*C^7559:5282:-0.0410758
A^811*A^2448:5285:-0.0157276
D^89*D^const:5286:-0.129539
E^225*E^1417:5288:-0.0628577
E^558*E^2495:5289:-0.0380441
C^1062*C^10622:5290:-0.0454921
D^24*D^1419:5291:-0.0227103
B^112*B^2201:5293:-0.0160898
D^24*D^1422:5294:-0.119624
C^59*C^1655:5296:-0.0462979
D^348*D^1009:5297:-0.00489353
D^1000*D^1298:5298:-0.0192295
E^1263*E^24559:5300:-0.0121139
D^24*D^1417:5301:-0.0594486
E^225*E^1416:5303:-0.0141294
E^3825*E^8395:5306:-0.0101772
E^231*E^1546:5307:-0.0151259
D^2658*D^3841:5311:-0.00632942
D^24*D^1528:5316:-0.0514635
D^428*D^31213:5317:-0.0160625
B^762*B^1921:5319:-0.0230377
E^233*E^2323:5322:-0.0827484
A^1760*A^1881:5325:-0.0144743
F^1172*F^1179:5327:-0.00598957
E^233*E^2298:5329:-0.332219
C^1383*C^8857:5330:-0.0874628
D^349*D^1028:5331:-0.0913401
D^3635*D^4456:5333:-0.00832818
C^64*C^3772:5334:-0.166322
D^24*D^1511:5335:-0.210107
F^851*F^3002:5339:-0.0380763
D^55*D^5845:5340:-0.0437033
D^26*D^184:5342:-0.0256044
E^581*E^5492:5343:-0.0488976
D^26*D^125:5347:-0.0181983
D^348*D^925:5349:-0.0122473
E^231*E^1594:5355:-0.0294212
D^24*D^1488:5356:-0.0753793
D^1000*D^1342:5358:-0.0510808
E^882*E^1933:5359:-0.00445471
D^349*D^1059:5360:-0.0977823
B^1437*B^12044:5363:-0.00931447
E^225*E^1479:5366:-0.00842204
B^762*B^1960:5374:-0.0454152
D^349*D^1056:5375:-0.0602917
D^675*D^1288:5381:-0.0244469
B^1738*B^1968:5382:-0.0299602
E^223*E^782:5383:-0.0183431
E^252*E^9898:5384:-0.00971423
E^233*E^2259:5386:-0.0592534
A^175*A^16893:5388:-0.0581655
E^882*E^1647:5389:-0.00854305
F^529*F^1823:5392:-0.0698149
E^233*E^2234:5393:-0.0660144
D^50*D^3380:5394:-0.0445087
B^433*B^2923:5396:-0.0103966
E^225*E^1062:5397:-0.0168117
F^528*F^3513:5405:-0.0160909
B^108*B^2514:5406:-0.0306343
E^233*E^2248:5407:-0.105511
E^2207*E^5230:5415:-0.00439574
A^136*A^637:5417:-0.0246846
D^1730*D^31213:5419:-0.0634315
E^225*E^1038:5421:-0.049226
B^433*B^2885:5422:-0.00684496
A^136*A^644:5424:-0.0404013
D^24*D^1538:5426:-0.0357821
D^24*D^1544:5428:-0.0246938
C^384*C^1497:5429:-0.0239336
C^4276*C^5775:5431:-0.0230328
E^230*E^3112:5432:-0.0225827
C^393*C^3002:5433:-0.0167028
E^882*E^1594:5434:-0.00297349
E^232*E^2298:5436:-0.413943
C^64*C^3617:5437:-0.0778471
B^466*B^5984:5438:-0.0227906
E^558*E^2083:5445:-0.0355243
E^882*E^1589:5447:-0.00433742
E^225*E^1130:5449:-0.0461107
E^225*E^1133:5452:-0.0593357
E^3536*E^14387:5455:-0.0174006
B^1100*B^1321:5457:-0.0372268
D^1000*D^1784:5460:-0.0266807
E^558*E^2099:5461:-0.0387067
E^558*E^2098:5462:-0.0389334
B^1738*B^2010:5464:-0.0317773
E^1881*E^5492:5467:-0.00975515
D^25*D^1419:5468:-0.0600441
E^225*E^1118:5469:-0.062141
B^111*B^1563:5470:-0.0172717
B^1738*B^2009:5471:-0.0595354
A^812*A^2848:5472:-0.0332165
C^406*C^10247:5473:-0.0412233
E^225*E^1110:5477:-0.069483
E^882*E^1546:5482:-0.00489417
D^50*D^3390:5484:-0.0295183
D^25*D^1434:5485:-0.0224903
B^1100*B^1288:5488:-0.0088732
E^558*E^2071:5489:-0.0296202
D^25*D^1465:5490:-0.011297
D^25*D^1459:5492:-0.00711836
D^25*D^1461:5494:-0.022077
E^225*E^1081:5496:-0.0314961
D^349*D^925:5498:-0.0171329
D^726*D^13609:5499:-0.124617
D^349*D^927:5500:-0.0636286
E^557*E^1690:5501:-0.0400357
D^49*D^3045:5502:-0.0493917
D^702*D^1798:5504:-0.0541056
E^585*E^6762:5505:-0.0270005
E^233*E^2126:5509:-0.102804
D^25*D^1342:5513:-0.114756
A^6018*A^6060:5514:-0.0041883
E^225*E^1196:5515:-0.0721002
E^882*E^1776:5516:-0.00709065
B^773*B^773:5522:-0.0301803
C^62*C^1395:5525:-0.0882202
E^233*E^2115:5530:-0.0303226
A^136*A^811:5531:-0.0254787
C^59*C^1443:5532:-0.0102001
A^782*A^1533:5535:-0.0126178
F^529*F^1935:5536:-0.00873781
F^1504*F^2232:5548:-0.0315506
E^233*E^2166:5549:-0.0896429
F^851*F^3247:5550:-0.0465269
D^50*D^3474:5552:-0.00849138
E^8081*E^13810:5553:-0.00768335
E^882*E^1735:5557:-0.00516882
D^52*D^2803:5559:-0.0227566
D^24*D^1665:5565:-0.0137447
C^59*C^1409:5566:-0.0242536
B^434*B^3370:5568:-0.0246846
B^111*B^1455:5570:-0.0157706
B^111*B^1454:5571:-0.0648946
E^3825*E^8615:5574:-0.0122728
E^2538*E^6051:5577:-0.0174614
E^231*E^1881:5578:-0.0218678
C^1024*C^5775:5579:-0.0694002
A^811*A^2153:5580:-0.0243029
E^225*E^1263:5582:-0.0100434
D^24*D^1775:5583:-0.0948467
E^581*E^5230:5585:-0.00985441
F^1504*F^2234:5586:-0.0245906
D^50*D^3562:5592:-0.00799643
C^61*C^630:5593:-0.100077
D^349*D^764:5595:-0.0207943
B^546*B^40078:5596:-0.0213367
C^726*C^16328:5600:-0.0168755
C^413*C^11408:5603:-0.0278648
D^3390*D^36831:5609:-0.0552338
D^3390*D^36832:5610:-0.0174439
D^3384*D^36203:5611:-0.015553
D^51*D^2128:5613:-0.0212103
D^49*D^2933:5614:-0.0151719
E^233*E^2074:5617:-0.109378
D^24*D^1730:5618:-0.0359799
E^225*E^1221:5620:-0.0581991
B^773*B^858:5625:-0.17072
B^111*B^1399:5626:-0.0503807
E^225*E^1214:5629:-0.054864
F^526*F^3196:5630:-0.0160638
A^1137*A^2820:5631:-0.190882
E^2234*E^14793:5635:-0.0116163
D^464*D^36832:5636:-0.0547091
E^233*E^1998:5637:-0.104911
D^26*D^613:5643:-0.0499727
E^231*E^2207:5644:-0.0162075
E^558*E^1881:5647:-0.0209992
A^782*A^1654:5648:-0.0149251
D^52*D^1881:5649:-0.0675836
D^24*D^802:5650:-0.0409878
D^24*D^803:5651:-0.14318
B^434*B^2520:5654:-0.0391517
D^26*D^627:5657:-0.0250801
A^3404*A^6694:5658:-0.0313078
D^349*D^1727:5660:-0.0562838
A^549*A^30665:5662:-0.0232024
E^225*E^800:5663:-0.0454197
D^26*D^571:5665:-0.015659
A^812*A^2526:5666:-0.0357306
E^233*E^2028:5667:-0.0649963
A^812*A^2524:5668:-0.0212843
A^812*A^2525:5669:-0.0301055
D^3298*D^8472:5670:-0.023674
D^47*D^8002:5671:-0.00657509
D^55*D^5158:5675:-0.0207684
D^349*D^1775:5676:-0.0314628
E^557*E^2538:5677:-0.0394001
D^26*D^585:5679:-0.0193841
B^126*B^286:5680:-0.0179457
A^812*A^2543:5683:-0.023167
D^25*D^1266:5685:-0.0571516
A^812*A^2536:5688:-0.00604384
C^2753*C^46611:5690:-0.0131464
E^225*E^768:5695:-0.105469
D^6609*D^34095:5696:-0.00127181
B^1099*B^1156:5697:-0.00763451
D^2977*D^2977:5698:-0.0124777
E^5158*E^const:5699:-0.0931856
E^233*E^1933:5700:-0.00982711
F^1172*F^1573:5701:-0.00953925
D^76*D^12632:5704:-0.0100238
A^161*A^2340:5711:-0.0673822
F^528*F^3309:5713:-0.00924837
D^50*D^3188:5714:-0.0201931
B^760*B^2923:5715:-0.0136852
B^759*B^2493:5716:-0.0392879
F^1504*F^2369:5717:-0.068223
D^24*D^871:5719:-0.0226681
F^899*F^13549:5720:-0.0289213
A^136*A^363:5723:-0.0182564
D^349*D^1665:5726:-0.0361002
E^1881*E^4728:5727:-0.00965589
F^522*F^842:5728:-0.0354071
C^1045*C^14582:5729:-0.0161917
B^1710*B^const:5732:-0.0385118
D^26*D^512:5734:-0.0238861
D^25*D^1188:5735:-0.0162084
E^557*E^2477:5736:-0.024067
D^24*D^842:5738:-0.36926
D^1059*D^22746:5739:-0.0484518
C^1059*C^8955:5740:-0.0223888
A^2098*A^7840:5742:-0.0686278
D^24*D^836:5744:-0.0062337
E^225*E^836:5747:-0.0697073
C^3002*C^15968:5748:-0.00657805
B^130*B^11017:5751:-0.0527774
E^230*E^2918:5754:-0.023095
A^224*A^30665:5757:-0.0286029
B^111*B^2298:5759:-0.00427271
E^233*E^1865:5760:-0.0786569
D^25*D^1094:5761:-0.0328569
E^557*E^2380:5775:-0.0319747
E^231*E^2099:5776:-0.040311
E^231*E^2098:5779:-0.0405444
B^1738*B^1823:5781:-0.0218317
F^229*F^4450:5785:-0.0209595
E^557*E^2362:5789:-0.0377983
F^1179*F^2534:5791:-0.0256033
A^136*A^501:5793:-0.0171955
A^457*A^1617:5802:-0.0282074
B^1738*B^1798:5804:-0.0102151
C^64*C^4276:5806:-0.163769
E^233*E^1881:5808:-0.0297832
D^102*D^31407:5809:-0.00579619
D^1028*D^1798:5810:-0.0618321
E^231*E^2071:5812:-0.0132435
E^233*E^1890:5817:-0.102056
C^62*C^582:5818:-0.0259543
D^52*D^2028:5820:-0.0128384
E^882*E^2495:5821:-0.0106275
E^225*E^1011:5826:-0.0718774
D^25*D^1029:5830:-0.026469
C^61*C^916:5831:-0.070773
D^755*D^34095:5838:-0.00535744
E^882*E^2477:5839:-0.00889797
B^760*B^2795:5843:-0.0187378
B^5424*B^40078:5846:-0.0135717
E^558*E^1965:5851:-0.0294244
E^2182*E^2851:5853:-0.0360543
F^529*F^2789:5854:-0.0169612
D^349*D^1536:5855:-0.0406301
E^1546*E^8734:5862:-0.0051207
A^782*A^1765:5863:-0.0239429
B^112*B^1756:5864:-0.0221582
D^26*D^644:5866:-0.0345664
E^225*E^973:5868:-0.050841
C^59*C^2260:5869:-0.0227038
C^64*C^4340:5870:-0.110728
D^85*D^25512:5871:-0.00480844
C^726*C^16056:5872:-0.0367507
C^413*C^10622:5873:-0.0332186
D^349*D^1573:5874:-0.0168433
B^762*B^1454:5876:-0.0152213
B^762*B^1455:5877:-0.0081447
D^24*D^954:5882:-0.0447179
E^558*E^1933:5883:-0.0218818
D^675*D^773:5888:-0.0931807
A^2543*A^const:5890:-0.288769
E^225*E^564:5891:-0.0149532
E^557*E^2259:5894:-0.0243474
C^406*C^9833:5895:-0.0239781
D^6319*D^36832:5897:-0.00878694
E^225*E^557:5900:-0.0533386
D^24*D^1071:5903:-0.255702
D^24*D^1059:5907:-0.0879782
D^1028*D^2213:5909:-0.0537075
E^558*E^1647:5913:-0.0419743
A^136*A^170:5914:-0.0350388
D^24*D^1056:5916:-0.00881615
D^25*D^973:5918:-0.0469124
B^125*B^144:5919:-0.070398
A^782*A^1958:5920:-0.00858046
E^225*E^533:5924:-0.132715
D^42*D^6319:5925:-0.017619
E^2234*E^14574:5926:-0.0162638
E^233*E^1776:5927:-0.0373894
E^298*E^20228:5928:-0.01721
A^1137*A^2098:5933:-0.0074916
F^1172*F^1338:5934:-0.0146113
D^24*D^1028:5936:-0.309841
D^24*D^1029:5937:-0.0126413
E^225*E^516:5939:-0.0744781
D^349*D^1511:5940:-0.0730445
F^1503*F^3137:5944:-0.0289053
E^882*E^2107:5945:-0.00433122
A^136*A^144:5948:-0.0306657
E^225*E^510:5949:-0.0814772
C^64*C^4132:5950:-0.0443091
D^24*D^1141:5953:-0.00933586
E^882*E^2098:5954:-0.0185904
F^1179*F^2602:5955:-0.0100686
C^61*C^1297:5956:-0.0246867
D^24*D^1145:5957:-0.236005
A^782*A^1872:5962:-0.013661
B^125*B^191:5964:-0.0133966
D^349*D^1422:5965:-0.0351557
D^49*D^3540:5967:-0.0258619
D^26*D^298:5968:-0.00177942
F^522*F^1115:5969:-0.00722867
E^558*E^1589:5971:-0.0213051
B^140*B^6762:5974:-0.00763987
D^26*D^309:5979:-0.0269509
D^24*D^1121:5981:-0.0156319
B^762*B^1801:5983:-0.0235501
E^233*E^1705:5984:-0.071831
F^528*F^3002:5986:-0.168384
B^125*B^215:5988:-0.0435799
E^882*E^2071:5989:-0.0060283
D^24*D^1110:5990:-0.010672
D^26*D^258:5992:-0.0283569
D^26*D^259:5993:-0.0835168
F^1172*F^1278:5994:-0.00919862
D^24*D^1099:5995:-0.021288
E^231*E^2495:5996:-0.0396121
B^125*B^222:5997:-0.0353965
E^233*E^1690:6001:-0.0974795
B^125*B^231:6004:-0.069921
D^1029*D^5671:6012:-0.00774022
D^1029*D^5670:6013:-0.0178321
E^558*E^1546:6014:-0.0240495
D^24*D^1204:6016:-0.0213572
A^188*A^24303:6019:-0.122467
B^762*B^1726:6020:-0.0272782
F^1172*F^1509:6021:-0.0134963
D^50*D^2984:6022:-0.0235208
A^1132*A^8440:6024:-0.0300148
E^557*E^2126:6025:-0.0422267
B^125*B^255:6028:-0.0037657
D^52*D^2234:6030:-0.0406661
D^24*D^1188:6032:-0.0758241
E^233*E^1594:6033:-0.00623234
B^111*B^2014:6035:-0.0119144
D^26*D^495:6037:-0.0402507
E^557*E^2115:6038:-0.0288453
B^111*B^2018:6039:-0.0308467
F^1172*F^1520:6040:-0.0217671
B^1099*B^1099:6042:-0.0101659
D^24*D^1185:6045:-0.122205
D^26*D^504:6046:-0.0226271
D^24*D^1183:6047:-0.0671123
D^24*D^1173:6049:-0.0836941
F^1179*F^2769:6052:-0.0551076
B^773*B^1326:6053:-0.0183886
E^233*E^1647:6054:-0.0595289
C^726*C^15759:6057:-0.0537267
B^762*B^1750:6060:-0.033129
E^225*E^655:6062:-0.0373638
D^348*D^1776:6064:-0.013858
E^225*E^642:6065:-0.0357734
A^136*A^263:6071:-0.0275529
B^108*B^3184:6072:-0.0355108
F^529*F^2438:6073:-0.00631787
E^882*E^2234:6074:-0.0102397
F^4450*F^11517:6075:-0.0249474
E^2563*E^25081:6078:-0.0150843
C^33*C^121:6080:-0.0373418
F^1172*F^1449:6081:-0.0341152
B^111*B^1966:6083:-0.0129205
F^1504*F^2769:6085:-0.0450268
E^225*E^760:6087:-0.0140618
F^1503*F^3247:6090:-0.0112175
E^229*E^3137:6092:-0.0177845
E^225*E^751:6094:-0.0719673
F^1172*F^1435:6095:-0.00470688
E^1304*E^40982:6096:-0.00281269
C^3317*C^3784:6099:-0.0371538
E^229*E^3146:6101:-0.0118837
D^50*D^3065:6103:-0.0151501
E^232*E^2014:6104:-0.0672643
E^2538*E^6578:6106:-0.0431819
F^1172*F^1455:6107:-0.00814157
E^882*E^2207:6109:-0.00316799
A^136*A^239:6111:-0.0394534
E^10037*E^const:6112:-0.00578043
B^111*B^1935:6114:-0.0868919
F^231*F^7915:6118:-0.0407769
D^374*D^3533:6119:-0.0412414
E^232*E^1998:6120:-0.122999
D^92*D^18857:6121:-0.0146504
E^233*E^1589:6124:-0.015562
F^522*F^1239:6125:-0.0538579
F^1504*F^2806:6126:-0.0311271
E^3825*E^8081:6128:-0.012527
B^125*B^365:6130:-0.032926
B^760*B^2514:6138:-0.00475602
E^225*E^702:6141:-0.0966121
E^233*E^1575:6142:-0.121632
F^529*F^1073:6146:-0.00369914
E^557*E^973:6152:-0.0351528
D^19*D^331:6154:-0.00841205
D^20*D^733:6157:-0.0542764
E^558*E^1394:6166:-0.0451966
E^233*E^1479:6174:-0.111833
D^3368*D^26948:6176:-0.00770893
E^225*E^2323:6178:-0.0503971
F^231*F^3885:6180:-0.0244285
D^1342*D^9252:6182:-0.116346
D^19*D^365:6184:-0.0469031
D^21*D^1186:6185:-0.0255643
D^20*D^702:6186:-0.138654
C^64*C^820:6190:-0.128071
F^529*F^1044:6191:-0.0499394
D^49*D^4254:6193:-0.0271484
F^528*F^651:6195:-0.0242215
B^112*B^5424:6196:-0.0580159
E^231*E^664:6197:-0.0495973
F^528*F^655:6199:-0.00600248
E^231*E^651:6200:-0.0582938
E^230*E^295:6201:-0.0147566
A^453*A^644:6203:-0.0433249
E^231*E^655:6204:-0.0452164
C^390*C^1138:6206:-0.0256663
E^233*E^1417:6208:-0.0247539
E^233*E^1419:6210:-0.105736
C^64*C^842:6212:-0.0691015
E^233*E^1422:6213:-0.125535
D^19*D^279:6214:-0.0217225
F^529*F^1132:6215:-0.169043
C^32*C^238:6216:-0.0815389
E^231*E^733:6222:-0.0355558
E^585*E^3993:6224:-0.0244492
E^276*E^14793:6225:-0.0145418
F^528*F^747:6227:-0.0345488
C^1062*C^9840:6232:-0.0399801
A^453*A^613:6234:-0.0767225
F^529*F^1122:6237:-0.109827
E^233*E^1416:6239:-0.0312583
D^19*D^309:6240:-0.0328265
F^529*F^1102:6241:-0.0190972
B^80*B^const:6242:-0.100088
C^390*C^1045:6243:-1.12203
E^230*E^364:6244:-0.0286961
E^233*E^1454:6245:-0.176547
E^233*E^1455:6246:-0.0099743
E^233*E^1456:6247:-0.0543391
A^453*A^565:6250:-0.0246493
E^225*E^2380:6251:-0.0600101
D^41*D^9095:6256:-0.0607275
F^4450*F^8387:6257:-0.0319623
E^8081*E^14387:6258:-0.0173992
E^231*E^725:6262:-0.0295813
E^231*E^726:6263:-0.0283008
D^690*D^8651:6265:-0.0832183
E^233*E^1443:6266:-0.0305959
D^19*D^286:6271:-0.0300686
D^19*D^469:6272:-0.0303948
C^2655*C^4692:6273:-0.171136
D^19*D^466:6275:-0.0235295
E^882*E^1003:6281:-0.00792887
D^20*D^606:6282:-0.128575
E^225*E^2477:6284:-0.0216744
C^64*C^660:6286:-0.00354775
C^32*C^307:6287:-0.0984302
A^453*A^811:6288:-0.0273221
D^464*D^36203:6291:-0.0373205
E^557*E^836:6295:-0.03358
C^5259*C^5295:6296:-0.219616
B^117*B^3437:6298:-0.0190621
E^233*E^1350:6301:-0.097001
B^762*B^5065:6303:-0.00372761
E^232*E^1173:6305:-0.176768
E^233*E^1389:6308:-0.141459
A^128*A^673:6309:-0.0275624
A^453*A^768:6311:-0.0338355
C^390*C^992:6312:-0.0145135
E^233*E^1394:6313:-0.00331693
E^8734*E^const:6315:-0.0922763
B^817*B^15171:6316:-0.0375791
E^231*E^512:6317:-0.0448194
C^32*C^276:6318:-0.185776
F^529*F^1172:6319:-0.011523
E^225*E^2433:6320:-0.0568157
C^64*C^664:6322:-0.200818
F^528*F^528:6324:-0.00706334
F^528*F^529:6325:-0.0260064
D^690*D^8472:6326:-0.0892765
D^20*D^593:6329:-0.108419
E^233*E^1380:6331:-0.0873915
E^585*E^3910:6333:-0.0079343
C^64*C^676:6334:-0.157448
E^231*E^526:6335:-0.0629353
E^557*E^789:6336:-0.0435876
C^32*C^357:6337:-0.114362
F^236*F^5678:6338:-0.0891167
E^882*E^945:6339:-0.00943858
E^558*E^1443:6341:-0.0419461
A^2098*A^8440:6342:-0.0181941
E^246*E^10873:6343:-0.00738594
F^868*F^10512:6344:-0.00938598
E^225*E^2538:6345:-0.137658
D^19*D^394:6347:-0.0264694
C^1029*C^4595:6350:-0.0595052
E^233*E^1304:6351:-0.0247329
F^868*F^10505:6353:-0.0137366
D^50*D^4852:6354:-0.00296385
F^1823*F^2534:6355:-0.0224034
E^558*E^1456:6360:-0.0382976
E^558*E^1455:6361:-0.0266846
F^231*F^4039:6362:-0.0798444
E^557*E^768:6363:-0.0520449
E^558*E^1451:6365:-0.0325545
E^233*E^1287:6366:-0.0270877
E^558*E^1416:6368:-0.0135869
D^19*D^434:6371:-0.00608119
E^231*E^581:6374:-0.0389642
D^6319*D^36354:6375:-0.0164859
E^233*E^1335:6382:-0.0240642
B^1091*B^2493:6384:-0.261506
C^726*C^13494:6386:-0.0170272
F^528*F^587:6387:-0.185782
E^557*E^802:6389:-0.0467432
E^231*E^585:6394:-0.0515933
E^557*E^800:6395:-0.00284342
B^1091*B^2495:6398:-0.0359843
E^558*E^1126:6402:-0.0344807
C^64*C^524:6406:-0.184366
D^1029*D^2128:6407:-0.0434689
A^128*A^1012:6408:-0.116513
D^20*D^481:6409:-0.0230774
D^19*D^581:6416:-0.025304
E^231*E^945:6418:-0.0482881
C^64*C^506:6420:-0.295009
E^233*E^1214:6421:-0.0237153
F^1172*F^1906:6422:-0.00724896
E^558*E^1136:6424:-0.0430756
E^557*E^702:6425:-0.0668209
D^19*D^571:6426:-0.019076
E^233*E^1221:6428:-0.097973
E^558*E^1131:6429:-0.0421198
E^233*E^1223:6430:-0.0414686
D^1398*D^const:6431:-0.0803935
C^357*C^357:6432:-0.0853292
B^1449*B^20193:6434:-0.0338433
E^557*E^760:6435:-0.134765
D^21*D^927:6436:-0.0313719
E^233*E^1263:6438:-0.0340581
C^357*C^365:6440:-0.137549
F^1528*F^6125:6441:-0.0499357
E^557*E^751:6442:-0.023361
C^1765*C^38897:6444:-0.0265548
A^452*A^557:6445:-0.196466
D^55*D^2339:6446:-0.227519
E^2849*E^10946:6449:-0.0186892
E^585*E^3772:6451:-0.033032
A^452*A^533:6453:-0.456136
C^64*C^540:6454:-0.0503118
F^1172*F^1872:6456:-0.0116885
F^1172*F^1871:6459:-0.153762
E^233*E^1162:6465:-0.027429
F^1519*F^10726:6467:-0.0250964
A^452*A^452:6468:-0.144384
E^225*E^2166:6469:-0.0732306
A^453*A^865:6470:-0.0264512
C^64*C^587:6471:-0.216004
E^558*E^1056:6472:-0.047093
E^557*E^655:6474:-0.0559026
E^233*E^1173:6476:-0.150145
D^84*D^22746:6478:-0.148715
F^218*F^10731:6481:-0.119352
E^557*E^642:6485:-0.0247326
B^130*B^12338:6488:-0.0878269
B^130*B^12339:6489:-0.117329
B^130*B^12340:6490:-0.0472294
B^130*B^12341:6491:-0.0431361
F^529*F^867:6492:-0.00402954
F^231*F^4164:6493:-0.0291068
F^529*F^868:6495:-0.043614
E^233*E^1193:6496:-0.0882195
D^52*D^5671:6499:-0.142643
D^49*D^4075:6500:-0.117711
F^529*F^842:6501:-0.00738809
B^763*B^1709:6504:-0.023311
B^111*B^4615:6506:-0.0596269
C^64*C^626:6508:-0.075649
E^225*E^2126:6509:-0.00556504
D^19*D^559:6510:-0.026685
C^62*C^4240:6512:-0.00673772
E^225*E^2115:6514:-0.0417257
E^557*E^673:6516:-0.0128078
F^230*F^7915:6517:-0.00648995
D^21*D^1009:6518:-0.0105441
E^558*E^1040:6520:-0.00145553
D^19*D^539:6522:-0.0212741
E^233*E^1188:6523:-0.0217777
F^529*F^837:6526:-0.137671
D^21*D^763:6528:-0.012318
F^529*F^945:6530:-0.00863291
E^231*E^802:6531:-0.0436964
D^21*D^767:6532:-0.0152193
A^2173*A^30665:6534:-0.0126496
F^1823*F^2738:6535:-0.179472
C^32*C^45:6537:-0.240002
F^1823*F^2735:6538:-0.0378816
F^529*F^952:6539:-0.06398
E^233*E^1110:6541:-0.174173
F^529*F^949:6542:-0.214189
B^117*B^3160:6543:-0.226629
E^233*E^1081:6544:-0.0530245
F^529*F^929:6546:-0.0214735
E^3154*E^3457:6547:-0.188102
D^52*D^5845:6549:-0.00554063
B^117*B^3184:6551:-0.0267801
C^32*C^32:6554:-0.0675548
B^117*B^3180:6555:-0.119683
E^252*E^8734:6556:-0.177887
E^312*E^33705:6557:-0.0238539
D^6319*D^36203:6558:-0.0717519
E^233*E^1130:6561:-0.0290726
E^233*E^1131:6562:-0.0614804
C^64*C^423:6563:-0.00473964
E^233*E^1133:6564:-0.197502
E^233*E^1136:6567:-0.0611023
E^232*E^1422:6568:-0.138343
F^529*F^921:6570:-0.1166
F^1519*F^10494:6571:-0.0792458
E^232*E^1419:6575:-0.124478
A^585*A^const:6576:-0.141659
F^529*F^897:6578:-0.0255492
C^390*C^1253:6579:-0.0453231
E^233*E^1118:6581:-0.106119
C^61*C^3811:6582:-0.0265574
B^3038*B^4485:6583:-0.0126844
C^64*C^413:6585:-0.105667
E^276*E^14387:6587:-0.0753804
E^233*E^1126:6589:-0.0460735
F^925*F^21537:6590:-0.0351126
D^19*D^660:6593:-0.0544808
E^233*E^1036:6595:-0.265228
C^726*C^const:6596:-0.149195
E^233*E^1038:6597:-0.254777
C^32*C^107:6599:-0.149673
A^453*A^984:6607:-0.0171642
E^3188*E^4202:6608:-0.133752
D^19*D^644:6609:-0.0117622
F^1179*F^1179:6610:-0.190213
F^529*F^992:6611:-0.134643
C^390*C^1162:6614:-0.0276598
E^3188*E^4209:6617:-0.158766
C^8857*C^const:6619:-0.174642
E^558*E^1196:6620:-0.0465833
C^390*C^1170:6622:-0.00713297
E^558*E^1193:6623:-0.0621982
E^225*E^2259:6626:-0.0758439
D^20*D^263:6627:-0.0544618
D^1029*D^2223:6628:-0.0087707
C^32*C^73:6629:-0.202527
D^20*D^258:6630:-0.0567653
E^557*E^564:6631:-0.0434829
E^557*E^557:6632:-0.0120042
D^20*D^257:6633:-0.182343
D^464*D^36354:6634:-0.0896134
D^18*D^52:6642:-0.205819
F^529*F^954:6645:-0.141611
C^64*C^476:6646:-0.0302524
E^225*E^2248:6647:-0.0856957
F^529*F^967:6648:-0.0676243
E^233*E^1059:6650:-0.0334279
F^1172*F^1935:6651:-0.108313
E^558*E^1164:6652:-0.0176964
E^233*E^1062:6653:-0.109519
E^233*E^1063:6654:-0.0621352
D^18*D^49:6655:-0.143357
A^128*A^252:6656:-0.263563
E^231*E^1188:6657:-0.0655503
F^1179*F^1387:6658:-0.00777477
C^413*C^9840:6659:-0.0267023
D^3390*D^36354:6660:-0.00305717
A^2536*A^const:6663:-0.0706962
C^64*C^1293:6665:-0.0488274
C^64*C^1296:6666:-0.0480956
F^1179*F^1394:6667:-0.30108
D^20*D^220:6668:-0.0806076
C^8871*C^23854:6671:-0.0224975
A^456*A^1380:6672:-0.0249276
E^557*E^1479:6674:-0.0739841
E^232*E^548:6678:-0.0773146
B^117*B^2795:6680:-0.196215
E^231*E^1196:6681:-0.0485148
F^1823*F^1823:6682:-0.0647575
B^464*B^8491:6683:-0.00385122
D^2658*D^3486:6684:-0.0514838
E^233*E^968:6687:-0.0492217
E^233*E^1003:6690:-0.0552593
E^586*E^3993:6691:-0.0298074
E^1890*E^18535:6693:-0.0270245
D^52*D^4962:6694:-0.0759941
F^1509*F^const:6697:-0.0175774
E^233*E^1011:6698:-0.128736
F^529*F^1557:6702:-0.00653565
F^1179*F^1338:6707:-0.0536319
C^384*C^3292:6710:-0.00861964
D^20*D^208:6712:-0.0550567
E^231*E^1164:6713:-0.0184248
E^231*E^1162:6715:-0.121442
D^20*D^204:6716:-0.0803781
F^1179*F^1350:6719:-0.00700499
C^61*C^4111:6722:-0.0507119
E^558*E^805:6723:-0.0725809
E^558*E^802:6726:-0.0916561
C^62*C^3479:6729:-0.00640939
C^54*C^5390:6730:-0.00361433
E^232*E^623:6731:-0.161518
E^557*E^1417:6732:-0.458618
E^2538*E^5158:6734:-0.0358781
C^1731*C^17679:6736:-0.0354234
E^225*E^1890:6737:-0.119587
E^557*E^1416:6739:-0.0405716
D^20*D^180:6740:-0.132838
D^20*D^179:6743:-0.120027
C^390*C^526:6746:-0.116487
E^232*E^607:6747:-0.112855
D^50*D^4206:6748:-0.033332
B^762*B^4615:6749:-0.0219053
E^231*E^1223:6756:-0.000969517
E^8395*E^18668:6757:-0.0116989
E^8395*E^18665:6758:-0.00583168
E^8395*E^18666:6759:-0.0151555
E^225*E^1865:6760:-0.0510745
E^557*E^1454:6761:-0.0617061
E^557*E^1455:6762:-0.193185
E^231*E^1213:6766:-0.0824999
E^3825*E^10752:6767:-0.0106992
D^3013*D^22746:6769:-0.0118671
F^1557*F^13549:6770:-0.00341598
D^20*D^148:6772:-0.0536747
E^882*E^1287:6773:-0.00872633
A^3512*A^const:6775:-0.132124
E^8395*E^18661:6778:-0.0241443
D^20*D^140:6780:-0.159067
E^231*E^1059:6784:-0.0829667
E^233*E^842:6785:-0.23483
B^465*B^7993:6786:-0.204997
E^1223*E^10946:6787:-0.00672133
A^480*A^7840:6788:-0.0322647
F^1172*F^2789:6789:-0.114793
C^384*C^3403:6791:-0.213822
B^112*B^4731:6795:-0.0288669
F^1179*F^1528:6797:-0.0490487
C^3046*C^30434:6798:-0.107138
E^557*E^1350:6801:-0.131387
C^390*C^453:6803:-0.00624492
F^1179*F^1504:6805:-0.0441644
C^1674*C^7181:6807:-0.00732904
D^21*D^1557:6810:-0.0336867
E^233*E^836:6811:-0.0198379
E^558*E^1003:6813:-0.0389575
E^558*E^968:6816:-0.0347014
C^1036*C^2697:6817:-0.442255
B^117*B^2885:6818:-0.186883
E^1223*E^10983:6820:-0.0130062
F^1823*F^1940:6821:-0.338526
E^1890*E^18661:6823:-0.00585505
E^557*E^1389:6824:-0.041935
C^1772*C^33393:6825:-0.0772887
F^1823*F^1935:6826:-0.0259425
E^2538*E^5313:6827:-0.0261234
E^1890*E^18656:6828:-0.0513032
D^20*D^61:6829:-0.0878979
E^557*E^1380:6839:-0.0519178
B^1091*B^2949:6840:-0.120671
E^1890*E^18666:6842:-0.122024
E^1890*E^18665:6843:-0.0112652
E^231*E^1040:6845:-0.0547562
E^223*E^2214:6847:-0.0321434
B^762*B^4485:6851:-0.0727273
E^557*E^1298:6853:-0.0195281
D^42*D^9041:6855:-0.0338254
E^882*E^1451:6857:-0.00662723
E^1223*E^10873:6858:-0.00799057
E^225*E^2028:6859:-0.0386
E^233*E^789:6860:-0.0193116
B^441*B^3370:6861:-0.00543089
E^586*E^3910:6862:-0.0144595
D^18*D^257:6863:-0.0739807
E^882*E^1443:6865:-0.00853651
D^18*D^277:6867:-0.0574539
F^1172*F^2738:6870:-0.0582951
D^50*D^4345:6871:-0.0993332
E^231*E^1131:6872:-0.0357195
D^20*D^49:6873:-0.314572
C^64*C^1218:6876:-0.146002
E^231*E^1136:6877:-0.0448502
E^1223*E^10894:6879:-0.00320597
C^59*C^3272:6881:-0.00630921
E^557*E^1335:6882:-0.0567003
C^7559*C^11306:6883:-0.030865
E^229*E^346:6885:-0.103861
F^1504*F^1528:6892:-0.0407765
E^558*E^889:6895:-0.0336437
D^20*D^24:6896:-0.0454262
F^1504*F^1504:6900:-0.0510849
E^233*E^800:6903:-0.0764671
E^8395*E^18535:6904:-0.0139927
E^233*E^802:6905:-0.130175
E^557*E^1305:6908:-0.0650181
B^3038*B^5309:6911:-0.0644053
F^229*F^7915:6912:-0.0503339
C^64*C^1029:6913:-0.234893
D^55*D^1788:6917:-0.0694609
E^585*E^4337:6920:-0.0351997
A^1137*A^5206:6921:-0.00698001
E^233*E^723:6922:-0.0559273
E^233*E^724:6923:-0.055989
F^1504*F^1560:6924:-0.0301309
E^233*E^726:6925:-0.0312185
D^3309*D^3457:6926:-0.00723287
E^557*E^1221:6928:-0.0402376
F^1823*F^2088:6929:-0.0933418
D^18*D^724:6930:-0.0978379
E^232*E^802:6932:-0.142259
E^233*E^702:6933:-0.162625
E^882*E^1126:6934:-0.0066113
E^231*E^1451:6936:-0.0339019
E^557*E^1214:6937:-0.0814525
C^64*C^1024:6938:-0.170011
E^231*E^1455:6940:-0.0277859
E^231*E^1456:6941:-0.0486544
E^231*E^1454:6943:-0.076448
C^64*C^1062:6944:-0.185773
B^5314*B^5371:6945:-0.0139894
C^10494*C^10494:6946:-0.0197759
E^558*E^581:6947:-0.0374217
F^1528*F^6649:6949:-0.0221914
E^233*E^751:6950:-0.101443
E^232*E^782:6952:-0.0200425
E^557*E^1263:6954:-0.0241979
D^690*D^8318:6956:-0.0557424
D^3291*D^8472:6957:-0.0339525
E^233*E^760:6959:-0.0978085
D^2984*D^3540:6960:-0.020865
B^117*B^2514:6961:-0.00557411
D^21*D^1452:6963:-0.0751935
E^233*E^733:6964:-0.048433
D^19*D^102:6967:-0.0265617
C^423*C^22275:6968:-0.013358
E^558*E^586:6974:-0.0656788
E^558*E^585:6975:-0.0495329
E^586*E^3772:6976:-0.0468553
B^111*B^5168:6977:-0.0111942
E^233*E^651:6978:-0.0778882
F^529*F^1387:6980:-0.0248154
E^233*E^655:6982:-0.132938
C^7559*C^11408:6989:-0.0139764
A^128*A^438:6990:-0.00557192
D^69*D^12632:6991:-0.0675422
E^882*E^1059:6993:-0.0205581
E^233*E^638:6997:-0.00155072
E^233*E^642:7001:-0.0602255
E^558*E^558:7002:-0.0591519
A^128*A^451:7003:-0.0385915
E^882*E^1056:7004:-0.00958546
D^19*D^52:7009:-0.0685854
E^271*E^16063:7012:-0.0212641
F^1179*F^1557:7016:-0.023404
E^232*E^842:7020:-0.153709
D^19*D^47:7022:-0.0275452
E^557*E^1196:7023:-0.0498614
F^529*F^1338:7029:-0.00659457
E^233*E^673:7032:-0.12766
B^481*B^19584:7035:-0.0430906
D^3384*D^36831:7039:-0.0948743
F^529*F^1455:7040:-0.0702733
D^50*D^4003:7041:-0.00837602
C^52*C^7838:7044:-0.0442982
E^1223*E^11205:7046:-0.0105717
E^2538*E^5597:7047:-0.0171434
E^225*E^1705:7048:-0.0426828
C^1029*C^5295:7050:-0.0747341
E^558*E^733:7051:-0.034146
D^19*D^209:7052:-0.0391482
C^1029*C^5300:7055:-0.0579625
C^422*C^22568:7056:-0.0276682
C^62*C^3951:7057:-0.0319935
F^529*F^1435:7060:-0.0273515
C^384*C^3132:7062:-0.0199297
E^225*E^1690:7065:-0.180142
F^529*F^1449:7066:-0.0197131
E^557*E^1081:7068:-0.0317019
A^453*A^553:7070:-0.0234152
D^1029*D^2760:7071:-0.027554
E^233*E^617:7072:-0.0804852
D^19*D^242:7075:-0.028454
E^231*E^1287:7076:-0.0198845
E^233*E^623:7078:-0.137226
D^430*D^31214:7080:-0.0409875
D^2009*D^2977:7082:-0.0184419
C^64*C^946:7084:-0.0494149
E^557*E^1130:7085:-0.0420322
E^558*E^726:7090:-0.0220079
E^558*E^725:7091:-0.0284103
E^558*E^724:7092:-0.0306954
E^231*E^1304:7093:-0.0035284
E^233*E^607:7094:-0.0951525
D^19*D^221:7096:-0.00920787
D^42*D^9251:7097:-0.0383756
C^381*C^6296:7099:-0.0456281
E^233*E^613:7100:-0.0949516
D^19*D^224:7101:-0.0190577
D^19*D^223:7102:-0.0450639
E^882*E^1213:7103:-0.0199264
F^529*F^1519:7104:-0.0252474
E^585*E^4138:7105:-0.020959
C^3307*C^4731:7108:-0.0255635
E^233*E^526:7109:-0.0383196
E^968*E^32020:7110:-0.0120878
E^882*E^1196:7112:-0.00948285
E^557*E^1038:7113:-0.0455543
F^529*F^1528:7115:-0.014295
E^233*E^533:7116:-0.262514
D^2009*D^3002:7117:-0.0710236
A^2153*A^21901:7118:-0.00990102
E^557*E^1036:7119:-0.0756158
F^529*F^1503:7120:-0.0128121
C^5261*C^5775:7122:-0.017816
F^529*F^1504:7123:-0.0397691
E^233*E^510:7125:-0.137171
A^453*A^497:7126:-0.0386687
E^301*E^20228:7127:-0.0195814
D^19*D^125:7128:-0.0213421
C^2423*C^33393:7130:-0.015195
E^233*E^516:7131:-0.125386
C^390*C^664:7136:-0.189082
D^50*D^4038:7140:-0.0897924
E^233*E^558:7141:-0.0586173
E^882*E^1164:7144:-0.003601
E^558*E^638:7146:-0.00345844
E^233*E^564:7147:-0.105825
E^558*E^664:7152:-0.0208896
E^557*E^1062:7153:-0.0449859
E^557*E^1059:7158:-0.0503699
D^347*D^1086:7159:-0.090315
E^558*E^655:7161:-0.043427
A^453*A^453:7162:-0.0404475
E^233*E^548:7163:-0.0641696
E^558*E^651:7165:-0.0569402
D^1339*D^8871:7166:-0.00800585
E^232*E^955:7167:-0.0830427
F^229*F^6125:7170:-0.0209001
B^1091*B^1574:7175:-0.17299
C^108*C^17490:7176:-0.0391033
D^21*D^138:7185:-0.0984701
B^117*B^2293:7186:-0.004239
D^21*D^144:7191:-0.031307
D^3291*D^9251:7194:-0.0553721
D^20*D^1775:7195:-0.0661488
E^233*E^454:7197:-0.0846407
A^3752*A^16404:7200:-0.00373126
D^18*D^995:7201:-0.0977734
A^453*A^1664:7207:-0.0435858
E^233*E^497:7208:-0.0158785
F^1172*F^3137:7209:-0.0123884
C^393*C^1227:7210:-0.00469738
D^20*D^1727:7211:-0.118304
D^20*D^1725:7213:-0.0564715
E^252*E^8066:7216:-0.0302239
E^233*E^478:7221:-0.128019
E^233*E^480:7223:-0.0581255
E^233*E^481:7224:-0.0875681
D^347*D^388:7225:-0.060395
C^9840*C^11408:7226:-0.0170467
C^4276*C^7559:7231:-0.0306723
D^21*D^187:7232:-0.028575
C^355*C^355:7236:-0.0785091
E^229*E^954:7237:-0.0281342
B^524*B^33246:7242:-0.027101
D^19*D^1297:7244:-0.00897163
B^117*B^2201:7246:-0.0279742
E^233*E^378:7249:-0.0998874
E^229*E^976:7251:-0.00975285
C^1356*C^6296:7254:-0.038338
C^355*C^359:7256:-0.122056
D^21*D^218:7265:-0.00504183
D^19*D^1331:7266:-0.00940183
E^2538*E^3577:7267:-0.0215583
C^381*C^4721:7268:-0.0441258
D^20*D^1666:7270:-0.318126
D^21*D^224:7271:-0.146896
C^411*C^10543:7272:-0.0083099
D^20*D^1665:7273:-0.0758827
A^128*A^1746:7274:-0.0114037
A^128*A^1747:7275:-0.0101758
E^233*E^438:7277:-0.0745402
B^441*B^1654:7289:-0.111459
F^230*F^6649:7291:-0.0110586
B^112*B^4454:7294:-0.266304
F^1823*F^3513:7296:-0.00617806
F^1503*F^1519:7306:-0.00945756
E^233*E^342:7309:-0.06208
D^995*D^1342:7311:-0.0298995
E^2234*E^12092:7312:-0.0152347
A^452*A^1145:7313:-0.289077
F^851*F^899:7314:-0.121216
F^526*F^990:7320:-0.287668
D^1029*D^3013:7322:-0.115459
E^2538*E^3825:7323:-0.0184737
D^21*D^26:7329:-0.0422002
E^233*E^363:7330:-0.039922
B^2464*B^22576:7332:-0.0983576
A^545*A^30665:7338:-0.0218253
B^802*B^20193:7343:-0.0547459
F^1823*F^3463:7346:-0.0229189
D^21*D^47:7348:-0.0269757
D^21*D^49:7350:-0.024676
B^1452*B^20267:7351:-0.00653374
F^851*F^925:7352:-0.0031804
E^233*E^354:7353:-0.150692
E^223*E^2722:7355:-0.219565
E^2538*E^3800:7356:-0.0377774
F^526*F^955:7357:-0.021524
E^233*E^360:7359:-0.0339708
B^117*B^2338:7361:-0.142761
F^851*F^979:7362:-0.223526
C^1024*C^7559:7363:-0.0976173
E^233*E^269:7364:-0.01137
C^390*C^1915:7365:-0.0348441
E^233*E^271:7366:-0.119812
D^21*D^64:7367:-0.223056
E^8734*E^14574:7370:-0.00459446
E^233*E^276:7371:-0.213995
E^232*E^233:7373:-0.161071
C^59*C^3825:7374:-0.0382815
A^128*A^1613:7377:-0.0252553
D^1342*D^8408:7378:-0.0759174
E^233*E^252:7379:-0.0106686
D^21*D^79:7380:-0.0411628
C^3659*C^10666:7383:-0.0922792
B^501*B^27819:7384:-0.0621506
F^1172*F^3246:7386:-0.119828
F^851*F^954:7387:-0.0354847
E^8081*E^const:7388:-0.146145
C^64*C^1731:7391:-0.19777
E^233*E^297:7392:-0.0266477
D^433*D^31214:7393:-0.0837205
C^744*C^22111:7395:-0.0162264
E^233*E^301:7396:-0.0614755
D^433*D^31213:7398:-0.127121
D^20*D^1536:7400:-0.0269454
B^117*B^2298:7401:-0.0334877
E^233*E^309:7404:-0.00902191
D^1321*D^1546:7405:-0.123565
E^225*E^3536:7407:-0.0498884
E^233*E^286:7413:-0.11231
E^246*E^9898:7414:-0.00872075
B^441*B^1796:7415:-0.0332501
E^586*E^5492:7416:-0.0280582
A^811*A^4404:7417:-0.132826
F^528*F^1618:7418:-0.0437658
D^19*D^1434:7419:-0.00838653
E^233*E^293:7420:-0.11729
D^2025*D^11197:7422:-0.0122944
F^528*F^1435:7427:-0.130233
D^18*D^1222:7428:-0.0796296
D^1434*D^36832:7430:-0.104468
A^518*A^24036:7438:-0.0235859
D^20*D^1528:7440:-0.109582
D^1723*D^18618:7443:-0.0891442
E^276*E^const:7445:-0.525528
E^232*E^286:7448:-0.132185
D^347*D^675:7450:-0.0817179
B^3038*B^3609:7451:-0.00492005
A^453*A^1958:7453:-0.0133424
E^233*E^233:7456:-0.14809
D^41*D^8408:7459:-0.0254742
C^812*C^44966:7460:-0.0254543
E^233*E^239:7462:-0.0862638
A^128*A^2068:7464:-0.0152821
F^851*F^1073:7468:-0.00238531
E^9*E^40982:7469:-0.0137521
C^1036*C^4092:7474:-0.01494
D^52*D^4724:7476:-0.0142659
E^229*E^682:7477:-0.0156165
B^1738*B^3962:7480:-0.0408255
B^1091*B^1796:7481:-0.0185986
D^24525*D^36877:7482:-0.0105054
D^995*D^1777:7484:-0.0207584
D^19*D^1557:7488:-0.0343998
D^55*D^3390:7491:-0.163507
C^64*C^1609:7493:-0.116059
F^528*F^1509:7497:-0.00289779
A^128*A^1970:7498:-0.0212805
D^19*D^1540:7505:-0.0294742
E^232*E^354:7508:-0.17668
B^117*B^1964:7515:-0.136898
E^18873*E^40982:7517:-0.00274688
F^851*F^1132:7529:-0.027141
E^2538*E^3845:7535:-0.0388094
D^19*D^1573:7536:-0.0264925
A^453*A^1872:7543:-0.080853
A^128*A^2018:7546:-0.0741309
E^246*E^10037:7547:-0.00837336
D^702*D^4075:7549:-0.0509006
A^156*A^7052:7556:-0.0641903
F^528*F^1311:7559:-0.0223688
C^64*C^1426:7564:-0.0191983
B^1091*B^1712:7565:-0.0676382
E^585*E^4728:7567:-0.0227806
E^225*E^3236:7571:-0.0636993
C^9840*C^11306:7572:-0.0192187
C^1032*C^4721:7573:-0.0462751
C^57*C^5257:7576:-0.0306985
D^1373*D^12090:7577:-0.0200479
C^1028*C^7213:7589:-0.169394
C^1029*C^5775:7594:-0.0711378
F^528*F^1288:7596:-0.0115938
E^229*E^546:7597:-0.0304899
C^64*C^1429:7601:-0.0063758
B^768*B^768:7604:-0.0593807
C^1032*C^4692:7606:-0.00526726
B^1091*B^1654:7607:-0.0654074
A^488*A^3188:7616:-0.135588
C^64*C^1486:7624:-0.16571
D^41*D^8240:7627:-0.0147534
C^64*C^1489:7629:-0.068233
A^452*A^1355:7631:-0.0683831
C^5261*C^5261:7632:-0.00747244
A^453*A^2026:7633:-0.0245385
D^1321*D^1321:7634:-0.0379227
D^55*D^3533:7636:-0.0237866
E^232*E^481:7637:-0.10306
D^61*D^16540:7643:-0.0301611
D^20*D^1288:7648:-0.067808
F^528*F^1338:7650:-0.00791755
E^229*E^613:7656:-0.0184765
B^3038*B^3530:7660:-0.0423174
F^528*F^1350:7662:-0.0194551
F^1172*F^2939:7663:-0.0253758
C^5261*C^5295:7666:-0.0162256
E^586*E^5230:7670:-0.0159057
D^55*D^3562:7671:-0.0148258
A^456*A^784:7676:-0.0147454
C^1674*C^8039:7677:-0.00273651
D^52*D^4779:7679:-0.0724098
A^518*A^24303:7681:-0.0340051
C^76*C^const:7682:-0.820746
C^64*C^2311:7683:-0.161443
F^851*F^1304:7685:-0.0342467
E^1546*E^10946:7690:-0.00403469
B^117*B^1756:7691:-0.0467148
D^21*D^647:7692:-0.0270891
D^52*D^3899:7695:-0.0800122
D^1029*D^3386:7697:-0.00469738
D^21*D^660:7707:-0.0533548
A^453*A^1191:7708:-0.0240106
F^529*F^529:7714:-0.126014
D^690*D^9095:7717:-0.0331989
B^759*B^4523:7718:-0.0177266
D^74*D^11730:7720:-0.00590099
B^117*B^1725:7722:-0.00372206
D^41*D^8651:7724:-0.0443855
B^135*B^11108:7725:-0.00854355
D^365*D^9271:7732:-0.0131809
D^19*D^858:7739:-0.0249231
A^2153*A^20698:7741:-0.0124138
B^434*B^4525:7747:-0.00657374
E^231*E^231:7748:-0.149663
D^20*D^1185:7753:-0.0757526
D^20*D^1183:7755:-0.0415965
D^4277*D^5671:7756:-0.0499089
C^381*C^5194:7757:-0.0273497
F^522*F^2937:7759:-0.134338
D^19*D^773:7760:-0.0756412
E^1881*E^6762:7761:-0.0114473
B^768*B^995:7763:-0.0166193
E^1546*E^10894:7766:-0.00263798
F^851*F^1350:7767:-0.0281394
E^231*E^236:7769:-0.0146714
E^231*E^233:7770:-0.0145668
E^231*E^239:7772:-0.0715886
D^19*D^767:7774:-0.0335591
C^441*C^30434:7777:-0.0347738
C^1395*C^22568:7785:-0.0244609
F^231*F^5493:7788:-0.027114
B^117*B^1654:7789:-0.0177198
D^1029*D^3384:7791:-0.00416932
D^20*D^1173:7797:-0.0864138
D^21*D^755:7800:-0.0250013
D^18*D^1452:7802:-0.167505
F^229*F^6507:7808:-0.0193203
E^230*E^911:7809:-0.0422434
A^456*A^467:7811:-0.0319543
C^87*C^9399:7812:-0.130526
C^381*C^5012:7815:-0.0105494
F^529*F^694:7817:-0.1092
E^585*E^5492:7819:-0.0230113
B^460*B^11108:7820:-0.00920402
E^10037*E^13811:7822:-0.00692468
D^19*D^965:7824:-0.00473276
D^20*D^1145:7825:-0.146246
D^20*D^1142:7826:-0.14638
A^456*A^488:7828:-0.0382153
D^19*D^954:7835:-0.027554
D^6609*D^32228:7839:-0.00111504
F^529*F^655:7840:-0.0208396
D^1029*D^3562:7841:-0.0238442
C^390*C^1497:7847:-0.0157983
C^64*C^2221:7849:-0.15139
F^528*F^1026:7850:-0.186883
B^441*B^2376:7851:-0.167692
C^64*C^2226:7852:-0.0785469
A^1102*A^1750:7856:-0.0280039
A^3410*A^6147:7857:-0.0188488
D^20*D^1110:7858:-0.131295
C^64*C^2202:7860:-0.00282785
D^21*D^561:7862:-0.0270471
F^1823*F^2938:7871:-0.0209484
E^230*E^976:7872:-0.0186826
C^393*C^815:7878:-0.0275052
D^20*D^1059:7879:-0.00480704
B^441*B^2343:7880:-0.12677
B^1091*B^2036:7881:-0.0307035
F^528*F^1122:7882:-0.0247776
F^528*F^1132:7888:-0.149672
F^6125*F^22361:7894:-0.048786
C^107*C^17679:7896:-0.0382569
D^20*D^1071:7899:-0.158476
A^587*A^const:7902:-0.166726
E^225*E^3027:7906:-0.0195242
D^20*D^1028:7908:-0.192012
F^851*F^1528:7909:-0.0317242
F^851*F^1519:7918:-0.0270652
B^768*B^1091:7923:-0.0489047
B^108*B^5424:7928:-0.0380587
E^1223*E^9898:7931:-0.00415273
E^1575*E^const:7934:-0.987157
D^690*D^9041:7935:-0.0655497
E^3845*E^18656:7939:-0.019872
B^1091*B^2344:7941:-0.0591712
B^1091*B^2343:7942:-0.0099554
B^441*B^2036:7943:-0.0651052
E^3845*E^18661:7944:-0.0445931
A^453*A^1426:7945:-0.0473382
C^61*C^3401:7948:-0.0181174
E^1546*E^11205:7951:-0.00869697
D^42*D^8318:7956:-0.00976403
E^3845*E^18666:7957:-0.0253794
E^3845*E^18668:7959:-0.0292987
D^1028*D^4254:7962:-0.0646571
A^1102*A^1857:7963:-0.00973434
F^3137*F^const:7965:-0.0196788
E^1221*E^10752:7971:-0.0805633
D^19*D^1145:7972:-0.0367448
C^9840*C^10622:7976:-0.0223322
E^5158*E^13810:7982:-0.00965747
D^1110*D^36832:7986:-0.012481
C^62*C^2771:7989:-0.0445009
C^393*C^441:7992:-0.00919418
D^21*D^443:8000:-0.0464569
F^1520*F^10505:8013:-0.0548141
D^42*D^8408:8014:-0.00206314
C^64*C^2131:8015:-0.00422666
D^19*D^1029:8016:-0.00755078
E^231*E^497:8018:-0.0578669
D^18*D^1674:8024:-0.108047
C^2655*C^6268:8025:-0.0230409
B^27819*B^27819:8026:-0.029766
C^123*C^27272:8033:-0.00830428
A^453*A^1340:8035:-0.0268574
B^1091*B^2376:8037:-0.0325453
E^231*E^454:8039:-0.0621352
C^123*C^27277:8042:-0.0946111
E^230*E^606:8050:-0.0142151
E^1223*E^10037:8054:-0.0259732
C^62*C^2697:8063:-0.0269929
D^690*D^9251:8065:-0.0144997
E^585*E^5230:8069:-0.0130435
E^231*E^293:8070:-0.0860894
D^21*D^258:8073:-0.0338357
E^3845*E^18535:8074:-0.0372598
B^768*B^1321:8077:-0.0510306
E^252*E^8240:8078:-0.0157766
A^128*A^1399:8079:-0.0834646
F^528*F^814:8086:-0.050543
E^2538*E^4594:8090:-0.0304369
D^21*D^279:8092:-0.0212741
E^2538*E^4599:8093:-0.02434
F^528*F^764:8096:-0.0178019
A^128*A^1437:8097:-0.0218518
C^51*C^7213:8098:-0.184291
D^21*D^284:8099:-0.0247203
F^528*F^769:8101:-0.0512863
E^230*E^682:8102:-0.0499968
A^453*A^1536:8103:-0.0220841
E^231*E^252:8105:-0.0712123
A^128*A^1426:8106:-0.29836
C^393*C^582:8109:-0.0186805
D^995*D^1118:8111:-0.0221139
D^52*D^4345:8113:-0.0363325
C^412*C^9286:8116:-0.0491893
D^995*D^1142:8119:-0.0752318
F^1520*F^10741:8121:-0.119903
D^46*D^6752:8122:-0.00629679
E^231*E^271:8124:-0.0879271
D^20*D^842:8126:-0.12716
E^231*E^354:8131:-0.0228263
D^21*D^319:8132:-0.00314696
C^55*C^5656:8133:-0.00423
D^55*D^3013:8140:-0.0414611
A^3404*A^8275:8143:-0.0236259
D^21*D^331:8144:-0.00234813
E^581*E^6762:8149:-0.0203956
B^1091*B^2277:8152:-0.029305
E^231*E^365:8158:-0.0722196
D^21*D^349:8162:-0.016239
F^1172*F^3463:8163:-0.0233673
D^49*D^5483:8164:-0.00941911
D^20*D^773:8165:-0.258525
E^229*E^1127:8170:-0.024465
A^1102*A^2090:8172:-0.0370914
E^229*E^1122:8173:-0.0862497
E^231*E^339:8176:-0.0711532
F^528*F^842:8178:-0.0459264
D^19*D^1186:8179:-0.0261067
F^231*F^5863:8186:-0.0540456
E^586*E^4728:8188:-0.0277691
D^19*D^1183:8190:-0.024944
A^170*A^3355:8193:-0.0349441
A^24303*A^const:8194:-0.347435
D^348*D^3912:8200:-0.00890096
E^217*E^1188:8203:-0.0309482
D^354*D^6319:8205:-0.00675557
B^751*B^2795:8206:-0.183564
E^8081*E^8256:8207:-0.0112563
E^8081*E^8273:8208:-0.0141072
C^74*C^2771:8209:-0.0138556
A^7052*A^24303:8211:-0.0277555
B^1398*B^1422:8216:-0.0201799
A^1426*A^1643:8217:-0.057913
D^55*D^533:8220:-0.0175203
A^1426*A^1647:8221:-0.0736149
E^1193*E^1287:8222:-0.0200804
D^85*D^12632:8223:-0.0227154
F^229*F^979:8232:-0.0150627
E^8081*E^8284:8235:-0.00538957
E^8081*E^8287:8238:-0.0061579
E^276*E^8615:8239:-0.0530694
F^230*F^1454:8240:-0.0229695
F^229*F^954:8241:-0.0226786
E^217*E^1164:8243:-0.00869747
E^1196*E^2538:8248:-0.0532638
A^1426*A^1613:8251:-0.136842
B^802*B^7024:8254:-0.0508703
A^1426*A^1617:8255:-0.0680312
E^1196*E^2433:8257:-0.047448
D^55*D^575:8258:-0.0111731
E^586*E^18873:8259:-0.0173886
D^428*D^36203:8263:-0.00706167
D^54*D^54:8264:-0.00691955
B^751*B^2728:8265:-0.0438578
E^1890*E^3577:8267:-0.0229379
D^21*D^3270:8269:-0.0157259
F^229*F^925:8274:-1.09326
F^229*F^929:8278:-0.0152904
D^2028*D^25512:8280:-0.00618389
D^19*D^2305:8284:-0.020376
E^10983*E^14574:8287:-0.00734503
E^217*E^1213:8292:-0.0225507
B^422*B^1389:8295:-0.0216575
E^1193*E^1394:8297:-0.0401607
F^229*F^921:8302:-0.0212708
C^2350*C^2493:8307:-0.0337497
F^229*F^897:8310:-0.00976131
E^1196*E^2477:8317:-0.0366202
B^234*B^40078:8324:-0.0167508
B^144*B^20193:8325:-0.023295
E^217*E^1056:8327:-0.0231528
E^1196*E^2362:8328:-0.0870257
F^230*F^1288:8330:-0.0391735
A^2448*A^3752:8332:-0.0102219
B^751*B^2923:8334:-0.0152347
C^3008*C^5651:8335:-0.355665
B^1399*B^1654:8339:-0.0353512
E^1890*E^3800:8340:-0.0402077
E^1196*E^2380:8346:-0.0160586
E^276*E^8467:8347:-0.0559797
D^1009*D^8002:8349:-0.0617438
B^55*B^const:8351:-0.0420682
E^1193*E^1451:8354:-0.0342359
E^8081*E^8421:8356:-0.0235701
B^99*B^2344:8357:-0.0606234
B^99*B^2343:8358:-0.0280582
E^1193*E^1456:8359:-0.0402801
B^1725*B^2014:8365:-0.00777761
C^1062*C^7559:8369:-0.0327707
B^99*B^2330:8371:-0.0196627
D^25*D^4724:8375:-0.0384344
C^1029*C^10622:8377:-0.0570192
F^229*F^837:8378:-0.0441071
B^98*B^1726:8396:-0.0281023
E^217*E^1126:8397:-0.0159687
B^1399*B^1746:8399:-0.103324
B^1725*B^1930:8401:-0.0108283
E^217*E^1131:8402:-0.0168654
B^99*B^2362:8403:-0.0459431
B^99*B^2360:8405:-0.00735777
E^217*E^1136:8407:-0.021179
A^1455*A^13136:8409:-0.0436779
B^1725*B^1935:8412:-0.0172266
E^546*E^2661:8423:-0.0268758
B^755*B^4254:8431:-0.0372824
D^1654*D^6080:8434:-0.0243399
B^1399*B^1756:8437:-0.0119732
F^229*F^769:8438:-0.0531508
F^229*F^774:8445:-0.0444829
E^1196*E^2248:8454:-0.0586103
E^1196*E^2234:8456:-0.0366464
E^217*E^1443:8458:-0.0206156
E^217*E^1451:8466:-0.016006
E^1196*E^2259:8467:-0.0329169
B^107*B^5168:8469:-0.0283473
E^217*E^1455:8470:-0.0131166
E^217*E^1456:8471:-0.0188329
E^2234*E^10946:8474:-0.00780814
B^102*B^3180:8486:-0.0108345
B^751*B^2514:8487:-0.0182427
D^349*D^4075:8488:-0.0402269
D^55*D^293:8492:-0.0178305
B^99*B^1966:8495:-0.0196706
F^229*F^1212:8499:-0.0252168
F^231*F^2088:8505:-0.00612875
E^2234*E^10983:8509:-0.0165351
D^33*D^8277:8510:-0.0201684
D^24*D^4724:8512:-0.0382528
E^548*E^3307:8515:-0.0167384
E^2234*E^10894:8518:-0.00510494
D^55*D^314:8519:-0.0412994
B^189*B^22275:8520:-0.00508783
F^236*F^3513:8521:-0.0104795
E^8081*E^8467:8530:-0.0174493
D^55*D^334:8531:-0.0297624
B^1398*B^1738:8532:-0.0126662
B^106*B^5307:8537:-0.0130842
A^161*A^16409:8538:-0.035883
F^528*F^6649:8541:-0.0404068
E^293*E^32020:8543:-0.0485256
F^229*F^1172:8555:-0.00752477
D^55*D^357:8556:-0.0010854
E^276*E^8421:8557:-0.0504073
D^55*D^354:8559:-0.0122622
A^1191*A^21901:8564:-0.0066097
E^10983*E^14793:8570:-0.00437221
E^1196*E^2115:8579:-0.0389963
A^2122*A^3198:8580:-0.00699249
E^1196*E^2107:8587:-0.0167591
E^3825*E^13810:8593:-0.00497362
B^1399*B^1399:8594:-0.00944881
B^1127*B^6762:8599:-0.0124504
A^1426*A^2026:8600:-0.00578813
E^1196*E^2126:8604:-0.0570774
A^170*A^3495:8605:-0.00685606
E^1890*E^4045:8607:-0.0213339
E^1193*E^1193:8608:-0.0654095
A^3404*A^11905:8609:-0.0238638
F^1172*F^4039:8611:-0.0489843
D^19*D^2801:8620:-0.00640946
A^799*A^10988:8621:-0.00597963
E^217*E^1287:8622:-0.00938694
D^55*D^433:8624:-0.0110425
A^802*A^11923:8625:-0.0184842
C^815*C^38897:8626:-0.0266782
D^55*D^430:8627:-0.00343465
E^1196*E^2166:8628:-0.0633008
E^276*E^8240:8630:-0.016126
A^1426*A^2000:8638:-0.0165623
