Version 9.7.0
Id 
Min label:-1
Max label:0
bits:17
lda:0
0 ngram:
0 skip:
options: --bag 4 --cb_adf --cb_explore_adf --cb_type mtr --csoaa_ldf multiline --csoaa_rank --interactions AA --interactions AB --interactions AC --interactions AD --interactions AE --interactions AF --interactions BB --interactions BC --interactions BD --interactions BE --interactions BF --interactions CC --interactions CD --interactions CE --interactions CF --interactions DD --interactions DE --interactions DF --interactions EE --interactions EF --interactions FF --noconstant --random_seed 17049226979902104560
Checksum: 3527499294
event_sum 57
action_sum 171
:1
initial_t 0
norm normalizer 5399.58
t 10
sum_loss -8.91667
sum_loss_since_last_dump -2
dump_interval 16
min_label -1
max_label 0
weighted_labeled_examples 10
weighted_labels 0
weighted_unlabeled_examples 0
example_number 10
total_features 143658
total_weight 2.33333
sd::oec.weighted_labeled_examples 8
current_pass 1
l1_state 0
l2_state 1
E^236*E^642:0:-0x1.022152p-6 0x0p+0 0x0p+0
E^236*E^642[1]:1:-0x1.02215p-6 0x1.48f578p-13 0x1.478cbp-7
E^236*E^642[2]:2:-0x1.02215p-6 0x0p+0 0x0p+0
E^236*E^642[3]:3:-0x1.ce2cfp-7 0x0p+0 0x0p+0
A^387*A^709:64:-0x1.9afbap-5 0x1.401a48p-13 0x1.a1ab54p-7
A^387*A^709[1]:65:-0x1.f21326p-5 0x1.46eca6p-13 0x1.a1ab54p-7
A^387*A^709[2]:66:-0x1.9afbap-5 0x1.401a48p-13 0x1.a1ab54p-7
A^387*A^709[3]:67:-0x1.f27d3cp-5 0x1.36403p-25 0x1.a1ab54p-7
D^280*D^1059:76:-0x1.ef0962p-6 0x0p+0 0x0p+0
D^280*D^1059[1]:77:-0x1.ef095ep-6 0x1.620fb8p-16 0x1.04bab6p-8
D^280*D^1059[2]:78:-0x1.ef095ep-6 0x0p+0 0x0p+0
D^280*D^1059[3]:79:-0x1.bb596cp-6 0x0p+0 0x0p+0
E^73*E^478:84:-0x1.4d0e94p-3 0x0p+0 0x0p+0
E^73*E^478[1]:85:-0x1.4d0e92p-3 0x1.8719f8p-21 0x1.8388d2p-11
E^73*E^478[2]:86:-0x1.4d0e92p-3 0x0p+0 0x0p+0
E^73*E^478[3]:87:-0x1.2a3c8ep-3 0x0p+0 0x0p+0
D^1094*D^1461:124:-0x1.b774c4p-5 0x0p+0 0x0p+0
D^1094*D^1461[1]:125:-0x1.b774cp-5 0x1.c1465p-18 0x1.25b3a8p-9
D^1094*D^1461[2]:126:-0x1.b774cp-5 0x0p+0 0x0p+0
D^1094*D^1461[3]:127:-0x1.8985a4p-5 0x0p+0 0x0p+0
E^236*E^673:132:-0x1.efe3bap-5 0x0p+0 0x0p+0
E^236*E^673[1]:133:-0x1.efe3b6p-5 0x1.60cc08p-18 0x1.04436cp-9
E^236*E^673[2]:134:-0x1.efe3b6p-5 0x0p+0 0x0p+0
E^236*E^673[3]:135:-0x1.bc1ffep-5 0x0p+0 0x0p+0
D^161*D^18618:148:-0x1.018a36p-5 0x0p+0 0x0p+0
D^161*D^18618[1]:149:-0x1.018a34p-5 0x1.47149p-16 0x1.f5323ep-9
D^161*D^18618[2]:150:-0x1.018a34p-5 0x0p+0 0x0p+0
D^161*D^18618[3]:151:-0x1.cd42dap-6 0x0p+0 0x0p+0
B^441*B^724:156:-0x1.1910d2p-2 0x0p+0 0x0p+0
B^441*B^724[1]:157:-0x1.1910dp-2 0x1.12b8f8p-22 0x1.cb5546p-12
B^441*B^724[2]:158:-0x1.1910dp-2 0x0p+0 0x0p+0
B^441*B^724[3]:159:-0x1.f73486p-3 0x0p+0 0x0p+0
E^1133*E^1705:176:-0x1.24e65p-5 0x0p+0 0x0p+0
E^1133*E^1705[1]:177:-0x1.24e64ep-5 0x1.f9cfbp-17 0x1.b8b792p-9
E^1133*E^1705[2]:178:-0x1.24e64ep-5 0x0p+0 0x0p+0
E^1133*E^1705[3]:179:-0x1.064154p-5 0x0p+0 0x0p+0
A^468*A^613:212:-0x1.ad4f8p-4 0x1.254046p-15 0x1.8fc486p-8
A^468*A^613[1]:213:-0x1.0423b2p-3 0x1.2b8026p-15 0x1.8fc486p-8
A^468*A^613[2]:214:-0x1.ad4f8p-4 0x1.254046p-15 0x1.8fc486p-8
A^468*A^613[3]:215:-0x1.046c3p-3 0x1.1c39bep-27 0x1.8fc486p-8
A^387*A^752:244:-0x1.76c00cp-4 0x1.b3f16p-13 0x1.e76b52p-7
A^387*A^752[1]:245:-0x1.e4dd0ep-5 0x1.ce682p-13 0x1.e76b52p-7
A^387*A^752[2]:246:-0x1.76c00cp-4 0x1.b3f16p-13 0x1.e76b52p-7
A^387*A^752[3]:247:-0x1.b2a3bep-5 0x1.a6869p-25 0x1.e76b52p-7
A^387*A^757:256:-0x1.e4a3fcp-4 0x1.67cb12p-14 0x1.391c9cp-7
A^387*A^757[1]:257:-0x1.72812ap-4 0x1.8e0d5ap-14 0x1.391c9cp-7
A^387*A^757[2]:258:-0x1.e4a3fcp-4 0x1.67cb12p-14 0x1.391c9cp-7
A^387*A^757[3]:259:-0x1.54f01cp-4 0x1.5cb84p-26 0x1.391c9cp-7
E^3008*E^3577:276:-0x1.83efdcp-6 0x0p+0 0x0p+0
E^3008*E^3577[1]:277:-0x1.83efd8p-6 0x1.817accp-14 0x1.cb5768p-8
E^3008*E^3577[2]:278:-0x1.83efd8p-6 0x0p+0 0x0p+0
E^3008*E^3577[3]:279:-0x1.5b4cdcp-6 0x0p+0 0x0p+0
E^236*E^702:304:-0x1.3bffbep-4 0x0p+0 0x0p+0
E^236*E^702[1]:305:-0x1.3bffbcp-4 0x1.b2b95ep-19 0x1.98935cp-10
E^236*E^702[2]:306:-0x1.3bffbcp-4 0x0p+0 0x0p+0
E^236*E^702[3]:307:-0x1.1ae34cp-4 0x0p+0 0x0p+0
E^564*E^1705:324:-0x1.98f578p-6 0x0p+0 0x0p+0
E^564*E^1705[1]:325:-0x1.98f574p-6 0x1.20c364p-14 0x1.a684b2p-8
E^564*E^1705[2]:326:-0x1.98f574p-6 0x0p+0 0x0p+0
E^564*E^1705[3]:327:-0x1.6e3338p-6 0x0p+0 0x0p+0
A^468*A^646:328:-0x1.5b970ap-4 0x1.bf8ff4p-15 0x1.eddf4cp-8
A^468*A^646[1]:329:-0x1.a53e7cp-4 0x1.c919b4p-15 0x1.eddf4cp-8
A^468*A^646[2]:330:-0x1.5b970ap-4 0x1.bf8ff4p-15 0x1.eddf4cp-8
A^468*A^646[3]:331:-0x1.a58f88p-4 0x1.b1c998p-27 0x1.eddf4cp-8
E^2126*E^8615:388:-0x1.0b500ap-5 0x0p+0 0x0p+0
E^2126*E^8615[1]:389:-0x1.0b5008p-5 0x1.2fbb7ap-16 0x1.e2fa04p-9
E^2126*E^8615[2]:390:-0x1.0b5008p-5 0x0p+0 0x0p+0
E^2126*E^8615[3]:391:-0x1.deb354p-6 0x0p+0 0x0p+0
A^229*A^2525:392:-0x1.2f6fe6p-4 0x1.2593b2p-14 0x1.1ad5ep-7
A^229*A^2525[1]:393:-0x1.6fbcb8p-4 0x1.2bd55ap-14 0x1.1ad5ep-7
A^229*A^2525[2]:394:-0x1.2f6fe6p-4 0x1.2593b2p-14 0x1.1ad5ep-7
A^229*A^2525[3]:395:-0x1.7021fcp-4 0x1.1c8a98p-26 0x1.1ad5ep-7
A^229*A^2524:396:-0x1.aa744cp-5 0x1.29530ep-13 0x1.9288d8p-7
A^229*A^2524[1]:397:-0x1.02699ep-4 0x1.2fa928p-13 0x1.9288d8p-7
A^229*A^2524[2]:398:-0x1.aa744cp-5 0x1.29530ep-13 0x1.9288d8p-7
A^229*A^2524[3]:399:-0x1.02a546p-4 0x1.202c6cp-25 0x1.9288d8p-7
A^468*A^660:400:-0x1.df1ac6p-4 0x1.30138cp-15 0x1.971458p-8
A^468*A^660[1]:401:-0x1.f3c77ep-5 0x1.1b586ap-13 0x1.190dcp-7
A^468*A^660[2]:402:-0x1.df1ac6p-4 0x1.30138cp-15 0x1.971458p-8
A^468*A^660[3]:403:-0x1.9a2bbcp-4 0x1.26b7b8p-27 0x1.971458p-8
A^229*A^2526:404:-0x1.fd87ep-5 0x1.e3b86ap-13 0x1.c6c86ap-7
A^229*A^2526[1]:405:-0x1.34be2cp-4 0x1.ee076ep-13 0x1.c6c86ap-7
A^229*A^2526[2]:406:-0x1.fd87ep-5 0x1.e3b86ap-13 0x1.c6c86ap-7
A^229*A^2526[3]:407:-0x1.492c1ep-5 0x1.d4d52cp-25 0x1.c6c86ap-7
D^280*D^1110:408:-0x1.82938cp-6 0x0p+0 0x0p+0
D^280*D^1110[1]:409:-0x1.82938ap-6 0x1.226c7ep-15 0x1.4df34p-8
D^280*D^1110[2]:410:-0x1.82938ap-6 0x0p+0 0x0p+0
D^280*D^1110[3]:411:-0x1.5a293p-6 0x0p+0 0x0p+0
E^1110*E^25081:412:-0x1.21ea1ep-5 0x0p+0 0x0p+0
E^1110*E^25081[1]:413:-0x1.21ea1cp-5 0x1.0219b4p-16 0x1.bd3864p-9
E^1110*E^25081[2]:414:-0x1.21ea1cp-5 0x0p+0 0x0p+0
E^1110*E^25081[3]:415:-0x1.0399eep-5 0x0p+0 0x0p+0
E^768*E^18535:428:-0x1.2b4be2p-5 0x0p+0 0x0p+0
E^768*E^18535[1]:429:-0x1.2b4bep-5 0x1.e44584p-17 0x1.af3b2ap-9
E^768*E^18535[2]:430:-0x1.2b4bep-5 0x0p+0 0x0p+0
E^768*E^18535[3]:431:-0x1.0c048cp-5 0x0p+0 0x0p+0
A^1530*A^2536:440:-0x1.8a010cp-7 0x1.5c7f2ap-9 0x1.b3ccccp-5
A^1530*A^2536[1]:441:-0x1.dd7b8cp-7 0x1.63ec72p-9 0x1.b3ccccp-5
A^1530*A^2536[2]:442:-0x1.8a010cp-7 0x1.5c7f2ap-9 0x1.b3ccccp-5
A^1530*A^2536[3]:443:-0x1.ddbcd8p-7 0x1.51c558p-21 0x1.b3ccccp-5
E^73*E^378:452:-0x1.03ebcp-3 0x0p+0 0x0p+0
E^73*E^378[1]:453:-0x1.03ebbep-3 0x1.413d8p-20 0x1.f0b39cp-11
E^73*E^378[2]:454:-0x1.03ebbep-3 0x0p+0 0x0p+0
E^73*E^378[3]:455:-0x1.d16e1ep-4 0x0p+0 0x0p+0
A^1530*A^2524:456:-0x1.589338p-5 0x1.c7586cp-13 0x1.f225ep-7
A^1530*A^2524[1]:457:-0x1.a195d8p-5 0x1.d10ca2p-13 0x1.f225ep-7
A^1530*A^2524[2]:458:-0x1.589338p-5 0x1.c7586cp-13 0x1.f225ep-7
A^1530*A^2524[3]:459:-0x1.a201b6p-5 0x1.b954bep-25 0x1.f225ep-7
A^1530*A^2525:460:-0x1.ea671p-5 0x1.c19b32p-14 0x1.5e0454p-7
A^1530*A^2525[1]:461:-0x1.292a36p-4 0x1.cb3018p-14 0x1.5e0454p-7
A^1530*A^2525[2]:462:-0x1.ea671p-5 0x1.c19b32p-14 0x1.5e0454p-7
A^1530*A^2525[3]:463:-0x1.29657ep-4 0x1.b3c4bcp-26 0x1.5e0454p-7
A^229*A^2543:464:-0x1.48595ap-4 0x1.97652cp-13 0x1.6f7e2ap-7
A^229*A^2543[1]:465:-0x1.8deaccp-4 0x1.a013c8p-13 0x1.6f7e2ap-7
A^229*A^2543[2]:466:-0x1.48595ap-4 0x1.97652cp-13 0x1.6f7e2ap-7
A^229*A^2543[3]:467:-0x1.8e371p-4 0x1.8adb4ap-25 0x1.6f7e2ap-7
D^280*D^1094:472:-0x1.7c1bcap-5 0x0p+0 0x0p+0
D^280*D^1094[1]:473:-0x1.7c1bc6p-5 0x1.2c6c8cp-17 0x1.53a6aap-9
D^280*D^1094[2]:474:-0x1.7c1bc6p-5 0x0p+0 0x0p+0
D^280*D^1094[3]:475:-0x1.5443e6p-5 0x0p+0 0x0p+0
A^387*A^812:484:-0x1.48780ep-6 0x1.f50b5cp-11 0x1.05461cp-5
A^387*A^812[1]:485:-0x1.8e16f4p-6 0x1.ffb8e2p-11 0x1.05461cp-5
A^387*A^812[2]:486:-0x1.48780ep-6 0x1.f50b5cp-11 0x1.05461cp-5
A^387*A^812[3]:487:-0x1.8e66f2p-6 0x1.e59fap-23 0x1.05461cp-5
E^2028*E^2028:488:-0x1.58b698p-6 0x0p+0 0x0p+0
E^2028*E^2028[1]:489:-0x1.58b694p-6 0x1.6d14cp-15 0x1.766bcap-8
E^2028*E^2028[2]:490:-0x1.58b694p-6 0x0p+0 0x0p+0
E^2028*E^2028[3]:491:-0x1.34bb3cp-6 0x0p+0 0x0p+0
A^229*A^2536:508:-0x1.01fd1p-4 0x1.c71caep-10 0x1.60274cp-5
A^229*A^2536[1]:509:-0x1.547c9p-6 0x1.d2fe56p-10 0x1.60274cp-5
A^229*A^2536[2]:510:-0x1.01fd0ep-4 0x1.c71caep-10 0x1.60274cp-5
A^229*A^2536[3]:511:-0x1.297d96p-6 0x1.b91ad6p-22 0x1.60274cp-5
E^973*E^2614:516:-0x1.5bfb92p-5 0x0p+0 0x0p+0
E^973*E^2614[1]:517:-0x1.5bfb9p-5 0x1.6646b6p-17 0x1.72ea48p-9
E^973*E^2614[2]:518:-0x1.5bfb9p-5 0x0p+0 0x0p+0
E^973*E^2614[3]:519:-0x1.379902p-5 0x0p+0 0x0p+0
E^236*E^516:520:-0x1.e737eap-5 0x0p+0 0x0p+0
E^236*E^516[1]:521:-0x1.e737e6p-5 0x1.6db97cp-18 0x1.08fd28p-9
E^236*E^516[2]:522:-0x1.e737e6p-5 0x0p+0 0x0p+0
E^236*E^516[3]:523:-0x1.b42fe4p-5 0x0p+0 0x0p+0
E^1305*E^5597:528:-0x1.485db4p-6 0x0p+0 0x0p+0
E^1305*E^5597[1]:529:-0x1.485db2p-6 0x1.92583ep-15 0x1.8910bap-8
E^1305*E^5597[2]:530:-0x1.485db2p-6 0x0p+0 0x0p+0
E^1305*E^5597[3]:531:-0x1.2612dep-6 0x0p+0 0x0p+0
A^1122*A^1865:540:-0x1.ed0556p-5 0x1.bcf12p-14 0x1.5c3254p-7
A^1122*A^1865[1]:541:-0x1.2abf54p-4 0x1.c66c94p-14 0x1.5c3254p-7
A^1122*A^1865[2]:542:-0x1.ed0556p-5 0x1.bcf12p-14 0x1.5c3254p-7
A^1122*A^1865[3]:543:-0x1.2b0efep-4 0x1.af3f6cp-26 0x1.5c3254p-7
E^236*E^510:560:-0x1.0a6c9cp-4 0x0p+0 0x0p+0
E^236*E^510[1]:561:-0x1.0a6c9ap-4 0x1.3183b4p-18 0x1.e46438p-10
E^236*E^510[2]:562:-0x1.0a6c9ap-4 0x0p+0 0x0p+0
E^236*E^510[3]:563:-0x1.dd54b4p-5 0x0p+0 0x0p+0
E^18661*E^20228:572:-0x1.702bp-9 0x0p+0 0x0p+0
E^18661*E^20228[1]:573:-0x1.702afcp-9 0x1.402ec8p-9 0x1.5ea47cp-5
E^18661*E^20228[2]:574:-0x1.702afcp-9 0x0p+0 0x0p+0
E^18661*E^20228[3]:575:-0x1.49a7a8p-9 0x0p+0 0x0p+0
A^468*A^709:596:-0x1.81140ap-3 0x1.de4542p-15 0x1.fe88b4p-8
A^468*A^709[1]:597:-0x1.d0c0c4p-4 0x1.f6ddfp-15 0x1.fe88b4p-8
A^468*A^709[2]:598:-0x1.811408p-3 0x1.de4542p-15 0x1.fe88b4p-8
A^468*A^709[3]:599:-0x1.9e19c4p-4 0x1.cf8cf2p-27 0x1.fe88b4p-8
E^3008*E^3800:616:-0x1.83ed44p-5 0x0p+0 0x0p+0
E^3008*E^3800[1]:617:-0x1.83ed42p-5 0x1.207268p-17 0x1.4ccfcap-9
E^3008*E^3800[2]:618:-0x1.83ed42p-5 0x0p+0 0x0p+0
E^3008*E^3800[3]:619:-0x1.5b563p-5 0x0p+0 0x0p+0
D^4038*D^8318:640:-0x1.993fcep-7 0x0p+0 0x0p+0
D^4038*D^8318[1]:641:-0x1.993fccp-7 0x1.031848p-13 0x1.3b6c98p-7
D^4038*D^8318[2]:642:-0x1.993fccp-7 0x0p+0 0x0p+0
D^4038*D^8318[3]:643:-0x1.6e80bp-7 0x0p+0 0x0p+0
E^169*E^6578:676:-0x1.9bf33ap-5 0x0p+0 0x0p+0
E^169*E^6578[1]:677:-0x1.9bf336p-5 0x1.ff4bc8p-18 0x1.3951aep-9
E^169*E^6578[2]:678:-0x1.9bf336p-5 0x0p+0 0x0p+0
E^169*E^6578[3]:679:-0x1.70f676p-5 0x0p+0 0x0p+0
C^55*C^3394:684:-0x1.d6963cp-6 0x0p+0 0x0p+0
C^55*C^3394[1]:685:-0x1.d69638p-6 0x1.87c734p-16 0x1.1243e4p-8
C^55*C^3394[2]:686:-0x1.d69638p-6 0x0p+0 0x0p+0
C^55*C^3394[3]:687:-0x1.a5766p-6 0x0p+0 0x0p+0
E^73*E^342:692:-0x1.43091p-4 0x0p+0 0x0p+0
E^73*E^342[1]:693:-0x1.43090ep-4 0x1.9fd5dp-19 0x1.8f99c8p-10
E^73*E^342[2]:694:-0x1.43090ep-4 0x0p+0 0x0p+0
E^73*E^342[3]:695:-0x1.2144bp-4 0x0p+0 0x0p+0
E^1214*E^1705:700:-0x1.0ee6e6p-5 0x0p+0 0x0p+0
E^1214*E^1705[1]:701:-0x1.0ee6e4p-5 0x1.27abap-16 0x1.dc8614p-9
E^1214*E^1705[2]:702:-0x1.0ee6e4p-5 0x0p+0 0x0p+0
E^1214*E^1705[3]:703:-0x1.e51c9cp-6 0x0p+0 0x0p+0
A^387*A^613:704:-0x1.066b0cp-4 0x1.888a9p-14 0x1.470d1p-7
A^387*A^613[1]:705:-0x1.3e06fap-4 0x1.90e822p-14 0x1.470d1p-7
A^387*A^613[2]:706:-0x1.066b0cp-4 0x1.888a9p-14 0x1.470d1p-7
A^387*A^613[3]:707:-0x1.3e43ccp-4 0x1.7c75b8p-26 0x1.470d1p-7
E^236*E^564:712:-0x1.9b3d48p-5 0x0p+0 0x0p+0
E^236*E^564[1]:713:-0x1.9b3d46p-5 0x1.00a63cp-17 0x1.39ee9cp-9
E^236*E^564[2]:714:-0x1.9b3d46p-5 0x0p+0 0x0p+0
E^236*E^564[3]:715:-0x1.703636p-5 0x0p+0 0x0p+0
B^606*B^1796:728:-0x1.6f6476p-5 0x0p+0 0x0p+0
B^606*B^1796[1]:729:-0x1.6f6474p-5 0x1.61b8cap-16 0x1.d54972p-9
B^606*B^1796[2]:730:-0x1.6f6474p-5 0x0p+0 0x0p+0
B^606*B^1796[3]:731:-0x1.48e0aap-5 0x0p+0 0x0p+0
E^2362*E^5597:732:-0x1.bd5af4p-6 0x0p+0 0x0p+0
E^2362*E^5597[1]:733:-0x1.bd5af2p-6 0x1.b58064p-16 0x1.21d3fap-8
E^2362*E^5597[2]:734:-0x1.bd5af2p-6 0x0p+0 0x0p+0
E^2362*E^5597[3]:735:-0x1.8ee26ep-6 0x0p+0 0x0p+0
A^468*A^752:736:-0x1.202ap-4 0x1.45acb2p-14 0x1.29e566p-7
A^468*A^752[1]:737:-0x1.5d38a8p-4 0x1.4c9d76p-14 0x1.29e566p-7
A^468*A^752[2]:738:-0x1.202ap-4 0x1.45acb2p-14 0x1.29e566p-7
A^468*A^752[3]:739:-0x1.5d80ep-4 0x1.3ba6b2p-26 0x1.29e566p-7
E^236*E^557:756:-0x1.0139cp-5 0x0p+0 0x0p+0
E^236*E^557[1]:757:-0x1.0139bcp-5 0x1.86b80ep-15 0x1.544e8ap-8
E^236*E^557[2]:758:-0x1.0139bcp-5 0x0p+0 0x0p+0
E^236*E^557[3]:759:-0x1.cca6e6p-6 0x0p+0 0x0p+0
E^1214*E^1690:760:-0x1.6f997p-5 0x0p+0 0x0p+0
E^1214*E^1690[1]:761:-0x1.6f996ep-5 0x1.413ce2p-17 0x1.5f3842p-9
E^1214*E^1690[2]:762:-0x1.6f996ep-5 0x0p+0 0x0p+0
E^1214*E^1690[3]:763:-0x1.491f28p-5 0x0p+0 0x0p+0
B^39*B^2520:772:-0x1.b39e36p-4 0x0p+0 0x0p+0
B^39*B^2520[1]:773:-0x1.b39e32p-4 0x1.c97236p-20 0x1.285c56p-10
B^39*B^2520[2]:774:-0x1.b39e32p-4 0x0p+0 0x0p+0
B^39*B^2520[3]:775:-0x1.85fd4ap-4 0x0p+0 0x0p+0
E^73*E^301:784:-0x1.023712p-4 0x0p+0 0x0p+0
E^73*E^301[1]:785:-0x1.02371p-4 0x1.455056p-18 0x1.f3d74ap-10
E^73*E^301[2]:786:-0x1.02371p-4 0x0p+0 0x0p+0
E^73*E^301[3]:787:-0x1.ce88acp-5 0x0p+0 0x0p+0
A^468*A^757:788:-0x1.c06e7ap-4 0x1.0cc952p-15 0x1.7ebaa8p-8
A^468*A^757[1]:789:-0x1.0fbaa8p-3 0x1.1283bap-15 0x1.7ebaa8p-8
A^468*A^757[2]:790:-0x1.c06e7ap-4 0x1.0cc952p-15 0x1.7ebaa8p-8
A^468*A^757[3]:791:-0x1.100ed4p-3 0x1.04838ap-27 0x1.7ebaa8p-8
E^1705*E^3027:808:-0x1.0b86a2p-6 0x0p+0 0x0p+0
E^1705*E^3027[1]:809:-0x1.0b86ap-6 0x1.2f035p-14 0x1.e26782p-8
E^1705*E^3027[2]:810:-0x1.0b86ap-6 0x0p+0 0x0p+0
E^1705*E^3027[3]:811:-0x1.df2f6cp-7 0x0p+0 0x0p+0
E^73*E^312:828:-0x1.52879cp-3 0x0p+0 0x0p+0
E^73*E^312[1]:829:-0x1.52879ap-3 0x1.7aa40ep-21 0x1.7d4f9ep-11
E^73*E^312[2]:830:-0x1.52879ap-3 0x0p+0 0x0p+0
E^73*E^312[3]:831:-0x1.2f1ed2p-3 0x0p+0 0x0p+0
A^752*A^16893:836:-0x1.f51d0ep-6 0x1.aea92cp-12 0x1.569026p-6
A^752*A^16893[1]:837:-0x1.2fa6ccp-5 0x1.b7d6b6p-12 0x1.569026p-6
A^752*A^16893[2]:838:-0x1.f51d0ep-6 0x1.aea92cp-12 0x1.569026p-6
A^752*A^16893[3]:839:-0x1.2fee46p-5 0x1.a167fcp-24 0x1.569026p-6
C^584:844:-0x1.44cff2p-5 0x0p+0 0x0p+0
C^584[1]:845:-0x1.44cfeep-5 0x1.9b7476p-17 0x1.8d7d9p-9
C^584[2]:846:-0x1.44cfeep-5 0x0p+0 0x0p+0
C^584[3]:847:-0x1.22c6fcp-5 0x0p+0 0x0p+0
B^441*B^802:852:-0x1.ec1f62p-6 0x0p+0 0x0p+0
B^441*B^802[1]:853:-0x1.ec1f5ep-6 0x1.665d8ep-16 0x1.064f2ep-8
B^441*B^802[2]:854:-0x1.ec1f5ep-6 0x0p+0 0x0p+0
B^441*B^802[3]:855:-0x1.b8a59ep-6 0x0p+0 0x0p+0
A^387*A^646:860:-0x1.763232p-4 0x1.2b8cc6p-13 0x1.9409cap-7
A^387*A^646[1]:861:-0x1.1ef97p-4 0x1.4bd45ep-13 0x1.9409cap-7
A^387*A^646[2]:862:-0x1.76323p-4 0x1.2b8cc6p-13 0x1.9409cap-7
A^387*A^646[3]:863:-0x1.084748p-4 0x1.22549cp-25 0x1.9409cap-7
E^1221*E^4599:872:-0x1.bb9414p-6 0x0p+0 0x0p+0
E^1221*E^4599[1]:873:-0x1.bb941p-6 0x1.b90ba6p-16 0x1.22ffe2p-8
E^1221*E^4599[2]:874:-0x1.bb941p-6 0x0p+0 0x0p+0
E^1221*E^4599[3]:875:-0x1.8d4138p-6 0x0p+0 0x0p+0
D^286*D^36203:884:-0x1.933538p-6 0x0p+0 0x0p+0
D^286*D^36203[1]:885:-0x1.933536p-6 0x1.0afb08p-15 0x1.403034p-8
D^286*D^36203[2]:886:-0x1.933536p-6 0x0p+0 0x0p+0
D^286*D^36203[3]:887:-0x1.68fd1cp-6 0x0p+0 0x0p+0
E^3577*E^3800:892:-0x1.595a58p-6 0x0p+0 0x0p+0
E^3577*E^3800[1]:893:-0x1.595a56p-6 0x1.6bda6p-15 0x1.75ca72p-8
E^3577*E^3800[2]:894:-0x1.595a56p-6 0x0p+0 0x0p+0
E^3577*E^3800[3]:895:-0x1.3543bep-6 0x0p+0 0x0p+0
A^387*A^660:900:-0x1.01b288p-4 0x1.970822p-14 0x1.4d0866p-7
A^387*A^660[1]:901:-0x1.384f92p-4 0x1.9fb4c2p-14 0x1.4d0866p-7
A^387*A^660[2]:902:-0x1.01b288p-4 0x1.970822p-14 0x1.4d0866p-7
A^387*A^660[3]:903:-0x1.389636p-4 0x1.8a811ep-26 0x1.4d0866p-7
E^768*E^18656:904:-0x1.fbc254p-6 0x0p+0 0x0p+0
E^768*E^18656[1]:905:-0x1.fbc25p-6 0x1.50a2ep-16 0x1.fc7708p-9
E^768*E^18656[2]:906:-0x1.fbc25p-6 0x0p+0 0x0p+0
E^768*E^18656[3]:907:-0x1.c6ab18p-6 0x0p+0 0x0p+0
B^39*B^2493:912:-0x1.f74806p-3 0x0p+0 0x0p+0
B^39*B^2493[1]:913:-0x1.f74802p-3 0x1.56858ep-22 0x1.0071fcp-11
B^39*B^2493[2]:914:-0x1.f74802p-3 0x0p+0 0x0p+0
B^39*B^2493[3]:915:-0x1.c2b7c2p-3 0x0p+0 0x0p+0
E^768*E^18661:932:-0x1.036c64p-7 0x0p+0 0x0p+0
E^768*E^18661[1]:933:-0x1.036c62p-7 0x1.4265e8p-12 0x1.f1988ep-7
E^768*E^18661[2]:934:-0x1.036c62p-7 0x0p+0 0x0p+0
E^768*E^18661[3]:935:-0x1.d0a79p-8 0x0p+0 0x0p+0
E^73*E^276:940:-0x1.d9c906p-3 0x0p+0 0x0p+0
E^73*E^276[1]:941:-0x1.d9c904p-3 0x1.82ac84p-22 0x1.107904p-11
E^73*E^276[2]:942:-0x1.d9c904p-3 0x0p+0 0x0p+0
E^73*E^276[3]:943:-0x1.a84302p-3 0x0p+0 0x0p+0
D^286*D^3410:976:-0x1.445094p-5 0x0p+0 0x0p+0
D^286*D^3410[1]:977:-0x1.445092p-5 0x1.9cb1eep-17 0x1.8e16ccp-9
D^286*D^3410[2]:978:-0x1.445092p-5 0x0p+0 0x0p+0
D^286*D^3410[3]:979:-0x1.22574ap-5 0x0p+0 0x0p+0
B^1340*B^2493:980:-0x1.f3168p-7 0x0p+0 0x0p+0
B^1340*B^2493[1]:981:-0x1.f3167cp-7 0x1.5c6aacp-14 0x1.02a482p-7
B^1340*B^2493[2]:982:-0x1.f3167cp-7 0x0p+0 0x0p+0
B^1340*B^2493[3]:983:-0x1.beefc2p-7 0x0p+0 0x0p+0
E^768*E^18668:984:-0x1.f4949ap-6 0x0p+0 0x0p+0
E^768*E^18668[1]:985:-0x1.f49498p-6 0x1.5a4e5cp-16 0x1.01dba8p-8
E^768*E^18668[2]:986:-0x1.f49498p-6 0x0p+0 0x0p+0
E^768*E^18668[3]:987:-0x1.c04b42p-6 0x0p+0 0x0p+0
B^441*B^759:992:-0x1.51bf76p-7 0x0p+0 0x0p+0
B^441*B^759[1]:993:-0x1.51bf74p-7 0x1.7c6d0cp-13 0x1.7e3574p-7
B^441*B^759[2]:994:-0x1.51bf74p-7 0x0p+0 0x0p+0
B^441*B^759[3]:995:-0x1.2e7116p-7 0x0p+0 0x0p+0
A^468*A^812:1008:-0x1.0cb9c8p-5 0x1.764f2cp-12 0x1.3f5d98p-6
A^468*A^812[1]:1009:-0x1.45ab58p-5 0x1.7e4946p-12 0x1.3f5d98p-6
A^468*A^812[2]:1010:-0x1.0cb9c8p-5 0x1.764f2cp-12 0x1.3f5d98p-6
A^468*A^812[3]:1011:-0x1.46003ep-5 0x1.6ac9fap-24 0x1.3f5d98p-6
B^441*B^495:1024:-0x1.1c55cap-2 0x0p+0 0x0p+0
B^441*B^495[1]:1025:-0x1.1c55c8p-2 0x1.0c56e6p-22 0x1.c5f72cp-12
B^441*B^495[2]:1026:-0x1.1c55c8p-2 0x0p+0 0x0p+0
B^441*B^495[3]:1027:-0x1.fd49e4p-3 0x0p+0 0x0p+0
E^73*E^236:1036:-0x1.780aa4p-6 0x0p+0 0x0p+0
E^73*E^236[1]:1037:-0x1.780aap-6 0x1.a090aep-15 0x1.8a9bc4p-8
E^73*E^236[2]:1038:-0x1.780aap-6 0x0p+0 0x0p+0
E^73*E^236[3]:1039:-0x1.50b4bp-6 0x0p+0 0x0p+0
E^20228:1068:-0x1.2062ecp-10 0x0p+0 0x0p+0
E^20228[1]:1069:-0x1.2062eap-10 0x1.04e6e4p-6 0x1.bfa14ap-4
E^20228[2]:1070:-0x1.2062eap-10 0x0p+0 0x0p+0
E^20228[3]:1071:-0x1.022ee2p-10 0x0p+0 0x0p+0
D^1461*D^18535:1072:-0x1.62e08p-6 0x0p+0 0x0p+0
D^1461*D^18535[1]:1073:-0x1.62e07ep-6 0x1.58b2eep-15 0x1.6bd1b6p-8
D^1461*D^18535[2]:1074:-0x1.62e07ep-6 0x0p+0 0x0p+0
D^1461*D^18535[3]:1075:-0x1.3db186p-6 0x0p+0 0x0p+0
D^280*D^814:1080:-0x1.aabbd2p-5 0x0p+0 0x0p+0
D^280*D^814[1]:1081:-0x1.aabbdp-5 0x1.dcaddcp-18 0x1.2e86d4p-9
D^280*D^814[2]:1082:-0x1.aabbdp-5 0x0p+0 0x0p+0
D^280*D^814[3]:1083:-0x1.7e1998p-5 0x0p+0 0x0p+0
A^69*A^3370:1092:-0x1.320e2ap-3 0x1.20946ap-16 0x1.186afep-8
A^69*A^3370[1]:1093:-0x1.72ebb8p-3 0x1.26bacep-16 0x1.186afep-8
A^69*A^3370[2]:1094:-0x1.320e2ap-3 0x1.20946ap-16 0x1.186afep-8
A^69*A^3370[3]:1095:-0x1.733b2ep-3 0x1.17b2bp-28 0x1.186afep-8
B^441*B^481:1096:-0x1.18b5d6p-5 0x0p+0 0x0p+0
B^441*B^481[1]:1097:-0x1.18b5d4p-5 0x1.134ad4p-16 0x1.cbcf26p-9
B^441*B^481[2]:1098:-0x1.18b5d4p-5 0x0p+0 0x0p+0
B^441*B^481[3]:1099:-0x1.f6d13ep-6 0x0p+0 0x0p+0
E^73*E^225:1120:-0x1.51e3dap-3 0x0p+0 0x0p+0
E^73*E^225[1]:1121:-0x1.51e3d8p-3 0x1.7c3538p-21 0x1.7e1968p-11
E^73*E^225[2]:1122:-0x1.51e3d8p-3 0x0p+0 0x0p+0
E^73*E^225[3]:1123:-0x1.2e89e8p-3 0x0p+0 0x0p+0
E^1705*E^2563:1128:-0x1.cdd83cp-6 0x0p+0 0x0p+0
E^1705*E^2563[1]:1129:-0x1.cdd83ap-6 0x1.96ff86p-16 0x1.178ab6p-8
E^1705*E^2563[2]:1130:-0x1.cdd83ap-6 0x0p+0 0x0p+0
E^1705*E^2563[3]:1131:-0x1.9d8648p-6 0x0p+0 0x0p+0
E^2126*E^8395:1140:-0x1.bb4b4ap-6 0x0p+0 0x0p+0
E^2126*E^8395[1]:1141:-0x1.bb4b46p-6 0x1.b996b8p-16 0x1.232dcp-8
E^2126*E^8395[2]:1142:-0x1.bb4b46p-6 0x0p+0 0x0p+0
E^2126*E^8395[3]:1143:-0x1.8d0f94p-6 0x0p+0 0x0p+0
B^441*B^476:1148:-0x1.f12b3ap-6 0x0p+0 0x0p+0
B^441*B^476[1]:1149:-0x1.f12b36p-6 0x1.5f13f8p-16 0x1.03a0e8p-8
B^441*B^476[2]:1150:-0x1.f12b36p-6 0x0p+0 0x0p+0
B^441*B^476[3]:1151:-0x1.bd46aep-6 0x0p+0 0x0p+0
E^2126*E^8421:1164:-0x1.fbc252p-6 0x0p+0 0x0p+0
E^2126*E^8421[1]:1165:-0x1.fbc24ep-6 0x1.509fe4p-16 0x1.fc74c6p-9
E^2126*E^8421[2]:1166:-0x1.fbc24ep-6 0x0p+0 0x0p+0
E^2126*E^8421[3]:1167:-0x1.c6ab14p-6 0x0p+0 0x0p+0
C^55*C^3008:1204:-0x1.241e2ap-5 0x0p+0 0x0p+0
C^55*C^3008[1]:1205:-0x1.241e28p-5 0x1.fc811ep-17 0x1.b9e386p-9
C^55*C^3008[2]:1206:-0x1.241e28p-5 0x0p+0 0x0p+0
C^55*C^3008[3]:1207:-0x1.059396p-5 0x0p+0 0x0p+0
E^73*E^188:1228:-0x1.9b06bp-2 0x0p+0 0x0p+0
E^73*E^188[1]:1229:-0x1.9b06aep-2 0x1.00fcaap-23 0x1.3a2374p-12
E^73*E^188[2]:1230:-0x1.9b06aep-2 0x0p+0 0x0p+0
E^73*E^188[3]:1231:-0x1.6fea2cp-2 0x0p+0 0x0p+0
C^1272*C^1910:1248:-0x1.9014a2p-3 0x0p+0 0x0p+0
C^1272*C^1910[1]:1249:-0x1.90149ep-3 0x1.0f373cp-21 0x1.42b7c8p-11
C^1272*C^1910[2]:1250:-0x1.90149ep-3 0x0p+0 0x0p+0
C^1272*C^1910[3]:1251:-0x1.663826p-3 0x0p+0 0x0p+0
E^236*E^33705:1252:-0x1.1de73ep-7 0x0p+0 0x0p+0
E^236*E^33705[1]:1253:-0x1.1de73cp-7 0x1.ea2fbp-12 0x1.20be12p-6
E^236*E^33705[2]:1254:-0x1.1de73cp-7 0x0p+0 0x0p+0
E^236*E^33705[3]:1255:-0x1.001204p-7 0x0p+0 0x0p+0
B^64*B^12340:1280:-0x1.a8f4fp-3 0x0p+0 0x0p+0
B^64*B^12340[1]:1281:-0x1.a8f4eep-3 0x1.e0bea6p-22 0x1.2fd066p-11
B^64*B^12340[2]:1282:-0x1.a8f4eep-3 0x0p+0 0x0p+0
B^64*B^12340[3]:1283:-0x1.7c673cp-3 0x0p+0 0x0p+0
E^3008*E^3845:1316:-0x1.8e7224p-5 0x0p+0 0x0p+0
E^3008*E^3845[1]:1317:-0x1.8e7222p-5 0x1.11432cp-17 0x1.43eeeap-9
E^3008*E^3845[2]:1318:-0x1.8e7222p-5 0x0p+0 0x0p+0
E^3008*E^3845[3]:1319:-0x1.64d1d4p-5 0x0p+0 0x0p+0
D^33*D^41:1320:-0x1.e7b748p-4 0x0p+0 0x0p+0
D^33*D^41[1]:1321:-0x1.e7b744p-4 0x1.6cc804p-20 0x1.08a59ep-10
D^33*D^41[2]:1322:-0x1.e7b744p-4 0x0p+0 0x0p+0
D^33*D^41[3]:1323:-0x1.b4c4dp-4 0x0p+0 0x0p+0
D^6047*D^31213:1328:-0x1.00ef8ep-4 0x0p+0 0x0p+0
D^6047*D^31213[1]:1329:-0x1.00ef8cp-4 0x1.48bbb8p-18 0x1.f6760ap-10
D^6047*D^31213[2]:1330:-0x1.00ef8cp-4 0x0p+0 0x0p+0
D^6047*D^31213[3]:1331:-0x1.cc1c28p-5 0x0p+0 0x0p+0
E^73*E^182:1332:-0x1.00df44p-4 0x0p+0 0x0p+0
E^73*E^182[1]:1333:-0x1.00df42p-4 0x1.65959ap-17 0x1.4ebc66p-9
E^73*E^182[2]:1334:-0x1.00df42p-4 0x0p+0 0x0p+0
E^73*E^182[3]:1335:-0x1.cc1efp-5 0x0p+0 0x0p+0
E^1214*E^1865:1340:-0x1.d0f8d2p-6 0x0p+0 0x0p+0
E^1214*E^1865[1]:1341:-0x1.d0f8dp-6 0x1.915ec4p-16 0x1.159a34p-8
E^1214*E^1865[2]:1342:-0x1.d0f8dp-6 0x0p+0 0x0p+0
E^1214*E^1865[3]:1343:-0x1.a06bbcp-6 0x0p+0 0x0p+0
A^387*A^1028:1348:-0x1.828bccp-4 0x1.69f616p-15 0x1.bc2396p-8
A^387*A^1028[1]:1349:-0x1.d474f8p-4 0x1.71acd2p-15 0x1.bc2396p-8
A^387*A^1028[2]:1350:-0x1.828bccp-4 0x1.69f616p-15 0x1.bc2396p-8
A^387*A^1028[3]:1351:-0x1.d4cbcp-4 0x1.5ed22ep-27 0x1.bc2396p-8
D^33*D^55:1376:-0x1.c87168p-3 0x0p+0 0x0p+0
D^33*D^55[1]:1377:-0x1.c87164p-3 0x1.a08dc8p-22 0x1.1acdeep-11
D^33*D^55[2]:1378:-0x1.c87164p-3 0x0p+0 0x0p+0
D^33*D^55[3]:1379:-0x1.98c618p-3 0x0p+0 0x0p+0
D^33*D^50:1396:-0x1.4c8f38p-5 0x0p+0 0x0p+0
D^33*D^50[1]:1397:-0x1.4c8f34p-5 0x1.886e68p-17 0x1.843158p-9
D^33*D^50[2]:1398:-0x1.4c8f34p-5 0x0p+0 0x0p+0
D^33*D^50[3]:1399:-0x1.29beep-5 0x0p+0 0x0p+0
A^646*A^7052:1432:-0x1.3c250ap-4 0x1.e3af2cp-14 0x1.6b0a1ap-7
A^646*A^7052[1]:1433:-0x1.1b35e6p-4 0x1.61be24p-13 0x1.6b0a1ap-7
A^646*A^7052[2]:1434:-0x1.3c250ap-4 0x1.e3af2cp-14 0x1.6b0a1ap-7
A^646*A^7052[3]:1435:-0x1.2e59a8p-4 0x1.d4cc36p-26 0x1.6b0a1ap-7
B^5593*B^12332:1468:-0x1.08ee82p-5 0x0p+0 0x0p+0
B^5593*B^12332[1]:1469:-0x1.08ee8p-5 0x1.3516c4p-16 0x1.e73786p-9
B^5593*B^12332[2]:1470:-0x1.08ee8p-5 0x0p+0 0x0p+0
B^5593*B^12332[3]:1471:-0x1.da6f4p-6 0x0p+0 0x0p+0
A^394*A^3370:1472:-0x1.792f16p-4 0x1.7c021p-15 0x1.c7138cp-8
A^394*A^3370[1]:1473:-0x1.c91ba2p-4 0x1.841b42p-15 0x1.c7138cp-8
A^394*A^3370[2]:1474:-0x1.792f16p-4 0x1.7c021p-15 0x1.c7138cp-8
A^394*A^3370[3]:1475:-0x1.c98f14p-4 0x1.704ff8p-27 0x1.c7138cp-8
E^236*E^1011:1484:-0x1.1b157cp-4 0x0p+0 0x0p+0
E^236*E^1011[1]:1485:-0x1.1b157ap-4 0x1.b90afcp-17 0x1.408f2ep-9
E^236*E^1011[2]:1486:-0x1.1b157ap-4 0x0p+0 0x0p+0
E^236*E^1011[3]:1487:-0x1.faf55ap-5 0x0p+0 0x0p+0
A^468*A^932:1488:-0x1.be9b5p-4 0x1.0f0ce2p-15 0x1.80566ap-8
A^468*A^932[1]:1489:-0x1.0e9f3p-3 0x1.14d3a4p-15 0x1.80566ap-8
A^468*A^932[2]:1490:-0x1.be9b5p-4 0x1.0f0ce2p-15 0x1.80566ap-8
A^468*A^932[3]:1491:-0x1.0ee9bp-3 0x1.06b544p-27 0x1.80566ap-8
E^1214*E^1890:1496:-0x1.80ba7ap-5 0x0p+0 0x0p+0
E^1214*E^1890[1]:1497:-0x1.80ba76p-5 0x1.2505c4p-17 0x1.4f70e4p-9
E^1214*E^1890[2]:1498:-0x1.80ba76p-5 0x0p+0 0x0p+0
E^1214*E^1890[3]:1499:-0x1.58a87cp-5 0x0p+0 0x0p+0
A^1664*A^24036:1504:-0x1.ec1198p-6 0x1.be8f3ep-12 0x1.5cd438p-6
A^1664*A^24036[1]:1505:-0x1.2a2b6ep-5 0x1.c81384p-12 0x1.5cd438p-6
A^1664*A^24036[2]:1506:-0x1.ec1198p-6 0x1.be8f3ep-12 0x1.5cd438p-6
A^1664*A^24036[3]:1507:-0x1.2a7c1ep-5 0x1.b0d0ccp-24 0x1.5cd438p-6
E^73*E^131:1512:-0x1.2f1038p-4 0x0p+0 0x0p+0
E^73*E^131[1]:1513:-0x1.2f1036p-4 0x1.d84164p-19 0x1.a9d8f4p-10
E^73*E^131[2]:1514:-0x1.2f1036p-4 0x0p+0 0x0p+0
E^73*E^131[3]:1515:-0x1.0f7284p-4 0x0p+0 0x0p+0
D^288*D^4003:1516:-0x1.1075e4p-4 0x0p+0 0x0p+0
D^288*D^4003[1]:1517:-0x1.1075ep-4 0x1.15850cp-16 0x1.4ed034p-9
D^288*D^4003[2]:1518:-0x1.1075ep-4 0x0p+0 0x0p+0
D^288*D^4003[3]:1519:-0x1.e8023p-5 0x0p+0 0x0p+0
E^1062*E^6051:1524:-0x1.048668p-6 0x0p+0 0x0p+0
E^1062*E^6051[1]:1525:-0x1.048666p-6 0x1.3fb886p-14 0x1.ef868ap-8
E^1062*E^6051[2]:1526:-0x1.048666p-6 0x0p+0 0x0p+0
E^1062*E^6051[3]:1527:-0x1.d27f24p-7 0x0p+0 0x0p+0
C^1188*C^1272:1528:-0x1.0572fp-4 0x0p+0 0x0p+0
C^1188*C^1272[1]:1529:-0x1.0572eep-4 0x1.3d49ecp-18 0x1.eda324p-10
C^1188*C^1272[2]:1530:-0x1.0572eep-4 0x0p+0 0x0p+0
C^1188*C^1272[3]:1531:-0x1.d4410cp-5 0x0p+0 0x0p+0
E^2115*E^4599:1536:-0x1.3dfd34p-6 0x0p+0 0x0p+0
E^2115*E^4599[1]:1537:-0x1.3dfd32p-6 0x1.ad131ep-15 0x1.95e982p-8
E^2115*E^4599[2]:1538:-0x1.3dfd32p-6 0x0p+0 0x0p+0
E^2115*E^4599[3]:1539:-0x1.1cd08ap-6 0x0p+0 0x0p+0
D^3390*D^9095:1540:-0x1.62185ap-7 0x0p+0 0x0p+0
D^3390*D^9095[1]:1541:-0x1.621858p-7 0x1.5a1f2p-13 0x1.6c91b6p-7
D^3390*D^9095[2]:1542:-0x1.621858p-7 0x0p+0 0x0p+0
D^3390*D^9095[3]:1543:-0x1.3d11c6p-7 0x0p+0 0x0p+0
D^41*D^3188:1564:-0x1.2118ep-6 0x0p+0 0x0p+0
D^41*D^3188[1]:1565:-0x1.2118dep-6 0x1.03bbf8p-14 0x1.bea094p-8
D^41*D^3188[2]:1566:-0x1.2118dep-6 0x0p+0 0x0p+0
D^41*D^3188[3]:1567:-0x1.02d036p-6 0x0p+0 0x0p+0
B^606*B^1574:1568:-0x1.20b99p-6 0x0p+0 0x0p+0
B^606*B^1574[1]:1569:-0x1.20b98ep-6 0x1.d99a06p-13 0x1.58ec5ep-7
B^606*B^1574[2]:1570:-0x1.20b98ep-6 0x0p+0 0x0p+0
B^606*B^1574[3]:1571:-0x1.0289dp-6 0x0p+0 0x0p+0
D^1419*D^1730:1580:-0x1.945858p-7 0x0p+0 0x0p+0
D^1419*D^1730[1]:1581:-0x1.945854p-7 0x1.0965fap-13 0x1.3f3cf4p-7
D^1419*D^1730[2]:1582:-0x1.945854p-7 0x0p+0 0x0p+0
D^1419*D^1730[3]:1583:-0x1.6a01bap-7 0x0p+0 0x0p+0
C^1272*C^2090:1584:-0x1.de9e4cp-8 0x0p+0 0x0p+0
C^1272*C^2090[1]:1585:-0x1.de9e48p-8 0x1.7ad25cp-12 0x1.0db126p-6
C^1272*C^2090[2]:1586:-0x1.de9e48p-8 0x0p+0 0x0p+0
C^1272*C^2090[3]:1587:-0x1.ac8d68p-8 0x0p+0 0x0p+0
D^3562*D^12632:1592:-0x1.ec43c6p-5 0x0p+0 0x0p+0
D^3562*D^12632[1]:1593:-0x1.ec43c2p-5 0x1.6635d6p-18 0x1.0640a4p-9
D^3562*D^12632[2]:1594:-0x1.ec43c2p-5 0x0p+0 0x0p+0
D^3562*D^12632[3]:1595:-0x1.b8d41ap-5 0x0p+0 0x0p+0
B^441*B^606:1604:-0x1.9b984p-6 0x0p+0 0x0p+0
B^441*B^606[1]:1605:-0x1.9b983cp-6 0x1.000944p-15 0x1.398e8ep-8
B^441*B^606[2]:1606:-0x1.9b983cp-6 0x0p+0 0x0p+0
B^441*B^606[3]:1607:-0x1.70acp-6 0x0p+0 0x0p+0
D^4194*D^5671:1620:-0x1.9c29d2p-5 0x0p+0 0x0p+0
D^4194*D^5671[1]:1621:-0x1.9c29cep-5 0x1.fecf48p-18 0x1.392b86p-9
D^4194*D^5671[2]:1622:-0x1.9c29cep-5 0x0p+0 0x0p+0
D^4194*D^5671[3]:1623:-0x1.711bb2p-5 0x0p+0 0x0p+0
E^2126*E^8273:1628:-0x1.fa9f32p-7 0x0p+0 0x0p+0
E^2126*E^8273[1]:1629:-0x1.fa9f2ep-7 0x1.520e5p-14 0x1.fd8936p-8
E^2126*E^8273[2]:1630:-0x1.fa9f2ep-7 0x0p+0 0x0p+0
E^2126*E^8273[3]:1631:-0x1.c5b93p-7 0x0p+0 0x0p+0
D^42*D^36354:1632:-0x1.d4196cp-6 0x0p+0 0x0p+0
D^42*D^36354[1]:1633:-0x1.d41968p-6 0x1.8c13bp-16 0x1.13c40ap-8
D^42*D^36354[2]:1634:-0x1.d41968p-6 0x0p+0 0x0p+0
D^42*D^36354[3]:1635:-0x1.a322bp-6 0x0p+0 0x0p+0
E^1865*E^1890:1636:-0x1.00dd5cp-5 0x0p+0 0x0p+0
E^1865*E^1890[1]:1637:-0x1.00dd5ap-5 0x1.48d42ap-16 0x1.f688b8p-9
E^1865*E^1890[2]:1638:-0x1.00dd5ap-5 0x0p+0 0x0p+0
E^1865*E^1890[3]:1639:-0x1.cc15dap-6 0x0p+0 0x0p+0
E^2126*E^8269:1644:-0x1.55b498p-5 0x0p+0 0x0p+0
E^2126*E^8269[1]:1645:-0x1.55b494p-5 0x1.f91ffep-16 0x1.05432ap-8
E^2126*E^8269[2]:1646:-0x1.55b494p-5 0x0p+0 0x0p+0
E^2126*E^8269[3]:1647:-0x1.31f8f8p-5 0x0p+0 0x0p+0
E^73*E^101:1648:-0x1.e8216p-6 0x0p+0 0x0p+0
E^73*E^101[1]:1649:-0x1.e8215ap-6 0x1.e45f82p-16 0x1.2d723cp-8
E^73*E^101[2]:1650:-0x1.e8215ap-6 0x0p+0 0x0p+0
E^73*E^101[3]:1651:-0x1.b5153ap-6 0x0p+0 0x0p+0
E^73*E^73:1664:-0x1.9c4128p-6 0x0p+0 0x0p+0
E^73*E^73[1]:1665:-0x1.9c4126p-6 0x1.fb77b8p-15 0x1.9fe262p-8
E^73*E^73[2]:1666:-0x1.9c4126p-6 0x0p+0 0x0p+0
E^73*E^73[3]:1667:-0x1.712a48p-6 0x0p+0 0x0p+0
E^1305*E^5313:1696:-0x1.18d122p-5 0x0p+0 0x0p+0
E^1305*E^5313[1]:1697:-0x1.18d12p-5 0x1.132ef2p-16 0x1.cbb7dcp-9
E^1305*E^5313[2]:1698:-0x1.18d12p-5 0x0p+0 0x0p+0
E^1305*E^5313[3]:1699:-0x1.f6d13ep-6 0x0p+0 0x0p+0
E^2126*E^8287:1700:-0x1.5b459ep-7 0x0p+0 0x0p+0
E^2126*E^8287[1]:1701:-0x1.5b459cp-7 0x1.67cce6p-13 0x1.73b40cp-7
E^2126*E^8287[2]:1702:-0x1.5b459cp-7 0x0p+0 0x0p+0
E^2126*E^8287[3]:1703:-0x1.36f61cp-7 0x0p+0 0x0p+0
A^2524:1704:-0x1.fedf58p-9 0x1.9e5e76p-6 0x1.500564p-3
A^2524[1]:1705:-0x1.359118p-8 0x1.a7331ep-6 0x1.500564p-3
A^2524[2]:1706:-0x1.fedf58p-9 0x1.9e5e76p-6 0x1.500564p-3
A^2524[3]:1707:-0x1.35c774p-8 0x1.919da2p-18 0x1.500564p-3
A^2525:1708:-0x1.6b8992p-8 0x1.992574p-7 0x1.d83388p-4
A^2525[1]:1709:-0x1.b89278p-8 0x1.a1dd9ep-7 0x1.d83388p-4
A^2525[2]:1710:-0x1.6b8992p-8 0x1.992574p-7 0x1.d83388p-4
A^2525[3]:1711:-0x1.b8ef7ap-8 0x1.8c8dc6p-19 0x1.d83388p-4
A^2526:1712:-0x1.03e988p-6 0x1.2271eep-7 0x1.8dd9b6p-4
A^2526[1]:1713:-0x1.2ac034p-7 0x1.2ff83cp-7 0x1.8dd9b6p-4
A^2526[2]:1714:-0x1.03e986p-6 0x1.2271eep-7 0x1.8dd9b6p-4
A^2526[3]:1715:-0x1.095ad8p-7 0x1.19818p-19 0x1.8dd9b6p-4
E^236*E^800:1720:-0x1.2917d4p-5 0x0p+0 0x0p+0
E^236*E^800[1]:1721:-0x1.2917dp-5 0x1.eb9b1p-17 0x1.b27bfap-9
E^236*E^800[2]:1722:-0x1.2917dp-5 0x0p+0 0x0p+0
E^236*E^800[3]:1723:-0x1.0a094ep-5 0x0p+0 0x0p+0
D^33*D^196:1724:-0x1.e151b8p-5 0x0p+0 0x0p+0
D^33*D^196[1]:1725:-0x1.e151b6p-5 0x1.769faep-18 0x1.0c318ap-9
D^33*D^196[2]:1726:-0x1.e151b6p-5 0x0p+0 0x0p+0
D^33*D^196[3]:1727:-0x1.af0944p-5 0x0p+0 0x0p+0
E^564*E^1865:1732:-0x1.0a515p-5 0x0p+0 0x0p+0
E^564*E^1865[1]:1733:-0x1.0a514ep-5 0x1.31c73p-16 0x1.e499b4p-9
E^564*E^1865[2]:1734:-0x1.0a514ep-5 0x0p+0 0x0p+0
E^564*E^1865[3]:1735:-0x1.dd230cp-6 0x0p+0 0x0p+0
A^230*A^2848:1736:-0x1.12007ap-4 0x1.6819ep-14 0x1.393ee4p-7
A^230*A^2848[1]:1737:-0x1.4c0f48p-4 0x1.6fc676p-14 0x1.393ee4p-7
A^230*A^2848[2]:1738:-0x1.12007ap-4 0x1.6819ep-14 0x1.393ee4p-7
A^230*A^2848[3]:1739:-0x1.4c5d0ep-4 0x1.5d04ap-26 0x1.393ee4p-7
A^2536:1752:-0x1.23f8fp-10 0x1.3d22b6p-2 0x1.25f6fep-1
A^2536[1]:1753:-0x1.61d7cap-10 0x1.43e4e4p-2 0x1.25f6fep-1
A^2536[2]:1754:-0x1.23f8fp-10 0x1.3d22b6p-2 0x1.25f6fep-1
A^2536[3]:1755:-0x1.6225aep-10 0x1.335ffcp-14 0x1.25f6fep-1
A^2543:1780:-0x1.17cb2ep-8 0x1.595d86p-6 0x1.32c5p-3
A^2543[1]:1781:-0x1.5316ap-8 0x1.60b9b8p-6 0x1.32c5p-3
A^2543[2]:1782:-0x1.17cb2ep-8 0x1.595d86p-6 0x1.32c5p-3
A^2543[3]:1783:-0x1.535bc2p-8 0x1.4ebc6p-18 0x1.32c5p-3
D^33*D^161:1800:-0x1.c7dfd6p-5 0x0p+0 0x0p+0
D^33*D^161[1]:1801:-0x1.c7dfd2p-5 0x1.a192e4p-18 0x1.1b2682p-9
D^33*D^161[2]:1802:-0x1.c7dfd2p-5 0x0p+0 0x0p+0
D^33*D^161[3]:1803:-0x1.9849fep-5 0x0p+0 0x0p+0
A^932*A^24036:1808:-0x1.d5da7cp-6 0x1.e9ecbap-12 0x1.6d5fb8p-6
A^932*A^24036[1]:1809:-0x1.1cb56cp-5 0x1.f45d96p-12 0x1.6d5fb8p-6
A^932*A^24036[2]:1810:-0x1.d5da7cp-6 0x1.e9ecbap-12 0x1.6d5fb8p-6
A^932*A^24036[3]:1811:-0x1.1cf502p-5 0x1.dad898p-24 0x1.6d5fb8p-6
D^857*D^3899:1840:-0x1.f6b676p-6 0x0p+0 0x0p+0
D^857*D^3899[1]:1841:-0x1.f6b672p-6 0x1.57513ep-16 0x1.00be3p-8
D^857*D^3899[2]:1842:-0x1.f6b672p-6 0x0p+0 0x0p+0
D^857*D^3899[3]:1843:-0x1.c23ba8p-6 0x0p+0 0x0p+0
A^468*A^1028:1872:-0x1.531fa8p-3 0x1.0e67f4p-16 0x1.0f71ccp-8
A^468*A^1028[1]:1873:-0x1.11af04p-5 0x1.657d96p-13 0x1.602a46p-7
A^468*A^1028[2]:1874:-0x1.531fa8p-3 0x1.0e67f4p-16 0x1.0f71ccp-8
A^468*A^1028[3]:1875:-0x1.54a2fap-4 0x1.06156ap-28 0x1.0f71ccp-8
A^1122*A^1664:1912:-0x1.44bd7p-4 0x1.007b48p-14 0x1.085cf8p-7
A^1122*A^1664[1]:1913:-0x1.898d48p-4 0x1.05f28ep-14 0x1.085cf8p-7
A^1122*A^1664[2]:1914:-0x1.44bd7p-4 0x1.007b48p-14 0x1.085cf8p-7
A^1122*A^1664[3]:1915:-0x1.89df54p-4 0x1.f12ce8p-27 0x1.085cf8p-7
E^1214*E^2028:1968:-0x1.ea0fb8p-6 0x0p+0 0x0p+0
E^1214*E^2028[1]:1969:-0x1.ea0fb4p-6 0x1.695a9ep-16 0x1.076698p-8
E^1214*E^2028[2]:1970:-0x1.ea0fb4p-6 0x0p+0 0x0p+0
E^1214*E^2028[3]:1971:-0x1.b6ce06p-6 0x0p+0 0x0p+0
D^170*D^22746:1984:-0x1.c03e32p-7 0x0p+0 0x0p+0
D^170*D^22746[1]:1985:-0x1.c03e3p-7 0x1.509752p-13 0x1.5cea94p-7
D^170*D^22746[2]:1986:-0x1.c03e3p-7 0x0p+0 0x0p+0
D^170*D^22746[3]:1987:-0x1.915f04p-7 0x0p+0 0x0p+0
A^387*A^932:1988:-0x1.10f86cp-4 0x1.6ad2dep-14 0x1.3a6d78p-7
A^387*A^932[1]:1989:-0x1.4acedap-4 0x1.728e4ep-14 0x1.3a6d78p-7
A^387*A^932[2]:1990:-0x1.10f86cp-4 0x1.6ad2dep-14 0x1.3a6d78p-7
A^387*A^932[3]:1991:-0x1.4b28cap-4 0x1.5fa82cp-26 0x1.3a6d78p-7
B^441*B^514:2004:-0x1.a0128cp-5 0x0p+0 0x0p+0
B^441*B^514[1]:2005:-0x1.a01288p-5 0x1.f5480cp-18 0x1.363c46p-9
B^441*B^514[2]:2006:-0x1.a01288p-5 0x0p+0 0x0p+0
B^441*B^514[3]:2007:-0x1.749accp-5 0x0p+0 0x0p+0
D^1461*D^18778:2052:-0x1.fb6758p-6 0x0p+0 0x0p+0
D^1461*D^18778[1]:2053:-0x1.fb6754p-6 0x1.5114c8p-16 0x1.fccd06p-9
D^1461*D^18778[2]:2054:-0x1.fb6754p-6 0x0p+0 0x0p+0
D^1461*D^18778[3]:2055:-0x1.c6609ep-6 0x0p+0 0x0p+0
D^196*D^483:2140:-0x1.3cec44p-6 0x0p+0 0x0p+0
D^196*D^483[1]:2141:-0x1.3cec42p-6 0x1.b029e8p-15 0x1.975ee4p-8
D^196*D^483[2]:2142:-0x1.3cec42p-6 0x0p+0 0x0p+0
D^196*D^483[3]:2143:-0x1.1bc118p-6 0x0p+0 0x0p+0
D^208*D^4345:2164:-0x1.750044p-7 0x0p+0 0x0p+0
D^208*D^4345[1]:2165:-0x1.750042p-7 0x1.37ff1cp-13 0x1.5a2188p-7
D^208*D^4345[2]:2166:-0x1.750042p-7 0x0p+0 0x0p+0
D^208*D^4345[3]:2167:-0x1.4df82ap-7 0x0p+0 0x0p+0
E^298*E^25081:2188:-0x1.9eef6cp-6 0x0p+0 0x0p+0
E^298*E^25081[1]:2189:-0x1.9eef6ap-6 0x1.f82fp-16 0x1.3721d8p-8
E^298*E^25081[2]:2190:-0x1.9eef6ap-6 0x0p+0 0x0p+0
E^298*E^25081[3]:2191:-0x1.737eeep-6 0x0p+0 0x0p+0
B^934*B^3370:2192:-0x1.43091p-6 0x0p+0 0x0p+0
B^934*B^3370[1]:2193:-0x1.43090ep-6 0x1.9fc2e6p-15 0x1.8f90bp-8
B^934*B^3370[2]:2194:-0x1.43090ep-6 0x0p+0 0x0p+0
B^934*B^3370[3]:2195:-0x1.2144bp-6 0x0p+0 0x0p+0
E^5158*E^18666:2200:-0x1.a28f6p-6 0x0p+0 0x0p+0
E^5158*E^18666[1]:2201:-0x1.a28f5ep-6 0x1.ef7718p-16 0x1.346e3p-8
E^5158*E^18666[2]:2202:-0x1.a28f5ep-6 0x0p+0 0x0p+0
E^5158*E^18666[3]:2203:-0x1.76bffep-6 0x0p+0 0x0p+0
E^5158*E^18665:2204:-0x1.420a54p-7 0x0p+0 0x0p+0
E^5158*E^18665[1]:2205:-0x1.420a52p-7 0x1.a24b94p-13 0x1.90c7ecp-7
E^5158*E^18665[2]:2206:-0x1.420a52p-7 0x0p+0 0x0p+0
E^5158*E^18665[3]:2207:-0x1.20655p-7 0x0p+0 0x0p+0
D^196*D^464:2208:-0x1.182896p-5 0x0p+0 0x0p+0
D^196*D^464[1]:2209:-0x1.182894p-5 0x1.58db3ep-15 0x1.3ad994p-8
D^196*D^464[2]:2210:-0x1.182894p-5 0x0p+0 0x0p+0
D^196*D^464[3]:2211:-0x1.f5cf12p-6 0x0p+0 0x0p+0
D^1342*D^3615:2212:-0x1.b4e5bap-8 0x0p+0 0x0p+0
D^1342*D^3615[1]:2213:-0x1.b4e5b8p-8 0x1.c680cp-12 0x1.2767ep-6
D^1342*D^3615[2]:2214:-0x1.b4e5b8p-8 0x0p+0 0x0p+0
D^1342*D^3615[3]:2215:-0x1.873ff2p-8 0x0p+0 0x0p+0
B^768*B^1930:2216:-0x1.2a4d24p-6 0x0p+0 0x0p+0
B^768*B^1930[1]:2217:-0x1.2a4d22p-6 0x1.e7911cp-15 0x1.b0b22p-8
B^768*B^1930[2]:2218:-0x1.2a4d22p-6 0x0p+0 0x0p+0
B^768*B^1930[3]:2219:-0x1.0b2e6ep-6 0x0p+0 0x0p+0
E^2248*E^24559:2220:-0x1.83374ep-6 0x0p+0 0x0p+0
E^2248*E^24559[1]:2221:-0x1.83374cp-6 0x1.2166e4p-15 0x1.4d5cb6p-8
E^2248*E^24559[2]:2222:-0x1.83374cp-6 0x0p+0 0x0p+0
E^2248*E^24559[3]:2223:-0x1.5ab4dcp-6 0x0p+0 0x0p+0
D^41*D^3533:2232:-0x1.c7dfd8p-5 0x0p+0 0x0p+0
D^41*D^3533[1]:2233:-0x1.c7dfd4p-5 0x1.a19198p-18 0x1.1b2612p-9
D^41*D^3533[2]:2234:-0x1.c7dfd4p-5 0x0p+0 0x0p+0
D^41*D^3533[3]:2235:-0x1.9849fep-5 0x0p+0 0x0p+0
E^5158*E^18656:2240:-0x1.47a7bep-6 0x0p+0 0x0p+0
E^5158*E^18656[1]:2241:-0x1.47a7bcp-6 0x1.9426f4p-15 0x1.89f27ep-8
E^5158*E^18656[2]:2242:-0x1.47a7bcp-6 0x0p+0 0x0p+0
E^5158*E^18656[3]:2243:-0x1.256e6p-6 0x0p+0 0x0p+0
D^33*D^336:2252:-0x1.993fccp-5 0x0p+0 0x0p+0
D^33*D^336[1]:2253:-0x1.993fcap-5 0x1.03332p-17 0x1.3b7ceep-9
D^33*D^336[2]:2254:-0x1.993fcap-5 0x0p+0 0x0p+0
D^33*D^336[3]:2255:-0x1.6e59e4p-5 0x0p+0 0x0p+0
E^1389*E^6051:2264:-0x1.e5b9dp-7 0x0p+0 0x0p+0
E^1389*E^6051[1]:2265:-0x1.e5b9cep-7 0x1.6ff57p-14 0x1.09cc0cp-7
E^1389*E^6051[2]:2266:-0x1.e5b9cep-7 0x0p+0 0x0p+0
E^1389*E^6051[3]:2267:-0x1.b2ed3ap-7 0x0p+0 0x0p+0
E^236*E^1196:2280:-0x1.d782cap-5 0x0p+0 0x0p+0
E^236*E^1196[1]:2281:-0x1.d782c6p-5 0x1.86447cp-18 0x1.11bc66p-9
E^236*E^1196[2]:2282:-0x1.d782c6p-5 0x0p+0 0x0p+0
E^236*E^1196[3]:2283:-0x1.a64018p-5 0x0p+0 0x0p+0
D^1188*D^6047:2284:-0x1.80719p-8 0x0p+0 0x0p+0
D^1188*D^6047[1]:2285:-0x1.80718ep-8 0x1.8d66ecp-11 0x1.8186bp-6
D^1188*D^6047[2]:2286:-0x1.80718ep-8 0x0p+0 0x0p+0
D^1188*D^6047[3]:2287:-0x1.583a18p-8 0x0p+0 0x0p+0
E^2028*E^2477:2292:-0x1.36cf7ep-6 0x0p+0 0x0p+0
E^2028*E^2477[1]:2293:-0x1.36cf7cp-6 0x1.c1307ep-15 0x1.9f515p-8
E^2028*E^2477[2]:2294:-0x1.36cf7cp-6 0x0p+0 0x0p+0
E^2028*E^2477[3]:2295:-0x1.1649eap-6 0x0p+0 0x0p+0
E^1865*E^2248:2300:-0x1.099244p-5 0x0p+0 0x0p+0
E^1865*E^2248[1]:2301:-0x1.099242p-5 0x1.338afp-16 0x1.e5ff28p-9
E^1865*E^2248[2]:2302:-0x1.099242p-5 0x0p+0 0x0p+0
E^1865*E^2248[3]:2303:-0x1.db9f62p-6 0x0p+0 0x0p+0
B^768*B^2036:2304:-0x1.310dacp-6 0x0p+0 0x0p+0
B^768*B^2036[1]:2305:-0x1.310daap-6 0x1.d26fa4p-15 0x1.a73732p-8
B^768*B^2036[2]:2306:-0x1.310daap-6 0x0p+0 0x0p+0
B^768*B^2036[3]:2307:-0x1.112fb2p-6 0x0p+0 0x0p+0
D^1266*D^5671:2324:-0x1.017294p-4 0x0p+0 0x0p+0
D^1266*D^5671[1]:2325:-0x1.017294p-4 0x1.80db38p-17 0x1.532c58p-9
D^1266*D^5671[2]:2326:-0x1.017294p-4 0x0p+0 0x0p+0
D^1266*D^5671[3]:2327:-0x1.cd100cp-5 0x0p+0 0x0p+0
E^269*E^14387:2328:-0x1.476c82p-5 0x0p+0 0x0p+0
E^269*E^14387[1]:2329:-0x1.476c8p-5 0x1.e04a8ap-16 0x1.0b1f12p-8
E^269*E^14387[2]:2330:-0x1.476c8p-5 0x0p+0 0x0p+0
E^269*E^14387[3]:2331:-0x1.2529eap-5 0x0p+0 0x0p+0
D^196*D^430:2344:-0x1.83924ap-5 0x0p+0 0x0p+0
D^196*D^430[1]:2345:-0x1.839248p-5 0x1.20e6f2p-17 0x1.4d12fep-9
D^196*D^430[2]:2346:-0x1.839248p-5 0x0p+0 0x0p+0
D^196*D^430[3]:2347:-0x1.5b136ap-5 0x0p+0 0x0p+0
D^196*D^428:2352:-0x1.befa16p-5 0x0p+0 0x0p+0
D^196*D^428[1]:2353:-0x1.befa12p-5 0x1.6f574ep-17 0x1.67abb2p-9
D^196*D^428[2]:2354:-0x1.befa12p-5 0x0p+0 0x0p+0
D^196*D^428[3]:2355:-0x1.90432cp-5 0x0p+0 0x0p+0
E^1133*E^2248:2380:-0x1.ae3762p-5 0x0p+0 0x0p+0
E^1133*E^2248[1]:2381:-0x1.ae376p-5 0x1.d4d5p-18 0x1.2c06b8p-9
E^1133*E^2248[2]:2382:-0x1.ae376p-5 0x0p+0 0x0p+0
E^1133*E^2248[3]:2383:-0x1.8147ecp-5 0x0p+0 0x0p+0
D^33*D^298:2388:-0x1.08d336p-5 0x0p+0 0x0p+0
D^33*D^298[1]:2389:-0x1.08d334p-5 0x1.356d72p-16 0x1.e77bd2p-9
D^33*D^298[2]:2390:-0x1.08d334p-5 0x0p+0 0x0p+0
D^33*D^298[3]:2391:-0x1.da566cp-6 0x0p+0 0x0p+0
B^6093:2396:-0x1.10e45ep-5 0x0p+0 0x0p+0
B^6093[1]:2397:-0x1.10e45cp-5 0x1.2366b6p-16 0x1.d9122ap-9
B^6093[2]:2398:-0x1.10e45cp-5 0x0p+0 0x0p+0
B^6093[3]:2399:-0x1.e8afdp-6 0x0p+0 0x0p+0
A^1122*A^1530:2400:-0x1.c89a86p-5 0x1.034d5p-13 0x1.77ea7ep-7
A^1122*A^1530[1]:2401:-0x1.14ae76p-4 0x1.08d3fap-13 0x1.77ea7ep-7
A^1122*A^1530[2]:2402:-0x1.c89a86p-5 0x1.034d5p-13 0x1.77ea7ep-7
A^1122*A^1530[3]:2403:-0x1.14ee98p-4 0x1.f6a486p-26 0x1.77ea7ep-7
E^1011*E^18661:2440:-0x1.35260cp-7 0x0p+0 0x0p+0
E^1011*E^18661[1]:2441:-0x1.35260ap-7 0x1.441266p-12 0x1.e9aaeep-7
E^1011*E^18661[2]:2442:-0x1.35260ap-7 0x0p+0 0x0p+0
E^1011*E^18661[3]:2443:-0x1.14dfaep-7 0x0p+0 0x0p+0
E^1011*E^18656:2468:-0x1.020994p-5 0x0p+0 0x0p+0
E^1011*E^18656[1]:2469:-0x1.020992p-5 0x1.45fe94p-16 0x1.f45d14p-9
E^1011*E^18656[2]:2470:-0x1.020992p-5 0x0p+0 0x0p+0
E^1011*E^18656[3]:2471:-0x1.ce0c9p-6 0x0p+0 0x0p+0
A^1865*A^7052:2492:-0x1.e3430ep-5 0x1.cf2faep-14 0x1.63437ap-7
A^1865*A^7052[1]:2493:-0x1.24d36ep-4 0x1.d90eaap-14 0x1.63437ap-7
A^1865*A^7052[2]:2494:-0x1.e3430ep-5 0x1.cf2faep-14 0x1.63437ap-7
A^1865*A^7052[3]:2495:-0x1.2518d8p-4 0x1.c0ee38p-26 0x1.63437ap-7
E^161*E^2563:2504:-0x1.19d8f6p-4 0x0p+0 0x0p+0
E^161*E^2563[1]:2505:-0x1.19d8f4p-4 0x1.110458p-18 0x1.c9e7bp-10
E^161*E^2563[2]:2506:-0x1.19d8f4p-4 0x0p+0 0x0p+0
E^161*E^2563[3]:2507:-0x1.f8d75p-5 0x0p+0 0x0p+0
A^1664*A^24303:2524:-0x1.62bb0ap-5 0x1.ad94d6p-13 0x1.e3d98ep-7
A^1664*A^24303[1]:2525:-0x1.ade8dcp-5 0x1.b6bc7cp-13 0x1.e3d98ep-7
A^1664*A^24303[2]:2526:-0x1.62bb0ap-5 0x1.ad94d6p-13 0x1.e3d98ep-7
A^1664*A^24303[3]:2527:-0x1.ae54c8p-5 0x1.a05c26p-25 0x1.e3d98ep-7
E^2028*E^2538:2528:-0x1.fce57p-6 0x0p+0 0x0p+0
E^2028*E^2538[1]:2529:-0x1.fce56ep-6 0x1.4f37b8p-16 0x1.fb647ap-9
E^2028*E^2538[2]:2530:-0x1.fce56ep-6 0x0p+0 0x0p+0
E^2028*E^2538[3]:2531:-0x1.c790c4p-6 0x0p+0 0x0p+0
E^1011*E^18668:2548:-0x1.fcaedap-6 0x0p+0 0x0p+0
E^1011*E^18668[1]:2549:-0x1.fcaed8p-6 0x1.4f5bccp-16 0x1.fb7fc8p-9
E^1011*E^18668[2]:2550:-0x1.fcaed8p-6 0x0p+0 0x0p+0
E^1011*E^18668[3]:2551:-0x1.c78a76p-6 0x0p+0 0x0p+0
D^533*D^4345:2552:-0x1.6630c8p-6 0x0p+0 0x0p+0
D^533*D^4345[1]:2553:-0x1.6630c6p-6 0x1.31717cp-13 0x1.fd0b14p-8
D^533*D^4345[2]:2554:-0x1.6630c6p-6 0x0p+0 0x0p+0
D^533*D^4345[3]:2555:-0x1.40ac6p-6 0x0p+0 0x0p+0
D^33*D^276:2556:-0x1.3e801ap-5 0x0p+0 0x0p+0
D^33*D^276[1]:2557:-0x1.3e8018p-5 0x1.330978p-15 0x1.1a0568p-8
D^33*D^276[2]:2558:-0x1.3e8018p-5 0x0p+0 0x0p+0
D^33*D^276[3]:2559:-0x1.1d4036p-5 0x0p+0 0x0p+0
D^1465*D^const:2584:-0x1.e2bd9ep-7 0x0p+0 0x0p+0
D^1465*D^const[1]:2585:-0x1.e2bd9ap-7 0x1.745fc4p-14 0x1.0b6314p-7
D^1465*D^const[2]:2586:-0x1.e2bd9ap-7 0x0p+0 0x0p+0
D^1465*D^const[3]:2587:-0x1.b04f16p-7 0x0p+0 0x0p+0
E^1865*E^2166:2612:-0x1.c3535ap-6 0x0p+0 0x0p+0
E^1865*E^2166[1]:2613:-0x1.c35356p-6 0x1.aa184ep-16 0x1.1e065ep-8
E^1865*E^2166[2]:2614:-0x1.c35356p-6 0x0p+0 0x0p+0
E^1865*E^2166[3]:2615:-0x1.9421ep-6 0x0p+0 0x0p+0
E^2028*E^2323:2636:-0x1.b6e332p-6 0x0p+0 0x0p+0
E^2028*E^2323[1]:2637:-0x1.b6e32ep-6 0x1.c2889ep-16 0x1.261ceep-8
E^2028*E^2323[2]:2638:-0x1.b6e32ep-6 0x0p+0 0x0p+0
E^2028*E^2323[3]:2639:-0x1.88f0b6p-6 0x0p+0 0x0p+0
E^236*E^1036:2664:-0x1.6f69a2p-5 0x0p+0 0x0p+0
E^236*E^1036[1]:2665:-0x1.6f69ap-5 0x1.43da94p-16 0x1.cbe11cp-9
E^236*E^1036[2]:2666:-0x1.6f69ap-5 0x0p+0 0x0p+0
E^236*E^1036[3]:2667:-0x1.490c62p-5 0x0p+0 0x0p+0
B^606*B^2330:2672:-0x1.11881p-4 0x0p+0 0x0p+0
B^606*B^2330[1]:2673:-0x1.11880ep-4 0x1.057cdcp-16 0x1.4d48d2p-9
B^606*B^2330[2]:2674:-0x1.11880ep-4 0x0p+0 0x0p+0
B^606*B^2330[3]:2675:-0x1.e9e214p-5 0x0p+0 0x0p+0
E^2115*E^3800:2692:-0x1.edafacp-6 0x0p+0 0x0p+0
E^2115*E^3800[1]:2693:-0x1.edafaap-6 0x1.6426e8p-16 0x1.057f7ap-8
E^2115*E^3800[2]:2694:-0x1.edafaap-6 0x0p+0 0x0p+0
E^2115*E^3800[3]:2695:-0x1.b9fdf2p-6 0x0p+0 0x0p+0
D^1422*D^1881:2700:-0x1.dc6a4p-5 0x0p+0 0x0p+0
D^1422*D^1881[1]:2701:-0x1.dc6a3cp-5 0x1.7e7e4cp-18 0x1.0efeecp-9
D^1422*D^1881[2]:2702:-0x1.dc6a3cp-5 0x0p+0 0x0p+0
D^1422*D^1881[3]:2703:-0x1.aa8108p-5 0x0p+0 0x0p+0
C^55*C^2871:2704:-0x1.a9744ep-5 0x0p+0 0x0p+0
C^55*C^2871[1]:2705:-0x1.a9744cp-5 0x1.df5cfep-18 0x1.2f6092p-9
C^55*C^2871[2]:2706:-0x1.a9744cp-5 0x0p+0 0x0p+0
C^55*C^2871[3]:2707:-0x1.7d14fap-5 0x0p+0 0x0p+0
D^41*D^3410:2708:-0x1.02b66ep-5 0x0p+0 0x0p+0
D^41*D^3410[1]:2709:-0x1.02b66cp-5 0x1.44347p-16 0x1.f2fdp-9
D^41*D^3410[2]:2710:-0x1.02b66cp-5 0x0p+0 0x0p+0
D^41*D^3410[3]:2711:-0x1.cf4c12p-6 0x0p+0 0x0p+0
E^1380*E^3536:2712:-0x1.5aa1dcp-5 0x0p+0 0x0p+0
E^1380*E^3536[1]:2713:-0x1.5aa1dap-5 0x1.69087ep-17 0x1.7456ecp-9
E^1380*E^3536[2]:2714:-0x1.5aa1dap-5 0x0p+0 0x0p+0
E^1380*E^3536[3]:2715:-0x1.36786ep-5 0x0p+0 0x0p+0
D^196*D^336:2720:-0x1.38df24p-6 0x0p+0 0x0p+0
D^196*D^336[1]:2721:-0x1.38df22p-6 0x1.bb56c8p-15 0x1.9c9aa8p-8
D^196*D^336[2]:2722:-0x1.38df22p-6 0x0p+0 0x0p+0
D^196*D^336[3]:2723:-0x1.18292cp-6 0x0p+0 0x0p+0
A^1160*A^16893:2724:-0x1.968a36p-6 0x1.4701ep-11 0x1.a6265ap-6
A^1160*A^16893[1]:2725:-0x1.ecb538p-6 0x1.4df9eap-11 0x1.a6265ap-6
A^1160*A^16893[2]:2726:-0x1.968a36p-6 0x1.4701ep-11 0x1.a6265ap-6
A^1160*A^16893[3]:2727:-0x1.ed3768p-6 0x1.3cf16p-23 0x1.a6265ap-6
E^564*E^2115:2732:-0x1.2f6b32p-5 0x0p+0 0x0p+0
E^564*E^2115[1]:2733:-0x1.2f6b3p-5 0x1.d7773cp-17 0x1.a97dc6p-9
E^564*E^2115[2]:2734:-0x1.2f6b3p-5 0x0p+0 0x0p+0
E^564*E^2115[3]:2735:-0x1.0fb09p-5 0x0p+0 0x0p+0
A^69*A^3960:2748:-0x1.6bc682p-4 0x1.98aff4p-15 0x1.d7efb6p-8
A^69*A^3960[1]:2749:-0x1.b8dc6ap-4 0x1.a1659cp-15 0x1.d7efb6p-8
A^69*A^3960[2]:2750:-0x1.6bc682p-4 0x1.98aff4p-15 0x1.d7efb6p-8
A^69*A^3960[3]:2751:-0x1.b91c4p-4 0x1.8c1be4p-27 0x1.d7efb6p-8
E^564*E^2126:2768:-0x1.bc1372p-5 0x0p+0 0x0p+0
E^564*E^2126[1]:2769:-0x1.bc136ep-5 0x1.b83118p-18 0x1.22b7cp-9
E^564*E^2126[2]:2770:-0x1.bc136ep-5 0x0p+0 0x0p+0
E^564*E^2126[3]:2771:-0x1.8da48p-5 0x0p+0 0x0p+0
D^464*D^9041:2772:-0x1.20f47ap-6 0x0p+0 0x0p+0
D^464*D^9041[1]:2773:-0x1.20f478p-6 0x1.03f416p-14 0x1.bed0dp-8
D^464*D^9041[2]:2774:-0x1.20f478p-6 0x0p+0 0x0p+0
D^464*D^9041[3]:2775:-0x1.02b764p-6 0x0p+0 0x0p+0
D^41*D^3390:2788:-0x1.826f28p-6 0x0p+0 0x0p+0
D^41*D^3390[1]:2789:-0x1.826f26p-6 0x1.22b2d8p-15 0x1.4e1bbp-8
D^41*D^3390[2]:2790:-0x1.826f26p-6 0x0p+0 0x0p+0
D^41*D^3390[3]:2791:-0x1.59ee4ep-6 0x0p+0 0x0p+0
E^169*E^6051:2792:-0x1.f3637ep-6 0x0p+0 0x0p+0
E^169*E^6051[1]:2793:-0x1.f3637cp-6 0x1.3d6b28p-14 0x1.6d2826p-8
E^169*E^6051[2]:2794:-0x1.f3637cp-6 0x0p+0 0x0p+0
E^169*E^6051[3]:2795:-0x1.bf3094p-6 0x0p+0 0x0p+0
D^41*D^3384:2828:-0x1.8d8d06p-7 0x0p+0 0x0p+0
D^41*D^3384[1]:2829:-0x1.8d8d04p-7 0x1.59e522p-13 0x1.69c172p-7
D^41*D^3384[2]:2830:-0x1.8d8d04p-7 0x0p+0 0x0p+0
D^41*D^3384[3]:2831:-0x1.63fea4p-7 0x0p+0 0x0p+0
D^6319*D^9252:2836:-0x1.befd72p-6 0x0p+0 0x0p+0
D^6319*D^9252[1]:2837:-0x1.befd6ep-6 0x1.b279bep-16 0x1.20d2f2p-8
D^6319*D^9252[2]:2838:-0x1.befd6ep-6 0x0p+0 0x0p+0
D^6319*D^9252[3]:2839:-0x1.903deap-6 0x0p+0 0x0p+0
D^41*D^3380:2844:-0x1.8a409ep-6 0x0p+0 0x0p+0
D^41*D^3380[1]:2845:-0x1.8a409cp-6 0x1.173bep-15 0x1.47741ap-8
D^41*D^3380[2]:2846:-0x1.8a409cp-6 0x0p+0 0x0p+0
D^41*D^3380[3]:2847:-0x1.60f43p-6 0x0p+0 0x0p+0
E^2028*E^2362:2848:-0x1.9fb794p-5 0x0p+0 0x0p+0
E^2028*E^2362[1]:2849:-0x1.9fb79p-5 0x1.f6397ep-18 0x1.3686f4p-9
E^2028*E^2362[2]:2850:-0x1.9fb79p-5 0x0p+0 0x0p+0
E^2028*E^2362[3]:2851:-0x1.745054p-5 0x0p+0 0x0p+0
E^236*E^1081:2852:-0x1.13bf26p-5 0x0p+0 0x0p+0
E^236*E^1081[1]:2853:-0x1.13bf24p-5 0x1.3d6864p-15 0x1.394ea6p-8
E^236*E^1081[2]:2854:-0x1.13bf24p-5 0x0p+0 0x0p+0
E^236*E^1081[3]:2855:-0x1.eddff6p-6 0x0p+0 0x0p+0
A^932*A^24303:2860:-0x1.52b432p-5 0x1.d74c3ap-13 0x1.facc7cp-7
A^932*A^24303[1]:2861:-0x1.9a790cp-5 0x1.e15778p-13 0x1.facc7cp-7
A^932*A^24303[2]:2862:-0x1.52b432p-5 0x1.d74c3ap-13 0x1.facc7cp-7
A^932*A^24303[3]:2863:-0x1.9ae57cp-5 0x1.c8cadcp-25 0x1.facc7cp-7
A^394*A^3960:2872:-0x1.c045d8p-5 0x1.0d158ap-13 0x1.7ef0e8p-7
A^394*A^3960[1]:2873:-0x1.0fa068p-4 0x1.12d192p-13 0x1.7ef0e8p-7
A^394*A^3960[2]:2874:-0x1.c045d8p-5 0x1.0d158ap-13 0x1.7ef0e8p-7
A^394*A^3960[3]:2875:-0x1.0fe2ep-4 0x1.04cd6cp-25 0x1.7ef0e8p-7
E^1214*E^2248:2880:-0x1.8de092p-5 0x0p+0 0x0p+0
E^1214*E^2248[1]:2881:-0x1.8de09p-5 0x1.120de8p-17 0x1.4466fep-9
E^1214*E^2248[2]:2882:-0x1.8de09p-5 0x0p+0 0x0p+0
E^1214*E^2248[3]:2883:-0x1.643e7cp-5 0x0p+0 0x0p+0
E^236*E^1110:2896:-0x1.c68622p-5 0x0p+0 0x0p+0
E^236*E^1110[1]:2897:-0x1.c6861ep-5 0x1.a4159p-18 0x1.1c0014p-9
E^236*E^1110[2]:2898:-0x1.c6861ep-5 0x0p+0 0x0p+0
E^236*E^1110[3]:2899:-0x1.970754p-5 0x0p+0 0x0p+0
E^1059*E^5313:2904:-0x1.94d444p-5 0x0p+0 0x0p+0
E^1059*E^5313[1]:2905:-0x1.94d444p-5 0x1.fd1e8p-16 0x1.c2da7ap-9
E^1059*E^5313[2]:2906:-0x1.94d444p-5 0x0p+0 0x0p+0
E^1059*E^5313[3]:2907:-0x1.6a88b4p-5 0x0p+0 0x0p+0
D^196*D^286:2920:-0x1.9cdfc2p-6 0x0p+0 0x0p+0
D^196*D^286[1]:2921:-0x1.9cdfcp-6 0x1.fd0b46p-16 0x1.38a0d8p-8
D^196*D^286[2]:2922:-0x1.9cdfcp-6 0x0p+0 0x0p+0
D^196*D^286[3]:2923:-0x1.71c1cp-6 0x0p+0 0x0p+0
D^196*D^280:2944:-0x1.303358p-5 0x0p+0 0x0p+0
D^196*D^280[1]:2945:-0x1.303356p-5 0x1.d4f66cp-17 0x1.a85c3ap-9
D^196*D^280[2]:2946:-0x1.303356p-5 0x0p+0 0x0p+0
D^196*D^280[3]:2947:-0x1.106ab4p-5 0x0p+0 0x0p+0
A^230*A^2543:2948:-0x1.75d324p-4 0x1.722884p-13 0x1.c123ccp-7
A^230*A^2543[1]:2949:-0x1.0575b4p-4 0x1.8e587p-13 0x1.c123ccp-7
A^230*A^2543[2]:2950:-0x1.75d322p-4 0x1.722884p-13 0x1.c123ccp-7
A^230*A^2543[3]:2951:-0x1.d928eap-5 0x1.66c406p-25 0x1.c123ccp-7
E^836*E^13810:2976:-0x1.eeae68p-7 0x0p+0 0x0p+0
E^836*E^13810[1]:2977:-0x1.eeae64p-7 0x1.62a946p-14 0x1.04f33ap-7
E^836*E^13810[2]:2978:-0x1.eeae64p-7 0x0p+0 0x0p+0
E^836*E^13810[3]:2979:-0x1.baf626p-7 0x0p+0 0x0p+0
A^230*A^2536:2984:-0x1.8ed808p-7 0x1.53e6e8p-9 0x1.ae647cp-5
A^230*A^2536[1]:2985:-0x1.e35e5p-7 0x1.5b254cp-9 0x1.ae647cp-5
A^230*A^2536[2]:2986:-0x1.8ed808p-7 0x1.53e6e8p-9 0x1.ae647cp-5
A^230*A^2536[3]:2987:-0x1.e3d048p-7 0x1.4970dp-21 0x1.ae647cp-5
E^236*E^1118:2992:-0x1.6ad65cp-5 0x0p+0 0x0p+0
E^236*E^1118[1]:2993:-0x1.6ad65ap-5 0x1.4984dp-17 0x1.63b7c8p-9
E^236*E^1118[2]:2994:-0x1.6ad65ap-5 0x0p+0 0x0p+0
E^236*E^1118[3]:2995:-0x1.45004cp-5 0x0p+0 0x0p+0
A^2848:3000:-0x1.91395cp-8 0x1.4ffb54p-7 0x1.abe744p-4
A^2848[1]:3001:-0x1.e63b62p-8 0x1.572454p-7 0x1.abe744p-4
A^2848[2]:3002:-0x1.91395cp-8 0x1.4ffb54p-7 0x1.abe744p-4
A^2848[3]:3003:-0x1.e690f8p-8 0x1.45a42p-19 0x1.abe744p-4
A^230*A^2526:3008:-0x1.61638cp-4 0x1.374b9ep-14 0x1.233ed8p-7
A^230*A^2526[1]:3009:-0x1.99bb2cp-5 0x1.2742b8p-12 0x1.6ec5cap-7
A^230*A^2526[2]:3010:-0x1.61638ap-4 0x1.374b9ep-14 0x1.233ed8p-7
A^230*A^2526[3]:3011:-0x1.437642p-4 0x1.2db6e8p-26 0x1.233ed8p-7
E^8467*E^8467:3024:-0x1.18d122p-6 0x0p+0 0x0p+0
E^8467*E^8467[1]:3025:-0x1.18d12p-6 0x1.132ae8p-14 0x1.cbb47cp-8
E^8467*E^8467[2]:3026:-0x1.18d12p-6 0x0p+0 0x0p+0
E^8467*E^8467[3]:3027:-0x1.f6d142p-7 0x0p+0 0x0p+0
A^230*A^2524:3032:-0x1.5cf052p-5 0x1.bc1d94p-13 0x1.ebf784p-7
A^230*A^2524[1]:3033:-0x1.a6e182p-5 0x1.c59486p-13 0x1.ebf784p-7
A^230*A^2524[2]:3034:-0x1.5cf052p-5 0x1.bc1d94p-13 0x1.ebf784p-7
A^230*A^2524[3]:3035:-0x1.a7478ep-5 0x1.ae7262p-25 0x1.ebf784p-7
A^230*A^2525:3036:-0x1.f08304p-5 0x1.b68496p-14 0x1.59ac82p-7
A^230*A^2525[1]:3037:-0x1.2cdd98p-4 0x1.bfdcfep-14 0x1.59ac82p-7
A^230*A^2525[2]:3038:-0x1.f08304p-5 0x1.b68496p-14 0x1.59ac82p-7
A^230*A^2525[3]:3039:-0x1.2d2e08p-4 0x1.a9057ep-26 0x1.59ac82p-7
E^236*E^1130:3040:-0x1.8d859ap-5 0x0p+0 0x0p+0
E^236*E^1130[1]:3041:-0x1.8d8598p-5 0x1.128e2ep-17 0x1.44b2ep-9
E^236*E^1130[2]:3042:-0x1.8d8598p-5 0x0p+0 0x0p+0
E^236*E^1130[3]:3043:-0x1.63fedep-5 0x0p+0 0x0p+0
E^236*E^1133:3060:-0x1.8411a6p-5 0x0p+0 0x0p+0
E^236*E^1133[1]:3061:-0x1.8411a2p-5 0x1.20284p-17 0x1.4ca4fep-9
E^236*E^1133[2]:3062:-0x1.8411a2p-5 0x0p+0 0x0p+0
E^236*E^1133[3]:3063:-0x1.5b79d8p-5 0x0p+0 0x0p+0
E^1865*E^2538:3076:-0x1.e2bd9ep-6 0x0p+0 0x0p+0
E^1865*E^2538[1]:3077:-0x1.e2bd9ap-6 0x1.7456eep-16 0x1.0b5fe8p-8
E^1865*E^2538[2]:3078:-0x1.e2bd9ap-6 0x0p+0 0x0p+0
E^1865*E^2538[3]:3079:-0x1.b04f16p-6 0x0p+0 0x0p+0
E^10752*E^10752:3080:-0x1.18f584p-8 0x0p+0 0x0p+0
E^10752*E^10752[1]:3081:-0x1.18f582p-8 0x1.12f446p-10 0x1.cb86d8p-6
E^10752*E^10752[2]:3082:-0x1.18f582p-8 0x0p+0 0x0p+0
E^10752*E^10752[3]:3083:-0x1.f702e2p-9 0x0p+0 0x0p+0
A^387*A^434:3084:-0x1.292b52p-5 0x1.323a62p-12 0x1.20dd84p-6
A^387*A^434[1]:3085:-0x1.681fe4p-5 0x1.38c10ep-12 0x1.20dd84p-6
A^387*A^434[2]:3086:-0x1.292b52p-5 0x1.323a62p-12 0x1.20dd84p-6
A^387*A^434[3]:3087:-0x1.68654ap-5 0x1.28cd9cp-24 0x1.20dd84p-6
D^196*D^757:3092:-0x1.37f29ep-5 0x0p+0 0x0p+0
D^196*D^757[1]:3093:-0x1.37f29cp-5 0x1.bdef28p-17 0x1.9dcf5ep-9
D^196*D^757[2]:3094:-0x1.37f29cp-5 0x0p+0 0x0p+0
D^196*D^757[3]:3095:-0x1.175634p-5 0x0p+0 0x0p+0
B^1340*B^3370:3096:-0x1.94e9e6p-5 0x0p+0 0x0p+0
B^1340*B^3370[1]:3097:-0x1.94e9e4p-5 0x1.08a88cp-17 0x1.3ecaf2p-9
B^1340*B^3370[2]:3098:-0x1.94e9e4p-5 0x0p+0 0x0p+0
B^1340*B^3370[3]:3099:-0x1.6a96a2p-5 0x0p+0 0x0p+0
A^387*A^438:3100:-0x1.1cac52p-4 0x1.4dafb4p-14 0x1.2d89bcp-7
A^387*A^438[1]:3101:-0x1.58fc22p-4 0x1.54cc2ep-14 0x1.2d89bcp-7
A^387*A^438[2]:3102:-0x1.1cac52p-4 0x1.4dafb4p-14 0x1.2d89bcp-7
A^387*A^438[3]:3103:-0x1.59433cp-4 0x1.436a94p-26 0x1.2d89bcp-7
E^564*E^2538:3136:-0x1.9e4baap-5 0x0p+0 0x0p+0
E^564*E^2538[1]:3137:-0x1.9e4ba8p-5 0x1.f98c1p-18 0x1.378d7ap-9
E^564*E^2538[2]:3138:-0x1.9e4ba8p-5 0x0p+0 0x0p+0
E^564*E^2538[3]:3139:-0x1.7302d6p-5 0x0p+0 0x0p+0
B^441*B^995:3152:-0x1.85eab8p-5 0x0p+0 0x0p+0
B^441*B^995[1]:3153:-0x1.85eab6p-5 0x1.1d6224p-17 0x1.4b0a22p-9
B^441*B^995[2]:3154:-0x1.85eab6p-5 0x0p+0 0x0p+0
B^441*B^995[3]:3155:-0x1.5d2c34p-5 0x0p+0 0x0p+0
B^39*B^3370:3164:-0x1.22c474p-5 0x0p+0 0x0p+0
B^39*B^3370[1]:3165:-0x1.22c472p-5 0x1.009f4cp-16 0x1.bbf18cp-9
B^39*B^3370[2]:3166:-0x1.22c472p-5 0x0p+0 0x0p+0
B^39*B^3370[3]:3167:-0x1.045ee8p-5 0x0p+0 0x0p+0
E^236*E^1417:3172:-0x1.9b06b2p-5 0x0p+0 0x0p+0
E^236*E^1417[1]:3173:-0x1.9b06bp-5 0x1.00da7p-17 0x1.3a0e88p-9
E^236*E^1417[2]:3174:-0x1.9b06bp-5 0x0p+0 0x0p+0
E^236*E^1417[3]:3175:-0x1.7010fap-5 0x0p+0 0x0p+0
A^387*A^465:3184:-0x1.491a8cp-6 0x1.f33c52p-11 0x1.04cd46p-5
A^387*A^465[1]:3185:-0x1.8ed8f4p-6 0x1.fddffap-11 0x1.04cd46p-5
A^387*A^465[2]:3186:-0x1.491a8cp-6 0x1.f33c52p-11 0x1.04cd46p-5
A^387*A^465[3]:3187:-0x1.8f25c2p-6 0x1.e3ded4p-23 0x1.04cd46p-5
A^387*A^468:3204:-0x1.b1984cp-5 0x1.1f8b22p-13 0x1.8bdbb2p-7
A^387*A^468[1]:3205:-0x1.06beccp-4 0x1.25abep-13 0x1.8bdbb2p-7
A^387*A^468[2]:3206:-0x1.b1984cp-5 0x1.1f8b22p-13 0x1.8bdbb2p-7
A^387*A^468[3]:3207:-0x1.07009p-4 0x1.16b192p-25 0x1.8bdbb2p-7
E^8287*E^33705:3208:-0x1.0ecb9cp-8 0x0p+0 0x0p+0
E^8287*E^33705[1]:3209:-0x1.0ecb9ap-8 0x1.27f2a4p-10 0x1.dcbf4ap-6
E^8287*E^33705[2]:3210:-0x1.0ecb9ap-8 0x0p+0 0x0p+0
E^8287*E^33705[3]:3211:-0x1.e4e4aap-9 0x0p+0 0x0p+0
E^1221*E^3577:3216:-0x1.88e6eap-6 0x0p+0 0x0p+0
E^1221*E^3577[1]:3217:-0x1.88e6e8p-6 0x1.191d34p-15 0x1.488ddap-8
E^1221*E^3577[2]:3218:-0x1.88e6e8p-6 0x0p+0 0x0p+0
E^1221*E^3577[3]:3219:-0x1.5fd39ap-6 0x0p+0 0x0p+0
A^229*A^2848:3228:-0x1.4ee542p-4 0x1.e22858p-15 0x1.004d5ep-7
A^229*A^2848[1]:3229:-0x1.95dd1cp-4 0x1.ec6ed4p-15 0x1.004d5ep-7
A^229*A^2848[2]:3230:-0x1.4ee542p-4 0x1.e22858p-15 0x1.004d5ep-7
A^229*A^2848[3]:3231:-0x1.963246p-4 0x1.d35168p-27 0x1.004d5ep-7
D^533*D^4003:3232:-0x1.ddb1c2p-6 0x0p+0 0x0p+0
D^533*D^4003[1]:3233:-0x1.ddb1cp-6 0x1.7c4c38p-16 0x1.0e3786p-8
D^533*D^4003[2]:3234:-0x1.ddb1cp-6 0x0p+0 0x0p+0
D^533*D^4003[3]:3235:-0x1.abc3bp-6 0x0p+0 0x0p+0
E^2166*E^24559:3268:-0x1.490176p-6 0x0p+0 0x0p+0
E^2166*E^24559[1]:3269:-0x1.490172p-6 0x1.90f60ep-15 0x1.886392p-8
E^2166*E^24559[2]:3270:-0x1.490172p-6 0x0p+0 0x0p+0
E^2166*E^24559[3]:3271:-0x1.269838p-6 0x0p+0 0x0p+0
A^1530*A^2848:3288:-0x1.0ea14p-4 0x1.7134e2p-14 0x1.3d2e6ap-7
A^1530*A^2848[1]:3289:-0x1.47f7b8p-4 0x1.791326p-14 0x1.3d2e6ap-7
A^1530*A^2848[2]:3290:-0x1.0ea14p-4 0x1.7134e2p-14 0x1.3d2e6ap-7
A^1530*A^2848[3]:3291:-0x1.484b24p-4 0x1.65d7e4p-26 0x1.3d2e6ap-7
D^1422*D^2234:3312:-0x1.23c33p-4 0x0p+0 0x0p+0
D^1422*D^2234[1]:3313:-0x1.23c32ep-4 0x1.fdc72p-19 0x1.ba7116p-10
D^1422*D^2234[2]:3314:-0x1.23c32ep-4 0x0p+0 0x0p+0
D^1422*D^2234[3]:3315:-0x1.053e4ap-4 0x0p+0 0x0p+0
D^1094*D^1173:3324:-0x1.bd5af4p-5 0x0p+0 0x0p+0
D^1094*D^1173[1]:3325:-0x1.bd5af2p-5 0x1.b5b48cp-18 0x1.21e54p-9
D^1094*D^1173[2]:3326:-0x1.bd5af2p-5 0x0p+0 0x0p+0
D^1094*D^1173[3]:3327:-0x1.8eccc4p-5 0x0p+0 0x0p+0
E^18656*E^18656:3336:-0x1.899cdep-7 0x0p+0 0x0p+0
E^18656*E^18656[1]:3337:-0x1.899cdcp-7 0x1.183cfp-13 0x1.480ab2p-7
E^18656*E^18656[2]:3338:-0x1.899cdcp-7 0x0p+0 0x0p+0
E^18656*E^18656[3]:3339:-0x1.6066f2p-7 0x0p+0 0x0p+0
D^286*D^3298:3344:-0x1.26f5f8p-6 0x0p+0 0x0p+0
D^286*D^3298[1]:3345:-0x1.26f5f6p-6 0x1.f2eebcp-15 0x1.b5b5c6p-8
D^286*D^3298[2]:3346:-0x1.26f5f6p-6 0x0p+0 0x0p+0
D^286*D^3298[3]:3347:-0x1.080aecp-6 0x0p+0 0x0p+0
E^751*E^10752:3348:-0x1.e5b9dp-7 0x0p+0 0x0p+0
E^751*E^10752[1]:3349:-0x1.e5b9cep-7 0x1.6fc38p-14 0x1.09ba02p-7
E^751*E^10752[2]:3350:-0x1.e5b9cep-7 0x0p+0 0x0p+0
E^751*E^10752[3]:3351:-0x1.b2f064p-7 0x0p+0 0x0p+0
B^606*B^2036:3352:-0x1.17edb2p-5 0x0p+0 0x0p+0
B^606*B^2036[1]:3353:-0x1.17edbp-5 0x1.14e188p-16 0x1.cd225p-9
B^606*B^2036[2]:3354:-0x1.17edbp-5 0x0p+0 0x0p+0
B^606*B^2036[3]:3355:-0x1.f5441ep-6 0x0p+0 0x0p+0
E^236*E^1479:3356:-0x1.687decp-5 0x0p+0 0x0p+0
E^236*E^1479[1]:3357:-0x1.687de8p-5 0x1.4dcd86p-17 0x1.6605d2p-9
E^236*E^1479[2]:3358:-0x1.687de8p-5 0x0p+0 0x0p+0
E^236*E^1479[3]:3359:-0x1.42e168p-5 0x0p+0 0x0p+0
B^441*B^934:3364:-0x1.921218p-9 0x0p+0 0x0p+0
B^441*B^934[1]:3365:-0x1.921216p-9 0x1.0c62ap-9 0x1.41078cp-5
B^441*B^934[2]:3366:-0x1.921216p-9 0x0p+0 0x0p+0
B^441*B^934[3]:3367:-0x1.681a92p-9 0x0p+0 0x0p+0
D^354*D^31214:3376:-0x1.2577dep-5 0x0p+0 0x0p+0
D^354*D^31214[1]:3377:-0x1.2577dcp-5 0x1.f7d8e6p-17 0x1.b7dc5p-9
D^354*D^31214[2]:3378:-0x1.2577dcp-5 0x0p+0 0x0p+0
D^354*D^31214[3]:3379:-0x1.06c9d6p-5 0x0p+0 0x0p+0
C^545*C^3852:3404:-0x1.3a6f72p-6 0x0p+0 0x0p+0
C^545*C^3852[1]:3405:-0x1.3a6f7p-6 0x1.b6f4f6p-15 0x1.9a8f56p-8
C^545*C^3852[2]:3406:-0x1.3a6f7p-6 0x0p+0 0x0p+0
C^545*C^3852[3]:3407:-0x1.1992a4p-6 0x0p+0 0x0p+0
C^545*C^3845:3408:-0x1.f6921p-7 0x0p+0 0x0p+0
C^545*C^3845[1]:3409:-0x1.f6920cp-7 0x1.578deep-14 0x1.00d4ep-7
C^545*C^3845[2]:3410:-0x1.f6920cp-7 0x0p+0 0x0p+0
C^545*C^3845[3]:3411:-0x1.c21fbp-7 0x0p+0 0x0p+0
E^564*E^2477:3412:-0x1.c477d6p-8 0x0p+0 0x0p+0
E^564*E^2477[1]:3413:-0x1.c477d4p-8 0x1.2ca132p-11 0x1.4dbb74p-6
E^564*E^2477[2]:3414:-0x1.c477d4p-8 0x0p+0 0x0p+0
E^564*E^2477[3]:3415:-0x1.9526ep-8 0x0p+0 0x0p+0
C^2903*C^3845:3416:-0x1.83ed42p-7 0x0p+0 0x0p+0
C^2903*C^3845[1]:3417:-0x1.83ed3ep-7 0x1.2049b2p-13 0x1.4cb84cp-7
C^2903*C^3845[2]:3418:-0x1.83ed3ep-7 0x0p+0 0x0p+0
C^2903*C^3845[3]:3419:-0x1.5b76bp-7 0x0p+0 0x0p+0
A^387*A^518:3420:-0x1.6cce8ap-5 0x1.964d8p-13 0x1.d68ebap-7
A^387*A^518[1]:3421:-0x1.ba1cd4p-5 0x1.9ef626p-13 0x1.d68ebap-7
A^387*A^518[2]:3422:-0x1.6cce8ap-5 0x1.964d8p-13 0x1.d68ebap-7
A^387*A^518[3]:3423:-0x1.ba6d1cp-5 0x1.89cc3ap-25 0x1.d68ebap-7
E^1214*E^2362:3448:-0x1.277556p-4 0x0p+0 0x0p+0
E^1214*E^2362[1]:3449:-0x1.277554p-4 0x1.f118f4p-19 0x1.b4e784p-10
E^1214*E^2362[2]:3450:-0x1.277554p-4 0x0p+0 0x0p+0
E^1214*E^2362[3]:3451:-0x1.089fd8p-4 0x0p+0 0x0p+0
A^387*A^534:3484:-0x1.8b82f6p-5 0x1.598578p-13 0x1.b1ef86p-7
A^387*A^534[1]:3485:-0x1.df564p-5 0x1.60e284p-13 0x1.b1ef86p-7
A^387*A^534[2]:3486:-0x1.8b82f6p-5 0x1.598578p-13 0x1.b1ef86p-7
A^387*A^534[3]:3487:-0x1.dfcd7cp-5 0x1.4ee31ap-25 0x1.b1ef86p-7
E^564*E^2433:3492:-0x1.9d2888p-5 0x0p+0 0x0p+0
E^564*E^2433[1]:3493:-0x1.9d2886p-5 0x1.fc5b86p-18 0x1.386adcp-9
E^564*E^2433[2]:3494:-0x1.9d2886p-5 0x0p+0 0x0p+0
E^564*E^2433[3]:3495:-0x1.71e6fcp-5 0x0p+0 0x0p+0
E^973*E^3536:3500:-0x1.d5bbe6p-6 0x0p+0 0x0p+0
E^973*E^3536[1]:3501:-0x1.d5bbe4p-6 0x1.897a94p-16 0x1.12dc1ep-8
E^973*E^3536[2]:3502:-0x1.d5bbe4p-6 0x0p+0 0x0p+0
E^973*E^3536[3]:3503:-0x1.a47e2ep-6 0x0p+0 0x0p+0
E^1133*E^2538:3508:-0x1.86fba6p-5 0x0p+0 0x0p+0
E^1133*E^2538[1]:3509:-0x1.86fba4p-5 0x1.1bce4p-17 0x1.4a1f8ep-9
E^1133*E^2538[2]:3510:-0x1.86fba4p-5 0x0p+0 0x0p+0
E^1133*E^2538[3]:3511:-0x1.5e166ap-5 0x0p+0 0x0p+0
E^1062*E^6578:3512:-0x1.1456d6p-5 0x0p+0 0x0p+0
E^1062*E^6578[1]:3513:-0x1.1456d4p-5 0x1.1c338cp-16 0x1.d330aep-9
E^1062*E^6578[2]:3514:-0x1.1456d4p-5 0x0p+0 0x0p+0
E^1062*E^6578[3]:3515:-0x1.eecb7cp-6 0x0p+0 0x0p+0
E^2115*E^3845:3528:-0x1.fb30c4p-6 0x0p+0 0x0p+0
E^2115*E^3845[1]:3529:-0x1.fb30cp-6 0x1.51673cp-16 0x1.fd0b3ep-9
E^2115*E^3845[2]:3530:-0x1.fb30cp-6 0x0p+0 0x0p+0
E^2115*E^3845[3]:3531:-0x1.c61c7ap-6 0x0p+0 0x0p+0
C^2090*C^3852:3552:-0x1.e1761ap-6 0x0p+0 0x0p+0
C^2090*C^3852[1]:3553:-0x1.e17618p-6 0x1.7668d4p-16 0x1.0c1de6p-8
C^2090*C^3852[2]:3554:-0x1.e17618p-6 0x0p+0 0x0p+0
C^2090*C^3852[3]:3555:-0x1.af253ep-6 0x0p+0 0x0p+0
E^182*E^10752:3584:-0x1.75c86cp-7 0x0p+0 0x0p+0
E^182*E^10752[1]:3585:-0x1.75c86ap-7 0x1.36bf16p-13 0x1.596fd6p-7
E^182*E^10752[2]:3586:-0x1.75c86ap-7 0x0p+0 0x0p+0
E^182*E^10752[3]:3587:-0x1.4ead96p-7 0x0p+0 0x0p+0
D^280*D^1461:3588:-0x1.0d16eep-6 0x0p+0 0x0p+0
D^280*D^1461[1]:3589:-0x1.0d16ecp-6 0x1.2ba4d4p-14 0x1.dfb70ap-8
D^280*D^1461[2]:3590:-0x1.0d16ecp-6 0x0p+0 0x0p+0
D^280*D^1461[3]:3591:-0x1.e1e668p-7 0x0p+0 0x0p+0
E^1133*E^2323:3608:-0x1.515248p-5 0x0p+0 0x0p+0
E^1133*E^2323[1]:3609:-0x1.515246p-5 0x1.7d6f94p-17 0x1.7eb73cp-9
E^1133*E^2323[2]:3610:-0x1.515246p-5 0x0p+0 0x0p+0
E^1133*E^2323[3]:3611:-0x1.2e0162p-5 0x0p+0 0x0p+0
B^768*B^2344:3632:-0x1.04d84ap-6 0x0p+0 0x0p+0
B^768*B^2344[1]:3633:-0x1.04d848p-6 0x1.3ef5a8p-14 0x1.eeef7p-8
B^768*B^2344[2]:3634:-0x1.04d848p-6 0x0p+0 0x0p+0
B^768*B^2344[3]:3635:-0x1.d2fe68p-7 0x0p+0 0x0p+0
E^236*E^1298:3648:-0x1.714e1ep-6 0x0p+0 0x0p+0
E^236*E^1298[1]:3649:-0x1.714e1cp-6 0x1.3e1c46p-15 0x1.5d8186p-8
E^236*E^1298[2]:3650:-0x1.714e1cp-6 0x0p+0 0x0p+0
E^236*E^1298[3]:3651:-0x1.4aaf6ep-6 0x0p+0 0x0p+0
E^1214*E^2433:3676:-0x1.68a25p-5 0x0p+0 0x0p+0
E^1214*E^2433[1]:3677:-0x1.68a24cp-5 0x1.4da3d2p-17 0x1.65ef74p-9
E^1214*E^2433[2]:3678:-0x1.68a24cp-5 0x0p+0 0x0p+0
E^1214*E^2433[3]:3679:-0x1.42e49p-5 0x0p+0 0x0p+0
E^655*E^6578:3692:-0x1.1d66b6p-5 0x0p+0 0x0p+0
E^655*E^6578[1]:3693:-0x1.1d66b4p-5 0x1.0a5cdcp-16 0x1.c44a54p-9
E^655*E^6578[2]:3694:-0x1.1d66b4p-5 0x0p+0 0x0p+0
E^655*E^6578[3]:3695:-0x1.ff249cp-6 0x0p+0 0x0p+0
A^1122*A^1122:3712:-0x1.fd639ep-4 0x1.cf0534p-13 0x1.f6541ep-7
A^1122*A^1122[1]:3713:-0x1.dbc7e8p-5 0x1.dece1cp-13 0x1.f6541ep-7
A^1122*A^1122[2]:3714:-0x1.fd639cp-4 0x1.cf0534p-13 0x1.f6541ep-7
A^1122*A^1122[3]:3715:-0x1.a29966p-5 0x1.c0c50ep-25 0x1.f6541ep-7
E^161*E^3027:3720:-0x1.46a904p-5 0x0p+0 0x0p+0
E^161*E^3027[1]:3721:-0x1.46a902p-5 0x1.9686acp-17 0x1.8b1a3ep-9
E^161*E^3027[2]:3722:-0x1.46a902p-5 0x0p+0 0x0p+0
E^161*E^3027[3]:3723:-0x1.249094p-5 0x0p+0 0x0p+0
D^208*D^3899:3724:-0x1.87d5fep-6 0x0p+0 0x0p+0
D^208*D^3899[1]:3725:-0x1.87d5fap-6 0x1.1ab52cp-15 0x1.497becp-8
D^208*D^3899[2]:3726:-0x1.87d5fap-6 0x0p+0 0x0p+0
D^208*D^3899[3]:3727:-0x1.5ec74cp-6 0x0p+0 0x0p+0
A^468*A^468:3728:-0x1.62bb08p-4 0x1.ad9f92p-15 0x1.e3df9ap-8
A^468*A^468[1]:3729:-0x1.ade5aap-4 0x1.b6c772p-15 0x1.e3df9ap-8
A^468*A^468[2]:3730:-0x1.62bb08p-4 0x1.ad9f92p-15 0x1.e3df9ap-8
A^468*A^468[3]:3731:-0x1.ae54c6p-4 0x1.a0669p-27 0x1.e3df9ap-8
E^236*E^1305:3748:-0x1.c0e8bap-5 0x0p+0 0x0p+0
E^236*E^1305[1]:3749:-0x1.c0e8b6p-5 0x1.ae96cp-18 0x1.1f877cp-9
E^236*E^1305[2]:3750:-0x1.c0e8b6p-5 0x0p+0 0x0p+0
E^236*E^1305[3]:3751:-0x1.92157ep-5 0x0p+0 0x0p+0
E^2115*E^4045:3752:-0x1.05fb68p-6 0x0p+0 0x0p+0
E^2115*E^4045[1]:3753:-0x1.05fb66p-6 0x1.3c223ep-14 0x1.ecbcecp-8
E^2115*E^4045[2]:3754:-0x1.05fb66p-6 0x0p+0 0x0p+0
E^2115*E^4045[3]:3755:-0x1.d532f2p-7 0x0p+0 0x0p+0
D^280*D^1419:3756:-0x1.b9cd3p-6 0x0p+0 0x0p+0
D^280*D^1419[1]:3757:-0x1.b9cd2ep-6 0x1.bc9a8cp-16 0x1.242bc8p-8
D^280*D^1419[2]:3758:-0x1.b9cd2ep-6 0x0p+0 0x0p+0
D^280*D^1419[3]:3759:-0x1.8b99b2p-6 0x0p+0 0x0p+0
E^1865*E^2362:3780:-0x1.8a7736p-5 0x0p+0 0x0p+0
E^1865*E^2362[1]:3781:-0x1.8a7734p-5 0x1.16ebap-17 0x1.474508p-9
E^1865*E^2362[2]:3782:-0x1.8a7734p-5 0x0p+0 0x0p+0
E^1865*E^2362[3]:3783:-0x1.61323cp-5 0x0p+0 0x0p+0
E^564*E^2380:3784:-0x1.502f2cp-5 0x0p+0 0x0p+0
E^564*E^2380[1]:3785:-0x1.502f2ap-5 0x1.7fd946p-17 0x1.7feca2p-9
E^564*E^2380[2]:3786:-0x1.502f2ap-5 0x0p+0 0x0p+0
E^564*E^2380[3]:3787:-0x1.2d172ep-5 0x0p+0 0x0p+0
E^236*E^1335:3804:-0x1.8f2818p-5 0x0p+0 0x0p+0
E^236*E^1335[1]:3805:-0x1.8f2816p-5 0x1.105262p-17 0x1.436012p-9
E^236*E^1335[2]:3806:-0x1.8f2816p-5 0x0p+0 0x0p+0
E^236*E^1335[3]:3807:-0x1.6569eap-5 0x0p+0 0x0p+0
D^196*D^575:3820:-0x1.67b554p-6 0x0p+0 0x0p+0
D^196*D^575[1]:3821:-0x1.67b552p-6 0x1.899044p-14 0x1.e551e8p-8
D^196*D^575[2]:3822:-0x1.67b552p-6 0x0p+0 0x0p+0
D^196*D^575[3]:3823:-0x1.4225acp-6 0x0p+0 0x0p+0
E^3008*E^4594:3824:-0x1.c63d5ap-6 0x0p+0 0x0p+0
E^3008*E^4594[1]:3825:-0x1.c63d58p-6 0x1.a4b77cp-16 0x1.1c36cap-8
E^3008*E^4594[2]:3826:-0x1.c63d58p-6 0x0p+0 0x0p+0
E^3008*E^4594[3]:3827:-0x1.96a734p-6 0x0p+0 0x0p+0
E^161*E^3008:3836:-0x1.8b2d2ap-4 0x0p+0 0x0p+0
E^161*E^3008[1]:3837:-0x1.8b2d28p-4 0x1.15f02cp-19 0x1.46b162p-10
E^161*E^3008[2]:3838:-0x1.8b2d28p-4 0x0p+0 0x0p+0
E^161*E^3008[3]:3839:-0x1.61c594p-4 0x0p+0 0x0p+0
A^660*A^const:3852:-0x1.d0847ep-1 0x1.079436p-21 0x1.7b00e6p-11
A^660*A^const[1]:3853:-0x1.436fccp-5 0x1.3cd33ep-15 0x1.5a79e2p-8
A^660*A^const[2]:3854:-0x1.d0847ep-1 0x1.079436p-21 0x1.7b00e6p-11
A^660*A^const[3]:3855:-0x1.777554p-3 0x1.feeeeep-34 0x1.7b00e6p-11
E^236*E^1350:3856:-0x1.78fb3p-5 0x0p+0 0x0p+0
E^236*E^1350[1]:3857:-0x1.78fb2ep-5 0x1.3175a6p-17 0x1.567c58p-9
E^236*E^1350[2]:3858:-0x1.78fb2ep-5 0x0p+0 0x0p+0
E^236*E^1350[3]:3859:-0x1.517efp-5 0x0p+0 0x0p+0
E^516*E^const:3860:-0x1.3a4b0ep-2 0x0p+0 0x0p+0
E^516*E^const[1]:3861:-0x1.3a4b0cp-2 0x1.b772bep-23 0x1.9aca24p-12
E^516*E^const[2]:3862:-0x1.3a4b0cp-2 0x0p+0 0x0p+0
E^516*E^const[3]:3863:-0x1.196d6ap-2 0x0p+0 0x0p+0
A^1122*A^1160:3864:-0x1.4494dp-5 0x1.00b8bp-12 0x1.087c9cp-6
A^1122*A^1160[1]:3865:-0x1.895bfcp-5 0x1.063146p-12 0x1.087c9cp-6
A^1122*A^1160[2]:3866:-0x1.4494dp-5 0x1.00b8bp-12 0x1.087c9cp-6
A^1122*A^1160[3]:3867:-0x1.89a49cp-5 0x1.f1a3fp-25 0x1.087c9cp-6
E^1133*E^2380:3900:-0x1.3d5972p-5 0x0p+0 0x0p+0
E^1133*E^2380[1]:3901:-0x1.3d597p-5 0x1.aef8fp-17 0x1.96cf0ep-9
E^1133*E^2380[2]:3902:-0x1.3d597p-5 0x0p+0 0x0p+0
E^1133*E^2380[3]:3903:-0x1.1c2462p-5 0x0p+0 0x0p+0
A^387*A^387:3912:-0x1.5db87ep-5 0x1.ccc8bap-12 0x1.43da48p-6
A^387*A^387[1]:3913:-0x1.a7d61p-5 0x1.d69a9cp-12 0x1.43da48p-6
A^387*A^387[2]:3914:-0x1.5db87ep-5 0x1.ccc8bap-12 0x1.43da48p-6
A^387*A^387[3]:3915:-0x1.a84ffp-5 0x1.be9a32p-24 0x1.43da48p-6
E^1380*E^3236:3944:-0x1.d3be7p-6 0x0p+0 0x0p+0
E^1380*E^3236[1]:3945:-0x1.d3be6cp-6 0x1.8c8736p-16 0x1.13ec3ep-8
E^1380*E^3236[2]:3946:-0x1.d3be6cp-6 0x0p+0 0x0p+0
E^1380*E^3236[3]:3947:-0x1.a2db6p-6 0x0p+0 0x0p+0
A^387*A^394:3948:-0x1.eff4d8p-5 0x1.b7abf8p-14 0x1.5a20dap-7
A^387*A^394[1]:3949:-0x1.2c85b8p-4 0x1.c10aaap-14 0x1.5a20dap-7
A^387*A^394[2]:3950:-0x1.eff4d8p-5 0x1.b7abf8p-14 0x1.5a20dap-7
A^387*A^394[3]:3951:-0x1.2cd5c8p-4 0x1.aa23c8p-26 0x1.5a20dap-7
D^334*D^22746:3952:-0x1.cf5b04p-6 0x0p+0 0x0p+0
D^334*D^22746[1]:3953:-0x1.cf5b02p-6 0x1.085a1cp-14 0x1.7f6188p-8
D^334*D^22746[2]:3954:-0x1.cf5b02p-6 0x0p+0 0x0p+0
D^334*D^22746[3]:3955:-0x1.9edf34p-6 0x0p+0 0x0p+0
D^33*D^690:3956:-0x1.3f7b4ep-4 0x0p+0 0x0p+0
D^33*D^690[1]:3957:-0x1.3f7b4cp-4 0x1.a932eep-19 0x1.941322p-10
D^33*D^690[2]:3958:-0x1.3f7b4cp-4 0x0p+0 0x0p+0
D^33*D^690[3]:3959:-0x1.1e085ep-4 0x0p+0 0x0p+0
A^468*A^534:3976:-0x1.1c8b0ep-3 0x1.021fep-14 0x1.093562p-7
A^468*A^534[1]:3977:-0x1.b507ecp-4 0x1.1e2144p-14 0x1.093562p-7
A^468*A^534[2]:3978:-0x1.1c8b0cp-3 0x1.021fep-14 0x1.093562p-7
A^468*A^534[3]:3979:-0x1.92a8dep-4 0x1.f45c34p-27 0x1.093562p-7
A^1122*A^1189:3980:-0x1.27bdb8p-4 0x1.352fbp-14 0x1.2241d6p-7
A^1122*A^1189[1]:3981:-0x1.6665dp-4 0x1.3bc68p-14 0x1.2241d6p-7
A^1122*A^1189[2]:3982:-0x1.27bdb8p-4 0x1.352fbp-14 0x1.2241d6p-7
A^1122*A^1189[3]:3983:-0x1.66ad0cp-4 0x1.2bab98p-26 0x1.2241d6p-7
E^702*E^24559:4004:-0x1.2a5f56p-5 0x0p+0 0x0p+0
E^702*E^24559[1]:4005:-0x1.2a5f54p-5 0x1.e763a4p-17 0x1.b09df2p-9
E^702*E^24559[2]:4006:-0x1.2a5f54p-5 0x0p+0 0x0p+0
E^702*E^24559[3]:4007:-0x1.0b3328p-5 0x0p+0 0x0p+0
D^42*D^3188:4008:-0x1.a07fb8p-6 0x0p+0 0x0p+0
D^42*D^3188[1]:4009:-0x1.a07fb4p-6 0x1.f46cf8p-16 0x1.35f874p-8
D^42*D^3188[2]:4010:-0x1.a07fb4p-6 0x0p+0 0x0p+0
D^42*D^3188[3]:4011:-0x1.74f1aap-6 0x0p+0 0x0p+0
E^1214*E^2538:4024:-0x1.69a10ap-5 0x0p+0 0x0p+0
E^1214*E^2538[1]:4025:-0x1.69a108p-5 0x1.4bcba4p-17 0x1.64f1d2p-9
E^1214*E^2538[2]:4026:-0x1.69a108p-5 0x0p+0 0x0p+0
E^1214*E^2538[3]:4027:-0x1.43d808p-5 0x0p+0 0x0p+0
E^2028*E^2166:4048:-0x1.dba21ap-6 0x0p+0 0x0p+0
E^2028*E^2166[1]:4049:-0x1.dba216p-6 0x1.7f9d1ep-16 0x1.0f6474p-8
E^2028*E^2166[2]:4050:-0x1.dba216p-6 0x0p+0 0x0p+0
E^2028*E^2166[3]:4051:-0x1.a9ec1cp-6 0x0p+0 0x0p+0
C^545*C^3762:4068:-0x1.a896f8p-7 0x0p+0 0x0p+0
C^545*C^3762[1]:4069:-0x1.a896f4p-7 0x1.0a0e3ap-13 0x1.3f3596p-7
C^545*C^3762[2]:4070:-0x1.a896f4p-7 0x0p+0 0x0p+0
C^545*C^3762[3]:4071:-0x1.7c3544p-7 0x0p+0 0x0p+0
B^768*B^2362:4072:-0x1.5c7afp-6 0x0p+0 0x0p+0
B^768*B^2362[1]:4073:-0x1.5c7aecp-6 0x1.656768p-15 0x1.7276ap-8
B^768*B^2362[2]:4074:-0x1.5c7aecp-6 0x0p+0 0x0p+0
B^768*B^2362[3]:4075:-0x1.37fab6p-6 0x0p+0 0x0p+0
C^2903*C^3762:4076:-0x1.e6cbdcp-5 0x0p+0 0x0p+0
C^2903*C^3762[1]:4077:-0x1.e6cbd8p-5 0x1.60e89p-16 0x1.76efecp-9
C^2903*C^3762[2]:4078:-0x1.e6cbd8p-5 0x0p+0 0x0p+0
C^2903*C^3762[3]:4079:-0x1.b3e5dap-5 0x0p+0 0x0p+0
A^387*A^433:4080:-0x1.4f223p-5 0x1.e176d6p-13 0x1.001e2cp-6
A^387*A^433[1]:4081:-0x1.96270ep-5 0x1.ebb98ap-13 0x1.001e2cp-6
A^387*A^433[2]:4082:-0x1.4f223p-5 0x1.e176d6p-13 0x1.001e2cp-6
A^387*A^433[3]:4083:-0x1.967be8p-5 0x1.d2a55cp-25 0x1.001e2cp-6
E^236*E^1389:4084:-0x1.8c9912p-5 0x0p+0 0x0p+0
E^236*E^1389[1]:4085:-0x1.8c990ep-5 0x1.13d7f8p-17 0x1.4575a8p-9
E^236*E^1389[2]:4086:-0x1.8c990ep-5 0x0p+0 0x0p+0
E^236*E^1389[3]:4087:-0x1.63211p-5 0x0p+0 0x0p+0
E^3577*E^4599:4088:-0x1.bcedc8p-7 0x0p+0 0x0p+0
E^3577*E^4599[1]:4089:-0x1.bcedc6p-7 0x1.b65a44p-14 0x1.221c1cp-7
E^3577*E^4599[2]:4090:-0x1.bcedc6p-7 0x0p+0 0x0p+0
E^3577*E^4599[3]:4091:-0x1.8e7f26p-7 0x0p+0 0x0p+0
E^161*E^2166:4116:-0x1.40f968p-4 0x0p+0 0x0p+0
E^161*E^2166[1]:4117:-0x1.40f964p-4 0x1.a51c5cp-19 0x1.9220a4p-10
E^161*E^2166[2]:4118:-0x1.40f964p-4 0x0p+0 0x0p+0
E^161*E^2166[3]:4119:-0x1.1f6eb2p-4 0x0p+0 0x0p+0
D^1422*D^3562:4144:-0x1.f60082p-6 0x0p+0 0x0p+0
D^1422*D^3562[1]:4145:-0x1.f6007ep-6 0x1.586c64p-16 0x1.0127fap-8
D^1422*D^3562[2]:4146:-0x1.f6007ep-6 0x0p+0 0x0p+0
D^1422*D^3562[3]:4147:-0x1.c18ac4p-6 0x0p+0 0x0p+0
E^1214*E^2563:4180:-0x1.28e13ep-5 0x0p+0 0x0p+0
E^1214*E^2563[1]:4181:-0x1.28e13cp-5 0x1.ec55d4p-17 0x1.b2ce7ap-9
E^1214*E^2563[2]:4182:-0x1.28e13cp-5 0x0p+0 0x0p+0
E^1214*E^2563[3]:4183:-0x1.09e0eep-5 0x0p+0 0x0p+0
E^1380*E^1890:4192:-0x1.0739d2p-4 0x0p+0 0x0p+0
E^1380*E^1890[1]:4193:-0x1.0739dp-4 0x1.39314ep-18 0x1.ea70c6p-10
E^1380*E^1890[2]:4194:-0x1.0739dp-4 0x0p+0 0x0p+0
E^1380*E^1890[3]:4195:-0x1.d75824p-5 0x0p+0 0x0p+0
A^230*A^3960:4200:-0x1.700f4ep-5 0x1.8f274ep-13 0x1.d26636p-7
A^230*A^3960[1]:4201:-0x1.be0f7p-5 0x1.97a8f2p-13 0x1.d26636p-7
A^230*A^3960[2]:4202:-0x1.700f4ep-5 0x1.8f274ep-13 0x1.d26636p-7
A^230*A^3960[3]:4203:-0x1.be8cfap-5 0x1.82de5cp-25 0x1.d26636p-7
D^209*D^4194:4212:-0x1.8c8b26p-5 0x0p+0 0x0p+0
D^209*D^4194[1]:4213:-0x1.8c8b24p-5 0x1.cc917ap-16 0x1.ca47d6p-9
D^209*D^4194[2]:4214:-0x1.8c8b24p-5 0x0p+0 0x0p+0
D^209*D^4194[3]:4215:-0x1.631a26p-5 0x0p+0 0x0p+0
B^934*B^1796:4216:-0x1.54ecb8p-5 0x0p+0 0x0p+0
B^934*B^1796[1]:4217:-0x1.54ecb8p-5 0x1.031508p-15 0x1.0682ep-8
B^934*B^1796[2]:4218:-0x1.54ecb8p-5 0x0p+0 0x0p+0
B^934*B^1796[3]:4219:-0x1.315094p-5 0x0p+0 0x0p+0
E^1380*E^1865:4228:-0x1.3e0f66p-5 0x0p+0 0x0p+0
E^1380*E^1865[1]:4229:-0x1.3e0f64p-5 0x1.acff94p-17 0x1.95e044p-9
E^1380*E^1865[2]:4230:-0x1.3e0f64p-5 0x0p+0 0x0p+0
E^1380*E^1865[3]:4231:-0x1.1cd08ap-5 0x0p+0 0x0p+0
A^394*A^2524:4232:-0x1.904bp-4 0x1.2b650ap-13 0x1.93eefcp-7
A^394*A^2524[1]:4233:-0x1.219492p-4 0x1.44ff6ep-13 0x1.93eefcp-7
A^394*A^2524[2]:4234:-0x1.904afep-4 0x1.2b650ap-13 0x1.93eefcp-7
A^394*A^2524[3]:4235:-0x1.0772ecp-4 0x1.222e1ap-25 0x1.93eefcp-7
A^394*A^2525:4236:-0x1.2e67dcp-4 0x1.279f02p-14 0x1.1bd184p-7
A^394*A^2525[1]:4237:-0x1.6e7de4p-4 0x1.2debdp-14 0x1.1bd184p-7
A^394*A^2525[2]:4238:-0x1.2e67dcp-4 0x1.279f02p-14 0x1.1bd184p-7
A^394*A^2525[3]:4239:-0x1.6ed0c4p-4 0x1.1e85ccp-26 0x1.1bd184p-7
A^394*A^2526:4240:-0x1.e7033ep-4 0x1.a3b61ep-15 0x1.de4254p-8
A^394*A^2526[1]:4241:-0x1.b3faf4p-4 0x1.2900d4p-14 0x1.de4254p-8
A^394*A^2526[2]:4242:-0x1.e7033cp-4 0x1.a3b61ep-15 0x1.de4254p-8
A^394*A^2526[3]:4243:-0x1.c9d26cp-4 0x1.96cb32p-27 0x1.de4254p-8
D^3380*D^4194:4248:-0x1.213d4p-6 0x0p+0 0x0p+0
D^3380*D^4194[1]:4249:-0x1.213d3ep-6 0x1.037c2ap-14 0x1.be69b4p-8
D^3380*D^4194[2]:4250:-0x1.213d3ep-6 0x0p+0 0x0p+0
D^3380*D^4194[3]:4251:-0x1.02f3dcp-6 0x0p+0 0x0p+0
D^196*D^973:4276:-0x1.05d29cp-4 0x0p+0 0x0p+0
D^196*D^973[1]:4277:-0x1.05d29ap-4 0x1.70ee4p-17 0x1.4d07fcp-9
D^196*D^973[2]:4278:-0x1.05d29ap-4 0x0p+0 0x0p+0
D^196*D^973[3]:4279:-0x1.d4cfdp-5 0x0p+0 0x0p+0
E^161*E^2115:4296:-0x1.f6ed0cp-5 0x0p+0 0x0p+0
E^161*E^2115[1]:4297:-0x1.f6ed08p-5 0x1.572d34p-18 0x1.00b0b6p-9
E^161*E^2115[2]:4298:-0x1.f6ed08p-5 0x0p+0 0x0p+0
E^161*E^2115[3]:4299:-0x1.c23edp-5 0x0p+0 0x0p+0
E^478*E^836:4304:-0x1.7a4984p-4 0x0p+0 0x0p+0
E^478*E^836[1]:4305:-0x1.7a498p-4 0x1.0a5b7ap-17 0x1.e182f4p-10
E^478*E^836[2]:4306:-0x1.7a498p-4 0x0p+0 0x0p+0
E^478*E^836[3]:4307:-0x1.52ba7ap-4 0x0p+0 0x0p+0
A^394*A^2543:4308:-0x1.d17d62p-5 0x1.f3131ep-14 0x1.70c522p-7
A^394*A^2543[1]:4309:-0x1.1a113p-4 0x1.fdb5e6p-14 0x1.70c522p-7
A^394*A^2543[2]:4310:-0x1.d17d62p-5 0x1.f3131ep-14 0x1.70c522p-7
A^394*A^2543[3]:4311:-0x1.1a51f8p-4 0x1.e3b6e4p-26 0x1.70c522p-7
E^642*E^1417:4332:-0x1.04070ap-5 0x0p+0 0x0p+0
E^642*E^1417[1]:4333:-0x1.040708p-5 0x1.40f2c4p-16 0x1.f079d2p-9
E^642*E^1417[2]:4334:-0x1.040708p-5 0x0p+0 0x0p+0
E^642*E^1417[3]:4335:-0x1.d19fc2p-6 0x0p+0 0x0p+0
A^394*A^2536:4344:-0x1.0fd5a6p-3 0x1.ca47eap-10 0x1.61609cp-5
A^394*A^2536[1]:4345:-0x1.53e4d6p-6 0x1.d4692ep-10 0x1.61609cp-5
A^394*A^2536[2]:4346:-0x1.0fd5a4p-3 0x1.ca47eap-10 0x1.61609cp-5
A^394*A^2536[3]:4347:-0x1.276172p-6 0x1.bc2d1ap-22 0x1.61609cp-5
D^1417*D^1623:4352:-0x1.69a10ap-6 0x0p+0 0x0p+0
D^1417*D^1623[1]:4353:-0x1.69a108p-6 0x1.4bccd8p-15 0x1.64f278p-8
D^1417*D^1623[2]:4354:-0x1.69a108p-6 0x0p+0 0x0p+0
D^1417*D^1623[3]:4355:-0x1.43d808p-6 0x0p+0 0x0p+0
A^69*A^2525:4360:-0x1.eae0eep-4 0x1.c0fdeep-16 0x1.5dc718p-8
A^69*A^2525[1]:4361:-0x1.296f6p-3 0x1.ca8f7ap-16 0x1.5dc718p-8
A^69*A^2525[2]:4362:-0x1.eae0eep-4 0x1.c0fdeep-16 0x1.5dc718p-8
A^69*A^2525[3]:4363:-0x1.29a05ap-3 0x1.b32c5p-28 0x1.5dc718p-8
A^69*A^2524:4364:-0x1.58e476p-4 0x1.c6b928p-15 0x1.f1cebap-8
A^69*A^2524[1]:4365:-0x1.a1f87p-4 0x1.d069f8p-15 0x1.f1cebap-8
A^69*A^2524[2]:4366:-0x1.58e476p-4 0x1.c6b928p-15 0x1.f1cebap-8
A^69*A^2524[3]:4367:-0x1.a24abep-4 0x1.b8ba62p-27 0x1.f1cebap-8
A^69*A^2526:4372:-0x1.5508acp-2 0x1.3ebb0ep-16 0x1.26b402p-8
A^69*A^2526[1]:4373:-0x1.92e43ap-3 0x1.4e6754p-16 0x1.26b402p-8
A^69*A^2526[2]:4374:-0x1.5508acp-2 0x1.3ebb0ep-16 0x1.26b402p-8
A^69*A^2526[3]:4375:-0x1.667da8p-3 0x1.34ebc4p-28 0x1.26b402p-8
E^73*E^1455:4376:-0x1.2a3af2p-3 0x0p+0 0x0p+0
E^73*E^1455[1]:4377:-0x1.2a3afp-3 0x1.e7feb6p-21 0x1.b0e2cp-11
E^73*E^1455[2]:4378:-0x1.2a3afp-3 0x0p+0 0x0p+0
E^73*E^1455[3]:4379:-0x1.0b0ac6p-3 0x0p+0 0x0p+0
A^468*A^1664:4384:-0x1.d3ca62p-4 0x1.ee1e06p-16 0x1.6eef16p-8
A^468*A^1664[1]:4385:-0x1.1b7694p-3 0x1.f8a5c2p-16 0x1.6eef16p-8
A^468*A^1664[2]:4386:-0x1.d3ca62p-4 0x1.ee1e06p-16 0x1.6eef16p-8
A^468*A^1664[3]:4387:-0x1.1bc0f8p-3 0x1.dee8dcp-28 0x1.6eef16p-8
E^1263*E^20228:4388:-0x1.b0470cp-7 0x0p+0 0x0p+0
E^1263*E^20228[1]:4389:-0x1.b04708p-7 0x1.d06f28p-14 0x1.2a9da2p-7
E^1263*E^20228[2]:4390:-0x1.b04708p-7 0x0p+0 0x0p+0
E^1263*E^20228[3]:4391:-0x1.830dp-7 0x0p+0 0x0p+0
D^33*D^803:4400:-0x1.b2325p-5 0x0p+0 0x0p+0
D^33*D^803[1]:4401:-0x1.b2324ep-5 0x1.cc7558p-18 0x1.2955b8p-9
D^33*D^803[2]:4402:-0x1.b2324ep-5 0x0p+0 0x0p+0
D^33*D^803[3]:4403:-0x1.84b15ep-5 0x0p+0 0x0p+0
E^2028*E^3008:4408:-0x1.24c1ecp-5 0x0p+0 0x0p+0
E^2028*E^3008[1]:4409:-0x1.24c1eap-5 0x1.fa6118p-17 0x1.b8f6e6p-9
E^2028*E^3008[2]:4410:-0x1.24c1eap-5 0x0p+0 0x0p+0
E^2028*E^3008[3]:4411:-0x1.061dacp-5 0x0p+0 0x0p+0
E^2380*E^13810:4416:-0x1.4814ecp-7 0x0p+0 0x0p+0
E^2380*E^13810[1]:4417:-0x1.4814eap-7 0x1.93124p-13 0x1.896b8cp-7
E^2380*E^13810[2]:4418:-0x1.4814eap-7 0x0p+0 0x0p+0
E^2380*E^13810[3]:4419:-0x1.25d1aap-7 0x0p+0 0x0p+0
E^2028*E^3027:4428:-0x1.46225p-6 0x0p+0 0x0p+0
E^2028*E^3027[1]:4429:-0x1.46224ep-6 0x1.d5142ap-14 0x1.0aa6bap-7
E^2028*E^3027[2]:4430:-0x1.46224ep-6 0x0p+0 0x0p+0
E^2028*E^3027[3]:4431:-0x1.23fd64p-6 0x0p+0 0x0p+0
A^69*A^2543:4432:-0x1.79d194p-4 0x1.7affep-15 0x1.c678d8p-8
A^69*A^2543[1]:4433:-0x1.c9dda2p-4 0x1.83139p-15 0x1.c678d8p-8
A^69*A^2543[2]:4434:-0x1.79d194p-4 0x1.7affep-15 0x1.c678d8p-8
A^69*A^2543[3]:4435:-0x1.ca3058p-4 0x1.6f55b8p-27 0x1.c678d8p-8
B^1340*B^1629:4436:-0x1.dec2bp-5 0x0p+0 0x0p+0
B^1340*B^1629[1]:4437:-0x1.dec2acp-5 0x1.7abb08p-18 0x1.0da8d8p-9
B^1340*B^1629[2]:4438:-0x1.dec2acp-5 0x0p+0 0x0p+0
B^1340*B^1629[3]:4439:-0x1.acb8bcp-5 0x0p+0 0x0p+0
E^478*E^802:4440:-0x1.a43fp-4 0x0p+0 0x0p+0
E^478*E^802[1]:4441:-0x1.a43efcp-4 0x1.d2064cp-18 0x1.b2328cp-10
E^478*E^802[2]:4442:-0x1.a43efcp-4 0x0p+0 0x0p+0
E^478*E^802[3]:4443:-0x1.784afep-4 0x0p+0 0x0p+0
D^690*D^3562:4448:-0x1.8fb9a8p-5 0x0p+0 0x0p+0
D^690*D^3562[1]:4449:-0x1.8fb9a4p-5 0x1.0fbeb2p-17 0x1.430856p-9
D^690*D^3562[2]:4450:-0x1.8fb9a4p-5 0x0p+0 0x0p+0
D^690*D^3562[3]:4451:-0x1.65ca08p-5 0x0p+0 0x0p+0
A^69*A^2536:4476:-0x1.baad34p-5 0x1.5c054p-11 0x1.b3808cp-6
A^69*A^2536[1]:4477:-0x1.101c1ap-5 0x1.6eaca4p-11 0x1.b3808cp-6
A^69*A^2536[2]:4478:-0x1.baad3p-5 0x1.5c054p-11 0x1.b3808cp-6
A^69*A^2536[3]:4479:-0x1.e5a7b8p-6 0x1.514f3p-23 0x1.b3808cp-6
C^1188*C^2066:4480:-0x1.133cdp-3 0x0p+0 0x0p+0
C^1188*C^2066[1]:4481:-0x1.133ccep-3 0x1.1e5d38p-20 0x1.d4f6e6p-11
C^1188*C^2066[2]:4482:-0x1.133ccep-3 0x0p+0 0x0p+0
C^1188*C^2066[3]:4483:-0x1.ecd7ecp-4 0x0p+0 0x0p+0
E^478*E^789:4492:-0x1.15312ep-4 0x0p+0 0x0p+0
E^478*E^789[1]:4493:-0x1.15312cp-4 0x1.1a5c3ep-18 0x1.d1acaap-10
E^478*E^789[2]:4494:-0x1.15312cp-4 0x0p+0 0x0p+0
E^478*E^789[3]:4495:-0x1.f06b1cp-5 0x0p+0 0x0p+0
E^642*E^1479:4500:-0x1.c828ap-6 0x0p+0 0x0p+0
E^642*E^1479[1]:4501:-0x1.c8289cp-6 0x1.a1198ep-16 0x1.1afd5cp-8
E^642*E^1479[2]:4502:-0x1.c8289cp-6 0x0p+0 0x0p+0
E^642*E^1479[3]:4503:-0x1.987bap-6 0x0p+0 0x0p+0
E^8284*E^33705:4516:-0x1.da11cep-9 0x0p+0 0x0p+0
E^8284*E^33705[1]:4517:-0x1.da11cap-9 0x1.822024p-10 0x1.10478ap-5
E^8284*E^33705[2]:4518:-0x1.da11cap-9 0x0p+0 0x0p+0
E^8284*E^33705[3]:4519:-0x1.a877ccp-9 0x0p+0 0x0p+0
E^1130*E^1416:4528:-0x1.b3557p-5 0x0p+0 0x0p+0
E^1130*E^1416[1]:4529:-0x1.b3556cp-5 0x1.c9ffa8p-18 0x1.288a24p-9
E^1130*E^1416[2]:4530:-0x1.b3556cp-5 0x0p+0 0x0p+0
E^1130*E^1416[3]:4531:-0x1.85cd38p-5 0x0p+0 0x0p+0
E^1130*E^1417:4556:-0x1.b9f196p-5 0x0p+0 0x0p+0
E^1130*E^1417[1]:4557:-0x1.b9f194p-5 0x1.bc7ddep-18 0x1.24225cp-9
E^1130*E^1417[2]:4558:-0x1.b9f194p-5 0x0p+0 0x0p+0
E^1130*E^1417[3]:4559:-0x1.8ba002p-5 0x0p+0 0x0p+0
C^298*C^3852:4576:-0x1.4afeecp-4 0x0p+0 0x0p+0
C^298*C^3852[1]:4577:-0x1.4afeeap-4 0x1.8c040ep-19 0x1.85f62ep-10
C^298*C^3852[2]:4578:-0x1.4afeeap-4 0x0p+0 0x0p+0
C^298*C^3852[3]:4579:-0x1.286e3ap-4 0x0p+0 0x0p+0
B^768*B^2493:4580:-0x1.2b4be2p-5 0x0p+0 0x0p+0
B^768*B^2493[1]:4581:-0x1.2b4bep-5 0x1.e47714p-17 0x1.af513ap-9
B^768*B^2493[2]:4582:-0x1.2b4bep-5 0x0p+0 0x0p+0
B^768*B^2493[3]:4583:-0x1.0c0166p-5 0x0p+0 0x0p+0
C^298*C^3845:4604:-0x1.0f2694p-3 0x0p+0 0x0p+0
C^298*C^3845[1]:4605:-0x1.0f2694p-3 0x1.2710e8p-20 0x1.dc0956p-11
C^298*C^3845[2]:4606:-0x1.0f2694p-3 0x0p+0 0x0p+0
C^298*C^3845[3]:4607:-0x1.e59266p-4 0x0p+0 0x0p+0
D^336*D^22746:4616:-0x1.4f42a2p-5 0x0p+0 0x0p+0
D^336*D^22746[1]:4617:-0x1.4f42ap-5 0x1.823a44p-17 0x1.811cb8p-9
D^336*D^22746[2]:4618:-0x1.4f42ap-5 0x0p+0 0x0p+0
D^336*D^22746[3]:4619:-0x1.2c2b64p-5 0x0p+0 0x0p+0
C^1529:4624:-0x1.099242p-3 0x0p+0 0x0p+0
C^1529[1]:4625:-0x1.09924p-3 0x1.33895p-20 0x1.e5fdep-11
C^1529[2]:4626:-0x1.09924p-3 0x0p+0 0x0p+0
C^1529[3]:4627:-0x1.db9f62p-4 0x0p+0 0x0p+0
D^357*D^31214:4628:-0x1.5077f4p-4 0x0p+0 0x0p+0
D^357*D^31214[1]:4629:-0x1.5077fp-4 0x1.7f7f34p-19 0x1.7fbf94p-10
D^357*D^31214[2]:4630:-0x1.5077fp-4 0x0p+0 0x0p+0
D^357*D^31214[3]:4631:-0x1.2d393ep-4 0x0p+0 0x0p+0
D^3390*D^8318:4640:-0x1.07dd96p-4 0x0p+0 0x0p+0
D^3390*D^8318[1]:4641:-0x1.07dd94p-4 0x1.378eacp-18 0x1.e92892p-10
D^3390*D^8318[2]:4642:-0x1.07dd94p-4 0x0p+0 0x0p+0
D^3390*D^8318[3]:4643:-0x1.d8b07ep-5 0x0p+0 0x0p+0
E^642*E^1305:4652:-0x1.1bf1b8p-5 0x0p+0 0x0p+0
E^642*E^1305[1]:4653:-0x1.1bf1b6p-5 0x1.0d04d8p-16 0x1.c68a36p-9
E^642*E^1305[2]:4654:-0x1.1bf1b6p-5 0x0p+0 0x0p+0
E^642*E^1305[3]:4655:-0x1.fc9f4ep-6 0x0p+0 0x0p+0
E^642*E^1335:4692:-0x1.f8ea82p-6 0x0p+0 0x0p+0
E^642*E^1335[1]:4693:-0x1.f8ea8p-6 0x1.5446dep-16 0x1.ff34fep-9
E^642*E^1335[2]:4694:-0x1.f8ea8p-6 0x0p+0 0x0p+0
E^642*E^1335[3]:4695:-0x1.c441bep-6 0x0p+0 0x0p+0
D^690*D^3384:4696:-0x1.40f968p-5 0x0p+0 0x0p+0
D^690*D^3384[1]:4697:-0x1.40f964p-5 0x1.a52024p-17 0x1.922272p-9
D^690*D^3384[2]:4698:-0x1.40f964p-5 0x0p+0 0x0p+0
D^690*D^3384[3]:4699:-0x1.1f6eaep-5 0x0p+0 0x0p+0
D^1266*D^4345:4700:-0x1.aa60d8p-5 0x0p+0 0x0p+0
D^1266*D^4345[1]:4701:-0x1.aa60d6p-5 0x1.dd5ae4p-18 0x1.2ebdb8p-9
D^1266*D^4345[2]:4702:-0x1.aa60d6p-5 0x0p+0 0x0p+0
D^1266*D^4345[3]:4703:-0x1.7dc2bap-5 0x0p+0 0x0p+0
E^1305*E^4594:4708:-0x1.dba21ap-6 0x0p+0 0x0p+0
E^1305*E^4594[1]:4709:-0x1.dba216p-6 0x1.7fbbf8p-16 0x1.0f6f5ep-8
E^1305*E^4594[2]:4710:-0x1.dba216p-6 0x0p+0 0x0p+0
E^1305*E^4594[3]:4711:-0x1.a9e8f4p-6 0x0p+0 0x0p+0
E^73*E^1380:4716:-0x1.48caep-3 0x0p+0 0x0p+0
E^73*E^1380[1]:4717:-0x1.48cadcp-3 0x1.91712ep-21 0x1.889fccp-11
E^73*E^1380[2]:4718:-0x1.48cadcp-3 0x0p+0 0x0p+0
E^73*E^1380[3]:4719:-0x1.2673p-3 0x0p+0 0x0p+0
E^1305*E^4599:4728:-0x1.60343ep-5 0x0p+0 0x0p+0
E^1305*E^4599[1]:4729:-0x1.60343cp-5 0x1.908e4ap-16 0x1.ed61ap-9
E^1305*E^4599[2]:4730:-0x1.60343cp-5 0x0p+0 0x0p+0
E^1305*E^4599[3]:4731:-0x1.3b6eaap-5 0x0p+0 0x0p+0
D^196*D^857:4740:-0x1.961f38p-5 0x0p+0 0x0p+0
D^196*D^857[1]:4741:-0x1.961f36p-5 0x1.0713dcp-17 0x1.3dd6d8p-9
D^196*D^857[2]:4742:-0x1.961f36p-5 0x0p+0 0x0p+0
D^196*D^857[3]:4743:-0x1.6ba616p-5 0x0p+0 0x0p+0
D^41*D^1881:4744:-0x1.a86362p-5 0x0p+0 0x0p+0
D^41*D^1881[1]:4745:-0x1.a8635ep-5 0x1.e1dd1p-18 0x1.302adap-9
D^41*D^1881[2]:4746:-0x1.a8635ep-5 0x0p+0 0x0p+0
D^41*D^1881[3]:4747:-0x1.7c105ep-5 0x0p+0 0x0p+0
B^934*B^1712:4776:-0x1.42778p-5 0x0p+0 0x0p+0
B^934*B^1712[1]:4777:-0x1.42777ep-5 0x1.a143dp-17 0x1.90497cp-9
B^934*B^1712[2]:4778:-0x1.42777ep-5 0x0p+0 0x0p+0
B^934*B^1712[3]:4779:-0x1.20bdc2p-5 0x0p+0 0x0p+0
E^478*E^973:4780:-0x1.bf463cp-5 0x0p+0 0x0p+0
E^478*E^973[1]:4781:-0x1.bf4638p-5 0x1.b1d938p-18 0x1.209d92p-9
E^478*E^973[2]:4782:-0x1.bf4638p-5 0x0p+0 0x0p+0
E^478*E^973[3]:4783:-0x1.9075dcp-5 0x0p+0 0x0p+0
E^2362*E^4599:4788:-0x1.62e08p-5 0x0p+0 0x0p+0
E^2362*E^4599[1]:4789:-0x1.62e07ep-5 0x1.58a7dcp-17 0x1.6bcbdep-9
E^2362*E^4599[2]:4790:-0x1.62e07ep-5 0x0p+0 0x0p+0
E^2362*E^4599[3]:4791:-0x1.3db4aep-5 0x0p+0 0x0p+0
E^1130*E^1350:4792:-0x1.95207cp-5 0x0p+0 0x0p+0
E^1130*E^1350[1]:4793:-0x1.95207ap-5 0x1.084d98p-17 0x1.3e9426p-9
E^1130*E^1350[2]:4794:-0x1.95207ap-5 0x0p+0 0x0p+0
E^1130*E^1350[3]:4795:-0x1.6adc5cp-5 0x0p+0 0x0p+0
E^642*E^1298:4808:-0x1.d35144p-7 0x0p+0 0x0p+0
E^642*E^1298[1]:4809:-0x1.d3514p-7 0x1.8d7dd8p-14 0x1.1442p-7
E^642*E^1298[2]:4810:-0x1.d3514p-7 0x0p+0 0x0p+0
E^642*E^1298[3]:4811:-0x1.a271ccp-7 0x0p+0 0x0p+0
D^33*D^973:4824:-0x1.553b06p-6 0x0p+0 0x0p+0
D^33*D^973[1]:4825:-0x1.553b04p-6 0x1.748564p-15 0x1.7a378cp-8
D^33*D^973[2]:4826:-0x1.553b04p-6 0x0p+0 0x0p+0
D^33*D^973[3]:4827:-0x1.3197bep-6 0x0p+0 0x0p+0
E^161*E^2248:4828:-0x1.79e7bcp-4 0x0p+0 0x0p+0
E^161*E^2248[1]:4829:-0x1.79e7bap-4 0x1.2ff1fcp-19 0x1.55a2cp-10
E^161*E^2248[2]:4830:-0x1.79e7bap-4 0x0p+0 0x0p+0
E^161*E^2248[3]:4831:-0x1.525512p-4 0x0p+0 0x0p+0
E^73*E^1350:4852:-0x1.f8c61ep-4 0x0p+0 0x0p+0
E^73*E^1350[1]:4853:-0x1.f8c61cp-4 0x1.548e16p-20 0x1.ff6a7ap-11
E^73*E^1350[2]:4854:-0x1.f8c61cp-4 0x0p+0 0x0p+0
E^73*E^1350[3]:4855:-0x1.c3fa6ap-4 0x0p+0 0x0p+0
D^1173*D^1723:4864:-0x1.6feeecp-6 0x0p+0 0x0p+0
D^1173*D^1723[1]:4865:-0x1.6feeeap-6 0x1.502b5p-14 0x1.cfaa3cp-8
D^1173*D^1723[2]:4866:-0x1.6feeeap-6 0x0p+0 0x0p+0
D^1173*D^1723[3]:4867:-0x1.4975e8p-6 0x0p+0 0x0p+0
E^1059*E^3800:4868:-0x1.aeed56p-5 0x0p+0 0x0p+0
E^1059*E^3800[1]:4869:-0x1.aeed52p-5 0x1.d368e4p-18 0x1.2b922p-9
E^1059*E^3800[2]:4870:-0x1.aeed52p-5 0x0p+0 0x0p+0
E^1059*E^3800[3]:4871:-0x1.81d6cp-5 0x0p+0 0x0p+0
E^1130*E^1305:4876:-0x1.e2993ap-5 0x0p+0 0x0p+0
E^1130*E^1305[1]:4877:-0x1.e29936p-5 0x1.7492bp-18 0x1.0b755cp-9
E^1130*E^1305[2]:4878:-0x1.e29936p-5 0x0p+0 0x0p+0
E^1130*E^1305[3]:4879:-0x1.b02098p-5 0x0p+0 0x0p+0
A^387*A^1664:4916:-0x1.9b4d08p-4 0x1.4ab57p-14 0x1.2c308cp-7
A^387*A^1664[1]:4917:-0x1.6a788p-4 0x1.a80af8p-14 0x1.2c308cp-7
A^387*A^1664[2]:4918:-0x1.9b4d08p-4 0x1.4ab57p-14 0x1.2c308cp-7
A^387*A^1664[3]:4919:-0x1.69c0ap-4 0x1.4087c6p-26 0x1.2c308cp-7
E^73*E^1335:4920:-0x1.539a0cp-8 0x0p+0 0x0p+0
E^73*E^1335[1]:4921:-0x1.539a0ap-8 0x1.95a38cp-11 0x1.8a61fp-6
E^73*E^1335[2]:4922:-0x1.539a0ap-8 0x0p+0 0x0p+0
E^73*E^1335[3]:4923:-0x1.300f9cp-8 0x0p+0 0x0p+0
D^208*D^5671:4924:-0x1.a2c5f6p-6 0x0p+0 0x0p+0
D^208*D^5671[1]:4925:-0x1.a2c5f4p-6 0x1.eee496p-16 0x1.344092p-8
D^208*D^5671[2]:4926:-0x1.a2c5f4p-6 0x0p+0 0x0p+0
D^208*D^5671[3]:4927:-0x1.7705b8p-6 0x0p+0 0x0p+0
E^73*E^1305:4928:-0x1.2ca596p-3 0x0p+0 0x0p+0
E^73*E^1305[1]:4929:-0x1.2ca594p-3 0x1.e00f98p-21 0x1.ad5a3p-11
E^73*E^1305[2]:4930:-0x1.2ca594p-3 0x0p+0 0x0p+0
E^73*E^1305[3]:4931:-0x1.0d3accp-3 0x0p+0 0x0p+0
A^812*A^7052:4944:-0x1.6d99aap-6 0x1.9484dep-11 0x1.d58604p-6
A^812*A^7052[1]:4945:-0x1.bb1354p-6 0x1.9d23c8p-11 0x1.d58604p-6
A^812*A^7052[2]:4946:-0x1.6d99aap-6 0x1.9484dep-11 0x1.d58604p-6
A^812*A^7052[3]:4947:-0x1.bb66c8p-6 0x1.8811a6p-23 0x1.d58604p-6
A^3370*A^24303:4948:-0x1.f43da4p-6 0x1.b020fap-12 0x1.57257cp-6
A^3370*A^24303[1]:4949:-0x1.2f1f3cp-5 0x1.b95686p-12 0x1.57257cp-6
A^3370*A^24303[2]:4950:-0x1.f43da4p-6 0x1.b020fap-12 0x1.57257cp-6
A^3370*A^24303[3]:4951:-0x1.2f6a2cp-5 0x1.a2d43ap-24 0x1.57257cp-6
D^1029*D^9095:4976:-0x1.ae5bc6p-5 0x0p+0 0x0p+0
D^1029*D^9095[1]:4977:-0x1.ae5bc4p-5 0x1.d49fb4p-18 0x1.2bf5aap-9
D^1029*D^9095[2]:4978:-0x1.ae5bc4p-5 0x0p+0 0x0p+0
D^1029*D^9095[3]:4979:-0x1.814e3cp-5 0x0p+0 0x0p+0
D^3298*D^36831:4980:-0x1.ad1442p-5 0x0p+0 0x0p+0
D^3298*D^36831[1]:4981:-0x1.ad144p-5 0x1.d742aep-18 0x1.2ccd62p-9
D^3298*D^36831[2]:4982:-0x1.ad144p-5 0x0p+0 0x0p+0
D^3298*D^36831[3]:4983:-0x1.803d38p-5 0x0p+0 0x0p+0
E^642*E^1389:4988:-0x1.f5dc1ep-6 0x0p+0 0x0p+0
E^642*E^1389[1]:4989:-0x1.f5dc1ap-6 0x1.58ad7p-16 0x1.014042p-8
E^642*E^1389[2]:4990:-0x1.f5dc1ap-6 0x0p+0 0x0p+0
E^642*E^1389[3]:4991:-0x1.c14378p-6 0x0p+0 0x0p+0
E^1705*E^2028:5004:-0x1.7d2cb6p-6 0x0p+0 0x0p+0
E^1705*E^2028[1]:5005:-0x1.7d2cb4p-6 0x1.2ab856p-15 0x1.52afbap-8
E^1705*E^2028[2]:5006:-0x1.7d2cb4p-6 0x0p+0 0x0p+0
E^1705*E^2028[3]:5007:-0x1.5546eep-6 0x0p+0 0x0p+0
E^642*E^1350:5016:-0x1.296e64p-5 0x0p+0 0x0p+0
E^642*E^1350[1]:5017:-0x1.296e6p-5 0x1.b3311p-15 0x1.32513cp-8
E^642*E^1350[2]:5018:-0x1.296e6p-5 0x0p+0 0x0p+0
E^642*E^1350[3]:5019:-0x1.0a4ef6p-5 0x0p+0 0x0p+0
E^73*E^1298:5028:-0x1.eeae66p-5 0x0p+0 0x0p+0
E^73*E^1298[1]:5029:-0x1.eeae62p-5 0x1.62a8dp-18 0x1.04f30ep-9
E^73*E^1298[2]:5030:-0x1.eeae62p-5 0x0p+0 0x0p+0
E^73*E^1298[3]:5031:-0x1.baf626p-5 0x0p+0 0x0p+0
B^2334*B^11017:5036:-0x1.6ba0eap-6 0x0p+0 0x0p+0
B^2334*B^11017[1]:5037:-0x1.6ba0e6p-6 0x1.46145p-14 0x1.cf0e7cp-8
B^2334*B^11017[2]:5038:-0x1.6ba0e6p-6 0x0p+0 0x0p+0
B^2334*B^11017[3]:5039:-0x1.458f48p-6 0x0p+0 0x0p+0
A^3370:5088:-0x1.c58264p-8 0x1.06f848p-7 0x1.7a90bap-4
A^3370[1]:5089:-0x1.12cc38p-7 0x1.0c92f4p-7 0x1.7a90bap-4
A^3370[2]:5090:-0x1.c58264p-8 0x1.06f848p-7 0x1.7a90bap-4
A^3370[3]:5091:-0x1.130a24p-7 0x1.fdc0acp-20 0x1.7a90bap-4
E^1130*E^1298:5096:-0x1.477898p-5 0x0p+0 0x0p+0
E^1130*E^1298[1]:5097:-0x1.477896p-5 0x1.ab6ae2p-14 0x1.554b3ap-8
E^1130*E^1298[2]:5098:-0x1.477896p-5 0x0p+0 0x0p+0
E^1130*E^1298[3]:5099:-0x1.2532b4p-5 0x0p+0 0x0p+0
E^1705*E^2024:5116:-0x1.21a154p-5 0x0p+0 0x0p+0
E^1705*E^2024[1]:5117:-0x1.21a152p-5 0x1.029f6p-16 0x1.bdabap-9
E^1705*E^2024[2]:5118:-0x1.21a152p-5 0x0p+0 0x0p+0
E^1705*E^2024[3]:5119:-0x1.03638ep-5 0x0p+0 0x0p+0
D^196*D^1266:5144:-0x1.328bc8p-4 0x0p+0 0x0p+0
D^196*D^1266[1]:5145:-0x1.328bc6p-4 0x1.cdd826p-19 0x1.a52098p-10
D^196*D^1266[2]:5146:-0x1.328bc6p-4 0x0p+0 0x0p+0
D^196*D^1266[3]:5147:-0x1.127584p-4 0x0p+0 0x0p+0
C^545*C^3394:5156:-0x1.46df9cp-5 0x0p+0 0x0p+0
C^545*C^3394[1]:5157:-0x1.46df9ap-5 0x1.960658p-17 0x1.8adbdep-9
C^545*C^3394[2]:5158:-0x1.46df9ap-5 0x0p+0 0x0p+0
C^545*C^3394[3]:5159:-0x1.24b5cep-5 0x0p+0 0x0p+0
C^2903*C^3394:5164:-0x1.de79e6p-7 0x0p+0 0x0p+0
C^2903*C^3394[1]:5165:-0x1.de79e2p-7 0x1.7b011ep-14 0x1.0dc1cap-7
C^2903*C^3394[2]:5166:-0x1.de79e2p-7 0x0p+0 0x0p+0
C^2903*C^3394[3]:5167:-0x1.ac7494p-7 0x0p+0 0x0p+0
A^468*A^1865:5188:-0x1.6334e8p-4 0x1.ac9858p-15 0x1.e34b48p-8
A^468*A^1865[1]:5189:-0x1.ae799p-4 0x1.b5ba9cp-15 0x1.e34b48p-8
A^468*A^1865[2]:5190:-0x1.6334e8p-4 0x1.ac9858p-15 0x1.e34b48p-8
A^468*A^1865[3]:5191:-0x1.aed9p-4 0x1.9f677p-27 0x1.e34b48p-8
E^1059*E^3845:5192:-0x1.baa78ap-5 0x0p+0 0x0p+0
E^1059*E^3845[1]:5193:-0x1.baa786p-5 0x1.bacdep-18 0x1.239444p-9
E^1059*E^3845[2]:5194:-0x1.baa786p-5 0x0p+0 0x0p+0
E^1059*E^3845[3]:5195:-0x1.8c64fcp-5 0x0p+0 0x0p+0
B^2343*B^12332:5204:-0x1.ec1f62p-6 0x0p+0 0x0p+0
B^2343*B^12332[1]:5205:-0x1.ec1f5ep-6 0x1.666f68p-16 0x1.0655b6p-8
B^2343*B^12332[2]:5206:-0x1.ec1f5ep-6 0x0p+0 0x0p+0
B^2343*B^12332[3]:5207:-0x1.b8a59ep-6 0x0p+0 0x0p+0
E^642*E^1196:5216:-0x1.2a4d24p-5 0x0p+0 0x0p+0
E^642*E^1196[1]:5217:-0x1.2a4d22p-5 0x1.e7a796p-17 0x1.b0bc1ap-9
E^642*E^1196[2]:5218:-0x1.2a4d22p-5 0x0p+0 0x0p+0
E^642*E^1196[3]:5219:-0x1.0b0deep-5 0x0p+0 0x0p+0
E^3536*E^18535:5228:-0x1.3da23ap-6 0x0p+0 0x0p+0
E^3536*E^18535[1]:5229:-0x1.3da238p-6 0x1.ae1edp-15 0x1.96680ep-8
E^3536*E^18535[2]:5230:-0x1.3da238p-6 0x0p+0 0x0p+0
E^3536*E^18535[3]:5231:-0x1.1c6ed6p-6 0x0p+0 0x0p+0
A^1530*A^3370:5248:-0x1.31efb2p-4 0x1.20f98p-14 0x1.189c16p-7
A^1530*A^3370[1]:5249:-0x1.72c1f6p-4 0x1.27220cp-14 0x1.189c16p-7
A^1530*A^3370[2]:5250:-0x1.31efb2p-4 0x1.20f98p-14 0x1.189c16p-7
A^1530*A^3370[3]:5251:-0x1.72fffep-4 0x1.1814a8p-26 0x1.189c16p-7
C^2090*C^3394:5256:-0x1.36ab1ap-5 0x0p+0 0x0p+0
C^2090*C^3394[1]:5257:-0x1.36ab18p-5 0x1.c19d48p-17 0x1.9f8398p-9
C^2090*C^3394[2]:5258:-0x1.36ab18p-5 0x0p+0 0x0p+0
C^2090*C^3394[3]:5259:-0x1.162644p-5 0x0p+0 0x0p+0
E^564*E^3008:5272:-0x1.0f5676p-4 0x0p+0 0x0p+0
E^564*E^3008[1]:5273:-0x1.0f5674p-4 0x1.e2698cp-17 0x1.4e906ap-9
E^564*E^3008[2]:5274:-0x1.0f5674p-4 0x0p+0 0x0p+0
E^564*E^3008[3]:5275:-0x1.e5f4bp-5 0x0p+0 0x0p+0
E^1865*E^3027:5288:-0x1.cb4936p-7 0x0p+0 0x0p+0
E^1865*E^3027[1]:5289:-0x1.cb4932p-7 0x1.9b566cp-14 0x1.190734p-7
E^1865*E^3027[2]:5290:-0x1.cb4932p-7 0x0p+0 0x0p+0
E^1865*E^3027[3]:5291:-0x1.9b6114p-7 0x0p+0 0x0p+0
E^161*E^2380:5292:-0x1.16af46p-4 0x0p+0 0x0p+0
E^161*E^2380[1]:5293:-0x1.16af44p-4 0x1.176698p-18 0x1.cf3a42p-10
E^161*E^2380[2]:5294:-0x1.16af44p-4 0x0p+0 0x0p+0
E^161*E^2380[3]:5295:-0x1.f31eecp-5 0x0p+0 0x0p+0
E^1130*E^1221:5308:-0x1.993fccp-5 0x0p+0 0x0p+0
E^1130*E^1221[1]:5309:-0x1.993fcap-5 0x1.033718p-17 0x1.3b7f58p-9
E^1130*E^1221[2]:5310:-0x1.993fcap-5 0x0p+0 0x0p+0
E^1130*E^1221[3]:5311:-0x1.6e59e4p-5 0x0p+0 0x0p+0
A^229*A^3370:5316:-0x1.7a886p-4 0x1.79615ep-15 0x1.c5800ep-8
A^229*A^3370[1]:5317:-0x1.cabeaap-4 0x1.816c3ap-15 0x1.c5800ep-8
A^229*A^3370[2]:5318:-0x1.7a886p-4 0x1.79615ep-15 0x1.c5800ep-8
A^229*A^3370[3]:5319:-0x1.cb0d1p-4 0x1.6dc3f8p-27 0x1.c5800ep-8
E^1298*E^1890:5320:-0x1.8c0784p-6 0x0p+0 0x0p+0
E^1298*E^1890[1]:5321:-0x1.8c078p-6 0x1.14b1b8p-15 0x1.45f604p-8
E^1298*E^1890[2]:5322:-0x1.8c078p-6 0x0p+0 0x0p+0
E^1298*E^1890[3]:5323:-0x1.62988cp-6 0x0p+0 0x0p+0
E^73*E^1214:5332:-0x1.e0adf4p-4 0x0p+0 0x0p+0
E^73*E^1214[1]:5333:-0x1.e0adf2p-4 0x1.7796bp-20 0x1.0c89e6p-10
E^73*E^1214[2]:5334:-0x1.e0adf2p-4 0x0p+0 0x0p+0
E^73*E^1214[3]:5335:-0x1.ae61d4p-4 0x0p+0 0x0p+0
E^1865*E^3008:5340:-0x1.15cbd6p-5 0x0p+0 0x0p+0
E^1865*E^3008[1]:5341:-0x1.15cbd4p-5 0x1.193a5p-16 0x1.d0bd58p-9
E^1865*E^3008[2]:5342:-0x1.15cbd4p-5 0x0p+0 0x0p+0
E^1865*E^3008[3]:5343:-0x1.f16676p-6 0x0p+0 0x0p+0
D^33*D^1110:5348:-0x1.189172p-3 0x0p+0 0x0p+0
D^33*D^1110[1]:5349:-0x1.18917p-3 0x1.13a864p-20 0x1.cc1d42p-11
D^33*D^1110[2]:5350:-0x1.18917p-3 0x0p+0 0x0p+0
D^33*D^1110[3]:5351:-0x1.f66df6p-4 0x0p+0 0x0p+0
E^564*E^3027:5356:-0x1.8a40ap-6 0x0p+0 0x0p+0
E^564*E^3027[1]:5357:-0x1.8a409ep-6 0x1.173f9ep-15 0x1.47764cp-8
E^564*E^3027[2]:5358:-0x1.8a409ep-6 0x0p+0 0x0p+0
E^564*E^3027[3]:5359:-0x1.60f43p-6 0x0p+0 0x0p+0
B^1340*B^1796:5360:-0x1.fdd1f8p-4 0x0p+0 0x0p+0
B^1340*B^1796[1]:5361:-0x1.fdd1f4p-4 0x1.4dffcep-20 0x1.fa7834p-11
B^1340*B^1796[2]:5362:-0x1.fdd1f4p-4 0x0p+0 0x0p+0
B^1340*B^1796[3]:5363:-0x1.c882aap-4 0x0p+0 0x0p+0
E^73*E^1196:5388:-0x1.3bc928p-3 0x0p+0 0x0p+0
E^73*E^1196[1]:5389:-0x1.3bc926p-3 0x1.b31b5cp-21 0x1.98c166p-11
E^73*E^1196[2]:5390:-0x1.3bc926p-3 0x0p+0 0x0p+0
E^73*E^1196[3]:5391:-0x1.1ad3bap-3 0x0p+0 0x0p+0
E^478*E^564:5392:-0x1.149686p-4 0x0p+0 0x0p+0
E^478*E^564[1]:5393:-0x1.149684p-4 0x1.1bbc72p-18 0x1.d2cebep-10
E^478*E^564[2]:5394:-0x1.149684p-4 0x0p+0 0x0p+0
E^478*E^564[3]:5395:-0x1.ef56fp-5 0x0p+0 0x0p+0
D^871*D^8651:5400:-0x1.73ef58p-6 0x0p+0 0x0p+0
D^871*D^8651[1]:5401:-0x1.73ef54p-6 0x1.3987e8p-15 0x1.5afb26p-8
D^871*D^8651[2]:5402:-0x1.73ef54p-6 0x0p+0 0x0p+0
D^871*D^8651[3]:5403:-0x1.4d2e7p-6 0x0p+0 0x0p+0
E^478*E^557:5420:-0x1.d53c88p-5 0x0p+0 0x0p+0
E^478*E^557[1]:5421:-0x1.d53c86p-5 0x1.8a29eep-18 0x1.131956p-9
E^478*E^557[2]:5422:-0x1.d53c86p-5 0x0p+0 0x0p+0
E^478*E^557[3]:5423:-0x1.a41e0cp-5 0x0p+0 0x0p+0
A^2543*A^16893:5424:-0x1.61efeep-6 0x1.af9c4ap-11 0x1.e4fdcp-6
A^2543*A^16893[1]:5425:-0x1.acef3p-6 0x1.b8cf02p-11 0x1.e4fdcp-6
A^2543*A^16893[2]:5426:-0x1.61efeep-6 0x1.af9c4ap-11 0x1.e4fdcp-6
A^2543*A^16893[3]:5427:-0x1.ad3e2ap-6 0x1.a2539ep-23 0x1.e4fdcp-6
B^286*B^4523:5428:-0x1.bc6e6cp-7 0x0p+0 0x0p+0
B^286*B^4523[1]:5429:-0x1.bc6e68p-7 0x1.b76f54p-14 0x1.2277bcp-7
B^286*B^4523[2]:5430:-0x1.bc6e68p-7 0x0p+0 0x0p+0
B^286*B^4523[3]:5431:-0x1.8e0634p-7 0x0p+0 0x0p+0
B^286*B^4525:5436:-0x1.c618f4p-6 0x0p+0 0x0p+0
B^286*B^4525[1]:5437:-0x1.c618fp-6 0x1.a4effep-16 0x1.1c49ep-8
B^286*B^4525[2]:5438:-0x1.c618fp-6 0x0p+0 0x0p+0
B^286*B^4525[3]:5439:-0x1.968e62p-6 0x0p+0 0x0p+0
D^3298*D^4194:5440:-0x1.fafa2ep-5 0x0p+0 0x0p+0
D^3298*D^4194[1]:5441:-0x1.fafa2ap-5 0x1.51af36p-18 0x1.fd4186p-10
D^3298*D^4194[2]:5442:-0x1.fafa2ap-5 0x0p+0 0x0p+0
D^3298*D^4194[3]:5443:-0x1.c5fd58p-5 0x0p+0 0x0p+0
D^1342*D^1881:5452:-0x1.59119p-5 0x0p+0 0x0p+0
D^1342*D^1881[1]:5453:-0x1.59118ep-5 0x1.6c6f44p-17 0x1.7616e4p-9
D^1342*D^1881[2]:5454:-0x1.59118ep-5 0x0p+0 0x0p+0
D^1342*D^1881[3]:5455:-0x1.34fadep-5 0x0p+0 0x0p+0
E^1133*E^3008:5484:-0x1.c1f9a6p-5 0x0p+0 0x0p+0
E^1133*E^3008[1]:5485:-0x1.c1f9a4p-5 0x1.acb766p-18 0x1.1ee744p-9
E^1133*E^3008[2]:5486:-0x1.c1f9a4p-5 0x0p+0 0x0p+0
E^1133*E^3008[3]:5487:-0x1.92df3ap-5 0x0p+0 0x0p+0
E^642*E^1263:5492:-0x1.217cfp-6 0x0p+0 0x0p+0
E^642*E^1263[1]:5493:-0x1.217ceep-6 0x1.02cf84p-14 0x1.bdd518p-8
E^642*E^1263[2]:5494:-0x1.217ceep-6 0x0p+0 0x0p+0
E^642*E^1263[3]:5495:-0x1.033fe8p-6 0x0p+0 0x0p+0
E^161*E^2323:5512:-0x1.282b4ap-4 0x0p+0 0x0p+0
E^161*E^2323[1]:5513:-0x1.282b48p-4 0x1.ee926ep-19 0x1.b3cb0ap-10
E^161*E^2323[2]:5514:-0x1.282b48p-4 0x0p+0 0x0p+0
E^161*E^2323[3]:5515:-0x1.0937ecp-4 0x0p+0 0x0p+0
E^478*E^533:5516:-0x1.23d564p-3 0x0p+0 0x0p+0
E^478*E^533[1]:5517:-0x1.23d562p-3 0x1.fd9236p-21 0x1.ba5a1ep-11
E^478*E^533[2]:5518:-0x1.23d562p-3 0x0p+0 0x0p+0
E^478*E^533[3]:5519:-0x1.0553f4p-3 0x0p+0 0x0p+0
E^642*E^1221:5532:-0x1.e1761ap-6 0x0p+0 0x0p+0
E^642*E^1221[1]:5533:-0x1.e17618p-6 0x1.765614p-16 0x1.0c173p-8
E^642*E^1221[2]:5534:-0x1.e17618p-6 0x0p+0 0x0p+0
E^642*E^1221[3]:5535:-0x1.af2866p-6 0x0p+0 0x0p+0
D^33*D^1029:5560:-0x1.c618f6p-6 0x0p+0 0x0p+0
D^33*D^1029[1]:5561:-0x1.c618f4p-6 0x1.a4f2ccp-16 0x1.1c4ad2p-8
D^33*D^1029[2]:5562:-0x1.c618f4p-6 0x0p+0 0x0p+0
D^33*D^1029[3]:5563:-0x1.968e62p-6 0x0p+0 0x0p+0
E^478*E^516:5584:-0x1.47958ep-4 0x0p+0 0x0p+0
E^478*E^516[1]:5585:-0x1.47958cp-4 0x1.9452b8p-19 0x1.8a07d2p-10
E^478*E^516[2]:5586:-0x1.47958cp-4 0x0p+0 0x0p+0
E^478*E^516[3]:5587:-0x1.255724p-4 0x0p+0 0x0p+0
E^478*E^510:5608:-0x1.665c1p-4 0x0p+0 0x0p+0
E^478*E^510[1]:5609:-0x1.665c0ep-4 0x1.51c22ep-19 0x1.68234ap-10
E^478*E^510[2]:5610:-0x1.665c0ep-4 0x0p+0 0x0p+0
E^478*E^510[3]:5611:-0x1.40f1p-4 0x0p+0 0x0p+0
E^478*E^760:5632:-0x1.ff2bbp-5 0x0p+0 0x0p+0
E^478*E^760[1]:5633:-0x1.ff2bacp-5 0x1.4c217cp-18 0x1.f90d0ap-10
E^478*E^760[2]:5634:-0x1.ff2bacp-5 0x0p+0 0x0p+0
E^478*E^760[3]:5635:-0x1.c9b2dp-5 0x0p+0 0x0p+0
E^73*E^1130:5636:-0x1.73f1a6p-5 0x0p+0 0x0p+0
E^73*E^1130[1]:5637:-0x1.73f1a4p-5 0x1.0219fcp-16 0x1.ac672cp-9
E^73*E^1130[2]:5638:-0x1.73f1a4p-5 0x0p+0 0x0p+0
E^73*E^1130[3]:5639:-0x1.4d0dc4p-5 0x0p+0 0x0p+0
E^2028*E^2563:5644:-0x1.a1b506p-6 0x0p+0 0x0p+0
E^2028*E^2563[1]:5645:-0x1.a1b504p-6 0x1.f169cep-16 0x1.350942p-8
E^2028*E^2563[2]:5646:-0x1.a1b504p-6 0x0p+0 0x0p+0
E^2028*E^2563[3]:5647:-0x1.760f18p-6 0x0p+0 0x0p+0
E^73*E^1133:5648:-0x1.8ba1e8p-6 0x0p+0 0x0p+0
E^73*E^1133[1]:5649:-0x1.8ba1e4p-6 0x1.78964ap-15 0x1.772c1cp-8
E^73*E^1133[2]:5650:-0x1.8ba1e4p-6 0x0p+0 0x0p+0
E^73*E^1133[3]:5651:-0x1.624bbep-6 0x0p+0 0x0p+0
D^196*D^1141:5652:-0x1.08d338p-7 0x0p+0 0x0p+0
D^196*D^1141[1]:5653:-0x1.08d336p-7 0x1.3574fp-12 0x1.e781b8p-7
D^196*D^1141[2]:5654:-0x1.08d336p-7 0x0p+0 0x0p+0
D^196*D^1141[3]:5655:-0x1.da2b18p-8 0x0p+0 0x0p+0
E^642*E^1062:5656:-0x1.63bc02p-6 0x0p+0 0x0p+0
E^642*E^1062[1]:5657:-0x1.63bcp-6 0x1.7e748p-14 0x1.e60724p-8
E^642*E^1062[2]:5658:-0x1.63bcp-6 0x0p+0 0x0p+0
E^642*E^1062[3]:5659:-0x1.3e7762p-6 0x0p+0 0x0p+0
D^871*D^8472:5668:-0x1.73c19ep-4 0x0p+0 0x0p+0
D^871*D^8472[1]:5669:-0x1.73c19cp-4 0x1.ecd5fap-18 0x1.e7060cp-10
D^871*D^8472[2]:5670:-0x1.73c19cp-4 0x0p+0 0x0p+0
D^871*D^8472[3]:5671:-0x1.4cdbcp-4 0x0p+0 0x0p+0
E^1110*E^24559:5700:-0x1.c32388p-7 0x0p+0 0x0p+0
E^1110*E^24559[1]:5701:-0x1.c32384p-7 0x1.a42bep-13 0x1.747a1p-7
E^1110*E^24559[2]:5702:-0x1.c32384p-7 0x0p+0 0x0p+0
E^1110*E^24559[3]:5703:-0x1.93f192p-7 0x0p+0 0x0p+0
D^1417*D^1417:5704:-0x1.51e884p-6 0x0p+0 0x0p+0
D^1417*D^1417[1]:5705:-0x1.51e882p-6 0x1.48b064p-14 0x1.df31bap-8
D^1417*D^1417[2]:5706:-0x1.51e882p-6 0x0p+0 0x0p+0
D^1417*D^1417[3]:5707:-0x1.2e8e62p-6 0x0p+0 0x0p+0
A^387*A^1865:5712:-0x1.b2267ap-5 0x1.1edaf6p-13 0x1.8b625cp-7
A^387*A^1865[1]:5713:-0x1.071512p-4 0x1.24f7f2p-13 0x1.8b625cp-7
A^387*A^1865[2]:5714:-0x1.b2267ap-5 0x1.1edaf6p-13 0x1.8b625cp-7
A^387*A^1865[3]:5715:-0x1.0749fp-4 0x1.1606d2p-25 0x1.8b625cp-7
D^1173*D^1422:5716:-0x1.e60298p-4 0x0p+0 0x0p+0
D^1173*D^1422[1]:5717:-0x1.e60294p-4 0x1.6f60ecp-20 0x1.099662p-10
D^1173*D^1422[2]:5718:-0x1.e60294p-4 0x0p+0 0x0p+0
D^1173*D^1422[3]:5719:-0x1.b3348cp-4 0x0p+0 0x0p+0
D^196*D^1122:5720:-0x1.7d634cp-7 0x0p+0 0x0p+0
D^196*D^1122[1]:5721:-0x1.7d634ap-7 0x1.2a6dccp-13 0x1.528576p-7
D^196*D^1122[2]:5722:-0x1.7d634ap-7 0x0p+0 0x0p+0
D^196*D^1122[3]:5723:-0x1.5584fcp-7 0x0p+0 0x0p+0
B^50*B^5593:5724:-0x1.a135a8p-5 0x0p+0 0x0p+0
B^50*B^5593[1]:5725:-0x1.a135a6p-5 0x1.f2aap-18 0x1.356caap-9
B^50*B^5593[2]:5726:-0x1.a135a6p-5 0x0p+0 0x0p+0
B^50*B^5593[3]:5727:-0x1.7592fep-5 0x0p+0 0x0p+0
B^39*B^1712:5732:-0x1.133ccep-8 0x0p+0 0x0p+0
B^39*B^1712[1]:5733:-0x1.133ccep-8 0x1.1e58fcp-10 0x1.d4f36ep-6
B^39*B^1712[2]:5734:-0x1.133ccep-8 0x0p+0 0x0p+0
B^39*B^1712[3]:5735:-0x1.ecd7ecp-9 0x0p+0 0x0p+0
E^2115*E^5597:5736:-0x1.8f2818p-7 0x0p+0 0x0p+0
E^2115*E^5597[1]:5737:-0x1.8f2816p-7 0x1.1054b6p-13 0x1.436174p-7
E^2115*E^5597[2]:5738:-0x1.8f2816p-7 0x0p+0 0x0p+0
E^2115*E^5597[3]:5739:-0x1.6569eap-7 0x0p+0 0x0p+0
E^2614*E^8081:5756:-0x1.088158p-5 0x0p+0 0x0p+0
E^2614*E^8081[1]:5757:-0x1.088156p-5 0x1.36391p-16 0x1.e81c1cp-9
E^2614*E^8081[2]:5758:-0x1.088156p-5 0x0p+0 0x0p+0
E^2614*E^8081[3]:5759:-0x1.d9a8aep-6 0x0p+0 0x0p+0
D^690*D^36354:5760:-0x1.a554fep-6 0x0p+0 0x0p+0
D^690*D^36354[1]:5761:-0x1.a554fcp-6 0x1.e8d7dp-16 0x1.325ccp-8
D^690*D^36354[2]:5762:-0x1.a554fcp-6 0x0p+0 0x0p+0
D^690*D^36354[3]:5763:-0x1.7957d4p-6 0x0p+0 0x0p+0
D^3380*D^36832:5792:-0x1.f86b28p-7 0x0p+0 0x0p+0
D^3380*D^36832[1]:5793:-0x1.f86b24p-7 0x1.5537c8p-14 0x1.ffe9d6p-8
D^3380*D^36832[2]:5794:-0x1.f86b24p-7 0x0p+0 0x0p+0
D^3380*D^36832[3]:5795:-0x1.c39724p-7 0x0p+0 0x0p+0
E^73*E^1110:5812:-0x1.3069eep-3 0x0p+0 0x0p+0
E^73*E^1110[1]:5813:-0x1.3069ecp-3 0x1.d45974p-21 0x1.a8152ep-11
E^73*E^1110[2]:5814:-0x1.3069ecp-3 0x0p+0 0x0p+0
E^73*E^1110[3]:5815:-0x1.108ff2p-3 0x0p+0 0x0p+0
E^169*E^7351:5816:-0x1.f0f4a4p-5 0x0p+0 0x0p+0
E^169*E^7351[1]:5817:-0x1.f0f4a2p-5 0x1.5f6bdep-18 0x1.03c166p-9
E^169*E^7351[2]:5818:-0x1.f0f4a2p-5 0x0p+0 0x0p+0
E^169*E^7351[3]:5819:-0x1.bcff5ep-5 0x0p+0 0x0p+0
E^73*E^1081:5824:-0x1.13fbdcp-4 0x0p+0 0x0p+0
E^73*E^1081[1]:5825:-0x1.13fbdap-4 0x1.1cffb8p-18 0x1.d3d86p-10
E^73*E^1081[2]:5826:-0x1.13fbdap-4 0x0p+0 0x0p+0
E^73*E^1081[3]:5827:-0x1.ee304p-5 0x0p+0 0x0p+0
E^1298*E^2024:5840:-0x1.0b9db2p-5 0x0p+0 0x0p+0
E^1298*E^2024[1]:5841:-0x1.0b9dbp-5 0x1.c2c884p-15 0x1.50cee2p-8
E^1298*E^2024[2]:5842:-0x1.0b9dbp-5 0x0p+0 0x0p+0
E^1298*E^2024[3]:5843:-0x1.df57bap-6 0x0p+0 0x0p+0
D^1173*D^1459:5856:-0x1.631716p-6 0x0p+0 0x0p+0
D^1173*D^1459[1]:5857:-0x1.631714p-6 0x1.5817f6p-15 0x1.6b7fe4p-8
D^1173*D^1459[2]:5858:-0x1.631714p-6 0x0p+0 0x0p+0
D^1173*D^1459[3]:5859:-0x1.3dfbfep-6 0x0p+0 0x0p+0
D^1173*D^1461:5864:-0x1.a8f4fp-4 0x0p+0 0x0p+0
D^1173*D^1461[1]:5865:-0x1.a8f4eep-4 0x1.e09adep-20 0x1.2fc518p-10
D^1173*D^1461[2]:5866:-0x1.a8f4eep-4 0x0p+0 0x0p+0
D^1173*D^1461[3]:5867:-0x1.7c8e0ep-4 0x0p+0 0x0p+0
