Version 8.11.0
Id 
Min label:-1
Max label:0
bits:18
lda:0
0 ngram:
0 skip:
options: --cb_adf --cb_explore_adf --cb_sample --cb_type mtr --ccb_explore_adf --csoaa_ldf multiline --csoaa_rank --quadratic ::
Checksum: 1827071792
CCB: has_seen_multi_slot_example = true
event_sum 24
action_sum 96
:1
initial_t 0
norm normalizer 294.199
t 8
sum_loss -1.15476
sum_loss_since_last_dump 0
dump_interval 16
min_label -1
max_label 0
weighted_labeled_examples 8
weighted_labels 0
weighted_unlabeled_examples 0
example_number 8
total_features 2094
total_weight 15.2712
sd::oec.weighted_labeled_examples 8
current_pass 1
Action^fff*User^a:431:-0.0420602 3.99257 1
Action^fff*_id^index1:1661:-0.0545635 4.26194 1
Slot^h*User^c:2034:-0.0508249 1.34258 1
User^a*_id^index2:2511:-0.0353511 2.09072 1
User^c*j:3266:0.0113787 0.272399 1
Action^e*Action^e*_id^index1:4791:0.034163 0.217329 1
Action^f*_id^index2:5298:0.0173015 0.319101 1
Action^ff*Slot^i*_id^index1:9911:0.0367904 0.851468 1
Action^e*Action^e*j:11223:-0.0446205 2.03721 1
Action^e*Action^e:13082:-0.0337348 2.3238 1
User^c*_id^index1:13730:0.034163 0.217329 1
Action^ff*User^a:14750:0.0367904 0.851468 1
Action^ff*_id^index1:15948:0.0367904 0.851468 1
Action^e*Slot^h*_id^index0:17264:0.00334638 0.0692619 1
User^a*User^a*j:18839:-0.0353511 2.09072 1
Action^e*User^a*_id^index2:19394:-0.0446205 2.03721 1
Action^e*User^c:20550:0.034163 0.217329 1
Action^ff*Action^ff*_id^index1:22111:0.0367904 0.851468 1
j:23097:-0.0297621 2.40271 1
_id^index1:25433:-0.0313558 5.33074 1
User^a:25739:-0.0499125 6.93476 1
Action^d*User^c:26782:0.0123294 0.00681251 1
User^a*User^a*_id^index1:28919:-0.0289656 4.76258 1
Action^fff*Action^fff*_id^index0:29418:-0.0319884 1.42404 1
Slot^i*Slot^i:32658:-0.0313558 5.33074 1
User^b*j:35132:0.0131543 0.0395891 1
Action^d*User^b*j:35865:0.0131543 0.0395891 1
User^b*_id^index1:45148:-0.0350046 0.350832 1
Slot^i*Slot^i*_id^index1:45455:-0.0313558 5.33074 1
Slot^i*User^b:46490:-0.0350046 0.350832 1
User^c*User^c*_id^index0:46836:-0.0508249 1.34258 1
User^b*User^b*_id^index2:56120:0.0131543 0.0395891 1
Action^fff*User^c*_id^index0:57653:-0.0508249 1.34258 1
Action^d*User^c*j:60035:0.0123294 0.00681251 1
Action^f*Action^f*_id^index2:64262:0.0173015 0.319101 1
_id^index0:68306:-0.0284547 1.4933 1
Action^f*User^c:69205:0.00942892 0.265586 1
User^b:71687:-0.0247897 0.459683 1
User^a*User^a*_id^index0:72060:0.0172217 0.0814598 1
Action^fff*Action^fff*_id^index1:72545:-0.0545635 4.26194 1
Action^f*User^a*j:77916:0.0087017 0.0535151 1
Action^e*_id^index2:84641:-0.0446205 2.03721 1
User^c*_id^index0:89129:-0.0508249 1.34258 1
Slot^i*User^c*_id^index1:91701:0.034163 0.217329 1
Action^f*Action^f:92808:0.0173015 0.319101 1
Action^fff*_id^index0:94198:-0.0319884 1.42404 1
Action^d*_id^index2:94841:0.0178782 0.0464016 1
Action^e*Action^e*_id^index0:97084:0.00334638 0.0692619 1
Action^fff*User^b:97571:-0.0350046 0.350832 1
Slot^i*User^b*_id^index1:98871:-0.0350046 0.350832 1
Action^d:100701:0.0178782 0.0464016 1
Slot^h*User^c*_id^index0:101156:-0.0508249 1.34258 1
Action^ff*Slot^i:102170:0.0367904 0.851468 1
Slot^h:104617:-0.0284547 1.4933 1
Action^ff*Action^ff:111266:0.0367904 0.851468 1
Action^fff*Slot^i:112427:-0.0545635 4.26194 1
Action^e*User^b*_id^index0:115322:0.00334638 0.0692619 1
Constant:116060:-0.0680412 9.22675 1
Slot^i*User^a:117014:-0.0289656 4.76258 1
User^b*User^b:117506:-0.0247897 0.459683 1
Slot^i*_id^index1:118468:-0.0313558 5.33074 1
Slot^i:119311:-0.0313558 5.33074 1
Action^f*User^c*j:120310:0.00942892 0.265586 1
User^b*_id^index0:121303:0.00334638 0.0692619 1
User^c*User^c*_id^index1:122751:0.034163 0.217329 1
User^c*User^c*j:124447:0.0113787 0.272399 1
Action^e*Slot^i*_id^index1:125257:0.034163 0.217329 1
Action^d*Action^d*j:126327:0.0178782 0.0464016 1
Action^ff:126903:0.0367904 0.851468 1
Slot^h*Slot^h*_id^index0:128980:-0.0284547 1.4933 1
Action^fff*Slot^h:130445:-0.0319884 1.42404 1
Action^f*j:131477:0.0173015 0.319101 1
Action^e*_id^index0:135021:0.00334638 0.0692619 1
User^c*_id^index2:137701:0.0113787 0.272399 1
User^a*j:138472:-0.0353511 2.09072 1
Action^e*User^b:138680:0.00334638 0.0692619 1
User^a*User^a:139866:-0.0499125 6.93476 1
Action^d*User^b:140640:0.0131543 0.0395891 1
User^a*_id^index1:140680:-0.0289656 4.76258 1
Action^e*User^c*_id^index1:146795:0.034163 0.217329 1
Action^e*Action^e*_id^index2:147184:-0.0446205 2.03721 1
Action^f*User^a:147239:0.0087017 0.0535151 1
Slot^h*User^b:150028:0.00334638 0.0692619 1
_id^index2:151326:-0.0297621 2.40271 1
Slot^h*_id^index0:153817:-0.0284547 1.4933 1
User^a*User^a*_id^index2:154800:-0.0353511 2.09072 1
Action^e*User^a*j:155365:-0.0446205 2.03721 1
Action^d*User^b*_id^index2:170302:0.0131543 0.0395891 1
User^b*_id^index2:171035:0.0131543 0.0395891 1
Action^e*Slot^h:171286:0.00334638 0.0692619 1
Action^fff*Action^fff:174568:-0.0758029 5.68598 1
Action^d*Action^d:177210:0.0178782 0.0464016 1
Action^fff*User^a*_id^index1:181540:-0.0445201 3.91111 1
Slot^h*Slot^h:182946:-0.0284547 1.4933 1
Action^fff:183500:-0.0758029 5.68598 1
User^b*User^b*j:183839:0.0131543 0.0395891 1
Action^ff*User^a*_id^index1:184547:0.0367904 0.851468 1
Action^e*Slot^i:186288:0.034163 0.217329 1
Action^f*Action^f*j:192033:0.0173015 0.319101 1
User^b*User^b*_id^index1:194431:-0.0350046 0.350832 1
Slot^i*User^c:194660:0.034163 0.217329 1
Action^d*User^c*_id^index2:196516:0.0123294 0.00681251 1
User^c*User^c:197378:-0.0313819 1.8323 1
Action^f*User^a*_id^index2:206203:0.0087017 0.0535151 1
Action^fff*Slot^h*_id^index0:208421:-0.0319884 1.42404 1
Action^fff*User^c:209117:-0.0508249 1.34258 1
Action^f:209188:0.0173015 0.319101 1
Slot^h*User^a:210560:0.0172217 0.0814598 1
Action^e:210597:-0.0337348 2.3238 1
Action^fff*Slot^i*_id^index1:211944:-0.0545635 4.26194 1
User^a*_id^index0:216067:0.0172217 0.0814598 1
User^c:218617:-0.0313819 1.8323 1
Action^e*j:221062:-0.0446205 2.03721 1
Action^e*User^a:221492:-0.0446205 2.03721 1
Action^e*_id^index1:222950:0.034163 0.217329 1
Action^d*j:223070:0.0178782 0.0464016 1
Slot^h*User^b*_id^index0:236086:0.00334638 0.0692619 1
Action^fff*User^b*_id^index1:236864:-0.0350046 0.350832 1
User^b*User^b*_id^index0:237300:0.00334638 0.0692619 1
Action^fff*User^a*_id^index0:240815:0.0172217 0.0814598 1
Action^f*User^c*_id^index2:245969:0.00942892 0.265586 1
Slot^h*User^a*_id^index0:246098:0.0172217 0.0814598 1
Slot^i*User^a*_id^index1:257787:-0.0289656 4.76258 1
User^c*User^c*_id^index2:258872:0.0113787 0.272399 1
Action^d*Action^d*_id^index2:260176:0.0178782 0.0464016 1
