Version 8.11.0
Id
Min label:-1
Max label:0
bits:18
lda:0
0 ngram:
0 skip:
options: --cb_adf --cb_explore_adf --cb_sample --cb_type mtr --ccb_explore_adf --csoaa_ldf multiline --csoaa_rank --quadratic ::
Checksum: 1827071792
CCB: has_seen_multi_slot_example = 1
event_sum 48
action_sum 192
:1
initial_t 0
norm normalizer 508.032
t 16
sum_loss -2.28571
sum_loss_since_last_dump 0
dump_interval 16
min_label -1
max_label 0
weighted_labeled_examples 8
weighted_labels 0
weighted_unlabeled_examples 0
example_number 8
total_features 758
total_weight 25.2144
sd::oec.weighted_labeled_examples 8
current_pass 1
Action^fff*User^a:431:-0.0648216 5.02218 1
Action^fff*_id^index1:1661:-0.0585141 8.41123 1
Slot^h*User^c:2034:-0.0412325 5.56725 1
User^a*_id^index2:2511:-0.0403701 2.67099 1
User^c*j:3266:0.0147191 0.583885 1
Action^e*Action^e*_id^index1:4791:0.0391022 0.276062 1
Action^f*_id^index2:5298:0.0375084 0.846808 1
Action^ff*Slot^i*_id^index1:9911:0.0496177 0.948105 1
Action^e*Action^e:13082:-0.0446284 2.8075 1
User^c*_id^index1:13730:0.0391022 0.276062 1
Action^ff*User^a:14750:0.0496177 0.948105 1
Action^ff*_id^index1:15948:0.0496177 0.948105 1
Action^e*Slot^h*_id^index0:17264:0.0106547 0.128895 1
Action^e*User^a*_id^index2:19394:-0.0599632 2.40254 1
Action^e*User^c:20550:0.0391022 0.276062 1
Action^ff*Action^ff*_id^index1:22111:0.0496177 0.948105 1
j:23097:-0.0299941 3.32691 1
_id^index1:25433:-0.0300211 9.6354 1
User^a:25739:-0.0656456 8.67254 1
Action^d*User^c:26782:0.0327992 0.787724 1
User^a*User^a*_id^index1:28919:-0.0469844 5.87136 1
Action^fff*Action^fff*_id^index0:29418:-0.0284246 4.88397 1
User^b*User^c*_id^index0:29798:0.0171027 0.782199 1
Slot^i*Slot^i:32658:-0.0300211 9.6354 1
User^b*j:35132:0.0177621 0.0720275 1
Action^e*User^b*_id^index1:44017:0.0115453 0.0614324 1
User^b*_id^index1:45148:-0.00635976 3.54941 1
Slot^i*Slot^i*_id^index1:45455:-0.0300211 9.6354 1
Slot^i*User^b:46490:-0.00635976 3.54941 1
User^c*User^c*_id^index0:46836:-0.0412325 5.56725 1
Action^d*Action^d*_id^index0:48540:0.0171027 0.782199 1
User^b*User^b*_id^index2:56120:0.0177621 0.0720275 1
Action^fff*User^c*_id^index0:57653:-0.0506762 4.78505 1
Action^f*Action^f*_id^index2:64262:0.0375084 0.846808 1
_id^index0:68306:-0.0136657 5.79507 1
Action^f*User^c:69205:0.0131859 0.57836 1
Action^e*j*_id^index2:69868:-0.0599632 2.40254 1
User^b:71687:0.0159125 4.50126 1
User^a*User^a*_id^index0:72060:0.0375514 0.130187 1
Action^fff*Action^fff*_id^index1:72545:-0.0585141 8.41123 1
User^b*User^c*_id^index1:73197:0.0115453 0.0614324 1
Action^e*_id^index2:84641:-0.0599632 2.40254 1
User^c*_id^index0:89129:-0.0412325 5.56725 1
Slot^i*User^c*_id^index1:91701:0.0391022 0.276062 1
Action^f*Action^f:92808:0.0375084 0.846808 1
Action^fff*_id^index0:94198:-0.0284246 4.88397 1
Action^d*_id^index2:94841:0.0219684 0.0775527 1
Action^e*Action^e*_id^index0:97084:0.0106547 0.128895 1
Action^fff*User^b:97571:-0.0104993 3.48797 1
Slot^i*User^b*_id^index1:98871:-0.00635976 3.54941 1
Action^d:100701:0.038281 0.859752 1
Slot^h*User^c*_id^index0:101156:-0.0412325 5.56725 1
Action^ff*Slot^i:102170:0.0496177 0.948105 1
Slot^h:104617:-0.0136657 5.79507 1
Action^ff*Action^ff:111266:0.0496177 0.948105 1
Action^fff*Slot^i:112427:-0.0585141 8.41123 1
Action^d*User^c*_id^index0:113256:0.0171027 0.782199 1
Action^e*User^b*_id^index0:115322:0.00406543 0.0976312 1
Constant:116060:-0.0590571 18.7574 1
Slot^i*User^a:117014:-0.0469844 5.87136 1
User^b*User^b:117506:0.0159125 4.50126 1
User^a*j*_id^index2:118310:-0.0403701 2.67099 1
Slot^i*_id^index1:118468:-0.0300211 9.6354 1
Slot^i:119311:-0.0300211 9.6354 1
User^b*_id^index0:121303:0.0201897 0.87983 1
Action^d*User^b*_id^index0:122098:0.0171027 0.782199 1
User^c*User^c*_id^index1:122751:0.0391022 0.276062 1
Action^e*Slot^i*_id^index1:125257:0.0391022 0.276062 1
Action^ff:126903:0.0496177 0.948105 1
Slot^h*Slot^h*_id^index0:128980:-0.0136657 5.79507 1
Action^d*j*_id^index2:128996:0.0219684 0.0775527 1
Action^fff*Slot^h:130445:-0.0284246 4.88397 1
Action^f*j:131477:0.0375084 0.846808 1
Action^d*Slot^h*_id^index0:133528:0.0171027 0.782199 1
Action^e*_id^index0:135021:0.0106547 0.128895 1
User^c*_id^index2:137701:0.0147191 0.583885 1
User^a*j:138472:-0.0403701 2.67099 1
Action^e*User^b:138680:0.0112397 0.159064 1
User^a*User^a:139866:-0.0656456 8.67254 1
Action^d*User^b:140640:0.0341263 0.854227 1
User^a*_id^index1:140680:-0.0469844 5.87136 1
Action^f*j*_id^index2:144017:0.0375084 0.846808 1
Action^d*_id^index0:145333:0.0171027 0.782199 1
Action^e*User^c*_id^index1:146795:0.0391022 0.276062 1
Action^e*Action^e*_id^index2:147184:-0.0599632 2.40254 1
Action^f*User^a:147239:0.0378785 0.268449 1
User^b*j*_id^index2:149098:0.0177621 0.0720275 1
Slot^h*User^b:150028:0.0201897 0.87983 1
_id^index2:151326:-0.0299941 3.32691 1
User^c*j*_id^index2:154232:0.0147191 0.583885 1
User^a*User^a*_id^index2:154800:-0.0403701 2.67099 1
j*j:155010:-0.0299941 3.32691 1
Action^d*User^b*_id^index2:170302:0.0177621 0.0720275 1
User^b*_id^index2:171035:0.0177621 0.0720275 1
Action^e*Slot^h:171286:0.0106547 0.128895 1
Action^d*Slot^h:173518:0.0171027 0.782199 1
Action^fff*Action^fff:174568:-0.0753101 13.2952 1
Action^d*Action^d:177210:0.038281 0.859752 1
Action^fff*User^a*_id^index1:181540:-0.0696105 4.92326 1
Slot^h*Slot^h:182946:-0.0136657 5.79507 1
Action^fff:183500:-0.0753101 13.2952 1
Action^ff*User^a*_id^index1:184547:0.0496177 0.948105 1
Action^e*Slot^i:186288:0.0391022 0.276062 1
User^b*User^b*_id^index1:194431:-0.00635976 3.54941 1
Slot^i*User^c:194660:0.0391022 0.276062 1
Action^d*User^c*_id^index2:196516:0.0157592 0.00552527 1
User^c*User^c:197378:-0.018098 6.42719 1
Action^e*User^a*_id^index0:200206:0.0133749 0.0312637 1
Action^f*User^a*_id^index2:206203:0.0378785 0.268449 1
Action^fff*Slot^h*_id^index0:208421:-0.0284246 4.88397 1
Action^fff*User^c:209117:-0.0506762 4.78505 1
Action^f:209188:0.0375084 0.846808 1
Slot^h*User^a:210560:0.0375514 0.130187 1
Action^e:210597:-0.0446284 2.8075 1
Action^fff*Slot^i*_id^index1:211944:-0.0585141 8.41123 1
User^a*_id^index0:216067:0.0375514 0.130187 1
User^c:218617:-0.018098 6.42719 1
Action^e*j:221062:-0.0599632 2.40254 1
Action^e*User^a:221492:-0.0582338 2.43381 1
Action^e*_id^index1:222950:0.0391022 0.276062 1
Action^d*j:223070:0.0219684 0.0775527 1
j*j*_id^index2:228536:-0.0299941 3.32691 1
User^b*User^c:231164:0.0202189 0.843632 1
Slot^h*User^b*_id^index0:236086:0.0201897 0.87983 1
Action^fff*User^b*_id^index1:236864:-0.0104993 3.48797 1
User^b*User^b*_id^index0:237300:0.0201897 0.87983 1
Action^fff*User^a*_id^index0:240815:0.0323085 0.0989238 1
Action^f*User^c*_id^index2:245969:0.0131859 0.57836 1
Slot^h*User^a*_id^index0:246098:0.0375514 0.130187 1
Slot^i*User^a*_id^index1:257787:-0.0469844 5.87136 1
User^c*User^c*_id^index2:258872:0.0147191 0.583885 1
Action^d*Action^d*_id^index2:260176:0.0219684 0.0775527 1
