Version 9.10.0
Id 
Min label:-1
Max label:0
bits:18
lda:0
0 ngram:
0 skip:
options: --cb_adf --cb_explore_adf --cb_sample --cb_type mtr --ccb_explore_adf --csoaa_ldf multiline --csoaa_rank --quadratic ::
Checksum: 1827071792
CCB: has_seen_multi_slot_example = true
event_sum 33
action_sum 132
:0
m^d*p^d:85:1.60747e-05
Baction^d*F^d*_ccb_slot_index^index2:117:1.60747e-05
0^ff:162:0.000558349
V^d*g^d*_ccb_slot_index^index2:171:1.60747e-05
F^d*Q^d*_ccb_slot_index^index2:322:1.60747e-05
e^d*i^g:364:1.60747e-05
Action^fff*User^a:431:0.0151437
I^g*j*_ccb_slot_index^index2:456:1.60747e-05
Y^d*o^d*_ccb_slot_index^index2:544:1.60747e-05
F^d*T^d:568:1.60747e-05
g^d*j:621:1.60747e-05
F^d*M^d*_ccb_slot_index^index2:646:1.60747e-05
Baction^d*V^d:667:1.60747e-05
F^d*l^d:808:1.60747e-05
Caction^d*N^d:875:1.60747e-05
N^d*t^d:1116:1.60747e-05
User^b*Y^d*_ccb_slot_index^index2:1139:1.60747e-05
I^g*Y^d*_ccb_slot_index^index2:1181:1.60747e-05
L^d*j:1407:1.60747e-05
T^d*W^d*_ccb_slot_index^index2:1546:0.000282789
P^d*p^d:1574:1.60747e-05
M^d*s^d*_ccb_slot_index^index2:1602:1.60747e-05
Action^fff*_ccb_slot_index^index1:1661:0.00488818
(^ff*9^ff:1667:0.000558349
Ection^d:1696:1.60747e-05
N^d*z^d*_ccb_slot_index^index2:1932:1.60747e-05
H^d*s^d*_ccb_slot_index^index2:1997:1.60747e-05
Slot^h*User^c:2034:-0.0351348
Y^d*i^g*_ccb_slot_index^index2:2035:1.60747e-05
F^d*P^d*_ccb_slot_index^index2:2074:1.60747e-05
O^d*r^d:2078:1.60747e-05
G^d*v^d*_ccb_slot_index^index2:2091:1.60747e-05
Action^d*Y^d*_ccb_slot_index^index2:2105:1.60747e-05
baction^d*_ccb_slot_index^index2:2162:1.60747e-05
h^d*r^d:2167:1.60747e-05
caction^d*h^d:2200:1.60747e-05
Baction^d*I^g:2427:1.60747e-05
User^a*_ccb_slot_index^index2:2511:-0.0220853
Caction^d*s^d*_ccb_slot_index^index2:2632:1.60747e-05
o^d*u^f*_ccb_slot_index^index2:2633:1.60747e-05
M^d*i^g*_ccb_slot_index^index2:2640:1.60747e-05
M^d*N^d:2765:1.60747e-05
s^d*z^d*_ccb_slot_index^index2:2789:0.000282789
T^d*g^d:2887:1.60747e-05
caction^d*_ccb_slot_index^index2:2911:1.60747e-05
I^g*R^d*_ccb_slot_index^index2:2980:1.60747e-05
baction^d*h^d:2997:1.60747e-05
Ection^d*g^d*_ccb_slot_index^index2:3178:1.60747e-05
User^c*j:3266:0.000274316
caction^d*z^d*_ccb_slot_index^index2:3281:1.60747e-05
G^d*J^d:3361:1.60747e-05
Ection^d*u^f*_ccb_slot_index^index2:3725:1.60747e-05
User^c*v^d*_ccb_slot_index^index2:3908:0.000274316
!^ff*5^ff*_ccb_slot_index^index0:3985:0.000558349
Baction^d*i^g*_ccb_slot_index^index2:4007:1.60747e-05
M^d*l^d:4098:1.60747e-05
e^d*g^d:4161:1.60747e-05
m^d*t^d*_ccb_slot_index^index2:4224:1.60747e-05
action^d*x^d:4265:1.60747e-05
%^ff*6^ff*_ccb_slot_index^index0:4302:0.000558349
M^d*T^d:4370:1.60747e-05
V^d*V^d:4386:0.000282789
L^d*z^d:4434:1.60747e-05
I^g*l^d*_ccb_slot_index^index2:4440:1.60747e-05
L^d*W^d:4545:1.60747e-05
Baction^d*O^d:4724:1.60747e-05
7^ff*Slot^h:4741:0.000558349
Action^e*Action^e*_ccb_slot_index^index1:4791:0.00608797
L^d*Y^d:4796:1.60747e-05
Q^d*g^d*_ccb_slot_index^index2:4855:1.60747e-05
Q^d*x^d:5080:1.60747e-05
i^g*n^d*_ccb_slot_index^index2:5305:1.60747e-05
&^ff*(^ff*_ccb_slot_index^index0:5344:0.000558349
o^d*s^d:5427:1.60747e-05
l^d*p^d:5562:1.60747e-05
User^b*q^d:5594:1.60747e-05
g^d*z^d:5696:1.60747e-05
g^d*h^d*_ccb_slot_index^index2:5865:1.60747e-05
Q^d*r^d*_ccb_slot_index^index2:5895:1.60747e-05
L^d*X^d:5945:1.60747e-05
M^d*W^d*_ccb_slot_index^index2:6074:1.60747e-05
L^d*L^d:6180:1.60747e-05
q^d*w^d*_ccb_slot_index^index2:6197:1.60747e-05
User^c*W^d:6268:0.000274316
action^d*e^d:6321:1.60747e-05
Caction^d*T^d:6324:1.60747e-05
User^c*z^d:6383:0.000274316
Baction^d*Baction^d*_ccb_slot_index^index2:6530:1.60747e-05
Caction^d*l^d:6564:1.60747e-05
X^d*y^d:6587:0.000282789
F^d*N^d:6631:1.60747e-05
T^d*i^g:6762:1.60747e-05
baction^d*s^d*_ccb_slot_index^index2:6903:1.60747e-05
User^c*Y^d:6913:0.000274316
Q^d*e^d:7104:1.60747e-05
Caction^d*Caction^d*_ccb_slot_index^index2:7112:1.60747e-05
J^d*P^d:7236:1.60747e-05
T^d*w^d*_ccb_slot_index^index2:7251:0.000282789
2^ff*9^ff:7277:0.000558349
I^g*q^d*_ccb_slot_index^index2:7298:1.60747e-05
G^d*L^d*_ccb_slot_index^index2:7374:1.60747e-05
Z^d*r^d*_ccb_slot_index^index2:7476:0.000282789
3^ff*5^ff:7525:0.000558349
Action^d*R^d*_ccb_slot_index^index2:7688:1.60747e-05
i^g*w^d:7783:1.60747e-05
User^c*X^d:7812:0.000274316
n^d*q^d:7813:1.60747e-05
caction^d*caction^d*_ccb_slot_index^index2:7920:1.60747e-05
x^d*j*_ccb_slot_index^index2:7930:0.000282789
Baction^d*Z^d*_ccb_slot_index^index2:7954:1.60747e-05
Action^d*w^d:8035:1.60747e-05
O^d*n^d:8076:1.60747e-05
6^ff*7^ff:8092:0.000558349
Caction^d*Ection^d*_ccb_slot_index^index2:8105:1.60747e-05
N^d*R^d*_ccb_slot_index^index2:8155:1.60747e-05
h^d*n^d:8165:1.60747e-05
O^d*m^d*_ccb_slot_index^index2:8228:1.60747e-05
2^ff*Slot^h:8240:0.000558349
0^ff*0^ff*_ccb_slot_index^index2:8242:1.60747e-05
Baction^d*s^d:8333:1.60747e-05
User^b*t^d:8491:1.60747e-05
Ection^d*h^d:8505:1.60747e-05
L^d*daction^d:8725:1.60747e-05
X^d*e^d*_ccb_slot_index^index2:8920:1.60747e-05
R^d*Z^d:8921:0.000282789
baction^d*h^d*_ccb_slot_index^index2:8945:1.60747e-05
Ection^d*_ccb_slot_index^index2:8958:1.60747e-05
G^d:9062:1.60747e-05
p^d*z^d*_ccb_slot_index^index2:9259:1.60747e-05
action^d*j^d*_ccb_slot_index^index2:9284:1.60747e-05
Daction^d*n^d:9317:1.60747e-05
Action^d*x^d:9328:1.60747e-05
x^d*j:9484:0.000282789
i^g*x^d:9588:1.60747e-05
)^ff*User^b*_ccb_slot_index^index0:9590:0.000558349
O^d*T^d*_ccb_slot_index^index2:9647:1.60747e-05
g^d*j^d*_ccb_slot_index^index2:9698:1.60747e-05
X^d*m^d:9729:1.60747e-05
e^d*o^d:9881:1.60747e-05
Y^d*n^d:9968:1.60747e-05
r^d*r^d:10088:0.000282789
u^f*j*_ccb_slot_index^index2:10144:0.000282789
P^d*y^d*_ccb_slot_index^index2:10349:1.60747e-05
q^d*u^f*_ccb_slot_index^index2:10394:1.60747e-05
Z^d:10422:0.000282789
Q^d*w^d:10443:1.60747e-05
)^ff*7^ff:10479:0.000558349
User^b*q^d*_ccb_slot_index^index2:10544:1.60747e-05
%^ff*)^ff:10613:0.000558349
$^ff:10629:0.000558349
j^d*r^d:10668:1.60747e-05
f^d*x^d*_ccb_slot_index^index2:10786:1.60747e-05
n^d*t^d:10868:1.60747e-05
Ection^d*daction^d*_ccb_slot_index^index1:10896:1.60747e-05
T^d*t^d*_ccb_slot_index^index2:10993:0.000282789
action^d*w^d:11194:1.60747e-05
J^d*action^d:11203:1.60747e-05
Action^d*e^d:11368:1.60747e-05
caction^d*i^g*_ccb_slot_index^index2:11534:1.60747e-05
%^ff*1^ff*_ccb_slot_index^index0:11542:0.000558349
&^ff*&^ff:11554:0.000558349
1^ff*5^ff:11556:0.000558349
N^d*User^b*_ccb_slot_index^index2:11569:1.60747e-05
l^d*q^d*_ccb_slot_index^index2:11586:1.60747e-05
W^d*r^d*_ccb_slot_index^index2:11605:0.000282789
7^ff*Slot^h*_ccb_slot_index^index0:11661:0.000558349
F^d*X^d*_ccb_slot_index^index2:11684:1.60747e-05
7^ff*9^ff:11992:0.000558349
I^g*X^d*_ccb_slot_index^index2:12194:1.60747e-05
I^g*n^d:12245:1.60747e-05
Z^d*l^d*_ccb_slot_index^index2:12303:1.60747e-05
N^d*q^d:12461:1.60747e-05
P^d*User^b:12528:1.60747e-05
x^d*z^d:12577:0.000282789
Y^d*r^d:12642:0.000282789
F^d*R^d*_ccb_slot_index^index2:12706:1.60747e-05
&^ff*7^ff:13039:0.000558349
Action^e*Action^e:13082:-0.015931
V^d*s^d:13108:0.000282789
Action^d*F^d:13148:1.60747e-05
Y^d*z^d*_ccb_slot_index^index2:13168:0.000282789
Daction^d*r^d:13303:1.60747e-05
Daction^d*z^d*_ccb_slot_index^index2:13443:1.60747e-05
4^ff*5^ff*_ccb_slot_index^index0:13629:0.000558349
User^c*_ccb_slot_index^index1:13730:0.00608797
Caction^d*Q^d*_ccb_slot_index^index2:13878:1.60747e-05
H^d*J^d:14349:1.60747e-05
I^g*r^d:14407:1.60747e-05
R^d*j*_ccb_slot_index^index2:14460:0.000282789
Ection^d*V^d*_ccb_slot_index^index2:14517:1.60747e-05
J^d*j*_ccb_slot_index^index2:14798:1.60747e-05
User^b*e^d*_ccb_slot_index^index2:15008:1.60747e-05
(^ff*Slot^h:15070:0.000558349
L^d*j^d*_ccb_slot_index^index2:15084:1.60747e-05
p^d*v^d:15238:1.60747e-05
F^d*G^d*_ccb_slot_index^index2:15515:1.60747e-05
1^ff*6^ff*_ccb_slot_index^index0:15546:0.000558349
&^ff*1^ff*_ccb_slot_index^index0:15603:0.000558349
T^d*o^d:15775:1.60747e-05
Z^d*Z^d:15924:0.000282789
j^d*n^d:15934:1.60747e-05
User^b*daction^d*_ccb_slot_index^index2:15996:1.60747e-05
0^ff*3^ff*_ccb_slot_index^index0:16037:0.000558349
Action^d*h^d*_ccb_slot_index^index2:16644:1.60747e-05
p^d*t^d:16685:1.60747e-05
baction^d*y^d:16698:1.60747e-05
(^ff*2^ff*_ccb_slot_index^index0:16750:0.000558349
P^d*P^d:16762:1.60747e-05
H^d*R^d:16779:1.60747e-05
R^d*X^d:16912:0.000282789
caction^d*y^d:16919:1.60747e-05
Action^d*N^d:16993:1.60747e-05
baction^d*g^d*_ccb_slot_index^index2:17166:1.60747e-05
5^ff:17204:0.000558349
I^g*f^d:17210:1.60747e-05
$^ff*User^b:17496:0.000558349
User^b*caction^d:17502:1.60747e-05
R^d*z^d:17531:0.000282789
F^d*w^d:17637:1.60747e-05
R^d*W^d:17640:0.000282789
Daction^d*Q^d:17742:1.60747e-05
W^d*i^g:17780:1.60747e-05
G^d*o^d:17814:1.60747e-05
!^ff*6^ff:17997:0.000558349
H^d*g^d:18018:1.60747e-05
l^d*w^d*_ccb_slot_index^index2:18083:1.60747e-05
P^d*g^d*_ccb_slot_index^index2:18095:1.60747e-05
L^d:18274:1.60747e-05
R^d*Y^d:18325:0.000282789
r^d*r^d*_ccb_slot_index^index2:18342:0.000282789
X^d:18559:0.000282789
Daction^d*f^d:18570:1.60747e-05
j*_ccb_slot_index^index2:18597:-0.0217468
%^ff*)^ff*_ccb_slot_index^index0:18941:0.000558349
Y^d*f^d:18975:1.60747e-05
(^ff*)^ff:19230:0.000558349
I^g*w^d*_ccb_slot_index^index2:19299:1.60747e-05
baction^d*o^d*_ccb_slot_index^index2:19366:1.60747e-05
Action^e*User^a*_ccb_slot_index^index2:19394:-0.0220853
Z^d*j:19643:0.000282789
Y^d:19962:0.000282789
z^d:19988:0.000282789
W^d:20103:0.000282789
$^ff*)^ff*_ccb_slot_index^index0:20176:0.000558349
I^g*Q^d:20222:1.60747e-05
T^d*j*_ccb_slot_index^index2:20248:0.000282789
G^d*n^d*_ccb_slot_index^index2:20378:1.60747e-05
L^d*L^d*_ccb_slot_index^index2:20402:1.60747e-05
s^d*w^d*_ccb_slot_index^index2:20437:0.000282789
L^d*o^d*_ccb_slot_index^index2:20472:1.60747e-05
Ection^d*M^d:20489:1.60747e-05
Action^e*User^c:20550:0.00608797
R^d*j:20566:0.000282789
i^g*j*_ccb_slot_index^index2:20656:1.60747e-05
n^d*v^d:20703:1.60747e-05
X^d*_ccb_slot_index^index2:20723:0.000282789
w^d*x^d*_ccb_slot_index^index2:20831:0.000282789
5^ff*Slot^h:21109:0.000558349
X^d*h^d:21300:1.60747e-05
Ection^d*m^d:21516:1.60747e-05
O^d*u^f:21523:1.60747e-05
W^d*g^d:21593:1.60747e-05
h^d*u^f:21626:1.60747e-05
Q^d*v^d*_ccb_slot_index^index2:21856:1.60747e-05
$^ff*_ccb_slot_index^index0:22157:0.000558349
H^d*i^g:22351:1.60747e-05
8^ff*9^ff*_ccb_slot_index^index0:22374:0.000558349
M^d*w^d:22479:1.60747e-05
G^d*s^d*_ccb_slot_index^index2:22537:1.60747e-05
Z^d*z^d:22678:0.000282789
Action^d*l^d:22702:1.60747e-05
%^ff*Slot^h:22709:0.000558349
R^d*v^d*_ccb_slot_index^index2:22848:0.000282789
1^ff*4^ff*_ccb_slot_index^index0:22915:0.000558349
i^g*l^d:22954:1.60747e-05
H^d*q^d*_ccb_slot_index^index2:22957:1.60747e-05
Action^d*T^d:22974:1.60747e-05
j:23097:-0.0217468
O^d*R^d*_ccb_slot_index^index2:23131:1.60747e-05
J^d*p^d:23320:1.60747e-05
Baction^d*Daction^d*_ccb_slot_index^index2:23343:1.60747e-05
User^b*v^d:23424:1.60747e-05
H^d*I^g*_ccb_slot_index^index2:23435:1.60747e-05
f^d*i^g*_ccb_slot_index^index2:23592:1.60747e-05
P^d*Y^d*_ccb_slot_index^index2:23657:1.60747e-05
M^d*j^d*_ccb_slot_index^index2:23887:1.60747e-05
I^g*h^d*_ccb_slot_index^index2:23912:1.60747e-05
u^f*z^d*_ccb_slot_index^index2:23931:0.000282789
s^d*x^d:24058:0.000282789
Caction^d*w^d:24169:1.60747e-05
Action^d*daction^d*_ccb_slot_index^index2:24258:1.60747e-05
T^d*X^d*_ccb_slot_index^index2:24306:0.000282789
Daction^d*V^d*_ccb_slot_index^index2:24424:1.60747e-05
N^d*caction^d:24873:1.60747e-05
Baction^d*j^d:24882:1.60747e-05
Baction^d*baction^d:24982:1.60747e-05
T^d*daction^d*_ccb_slot_index^index2:25030:1.60747e-05
J^d*Z^d*_ccb_slot_index^index2:25075:1.60747e-05
L^d*w^d*_ccb_slot_index^index2:25080:1.60747e-05
5^ff*9^ff*_ccb_slot_index^index0:25130:0.000558349
G^d*i^g:25187:1.60747e-05
$^ff*2^ff*_ccb_slot_index^index0:25190:0.000558349
Q^d*u^f*_ccb_slot_index^index2:25204:1.60747e-05
W^d*o^d:25217:1.60747e-05
Action^d*baction^d*_ccb_slot_index^index2:25255:1.60747e-05
_ccb_slot_index^index1:25433:0.00993682
%^ff*7^ff*_ccb_slot_index^index0:25466:0.000558349
baction^d*q^d*_ccb_slot_index^index2:25559:1.60747e-05
I^g*u^f:25674:1.60747e-05
User^a:25739:-0.00595129
V^d*z^d*_ccb_slot_index^index2:25747:0.000282789
M^d*e^d:25796:1.60747e-05
%^ff*9^ff:25832:0.000558349
H^d*M^d*_ccb_slot_index^index2:25835:1.60747e-05
Caction^d*x^d:25978:1.60747e-05
r^d*z^d*_ccb_slot_index^index2:26030:0.000282789
0^ff*8^ff:26334:0.000558349
s^d*w^d:26345:0.000282789
y^d*j*_ccb_slot_index^index2:26463:0.000282789
N^d*u^f*_ccb_slot_index^index2:26487:1.60747e-05
daction^d*p^d:26488:1.60747e-05
$^ff*0^ff*_ccb_slot_index^index0:26773:0.000558349
F^d*F^d:26842:1.60747e-05
W^d*h^d*_ccb_slot_index^index2:27082:1.60747e-05
Action^d*m^d*_ccb_slot_index^index2:27087:1.60747e-05
Caction^d*o^d*_ccb_slot_index^index2:27221:1.60747e-05
4^ff*User^b:27270:0.000558349
L^d*Q^d*_ccb_slot_index^index2:27383:1.60747e-05
Ection^d*y^d:27574:1.60747e-05
Z^d*daction^d:27601:1.60747e-05
T^d*m^d*_ccb_slot_index^index2:27723:1.60747e-05
f^d*z^d:27735:1.60747e-05
action^d*l^d:27767:1.60747e-05
M^d*x^d:27868:1.60747e-05
M^d*X^d*_ccb_slot_index^index2:27970:1.60747e-05
Caction^d*e^d:28002:1.60747e-05
Y^d*u^f:28015:0.000282789
J^d*User^b:28110:1.60747e-05
Caction^d*M^d*_ccb_slot_index^index2:28114:1.60747e-05
Q^d*T^d:28182:1.60747e-05
5^ff*9^ff:28200:0.000558349
O^d*baction^d*_ccb_slot_index^index2:28220:1.60747e-05
P^d*n^d*_ccb_slot_index^index2:28341:1.60747e-05
Q^d*l^d:28422:1.60747e-05
Daction^d*u^f:28666:1.60747e-05
Daction^d*Daction^d:28738:1.60747e-05
l^d*v^d*_ccb_slot_index^index2:28852:1.60747e-05
H^d*o^d:28858:1.60747e-05
I^g*m^d*_ccb_slot_index^index2:28891:1.60747e-05
r^d*u^f*_ccb_slot_index^index2:28897:0.000282789
n^d*o^d*_ccb_slot_index^index2:28900:1.60747e-05
e^d*i^g*_ccb_slot_index^index2:29210:1.60747e-05
Q^d*q^d*_ccb_slot_index^index2:29230:1.60747e-05
V^d*baction^d:29231:1.60747e-05
Caction^d*F^d:29270:1.60747e-05
V^d*j^d:29323:1.60747e-05
Action^fff*Action^fff*_ccb_slot_index^index0:29418:-0.0292915
G^d*g^d:29518:1.60747e-05
O^d*f^d:29539:1.60747e-05
(^ff*User^b*_ccb_slot_index^index0:29826:0.000558349
G^d*R^d:29863:1.60747e-05
e^d*v^d*_ccb_slot_index^index2:29910:1.60747e-05
action^d*x^d*_ccb_slot_index^index2:29973:1.60747e-05
j^d*u^f:30113:1.60747e-05
M^d*w^d*_ccb_slot_index^index2:30147:1.60747e-05
p^d*q^d:30172:1.60747e-05
R^d*q^d*_ccb_slot_index^index2:30222:1.60747e-05
P^d*action^d:30461:1.60747e-05
R^d*daction^d:30524:1.60747e-05
4^ff*8^ff*_ccb_slot_index^index0:30665:0.000558349
F^d*e^d:30702:1.60747e-05
L^d*Z^d:30704:1.60747e-05
4^ff*_ccb_slot_index^index0:30803:0.000558349
f^d*j:30842:1.60747e-05
&^ff*4^ff*_ccb_slot_index^index0:31010:0.000558349
h^d*n^d*_ccb_slot_index^index2:31329:1.60747e-05
daction^d*t^d*_ccb_slot_index^index2:31387:1.60747e-05
&^ff*8^ff*_ccb_slot_index^index0:31419:0.000558349
L^d*y^d*_ccb_slot_index^index2:31534:1.60747e-05
j^d*q^d*_ccb_slot_index^index2:31571:1.60747e-05
r^d*u^f:31589:0.000282789
!^ff*3^ff*_ccb_slot_index^index0:31800:0.000558349
l^d*p^d*_ccb_slot_index^index2:31952:1.60747e-05
%^ff*5^ff*_ccb_slot_index^index0:32042:0.000558349
daction^d:32083:1.60747e-05
caction^d*m^d:32173:1.60747e-05
Daction^d*f^d*_ccb_slot_index^index2:32288:1.60747e-05
User^c*Z^d:32333:0.000274316
baction^d*m^d:32384:1.60747e-05
O^d*Q^d:32423:1.60747e-05
Baction^d*q^d*_ccb_slot_index^index2:32457:1.60747e-05
N^d*v^d:32503:1.60747e-05
Slot^i*Slot^i:32658:0.00993682
!^ff*$^ff*_ccb_slot_index^index0:32690:0.000558349
User^b*n^d*_ccb_slot_index^index2:32703:1.60747e-05
Z^d*o^d*_ccb_slot_index^index2:32748:1.60747e-05
F^d*x^d:32758:1.60747e-05
H^d*P^d*_ccb_slot_index^index2:32855:1.60747e-05
Caction^d*o^d:32873:1.60747e-05
7^ff*_ccb_slot_index^index0:33022:0.000558349
J^d*g^d*_ccb_slot_index^index2:33041:1.60747e-05
R^d*t^d*_ccb_slot_index^index2:33101:0.000282789
Q^d*R^d*_ccb_slot_index^index2:33168:1.60747e-05
Z^d*caction^d:33241:1.60747e-05
m^d*s^d:33275:1.60747e-05
f^d*y^d*_ccb_slot_index^index2:33297:1.60747e-05
O^d*W^d*_ccb_slot_index^index2:33329:1.60747e-05
n^d*j:33379:1.60747e-05
R^d*v^d:33514:0.000282789
H^d*g^d*_ccb_slot_index^index2:33624:1.60747e-05
G^d*O^d*_ccb_slot_index^index2:33890:1.60747e-05
j^d*j^d*_ccb_slot_index^index2:33950:1.60747e-05
I^g*W^d*_ccb_slot_index^index2:34138:1.60747e-05
I^g*h^d:34162:1.60747e-05
O^d*daction^d*_ccb_slot_index^index2:34413:1.60747e-05
I^g*_ccb_slot_index^index2:34485:1.60747e-05
f^d*p^d*_ccb_slot_index^index2:34504:1.60747e-05
1^ff*3^ff*_ccb_slot_index^index0:34643:0.000558349
P^d*s^d:34696:1.60747e-05
W^d*x^d:34706:0.000282789
v^d:34949:0.000282789
s^d*v^d*_ccb_slot_index^index2:34982:0.000282789
V^d*l^d*_ccb_slot_index^index2:35000:1.60747e-05
User^b*j:35132:1.60747e-05
Ection^d*p^d*_ccb_slot_index^index2:35133:1.60747e-05
Q^d*l^d*_ccb_slot_index^index2:35180:1.60747e-05
I^g*L^d*_ccb_slot_index^index2:35189:1.60747e-05
M^d*o^d:35279:1.60747e-05
Action^d*J^d:35284:1.60747e-05
&^ff*1^ff:35323:0.000558349
w^d*y^d:35354:0.000282789
m^d*j*_ccb_slot_index^index2:35481:1.60747e-05
P^d*r^d*_ccb_slot_index^index2:35487:1.60747e-05
N^d*daction^d:35617:1.60747e-05
Ection^d*n^d:35742:1.60747e-05
J^d*L^d*_ccb_slot_index^index2:35887:1.60747e-05
Y^d*h^d:35927:1.60747e-05
Daction^d*_ccb_slot_index^index2:36101:1.60747e-05
t^d*w^d*_ccb_slot_index^index2:36404:0.000282789
Daction^d*h^d:36546:1.60747e-05
Baction^d*v^d*_ccb_slot_index^index2:36683:1.60747e-05
W^d*e^d:36746:1.60747e-05
Y^d*_ccb_slot_index^index2:36752:0.000282789
q^d*x^d*_ccb_slot_index^index2:36848:1.60747e-05
M^d*T^d*_ccb_slot_index^index2:36936:1.60747e-05
I^g*s^d*_ccb_slot_index^index2:37026:1.60747e-05
4^ff*9^ff*_ccb_slot_index^index0:37117:0.000558349
N^d*P^d*_ccb_slot_index^index2:37235:1.60747e-05
action^d*e^d*_ccb_slot_index^index2:37309:1.60747e-05
7^ff*User^b:37419:0.000558349
N^d*t^d*_ccb_slot_index^index2:37834:1.60747e-05
F^d*H^d*_ccb_slot_index^index2:37871:1.60747e-05
)^ff*1^ff:37883:0.000558349
l^d*s^d:37908:1.60747e-05
Q^d*p^d*_ccb_slot_index^index2:37924:1.60747e-05
L^d*T^d*_ccb_slot_index^index2:37971:1.60747e-05
T^d*User^c:37986:0.000274316
R^d*Z^d*_ccb_slot_index^index2:38021:0.000282789
o^d*p^d:38045:1.60747e-05
Y^d*baction^d*_ccb_slot_index^index2:38208:1.60747e-05
X^d*f^d:38268:1.60747e-05
H^d*x^d:38313:1.60747e-05
e^d*n^d*_ccb_slot_index^index2:38471:1.60747e-05
n^d*z^d:38478:1.60747e-05
(^ff*5^ff*_ccb_slot_index^index0:38571:0.000558349
Baction^d*P^d*_ccb_slot_index^index2:38643:1.60747e-05
R^d*s^d*_ccb_slot_index^index2:38702:0.000282789
M^d*User^b*_ccb_slot_index^index2:38714:1.60747e-05
caction^d:38747:1.60747e-05
j^d*_ccb_slot_index^index2:38750:1.60747e-05
Baction^d*User^b:38901:1.60747e-05
V^d*W^d*_ccb_slot_index^index2:38970:0.000282789
L^d*q^d:39321:1.60747e-05
r^d*_ccb_slot_index^index2:39322:0.000282789
8^ff:39384:0.000558349
Ection^d*Ection^d*_ccb_slot_index^index2:39646:1.60747e-05
F^d*o^d:39653:1.60747e-05
J^d*j^d:39689:1.60747e-05
Q^d*s^d*_ccb_slot_index^index2:39694:1.60747e-05
J^d*h^d*_ccb_slot_index^index2:39726:1.60747e-05
u^f*w^d:39735:0.000282789
3^ff*9^ff*_ccb_slot_index^index0:39789:0.000558349
User^b*X^d:39802:1.60747e-05
n^d*t^d*_ccb_slot_index^index2:39810:1.60747e-05
G^d*w^d:39830:1.60747e-05
J^d*baction^d:39853:1.60747e-05
Q^d*y^d*_ccb_slot_index^index2:39877:1.60747e-05
Ection^d*r^d:39948:1.60747e-05
User^c*Z^d*_ccb_slot_index^index2:39977:0.000274316
e^d*z^d*_ccb_slot_index^index2:40117:1.60747e-05
action^d*o^d*_ccb_slot_index^index2:40144:1.60747e-05
Z^d*baction^d*_ccb_slot_index^index2:40204:1.60747e-05
User^b*z^d:40209:1.60747e-05
R^d*caction^d:40244:1.60747e-05
User^b*W^d:40322:1.60747e-05
R^d*R^d*_ccb_slot_index^index2:40368:0.000282789
H^d*e^d:40369:1.60747e-05
Z^d*v^d:40455:0.000282789
g^d*q^d:40587:1.60747e-05
User^b*Y^d:40703:1.60747e-05
User^c*x^d*_ccb_slot_index^index2:40858:0.000274316
!^ff:40935:0.000558349
u^f*x^d:40996:0.000282789
G^d*x^d:41093:1.60747e-05
2^ff*User^b:41118:0.000558349
baction^d*n^d:41234:1.60747e-05
Baction^d*p^d:41251:1.60747e-05
daction^d*y^d*_ccb_slot_index^index2:41331:1.60747e-05
caction^d*n^d:41535:1.60747e-05
M^d*t^d*_ccb_slot_index^index2:41569:1.60747e-05
J^d*o^d*_ccb_slot_index^index2:41641:1.60747e-05
f^d*n^d*_ccb_slot_index^index2:41753:1.60747e-05
Baction^d*I^g*_ccb_slot_index^index2:41919:1.60747e-05
T^d*l^d:42066:1.60747e-05
J^d*Q^d*_ccb_slot_index^index2:42122:1.60747e-05
User^c*t^d:42197:0.000274316
!^ff*&^ff*_ccb_slot_index^index0:42230:0.000558349
T^d*T^d:42306:0.000282789
5^ff*8^ff*_ccb_slot_index^index0:42398:0.000560694
v^d*_ccb_slot_index^index2:42561:0.000282789
z^d*_ccb_slot_index^index2:42594:0.000282789
V^d*i^g*_ccb_slot_index^index2:42704:1.60747e-05
f^d*o^d*_ccb_slot_index^index2:42715:1.60747e-05
Daction^d*M^d*_ccb_slot_index^index2:42728:1.60747e-05
M^d*q^d*_ccb_slot_index^index2:42850:1.60747e-05
daction^d*j^d:42857:1.60747e-05
Caction^d*i^g:42908:1.60747e-05
Baction^d*g^d*_ccb_slot_index^index2:43124:1.60747e-05
G^d*e^d:43165:1.60747e-05
(^ff*_ccb_slot_index^index0:43173:0.000558349
P^d*Slot^h*_ccb_slot_index^index0:43304:1.60747e-05
Baction^d*H^d*_ccb_slot_index^index2:43382:1.60747e-05
Daction^d*R^d*_ccb_slot_index^index2:43636:1.60747e-05
g^d*t^d:43642:1.60747e-05
f^d*v^d:43718:1.60747e-05
F^d*R^d:43988:1.60747e-05
F^d*g^d:44093:1.60747e-05
Caction^d*T^d*_ccb_slot_index^index2:44098:1.60747e-05
N^d*j:44107:1.60747e-05
G^d*l^d*_ccb_slot_index^index2:44127:1.60747e-05
i^g*o^d*_ccb_slot_index^index2:44347:1.60747e-05
L^d*t^d:44392:1.60747e-05
I^g*daction^d*_ccb_slot_index^index2:44406:1.60747e-05
M^d*i^g:44602:1.60747e-05
User^b*daction^d:44630:1.60747e-05
M^d*m^d*_ccb_slot_index^index2:44667:1.60747e-05
H^d*w^d:44730:1.60747e-05
G^d*i^g*_ccb_slot_index^index2:44743:1.60747e-05
daction^d*p^d*_ccb_slot_index^index2:44790:1.60747e-05
H^d:44810:1.60747e-05
M^d*action^d*_ccb_slot_index^index2:45005:1.60747e-05
User^b*_ccb_slot_index^index1:45148:0.00488818
R^d*j^d*_ccb_slot_index^index2:45155:1.60747e-05
T^d*z^d*_ccb_slot_index^index2:45315:0.000282789
Action^d*i^g*_ccb_slot_index^index2:45372:1.60747e-05
Caction^d*R^d:45400:1.60747e-05
User^b*o^d*_ccb_slot_index^index2:45453:1.60747e-05
Slot^i*Slot^i*_ccb_slot_index^index1:45455:0.00993682
X^d*u^f:45580:0.000282789
2^ff*_ccb_slot_index^index0:45643:0.000558349
V^d*p^d:45722:1.60747e-05
baction^d*e^d*_ccb_slot_index^index2:45767:1.60747e-05
action^d*baction^d*_ccb_slot_index^index2:45872:1.60747e-05
3^ff*User^b*_ccb_slot_index^index0:46000:0.000558349
h^d*m^d*_ccb_slot_index^index2:46155:1.60747e-05
R^d*i^g*_ccb_slot_index^index2:46244:1.60747e-05
7^ff*9^ff*_ccb_slot_index^index0:46298:0.000558349
t^d*v^d*_ccb_slot_index^index2:46371:0.000282789
O^d*h^d:46379:1.60747e-05
$^ff*)^ff:46390:0.000558349
h^d*h^d:46402:1.60747e-05
Slot^i*User^b:46490:0.00488818
caction^d*r^d:46509:1.60747e-05
X^d*h^d*_ccb_slot_index^index2:46530:1.60747e-05
l^d*l^d*_ccb_slot_index^index2:46616:1.60747e-05
baction^d*r^d:46720:1.60747e-05
h^d*_ccb_slot_index^index2:46725:1.60747e-05
Caction^d*g^d:46769:1.60747e-05
O^d*_ccb_slot_index^index2:46828:1.60747e-05
User^c*User^c*_ccb_slot_index^index0:46836:-0.0351348
Caction^d*X^d*_ccb_slot_index^index2:46920:1.60747e-05
V^d*V^d*_ccb_slot_index^index2:47000:0.000282789
N^d*z^d:47206:1.60747e-05
J^d*f^d*_ccb_slot_index^index2:47254:1.60747e-05
)^ff*8^ff*_ccb_slot_index^index0:47291:0.000558349
N^d*W^d:47349:1.60747e-05
M^d*R^d:47358:1.60747e-05
h^d*z^d*_ccb_slot_index^index2:47363:1.60747e-05
P^d*X^d*_ccb_slot_index^index2:47366:1.60747e-05
(^ff*User^b:47728:0.000558349
i^g*x^d*_ccb_slot_index^index2:47746:1.60747e-05
X^d*s^d*_ccb_slot_index^index2:47816:0.000282789
User^b*s^d*_ccb_slot_index^index2:47888:1.60747e-05
Caction^d*daction^d*_ccb_slot_index^index2:48004:1.60747e-05
N^d*Y^d:48008:1.60747e-05
0^ff*5^ff:48178:0.000558349
W^d*w^d:48257:0.000282789
F^d*i^g:48400:1.60747e-05
!^ff*8^ff*_ccb_slot_index^index0:48405:0.000558349
o^d*v^d*_ccb_slot_index^index2:48501:1.60747e-05
N^d*X^d:48653:1.60747e-05
q^d*s^d:48754:1.60747e-05
M^d*g^d:48919:1.60747e-05
)^ff*4^ff*_ccb_slot_index^index0:48930:0.000558349
e^d*l^d:48980:1.60747e-05
Ection^d*u^f:49153:1.60747e-05
5^ff*_ccb_slot_index^index0:49166:0.000558349
Q^d*g^d:49171:1.60747e-05
O^d*m^d:49182:1.60747e-05
n^d*s^d*_ccb_slot_index^index2:49185:1.60747e-05
i^g*o^d:49255:1.60747e-05
h^d*m^d:49271:1.60747e-05
(^ff*3^ff*_ccb_slot_index^index0:49382:0.000558349
Action^d*o^d:49507:1.60747e-05
2^ff*2^ff*_ccb_slot_index^index0:49564:0.000558349
V^d*action^d:49729:1.60747e-05
w^d*_ccb_slot_index^index2:50002:0.000282789
action^d*g^d:50018:1.60747e-05
e^d*x^d:50058:1.60747e-05
8^ff*8^ff*_ccb_slot_index^index0:50082:0.000558349
f^d*z^d*_ccb_slot_index^index2:50155:1.60747e-05
User^c*W^d*_ccb_slot_index^index2:50218:0.000274316
Daction^d*y^d:50253:1.60747e-05
$^ff*Slot^h:50422:0.000558349
5^ff*Slot^h*_ccb_slot_index^index0:50429:0.000558349
W^d*m^d*_ccb_slot_index^index2:50517:1.60747e-05
J^d*M^d*_ccb_slot_index^index2:50558:1.60747e-05
Baction^d*Caction^d:50701:1.60747e-05
Caction^d*v^d*_ccb_slot_index^index2:50726:1.60747e-05
P^d*j^d:50743:1.60747e-05
Baction^d*action^d*_ccb_slot_index^index2:50806:1.60747e-05
P^d*baction^d:50835:1.60747e-05
G^d*N^d:50836:1.60747e-05
Y^d*action^d*_ccb_slot_index^index2:50898:1.60747e-05
Y^d*y^d:50904:0.000282789
q^d:50911:1.60747e-05
3^ff*8^ff:51081:0.000558349
Q^d*R^d:51194:1.60747e-05
L^d*caction^d:51229:1.60747e-05
6^ff*7^ff*_ccb_slot_index^index0:51270:0.000558349
M^d*daction^d*_ccb_slot_index^index2:51286:1.60747e-05
Caction^d*J^d:51422:1.60747e-05
%^ff*_ccb_slot_index^index0:51918:0.000558349
Action^d*action^d*_ccb_slot_index^index2:52105:1.60747e-05
e^d*e^d:52114:1.60747e-05
R^d*q^d:52400:1.60747e-05
M^d*P^d*_ccb_slot_index^index2:52524:1.60747e-05
User^c*Y^d*_ccb_slot_index^index2:52621:0.000274316
Action^d*u^f*_ccb_slot_index^index2:52716:1.60747e-05
baction^d*f^d:52733:1.60747e-05
X^d*p^d*_ccb_slot_index^index2:52842:1.60747e-05
P^d*u^f*_ccb_slot_index^index2:52924:1.60747e-05
caction^d*f^d:52944:1.60747e-05
I^g*y^d:53245:1.60747e-05
!^ff*2^ff:53254:0.000558349
Z^d*q^d:53341:1.60747e-05
f^d*t^d:53357:1.60747e-05
T^d*e^d:53396:1.60747e-05
g^d*v^d:53457:1.60747e-05
r^d*y^d:53458:0.000282789
Q^d*i^g:53566:1.60747e-05
Caction^d*G^d*_ccb_slot_index^index2:53583:1.60747e-05
Baction^d*action^d:53752:1.60747e-05
Baction^d*Q^d*_ccb_slot_index^index2:53755:1.60747e-05
action^d*i^g:53839:1.60747e-05
F^d*J^d:53842:1.60747e-05
p^d*u^f*_ccb_slot_index^index2:53976:1.60747e-05
5^ff*User^b:53979:0.000558349
X^d*g^d*_ccb_slot_index^index2:54077:1.60747e-05
W^d*f^d*_ccb_slot_index^index2:54370:1.60747e-05
Ection^d*User^b*_ccb_slot_index^index2:54715:1.60747e-05
Ection^d*z^d*_ccb_slot_index^index2:54786:1.60747e-05
N^d*f^d*_ccb_slot_index^index2:54855:1.60747e-05
4^ff*9^ff:54901:0.000558349
p^d*t^d*_ccb_slot_index^index2:54985:1.60747e-05
i^g*r^d*_ccb_slot_index^index2:55043:1.60747e-05
L^d*v^d:55235:1.60747e-05
%^ff*User^b:55323:0.000558349
T^d*x^d:55436:0.000282789
J^d*s^d:55990:1.60747e-05
User^b*User^b*_ccb_slot_index^index2:56120:1.60747e-05
G^d*action^d*_ccb_slot_index^index2:56150:1.60747e-05
User^b*p^d*_ccb_slot_index^index2:56226:1.60747e-05
Caction^d*Z^d*_ccb_slot_index^index2:56287:1.60747e-05
J^d*J^d*_ccb_slot_index^index2:56336:1.60747e-05
G^d*l^d:56411:1.60747e-05
e^d*y^d*_ccb_slot_index^index2:56463:1.60747e-05
e^d*p^d*_ccb_slot_index^index2:56506:1.60747e-05
I^g*N^d*_ccb_slot_index^index2:56649:1.60747e-05
G^d*T^d:56651:1.60747e-05
j^d*y^d:56854:1.60747e-05
F^d*u^f*_ccb_slot_index^index2:56862:1.60747e-05
User^c*v^d:56958:0.000274316
N^d*Z^d:57028:1.60747e-05
h^d*y^d*_ccb_slot_index^index2:57513:1.60747e-05
Action^fff*User^c*_ccb_slot_index^index0:57653:-0.0351348
baction^d*y^d*_ccb_slot_index^index2:57680:1.60747e-05
N^d*Z^d*_ccb_slot_index^index2:57746:1.60747e-05
j^d*m^d:57772:1.60747e-05
Daction^d*action^d*_ccb_slot_index^index2:57821:1.60747e-05
T^d*l^d*_ccb_slot_index^index2:57864:1.60747e-05
T^d*w^d:58271:0.000282789
Baction^d*G^d*_ccb_slot_index^index2:58338:1.60747e-05
X^d*r^d*_ccb_slot_index^index2:58509:0.000282789
f^d*q^d:58524:1.60747e-05
!^ff*(^ff*_ccb_slot_index^index0:58538:0.000558349
Z^d*t^d:58540:0.000282789
0^ff*8^ff*_ccb_slot_index^index0:58792:0.000558349
Baction^d*P^d:59007:1.60747e-05
m^d*p^d*_ccb_slot_index^index1:59030:1.60747e-05
daction^d*s^d:59094:1.60747e-05
Ection^d*f^d:59249:1.60747e-05
i^g*i^g:59282:1.60747e-05
J^d*O^d:59471:1.60747e-05
)^ff*4^ff:59472:0.000558349
H^d*T^d:59495:1.60747e-05
G^d*z^d*_ccb_slot_index^index2:59628:1.60747e-05
j^d*z^d*_ccb_slot_index^index2:59682:1.60747e-05
p^d*j:59706:1.60747e-05
G^d*caction^d*_ccb_slot_index^index2:59765:1.60747e-05
H^d*l^d:59767:1.60747e-05
caction^d*u^f:59808:1.60747e-05
4^ff*Slot^h:59944:0.000558349
baction^d*u^f:60045:1.60747e-05
Ection^d*Q^d:60085:1.60747e-05
Baction^d*u^f*_ccb_slot_index^index2:60663:1.60747e-05
baction^d*w^d*_ccb_slot_index^index2:60838:1.60747e-05
X^d*r^d:60929:0.000282789
L^d*f^d*_ccb_slot_index^index2:61035:1.60747e-05
i^g*y^d*_ccb_slot_index^index2:61041:1.60747e-05
0^ff*7^ff*_ccb_slot_index^index0:61140:0.000558349
v^d*y^d:61193:0.000282789
)^ff*3^ff:61248:0.000558349
M^d*e^d*_ccb_slot_index^index2:61330:1.60747e-05
I^g*m^d:61511:1.60747e-05
action^d*l^d*_ccb_slot_index^index2:61515:1.60747e-05
Action^d*R^d:61522:1.60747e-05
q^d*q^d*_ccb_slot_index^index2:61576:1.60747e-05
H^d*W^d*_ccb_slot_index^index2:61605:1.60747e-05
Action^d*z^d*_ccb_slot_index^index2:61719:1.60747e-05
t^d:61998:0.000282789
&^ff*4^ff:62032:0.000558349
W^d*j^d*_ccb_slot_index^index2:62337:1.60747e-05
H^d*N^d:62392:1.60747e-05
I^g*M^d:62530:1.60747e-05
H^d*X^d*_ccb_slot_index^index2:62669:2.27331e-05
&^ff*3^ff:62784:0.000558349
Baction^d*L^d*_ccb_slot_index^index2:62894:1.60747e-05
action^d*o^d:62906:1.60747e-05
Baction^d*l^d*_ccb_slot_index^index2:62975:1.60747e-05
Ection^d*action^d*_ccb_slot_index^index2:63040:1.60747e-05
Q^d*o^d:63179:1.60747e-05
Action^d*g^d:63419:1.60747e-05
1^ff*8^ff:63432:0.000558349
R^d*t^d:63553:0.000282789
e^d*w^d:63641:1.60747e-05
J^d*V^d:63648:1.60747e-05
$^ff*9^ff:63659:0.000558349
$^ff*8^ff*_ccb_slot_index^index0:63831:0.000558349
Y^d*m^d:63842:1.60747e-05
X^d*n^d:63891:1.60747e-05
H^d*j*_ccb_slot_index^index2:63899:1.60747e-05
(^ff:64013:0.000558349
W^d*l^d:64332:1.60747e-05
P^d*h^d*_ccb_slot_index^index2:64372:1.60747e-05
User^b*Z^d:64435:1.60747e-05
Daction^d*m^d:64503:1.60747e-05
W^d*j*_ccb_slot_index^index2:64746:0.000282789
p^d*z^d:64791:1.60747e-05
$^ff*4^ff*_ccb_slot_index^index0:64990:0.000558349
T^d*p^d*_ccb_slot_index^index2:65120:1.60747e-05
0^ff*0^ff:65444:0.000560694
h^d*y^d:65485:1.60747e-05
Daction^d*M^d:65522:1.60747e-05
n^d*v^d*_ccb_slot_index^index2:65555:1.60747e-05
P^d*Z^d:65601:1.60747e-05
Action^d*M^d:65678:1.60747e-05
Action^d*t^d*_ccb_slot_index^index2:65781:1.60747e-05
L^d*action^d:65868:1.60747e-05
G^d*f^d*_ccb_slot_index^index2:66215:1.60747e-05
&^ff*2^ff:66280:0.000558349
I^g*n^d*_ccb_slot_index^index2:66385:1.60747e-05
I^g*g^d:66423:1.60747e-05
0^ff*6^ff*_ccb_slot_index^index0:66424:0.000558349
T^d*r^d*_ccb_slot_index^index2:66635:0.000282789
Action^d*m^d:66699:1.60747e-05
I^g*R^d:66718:2.27331e-05
M^d*u^f*_ccb_slot_index^index2:66816:1.60747e-05
i^g*m^d:66959:1.60747e-05
h^d*o^d:66975:1.60747e-05
O^d*o^d:67062:1.60747e-05
H^d*f^d:67119:1.60747e-05
X^d*x^d:67322:0.000282789
Daction^d*e^d*_ccb_slot_index^index2:67426:1.60747e-05
Baction^d*v^d:67447:1.60747e-05
R^d*T^d*_ccb_slot_index^index2:67484:0.000282789
daction^d*z^d:67517:1.60747e-05
Ection^d*l^d:67625:1.60747e-05
Baction^d*J^d*_ccb_slot_index^index2:67661:1.60747e-05
J^d*daction^d:67738:1.60747e-05
Daction^d*g^d:67783:1.60747e-05
Caction^d*caction^d*_ccb_slot_index^index2:67868:1.60747e-05
Ection^d*T^d:67897:1.60747e-05
X^d*l^d*_ccb_slot_index^index2:68018:1.60747e-05
Y^d*g^d:68178:1.60747e-05
_ccb_slot_index^index0:68306:-0.029484
L^d*z^d*_ccb_slot_index^index2:68360:1.60747e-05
V^d*caction^d:68368:1.60747e-05
Q^d*Z^d*_ccb_slot_index^index2:68453:1.60747e-05
H^d*Q^d:68587:1.60747e-05
s^d*_ccb_slot_index^index2:68595:0.000282789
f^d*p^d:68754:1.60747e-05
Q^d*y^d:68761:1.60747e-05
F^d*I^g*_ccb_slot_index^index2:68774:1.60747e-05
Action^d*O^d*_ccb_slot_index^index2:68909:1.60747e-05
N^d*n^d*_ccb_slot_index^index2:69114:1.60747e-05
u^f*v^d*_ccb_slot_index^index2:69276:0.000282789
F^d*t^d*_ccb_slot_index^index2:69315:1.60747e-05
j^d*m^d*_ccb_slot_index^index2:69338:1.60747e-05
User^b*z^d*_ccb_slot_index^index2:69341:1.60747e-05
X^d*e^d:69346:1.60747e-05
F^d*y^d*_ccb_slot_index^index2:69387:1.60747e-05
M^d*z^d*_ccb_slot_index^index2:69395:1.60747e-05
User^c*z^d*_ccb_slot_index^index2:69411:0.000274316
Daction^d*R^d:69422:1.60747e-05
action^d*y^d:69608:1.60747e-05
Action^e*j*_ccb_slot_index^index2:69868:-0.0220853
p^d*r^d*_ccb_slot_index^index2:69923:1.60747e-05
M^d*x^d*_ccb_slot_index^index2:69962:1.60747e-05
I^g*i^g:70234:1.60747e-05
R^d*User^b:70248:1.60747e-05
Ection^d*N^d:70374:1.60747e-05
5^ff*5^ff*_ccb_slot_index^index0:70378:0.000558349
daction^d*j:70544:1.60747e-05
7^ff*8^ff:70644:0.000558349
W^d*f^d:70676:1.60747e-05
G^d*u^f:70771:1.60747e-05
V^d*v^d:70862:0.000282789
u^f*u^f:70866:0.000282789
j^d*x^d*_ccb_slot_index^index2:70891:1.60747e-05
Daction^d*W^d*_ccb_slot_index^index2:71306:1.60747e-05
Action^d*Z^d*_ccb_slot_index^index2:71453:1.60747e-05
1^ff*7^ff*_ccb_slot_index^index0:71566:0.000558349
e^d*w^d*_ccb_slot_index^index2:71621:1.60747e-05
User^b:71687:0.00201062
N^d*baction^d:71702:1.60747e-05
Baction^d*caction^d:71849:1.60747e-05
N^d*j^d:71858:1.60747e-05
)^ff*2^ff:71912:0.000558349
User^a*User^a*_ccb_slot_index^index0:72060:0.0151437
Daction^d*i^g:72170:1.60747e-05
baction^d*t^d*_ccb_slot_index^index2:72184:1.60747e-05
n^d*u^f*_ccb_slot_index^index2:72319:1.60747e-05
Action^fff*Action^fff*_ccb_slot_index^index1:72545:0.00488818
Y^d*i^g:72575:1.60747e-05
p^d*s^d:72828:1.60747e-05
X^d*f^d*_ccb_slot_index^index2:73002:1.60747e-05
caction^d*s^d*_ccb_slot_index^index2:73092:1.60747e-05
Action^d*v^d*_ccb_slot_index^index2:73176:1.60747e-05
P^d*action^d*_ccb_slot_index^index2:73561:1.60747e-05
$^ff*5^ff:73579:0.000558349
!^ff*4^ff:73918:0.000558349
Baction^d*H^d:73976:1.60747e-05
O^d*Z^d*_ccb_slot_index^index2:74002:1.60747e-05
i^g*p^d*_ccb_slot_index^index2:74024:1.60747e-05
2^ff*8^ff:74049:0.000558349
Daction^d*Z^d*_ccb_slot_index^index2:74057:1.60747e-05
H^d*u^f:74079:1.60747e-05
caction^d*l^d:74120:1.60747e-05
O^d*i^g:74243:1.60747e-05
h^d*i^g:74346:1.60747e-05
baction^d*l^d:74405:1.60747e-05
j^d*o^d:74820:1.60747e-05
I^g*y^d*_ccb_slot_index^index2:74841:1.60747e-05
Ection^d*j^d*_ccb_slot_index^index2:74878:1.60747e-05
W^d*X^d*_ccb_slot_index^index2:74896:0.000282789
R^d*p^d:74942:1.60747e-05
&^ff*7^ff*_ccb_slot_index^index0:74991:0.000558349
Caction^d*y^d*_ccb_slot_index^index2:75263:1.60747e-05
caction^d*n^d*_ccb_slot_index^index2:75315:1.60747e-05
Y^d*v^d*_ccb_slot_index^index2:75343:0.000282789
2^ff*4^ff*_ccb_slot_index^index0:75380:0.000558349
Action^d*W^d*_ccb_slot_index^index2:75454:1.60747e-05
5^ff*6^ff*_ccb_slot_index^index0:75534:0.000558349
!^ff*3^ff:75694:0.000558349
T^d*n^d:75749:1.60747e-05
G^d*j*_ccb_slot_index^index2:76079:1.60747e-05
P^d*Z^d*_ccb_slot_index^index2:76109:1.60747e-05
J^d*p^d*_ccb_slot_index^index2:76246:1.60747e-05
F^d*_ccb_slot_index^index2:76287:1.60747e-05
F^d*h^d:76344:1.60747e-05
V^d*j*_ccb_slot_index^index2:76392:0.000282789
j^d*j*_ccb_slot_index^index2:76645:1.60747e-05
e^d*r^d:76657:1.60747e-05
F^d*s^d*_ccb_slot_index^index2:76964:1.60747e-05
J^d*V^d*_ccb_slot_index^index2:77054:1.60747e-05
daction^d*s^d*_ccb_slot_index^index2:77308:1.60747e-05
e^d*r^d*_ccb_slot_index^index2:77309:1.60747e-05
p^d:77521:1.60747e-05
Ection^d*s^d*_ccb_slot_index^index2:77651:1.60747e-05
J^d*j:77808:1.60747e-05
Q^d*T^d*_ccb_slot_index^index1:77819:1.60747e-05
h^d*r^d*_ccb_slot_index^index1:77836:1.60747e-05
action^d*m^d:77906:1.60747e-05
T^d*r^d:77943:0.000282789
Caction^d*h^d:78004:1.60747e-05
F^d*T^d*_ccb_slot_index^index2:78134:1.60747e-05
4^ff*5^ff:78261:0.000558349
J^d*L^d:78507:1.60747e-05
3^ff*Slot^h*_ccb_slot_index^index0:78522:0.000558349
o^d*v^d:78537:1.60747e-05
G^d*f^d:78595:1.60747e-05
Q^d*m^d:78627:1.60747e-05
O^d*g^d:78638:1.60747e-05
W^d*u^f:78692:0.000282789
Caction^d*_ccb_slot_index^index2:78707:1.60747e-05
User^c*t^d*_ccb_slot_index^index2:78929:0.000274316
O^d*R^d:79047:1.60747e-05
daction^d*daction^d:79098:1.60747e-05
I^g*o^d:79279:1.60747e-05
R^d*User^c*_ccb_slot_index^index2:79420:0.000274316
L^d*P^d:79563:1.60747e-05
J^d*Y^d*_ccb_slot_index^index2:79703:1.60747e-05
R^d*caction^d*_ccb_slot_index^index2:79810:1.60747e-05
J^d*Y^d:79923:1.60747e-05
Z^d*p^d:79955:0.000560694
G^d*j^d*_ccb_slot_index^index2:80136:1.60747e-05
M^d*h^d:80146:1.60747e-05
Daction^d*v^d*_ccb_slot_index^index2:80292:1.60747e-05
%^ff*(^ff:80401:0.000558349
i^g*y^d:80437:1.60747e-05
action^d*q^d*_ccb_slot_index^index2:80557:1.60747e-05
M^d*_ccb_slot_index^index2:80597:1.60747e-05
N^d*w^d*_ccb_slot_index^index2:80604:1.60747e-05
Action^d*y^d:80689:1.60747e-05
Z^d*z^d*_ccb_slot_index^index2:80700:0.000282789
J^d*W^d:80718:1.60747e-05
baction^d*p^d*_ccb_slot_index^index2:80793:1.60747e-05
(^ff*8^ff:80815:0.000558349
p^d*y^d*_ccb_slot_index^index2:80849:1.60747e-05
J^d*z^d:80861:1.60747e-05
Y^d*o^d:81034:1.60747e-05
I^g*caction^d*_ccb_slot_index^index2:81102:1.60747e-05
e^d*n^d:81123:1.60747e-05
Q^d*action^d*_ccb_slot_index^index2:81153:1.60747e-05
User^b*baction^d:81249:1.60747e-05
J^d*X^d:81334:1.60747e-05
User^b*j^d:81349:1.60747e-05
X^d*w^d:81385:0.000282789
Daction^d*o^d:81439:1.60747e-05
H^d*z^d*_ccb_slot_index^index2:81536:1.60747e-05
p^d*p^d*_ccb_slot_index^index2:81544:1.60747e-05
G^d*Q^d:81607:1.60747e-05
Ection^d*O^d*_ccb_slot_index^index2:81804:1.60747e-05
Caction^d*M^d:82308:1.60747e-05
H^d*w^d*_ccb_slot_index^index2:82384:1.60747e-05
I^g*j^d*_ccb_slot_index^index2:82543:1.60747e-05
s^d*y^d:82619:0.000282789
H^d*n^d*_ccb_slot_index^index2:82782:1.60747e-05
Daction^d*baction^d*_ccb_slot_index^index2:83187:1.60747e-05
%^ff*8^ff*_ccb_slot_index^index0:83294:0.000558349
action^d*h^d:83303:1.60747e-05
Caction^d*m^d:83329:1.60747e-05
Q^d*_ccb_slot_index^index2:83409:1.60747e-05
X^d*z^d*_ccb_slot_index^index2:83429:0.000282789
Q^d*h^d:83478:1.60747e-05
3^ff*User^b:83542:0.000558349
M^d*r^d*_ccb_slot_index^index2:83579:1.60747e-05
action^d*_ccb_slot_index^index2:83616:1.60747e-05
L^d*User^b:83777:1.60747e-05
M^d*M^d:84002:1.60747e-05
o^d*t^d:84066:1.60747e-05
0^ff*5^ff*_ccb_slot_index^index0:84068:0.000558349
G^d*r^d:84094:1.60747e-05
Z^d*action^d:84104:1.60747e-05
Baction^d*q^d:84269:1.60747e-05
g^d*z^d*_ccb_slot_index^index2:84446:1.60747e-05
Caction^d:84479:1.60747e-05
Action^e*_ccb_slot_index^index2:84641:-0.0220853
L^d*caction^d*_ccb_slot_index^index2:84665:1.60747e-05
T^d*f^d:84746:1.60747e-05
q^d*j:84788:1.60747e-05
N^d*daction^d*_ccb_slot_index^index2:84973:1.60747e-05
M^d*m^d:85031:1.60747e-05
J^d*y^d*_ccb_slot_index^index2:85075:1.60747e-05
J^d*N^d*_ccb_slot_index^index2:85187:1.60747e-05
User^b*f^d*_ccb_slot_index^index2:85218:1.60747e-05
q^d*r^d*_ccb_slot_index^index2:85293:1.60747e-05
m^d*z^d*_ccb_slot_index^index2:85422:1.60747e-05
Ection^d*w^d:85988:1.60747e-05
e^d*f^d:86028:1.60747e-05
Baction^d*R^d*_ccb_slot_index^index2:86107:1.60747e-05
Daction^d*daction^d*_ccb_slot_index^index2:86342:1.60747e-05
Daction^d*P^d*_ccb_slot_index^index2:86588:1.60747e-05
Action^d*Baction^d:86753:2.27331e-05
5^ff*8^ff:86788:0.000558349
n^d*p^d*_ccb_slot_index^index2:86991:1.60747e-05
R^d*action^d:87141:1.60747e-05
o^d*q^d*_ccb_slot_index^index2:87159:1.60747e-05
3^ff*_ccb_slot_index^index0:87171:0.000558349
User^b*x^d*_ccb_slot_index^index2:87368:1.60747e-05
caction^d*e^d:87374:1.60747e-05
Action^d*Ection^d*_ccb_slot_index^index2:87387:1.60747e-05
P^d*daction^d:87460:1.60747e-05
baction^d*e^d:87651:1.60747e-05
User^b*i^g*_ccb_slot_index^index2:87810:1.60747e-05
e^d*u^f*_ccb_slot_index^index2:87850:1.60747e-05
daction^d*v^d*_ccb_slot_index^index2:87898:1.60747e-05
F^d*J^d*_ccb_slot_index^index2:88072:1.60747e-05
F^d*Z^d*_ccb_slot_index^index0:88103:1.60747e-05
0^ff*4^ff*_ccb_slot_index^index0:88181:0.000558349
(^ff*(^ff:88186:0.000558349
baction^d*baction^d*_ccb_slot_index^index2:88198:1.60747e-05
N^d*s^d:88333:1.60747e-05
%^ff*8^ff:88516:0.000558349
V^d*q^d:88724:1.60747e-05
F^d*M^d:88840:1.60747e-05
!^ff*1^ff:88853:0.000558349
M^d*baction^d*_ccb_slot_index^index2:88931:1.60747e-05
daction^d*r^d*_ccb_slot_index^index2:88961:1.60747e-05
0^ff*9^ff:89074:0.000558349
P^d*P^d*_ccb_slot_index^index2:89104:1.60747e-05
User^c*_ccb_slot_index^index0:89129:-0.0351348
$^ff*0^ff:89341:0.000558349
action^d*i^g*_ccb_slot_index^index2:89411:1.60747e-05
caction^d*x^d:89430:1.60747e-05
J^d*Z^d:89471:1.60747e-05
action^d*m^d*_ccb_slot_index^index2:89608:1.60747e-05
action^d:89610:1.60747e-05
W^d*o^d*_ccb_slot_index^index2:89613:1.60747e-05
User^b*V^d:89708:1.60747e-05
baction^d*x^d:89723:1.60747e-05
I^g*User^b*_ccb_slot_index^index2:89818:1.60747e-05
F^d*m^d:89869:1.60747e-05
q^d*z^d:89881:1.60747e-05
Caction^d*Y^d*_ccb_slot_index^index2:90027:1.60747e-05
G^d*n^d:90092:1.60747e-05
N^d*s^d*_ccb_slot_index^index2:90217:1.60747e-05
P^d*X^d:90248:2.27331e-05
m^d*z^d:90256:1.60747e-05
F^d*y^d:90295:1.60747e-05
Action^d*j^d*_ccb_slot_index^index2:90363:1.60747e-05
l^d*j:90450:1.60747e-05
N^d*X^d*_ccb_slot_index^index2:90473:1.60747e-05
V^d*u^f*_ccb_slot_index^index2:90496:0.000282789
daction^d*z^d*_ccb_slot_index^index2:90521:1.60747e-05
Y^d*l^d*_ccb_slot_index^index2:90587:1.60747e-05
Caction^d*R^d*_ccb_slot_index^index2:90774:1.60747e-05
H^d*R^d*_ccb_slot_index^index2:90831:1.60747e-05
Baction^d*Ection^d*_ccb_slot_index^index2:90888:1.60747e-05
Ection^d*F^d:91099:1.60747e-05
L^d*User^b*_ccb_slot_index^index2:91213:1.60747e-05
t^d*j:91219:0.000282789
1^ff*_ccb_slot_index^index0:91330:0.000558349
P^d*Y^d:91405:1.60747e-05
baction^d*w^d:91496:1.60747e-05
Slot^i*User^c*_ccb_slot_index^index1:91701:0.00608797
caction^d*w^d:91717:1.60747e-05
P^d*W^d:91760:1.60747e-05
N^d*W^d*_ccb_slot_index^index2:91825:1.60747e-05
7^ff*7^ff*_ccb_slot_index^index0:91850:0.000558349
P^d*z^d:91875:1.60747e-05
o^d*x^d*_ccb_slot_index^index2:91999:1.60747e-05
0^ff*Slot^h:92079:0.000558349
Baction^d*n^d*_ccb_slot_index^index2:92282:1.60747e-05
Action^d*V^d*_ccb_slot_index^index2:92436:1.60747e-05
p^d*j*_ccb_slot_index^index2:92496:1.60747e-05
Ection^d*Z^d*_ccb_slot_index^index2:92540:1.60747e-05
P^d:92557:1.60747e-05
H^d*n^d:92864:1.60747e-05
F^d*g^d*_ccb_slot_index^index2:92953:1.60747e-05
N^d*O^d:93172:1.60747e-05
T^d*u^f:93306:0.000282789
baction^d*m^d*_ccb_slot_index^index2:93342:1.60747e-05
!^ff*%^ff*_ccb_slot_index^index0:93521:0.000558349
action^d*caction^d*_ccb_slot_index^index2:93537:1.60747e-05
O^d*O^d*_ccb_slot_index^index2:93570:1.60747e-05
V^d*t^d:93797:0.000282789
n^d*w^d*_ccb_slot_index^index2:93924:1.60747e-05
v^d*w^d*_ccb_slot_index^index2:94047:0.000282789
W^d*r^d:94057:0.000282789
Ection^d*x^d*_ccb_slot_index^index2:94155:1.60747e-05
T^d*V^d*_ccb_slot_index^index2:94184:0.000282789
Action^fff*_ccb_slot_index^index0:94198:-0.0292915
Y^d*g^d*_ccb_slot_index^index2:94216:1.60747e-05
t^d*z^d:94334:0.000282789
L^d*p^d:94615:1.60747e-05
Action^d*h^d:94654:1.60747e-05
Q^d*x^d*_ccb_slot_index^index2:94742:1.60747e-05
Action^d*_ccb_slot_index^index2:94841:1.60747e-05
P^d*j:94926:1.60747e-05
Baction^d*s^d*_ccb_slot_index^index2:94953:1.60747e-05
f^d*r^d*_ccb_slot_index^index2:95075:1.60747e-05
i^g*_ccb_slot_index^index2:95101:1.60747e-05
P^d*w^d*_ccb_slot_index^index2:95127:1.60747e-05
M^d*y^d:95133:1.60747e-05
m^d*j:95421:1.60747e-05
Ection^d*x^d:95479:1.60747e-05
N^d*j*_ccb_slot_index^index2:95503:1.60747e-05
X^d*Y^d*_ccb_slot_index^index2:95531:0.000282789
l^d*z^d:95615:1.60747e-05
$^ff*$^ff:95706:0.000558349
1^ff*User^b:95767:0.000558349
g^d*p^d:95877:1.60747e-05
Daction^d*J^d:95912:1.60747e-05
n^d*s^d:96037:1.60747e-05
e^d*u^f:96124:1.60747e-05
H^d*Z^d*_ccb_slot_index^index2:96134:1.60747e-05
$^ff*3^ff*_ccb_slot_index^index0:96238:0.000558349
N^d*Y^d*_ccb_slot_index^index2:96262:1.60747e-05
!^ff*Slot^h*_ccb_slot_index^index0:96310:0.000558349
!^ff*%^ff:96337:0.000558349
M^d*R^d*_ccb_slot_index^index2:96452:1.60747e-05
W^d*n^d:96507:1.60747e-05
Baction^d*User^b*_ccb_slot_index^index2:96689:1.60747e-05
X^d*l^d:96804:1.60747e-05
Caction^d*y^d:96827:1.60747e-05
)^ff*7^ff*_ccb_slot_index^index0:97007:0.000558349
N^d*V^d:97051:1.60747e-05
F^d*f^d*_ccb_slot_index^index2:97102:1.60747e-05
User^b*s^d:97402:1.60747e-05
o^d*q^d:97427:1.60747e-05
Ection^d*e^d:97519:1.60747e-05
I^g*J^d:97560:1.60747e-05
Action^fff*User^b:97571:0.00488818
H^d*r^d:97618:1.60747e-05
f^d*g^d*_ccb_slot_index^index2:97619:1.60747e-05
Baction^d*t^d:97756:1.60747e-05
G^d*u^f*_ccb_slot_index^index2:97815:1.60747e-05
J^d*l^d*_ccb_slot_index^index2:98078:1.60747e-05
$^ff*5^ff*_ccb_slot_index^index0:98211:0.000558349
Q^d*f^d:98398:1.60747e-05
G^d*m^d:98430:1.60747e-05
F^d*n^d:98463:1.60747e-05
Caction^d*f^d*_ccb_slot_index^index2:98730:1.60747e-05
Slot^i*User^b*_ccb_slot_index^index1:98871:0.00488818
q^d*s^d*_ccb_slot_index^index2:98920:1.60747e-05
R^d*z^d*_ccb_slot_index^index2:99007:0.000282789
%^ff*5^ff:99112:0.000558349
action^d*f^d:99119:1.60747e-05
User^b*m^d*_ccb_slot_index^index2:99285:1.60747e-05
M^d*r^d:99367:1.60747e-05
Daction^d*i^g*_ccb_slot_index^index2:99392:1.60747e-05
G^d*M^d:99451:1.60747e-05
User^c*s^d*_ccb_slot_index^index2:99794:0.000274316
caction^d*l^d*_ccb_slot_index^index2:99846:1.60747e-05
Z^d*s^d*_ccb_slot_index^index2:99929:0.000282789
I^g:99977:1.60747e-05
(^ff*1^ff*_ccb_slot_index^index0:99991:0.000558349
Ection^d*n^d*_ccb_slot_index^index2:100004:1.60747e-05
R^d*V^d:100102:0.000282789
J^d*t^d:100327:1.60747e-05
Baction^d*Ection^d:100690:1.60747e-05
Action^d:100701:1.60747e-05
Baction^d*Caction^d*_ccb_slot_index^index2:100713:1.60747e-05
u^f*u^f*_ccb_slot_index^index2:100744:0.000282789
5^ff*5^ff:100840:0.000558349
caction^d*u^f*_ccb_slot_index^index2:100862:1.60747e-05
H^d*y^d:101096:1.60747e-05
Slot^h*User^c*_ccb_slot_index^index0:101156:-0.0351348
L^d*N^d*_ccb_slot_index^index2:101342:1.60747e-05
9^ff*User^b*_ccb_slot_index^index0:101459:0.000558349
$^ff*$^ff*_ccb_slot_index^index0:101628:0.000558349
User^b*action^d:101647:1.60747e-05
f^d*s^d:101692:1.60747e-05
T^d*h^d:101698:1.60747e-05
V^d:101737:0.000282789
Caction^d*r^d:101761:1.60747e-05
f^d*f^d*_ccb_slot_index^index2:101768:1.60747e-05
Q^d*Q^d:101786:1.60747e-05
baction^d*g^d:101808:1.60747e-05
T^d*_ccb_slot_index^index2:102021:0.000282789
caction^d*g^d:102045:1.60747e-05
)^ff*6^ff:102051:0.000558349
M^d*v^d*_ccb_slot_index^index2:102100:1.60747e-05
i^g*m^d*_ccb_slot_index^index2:102147:1.60747e-05
Action^d*Daction^d:102206:1.60747e-05
V^d*v^d*_ccb_slot_index^index2:102228:0.000282789
daction^d*q^d:102262:1.60747e-05
Action^d*u^f:102534:1.60747e-05
Action^d*M^d*_ccb_slot_index^index2:102548:1.60747e-05
i^g*u^f:102786:1.60747e-05
N^d*v^d*_ccb_slot_index^index2:102859:1.60747e-05
Ection^d*o^d:102884:1.60747e-05
i^g*w^d*_ccb_slot_index^index2:103227:1.60747e-05
M^d*n^d:103349:1.60747e-05
N^d*h^d*_ccb_slot_index^index2:103471:1.60747e-05
daction^d*l^d*_ccb_slot_index^index2:103486:1.60747e-05
Daction^d*X^d*_ccb_slot_index^index2:103538:1.60747e-05
&^ff*6^ff:103587:0.000558349
w^d*x^d:103771:0.000282789
Baction^d*w^d*_ccb_slot_index^index2:103772:1.60747e-05
e^d*_ccb_slot_index^index2:103811:1.60747e-05
Caction^d*i^g*_ccb_slot_index^index2:103818:1.60747e-05
X^d*X^d*_ccb_slot_index^index2:103880:0.000282789
R^d*action^d*_ccb_slot_index^index2:103905:1.60747e-05
4^ff*Slot^h*_ccb_slot_index^index0:103978:0.000558349
e^d*h^d:104004:1.60747e-05
h^d*o^d*_ccb_slot_index^index2:104019:1.60747e-05
F^d*r^d:104205:1.60747e-05
O^d*j*_ccb_slot_index^index2:104335:1.60747e-05
Ection^d*l^d*_ccb_slot_index^index2:104341:1.60747e-05
p^d*s^d*_ccb_slot_index^index2:104490:1.60747e-05
caction^d*daction^d*_ccb_slot_index^index2:104520:1.60747e-05
l^d*t^d*_ccb_slot_index^index2:104577:1.60747e-05
Slot^h:104617:-0.029484
W^d*y^d:104659:0.000282789
m^d*u^f*_ccb_slot_index^index2:104673:1.60747e-05
F^d*o^d*_ccb_slot_index^index2:104801:1.60747e-05
q^d*v^d:104840:1.60747e-05
Caction^d*n^d:104979:1.60747e-05
g^d*m^d*_ccb_slot_index^index2:105398:1.60747e-05
O^d*l^d:105531:1.60747e-05
h^d*l^d:105554:1.60747e-05
X^d*m^d*_ccb_slot_index^index2:105613:1.60747e-05
baction^d*i^g:105629:1.60747e-05
Daction^d*x^d*_ccb_slot_index^index2:105722:1.60747e-05
User^a*i^g:105760:1.60747e-05
O^d*T^d:105771:1.60747e-05
W^d*Z^d*_ccb_slot_index^index2:105815:0.000282789
O^d:105862:1.60747e-05
l^d*r^d*_ccb_slot_index^index2:105883:1.60747e-05
n^d*n^d*_ccb_slot_index^index2:105906:1.60747e-05
p^d*p^d:105938:1.60747e-05
g^d*j*_ccb_slot_index^index2:106121:1.60747e-05
caction^d*i^g:106416:1.60747e-05
Daction^d*w^d*_ccb_slot_index^index2:106451:1.60747e-05
N^d*P^d:106495:1.60747e-05
P^d*v^d:106610:1.60747e-05
V^d*x^d*_ccb_slot_index^index2:106698:0.000282789
Ection^d*R^d:106709:1.60747e-05
(^ff*Slot^h*_ccb_slot_index^index0:106920:0.000558349
P^d*m^d*_ccb_slot_index^index2:107167:1.60747e-05
(^ff*0^ff:107221:0.000558349
X^d*j*_ccb_slot_index^index2:107426:0.000282789
I^g*J^d*_ccb_slot_index^index2:107478:1.60747e-05
action^d*u^f:107615:1.60747e-05
9^ff:107764:0.000558349
R^d*s^d:107792:0.000282789
Y^d*l^d:107847:1.60747e-05
V^d*Z^d*_ccb_slot_index^index2:107865:0.000282789
m^d*v^d:108033:1.60747e-05
$^ff*(^ff:108114:0.000558349
h^d*p^d*_ccb_slot_index^index2:108128:1.60747e-05
X^d*q^d*_ccb_slot_index^index2:108200:1.60747e-05
Daction^d*T^d:108226:1.60747e-05
Q^d*u^f:108334:1.60747e-05
Ection^d*g^d:108348:1.60747e-05
Baction^d*Z^d:108356:1.60747e-05
Action^d*n^d*_ccb_slot_index^index2:108357:1.60747e-05
W^d*m^d:108393:1.60747e-05
Daction^d*l^d:108498:1.60747e-05
N^d*action^d:108664:1.60747e-05
Z^d*g^d*_ccb_slot_index^index2:108772:1.60747e-05
W^d*u^f*_ccb_slot_index^index2:108914:0.000282789
r^d*w^d*_ccb_slot_index^index2:109214:0.000282789
)^ff*3^ff*_ccb_slot_index^index0:109330:0.000558349
Caction^d*baction^d*_ccb_slot_index^index2:109365:1.60747e-05
N^d*T^d*_ccb_slot_index^index2:109615:1.60747e-05
I^g*l^d:109666:1.60747e-05
Baction^d*G^d:109716:1.60747e-05
I^g*i^g*_ccb_slot_index^index2:109744:1.60747e-05
I^g*T^d:109938:1.60747e-05
w^d*w^d:110152:0.000282789
f^d*q^d*_ccb_slot_index^index2:110218:1.60747e-05
s^d:110463:0.000282789
R^d*X^d*_ccb_slot_index^index2:110638:0.000282789
daction^d*o^d*_ccb_slot_index^index2:110665:1.60747e-05
L^d*baction^d:110882:1.60747e-05
H^d*M^d:110935:1.60747e-05
caction^d*w^d*_ccb_slot_index^index2:110977:1.60747e-05
L^d*j^d:110982:1.60747e-05
Caction^d*F^d*_ccb_slot_index^index2:111228:1.60747e-05
J^d*q^d:111382:1.60747e-05
l^d*v^d:111598:1.60747e-05
L^d*u^f*_ccb_slot_index^index2:111611:1.60747e-05
Action^d*s^d*_ccb_slot_index^index2:111830:1.60747e-05
V^d*Z^d:111869:0.000282789
2^ff*9^ff*_ccb_slot_index^index0:111941:0.000558349
H^d*m^d:111954:1.60747e-05
Z^d*t^d*_ccb_slot_index^index2:112090:0.000282789
Ection^d*i^g:112145:1.60747e-05
y^d*_ccb_slot_index^index2:112252:0.000282789
g^d*j^d:112276:1.60747e-05
R^d*User^b*_ccb_slot_index^index2:112294:1.60747e-05
I^g*N^d:112301:1.60747e-05
t^d*v^d:112367:0.000282789
Action^fff*Slot^i:112427:0.00488818
Action^d*f^d:112630:1.60747e-05
caction^d*o^d:112709:1.60747e-05
Ection^d*P^d*_ccb_slot_index^index2:112777:1.60747e-05
6^ff*6^ff:113104:0.000558349
l^d*z^d*_ccb_slot_index^index2:113139:1.60747e-05
Z^d*s^d:113149:0.000282789
Action^d*Q^d:113202:1.60747e-05
baction^d*o^d:113512:1.60747e-05
daction^d*t^d:113543:1.60747e-05
l^d*o^d*_ccb_slot_index^index2:113827:1.60747e-05
User^b*W^d*_ccb_slot_index^index2:113848:1.60747e-05
Daction^d*N^d:113949:1.60747e-05
j^d*l^d:114057:1.60747e-05
L^d*W^d*_ccb_slot_index^index2:114125:1.60747e-05
Y^d*q^d*_ccb_slot_index^index2:114333:1.60747e-05
u^f*y^d:114533:0.000282789
s^d*x^d*_ccb_slot_index^index2:114576:0.000282789
w^d*z^d*_ccb_slot_index^index2:114582:0.000282789
P^d*caction^d:114604:1.60747e-05
G^d*y^d:114628:1.60747e-05
H^d*h^d:114791:1.60747e-05
%^ff*0^ff:114878:0.000558349
daction^d*v^d:114988:1.60747e-05
j^d*x^d:115031:1.60747e-05
R^d*V^d*_ccb_slot_index^index2:115052:0.000282789
Baction^d*W^d:115061:1.60747e-05
Baction^d*j*_ccb_slot_index^index2:115087:1.60747e-05
Baction^d*z^d:115174:1.60747e-05
Baction^d*Y^d:115208:1.60747e-05
e^d*h^d*_ccb_slot_index^index2:115218:1.60747e-05
r^d*j*_ccb_slot_index^index2:115353:0.000282789
G^d*M^d*_ccb_slot_index^index2:115391:1.60747e-05
L^d*O^d:115392:1.60747e-05
H^d*_ccb_slot_index^index2:115616:1.60747e-05
n^d*y^d*_ccb_slot_index^index2:115706:1.60747e-05
L^d*R^d*_ccb_slot_index^index2:115735:1.60747e-05
X^d*i^g:115740:1.60747e-05
Baction^d*W^d*_ccb_slot_index^index2:115761:1.60747e-05
Q^d*V^d*_ccb_slot_index^index2:116044:1.60747e-05
daction^d*j^d*_ccb_slot_index^index2:116053:1.60747e-05
Constant:116060:-0.0449134
Baction^d*x^d*_ccb_slot_index^index2:116065:1.60747e-05
$^ff*8^ff:116103:0.000558349
Baction^d*r^d*_ccb_slot_index^index2:116260:1.60747e-05
V^d*j:116338:0.000282789
3^ff*Slot^h:116472:0.000558349
Baction^d*X^d:116621:1.60747e-05
H^d*u^f*_ccb_slot_index^index2:116627:1.60747e-05
T^d*y^d:116685:0.000282789
Baction^d*L^d:116880:1.60747e-05
l^d*t^d:117061:1.60747e-05
H^d*l^d*_ccb_slot_index^index2:117067:1.60747e-05
1^ff*9^ff:117476:0.000558349
M^d*n^d*_ccb_slot_index^index2:117489:1.60747e-05
F^d*u^f:117504:1.60747e-05
User^b*User^b:117506:0.00201062
Daction^d*O^d*_ccb_slot_index^index2:117561:1.60747e-05
v^d*w^d:117595:0.000282789
Daction^d*F^d:117792:1.60747e-05
t^d*t^d:117828:0.000282789
f^d*j^d:117891:1.60747e-05
P^d*t^d*_ccb_slot_index^index2:117893:1.60747e-05
Action^d*r^d:117899:1.60747e-05
e^d*j*_ccb_slot_index^index2:118066:1.60747e-05
I^g*o^d*_ccb_slot_index^index2:118115:1.60747e-05
i^g*r^d:118159:1.60747e-05
User^a*j*_ccb_slot_index^index2:118310:-0.0220853
Caction^d*Daction^d:118324:1.60747e-05
caction^d*g^d*_ccb_slot_index^index2:118329:1.60747e-05
daction^d*w^d*_ccb_slot_index^index2:118345:1.60747e-05
Action^d*H^d*_ccb_slot_index^index2:118409:1.60747e-05
Slot^i*_ccb_slot_index^index1:118468:0.00993682
Q^d*m^d*_ccb_slot_index^index2:118535:1.60747e-05
r^d*x^d:118675:0.000282789
Y^d*w^d*_ccb_slot_index^index2:118816:0.000282789
6^ff*8^ff*_ccb_slot_index^index0:118898:0.000558349
User^b*baction^d*_ccb_slot_index^index2:118957:1.60747e-05
I^g*x^d:118972:1.60747e-05
User^b*caction^d*_ccb_slot_index^index2:119012:1.60747e-05
Y^d*e^d:119169:1.60747e-05
Caction^d*u^f:119180:1.60747e-05
W^d*_ccb_slot_index^index2:119195:0.000282789
caction^d*q^d*_ccb_slot_index^index2:119204:1.60747e-05
V^d*Y^d:119217:0.000282789
Slot^i:119311:0.00993682
L^d*V^d:119343:1.60747e-05
W^d*h^d:119388:1.60747e-05
V^d*z^d:119391:0.000282789
2^ff*User^b*_ccb_slot_index^index0:119400:0.000558349
L^d*m^d*_ccb_slot_index^index2:119424:1.60747e-05
V^d*W^d:119500:0.000282789
Daction^d*e^d:119572:1.60747e-05
Daction^d*j^d*_ccb_slot_index^index2:119775:1.60747e-05
V^d*X^d:119860:0.000282789
V^d*y^d*_ccb_slot_index^index2:119993:0.000282789
Caction^d*Daction^d*_ccb_slot_index^index2:120002:1.60747e-05
w^d*j*_ccb_slot_index^index2:120113:0.000289307
Q^d*n^d*_ccb_slot_index^index2:120253:1.60747e-05
Baction^d*j:120267:1.60747e-05
H^d*x^d*_ccb_slot_index^index2:120341:1.60747e-05
F^d*action^d*_ccb_slot_index^index2:120559:1.60747e-05
Action^d*l^d*_ccb_slot_index^index2:120564:1.60747e-05
h^d*j*_ccb_slot_index^index2:120600:1.60747e-05
P^d*l^d*_ccb_slot_index^index2:120708:1.60747e-05
W^d*l^d*_ccb_slot_index^index2:120762:1.60747e-05
Caction^d*g^d*_ccb_slot_index^index2:120765:1.60747e-05
q^d*q^d:120786:1.60747e-05
M^d*u^f:120874:1.60747e-05
N^d*p^d:120995:1.60747e-05
I^g*e^d:120996:1.60747e-05
I^g*x^d*_ccb_slot_index^index2:121066:1.60747e-05
Ection^d*J^d:121171:1.60747e-05
Ection^d*I^g*_ccb_slot_index^index2:121173:1.60747e-05
Y^d*x^d:121241:0.000282789
$^ff*(^ff*_ccb_slot_index^index0:121284:0.000558349
User^b*_ccb_slot_index^index0:121303:0.000558349
i^g*n^d:121373:1.60747e-05
P^d*t^d:121561:1.60747e-05
Daction^d*x^d:121612:1.60747e-05
Action^d*n^d:121625:1.60747e-05
W^d*p^d*_ccb_slot_index^index2:121634:1.60747e-05
Ection^d*q^d*_ccb_slot_index^index2:121651:1.60747e-05
W^d*y^d*_ccb_slot_index^index2:121655:0.000282789
User^c*V^d:121746:0.000274316
h^d*w^d:121759:1.60747e-05
O^d*w^d:121846:1.60747e-05
action^d*g^d*_ccb_slot_index^index2:121944:1.60747e-05
P^d*v^d*_ccb_slot_index^index2:121960:1.60747e-05
m^d*t^d:122026:1.60747e-05
e^d*y^d:122059:1.60747e-05
e^d*s^d*_ccb_slot_index^index2:122328:1.60747e-05
$^ff*7^ff*_ccb_slot_index^index0:122355:0.000558349
O^d*g^d*_ccb_slot_index^index2:122484:1.60747e-05
Y^d*Z^d*_ccb_slot_index^index2:122678:0.000282789
User^c*User^c*_ccb_slot_index^index1:122751:0.00608797
Q^d*User^b*_ccb_slot_index^index2:122822:1.60747e-05
!^ff*7^ff:122881:0.000558349
Daction^d*w^d:122911:1.60747e-05
Q^d*e^d*_ccb_slot_index^index2:122974:1.60747e-05
o^d*j:122997:1.60747e-05
h^d*x^d:123020:1.60747e-05
O^d*x^d:123109:1.60747e-05
V^d*daction^d:123160:1.60747e-05
(^ff*5^ff:123203:0.000558349
F^d*Q^d:123316:1.60747e-05
Z^d*w^d*_ccb_slot_index^index2:123372:0.000282789
Y^d*w^d:123530:0.000282789
J^d*caction^d:123538:1.60747e-05
g^d*g^d*_ccb_slot_index^index2:123654:1.60747e-05
O^d*p^d*_ccb_slot_index^index2:123655:1.60747e-05
q^d*t^d:123683:2.27331e-05
Action^d*P^d*_ccb_slot_index^index2:123712:1.60747e-05
e^d*m^d:123761:1.60747e-05
X^d*o^d:123881:1.60747e-05
R^d*baction^d:123915:1.60747e-05
Caction^d*h^d*_ccb_slot_index^index2:123970:1.60747e-05
R^d*j^d:124079:1.60747e-05
J^d*caction^d*_ccb_slot_index^index2:124104:1.60747e-05
H^d*N^d*_ccb_slot_index^index2:124342:1.60747e-05
Z^d*p^d*_ccb_slot_index^index2:124343:1.60747e-05
I^g*baction^d*_ccb_slot_index^index2:124355:1.60747e-05
n^d*r^d*_ccb_slot_index^index2:124572:1.60747e-05
g^d*o^d*_ccb_slot_index^index2:124654:1.60747e-05
W^d*daction^d*_ccb_slot_index^index2:124668:1.60747e-05
0^ff*User^b:124673:0.000558349
&^ff*User^b*_ccb_slot_index^index0:124790:0.000558349
H^d*v^d*_ccb_slot_index^index2:124927:1.60747e-05
m^d*q^d:125019:1.60747e-05
L^d*v^d*_ccb_slot_index^index2:125159:1.60747e-05
O^d*e^d:125181:1.60747e-05
s^d*u^f:125196:0.000282789
2^ff*6^ff*_ccb_slot_index^index0:125233:0.000558349
Action^e*Slot^i*_ccb_slot_index^index1:125257:0.00608797
)^ff:125289:0.000558349
o^d*z^d*_ccb_slot_index^index2:125334:1.60747e-05
R^d*x^d*_ccb_slot_index^index2:125686:0.000282789
User^b*V^d*_ccb_slot_index^index2:125722:1.60747e-05
4^ff*8^ff:125785:0.000558349
I^g*w^d:125871:1.60747e-05
F^d*f^d:126064:1.60747e-05
F^d*p^d*_ccb_slot_index^index2:126094:1.60747e-05
Q^d*n^d:126129:1.60747e-05
1^ff*User^b*_ccb_slot_index^index0:126183:0.000558349
W^d*v^d*_ccb_slot_index^index2:126238:0.000282789
G^d*R^d*_ccb_slot_index^index2:126459:1.60747e-05
P^d*q^d:126504:1.60747e-05
baction^d:126564:1.60747e-05
N^d*User^b:126581:1.60747e-05
j^d:126656:1.60747e-05
action^d*n^d:126912:1.60747e-05
Caction^d*x^d*_ccb_slot_index^index2:126992:1.60747e-05
L^d*s^d:127033:1.60747e-05
v^d*x^d:127048:0.000282789
V^d*baction^d*_ccb_slot_index^index2:127203:1.60747e-05
M^d*Q^d:127646:1.60747e-05
Baction^d*daction^d:127649:1.60747e-05
(^ff*4^ff*_ccb_slot_index^index0:127702:0.000558349
g^d*x^d*_ccb_slot_index^index2:127847:1.60747e-05
o^d*z^d:128088:1.60747e-05
r^d*w^d:128128:0.000282789
baction^d*x^d*_ccb_slot_index^index2:128191:1.60747e-05
G^d*h^d:128331:1.60747e-05
P^d*j*_ccb_slot_index^index2:128340:1.60747e-05
0^ff*_ccb_slot_index^index0:128468:0.000558349
u^f*_ccb_slot_index^index2:128557:0.000282789
&^ff*6^ff*_ccb_slot_index^index0:128587:0.000558349
n^d*p^d:128651:1.60747e-05
G^d*_ccb_slot_index^index2:128652:1.60747e-05
1^ff*Slot^h:128697:0.000558349
Caction^d*f^d:128764:1.60747e-05
X^d*i^g*_ccb_slot_index^index2:128778:1.60747e-05
g^d*s^d:128811:1.60747e-05
Slot^h*Slot^h*_ccb_slot_index^index0:128980:-0.029484
Action^d*j*_ccb_slot_index^index2:128996:1.60747e-05
1^ff*1^ff*_ccb_slot_index^index0:129074:0.000558349
Z^d*j^d:129090:1.60747e-05
action^d*r^d:129106:1.60747e-05
T^d*m^d:129143:1.60747e-05
r^d*t^d*_ccb_slot_index^index2:129152:0.000282789
Z^d*baction^d:129254:1.60747e-05
3^ff*7^ff*_ccb_slot_index^index0:129405:0.000558349
User^c*s^d:129412:0.000274316
j^d*w^d:129604:1.60747e-05
3^ff*9^ff:129701:0.000558349
i^g*q^d*_ccb_slot_index^index2:129770:1.60747e-05
Q^d*r^d:129827:1.60747e-05
Caction^d*Q^d:129848:1.60747e-05
6^ff*Slot^h*_ccb_slot_index^index0:129937:0.000558349
2^ff*5^ff:129965:0.000558349
R^d*daction^d*_ccb_slot_index^index2:130154:1.60747e-05
W^d*baction^d*_ccb_slot_index^index2:130349:1.60747e-05
I^g*t^d*_ccb_slot_index^index2:130369:1.60747e-05
J^d*v^d:130380:1.60747e-05
I^g*action^d*_ccb_slot_index^index2:130413:1.60747e-05
Daction^d*Ection^d*_ccb_slot_index^index2:130431:1.60747e-05
Action^fff*Slot^h:130445:-0.0292915
l^d*q^d:130484:1.60747e-05
User^b*p^d:130516:1.60747e-05
Baction^d*m^d*_ccb_slot_index^index2:130596:1.60747e-05
M^d*O^d*_ccb_slot_index^index2:130601:1.60747e-05
L^d*x^d*_ccb_slot_index^index2:130717:1.60747e-05
(^ff*8^ff*_ccb_slot_index^index0:130735:0.000558349
I^g*z^d*_ccb_slot_index^index2:130739:1.60747e-05
)^ff*1^ff*_ccb_slot_index^index0:130803:0.000558349
Z^d*f^d*_ccb_slot_index^index2:130807:1.60747e-05
y^d*y^d:130868:0.000282789
M^d*f^d:130906:1.60747e-05
P^d*R^d*_ccb_slot_index^index2:130936:1.60747e-05
!^ff*&^ff:131020:0.000558349
H^d*V^d:131543:1.60747e-05
Ection^d*m^d*_ccb_slot_index^index2:131578:1.60747e-05
4^ff*6^ff*_ccb_slot_index^index0:131993:0.000558349
J^d*s^d*_ccb_slot_index^index2:131996:1.60747e-05
Ection^d*h^d*_ccb_slot_index^index2:132005:1.60747e-05
v^d*y^d*_ccb_slot_index^index2:132149:0.000282789
Daction^d*q^d:132292:1.60747e-05
u^f*y^d*_ccb_slot_index^index2:132321:0.000282789
F^d*j^d*_ccb_slot_index^index2:132333:1.60747e-05
1^ff*5^ff*_ccb_slot_index^index0:132478:0.000558349
l^d*x^d*_ccb_slot_index^index2:132650:1.60747e-05
Y^d*q^d:132689:1.60747e-05
&^ff*&^ff*_ccb_slot_index^index0:132692:0.000558349
y^d:132694:0.000282789
daction^d*daction^d*_ccb_slot_index^index1:132823:1.60747e-05
X^d*t^d*_ccb_slot_index^index2:132839:0.000282789
3^ff*7^ff:132853:0.000558349
H^d*r^d*_ccb_slot_index^index2:132872:1.60747e-05
Baction^d*e^d*_ccb_slot_index^index2:132953:1.60747e-05
N^d*r^d:133022:1.60747e-05
X^d*u^f*_ccb_slot_index^index2:133114:0.000282789
q^d*x^d:133146:1.60747e-05
F^d*v^d*_ccb_slot_index^index2:133234:1.60747e-05
baction^d*z^d:133496:1.60747e-05
Daction^d*u^f*_ccb_slot_index^index2:133520:1.60747e-05
H^d*I^g:133687:1.60747e-05
caction^d*z^d:133717:1.60747e-05
baction^d*f^d*_ccb_slot_index^index2:133721:1.60747e-05
Y^d*u^f*_ccb_slot_index^index2:133795:0.000282789
J^d*N^d:133839:1.60747e-05
P^d*w^d:133875:1.60747e-05
Y^d*caction^d*_ccb_slot_index^index2:133969:1.60747e-05
h^d*t^d:134069:1.60747e-05
O^d*t^d:134108:1.60747e-05
R^d*y^d:134201:0.000282789
m^d*w^d:134272:1.60747e-05
J^d*i^g*_ccb_slot_index^index2:134454:1.60747e-05
P^d*W^d*_ccb_slot_index^index2:134478:1.60747e-05
action^d*h^d*_ccb_slot_index^index2:134715:1.60747e-05
F^d*P^d:135020:1.60747e-05
I^g*q^d:135028:1.60747e-05
9^ff*9^ff*_ccb_slot_index^index0:135146:0.000558349
J^d*l^d:135168:1.60747e-05
N^d*n^d:135180:1.60747e-05
L^d*_ccb_slot_index^index2:135256:1.60747e-05
Ection^d*daction^d:135347:1.60747e-05
Z^d*y^d:135380:0.000282789
J^d*T^d:135440:2.27331e-05
H^d*O^d:135480:1.60747e-05
G^d*T^d*_ccb_slot_index^index2:135695:1.60747e-05
Caction^d*l^d*_ccb_slot_index^index2:135730:1.60747e-05
daction^d*u^f*_ccb_slot_index^index2:135750:1.60747e-05
G^d*User^b*_ccb_slot_index^index2:135825:1.60747e-05
i^g*p^d:135858:1.60747e-05
Q^d*User^b:135880:1.60747e-05
L^d*h^d:136095:1.60747e-05
Action^d*p^d:136118:1.60747e-05
g^d*h^d:136333:1.60747e-05
J^d*W^d*_ccb_slot_index^index2:136404:1.60747e-05
Daction^d*User^b*_ccb_slot_index^index2:136458:1.60747e-05
Caction^d*P^d:136672:1.60747e-05
I^g*Q^d*_ccb_slot_index^index2:136900:1.60747e-05
R^d*g^d*_ccb_slot_index^index2:136919:1.60747e-05
G^d*s^d:136941:1.60747e-05
O^d*u^f*_ccb_slot_index^index2:136951:1.60747e-05
o^d*j*_ccb_slot_index^index2:137009:1.60747e-05
g^d*_ccb_slot_index^index2:137034:1.60747e-05
caction^d*v^d*_ccb_slot_index^index2:137106:1.60747e-05
X^d*v^d*_ccb_slot_index^index2:137126:0.000282789
T^d*e^d*_ccb_slot_index^index2:137186:1.60747e-05
u^f*w^d*_ccb_slot_index^index2:137355:0.000282789
l^d*w^d:137583:1.60747e-05
Daction^d*F^d*_ccb_slot_index^index2:137598:1.60747e-05
User^c*_ccb_slot_index^index2:137701:0.000274316
Ection^d*f^d*_ccb_slot_index^index2:137725:1.60747e-05
)^ff*5^ff*_ccb_slot_index^index0:137791:0.000558349
f^d*m^d:138159:1.60747e-05
M^d*P^d:138310:1.60747e-05
!^ff*9^ff:138321:0.000558349
t^d*w^d:138350:0.000282789
m^d*v^d*_ccb_slot_index^index2:138381:1.60747e-05
0^ff*1^ff:138422:0.000558349
User^a*j:138472:-0.0220853
baction^d*j:138581:1.60747e-05
R^d*m^d*_ccb_slot_index^index0:138731:1.60747e-05
daction^d*f^d*_ccb_slot_index^index2:138806:1.60747e-05
caction^d*j:138872:1.60747e-05
j^d*q^d:138911:1.60747e-05
p^d*u^f:138978:1.60747e-05
V^d*j^d*_ccb_slot_index^index2:139215:1.60747e-05
!^ff*Slot^h:139276:0.000558349
Ection^d*Y^d:139290:1.60747e-05
Caction^d*P^d*_ccb_slot_index^index2:139454:1.60747e-05
action^d*v^d*_ccb_slot_index^index2:139519:1.60747e-05
e^d*j^d*_ccb_slot_index^index2:139641:1.60747e-05
Action^d*o^d*_ccb_slot_index^index2:139719:1.60747e-05
User^a*User^a:139866:-0.00595129
Caction^d*action^d:139879:1.60747e-05
l^d*x^d:139900:1.60747e-05
User^b*r^d:140009:1.60747e-05
h^d*t^d*_ccb_slot_index^index2:140017:1.60747e-05
Z^d*i^g*_ccb_slot_index^index2:140055:1.60747e-05
Ection^d*W^d:140135:1.60747e-05
H^d*s^d:140225:1.60747e-05
Ection^d*z^d:140276:1.60747e-05
G^d*O^d:140308:1.60747e-05
f^d*y^d:140309:1.60747e-05
Q^d*p^d:140318:1.60747e-05
action^d*n^d*_ccb_slot_index^index2:140382:1.60747e-05
r^d*t^d:140458:0.000282789
Caction^d*m^d*_ccb_slot_index^index2:140557:1.60747e-05
V^d*caction^d*_ccb_slot_index^index2:140590:1.60747e-05
Action^d*User^b:140640:1.60747e-05
Ection^d*X^d:140703:1.60747e-05
v^d*j*_ccb_slot_index^index2:140940:0.000282789
action^d*p^d:141167:1.60747e-05
t^d*x^d:141181:0.000282789
Z^d*caction^d*_ccb_slot_index^index2:141189:1.60747e-05
&^ff*5^ff:141695:0.000558349
n^d*r^d:141750:1.60747e-05
j^d*t^d:141934:1.60747e-05
Ection^d*L^d:141954:1.60747e-05
User^b*w^d*_ccb_slot_index^index2:142221:1.60747e-05
M^d*action^d:142273:1.60747e-05
daction^d*l^d:142432:1.60747e-05
V^d*e^d*_ccb_slot_index^index2:142610:1.60747e-05
O^d*o^d*_ccb_slot_index^index2:142684:1.60747e-05
T^d*j^d:143195:1.60747e-05
Z^d*m^d:143214:1.60747e-05
daction^d*i^g*_ccb_slot_index^index2:143254:1.60747e-05
I^g*Z^d*_ccb_slot_index^index2:143289:1.60747e-05
$^ff*1^ff*_ccb_slot_index^index0:143343:0.000558349
T^d*baction^d:143359:1.60747e-05
J^d*P^d*_ccb_slot_index^index2:143378:1.60747e-05
x^d*_ccb_slot_index^index2:143403:0.000282789
Daction^d*Y^d*_ccb_slot_index^index2:143405:1.60747e-05
Daction^d*t^d:143413:1.60747e-05
Action^d*Daction^d*_ccb_slot_index^index2:143748:1.60747e-05
Action^d*N^d*_ccb_slot_index^index2:143789:1.60747e-05
P^d*x^d:143840:1.60747e-05
W^d*s^d:143866:0.000282789
Q^d*W^d*_ccb_slot_index^index2:143942:1.60747e-05
action^d*j*_ccb_slot_index^index2:144027:1.60747e-05
Y^d*t^d:144032:0.000282789
Z^d*y^d*_ccb_slot_index^index2:144034:0.000282789
q^d*w^d:144137:1.60747e-05
h^d*x^d*_ccb_slot_index^index2:144250:1.60747e-05
)^ff*5^ff:144255:0.000558349
R^d*m^d:144259:1.60747e-05
5^ff*6^ff:144436:0.000558349
e^d*j^d:144477:1.60747e-05
G^d*V^d:144635:1.60747e-05
$^ff*2^ff:144636:0.000558349
User^b*n^d:144763:1.60747e-05
Caction^d*Caction^d:144786:1.60747e-05
R^d*W^d*_ccb_slot_index^index2:144934:0.000282789
1^ff*7^ff:145076:0.000558349
M^d*j*_ccb_slot_index^index2:145128:1.60747e-05
X^d*Z^d:145243:0.000282789
G^d*baction^d*_ccb_slot_index^index2:145244:1.60747e-05
m^d*x^d:145299:1.60747e-05
Ection^d*j:145369:1.60747e-05
0^ff*1^ff*_ccb_slot_index^index0:145488:0.000558349
F^d*action^d:145643:1.60747e-05
O^d*P^d*_ccb_slot_index^index2:145651:1.60747e-05
caction^d*daction^d:145682:1.60747e-05
e^d*e^d*_ccb_slot_index^index2:145864:1.60747e-05
m^d:145900:1.60747e-05
P^d*e^d:145912:1.60747e-05
baction^d*daction^d:145983:1.60747e-05
X^d*w^d*_ccb_slot_index^index2:146133:0.000282789
Baction^d*J^d:146241:1.60747e-05
I^g*g^d*_ccb_slot_index^index2:146251:1.60747e-05
F^d*w^d*_ccb_slot_index^index2:146273:1.60747e-05
Caction^d*z^d*_ccb_slot_index^index2:146277:1.60747e-05
2^ff*5^ff*_ccb_slot_index^index0:146309:0.000560694
W^d*W^d*_ccb_slot_index^index2:146488:0.000282789
Q^d*j*_ccb_slot_index^index2:146524:1.60747e-05
Action^e*User^c*_ccb_slot_index^index1:146795:0.00608797
Baction^d*Y^d*_ccb_slot_index^index2:146822:1.60747e-05
M^d:146921:1.60747e-05
n^d*n^d:146980:1.60747e-05
Action^e*Action^e*_ccb_slot_index^index2:147184:-0.0220853
%^ff*6^ff:147188:0.000558349
H^d*m^d*_ccb_slot_index^index2:147208:1.60747e-05
T^d*q^d*_ccb_slot_index^index2:147218:1.60747e-05
G^d*I^g:147227:1.60747e-05
O^d*q^d:147245:1.60747e-05
h^d*q^d:147268:1.60747e-05
2^ff*3^ff*_ccb_slot_index^index0:147460:0.000558349
J^d*j^d*_ccb_slot_index^index2:147509:1.60747e-05
i^g*u^f*_ccb_slot_index^index2:147640:1.60747e-05
I^g*v^d:147758:1.60747e-05
Baction^d*R^d:148167:1.60747e-05
p^d*r^d:148207:1.60747e-05
s^d*y^d*_ccb_slot_index^index2:148351:0.000282789
o^d*r^d*_ccb_slot_index^index2:148478:1.60747e-05
n^d*q^d*_ccb_slot_index^index2:148545:1.60747e-05
action^d*y^d*_ccb_slot_index^index2:148774:1.60747e-05
caction^d*y^d*_ccb_slot_index^index2:148779:1.60747e-05
Baction^d*g^d:148782:1.60747e-05
v^d*v^d*_ccb_slot_index^index2:148784:0.000282789
I^g*e^d*_ccb_slot_index^index2:148786:1.60747e-05
Ection^d*Z^d:148822:1.60747e-05
I^g*T^d*_ccb_slot_index^index2:148840:1.60747e-05
R^d*_ccb_slot_index^index2:148849:0.000282789
User^b*v^d*_ccb_slot_index^index2:148894:1.60747e-05
X^d*j:148948:0.000282789
o^d*o^d:149064:1.60747e-05
User^b*j*_ccb_slot_index^index2:149098:1.60747e-05
2^ff*6^ff:149105:0.000558349
R^d*h^d:149174:1.60747e-05
User^c*X^d*_ccb_slot_index^index2:149202:0.000274316
&^ff:149353:0.000558349
N^d*p^d*_ccb_slot_index^index2:149383:1.60747e-05
P^d*j^d*_ccb_slot_index^index2:149387:1.60747e-05
N^d*y^d*_ccb_slot_index^index2:149426:1.60747e-05
V^d*i^g:149434:1.60747e-05
Ection^d*baction^d*_ccb_slot_index^index2:149458:1.60747e-05
Y^d*v^d:149515:0.000282789
F^d*p^d:149552:1.60747e-05
Slot^h*User^b:150028:0.000558349
Daction^d*v^d:150174:1.60747e-05
P^d*T^d:150574:1.60747e-05
h^d:150745:1.60747e-05
T^d*V^d:150770:0.000282789
P^d*l^d:150846:1.60747e-05
Z^d*q^d*_ccb_slot_index^index2:150905:1.60747e-05
Ection^d*G^d:151174:1.60747e-05
_ccb_slot_index^index2:151326:-0.0217468
H^d*User^b*_ccb_slot_index^index2:151589:1.60747e-05
User^c*y^d:151725:0.000274316
daction^d*x^d:151742:1.60747e-05
j^d*v^d:151749:1.60747e-05
G^d*p^d*_ccb_slot_index^index2:151911:1.60747e-05
!^ff*)^ff:152012:0.000558349
X^d*z^d:152057:0.000282789
X^d*Y^d:152087:0.000282789
Daction^d*L^d*_ccb_slot_index^index2:152165:1.60747e-05
Caction^d*p^d:152252:1.60747e-05
4^ff*7^ff*_ccb_slot_index^index0:152301:0.000558349
&^ff*Slot^h*_ccb_slot_index^index0:152340:0.000558349
f^d*u^f*_ccb_slot_index^index2:152344:1.60747e-05
f^d*h^d*_ccb_slot_index^index2:152432:1.60747e-05
2^ff*8^ff*_ccb_slot_index^index0:152449:0.000558349
Action^d*Q^d*_ccb_slot_index^index2:152488:1.60747e-05
Baction^d*i^g:152579:1.60747e-05
f^d*t^d*_ccb_slot_index^index2:152713:1.60747e-05
Q^d*action^d:152773:1.60747e-05
Action^d*P^d:152810:1.60747e-05
Baction^d*V^d*_ccb_slot_index^index2:152863:1.60747e-05
T^d*v^d*_ccb_slot_index^index2:152868:0.000282789
Daction^d*caction^d:152896:1.60747e-05
V^d*g^d:153239:1.60747e-05
baction^d*j^d*_ccb_slot_index^index2:153306:1.60747e-05
R^d*e^d*_ccb_slot_index^index2:153406:1.60747e-05
G^d*j^d:153426:1.60747e-05
X^d*X^d:153490:0.000282789
g^d*s^d*_ccb_slot_index^index2:153519:1.60747e-05
u^f*x^d*_ccb_slot_index^index2:153522:0.000282789
action^d*action^d:153524:1.60747e-05
J^d*w^d:153549:1.60747e-05
Y^d*caction^d:153557:1.60747e-05
G^d*baction^d:153590:1.60747e-05
j^d*o^d*_ccb_slot_index^index2:153618:1.60747e-05
&^ff*5^ff*_ccb_slot_index^index0:153663:0.000558349
7^ff:153764:0.000558349
daction^d*e^d:153766:1.60747e-05
Slot^h*_ccb_slot_index^index0:153817:-0.029484
L^d*y^d:153872:1.60747e-05
t^d*z^d*_ccb_slot_index^index2:153924:0.000282789
User^b*f^d:154004:1.60747e-05
Z^d*_ccb_slot_index^index2:154012:0.000282789
Z^d*h^d:154203:1.60747e-05
User^c*j*_ccb_slot_index^index2:154232:0.000274316
W^d*q^d*_ccb_slot_index^index2:154288:1.60747e-05
M^d*p^d:154394:1.60747e-05
N^d*u^f:154515:1.60747e-05
(^ff*6^ff:154783:0.000558349
n^d*o^d*_ccb_slot_index^index1:154787:1.60747e-05
User^a*User^a*_ccb_slot_index^index2:154800:-0.0220853
h^d*v^d*_ccb_slot_index^index2:154916:1.60747e-05
j*j:155010:-0.0217468
Caction^d*User^b*_ccb_slot_index^index2:155072:1.60747e-05
r^d*v^d:155137:0.000282789
g^d*y^d:155138:1.60747e-05
W^d*t^d*_ccb_slot_index^index2:155183:0.000282789
l^d*l^d:155298:1.60747e-05
T^d*Z^d*_ccb_slot_index^index2:155337:0.000282789
I^g*caction^d:155376:1.60747e-05
action^d*action^d*_ccb_slot_index^index2:155458:1.60747e-05
(^ff*0^ff*_ccb_slot_index^index0:155549:0.000558349
0^ff*3^ff:155661:0.000558349
V^d*o^d:155727:1.60747e-05
Ection^d*R^d*_ccb_slot_index^index2:155729:1.60747e-05
Action^d*y^d*_ccb_slot_index^index2:155965:1.60747e-05
g^d*m^d:156088:1.60747e-05
v^d*v^d:156122:0.000282789
H^d*j^d:156286:1.60747e-05
L^d*M^d:156335:1.60747e-05
X^d*daction^d:156350:1.60747e-05
H^d*baction^d:156378:1.60747e-05
Action^d*action^d:156525:1.60747e-05
baction^d*j*_ccb_slot_index^index2:156625:1.60747e-05
&^ff*)^ff*_ccb_slot_index^index0:156756:0.000558349
Caction^d*User^b:156778:1.60747e-05
J^d*e^d:156870:1.60747e-05
M^d*Z^d*_ccb_slot_index^index2:156889:1.60747e-05
L^d*m^d:157354:1.60747e-05
t^d*x^d*_ccb_slot_index^index2:157401:0.000282789
0^ff*4^ff:157469:0.000558349
Caction^d*action^d*_ccb_slot_index^index2:157499:1.60747e-05
T^d*T^d*_ccb_slot_index^index2:158200:0.000282789
J^d*X^d*_ccb_slot_index^index2:158364:1.60747e-05
&^ff*0^ff:158441:0.000558349
Ection^d*Ection^d:158528:1.60747e-05
daction^d*w^d:158637:1.60747e-05
J^d*x^d:158942:1.60747e-05
Daction^d*H^d:158993:1.60747e-05
f^d*_ccb_slot_index^index2:159069:1.60747e-05
M^d*User^b:159180:1.60747e-05
f^d*h^d:159386:1.60747e-05
O^d*caction^d:159401:1.60747e-05
T^d*s^d:159460:0.000282789
N^d*Q^d*_ccb_slot_index^index2:159611:1.60747e-05
Baction^d:159622:1.60747e-05
1^ff*Slot^h*_ccb_slot_index^index0:159721:0.000558349
W^d*j^d:159813:1.60747e-05
Y^d*p^d*_ccb_slot_index^index2:159891:1.60747e-05
W^d*baction^d:159969:1.60747e-05
)^ff*0^ff:159977:0.000558349
h^d*v^d:160030:1.60747e-05
N^d*Q^d:160039:1.60747e-05
O^d*v^d:160119:1.60747e-05
User^b*j^d*_ccb_slot_index^index2:160257:1.60747e-05
Baction^d*z^d*_ccb_slot_index^index2:160268:1.60747e-05
Z^d*h^d*_ccb_slot_index^index2:160351:1.60747e-05
H^d*e^d*_ccb_slot_index^index2:160445:1.60747e-05
Caction^d*p^d*_ccb_slot_index^index2:160490:1.60747e-05
H^d*J^d*_ccb_slot_index^index2:160617:1.60747e-05
!^ff*2^ff*_ccb_slot_index^index0:160672:0.000558349
g^d*i^g*_ccb_slot_index^index2:160673:1.60747e-05
H^d*t^d*_ccb_slot_index^index2:160686:1.60747e-05
Baction^d*h^d*_ccb_slot_index^index2:160687:1.60747e-05
L^d*e^d*_ccb_slot_index^index2:160757:1.60747e-05
Baction^d*o^d:160758:1.60747e-05
Action^d*G^d*_ccb_slot_index^index2:160909:1.60747e-05
Action^d*Caction^d:160920:1.60747e-05
n^d*u^f:161211:1.60747e-05
User^b*Z^d*_ccb_slot_index^index2:161239:1.60747e-05
e^d*s^d:161250:1.60747e-05
G^d*t^d*_ccb_slot_index^index2:161770:1.60747e-05
Q^d*w^d*_ccb_slot_index^index2:161935:1.60747e-05
J^d*w^d*_ccb_slot_index^index2:161961:1.60747e-05
x^d*y^d:162147:0.000282789
User^b*t^d*_ccb_slot_index^index2:162223:1.60747e-05
Caction^d*J^d*_ccb_slot_index^index2:162404:1.60747e-05
z^d*j*_ccb_slot_index^index2:162433:0.000282789
l^d*j*_ccb_slot_index^index2:162568:1.60747e-05
O^d*caction^d*_ccb_slot_index^index2:162581:1.60747e-05
Baction^d*T^d*_ccb_slot_index^index2:162735:1.60747e-05
N^d*action^d*_ccb_slot_index^index2:162806:1.60747e-05
Daction^d*caction^d*_ccb_slot_index^index2:163038:1.60747e-05
N^d*f^d:163043:1.60747e-05
Caction^d*e^d*_ccb_slot_index^index2:163416:1.60747e-05
Ection^d*F^d*_ccb_slot_index^index2:163551:1.60747e-05
User^b*u^f:163556:1.60747e-05
F^d*User^b:163558:1.60747e-05
$^ff*9^ff*_ccb_slot_index^index0:163811:0.000558349
)^ff*6^ff*_ccb_slot_index^index0:163915:0.000558349
R^d*f^d:164094:1.60747e-05
Y^d*e^d*_ccb_slot_index^index2:164109:1.60747e-05
1^ff*2^ff*_ccb_slot_index^index0:164123:0.000558349
baction^d*q^d:164275:1.60747e-05
Baction^d*F^d:164297:1.60747e-05
L^d*Z^d*_ccb_slot_index^index2:164302:1.60747e-05
I^g*X^d:164308:1.60747e-05
j^d*j:164473:1.60747e-05
caction^d*q^d:164510:1.60747e-05
daction^d*g^d:164725:1.60747e-05
j^d*t^d*_ccb_slot_index^index2:164916:1.60747e-05
I^g*Y^d:164945:1.60747e-05
N^d*V^d*_ccb_slot_index^index2:165023:1.60747e-05
O^d*daction^d:165025:1.60747e-05
F^d*e^d*_ccb_slot_index^index2:165044:1.60747e-05
g^d*u^f*_ccb_slot_index^index2:165105:1.60747e-05
Q^d*t^d*_ccb_slot_index^index2:165165:1.60747e-05
V^d*x^d:165212:0.000282789
Daction^d*L^d:165241:1.60747e-05
Z^d*j*_ccb_slot_index^index2:165247:0.000282789
Daction^d*o^d*_ccb_slot_index^index2:165331:1.60747e-05
F^d*r^d*_ccb_slot_index^index2:165481:1.60747e-05
W^d*g^d*_ccb_slot_index^index2:165637:1.60747e-05
F^d*j*_ccb_slot_index^index2:165654:1.60747e-05
I^g*W^d:165676:1.60747e-05
Q^d:165717:1.60747e-05
Q^d*V^d:165798:1.60747e-05
I^g*z^d:165823:1.60747e-05
V^d*t^d*_ccb_slot_index^index2:165857:0.000282789
F^d*V^d*_ccb_slot_index^index2:165894:1.60747e-05
F^d*j^d:165921:1.60747e-05
O^d*r^d*_ccb_slot_index^index2:165924:1.60747e-05
m^d*q^d*_ccb_slot_index^index2:165983:1.60747e-05
F^d*baction^d:166021:1.60747e-05
6^ff*6^ff*_ccb_slot_index^index0:166050:0.000558349
X^d*caction^d:166070:1.60747e-05
F^d*N^d*_ccb_slot_index^index2:166331:1.60747e-05
J^d*o^d:166349:1.60747e-05
Z^d*v^d*_ccb_slot_index^index2:166427:0.000282789
Daction^d*X^d:166500:1.60747e-05
f^d:166545:1.60747e-05
Daction^d*z^d:166927:1.60747e-05
User^b*l^d*_ccb_slot_index^index2:166970:1.60747e-05
4^ff*6^ff:167017:0.000558349
Daction^d*W^d:167068:1.60747e-05
r^d*j:167101:0.000282789
Ection^d*w^d*_ccb_slot_index^index2:167154:1.60747e-05
V^d*e^d:167236:1.60747e-05
R^d*l^d*_ccb_slot_index^index2:167244:1.60747e-05
Y^d*Y^d:167284:0.000282789
1^ff*1^ff:167328:0.000558349
e^d*o^d*_ccb_slot_index^index2:167365:1.60747e-05
User^b*X^d*_ccb_slot_index^index2:167440:1.60747e-05
Y^d*z^d:167578:0.000282789
I^g*L^d:167625:1.60747e-05
Ection^d*N^d*_ccb_slot_index^index2:167692:1.60747e-05
f^d*u^f:167842:1.60747e-05
caction^d*p^d*_ccb_slot_index^index2:167854:1.60747e-05
Daction^d*Y^d:167905:1.60747e-05
&^ff*(^ff:168006:0.000558349
Caction^d*u^f*_ccb_slot_index^index2:168058:1.60747e-05
6^ff*9^ff*_ccb_slot_index^index0:168182:0.000558349
)^ff*Slot^h*_ccb_slot_index^index0:168212:0.000558349
J^d*m^d*_ccb_slot_index^index2:168225:1.60747e-05
Caction^d*baction^d:168457:1.60747e-05
Action^d*s^d:168472:1.60747e-05
daction^d*i^g:168536:1.60747e-05
Caction^d*j^d:168621:1.60747e-05
i^g*s^d:168732:1.60747e-05
J^d*T^d*_ccb_slot_index^index2:168750:1.60747e-05
I^g*j:168850:1.60747e-05
J^d*User^b*_ccb_slot_index^index2:169044:1.60747e-05
F^d*Y^d*_ccb_slot_index^index2:169119:1.60747e-05
H^d*User^b:169145:1.60747e-05
j^d*z^d:169556:1.60747e-05
Action^d*F^d*_ccb_slot_index^index2:169674:1.60747e-05
Baction^d*x^d:169701:1.60747e-05
G^d*p^d:169795:1.60747e-05
n^d*_ccb_slot_index^index2:169796:1.60747e-05
X^d*v^d:169832:0.000282789
R^d*p^d*_ccb_slot_index^index2:169988:1.60747e-05
4^ff:170011:0.000558349
Daction^d*j:170018:1.60747e-05
5^ff*7^ff*_ccb_slot_index^index0:170042:0.000558349
o^d*w^d:170056:2.27331e-05
r^d*z^d:170128:0.000282789
Action^d*User^b*_ccb_slot_index^index2:170302:1.60747e-05
Ection^d*H^d*_ccb_slot_index^index2:170304:1.60747e-05
s^d*s^d*_ccb_slot_index^index2:170440:0.000282789
%^ff*4^ff*_ccb_slot_index^index0:170455:0.000558349
daction^d*q^d*_ccb_slot_index^index2:170460:1.60747e-05
&^ff*2^ff*_ccb_slot_index^index0:170474:0.000558349
N^d*m^d*_ccb_slot_index^index2:170660:1.60747e-05
f^d*v^d*_ccb_slot_index^index2:170668:1.60747e-05
Y^d*j:170679:0.000282789
action^d*w^d*_ccb_slot_index^index2:170704:1.60747e-05
M^d*j^d:170763:1.60747e-05
M^d*baction^d:170927:1.60747e-05
Z^d*f^d:171027:1.60747e-05
User^b*_ccb_slot_index^index2:171035:1.60747e-05
$^ff*User^b*_ccb_slot_index^index0:171098:0.000558349
M^d*g^d*_ccb_slot_index^index2:171563:1.60747e-05
Daction^d*g^d*_ccb_slot_index^index2:171611:1.60747e-05
Baction^d*e^d:171773:1.60747e-05
3^ff:171787:0.000558349
T^d*action^d:171921:1.60747e-05
Ection^d*t^d:171982:1.60747e-05
User^b*h^d:171996:1.60747e-05
!^ff*User^b:172194:0.000558349
Action^d*O^d:172257:1.60747e-05
G^d*G^d*_ccb_slot_index^index2:172290:1.60747e-05
G^d*User^b:172437:1.60747e-05
M^d*Q^d*_ccb_slot_index^index2:172452:1.60747e-05
t^d*j*_ccb_slot_index^index2:172471:0.000282789
G^d*w^d*_ccb_slot_index^index2:172604:1.60747e-05
H^d*p^d:172655:1.60747e-05
$^ff*6^ff:172727:0.000558349
o^d*x^d:172891:1.60747e-05
h^d*j:172962:1.60747e-05
O^d*j:173003:1.60747e-05
Y^d*h^d*_ccb_slot_index^index2:173035:1.60747e-05
J^d*q^d*_ccb_slot_index^index2:173244:1.60747e-05
R^d*o^d*_ccb_slot_index^index2:173423:1.60747e-05
Q^d*s^d:173488:1.60747e-05
Ection^d*L^d*_ccb_slot_index^index2:173496:1.60747e-05
N^d*baction^d*_ccb_slot_index^index2:173500:1.60747e-05
F^d*baction^d*_ccb_slot_index^index2:173633:1.60747e-05
8^ff*User^b*_ccb_slot_index^index0:173647:0.000558349
H^d*caction^d*_ccb_slot_index^index2:173665:1.60747e-05
action^d*s^d:173761:1.60747e-05
User^c*r^d:173847:0.000274316
v^d*z^d:173899:0.000282789
z^d*z^d:173928:0.000282789
R^d*u^f:173966:0.000282789
0^ff*7^ff:173986:0.000558349
%^ff*2^ff:174271:0.000558349
W^d*v^d*_ccb_slot_index^index0:174290:1.60747e-05
baction^d*z^d*_ccb_slot_index^index2:174326:1.60747e-05
Caction^d*j^d*_ccb_slot_index^index2:174409:1.60747e-05
g^d*r^d:174520:1.60747e-05
Action^fff*Action^fff:174568:-0.028687
H^d*V^d*_ccb_slot_index^index2:174699:1.60747e-05
Ection^d*q^d:174911:1.60747e-05
!^ff*7^ff*_ccb_slot_index^index0:174913:0.000558349
T^d*x^d*_ccb_slot_index^index2:174970:0.000282789
$^ff*%^ff*_ccb_slot_index^index0:175075:0.000558349
L^d*h^d*_ccb_slot_index^index2:175187:1.60747e-05
J^d*action^d*_ccb_slot_index^index2:175335:1.60747e-05
X^d*n^d*_ccb_slot_index^index2:175479:1.60747e-05
u^f:175585:0.000282789
Z^d*e^d*_ccb_slot_index^index2:175593:1.60747e-05
Baction^d*w^d:175606:1.60747e-05
Y^d*daction^d*_ccb_slot_index^index2:175609:1.60747e-05
J^d*i^g:175672:1.60747e-05
%^ff*Slot^h*_ccb_slot_index^index0:175677:0.000558349
%^ff*2^ff*_ccb_slot_index^index0:175743:0.000558349
G^d*y^d*_ccb_slot_index^index2:175762:1.60747e-05
L^d*r^d:175786:1.60747e-05
Action^d*V^d:176142:1.60747e-05
W^d*p^d:176212:1.60747e-05
O^d*X^d:176525:1.60747e-05
Action^d*r^d*_ccb_slot_index^index2:176591:1.60747e-05
Daction^d:176729:1.60747e-05
0^ff*2^ff*_ccb_slot_index^index0:176749:0.000558349
!^ff*_ccb_slot_index^index0:176759:0.000558349
h^d*u^f*_ccb_slot_index^index2:176912:1.60747e-05
z^d*j:176965:0.000282789
v^d*j:176998:0.000282789
Action^d*caction^d*_ccb_slot_index^index2:177002:1.60747e-05
Z^d*u^f*_ccb_slot_index^index2:177095:0.000282789
O^d*Y^d:177160:1.60747e-05
)^ff*0^ff*_ccb_slot_index^index0:177177:0.000558349
Action^d*Action^d:177210:1.60747e-05
I^g*daction^d:177400:1.60747e-05
baction^d*t^d:177474:1.60747e-05
Slot^i*T^d*_ccb_slot_index^index1:177493:1.60747e-05
l^d*m^d*_ccb_slot_index^index2:177563:1.60747e-05
L^d*t^d*_ccb_slot_index^index2:177574:1.60747e-05
daction^d*o^d:177581:1.60747e-05
M^d*f^d*_ccb_slot_index^index2:177584:1.60747e-05
j^d*w^d*_ccb_slot_index^index2:177682:1.60747e-05
V^d*f^d*_ccb_slot_index^index2:177712:1.60747e-05
caction^d*t^d:177775:1.60747e-05
8^ff*8^ff:177872:0.000558349
0^ff*9^ff*_ccb_slot_index^index0:177956:0.000558349
O^d*W^d:178037:1.60747e-05
h^d*z^d:178063:1.60747e-05
Action^d*J^d*_ccb_slot_index^index2:178082:1.60747e-05
O^d*z^d:178150:1.60747e-05
P^d*z^d*_ccb_slot_index^index2:178247:1.60747e-05
Daction^d*G^d*_ccb_slot_index^index2:178393:1.60747e-05
F^d*l^d*_ccb_slot_index^index2:178406:1.60747e-05
J^d*R^d:178428:1.60747e-05
L^d*n^d:178488:1.60747e-05
N^d*_ccb_slot_index^index2:178540:1.60747e-05
4^ff*User^b*_ccb_slot_index^index0:178720:0.000558349
L^d*r^d*_ccb_slot_index^index2:178816:1.60747e-05
N^d*h^d:178859:1.60747e-05
Z^d*u^f:179043:0.000282789
User^b*r^d*_ccb_slot_index^index2:179157:1.60747e-05
Action^d*I^g:179182:1.60747e-05
Caction^d*I^g*_ccb_slot_index^index2:179186:1.60747e-05
Caction^d*t^d*_ccb_slot_index^index2:179303:1.60747e-05
Baction^d*daction^d*_ccb_slot_index^index2:179309:1.60747e-05
N^d*caction^d*_ccb_slot_index^index2:179349:1.60747e-05
f^d*j^d*_ccb_slot_index^index2:179495:1.60747e-05
o^d*t^d*_ccb_slot_index^index2:179544:1.60747e-05
Y^d*daction^d:179677:1.60747e-05
N^d*O^d*_ccb_slot_index^index2:179714:1.60747e-05
g^d*n^d:179754:1.60747e-05
daction^d*g^d*_ccb_slot_index^index2:179761:1.60747e-05
V^d*w^d:179791:0.000282789
Daction^d*I^g*_ccb_slot_index^index2:179912:1.60747e-05
J^d*g^d:179989:1.60747e-05
Daction^d*daction^d:180040:1.60747e-05
J^d*t^d*_ccb_slot_index^index2:180155:1.60747e-05
M^d*o^d*_ccb_slot_index^index2:180163:1.60747e-05
O^d*l^d*_ccb_slot_index^index2:180223:1.60747e-05
t^d*t^d*_ccb_slot_index^index2:180242:0.000282789
W^d*action^d:180367:1.60747e-05
%^ff:180468:0.000558349
3^ff*3^ff:180570:0.000558349
J^d*J^d:180602:1.60747e-05
L^d*X^d*_ccb_slot_index^index2:180645:1.60747e-05
w^d*z^d:180824:0.000282789
M^d*M^d*_ccb_slot_index^index2:180888:1.60747e-05
Ection^d*H^d:180970:1.60747e-05
Baction^d*o^d*_ccb_slot_index^index2:181084:1.60747e-05
T^d*j^d*_ccb_slot_index^index2:181087:1.60747e-05
f^d*n^d:181309:1.60747e-05
(^ff*6^ff*_ccb_slot_index^index0:181407:0.000558349
Daction^d*Ection^d:181435:1.60747e-05
J^d*daction^d*_ccb_slot_index^index2:181616:1.60747e-05
O^d*i^g*_ccb_slot_index^index2:181671:1.60747e-05
i^g*i^g*_ccb_slot_index^index2:181704:1.60747e-05
3^ff*4^ff:181834:0.000558349
W^d*caction^d*_ccb_slot_index^index2:182116:1.60747e-05
l^d*o^d:182127:1.60747e-05
Ection^d*Y^d*_ccb_slot_index^index2:182256:1.60747e-05
F^d*s^d:182686:1.60747e-05
Slot^h*Slot^h:182946:-0.029484
m^d*p^d*_ccb_slot_index^index2:182993:1.60747e-05
(^ff*2^ff:182996:0.000558349
N^d*g^d*_ccb_slot_index^index2:183028:1.60747e-05
P^d*x^d*_ccb_slot_index^index2:183486:1.60747e-05
caction^d*v^d:183492:1.60747e-05
Action^fff:183500:-0.028687
I^g*M^d*_ccb_slot_index^index2:183544:1.60747e-05
L^d*g^d*_ccb_slot_index^index2:183920:1.60747e-05
X^d*y^d*_ccb_slot_index^index2:183935:0.000282789
Q^d*o^d*_ccb_slot_index^index2:183951:1.60747e-05
action^d*s^d*_ccb_slot_index^index2:184013:1.60747e-05
N^d*m^d:184222:1.60747e-05
baction^d*v^d:184297:1.60747e-05
G^d*P^d:184351:1.60747e-05
baction^d*caction^d:184375:1.60747e-05
2^ff*2^ff:184378:0.000558349
Caction^d*w^d*_ccb_slot_index^index2:184405:1.60747e-05
(^ff*7^ff*_ccb_slot_index^index0:184571:0.000558349
m^d*s^d*_ccb_slot_index^index2:184639:1.60747e-05
O^d*Z^d:184644:1.60747e-05
O^d*v^d*_ccb_slot_index^index2:184651:1.60747e-05
m^d*o^d:184960:1.60747e-05
i^g*j^d:184995:1.60747e-05
H^d*action^d:185012:1.60747e-05
Action^d*baction^d:185091:1.60747e-05
Caction^d*s^d:185106:1.60747e-05
caction^d*caction^d:185114:1.60747e-05
Action^d*j^d:185255:1.60747e-05
f^d*r^d:185263:1.60747e-05
n^d*z^d*_ccb_slot_index^index2:185300:1.60747e-05
I^g*v^d*_ccb_slot_index^index2:185460:1.60747e-05
P^d*o^d:185587:1.60747e-05
User^b*y^d:185683:1.60747e-05
V^d*s^d*_ccb_slot_index^index2:185794:0.000282789
L^d*f^d:185815:1.60747e-05
G^d*N^d*_ccb_slot_index^index2:185826:1.60747e-05
F^d*daction^d*_ccb_slot_index^index2:185896:1.60747e-05
w^d*j:185973:0.000282789
P^d*baction^d*_ccb_slot_index^index2:185975:1.60747e-05
Action^d*f^d*_ccb_slot_index^index2:186204:1.60747e-05
F^d*W^d*_ccb_slot_index^index2:186252:1.60747e-05
Action^e*Slot^i:186288:0.00608797
L^d*Q^d:186387:1.60747e-05
I^g*r^d*_ccb_slot_index^index2:186587:1.60747e-05
X^d*q^d:186674:1.60747e-05
T^d*User^b:186780:1.60747e-05
Y^d*m^d*_ccb_slot_index^index2:186968:1.60747e-05
M^d*s^d:187060:1.60747e-05
$^ff*&^ff*_ccb_slot_index^index0:187600:0.000558349
P^d*i^g*_ccb_slot_index^index2:187756:1.60747e-05
n^d*y^d:187916:1.60747e-05
G^d*H^d*_ccb_slot_index^index2:187990:1.60747e-05
6^ff*8^ff:188128:0.000558349
q^d*t^d*_ccb_slot_index^index2:188167:1.60747e-05
O^d*V^d*_ccb_slot_index^index2:188191:1.60747e-05
T^d*User^b*_ccb_slot_index^index2:188298:1.60747e-05
T^d*s^d*_ccb_slot_index^index2:188402:0.000282789
F^d*I^g:188520:1.60747e-05
R^d*Y^d*_ccb_slot_index^index2:188561:0.000282789
I^g*Z^d:188701:1.60747e-05
Daction^d*G^d:188797:1.60747e-05
Y^d*f^d*_ccb_slot_index^index2:188883:1.60747e-05
Caction^d*O^d:188907:1.60747e-05
P^d*g^d:188971:1.60747e-05
)^ff*9^ff*_ccb_slot_index^index0:189055:0.000558349
Y^d*Y^d*_ccb_slot_index^index2:189058:0.000282789
W^d*s^d*_ccb_slot_index^index2:189328:0.000282789
1^ff:189360:0.000558349
Q^d*j^d:189455:1.60747e-05
5^ff*User^b*_ccb_slot_index^index0:189459:0.000558349
O^d*t^d*_ccb_slot_index^index2:189514:1.60747e-05
Q^d*baction^d:189611:1.60747e-05
H^d*P^d:189747:1.60747e-05
Z^d*m^d*_ccb_slot_index^index2:189748:1.60747e-05
Ection^d*v^d:189797:1.60747e-05
P^d*R^d:189890:1.60747e-05
G^d*J^d*_ccb_slot_index^index2:189933:1.60747e-05
n^d:190078:1.60747e-05
X^d*j^d*_ccb_slot_index^index2:190153:1.60747e-05
Ection^d*o^d*_ccb_slot_index^index2:190194:1.60747e-05
Z^d*r^d:190318:0.000282789
action^d*j^d:190334:1.60747e-05
G^d*action^d:190360:1.60747e-05
action^d*baction^d:190426:1.60747e-05
Y^d*Z^d:190520:0.000282789
M^d*O^d:190541:1.60747e-05
P^d*f^d*_ccb_slot_index^index2:190860:1.60747e-05
)^ff*8^ff:190867:0.000558349
User^c*V^d*_ccb_slot_index^index2:190920:0.000274316
L^d*j*_ccb_slot_index^index2:190963:1.60747e-05
N^d*i^g*_ccb_slot_index^index2:191015:1.60747e-05
Baction^d*l^d:191035:1.60747e-05
Daction^d*Z^d:191149:1.60747e-05
Daction^d*m^d*_ccb_slot_index^index2:191179:1.60747e-05
User^b*m^d:191209:1.60747e-05
Baction^d*T^d:191275:1.60747e-05
F^d*V^d:191368:1.60747e-05
s^d*s^d:191378:0.000282789
R^d*n^d:191505:1.60747e-05
o^d*o^d*_ccb_slot_index^index2:191558:1.60747e-05
J^d*e^d*_ccb_slot_index^index2:191660:1.60747e-05
X^d*t^d:191939:0.000282789
F^d*m^d*_ccb_slot_index^index2:192105:1.60747e-05
N^d*q^d*_ccb_slot_index^index2:192329:1.60747e-05
T^d*p^d:192330:1.60747e-05
R^d*w^d*_ccb_slot_index^index2:192367:0.000282789
W^d*w^d*_ccb_slot_index^index2:192525:0.000282789
N^d*y^d:192548:1.60747e-05
Baction^d*N^d:192756:1.60747e-05
Z^d*n^d:192764:1.60747e-05
Caction^d*V^d:192772:1.60747e-05
1^ff*3^ff:192795:0.000558349
X^d*action^d*_ccb_slot_index^index2:192955:1.60747e-05
y^d*y^d*_ccb_slot_index^index2:192962:0.000282789
r^d:193004:0.000282789
9^ff*Slot^h*_ccb_slot_index^index0:193085:0.000558349
p^d*x^d*_ccb_slot_index^index2:193122:1.60747e-05
L^d*u^f:193191:1.60747e-05
P^d*i^g:193286:1.60747e-05
&^ff*8^ff:193427:0.000558349
e^d*p^d:193612:1.60747e-05
h^d*w^d*_ccb_slot_index^index2:193619:1.60747e-05
Daction^d*h^d*_ccb_slot_index^index2:193656:1.60747e-05
P^d*caction^d*_ccb_slot_index^index2:193754:1.60747e-05
H^d*f^d*_ccb_slot_index^index2:193763:1.60747e-05
r^d*y^d*_ccb_slot_index^index2:193928:0.000282789
g^d*u^f:193973:1.60747e-05
1^ff*4^ff:194059:0.000558349
g^d*v^d*_ccb_slot_index^index2:194077:1.60747e-05
j^d*s^d*_ccb_slot_index^index2:194355:1.60747e-05
User^b*User^b*_ccb_slot_index^index1:194431:0.00488818
Slot^i*User^c:194660:0.00608797
M^d*V^d:194722:1.60747e-05
P^d*V^d*_ccb_slot_index^index2:194724:1.60747e-05
Daction^d*Daction^d*_ccb_slot_index^index2:194808:1.60747e-05
V^d*l^d:194946:1.60747e-05
Ection^d*caction^d:195259:1.60747e-05
Caction^d*I^g:195300:1.60747e-05
User^c*u^f:195354:0.000274316
q^d*z^d*_ccb_slot_index^index2:195397:1.60747e-05
F^d*O^d:195431:1.60747e-05
Ection^d*caction^d*_ccb_slot_index^index2:195455:1.60747e-05
R^d*r^d:195459:0.000282789
O^d*User^b*_ccb_slot_index^index2:195505:1.60747e-05
Daction^d*N^d*_ccb_slot_index^index2:195513:1.60747e-05
s^d*t^d*_ccb_slot_index^index2:195559:0.000282789
p^d*_ccb_slot_index^index2:195613:1.60747e-05
q^d*v^d*_ccb_slot_index^index2:196102:1.60747e-05
G^d*x^d*_ccb_slot_index^index2:196161:1.60747e-05
m^d*r^d*_ccb_slot_index^index2:196518:1.60747e-05
f^d*w^d:196679:1.60747e-05
%^ff*%^ff:196840:0.000558349
p^d*w^d*_ccb_slot_index^index2:196891:1.60747e-05
Caction^d*daction^d:196926:1.60747e-05
0^ff*6^ff:197102:0.000558349
l^d*m^d:197255:1.60747e-05
User^c*User^c:197378:-0.0344724
n^d*x^d*_ccb_slot_index^index2:197417:1.60747e-05
Q^d*T^d*_ccb_slot_index^index2:197564:1.60747e-05
H^d*v^d:197691:1.60747e-05
Ection^d*P^d:197741:1.60747e-05
Y^d*n^d*_ccb_slot_index^index2:197838:1.60747e-05
baction^d*v^d*_ccb_slot_index^index2:197845:1.60747e-05
$^ff*7^ff:197883:0.000558349
1^ff*8^ff*_ccb_slot_index^index0:197898:0.000558349
Baction^d*f^d:197987:1.60747e-05
daction^d*h^d:198000:1.60747e-05
Q^d*daction^d*_ccb_slot_index^index2:198026:1.60747e-05
$^ff*Slot^h*_ccb_slot_index^index0:198032:0.000558349
Daction^d*n^d*_ccb_slot_index^index2:198113:1.60747e-05
1^ff*2^ff:198323:0.000558349
daction^d*_ccb_slot_index^index2:198327:1.60747e-05
caction^d*e^d*_ccb_slot_index^index2:198356:1.60747e-05
User^c*u^f*_ccb_slot_index^index2:198384:0.000274316
T^d*q^d:198468:1.60747e-05
Z^d*e^d:198541:1.60747e-05
M^d*daction^d:198808:1.60747e-05
Baction^d*Q^d:198823:1.60747e-05
9^ff*9^ff:198888:0.000558349
User^b*i^g:198900:1.60747e-05
Action^d*T^d*_ccb_slot_index^index2:198916:1.60747e-05
G^d*m^d*_ccb_slot_index^index2:198980:1.60747e-05
W^d*caction^d:199134:1.60747e-05
J^d*u^f*_ccb_slot_index^index2:199142:1.60747e-05
3^ff*6^ff*_ccb_slot_index^index0:199145:0.000558349
N^d*o^d:199286:1.60747e-05
2^ff*7^ff*_ccb_slot_index^index0:199381:0.000558349
s^d*z^d:199417:0.000282789
O^d*w^d*_ccb_slot_index^index2:199516:1.60747e-05
t^d*u^f*_ccb_slot_index^index2:199887:0.000282789
m^d*y^d*_ccb_slot_index^index2:200072:1.60747e-05
Action^d*q^d*_ccb_slot_index^index2:200118:1.60747e-05
F^d:200251:1.60747e-05
v^d*x^d*_ccb_slot_index^index2:200262:0.000282789
P^d*e^d*_ccb_slot_index^index2:200310:1.60747e-05
F^d*q^d*_ccb_slot_index^index2:200324:1.60747e-05
L^d*P^d*_ccb_slot_index^index2:200335:1.60747e-05
n^d*j*_ccb_slot_index^index2:200391:1.60747e-05
Z^d*x^d:200597:0.000282789
o^d*s^d*_ccb_slot_index^index2:200791:1.60747e-05
m^d*o^d*_ccb_slot_index^index2:200862:1.60747e-05
e^d:200975:1.60747e-05
P^d*m^d:200987:1.60747e-05
j^d*l^d*_ccb_slot_index^index2:201141:1.60747e-05
T^d*h^d*_ccb_slot_index^index2:201208:1.60747e-05
g^d*n^d*_ccb_slot_index^index2:201472:1.60747e-05
Action^d*x^d*_ccb_slot_index^index2:201550:1.60747e-05
7^ff*User^b*_ccb_slot_index^index0:201571:0.000558349
R^d*x^d:201592:0.000282789
Z^d*n^d*_ccb_slot_index^index2:201642:1.60747e-05
P^d*s^d*_ccb_slot_index^index2:201734:1.60747e-05
v^d*z^d*_ccb_slot_index^index2:201743:0.000282789
w^d*w^d*_ccb_slot_index^index2:201798:0.000282789
Action^d*Z^d:202193:1.60747e-05
W^d*v^d:202240:0.000282789
L^d*M^d*_ccb_slot_index^index2:202339:1.60747e-05
3^ff*8^ff*_ccb_slot_index^index0:202361:0.000558349
G^d*H^d:202392:1.60747e-05
V^d*f^d:202458:1.60747e-05
O^d*j^d:202546:1.60747e-05
q^d*y^d:202587:2.27331e-05
m^d*m^d:202600:1.60747e-05
p^d*y^d*_ccb_slot_index^index1:202646:1.60747e-05
o^d*u^f:202669:1.60747e-05
V^d*daction^d*_ccb_slot_index^index2:202710:1.60747e-05
G^d*I^g*_ccb_slot_index^index2:202911:1.60747e-05
8^ff*Slot^h*_ccb_slot_index^index0:202913:0.000558349
&^ff*3^ff*_ccb_slot_index^index0:203026:0.000558349
x^d:203031:0.000282789
Caction^d*j*_ccb_slot_index^index2:203042:1.60747e-05
User^b*g^d:203225:1.60747e-05
x^d*z^d*_ccb_slot_index^index2:203245:0.000282789
h^d*h^d*_ccb_slot_index^index2:203256:1.60747e-05
)^ff*)^ff*_ccb_slot_index^index0:203348:0.000558349
f^d*s^d*_ccb_slot_index^index2:203370:1.60747e-05
W^d*i^g*_ccb_slot_index^index2:203394:1.60747e-05
V^d*h^d*_ccb_slot_index^index2:203464:1.60747e-05
$^ff*&^ff:203574:0.000558349
W^d*z^d*_ccb_slot_index^index2:203613:0.000282789
R^d*e^d:203616:1.60747e-05
F^d*daction^d:203698:1.60747e-05
Q^d*h^d*_ccb_slot_index^index2:203708:1.60747e-05
Action^d*X^d*_ccb_slot_index^index2:203734:1.60747e-05
H^d*caction^d:203749:1.60747e-05
e^d*q^d:203842:1.60747e-05
O^d*z^d*_ccb_slot_index^index1:203851:1.60747e-05
Action^d*G^d:204289:1.60747e-05
s^d*j:204500:0.000282789
Baction^d*N^d*_ccb_slot_index^index2:204546:1.60747e-05
R^d*h^d*_ccb_slot_index^index2:204700:1.60747e-05
G^d*e^d*_ccb_slot_index^index2:204857:1.60747e-05
L^d*N^d:204864:1.60747e-05
2^ff*4^ff:204930:0.000558349
f^d*w^d*_ccb_slot_index^index2:205019:1.60747e-05
!^ff*8^ff:205181:0.000558349
F^d*L^d:205187:1.60747e-05
w^d:205316:0.000282789
Baction^d*u^f:205331:1.60747e-05
Q^d*Z^d:205433:1.60747e-05
%^ff*1^ff:205740:0.000558349
H^d*H^d:205748:1.60747e-05
n^d*o^d:205918:1.60747e-05
O^d*action^d*_ccb_slot_index^index2:205942:1.60747e-05
W^d*x^d*_ccb_slot_index^index2:206280:0.000282789
8^ff*_ccb_slot_index^index0:206298:0.000558349
caction^d*j^d*_ccb_slot_index^index2:206349:1.60747e-05
Caction^d*V^d*_ccb_slot_index^index2:206418:1.60747e-05
Caction^d*j:206420:1.60747e-05
N^d*e^d*_ccb_slot_index^index2:206553:1.60747e-05
M^d*p^d*_ccb_slot_index^index2:206576:1.60747e-05
!^ff*!^ff:206658:0.000558349
Action^d*baction^d*_ccb_slot_index^index0:206699:1.60747e-05
O^d*Y^d*_ccb_slot_index^index2:206726:1.60747e-05
2^ff*3^ff:206738:0.000558349
Action^d*w^d*_ccb_slot_index^index2:206791:1.60747e-05
I^g*baction^d:206799:1.60747e-05
M^d*V^d*_ccb_slot_index^index2:206872:1.60747e-05
l^d*y^d*_ccb_slot_index^index2:206873:1.60747e-05
G^d*V^d*_ccb_slot_index^index2:206911:1.60747e-05
F^d*W^d:206950:1.60747e-05
R^d*w^d:206955:0.000282789
e^d*t^d:207027:1.60747e-05
m^d*y^d:207058:1.60747e-05
F^d*z^d:207093:1.60747e-05
G^d*q^d*_ccb_slot_index^index2:207145:1.60747e-05
w^d*y^d*_ccb_slot_index^index2:207344:0.000282789
I^g*p^d*_ccb_slot_index^index2:207376:1.60747e-05
4^ff*7^ff:207397:0.000558349
F^d*Y^d:207643:1.60747e-05
Q^d*i^g*_ccb_slot_index^index2:207748:1.60747e-05
Q^d*z^d*_ccb_slot_index^index2:207839:1.60747e-05
Daction^d*baction^d:207999:1.60747e-05
3^ff*4^ff*_ccb_slot_index^index0:208044:0.000558349
$^ff*6^ff*_ccb_slot_index^index0:208071:0.000558349
Daction^d*j^d:208091:1.60747e-05
N^d*i^g:208259:1.60747e-05
q^d*j*_ccb_slot_index^index2:208322:1.60747e-05
Action^fff*Slot^h*_ccb_slot_index^index0:208421:-0.0292915
Y^d*j^d:208462:1.60747e-05
J^d*x^d*_ccb_slot_index^index2:208484:1.60747e-05
Caction^d*N^d*_ccb_slot_index^index2:208495:1.60747e-05
V^d*n^d*_ccb_slot_index^index2:208497:1.60747e-05
N^d*N^d*_ccb_slot_index^index2:208514:1.60747e-05
m^d*n^d*_ccb_slot_index^index2:208528:1.60747e-05
F^d*X^d:208542:1.60747e-05
P^d*y^d:208545:1.60747e-05
G^d*caction^d:208585:1.60747e-05
Y^d*baction^d:208618:1.60747e-05
User^b*o^d:208641:1.60747e-05
Baction^d*M^d*_ccb_slot_index^index2:208799:1.60747e-05
M^d*j:208882:1.60747e-05
Action^fff*User^c:209117:-0.0351348
G^d*v^d:209175:1.60747e-05
X^d*p^d:209212:1.60747e-05
Caction^d*Y^d:209303:1.60747e-05
User^b*User^c*_ccb_slot_index^index2:209322:0.000282789
u^f*v^d:209334:0.000282789
Caction^d*z^d:209529:1.60747e-05
Daction^d*j*_ccb_slot_index^index2:209560:1.60747e-05
0^ff*Slot^h*_ccb_slot_index^index0:209583:0.000558349
L^d*Y^d*_ccb_slot_index^index2:209642:2.27331e-05
P^d*Q^d*_ccb_slot_index^index2:209688:1.60747e-05
m^d*x^d*_ccb_slot_index^index2:209783:1.60747e-05
T^d*t^d:209845:0.000282789
Ection^d*action^d:209898:1.60747e-05
Caction^d*X^d:209938:1.60747e-05
Z^d*w^d:210054:0.000282789
G^d*Z^d*_ccb_slot_index^index2:210098:1.60747e-05
9^ff*Slot^h:210101:0.000558349
e^d*q^d*_ccb_slot_index^index2:210168:1.60747e-05
F^d*n^d*_ccb_slot_index^index2:210259:1.60747e-05
Baction^d*f^d*_ccb_slot_index^index2:210375:1.60747e-05
Ection^d*Q^d*_ccb_slot_index^index2:210417:1.60747e-05
Slot^h*User^a:210560:0.0151461
Action^e:210597:-0.015931
F^d*z^d*_ccb_slot_index^index2:210609:1.60747e-05
8^ff*User^b:210703:0.000558349
Action^d*Baction^d*_ccb_slot_index^index2:210733:1.60747e-05
%^ff*&^ff*_ccb_slot_index^index0:210941:0.000558349
M^d*Y^d:210993:1.60747e-05
t^d*y^d:211004:0.000282789
N^d*o^d*_ccb_slot_index^index2:211164:1.60747e-05
J^d*h^d:211216:1.60747e-05
F^d*h^d*_ccb_slot_index^index2:211254:1.60747e-05
M^d*Y^d*_ccb_slot_index^index2:211517:1.60747e-05
(^ff*4^ff:211564:0.000558349
