Version 8.10.2
Id
Min label:-1
Max label:0
bits:18
lda:0
0 ngram:
0 skip:
options: --cb_adf --cb_explore_adf --cb_sample --cb_type mtr --ccb_explore_adf --csoaa_ldf multiline --csoaa_rank --quadratic ::
Checksum: 1827071792
CCB: has_seen_multi_slot_example = 1
event_sum 24
action_sum 96
:1
initial_t 0
norm normalizer 292.778
t 8
sum_loss -1.15476
sum_loss_since_last_dump 0
dump_interval 16
min_label -1
max_label 0
weighted_labeled_examples 8
weighted_labels 0
weighted_unlabeled_examples 0
example_number 8
total_features 219
total_weight 15.2712
sd::oec.weighted_labeled_examples 8
current_pass 1
431:-0.0419037 3.99269 1
1661:-0.0547154 4.26487 1
2034:-0.0530573 1.35799 1
2511:-0.0346667 2.14685 1
3266:0.0147191 0.583885 1
4791:0.0336545 0.21463 1
5298:0.0207825 0.631875 1
9911:0.0367456 0.850556 1
13082:-0.0326172 2.40559 1
13730:0.0336545 0.21463 1
14750:0.0367456 0.850556 1
15948:0.0367456 0.850556 1
17264:0.00406543 0.0976312 1
19394:-0.0433955 2.09333 1
20550:0.0336545 0.21463 1
22111:0.0367456 0.850556 1
23097:-0.0247718 2.80276 1
25433:-0.0316374 5.33005 1
25739:-0.0494035 6.99009 1
26782:0.0157592 0.00552527 1
28919:-0.0289888 4.76167 1
29418:-0.0330654 1.43957 1
32658:-0.0316374 5.33005 1
35132:0.0177621 0.0720275 1
45148:-0.0354002 0.353757 1
45455:-0.0316374 5.33005 1
46490:-0.0354002 0.353757 1
46836:-0.0530573 1.35799 1
56120:0.0177621 0.0720275 1
57653:-0.0530573 1.35799 1
64262:0.0207825 0.631875 1
68306:-0.0282435 1.5372 1
69205:0.0131859 0.57836 1
69868:-0.0433955 2.09333 1
71687:-0.020678 0.523416 1
72060:0.0183041 0.0815743 1
72545:-0.0547154 4.26487 1
84641:-0.0433955 2.09333 1
89129:-0.0530573 1.35799 1
91701:0.0336545 0.21463 1
92808:0.0207825 0.631875 1
94198:-0.0330654 1.43957 1
94841:0.0219684 0.0775527 1
97084:0.00406543 0.0976312 1
97571:-0.0354002 0.353757 1
98871:-0.0354002 0.353757 1
100701:0.0219684 0.0775527 1
101156:-0.0530573 1.35799 1
102170:0.0367456 0.850556 1
104617:-0.0282435 1.5372 1
111266:0.0367456 0.850556 1
112427:-0.0547154 4.26487 1
115322:0.00406543 0.0976312 1
116060:-0.0657661 9.67001 1
117014:-0.0289888 4.76167 1
117506:-0.020678 0.523416 1
118310:-0.0346667 2.14685 1
118468:-0.0316374 5.33005 1
119311:-0.0316374 5.33005 1
121303:0.00406543 0.0976312 1
122751:0.0336545 0.21463 1
125257:0.0336545 0.21463 1
126903:0.0367456 0.850556 1
128980:-0.0282435 1.5372 1
128996:0.0219684 0.0775527 1
130445:-0.0330654 1.43957 1
131477:0.0207825 0.631875 1
135021:0.00406543 0.0976312 1
137701:0.0147191 0.583885 1
138472:-0.0346667 2.14685 1
138680:0.00406543 0.0976312 1
139866:-0.0494035 6.99009 1
140640:0.0177621 0.0720275 1
140680:-0.0289888 4.76167 1
144017:0.0207825 0.631875 1
146795:0.0336545 0.21463 1
147184:-0.0433955 2.09333 1
147239:0.00816948 0.0535151 1
149098:0.0177621 0.0720275 1
150028:0.00406543 0.0976312 1
151326:-0.0247718 2.80276 1
154232:0.0147191 0.583885 1
154800:-0.0346667 2.14685 1
155010:-0.0247718 2.80276 1
170302:0.0177621 0.0720275 1
171035:0.0177621 0.0720275 1
171286:0.00406543 0.0976312 1
174568:-0.0768618 5.70443 1
177210:0.0219684 0.0775527 1
181540:-0.0445201 3.91111 1
182946:-0.0282435 1.5372 1
183500:-0.0768618 5.70443 1
184547:0.0367456 0.850556 1
186288:0.0336545 0.21463 1
194431:-0.0354002 0.353757 1
194660:0.0336545 0.21463 1
196516:0.0157592 0.00552527 1
197378:-0.0294459 2.15651 1
206203:0.00816948 0.0535151 1
208421:-0.0330654 1.43957 1
209117:-0.0530573 1.35799 1
209188:0.0207825 0.631875 1
210560:0.0183041 0.0815743 1
210597:-0.0326172 2.40559 1
211944:-0.0547154 4.26487 1
216067:0.0183041 0.0815743 1
218617:-0.0294459 2.15651 1
221062:-0.0433955 2.09333 1
221492:-0.0433955 2.09333 1
222950:0.0336545 0.21463 1
223070:0.0219684 0.0775527 1
228536:-0.0247718 2.80276 1
236086:0.00406543 0.0976312 1
236864:-0.0354002 0.353757 1
237300:0.00406543 0.0976312 1
240815:0.0183041 0.0815743 1
245969:0.0131859 0.57836 1
246098:0.0183041 0.0815743 1
257787:-0.0289888 4.76167 1
258872:0.0147191 0.583885 1
260176:0.0219684 0.0775527 1
