Version 8.11.0
Id 
Min label:-1
Max label:0
bits:18
lda:0
0 ngram:
0 skip:
options: --cb_adf --cb_explore_adf --cb_sample --cb_type mtr --ccb_explore_adf --csoaa_ldf multiline --csoaa_rank --quadratic ::
Checksum: 1827071792
CCB: has_seen_multi_slot_example = true
event_sum 48
action_sum 192
:1
initial_t 0
norm normalizer 503.06
t 16
sum_loss -2.28571
sum_loss_since_last_dump 0
dump_interval 16
min_label -1
max_label 0
weighted_labeled_examples 8
weighted_labels 0
weighted_unlabeled_examples 0
example_number 8
total_features 640
total_weight 26.4534
sd::oec.weighted_labeled_examples 8
current_pass 1
Action^fff*User^a:431:-0.0650002 4.99076 1
Action^fff*_id^index1:1661:-0.0586287 8.37653 1
Slot^h*User^c:2034:-0.0414376 5.61245 1
User^a*_id^index2:2511:-0.0548888 2.62326 1
Action^e*Action^e*_id^index1:4791:0.0405952 0.30334 1
Action^f*_id^index2:5298:0.0451879 0.486359 1
Action^ff*Slot^i*_id^index1:9911:0.0505533 0.953438 1
Action^e*Action^e:13082:-0.0591043 2.97085 1
User^c*_id^index1:13730:0.0405952 0.30334 1
Action^ff*User^a:14750:0.0505533 0.953438 1
Action^ff*_id^index1:15948:0.0505533 0.953438 1
Action^e*Slot^h*_id^index0:17264:0.0132341 0.212295 1
Action^e*User^a*_id^index2:19394:-0.0777058 2.45521 1
Action^e*User^c:20550:0.0405952 0.30334 1
Action^ff*Action^ff*_id^index1:22111:0.0505533 0.953438 1
j:23097:-0.0445725 2.99273 1
_id^index1:25433:-0.0290591 9.63331 1
User^a:25739:-0.0747362 8.63037 1
Action^d*User^c:26782:0.0355532 0.773303 1
User^a*User^a*_id^index1:28919:-0.0465493 5.84846 1
Action^fff*Action^fff*_id^index0:29418:-0.0295842 4.94263 1
User^b*User^c*_id^index0:29798:0.0165876 0.765563 1
Slot^i*Slot^i:32658:-0.0290591 9.63331 1
Action^e*User^b*_id^index1:44017:0.0118423 0.06114 1
User^b*_id^index1:45148:-0.00657556 3.54265 1
Slot^i*Slot^i*_id^index1:45455:-0.0290591 9.63331 1
Slot^i*User^b:46490:-0.00657556 3.54265 1
User^c*User^c*_id^index0:46836:-0.0414376 5.61245 1
Action^d*Action^d*_id^index0:48540:0.0165876 0.765563 1
User^b*User^b*_id^index2:56120:0.0204634 0.0434197 1
Action^fff*User^c*_id^index0:57653:-0.0506173 4.84689 1
Action^f*Action^f*_id^index2:64262:0.0451879 0.486359 1
_id^index0:68306:-0.0127927 5.92068 1
Action^f*User^c:69205:0.0153919 0.318315 1
User^b:71687:0.0166108 4.5012 1
User^a*User^a*_id^index0:72060:0.0382951 0.15866 1
Action^fff*Action^fff*_id^index1:72545:-0.0586287 8.37653 1
User^b*User^c*_id^index1:73197:0.0118423 0.06114 1
Action^ff*Action^ff*_id^index0:81876:0.00102282 0.000196944 1
Action^ff*User^b:83218:0.00102282 0.000196944 1
Action^e*_id^index2:84641:-0.0777058 2.45521 1
Action^ff*_id^index0:88007:0.00102282 0.000196944 1
User^c*_id^index0:89129:-0.0414376 5.61245 1
Slot^i*User^c*_id^index1:91701:0.0405952 0.30334 1
Action^f*Action^f:92808:0.0451879 0.486359 1
Action^fff*_id^index0:94198:-0.0295842 4.94263 1
Action^d*_id^index2:94841:0.0278725 0.0511593 1
Action^e*Action^e*_id^index0:97084:0.0132341 0.212295 1
Action^fff*User^b:97571:-0.0108223 3.48151 1
Slot^i*User^b*_id^index1:98871:-0.00657556 3.54265 1
Action^d:100701:0.0439323 0.816722 1
Slot^h*User^c*_id^index0:101156:-0.0414376 5.61245 1
Action^ff*Slot^i:102170:0.0505533 0.953438 1
Slot^h:104617:-0.0127927 5.92068 1
Action^ff*Action^ff:111266:0.0505657 0.953635 1
Action^fff*Slot^i:112427:-0.0586287 8.37653 1
Action^d*User^c*_id^index0:113256:0.0165876 0.765563 1
Action^e*User^b*_id^index0:115322:0.00466531 0.149372 1
Constant:116060:-0.0669703 18.5467 1
Action^ff*Slot^h:116156:0.00102282 0.000196944 1
Slot^i*User^a:117014:-0.0465493 5.84846 1
User^b*User^b:117506:0.0166108 4.5012 1
Slot^i*_id^index1:118468:-0.0290591 9.63331 1
Slot^i:119311:-0.0290591 9.63331 1
User^b*_id^index0:121303:0.0198543 0.915132 1
Action^d*User^b*_id^index0:122098:0.0165876 0.765563 1
User^c*User^c*_id^index1:122751:0.0405952 0.30334 1
Action^e*Slot^i*_id^index1:125257:0.0405952 0.30334 1
Action^ff:126903:0.0505657 0.953635 1
Slot^h*Slot^h*_id^index0:128980:-0.0127927 5.92068 1
Action^fff*Slot^h:130445:-0.0295842 4.94263 1
Action^d*Slot^h*_id^index0:133528:0.0165876 0.765563 1
Action^e*_id^index0:135021:0.0132341 0.212295 1
User^c*_id^index2:137701:0.0183268 0.326054 1
Action^e*User^b:138680:0.0110483 0.210512 1
User^a*User^a:139866:-0.0747362 8.63037 1
Action^d*User^b:140640:0.0365975 0.808983 1
User^a*_id^index1:140680:-0.0465493 5.84846 1
Action^d*_id^index0:145333:0.0165876 0.765563 1
Action^e*User^c*_id^index1:146795:0.0405952 0.30334 1
Action^e*Action^e*_id^index2:147184:-0.0777058 2.45521 1
Action^f*User^a:147239:0.0436098 0.168044 1
Slot^h*User^b:150028:0.0198543 0.915132 1
_id^index2:151326:-0.0445725 2.99273 1
Slot^h*_id^index0:153817:-0.0127927 5.92068 1
User^a*User^a*_id^index2:154800:-0.0548888 2.62326 1
Action^d*User^b*_id^index2:170302:0.0204634 0.0434197 1
User^b*_id^index2:171035:0.0204634 0.0434197 1
Action^e*Slot^h:171286:0.0132341 0.212295 1
Action^d*Slot^h:173518:0.0165876 0.765563 1
Action^fff*Action^fff:174568:-0.0756126 13.3192 1
Action^ff*User^b*_id^index0:176516:0.00102282 0.000196944 1
Action^d*Action^d:177210:0.0439323 0.816722 1
Action^fff*User^a*_id^index1:181540:-0.0695411 4.89502 1
Slot^h*Slot^h:182946:-0.0127927 5.92068 1
Action^fff:183500:-0.0756126 13.3192 1
Action^ff*User^a*_id^index1:184547:0.0505533 0.953438 1
Action^e*Slot^i:186288:0.0405952 0.30334 1
User^b*User^b*_id^index1:194431:-0.00657556 3.54265 1
Slot^i*User^c:194660:0.0405952 0.30334 1
Action^d*User^c*_id^index2:196516:0.0190506 0.00773963 1
User^c*User^c:197378:-0.0170932 6.24185 1
Action^e*User^a*_id^index0:200206:0.0157454 0.0629223 1
Action^f*User^a*_id^index2:206203:0.0436098 0.168044 1
Action^fff*Slot^h*_id^index0:208421:-0.0295842 4.94263 1
Action^fff*User^c:209117:-0.0506173 4.84689 1
Action^f:209188:0.0451879 0.486359 1
Slot^h*User^a:210560:0.0382951 0.15866 1
Action^e:210597:-0.0591043 2.97085 1
Action^fff*Slot^i*_id^index1:211944:-0.0586287 8.37653 1
User^a*_id^index0:216067:0.0382951 0.15866 1
Action^ff*Slot^h*_id^index0:216102:0.00102282 0.000196944 1
User^c:218617:-0.0170932 6.24185 1
Action^e*User^a:221492:-0.0746966 2.51813 1
Action^e*_id^index1:222950:0.0405952 0.30334 1
User^b*User^c:231164:0.0198077 0.826703 1
Slot^h*User^b*_id^index0:236086:0.0198543 0.915132 1
Action^fff*User^b*_id^index1:236864:-0.0108223 3.48151 1
User^b*User^b*_id^index0:237300:0.0198543 0.915132 1
Action^fff*User^a*_id^index0:240815:0.0309276 0.0957373 1
Action^f*User^c*_id^index2:245969:0.0153919 0.318315 1
Slot^h*User^a*_id^index0:246098:0.0382951 0.15866 1
Slot^i*User^a*_id^index1:257787:-0.0465493 5.84846 1
User^c*User^c*_id^index2:258872:0.0183268 0.326054 1
Action^d*Action^d*_id^index2:260176:0.0278725 0.0511593 1
