Version 9.6.0
Id 
Min label:-1
Max label:0
bits:18
lda:0
0 ngram:
0 skip:
options: --cb_adf --cb_explore_adf --cb_sample --cb_type mtr --ccb_explore_adf --csoaa_ldf multiline --csoaa_rank --quadratic ::
Checksum: 1827071792
CCB: has_seen_multi_slot_example = true
event_sum 24
action_sum 96
:1
initial_t 0
norm normalizer 305.424
t 8
sum_loss -1.15476
sum_loss_since_last_dump 0
dump_interval 16
min_label -1
max_label 0
weighted_labeled_examples 8
weighted_labels 0
weighted_unlabeled_examples 0
example_number 8
total_features 2040
total_weight 15.2712
sd::oec.weighted_labeled_examples 8
current_pass 1
l1_state 0
l2_state 1
Action^fff*User^a:431:-0x1.588c6p-5 0x1.ff13a2p+1 0x1p+0
Action^fff*_ccb_slot_index^index1:1661:-0x1.be9b4p-5 0x1.10c68ep+2 0x1p+0
Slot^h*User^c:2034:-0x1.a18fecp-5 0x1.5aa682p+0 0x1p+0
User^a*_ccb_slot_index^index2:2511:-0x1.13f518p-5 0x1.14941ap+1 0x1p+0
User^c*j:3266:0x1.f19becp-7 0x1.726db6p-1 0x1p+0
Action^e*Action^e*_ccb_slot_index^index1:4791:0x1.0d3952p-5 0x1.a75d08p-3 0x1p+0
Action^f*_ccb_slot_index^index2:5298:0x1.5aa138p-6 0x1.8b83bap-1 0x1p+0
Action^ff*Slot^i*_ccb_slot_index^index1:9911:0x1.2c849cp-5 0x1.b48756p-1 0x1p+0
Action^e*Action^e:13082:-0x1.04f294p-5 0x1.2f0ea8p+1 0x1p+0
User^c*_ccb_slot_index^index1:13730:0x1.0d3952p-5 0x1.a75d08p-3 0x1p+0
Action^ff*User^a:14750:0x1.2c849cp-5 0x1.b48756p-1 0x1p+0
Action^ff*_ccb_slot_index^index1:15948:0x1.2c849cp-5 0x1.b48756p-1 0x1p+0
Action^e*Slot^h*_ccb_slot_index^index0:17264:0x1.8985d8p-9 0x1.b794bep-5 0x1p+0
j*_ccb_slot_index^index2:18597:-0x1.6da2ccp-6 0x1.7d0e92p+1 0x1p+0
Action^e*User^a*_ccb_slot_index^index2:19394:-0x1.5767b8p-5 0x1.0dba86p+1 0x1p+0
Action^e*User^c:20550:0x1.0d3952p-5 0x1.a75d08p-3 0x1p+0
Action^ff*Action^ff*_ccb_slot_index^index1:22111:0x1.2c849cp-5 0x1.b48756p-1 0x1p+0
j:23097:-0x1.6da2ccp-6 0x1.7d0e92p+1 0x1p+0
_ccb_slot_index^index1:25433:-0x1.03ed2p-5 0x1.54926p+2 0x1p+0
User^a:25739:-0x1.904aep-5 0x1.c064c8p+2 0x1p+0
Action^d*User^c:26782:0x1.ff9e3ap-7 0x1.28281cp-8 0x1p+0
User^a*User^a*_ccb_slot_index^index1:28919:-0x1.db13e8p-6 0x1.30e09p+2 0x1p+0
Action^fff*Action^fff*_ccb_slot_index^index0:29418:-0x1.0769e4p-5 0x1.6f8f34p+0 0x1p+0
Slot^i*Slot^i:32658:-0x1.03ed2p-5 0x1.54926p+2 0x1p+0
User^b*j:35132:0x1.3ae30ep-6 0x1.7be13p-4 0x1p+0
User^b*_ccb_slot_index^index1:45148:-0x1.1d70c4p-5 0x1.676e8ep-2 0x1p+0
Slot^i*Slot^i*_ccb_slot_index^index1:45455:-0x1.03ed2p-5 0x1.54926p+2 0x1p+0
Slot^i*User^b:46490:-0x1.1d70c4p-5 0x1.676e8ep-2 0x1p+0
User^c*User^c*_ccb_slot_index^index0:46836:-0x1.a18fecp-5 0x1.5aa682p+0 0x1p+0
User^b*User^b*_ccb_slot_index^index2:56120:0x1.3ae30ep-6 0x1.7be13p-4 0x1p+0
Action^fff*User^c*_ccb_slot_index^index0:57653:-0x1.a18fecp-5 0x1.5aa682p+0 0x1p+0
Action^f*Action^f*_ccb_slot_index^index2:64262:0x1.5aa138p-6 0x1.8b83bap-1 0x1p+0
_ccb_slot_index^index0:68306:-0x1.df9fa2p-6 0x1.7d4bdap+0 0x1p+0
Action^f*User^c:69205:0x1.c92c8ap-7 0x1.701d66p-1 0x1p+0
Action^e*j*_ccb_slot_index^index2:69868:-0x1.5767b8p-5 0x1.0dba86p+1 0x1p+0
User^b:71687:-0x1.5a7ed8p-6 0x1.fd5972p-2 0x1p+0
User^a*User^a*_ccb_slot_index^index0:72060:0x1.19d926p-6 0x1.4e8b16p-4 0x1p+0
Action^fff*Action^fff*_ccb_slot_index^index1:72545:-0x1.be9b4p-5 0x1.10c68ep+2 0x1p+0
Action^e*_ccb_slot_index^index2:84641:-0x1.5767b8p-5 0x1.0dba86p+1 0x1p+0
User^c*_ccb_slot_index^index0:89129:-0x1.a18fecp-5 0x1.5aa682p+0 0x1p+0
Slot^i*User^c*_ccb_slot_index^index1:91701:0x1.0d3952p-5 0x1.a75d08p-3 0x1p+0
Action^f*Action^f:92808:0x1.5aa138p-6 0x1.8b83bap-1 0x1p+0
Action^fff*_ccb_slot_index^index0:94198:-0x1.0769e4p-5 0x1.6f8f34p+0 0x1p+0
Action^d*_ccb_slot_index^index2:94841:0x1.7205fep-6 0x1.8e63b2p-4 0x1p+0
Action^e*Action^e*_ccb_slot_index^index0:97084:0x1.8985d8p-9 0x1.b794bep-5 0x1p+0
Action^fff*User^b:97571:-0x1.1d70c4p-5 0x1.676e8ep-2 0x1p+0
Slot^i*User^b*_ccb_slot_index^index1:98871:-0x1.1d70c4p-5 0x1.676e8ep-2 0x1p+0
Action^d:100701:0x1.7205fep-6 0x1.8e63b2p-4 0x1p+0
Slot^h*User^c*_ccb_slot_index^index0:101156:-0x1.a18fecp-5 0x1.5aa682p+0 0x1p+0
Action^ff*Slot^i:102170:0x1.2c849cp-5 0x1.b48756p-1 0x1p+0
Slot^h:104617:-0x1.df9fa2p-6 0x1.7d4bdap+0 0x1p+0
Action^ff*Action^ff:111266:0x1.2c849cp-5 0x1.b48756p-1 0x1p+0
Action^fff*Slot^i:112427:-0x1.be9b4p-5 0x1.10c68ep+2 0x1p+0
Action^e*User^b*_ccb_slot_index^index0:115322:0x1.8985d8p-9 0x1.b794bep-5 0x1p+0
Constant:116060:-0x1.05534p-4 0x1.39364ep+3 0x1p+0
Slot^i*User^a:117014:-0x1.db13e8p-6 0x1.30e09p+2 0x1p+0
User^b*User^b:117506:-0x1.5a7ed8p-6 0x1.fd5972p-2 0x1p+0
User^a*j*_ccb_slot_index^index2:118310:-0x1.13f518p-5 0x1.14941ap+1 0x1p+0
Slot^i*_ccb_slot_index^index1:118468:-0x1.03ed2p-5 0x1.54926p+2 0x1p+0
Slot^i:119311:-0x1.03ed2p-5 0x1.54926p+2 0x1p+0
User^b*_ccb_slot_index^index0:121303:0x1.8985d8p-9 0x1.b794bep-5 0x1p+0
User^c*User^c*_ccb_slot_index^index1:122751:0x1.0d3952p-5 0x1.a75d08p-3 0x1p+0
Action^e*Slot^i*_ccb_slot_index^index1:125257:0x1.0d3952p-5 0x1.a75d08p-3 0x1p+0
Action^ff:126903:0x1.2c849cp-5 0x1.b48756p-1 0x1p+0
Slot^h*Slot^h*_ccb_slot_index^index0:128980:-0x1.df9fa2p-6 0x1.7d4bdap+0 0x1p+0
Action^d*j*_ccb_slot_index^index2:128996:0x1.7205fep-6 0x1.8e63b2p-4 0x1p+0
Action^fff*Slot^h:130445:-0x1.0769e4p-5 0x1.6f8f34p+0 0x1p+0
Action^f*j:131477:0x1.5aa138p-6 0x1.8b83bap-1 0x1p+0
Action^e*_ccb_slot_index^index0:135021:0x1.8985d8p-9 0x1.b794bep-5 0x1p+0
User^c*_ccb_slot_index^index2:137701:0x1.f19becp-7 0x1.726db6p-1 0x1p+0
User^a*j:138472:-0x1.13f518p-5 0x1.14941ap+1 0x1p+0
Action^e*User^b:138680:0x1.8985d8p-9 0x1.b794bep-5 0x1p+0
User^a*User^a:139866:-0x1.904aep-5 0x1.c064c8p+2 0x1p+0
Action^d*User^b:140640:0x1.3ae30ep-6 0x1.7be13p-4 0x1p+0
User^a*_ccb_slot_index^index1:140680:-0x1.db13e8p-6 0x1.30e09p+2 0x1p+0
Action^f*j*_ccb_slot_index^index2:144017:0x1.5aa138p-6 0x1.8b83bap-1 0x1p+0
Action^e*User^c*_ccb_slot_index^index1:146795:0x1.0d3952p-5 0x1.a75d08p-3 0x1p+0
Action^e*Action^e*_ccb_slot_index^index2:147184:-0x1.5767b8p-5 0x1.0dba86p+1 0x1p+0
Action^f*User^a:147239:0x1.f88922p-8 0x1.b66538p-5 0x1p+0
User^b*j*_ccb_slot_index^index2:149098:0x1.3ae30ep-6 0x1.7be13p-4 0x1p+0
Slot^h*User^b:150028:0x1.8985d8p-9 0x1.b794bep-5 0x1p+0
_ccb_slot_index^index2:151326:-0x1.6da2ccp-6 0x1.7d0e92p+1 0x1p+0
Slot^h*_ccb_slot_index^index0:153817:-0x1.df9fa2p-6 0x1.7d4bdap+0 0x1p+0
User^c*j*_ccb_slot_index^index2:154232:0x1.f19becp-7 0x1.726db6p-1 0x1p+0
User^a*User^a*_ccb_slot_index^index2:154800:-0x1.13f518p-5 0x1.14941ap+1 0x1p+0
j*j:155010:-0x1.6da2ccp-6 0x1.7d0e92p+1 0x1p+0
Action^d*User^b*_ccb_slot_index^index2:170302:0x1.3ae30ep-6 0x1.7be13p-4 0x1p+0
User^b*_ccb_slot_index^index2:171035:0x1.3ae30ep-6 0x1.7be13p-4 0x1p+0
Action^e*Slot^h:171286:0x1.8985d8p-9 0x1.b794bep-5 0x1p+0
Action^fff*Action^fff:174568:-0x1.36ae72p-4 0x1.6caa5ap+2 0x1p+0
Action^d*Action^d:177210:0x1.7205fep-6 0x1.8e63b2p-4 0x1p+0
Action^fff*User^a*_ccb_slot_index^index1:181540:-0x1.6cb55ep-5 0x1.f49f4ap+1 0x1p+0
Slot^h*Slot^h:182946:-0x1.df9fa2p-6 0x1.7d4bdap+0 0x1p+0
Action^fff:183500:-0x1.36ae72p-4 0x1.6caa5ap+2 0x1p+0
Action^ff*User^a*_ccb_slot_index^index1:184547:0x1.2c849cp-5 0x1.b48756p-1 0x1p+0
Action^e*Slot^i:186288:0x1.0d3952p-5 0x1.a75d08p-3 0x1p+0
User^b*User^b*_ccb_slot_index^index1:194431:-0x1.1d70c4p-5 0x1.676e8ep-2 0x1p+0
Slot^i*User^c:194660:0x1.0d3952p-5 0x1.a75d08p-3 0x1p+0
Action^d*User^c*_ccb_slot_index^index2:196516:0x1.ff9e3ap-7 0x1.28281cp-8 0x1p+0
User^c*User^c:197378:-0x1.b6ba7ep-6 0x1.24648p+1 0x1p+0
Action^f*User^a*_ccb_slot_index^index2:206203:0x1.f88922p-8 0x1.b66538p-5 0x1p+0
Action^fff*Slot^h*_ccb_slot_index^index0:208421:-0x1.0769e4p-5 0x1.6f8f34p+0 0x1p+0
Action^fff*User^c:209117:-0x1.a18fecp-5 0x1.5aa682p+0 0x1p+0
Action^f:209188:0x1.5aa138p-6 0x1.8b83bap-1 0x1p+0
Slot^h*User^a:210560:0x1.19d926p-6 0x1.4e8b16p-4 0x1p+0
Action^e:210597:-0x1.04f294p-5 0x1.2f0ea8p+1 0x1p+0
Action^fff*Slot^i*_ccb_slot_index^index1:211944:-0x1.be9b4p-5 0x1.10c68ep+2 0x1p+0
User^a*_ccb_slot_index^index0:216067:0x1.19d926p-6 0x1.4e8b16p-4 0x1p+0
User^c:218617:-0x1.b6ba7ep-6 0x1.24648p+1 0x1p+0
Action^e*j:221062:-0x1.5767b8p-5 0x1.0dba86p+1 0x1p+0
Action^e*User^a:221492:-0x1.5767b8p-5 0x1.0dba86p+1 0x1p+0
Action^e*_ccb_slot_index^index1:222950:0x1.0d3952p-5 0x1.a75d08p-3 0x1p+0
Action^d*j:223070:0x1.7205fep-6 0x1.8e63b2p-4 0x1p+0
j*j*_ccb_slot_index^index2:228536:-0x1.6da2ccp-6 0x1.7d0e92p+1 0x1p+0
Slot^h*User^b*_ccb_slot_index^index0:236086:0x1.8985d8p-9 0x1.b794bep-5 0x1p+0
Action^fff*User^b*_ccb_slot_index^index1:236864:-0x1.1d70c4p-5 0x1.676e8ep-2 0x1p+0
User^b*User^b*_ccb_slot_index^index0:237300:0x1.8985d8p-9 0x1.b794bep-5 0x1p+0
Action^fff*User^a*_ccb_slot_index^index0:240815:0x1.19d926p-6 0x1.4e8b16p-4 0x1p+0
Action^f*User^c*_ccb_slot_index^index2:245969:0x1.c92c8ap-7 0x1.701d66p-1 0x1p+0
Slot^h*User^a*_ccb_slot_index^index0:246098:0x1.19d926p-6 0x1.4e8b16p-4 0x1p+0
Slot^i*User^a*_ccb_slot_index^index1:257787:-0x1.db13e8p-6 0x1.30e09p+2 0x1p+0
User^c*User^c*_ccb_slot_index^index2:258872:0x1.f19becp-7 0x1.726db6p-1 0x1p+0
Action^d*Action^d*_ccb_slot_index^index2:260176:0x1.7205fep-6 0x1.8e63b2p-4 0x1p+0
