Version 8.11.0
Id 
Min label:-1
Max label:0
bits:18
lda:0
0 ngram:
0 skip:
options: --cb_adf --cb_explore_adf --cb_sample --cb_type mtr --ccb_explore_adf --csoaa_ldf multiline --csoaa_rank --quadratic ::
Checksum: 1827071792
CCB: has_seen_multi_slot_example = 1
event_sum 33
action_sum 132
:0
m^d*p^d:85:6.35276e-06
Baction^d*F^d*_id^index2:117:6.35276e-06
0^ff:162:0.000438273
V^d*g^d*_id^index2:171:6.35276e-06
F^d*Q^d*_id^index2:322:6.35276e-06
e^d*i^g:364:6.35276e-06
Action^fff*User^a:431:0.0147185
I^g*j*_id^index2:456:6.35276e-06
Y^d*o^d*_id^index2:544:6.35276e-06
F^d*T^d:568:6.35276e-06
g^d*j:621:6.35276e-06
F^d*M^d*_id^index2:646:6.35276e-06
Baction^d*V^d:667:6.35276e-06
F^d*l^d:808:6.35276e-06
Caction^d*N^d:875:6.35276e-06
N^d*t^d:1116:6.35276e-06
User^b*Y^d*_id^index2:1139:6.35276e-06
I^g*Y^d*_id^index2:1181:6.35276e-06
L^d*j:1407:6.35276e-06
T^d*W^d*_id^index2:1546:0.000286904
P^d*p^d:1574:6.35276e-06
M^d*s^d*_id^index2:1602:6.35276e-06
Action^fff*_id^index1:1661:0.00505362
(^ff*9^ff:1667:0.000438273
Ection^d:1696:6.35276e-06
N^d*z^d*_id^index2:1932:6.35276e-06
H^d*s^d*_id^index2:1997:6.35276e-06
Slot^h*User^c:2034:-0.0364969
Y^d*i^g*_id^index2:2035:6.35276e-06
F^d*P^d*_id^index2:2074:6.35276e-06
O^d*r^d:2078:6.35276e-06
G^d*v^d*_id^index2:2091:6.35276e-06
Action^d*Y^d*_id^index2:2105:6.35276e-06
baction^d*_id^index2:2162:6.35276e-06
h^d*r^d:2167:6.35276e-06
caction^d*h^d:2200:6.35276e-06
Baction^d*I^g:2427:6.35276e-06
User^a*_id^index2:2511:-0.0217888
Caction^d*s^d*_id^index2:2632:6.35276e-06
o^d*u^f*_id^index2:2633:6.35276e-06
M^d*i^g*_id^index2:2640:6.35276e-06
M^d*N^d:2765:6.35276e-06
s^d*z^d*_id^index2:2789:0.000286904
T^d*g^d:2887:6.35276e-06
caction^d*_id^index2:2911:6.35276e-06
I^g*R^d*_id^index2:2980:6.35276e-06
baction^d*h^d:2997:6.35276e-06
Ection^d*g^d*_id^index2:3178:6.35276e-06
User^c*j:3266:0.000285502
caction^d*z^d*_id^index2:3281:6.35276e-06
G^d*J^d:3361:6.35276e-06
Ection^d*u^f*_id^index2:3725:6.35276e-06
User^c*v^d*_id^index2:3908:0.000285502
!^ff*5^ff*_id^index0:3985:0.000438273
Baction^d*i^g*_id^index2:4007:6.35276e-06
M^d*l^d:4098:6.35276e-06
e^d*g^d:4161:6.35276e-06
m^d*t^d*_id^index2:4224:6.35276e-06
action^d*x^d:4265:6.35276e-06
%^ff*6^ff*_id^index0:4302:0.000438273
M^d*T^d:4370:6.35276e-06
V^d*V^d:4386:0.000286904
L^d*z^d:4434:6.35276e-06
I^g*l^d*_id^index2:4440:6.35276e-06
L^d*W^d:4545:6.35276e-06
Baction^d*O^d:4724:6.35276e-06
7^ff*Slot^h:4741:0.000438273
Action^e*Action^e*_id^index1:4791:0.00631952
L^d*Y^d:4796:6.35276e-06
Q^d*g^d*_id^index2:4855:6.35276e-06
Q^d*x^d:5080:6.35276e-06
i^g*n^d*_id^index2:5305:6.35276e-06
&^ff*(^ff*_id^index0:5344:0.000438273
o^d*s^d:5427:6.35276e-06
l^d*p^d:5562:6.35276e-06
User^b*q^d:5594:6.35276e-06
g^d*z^d:5696:6.35276e-06
g^d*h^d*_id^index2:5865:6.35276e-06
Q^d*r^d*_id^index2:5895:6.35276e-06
L^d*X^d:5945:6.35276e-06
M^d*W^d*_id^index2:6074:6.35276e-06
L^d*L^d:6180:6.35276e-06
q^d*w^d*_id^index2:6197:6.35276e-06
User^c*W^d:6268:0.000285502
action^d*e^d:6321:6.35276e-06
Caction^d*T^d:6324:6.35276e-06
User^c*z^d:6383:0.000285502
Baction^d*Baction^d*_id^index2:6530:6.35276e-06
Caction^d*l^d:6564:6.35276e-06
X^d*y^d:6587:0.000286904
F^d*N^d:6631:6.35276e-06
T^d*i^g:6762:6.35276e-06
baction^d*s^d*_id^index2:6903:6.35276e-06
User^c*Y^d:6913:0.000285502
Q^d*e^d:7104:6.35276e-06
Caction^d*Caction^d*_id^index2:7112:6.35276e-06
J^d*P^d:7236:6.35276e-06
T^d*w^d*_id^index2:7251:0.000286904
2^ff*9^ff:7277:0.000438273
I^g*q^d*_id^index2:7298:6.35276e-06
G^d*L^d*_id^index2:7374:6.35276e-06
Z^d*r^d*_id^index2:7476:0.000286904
3^ff*5^ff:7525:0.000438273
Action^d*R^d*_id^index2:7688:6.35276e-06
i^g*w^d:7783:6.35276e-06
User^c*X^d:7812:0.000285502
n^d*q^d:7813:6.35276e-06
4^ff*£^ff:7917:0.000438273
caction^d*caction^d*_id^index2:7920:6.35276e-06
x^d*j*_id^index2:7930:0.000286904
Baction^d*Z^d*_id^index2:7954:6.35276e-06
Action^d*w^d:8035:6.35276e-06
O^d*n^d:8076:6.35276e-06
6^ff*7^ff:8092:0.000438273
Caction^d*Ection^d*_id^index2:8105:6.35276e-06
N^d*R^d*_id^index2:8155:6.35276e-06
h^d*n^d:8165:6.35276e-06
O^d*m^d*_id^index2:8228:6.35276e-06
2^ff*Slot^h:8240:0.000438273
0^ff*0^ff*_id^index2:8242:6.35276e-06
Baction^d*s^d:8333:6.35276e-06
User^b*t^d:8491:6.35276e-06
Ection^d*h^d:8505:6.35276e-06
L^d*daction^d:8725:6.35276e-06
X^d*e^d*_id^index2:8920:6.35276e-06
R^d*Z^d:8921:0.000286904
baction^d*h^d*_id^index2:8945:6.35276e-06
Ection^d*_id^index2:8958:6.35276e-06
G^d:9062:6.35276e-06
p^d*z^d*_id^index2:9259:6.35276e-06
action^d*j^d*_id^index2:9284:6.35276e-06
Daction^d*n^d:9317:6.35276e-06
Action^d*x^d:9328:6.35276e-06
x^d*j:9484:0.000286904
i^g*x^d:9588:6.35276e-06
)^ff*User^b*_id^index0:9590:0.000438273
O^d*T^d*_id^index2:9647:6.35276e-06
g^d*j^d*_id^index2:9698:6.35276e-06
X^d*m^d:9729:6.35276e-06
e^d*o^d:9881:6.35276e-06
Y^d*n^d:9968:6.35276e-06
r^d*r^d:10088:0.000286904
u^f*j*_id^index2:10144:0.000286904
P^d*y^d*_id^index2:10349:6.35276e-06
q^d*u^f*_id^index2:10394:6.35276e-06
Z^d:10422:0.000286904
Q^d*w^d:10443:6.35276e-06
)^ff*7^ff:10479:0.000438273
User^b*q^d*_id^index2:10544:6.35276e-06
%^ff*)^ff:10613:0.000438273
$^ff:10629:0.000438273
j^d*r^d:10668:6.35276e-06
f^d*x^d*_id^index2:10786:6.35276e-06
n^d*t^d:10868:6.35276e-06
Ection^d*daction^d*_id^index1:10896:6.35276e-06
T^d*t^d*_id^index2:10993:0.000286904
action^d*w^d:11194:6.35276e-06
J^d*action^d:11203:6.35276e-06
Action^d*e^d:11368:6.35276e-06
caction^d*i^g*_id^index2:11534:6.35276e-06
%^ff*1^ff*_id^index0:11542:0.000438273
&^ff*&^ff:11554:0.000438273
1^ff*5^ff:11556:0.000438273
N^d*User^b*_id^index2:11569:6.35276e-06
l^d*q^d*_id^index2:11586:6.35276e-06
W^d*r^d*_id^index2:11605:0.000286904
7^ff*Slot^h*_id^index0:11661:0.000438273
F^d*X^d*_id^index2:11684:6.35276e-06
7^ff*9^ff:11992:0.000438273
I^g*X^d*_id^index2:12194:6.35276e-06
I^g*n^d:12245:6.35276e-06
Z^d*l^d*_id^index2:12303:6.35276e-06
$^ff*£^ff:12339:0.000438273
N^d*q^d:12461:6.35276e-06
P^d*User^b:12528:6.35276e-06
x^d*z^d:12577:0.000286904
Y^d*r^d:12642:0.000286904
F^d*R^d*_id^index2:12706:6.35276e-06
&^ff*7^ff:13039:0.000438273
Action^e*Action^e:13082:-0.0153953
V^d*s^d:13108:0.000286904
Action^d*F^d:13148:6.35276e-06
Y^d*z^d*_id^index2:13168:0.000286904
Daction^d*r^d:13303:6.35276e-06
Daction^d*z^d*_id^index2:13443:6.35276e-06
4^ff*5^ff*_id^index0:13629:0.000438273
User^c*_id^index1:13730:0.00631952
Caction^d*Q^d*_id^index2:13878:6.35276e-06
H^d*J^d:14349:6.35276e-06
I^g*r^d:14407:6.35276e-06
R^d*j*_id^index2:14460:0.000286904
Ection^d*V^d*_id^index2:14517:6.35276e-06
J^d*j*_id^index2:14798:6.35276e-06
User^b*e^d*_id^index2:15008:6.35276e-06
(^ff*Slot^h:15070:0.000438273
L^d*j^d*_id^index2:15084:6.35276e-06
p^d*v^d:15238:6.35276e-06
F^d*G^d*_id^index2:15515:6.35276e-06
1^ff*6^ff*_id^index0:15546:0.000438273
&^ff*1^ff*_id^index0:15603:0.000438273
T^d*o^d:15775:6.35276e-06
Z^d*Z^d:15924:0.000286904
j^d*n^d:15934:6.35276e-06
User^b*daction^d*_id^index2:15996:6.35276e-06
0^ff*3^ff*_id^index0:16037:0.000438273
6^ff*£^ff*_id^index0:16366:0.000438273
Action^d*h^d*_id^index2:16644:6.35276e-06
p^d*t^d:16685:6.35276e-06
baction^d*y^d:16698:6.35276e-06
(^ff*2^ff*_id^index0:16750:0.000438273
P^d*P^d:16762:6.35276e-06
H^d*R^d:16779:6.35276e-06
R^d*X^d:16912:0.000286904
caction^d*y^d:16919:6.35276e-06
Action^d*N^d:16993:6.35276e-06
baction^d*g^d*_id^index2:17166:6.35276e-06
5^ff:17204:0.000438273
I^g*f^d:17210:6.35276e-06
$^ff*User^b:17496:0.000438273
User^b*caction^d:17502:6.35276e-06
R^d*z^d:17531:0.000286904
F^d*w^d:17637:6.35276e-06
R^d*W^d:17640:0.000286904
Daction^d*Q^d:17742:6.35276e-06
W^d*i^g:17780:6.35276e-06
G^d*o^d:17814:6.35276e-06
!^ff*6^ff:17997:0.000438273
H^d*g^d:18018:6.35276e-06
l^d*w^d*_id^index2:18083:6.35276e-06
P^d*g^d*_id^index2:18095:6.35276e-06
L^d:18274:6.35276e-06
R^d*Y^d:18325:0.000286904
r^d*r^d*_id^index2:18342:0.000286904
X^d:18559:0.000286904
Daction^d*f^d:18570:6.35276e-06
%^ff*)^ff*_id^index0:18941:0.000438273
Y^d*f^d:18975:6.35276e-06
(^ff*)^ff:19230:0.000438273
I^g*w^d*_id^index2:19299:6.35276e-06
baction^d*o^d*_id^index2:19366:6.35276e-06
Action^e*User^a*_id^index2:19394:-0.0217888
Z^d*j:19643:0.000286904
Y^d:19962:0.000286904
z^d:19988:0.000286904
W^d:20103:0.000286904
$^ff*)^ff*_id^index0:20176:0.000438273
I^g*Q^d:20222:6.35276e-06
T^d*j*_id^index2:20248:0.000286904
G^d*n^d*_id^index2:20378:6.35276e-06
L^d*L^d*_id^index2:20402:6.35276e-06
s^d*w^d*_id^index2:20437:0.000286904
L^d*o^d*_id^index2:20472:6.35276e-06
Ection^d*M^d:20489:6.35276e-06
Action^e*User^c:20550:0.00631952
R^d*j:20566:0.000286904
i^g*j*_id^index2:20656:6.35276e-06
n^d*v^d:20703:6.35276e-06
X^d*_id^index2:20723:0.000286904
w^d*x^d*_id^index2:20831:0.000286904
5^ff*Slot^h:21109:0.000438273
X^d*h^d:21300:6.35276e-06
Ection^d*m^d:21516:6.35276e-06
O^d*u^f:21523:6.35276e-06
W^d*g^d:21593:6.35276e-06
h^d*u^f:21626:6.35276e-06
Q^d*v^d*_id^index2:21856:6.35276e-06
$^ff*_id^index0:22157:0.000438273
H^d*i^g:22351:6.35276e-06
8^ff*9^ff*_id^index0:22374:0.000438273
M^d*w^d:22479:6.35276e-06
G^d*s^d*_id^index2:22537:6.35276e-06
Z^d*z^d:22678:0.000286904
Action^d*l^d:22702:6.35276e-06
%^ff*Slot^h:22709:0.000438273
R^d*v^d*_id^index2:22848:0.000286904
1^ff*4^ff*_id^index0:22915:0.000438273
i^g*l^d:22954:6.35276e-06
H^d*q^d*_id^index2:22957:6.35276e-06
Action^d*T^d:22974:6.35276e-06
j:23097:-0.0214331
O^d*R^d*_id^index2:23131:6.35276e-06
J^d*p^d:23320:6.35276e-06
Baction^d*Daction^d*_id^index2:23343:6.35276e-06
User^b*v^d:23424:6.35276e-06
H^d*I^g*_id^index2:23435:6.35276e-06
)^ff*£^ff*_id^index0:23479:0.000438273
f^d*i^g*_id^index2:23592:6.35276e-06
P^d*Y^d*_id^index2:23657:6.35276e-06
M^d*j^d*_id^index2:23887:6.35276e-06
I^g*h^d*_id^index2:23912:6.35276e-06
u^f*z^d*_id^index2:23931:0.000286904
s^d*x^d:24058:0.000286904
Caction^d*w^d:24169:6.35276e-06
Action^d*daction^d*_id^index2:24258:6.35276e-06
T^d*X^d*_id^index2:24306:0.000286904
Daction^d*V^d*_id^index2:24424:6.35276e-06
N^d*caction^d:24873:6.35276e-06
Baction^d*j^d:24882:6.35276e-06
Baction^d*baction^d:24982:6.35276e-06
T^d*daction^d*_id^index2:25030:6.35276e-06
J^d*Z^d*_id^index2:25075:6.35276e-06
L^d*w^d*_id^index2:25080:6.35276e-06
5^ff*9^ff*_id^index0:25130:0.000438273
G^d*i^g:25187:6.35276e-06
$^ff*2^ff*_id^index0:25190:0.000438273
Q^d*u^f*_id^index2:25204:6.35276e-06
W^d*o^d:25217:6.35276e-06
Action^d*baction^d*_id^index2:25255:6.35276e-06
_id^index1:25433:0.0103057
%^ff*7^ff*_id^index0:25466:0.000438273
baction^d*q^d*_id^index2:25559:6.35276e-06
I^g*u^f:25674:6.35276e-06
User^a:25739:-0.00617495
V^d*z^d*_id^index2:25747:0.000286904
M^d*e^d:25796:6.35276e-06
%^ff*9^ff:25832:0.000438273
H^d*M^d*_id^index2:25835:6.35276e-06
Caction^d*x^d:25978:6.35276e-06
r^d*z^d*_id^index2:26030:0.000286904
0^ff*8^ff:26334:0.000438273
s^d*w^d:26345:0.000286904
y^d*j*_id^index2:26463:0.000286904
N^d*u^f*_id^index2:26487:6.35276e-06
daction^d*p^d:26488:6.35276e-06
$^ff*0^ff*_id^index0:26773:0.000438273
F^d*F^d:26842:6.35276e-06
W^d*h^d*_id^index2:27082:6.35276e-06
Action^d*m^d*_id^index2:27087:6.35276e-06
Caction^d*o^d*_id^index2:27221:6.35276e-06
4^ff*User^b:27270:0.000438273
L^d*Q^d*_id^index2:27383:6.35276e-06
Ection^d*y^d:27574:6.35276e-06
Z^d*daction^d:27601:6.35276e-06
T^d*m^d*_id^index2:27723:6.35276e-06
f^d*z^d:27735:6.35276e-06
action^d*l^d:27767:6.35276e-06
M^d*x^d:27868:6.35276e-06
M^d*X^d*_id^index2:27970:6.35276e-06
Caction^d*e^d:28002:6.35276e-06
Y^d*u^f:28015:0.000286904
J^d*User^b:28110:6.35276e-06
Caction^d*M^d*_id^index2:28114:6.35276e-06
Q^d*T^d:28182:6.35276e-06
5^ff*9^ff:28200:0.000438273
O^d*baction^d*_id^index2:28220:6.35276e-06
P^d*n^d*_id^index2:28341:6.35276e-06
Q^d*l^d:28422:6.35276e-06
Daction^d*u^f:28666:6.35276e-06
Daction^d*Daction^d:28738:6.35276e-06
l^d*v^d*_id^index2:28852:6.35276e-06
H^d*o^d:28858:6.35276e-06
I^g*m^d*_id^index2:28891:6.35276e-06
r^d*u^f*_id^index2:28897:0.000286904
n^d*o^d*_id^index2:28900:6.35276e-06
e^d*i^g*_id^index2:29210:6.35276e-06
Q^d*q^d*_id^index2:29230:6.35276e-06
V^d*baction^d:29231:6.35276e-06
Caction^d*F^d:29270:6.35276e-06
V^d*j^d:29323:6.35276e-06
Action^fff*Action^fff*_id^index0:29418:-0.0310489
G^d*g^d:29518:6.35276e-06
O^d*f^d:29539:6.35276e-06
(^ff*User^b*_id^index0:29826:0.000438273
G^d*R^d:29863:6.35276e-06
e^d*v^d*_id^index2:29910:6.35276e-06
action^d*x^d*_id^index2:29973:6.35276e-06
j^d*u^f:30113:6.35276e-06
M^d*w^d*_id^index2:30147:6.35276e-06
p^d*q^d:30172:6.35276e-06
R^d*q^d*_id^index2:30222:6.35276e-06
P^d*action^d:30461:6.35276e-06
R^d*daction^d:30524:6.35276e-06
4^ff*8^ff*_id^index0:30665:0.000438273
F^d*e^d:30702:6.35276e-06
L^d*Z^d:30704:6.35276e-06
4^ff*_id^index0:30803:0.000438273
f^d*j:30842:6.35276e-06
&^ff*4^ff*_id^index0:31010:0.000438273
h^d*n^d*_id^index2:31329:6.35276e-06
daction^d*t^d*_id^index2:31387:6.35276e-06
&^ff*8^ff*_id^index0:31419:0.000438273
L^d*y^d*_id^index2:31534:6.35276e-06
j^d*q^d*_id^index2:31571:6.35276e-06
r^d*u^f:31589:0.000286904
!^ff*3^ff*_id^index0:31800:0.000438273
l^d*p^d*_id^index2:31952:6.35276e-06
%^ff*5^ff*_id^index0:32042:0.000438273
daction^d:32083:6.35276e-06
caction^d*m^d:32173:6.35276e-06
Daction^d*f^d*_id^index2:32288:6.35276e-06
User^c*Z^d:32333:0.000285502
baction^d*m^d:32384:6.35276e-06
O^d*Q^d:32423:6.35276e-06
Baction^d*q^d*_id^index2:32457:6.35276e-06
N^d*v^d:32503:6.35276e-06
Slot^i*Slot^i:32658:0.0103057
!^ff*$^ff*_id^index0:32690:0.000438273
User^b*n^d*_id^index2:32703:6.35276e-06
Z^d*o^d*_id^index2:32748:6.35276e-06
F^d*x^d:32758:6.35276e-06
H^d*P^d*_id^index2:32855:6.35276e-06
Caction^d*o^d:32873:6.35276e-06
7^ff*_id^index0:33022:0.000438273
J^d*g^d*_id^index2:33041:6.35276e-06
R^d*t^d*_id^index2:33101:0.000286904
Q^d*R^d*_id^index2:33168:6.35276e-06
Z^d*caction^d:33241:6.35276e-06
m^d*s^d:33275:6.35276e-06
f^d*y^d*_id^index2:33297:6.35276e-06
O^d*W^d*_id^index2:33329:6.35276e-06
n^d*j:33379:6.35276e-06
R^d*v^d:33514:0.000286904
H^d*g^d*_id^index2:33624:6.35276e-06
G^d*O^d*_id^index2:33890:6.35276e-06
j^d*j^d*_id^index2:33950:6.35276e-06
I^g*W^d*_id^index2:34138:6.35276e-06
I^g*h^d:34162:6.35276e-06
O^d*daction^d*_id^index2:34413:6.35276e-06
I^g*_id^index2:34485:6.35276e-06
f^d*p^d*_id^index2:34504:6.35276e-06
1^ff*3^ff*_id^index0:34643:0.000438273
P^d*s^d:34696:6.35276e-06
W^d*x^d:34706:0.000286904
v^d:34949:0.000286904
s^d*v^d*_id^index2:34982:0.000286904
V^d*l^d*_id^index2:35000:6.35276e-06
User^b*j:35132:6.35276e-06
Ection^d*p^d*_id^index2:35133:6.35276e-06
Q^d*l^d*_id^index2:35180:6.35276e-06
I^g*L^d*_id^index2:35189:6.35276e-06
M^d*o^d:35279:6.35276e-06
Action^d*J^d:35284:6.35276e-06
&^ff*1^ff:35323:0.000438273
w^d*y^d:35354:0.000286904
m^d*j*_id^index2:35481:6.35276e-06
P^d*r^d*_id^index2:35487:6.35276e-06
N^d*daction^d:35617:6.35276e-06
Ection^d*n^d:35742:6.35276e-06
J^d*L^d*_id^index2:35887:6.35276e-06
Y^d*h^d:35927:6.35276e-06
Daction^d*_id^index2:36101:6.35276e-06
t^d*w^d*_id^index2:36404:0.000286904
Daction^d*h^d:36546:6.35276e-06
Baction^d*v^d*_id^index2:36683:6.35276e-06
W^d*e^d:36746:6.35276e-06
Y^d*_id^index2:36752:0.000286904
q^d*x^d*_id^index2:36848:6.35276e-06
M^d*T^d*_id^index2:36936:6.35276e-06
I^g*s^d*_id^index2:37026:6.35276e-06
4^ff*9^ff*_id^index0:37117:0.000438273
N^d*P^d*_id^index2:37235:6.35276e-06
action^d*e^d*_id^index2:37309:6.35276e-06
7^ff*User^b:37419:0.000438273
N^d*t^d*_id^index2:37834:6.35276e-06
F^d*H^d*_id^index2:37871:6.35276e-06
)^ff*1^ff:37883:0.000438273
l^d*s^d:37908:6.35276e-06
Q^d*p^d*_id^index2:37924:6.35276e-06
L^d*T^d*_id^index2:37971:6.35276e-06
T^d*User^c:37986:0.000285502
R^d*Z^d*_id^index2:38021:0.000286904
o^d*p^d:38045:6.35276e-06
Y^d*baction^d*_id^index2:38208:6.35276e-06
X^d*f^d:38268:6.35276e-06
H^d*x^d:38313:6.35276e-06
e^d*n^d*_id^index2:38471:6.35276e-06
n^d*z^d:38478:6.35276e-06
(^ff*5^ff*_id^index0:38571:0.000438273
Baction^d*P^d*_id^index2:38643:6.35276e-06
R^d*s^d*_id^index2:38702:0.000286904
M^d*User^b*_id^index2:38714:6.35276e-06
caction^d:38747:6.35276e-06
j^d*_id^index2:38750:6.35276e-06
Baction^d*User^b:38901:6.35276e-06
V^d*W^d*_id^index2:38970:0.000286904
L^d*q^d:39321:6.35276e-06
r^d*_id^index2:39322:0.000286904
8^ff:39384:0.000438273
Ection^d*Ection^d*_id^index2:39646:6.35276e-06
F^d*o^d:39653:6.35276e-06
J^d*j^d:39689:6.35276e-06
Q^d*s^d*_id^index2:39694:6.35276e-06
J^d*h^d*_id^index2:39726:6.35276e-06
u^f*w^d:39735:0.000286904
3^ff*9^ff*_id^index0:39789:0.000438273
User^b*X^d:39802:6.35276e-06
n^d*t^d*_id^index2:39810:6.35276e-06
G^d*w^d:39830:6.35276e-06
J^d*baction^d:39853:6.35276e-06
Q^d*y^d*_id^index2:39877:6.35276e-06
Ection^d*r^d:39948:6.35276e-06
User^c*Z^d*_id^index2:39977:0.000285502
e^d*z^d*_id^index2:40117:6.35276e-06
action^d*o^d*_id^index2:40144:6.35276e-06
Z^d*baction^d*_id^index2:40204:6.35276e-06
User^b*z^d:40209:6.35276e-06
R^d*caction^d:40244:6.35276e-06
User^b*W^d:40322:6.35276e-06
R^d*R^d*_id^index2:40368:0.000286904
H^d*e^d:40369:6.35276e-06
Z^d*v^d:40455:0.000286904
g^d*q^d:40587:6.35276e-06
User^b*Y^d:40703:6.35276e-06
User^c*x^d*_id^index2:40858:0.000285502
!^ff:40935:0.000438273
u^f*x^d:40996:0.000286904
G^d*x^d:41093:6.35276e-06
2^ff*User^b:41118:0.000438273
baction^d*n^d:41234:6.35276e-06
Baction^d*p^d:41251:6.35276e-06
daction^d*y^d*_id^index2:41331:6.35276e-06
caction^d*n^d:41535:6.35276e-06
M^d*t^d*_id^index2:41569:6.35276e-06
J^d*o^d*_id^index2:41641:6.35276e-06
f^d*n^d*_id^index2:41753:6.35276e-06
Baction^d*I^g*_id^index2:41919:6.35276e-06
T^d*l^d:42066:6.35276e-06
J^d*Q^d*_id^index2:42122:6.35276e-06
User^c*t^d:42197:0.000285502
!^ff*&^ff*_id^index0:42230:0.000438273
T^d*T^d:42306:0.000286904
5^ff*8^ff*_id^index0:42398:0.000438682
v^d*_id^index2:42561:0.000286904
z^d*_id^index2:42594:0.000286904
5^ff*£^ff:42672:0.000438273
V^d*i^g*_id^index2:42704:6.35276e-06
f^d*o^d*_id^index2:42715:6.35276e-06
Daction^d*M^d*_id^index2:42728:6.35276e-06
M^d*q^d*_id^index2:42850:6.35276e-06
daction^d*j^d:42857:6.35276e-06
Caction^d*i^g:42908:6.35276e-06
Baction^d*g^d*_id^index2:43124:6.35276e-06
G^d*e^d:43165:6.35276e-06
(^ff*_id^index0:43173:0.000438273
P^d*Slot^h*_id^index0:43304:6.35276e-06
Baction^d*H^d*_id^index2:43382:6.35276e-06
Daction^d*R^d*_id^index2:43636:6.35276e-06
g^d*t^d:43642:6.35276e-06
f^d*v^d:43718:6.35276e-06
F^d*R^d:43988:6.35276e-06
F^d*g^d:44093:6.35276e-06
Caction^d*T^d*_id^index2:44098:6.35276e-06
N^d*j:44107:6.35276e-06
G^d*l^d*_id^index2:44127:6.35276e-06
%^ff*£^ff:44144:0.000438273
i^g*o^d*_id^index2:44347:6.35276e-06
L^d*t^d:44392:6.35276e-06
I^g*daction^d*_id^index2:44406:6.35276e-06
M^d*i^g:44602:6.35276e-06
User^b*daction^d:44630:6.35276e-06
M^d*m^d*_id^index2:44667:6.35276e-06
H^d*w^d:44730:6.35276e-06
G^d*i^g*_id^index2:44743:6.35276e-06
daction^d*p^d*_id^index2:44790:6.35276e-06
H^d:44810:6.35276e-06
M^d*action^d*_id^index2:45005:6.35276e-06
User^b*_id^index1:45148:0.00505362
R^d*j^d*_id^index2:45155:6.35276e-06
T^d*z^d*_id^index2:45315:0.000286904
Action^d*i^g*_id^index2:45372:6.35276e-06
Caction^d*R^d:45400:6.35276e-06
User^b*o^d*_id^index2:45453:6.35276e-06
Slot^i*Slot^i*_id^index1:45455:0.0103057
X^d*u^f:45580:0.000286904
2^ff*_id^index0:45643:0.000438273
V^d*p^d:45722:6.35276e-06
baction^d*e^d*_id^index2:45767:6.35276e-06
action^d*baction^d*_id^index2:45872:6.35276e-06
3^ff*User^b*_id^index0:46000:0.000438273
h^d*m^d*_id^index2:46155:6.35276e-06
R^d*i^g*_id^index2:46244:6.35276e-06
7^ff*9^ff*_id^index0:46298:0.000438273
t^d*v^d*_id^index2:46371:0.000286904
O^d*h^d:46379:6.35276e-06
$^ff*)^ff:46390:0.000438273
h^d*h^d:46402:6.35276e-06
Slot^i*User^b:46490:0.00505362
caction^d*r^d:46509:6.35276e-06
X^d*h^d*_id^index2:46530:6.35276e-06
l^d*l^d*_id^index2:46616:6.35276e-06
baction^d*r^d:46720:6.35276e-06
h^d*_id^index2:46725:6.35276e-06
Caction^d*g^d:46769:6.35276e-06
O^d*_id^index2:46828:6.35276e-06
User^c*User^c*_id^index0:46836:-0.0364969
Caction^d*X^d*_id^index2:46920:6.35276e-06
V^d*V^d*_id^index2:47000:0.000286904
N^d*z^d:47206:6.35276e-06
J^d*f^d*_id^index2:47254:6.35276e-06
)^ff*8^ff*_id^index0:47291:0.000438273
N^d*W^d:47349:6.35276e-06
M^d*R^d:47358:6.35276e-06
h^d*z^d*_id^index2:47363:6.35276e-06
P^d*X^d*_id^index2:47366:6.35276e-06
(^ff*User^b:47728:0.000438273
i^g*x^d*_id^index2:47746:6.35276e-06
X^d*s^d*_id^index2:47816:0.000286904
User^b*s^d*_id^index2:47888:6.35276e-06
Caction^d*daction^d*_id^index2:48004:6.35276e-06
N^d*Y^d:48008:6.35276e-06
0^ff*5^ff:48178:0.000438273
W^d*w^d:48257:0.000286904
F^d*i^g:48400:6.35276e-06
!^ff*8^ff*_id^index0:48405:0.000438273
o^d*v^d*_id^index2:48501:6.35276e-06
N^d*X^d:48653:6.35276e-06
q^d*s^d:48754:6.35276e-06
M^d*g^d:48919:6.35276e-06
)^ff*4^ff*_id^index0:48930:0.000438273
e^d*l^d:48980:6.35276e-06
Ection^d*u^f:49153:6.35276e-06
5^ff*_id^index0:49166:0.000438273
Q^d*g^d:49171:6.35276e-06
O^d*m^d:49182:6.35276e-06
n^d*s^d*_id^index2:49185:6.35276e-06
i^g*o^d:49255:6.35276e-06
h^d*m^d:49271:6.35276e-06
(^ff*3^ff*_id^index0:49382:0.000438273
Action^d*o^d:49507:6.35276e-06
2^ff*2^ff*_id^index0:49564:0.000438273
V^d*action^d:49729:6.35276e-06
£^ff*£^ff:49768:0.000438273
w^d*_id^index2:50002:0.000286904
action^d*g^d:50018:6.35276e-06
e^d*x^d:50058:6.35276e-06
8^ff*8^ff*_id^index0:50082:0.000438273
f^d*z^d*_id^index2:50155:6.35276e-06
User^c*W^d*_id^index2:50218:0.000285502
Daction^d*y^d:50253:6.35276e-06
$^ff*Slot^h:50422:0.000438273
5^ff*Slot^h*_id^index0:50429:0.000438273
W^d*m^d*_id^index2:50517:6.35276e-06
J^d*M^d*_id^index2:50558:6.35276e-06
Baction^d*Caction^d:50701:6.35276e-06
Caction^d*v^d*_id^index2:50726:6.35276e-06
P^d*j^d:50743:6.35276e-06
Baction^d*action^d*_id^index2:50806:6.35276e-06
P^d*baction^d:50835:6.35276e-06
G^d*N^d:50836:6.35276e-06
Y^d*action^d*_id^index2:50898:6.35276e-06
Y^d*y^d:50904:0.000286904
q^d:50911:6.35276e-06
3^ff*8^ff:51081:0.000438273
Q^d*R^d:51194:6.35276e-06
L^d*caction^d:51229:6.35276e-06
6^ff*7^ff*_id^index0:51270:0.000438273
M^d*daction^d*_id^index2:51286:6.35276e-06
Caction^d*J^d:51422:6.35276e-06
%^ff*_id^index0:51918:0.000438273
Action^d*action^d*_id^index2:52105:6.35276e-06
e^d*e^d:52114:6.35276e-06
R^d*q^d:52400:6.35276e-06
M^d*P^d*_id^index2:52524:6.35276e-06
User^c*Y^d*_id^index2:52621:0.000285502
Action^d*u^f*_id^index2:52716:6.35276e-06
baction^d*f^d:52733:6.35276e-06
(^ff*£^ff:52763:0.000438273
X^d*p^d*_id^index2:52842:6.35276e-06
P^d*u^f*_id^index2:52924:6.35276e-06
caction^d*f^d:52944:6.35276e-06
I^g*y^d:53245:6.35276e-06
!^ff*2^ff:53254:0.000438273
Z^d*q^d:53341:6.35276e-06
f^d*t^d:53357:6.35276e-06
T^d*e^d:53396:6.35276e-06
g^d*v^d:53457:6.35276e-06
r^d*y^d:53458:0.000286904
Q^d*i^g:53566:6.35276e-06
Caction^d*G^d*_id^index2:53583:6.35276e-06
Baction^d*action^d:53752:6.35276e-06
Baction^d*Q^d*_id^index2:53755:6.35276e-06
action^d*i^g:53839:6.35276e-06
F^d*J^d:53842:6.35276e-06
p^d*u^f*_id^index2:53976:6.35276e-06
5^ff*User^b:53979:0.000438273
X^d*g^d*_id^index2:54077:6.35276e-06
W^d*f^d*_id^index2:54370:6.35276e-06
2^ff*£^ff:54517:0.000438273
Ection^d*User^b*_id^index2:54715:6.35276e-06
Ection^d*z^d*_id^index2:54786:6.35276e-06
N^d*f^d*_id^index2:54855:6.35276e-06
4^ff*9^ff:54901:0.000438273
p^d*t^d*_id^index2:54985:6.35276e-06
i^g*r^d*_id^index2:55043:6.35276e-06
L^d*v^d:55235:6.35276e-06
%^ff*User^b:55323:0.000438273
T^d*x^d:55436:0.000286904
J^d*s^d:55990:6.35276e-06
User^b*User^b*_id^index2:56120:6.35276e-06
G^d*action^d*_id^index2:56150:6.35276e-06
User^b*p^d*_id^index2:56226:6.35276e-06
Caction^d*Z^d*_id^index2:56287:6.35276e-06
J^d*J^d*_id^index2:56336:6.35276e-06
G^d*l^d:56411:6.35276e-06
e^d*y^d*_id^index2:56463:6.35276e-06
e^d*p^d*_id^index2:56506:6.35276e-06
I^g*N^d*_id^index2:56649:6.35276e-06
G^d*T^d:56651:6.35276e-06
j^d*y^d:56854:6.35276e-06
F^d*u^f*_id^index2:56862:6.35276e-06
User^c*v^d:56958:0.000285502
N^d*Z^d:57028:6.35276e-06
h^d*y^d*_id^index2:57513:6.35276e-06
Action^fff*User^c*_id^index0:57653:-0.0364969
baction^d*y^d*_id^index2:57680:6.35276e-06
N^d*Z^d*_id^index2:57746:6.35276e-06
j^d*m^d:57772:6.35276e-06
Daction^d*action^d*_id^index2:57821:6.35276e-06
T^d*l^d*_id^index2:57864:6.35276e-06
T^d*w^d:58271:0.000286904
Baction^d*G^d*_id^index2:58338:6.35276e-06
X^d*r^d*_id^index2:58509:0.000286904
f^d*q^d:58524:6.35276e-06
!^ff*(^ff*_id^index0:58538:0.000438273
Z^d*t^d:58540:0.000286904
0^ff*8^ff*_id^index0:58792:0.000438273
7^ff*£^ff:58944:0.000438273
Baction^d*P^d:59007:6.35276e-06
m^d*p^d*_id^index1:59030:6.35276e-06
daction^d*s^d:59094:6.35276e-06
Ection^d*f^d:59249:6.35276e-06
i^g*i^g:59282:6.35276e-06
J^d*O^d:59471:6.35276e-06
)^ff*4^ff:59472:0.000438273
H^d*T^d:59495:6.35276e-06
G^d*z^d*_id^index2:59628:6.35276e-06
j^d*z^d*_id^index2:59682:6.35276e-06
p^d*j:59706:6.35276e-06
G^d*caction^d*_id^index2:59765:6.35276e-06
H^d*l^d:59767:6.35276e-06
caction^d*u^f:59808:6.35276e-06
4^ff*Slot^h:59944:0.000438273
baction^d*u^f:60045:6.35276e-06
Ection^d*Q^d:60085:6.35276e-06
Baction^d*u^f*_id^index2:60663:6.35276e-06
baction^d*w^d*_id^index2:60838:6.35276e-06
X^d*r^d:60929:0.000286904
L^d*f^d*_id^index2:61035:6.35276e-06
i^g*y^d*_id^index2:61041:6.35276e-06
0^ff*7^ff*_id^index0:61140:0.000438273
v^d*y^d:61193:0.000286904
)^ff*3^ff:61248:0.000438273
M^d*e^d*_id^index2:61330:6.35276e-06
I^g*m^d:61511:6.35276e-06
action^d*l^d*_id^index2:61515:6.35276e-06
Action^d*R^d:61522:6.35276e-06
q^d*q^d*_id^index2:61576:6.35276e-06
H^d*W^d*_id^index2:61605:6.35276e-06
Action^d*z^d*_id^index2:61719:6.35276e-06
t^d:61998:0.000286904
&^ff*4^ff:62032:0.000438273
W^d*j^d*_id^index2:62337:6.35276e-06
H^d*N^d:62392:6.35276e-06
I^g*M^d:62530:6.35276e-06
H^d*X^d*_id^index2:62669:8.98431e-06
&^ff*3^ff:62784:0.000438273
Baction^d*L^d*_id^index2:62894:6.35276e-06
action^d*o^d:62906:6.35276e-06
Baction^d*l^d*_id^index2:62975:6.35276e-06
Ection^d*action^d*_id^index2:63040:6.35276e-06
Q^d*o^d:63179:6.35276e-06
Action^d*g^d:63419:6.35276e-06
1^ff*8^ff:63432:0.000438273
R^d*t^d:63553:0.000286904
e^d*w^d:63641:6.35276e-06
J^d*V^d:63648:6.35276e-06
$^ff*9^ff:63659:0.000438273
$^ff*8^ff*_id^index0:63831:0.000438273
Y^d*m^d:63842:6.35276e-06
X^d*n^d:63891:6.35276e-06
H^d*j*_id^index2:63899:6.35276e-06
(^ff:64013:0.000438273
W^d*l^d:64332:6.35276e-06
P^d*h^d*_id^index2:64372:6.35276e-06
User^b*Z^d:64435:6.35276e-06
Daction^d*m^d:64503:6.35276e-06
W^d*j*_id^index2:64746:0.000286904
p^d*z^d:64791:6.35276e-06
$^ff*4^ff*_id^index0:64990:0.000438273
T^d*p^d*_id^index2:65120:6.35276e-06
0^ff*0^ff:65444:0.000438682
h^d*y^d:65485:6.35276e-06
Daction^d*M^d:65522:6.35276e-06
n^d*v^d*_id^index2:65555:6.35276e-06
P^d*Z^d:65601:6.35276e-06
Action^d*M^d:65678:6.35276e-06
Action^d*t^d*_id^index2:65781:6.35276e-06
L^d*action^d:65868:6.35276e-06
1^ff*£^ff:66172:0.000438273
G^d*f^d*_id^index2:66215:6.35276e-06
&^ff*2^ff:66280:0.000438273
I^g*n^d*_id^index2:66385:6.35276e-06
I^g*g^d:66423:6.35276e-06
0^ff*6^ff*_id^index0:66424:0.000438273
T^d*r^d*_id^index2:66635:0.000286904
Action^d*m^d:66699:6.35276e-06
I^g*R^d:66718:8.98431e-06
M^d*u^f*_id^index2:66816:6.35276e-06
i^g*m^d:66959:6.35276e-06
h^d*o^d:66975:6.35276e-06
O^d*o^d:67062:6.35276e-06
H^d*f^d:67119:6.35276e-06
X^d*x^d:67322:0.000286904
Daction^d*e^d*_id^index2:67426:6.35276e-06
Baction^d*v^d:67447:6.35276e-06
R^d*T^d*_id^index2:67484:0.000286904
daction^d*z^d:67517:6.35276e-06
Ection^d*l^d:67625:6.35276e-06
Baction^d*J^d*_id^index2:67661:6.35276e-06
J^d*daction^d:67738:6.35276e-06
Daction^d*g^d:67783:6.35276e-06
Caction^d*caction^d*_id^index2:67868:6.35276e-06
Ection^d*T^d:67897:6.35276e-06
X^d*l^d*_id^index2:68018:6.35276e-06
Y^d*g^d:68178:6.35276e-06
_id^index0:68306:-0.0311956
L^d*z^d*_id^index2:68360:6.35276e-06
V^d*caction^d:68368:6.35276e-06
Q^d*Z^d*_id^index2:68453:6.35276e-06
H^d*Q^d:68587:6.35276e-06
s^d*_id^index2:68595:0.000286904
f^d*p^d:68754:6.35276e-06
Q^d*y^d:68761:6.35276e-06
F^d*I^g*_id^index2:68774:6.35276e-06
Action^d*O^d*_id^index2:68909:6.35276e-06
N^d*n^d*_id^index2:69114:6.35276e-06
u^f*v^d*_id^index2:69276:0.000286904
F^d*t^d*_id^index2:69315:6.35276e-06
j^d*m^d*_id^index2:69338:6.35276e-06
User^b*z^d*_id^index2:69341:6.35276e-06
X^d*e^d:69346:6.35276e-06
F^d*y^d*_id^index2:69387:6.35276e-06
M^d*z^d*_id^index2:69395:6.35276e-06
User^c*z^d*_id^index2:69411:0.000285502
Daction^d*R^d:69422:6.35276e-06
action^d*y^d:69608:6.35276e-06
Action^e*j*_id^index2:69868:-0.0217888
p^d*r^d*_id^index2:69923:6.35276e-06
M^d*x^d*_id^index2:69962:6.35276e-06
I^g*i^g:70234:6.35276e-06
R^d*User^b:70248:6.35276e-06
Ection^d*N^d:70374:6.35276e-06
5^ff*5^ff*_id^index0:70378:0.000438273
daction^d*j:70544:6.35276e-06
7^ff*8^ff:70644:0.000438273
W^d*f^d:70676:6.35276e-06
G^d*u^f:70771:6.35276e-06
V^d*v^d:70862:0.000286904
u^f*u^f:70866:0.000286904
j^d*x^d*_id^index2:70891:6.35276e-06
Daction^d*W^d*_id^index2:71306:6.35276e-06
Action^d*Z^d*_id^index2:71453:6.35276e-06
1^ff*7^ff*_id^index0:71566:0.000438273
e^d*w^d*_id^index2:71621:6.35276e-06
User^b:71687:0.00221221
N^d*baction^d:71702:6.35276e-06
Baction^d*caction^d:71849:6.35276e-06
N^d*j^d:71858:6.35276e-06
)^ff*2^ff:71912:0.000438273
User^a*User^a*_id^index0:72060:0.0147185
Daction^d*i^g:72170:6.35276e-06
baction^d*t^d*_id^index2:72184:6.35276e-06
n^d*u^f*_id^index2:72319:6.35276e-06
Action^fff*Action^fff*_id^index1:72545:0.00505362
Y^d*i^g:72575:6.35276e-06
p^d*s^d:72828:6.35276e-06
X^d*f^d*_id^index2:73002:6.35276e-06
caction^d*s^d*_id^index2:73092:6.35276e-06
Action^d*v^d*_id^index2:73176:6.35276e-06
P^d*action^d*_id^index2:73561:6.35276e-06
$^ff*5^ff:73579:0.000438273
!^ff*4^ff:73918:0.000438273
Baction^d*H^d:73976:6.35276e-06
O^d*Z^d*_id^index2:74002:6.35276e-06
i^g*p^d*_id^index2:74024:6.35276e-06
2^ff*8^ff:74049:0.000438273
Daction^d*Z^d*_id^index2:74057:6.35276e-06
H^d*u^f:74079:6.35276e-06
caction^d*l^d:74120:6.35276e-06
O^d*i^g:74243:6.35276e-06
h^d*i^g:74346:6.35276e-06
baction^d*l^d:74405:6.35276e-06
j^d*o^d:74820:6.35276e-06
I^g*y^d*_id^index2:74841:6.35276e-06
Ection^d*j^d*_id^index2:74878:6.35276e-06
W^d*X^d*_id^index2:74896:0.000286904
R^d*p^d:74942:6.35276e-06
&^ff*7^ff*_id^index0:74991:0.000438273
Caction^d*y^d*_id^index2:75263:6.35276e-06
caction^d*n^d*_id^index2:75315:6.35276e-06
Y^d*v^d*_id^index2:75343:0.000286904
2^ff*4^ff*_id^index0:75380:0.000438273
Action^d*W^d*_id^index2:75454:6.35276e-06
5^ff*6^ff*_id^index0:75534:0.000438273
!^ff*3^ff:75694:0.000438273
T^d*n^d:75749:6.35276e-06
G^d*j*_id^index2:76079:6.35276e-06
P^d*Z^d*_id^index2:76109:6.35276e-06
J^d*p^d*_id^index2:76246:6.35276e-06
F^d*_id^index2:76287:6.35276e-06
F^d*h^d:76344:6.35276e-06
V^d*j*_id^index2:76392:0.000286904
j^d*j*_id^index2:76645:6.35276e-06
e^d*r^d:76657:6.35276e-06
F^d*s^d*_id^index2:76964:6.35276e-06
J^d*V^d*_id^index2:77054:6.35276e-06
daction^d*s^d*_id^index2:77308:6.35276e-06
e^d*r^d*_id^index2:77309:6.35276e-06
p^d:77521:6.35276e-06
Ection^d*s^d*_id^index2:77651:6.35276e-06
J^d*j:77808:6.35276e-06
Q^d*T^d*_id^index1:77819:6.35276e-06
h^d*r^d*_id^index1:77836:6.35276e-06
action^d*m^d:77906:6.35276e-06
T^d*r^d:77943:0.000286904
Caction^d*h^d:78004:6.35276e-06
F^d*T^d*_id^index2:78134:6.35276e-06
4^ff*5^ff:78261:0.000438273
3^ff*£^ff:78397:0.000438273
J^d*L^d:78507:6.35276e-06
3^ff*Slot^h*_id^index0:78522:0.000438273
o^d*v^d:78537:6.35276e-06
G^d*f^d:78595:6.35276e-06
Q^d*m^d:78627:6.35276e-06
O^d*g^d:78638:6.35276e-06
W^d*u^f:78692:0.000286904
Caction^d*_id^index2:78707:6.35276e-06
User^c*t^d*_id^index2:78929:0.000285502
O^d*R^d:79047:6.35276e-06
daction^d*daction^d:79098:6.35276e-06
I^g*o^d:79279:6.35276e-06
R^d*User^c*_id^index2:79420:0.000285502
L^d*P^d:79563:6.35276e-06
Slot^h*£^ff*_id^index0:79607:0.000438273
J^d*Y^d*_id^index2:79703:6.35276e-06
R^d*caction^d*_id^index2:79810:6.35276e-06
J^d*Y^d:79923:6.35276e-06
Z^d*p^d:79955:0.000438682
G^d*j^d*_id^index2:80136:6.35276e-06
M^d*h^d:80146:6.35276e-06
Daction^d*v^d*_id^index2:80292:6.35276e-06
%^ff*(^ff:80401:0.000438273
i^g*y^d:80437:6.35276e-06
action^d*q^d*_id^index2:80557:6.35276e-06
M^d*_id^index2:80597:6.35276e-06
N^d*w^d*_id^index2:80604:6.35276e-06
Action^d*y^d:80689:6.35276e-06
Z^d*z^d*_id^index2:80700:0.000286904
%^ff*£^ff*_id^index2:80718:6.35276e-06
baction^d*p^d*_id^index2:80793:6.35276e-06
(^ff*8^ff:80815:0.000438273
p^d*y^d*_id^index2:80849:6.35276e-06
J^d*z^d:80861:6.35276e-06
Y^d*o^d:81034:6.35276e-06
I^g*caction^d*_id^index2:81102:6.35276e-06
e^d*n^d:81123:6.35276e-06
Q^d*action^d*_id^index2:81153:6.35276e-06
User^b*baction^d:81249:6.35276e-06
J^d*X^d:81334:6.35276e-06
User^b*j^d:81349:6.35276e-06
X^d*w^d:81385:0.000286904
Daction^d*o^d:81439:6.35276e-06
H^d*z^d*_id^index2:81536:6.35276e-06
p^d*p^d*_id^index2:81544:6.35276e-06
G^d*Q^d:81607:6.35276e-06
Ection^d*O^d*_id^index2:81804:6.35276e-06
Caction^d*M^d:82308:6.35276e-06
H^d*w^d*_id^index2:82384:6.35276e-06
I^g*j^d*_id^index2:82543:6.35276e-06
s^d*y^d:82619:0.000286904
H^d*n^d*_id^index2:82782:6.35276e-06
Daction^d*baction^d*_id^index2:83187:6.35276e-06
%^ff*8^ff*_id^index0:83294:0.000438273
action^d*h^d:83303:6.35276e-06
Caction^d*m^d:83329:6.35276e-06
Q^d*_id^index2:83409:6.35276e-06
X^d*z^d*_id^index2:83429:0.000286904
Q^d*h^d:83478:6.35276e-06
3^ff*User^b:83542:0.000438273
M^d*r^d*_id^index2:83579:6.35276e-06
action^d*_id^index2:83616:6.35276e-06
L^d*User^b:83777:6.35276e-06
M^d*M^d:84002:6.35276e-06
o^d*t^d:84066:6.35276e-06
0^ff*5^ff*_id^index0:84068:0.000438273
G^d*r^d:84094:6.35276e-06
Z^d*action^d:84104:6.35276e-06
Baction^d*q^d:84269:6.35276e-06
g^d*z^d*_id^index2:84446:6.35276e-06
Caction^d:84479:6.35276e-06
Action^e*_id^index2:84641:-0.0217888
L^d*caction^d*_id^index2:84665:6.35276e-06
T^d*f^d:84746:6.35276e-06
q^d*j:84788:6.35276e-06
N^d*daction^d*_id^index2:84973:6.35276e-06
M^d*m^d:85031:6.35276e-06
J^d*y^d*_id^index2:85075:6.35276e-06
J^d*N^d*_id^index2:85187:6.35276e-06
User^b*f^d*_id^index2:85218:6.35276e-06
q^d*r^d*_id^index2:85293:6.35276e-06
m^d*z^d*_id^index2:85422:6.35276e-06
Ection^d*w^d:85988:6.35276e-06
e^d*f^d:86028:6.35276e-06
Baction^d*R^d*_id^index2:86107:6.35276e-06
Daction^d*daction^d*_id^index2:86342:6.35276e-06
Daction^d*P^d*_id^index2:86588:6.35276e-06
Action^d*Baction^d:86753:8.98431e-06
5^ff*8^ff:86788:0.000438273
n^d*p^d*_id^index2:86991:6.35276e-06
R^d*action^d:87141:6.35276e-06
o^d*q^d*_id^index2:87159:6.35276e-06
3^ff*_id^index0:87171:0.000438273
User^b*x^d*_id^index2:87368:6.35276e-06
caction^d*e^d:87374:6.35276e-06
Action^d*Ection^d*_id^index2:87387:6.35276e-06
P^d*daction^d:87460:6.35276e-06
baction^d*e^d:87651:6.35276e-06
User^b*i^g*_id^index2:87810:6.35276e-06
e^d*u^f*_id^index2:87850:6.35276e-06
daction^d*v^d*_id^index2:87898:6.35276e-06
F^d*J^d*_id^index2:88072:6.35276e-06
F^d*Z^d*_id^index0:88103:6.35276e-06
0^ff*4^ff*_id^index0:88181:0.000438273
(^ff*(^ff:88186:0.000438273
baction^d*baction^d*_id^index2:88198:6.35276e-06
User^b*£^ff*_id^index0:88217:0.000438273
N^d*s^d:88333:6.35276e-06
%^ff*8^ff:88516:0.000438273
V^d*q^d:88724:6.35276e-06
F^d*M^d:88840:6.35276e-06
!^ff*1^ff:88853:0.000438273
M^d*baction^d*_id^index2:88931:6.35276e-06
daction^d*r^d*_id^index2:88961:6.35276e-06
0^ff*9^ff:89074:0.000438273
P^d*P^d*_id^index2:89104:6.35276e-06
User^c*_id^index0:89129:-0.0364969
$^ff*0^ff:89341:0.000438273
action^d*i^g*_id^index2:89411:6.35276e-06
caction^d*x^d:89430:6.35276e-06
J^d*Z^d:89471:6.35276e-06
action^d*m^d*_id^index2:89608:6.35276e-06
action^d:89610:6.35276e-06
W^d*o^d*_id^index2:89613:6.35276e-06
User^b*V^d:89708:6.35276e-06
baction^d*x^d:89723:6.35276e-06
I^g*User^b*_id^index2:89818:6.35276e-06
F^d*m^d:89869:6.35276e-06
q^d*z^d:89881:6.35276e-06
Caction^d*Y^d*_id^index2:90027:6.35276e-06
G^d*n^d:90092:6.35276e-06
N^d*s^d*_id^index2:90217:6.35276e-06
P^d*X^d:90248:8.98431e-06
m^d*z^d:90256:6.35276e-06
F^d*y^d:90295:6.35276e-06
Action^d*j^d*_id^index2:90363:6.35276e-06
l^d*j:90450:6.35276e-06
N^d*X^d*_id^index2:90473:6.35276e-06
V^d*u^f*_id^index2:90496:0.000286904
daction^d*z^d*_id^index2:90521:6.35276e-06
Y^d*l^d*_id^index2:90587:6.35276e-06
Caction^d*R^d*_id^index2:90774:6.35276e-06
H^d*R^d*_id^index2:90831:6.35276e-06
Baction^d*Ection^d*_id^index2:90888:6.35276e-06
Ection^d*F^d:91099:6.35276e-06
L^d*User^b*_id^index2:91213:6.35276e-06
t^d*j:91219:0.000286904
1^ff*_id^index0:91330:0.000438273
P^d*Y^d:91405:6.35276e-06
baction^d*w^d:91496:6.35276e-06
Slot^i*User^c*_id^index1:91701:0.00631952
caction^d*w^d:91717:6.35276e-06
P^d*W^d:91760:6.35276e-06
N^d*W^d*_id^index2:91825:6.35276e-06
7^ff*7^ff*_id^index0:91850:0.000438273
P^d*z^d:91875:6.35276e-06
o^d*x^d*_id^index2:91999:6.35276e-06
0^ff*Slot^h:92079:0.000438273
Baction^d*n^d*_id^index2:92282:6.35276e-06
Action^d*V^d*_id^index2:92436:6.35276e-06
p^d*j*_id^index2:92496:6.35276e-06
Ection^d*Z^d*_id^index2:92540:6.35276e-06
P^d:92557:6.35276e-06
H^d*n^d:92864:6.35276e-06
F^d*g^d*_id^index2:92953:6.35276e-06
N^d*O^d:93172:6.35276e-06
£^ff:93292:0.000438273
T^d*u^f:93306:0.000286904
baction^d*m^d*_id^index2:93342:6.35276e-06
!^ff*%^ff*_id^index0:93521:0.000438273
action^d*caction^d*_id^index2:93537:6.35276e-06
O^d*O^d*_id^index2:93570:6.35276e-06
V^d*t^d:93797:0.000286904
n^d*w^d*_id^index2:93924:6.35276e-06
v^d*w^d*_id^index2:94047:0.000286904
W^d*r^d:94057:0.000286904
Ection^d*x^d*_id^index2:94155:6.35276e-06
T^d*V^d*_id^index2:94184:0.000286904
Action^fff*_id^index0:94198:-0.0310489
Y^d*g^d*_id^index2:94216:6.35276e-06
t^d*z^d:94334:0.000286904
L^d*p^d:94615:6.35276e-06
Action^d*h^d:94654:6.35276e-06
Q^d*x^d*_id^index2:94742:6.35276e-06
Action^d*_id^index2:94841:6.35276e-06
P^d*j:94926:6.35276e-06
Baction^d*s^d*_id^index2:94953:6.35276e-06
f^d*r^d*_id^index2:95075:6.35276e-06
i^g*_id^index2:95101:6.35276e-06
P^d*w^d*_id^index2:95127:6.35276e-06
M^d*y^d:95133:6.35276e-06
m^d*j:95421:6.35276e-06
Ection^d*x^d:95479:6.35276e-06
N^d*j*_id^index2:95503:6.35276e-06
X^d*Y^d*_id^index2:95531:0.000286904
l^d*z^d:95615:6.35276e-06
$^ff*$^ff:95706:0.000438273
1^ff*User^b:95767:0.000438273
g^d*p^d:95877:6.35276e-06
Daction^d*J^d:95912:6.35276e-06
n^d*s^d:96037:6.35276e-06
e^d*u^f:96124:6.35276e-06
H^d*Z^d*_id^index2:96134:6.35276e-06
$^ff*3^ff*_id^index0:96238:0.000438273
N^d*Y^d*_id^index2:96262:6.35276e-06
!^ff*Slot^h*_id^index0:96310:0.000438273
!^ff*%^ff:96337:0.000438273
M^d*R^d*_id^index2:96452:6.35276e-06
W^d*n^d:96507:6.35276e-06
Baction^d*User^b*_id^index2:96689:6.35276e-06
X^d*l^d:96804:6.35276e-06
Caction^d*y^d:96827:6.35276e-06
)^ff*7^ff*_id^index0:97007:0.000438273
N^d*V^d:97051:6.35276e-06
F^d*f^d*_id^index2:97102:6.35276e-06
User^b*s^d:97402:6.35276e-06
o^d*q^d:97427:6.35276e-06
Ection^d*e^d:97519:6.35276e-06
I^g*J^d:97560:6.35276e-06
Action^fff*User^b:97571:0.00505362
H^d*r^d:97618:6.35276e-06
f^d*g^d*_id^index2:97619:6.35276e-06
Baction^d*t^d:97756:6.35276e-06
G^d*u^f*_id^index2:97815:6.35276e-06
(^ff*£^ff*_id^index0:97875:0.000438273
J^d*l^d*_id^index2:98078:6.35276e-06
$^ff*5^ff*_id^index0:98211:0.000438273
Q^d*f^d:98398:6.35276e-06
G^d*m^d:98430:6.35276e-06
F^d*n^d:98463:6.35276e-06
Caction^d*f^d*_id^index2:98730:6.35276e-06
Slot^i*User^b*_id^index1:98871:0.00505362
q^d*s^d*_id^index2:98920:6.35276e-06
R^d*z^d*_id^index2:99007:0.000286904
%^ff*5^ff:99112:0.000438273
action^d*f^d:99119:6.35276e-06
User^b*m^d*_id^index2:99285:6.35276e-06
M^d*r^d:99367:6.35276e-06
Daction^d*i^g*_id^index2:99392:6.35276e-06
G^d*M^d:99451:6.35276e-06
User^c*s^d*_id^index2:99794:0.000285502
caction^d*l^d*_id^index2:99846:6.35276e-06
Z^d*s^d*_id^index2:99929:0.000286904
I^g:99977:6.35276e-06
(^ff*1^ff*_id^index0:99991:0.000438273
Ection^d*n^d*_id^index2:100004:6.35276e-06
R^d*V^d:100102:0.000286904
J^d*t^d:100327:6.35276e-06
Baction^d*Ection^d:100690:6.35276e-06
Action^d:100701:6.35276e-06
Baction^d*Caction^d*_id^index2:100713:6.35276e-06
u^f*u^f*_id^index2:100744:0.000286904
5^ff*5^ff:100840:0.000438273
caction^d*u^f*_id^index2:100862:6.35276e-06
H^d*y^d:101096:6.35276e-06
Slot^h*User^c*_id^index0:101156:-0.0364969
L^d*N^d*_id^index2:101342:6.35276e-06
9^ff*User^b*_id^index0:101459:0.000438273
$^ff*$^ff*_id^index0:101628:0.000438273
User^b*action^d:101647:6.35276e-06
f^d*s^d:101692:6.35276e-06
T^d*h^d:101698:6.35276e-06
V^d:101737:0.000286904
Caction^d*r^d:101761:6.35276e-06
f^d*f^d*_id^index2:101768:6.35276e-06
Q^d*Q^d:101786:6.35276e-06
baction^d*g^d:101808:6.35276e-06
T^d*_id^index2:102021:0.000286904
caction^d*g^d:102045:6.35276e-06
)^ff*6^ff:102051:0.000438273
M^d*v^d*_id^index2:102100:6.35276e-06
i^g*m^d*_id^index2:102147:6.35276e-06
Action^d*Daction^d:102206:6.35276e-06
V^d*v^d*_id^index2:102228:0.000286904
daction^d*q^d:102262:6.35276e-06
Action^d*u^f:102534:6.35276e-06
Action^d*M^d*_id^index2:102548:6.35276e-06
i^g*u^f:102786:6.35276e-06
N^d*v^d*_id^index2:102859:6.35276e-06
Ection^d*o^d:102884:6.35276e-06
i^g*w^d*_id^index2:103227:6.35276e-06
0^ff*£^ff:103274:0.000438273
M^d*n^d:103349:6.35276e-06
N^d*h^d*_id^index2:103471:6.35276e-06
daction^d*l^d*_id^index2:103486:6.35276e-06
Daction^d*X^d*_id^index2:103538:6.35276e-06
&^ff*6^ff:103587:0.000438273
w^d*x^d:103771:0.000286904
Baction^d*w^d*_id^index2:103772:6.35276e-06
e^d*_id^index2:103811:6.35276e-06
Caction^d*i^g*_id^index2:103818:6.35276e-06
X^d*X^d*_id^index2:103880:0.000286904
R^d*action^d*_id^index2:103905:6.35276e-06
4^ff*Slot^h*_id^index0:103978:0.000438273
e^d*h^d:104004:6.35276e-06
h^d*o^d*_id^index2:104019:6.35276e-06
F^d*r^d:104205:6.35276e-06
O^d*j*_id^index2:104335:6.35276e-06
Ection^d*l^d*_id^index2:104341:6.35276e-06
p^d*s^d*_id^index2:104490:6.35276e-06
caction^d*daction^d*_id^index2:104520:6.35276e-06
l^d*t^d*_id^index2:104577:6.35276e-06
Slot^h:104617:-0.0311956
W^d*y^d:104659:0.000286904
m^d*u^f*_id^index2:104673:6.35276e-06
F^d*o^d*_id^index2:104801:6.35276e-06
q^d*v^d:104840:6.35276e-06
Caction^d*n^d:104979:6.35276e-06
g^d*m^d*_id^index2:105398:6.35276e-06
O^d*l^d:105531:6.35276e-06
h^d*l^d:105554:6.35276e-06
X^d*m^d*_id^index2:105613:6.35276e-06
baction^d*i^g:105629:6.35276e-06
Daction^d*x^d*_id^index2:105722:6.35276e-06
User^a*i^g:105760:6.35276e-06
O^d*T^d:105771:6.35276e-06
W^d*Z^d*_id^index2:105815:0.000286904
O^d:105862:6.35276e-06
l^d*r^d*_id^index2:105883:6.35276e-06
n^d*n^d*_id^index2:105906:6.35276e-06
p^d*p^d:105938:6.35276e-06
g^d*j*_id^index2:106121:6.35276e-06
caction^d*i^g:106416:6.35276e-06
Daction^d*w^d*_id^index2:106451:6.35276e-06
N^d*P^d:106495:6.35276e-06
P^d*v^d:106610:6.35276e-06
V^d*x^d*_id^index2:106698:0.000286904
Ection^d*R^d:106709:6.35276e-06
(^ff*Slot^h*_id^index0:106920:0.000438273
P^d*m^d*_id^index2:107167:6.35276e-06
(^ff*0^ff:107221:0.000438273
X^d*j*_id^index2:107426:0.000286904
I^g*J^d*_id^index2:107478:6.35276e-06
action^d*u^f:107615:6.35276e-06
9^ff:107764:0.000438273
R^d*s^d:107792:0.000286904
Y^d*l^d:107847:6.35276e-06
V^d*Z^d*_id^index2:107865:0.000286904
4^ff*£^ff*_id^index0:107973:0.000438273
m^d*v^d:108033:6.35276e-06
$^ff*(^ff:108114:0.000438273
h^d*p^d*_id^index2:108128:6.35276e-06
X^d*q^d*_id^index2:108200:6.35276e-06
Daction^d*T^d:108226:6.35276e-06
Q^d*u^f:108334:6.35276e-06
Ection^d*g^d:108348:6.35276e-06
Baction^d*Z^d:108356:6.35276e-06
Action^d*n^d*_id^index2:108357:6.35276e-06
W^d*m^d:108393:6.35276e-06
Daction^d*l^d:108498:6.35276e-06
N^d*action^d:108664:6.35276e-06
Z^d*g^d*_id^index2:108772:6.35276e-06
W^d*u^f*_id^index2:108914:0.000286904
r^d*w^d*_id^index2:109214:0.000286904
)^ff*3^ff*_id^index0:109330:0.000438273
Caction^d*baction^d*_id^index2:109365:6.35276e-06
N^d*T^d*_id^index2:109615:6.35276e-06
I^g*l^d:109666:6.35276e-06
Baction^d*G^d:109716:6.35276e-06
I^g*i^g*_id^index2:109744:6.35276e-06
I^g*T^d:109938:6.35276e-06
w^d*w^d:110152:0.000286904
f^d*q^d*_id^index2:110218:6.35276e-06
s^d:110463:0.000286904
R^d*X^d*_id^index2:110638:0.000286904
daction^d*o^d*_id^index2:110665:6.35276e-06
L^d*baction^d:110882:6.35276e-06
H^d*M^d:110935:6.35276e-06
caction^d*w^d*_id^index2:110977:6.35276e-06
L^d*j^d:110982:6.35276e-06
Caction^d*F^d*_id^index2:111228:6.35276e-06
J^d*q^d:111382:6.35276e-06
l^d*v^d:111598:6.35276e-06
L^d*u^f*_id^index2:111611:6.35276e-06
Action^d*s^d*_id^index2:111830:6.35276e-06
V^d*Z^d:111869:0.000286904
2^ff*9^ff*_id^index0:111941:0.000438273
H^d*m^d:111954:6.35276e-06
Z^d*t^d*_id^index2:112090:0.000286904
Ection^d*i^g:112145:6.35276e-06
y^d*_id^index2:112252:0.000286904
g^d*j^d:112276:6.35276e-06
R^d*User^b*_id^index2:112294:6.35276e-06
I^g*N^d:112301:6.35276e-06
t^d*v^d:112367:0.000286904
Action^fff*Slot^i:112427:0.00505362
Action^d*f^d:112630:6.35276e-06
caction^d*o^d:112709:6.35276e-06
Ection^d*P^d*_id^index2:112777:6.35276e-06
6^ff*6^ff:113104:0.000438273
l^d*z^d*_id^index2:113139:6.35276e-06
Z^d*s^d:113149:0.000286904
Action^d*Q^d:113202:6.35276e-06
baction^d*o^d:113512:6.35276e-06
daction^d*t^d:113543:6.35276e-06
l^d*o^d*_id^index2:113827:6.35276e-06
User^b*W^d*_id^index2:113848:6.35276e-06
Daction^d*N^d:113949:6.35276e-06
j^d*l^d:114057:6.35276e-06
L^d*W^d*_id^index2:114125:6.35276e-06
Y^d*q^d*_id^index2:114333:6.35276e-06
u^f*y^d:114533:0.000286904
User^b*£^ff:114537:0.000438273
s^d*x^d*_id^index2:114576:0.000286904
w^d*z^d*_id^index2:114582:0.000286904
P^d*caction^d:114604:6.35276e-06
G^d*y^d:114628:6.35276e-06
H^d*h^d:114791:6.35276e-06
%^ff*0^ff:114878:0.000438273
daction^d*v^d:114988:6.35276e-06
j^d*x^d:115031:6.35276e-06
R^d*V^d*_id^index2:115052:0.000286904
Baction^d*W^d:115061:6.35276e-06
Baction^d*j*_id^index2:115087:6.35276e-06
Baction^d*z^d:115174:6.35276e-06
Baction^d*Y^d:115208:6.35276e-06
e^d*h^d*_id^index2:115218:6.35276e-06
r^d*j*_id^index2:115353:0.000286904
G^d*M^d*_id^index2:115391:6.35276e-06
L^d*O^d:115392:6.35276e-06
H^d*_id^index2:115616:6.35276e-06
n^d*y^d*_id^index2:115706:6.35276e-06
L^d*R^d*_id^index2:115735:6.35276e-06
X^d*i^g:115740:6.35276e-06
Baction^d*W^d*_id^index2:115761:6.35276e-06
Q^d*V^d*_id^index2:116044:6.35276e-06
daction^d*j^d*_id^index2:116053:6.35276e-06
Constant:116060:-0.04645
Baction^d*x^d*_id^index2:116065:6.35276e-06
$^ff*8^ff:116103:0.000438273
Baction^d*r^d*_id^index2:116260:6.35276e-06
V^d*j:116338:0.000286904
3^ff*Slot^h:116472:0.000438273
Baction^d*X^d:116621:6.35276e-06
H^d*u^f*_id^index2:116627:6.35276e-06
T^d*y^d:116685:0.000286904
Baction^d*L^d:116880:6.35276e-06
l^d*t^d:117061:6.35276e-06
H^d*l^d*_id^index2:117067:6.35276e-06
1^ff*9^ff:117476:0.000438273
M^d*n^d*_id^index2:117489:6.35276e-06
F^d*u^f:117504:6.35276e-06
User^b*User^b:117506:0.00221221
Daction^d*O^d*_id^index2:117561:6.35276e-06
v^d*w^d:117595:0.000286904
Daction^d*F^d:117792:6.35276e-06
t^d*t^d:117828:0.000286904
f^d*j^d:117891:6.35276e-06
P^d*t^d*_id^index2:117893:6.35276e-06
Action^d*r^d:117899:6.35276e-06
e^d*j*_id^index2:118066:6.35276e-06
I^g*o^d*_id^index2:118115:6.35276e-06
i^g*r^d:118159:6.35276e-06
User^a*j*_id^index2:118310:-0.0217888
Caction^d*Daction^d:118324:6.35276e-06
caction^d*g^d*_id^index2:118329:6.35276e-06
daction^d*w^d*_id^index2:118345:6.35276e-06
Action^d*H^d*_id^index2:118409:6.35276e-06
Slot^i*_id^index1:118468:0.0103057
Q^d*m^d*_id^index2:118535:6.35276e-06
r^d*x^d:118675:0.000286904
Y^d*w^d*_id^index2:118816:0.000286904
6^ff*8^ff*_id^index0:118898:0.000438273
User^b*baction^d*_id^index2:118957:6.35276e-06
I^g*x^d:118972:6.35276e-06
User^b*caction^d*_id^index2:119012:6.35276e-06
Y^d*e^d:119169:6.35276e-06
Caction^d*u^f:119180:6.35276e-06
W^d*_id^index2:119195:0.000286904
caction^d*q^d*_id^index2:119204:6.35276e-06
V^d*Y^d:119217:0.000286904
Slot^i:119311:0.0103057
L^d*V^d:119343:6.35276e-06
W^d*h^d:119388:6.35276e-06
V^d*z^d:119391:0.000286904
2^ff*User^b*_id^index0:119400:0.000438273
L^d*m^d*_id^index2:119424:6.35276e-06
V^d*W^d:119500:0.000286904
Daction^d*e^d:119572:6.35276e-06
Daction^d*j^d*_id^index2:119775:6.35276e-06
V^d*X^d:119860:0.000286904
V^d*y^d*_id^index2:119993:0.000286904
Caction^d*Daction^d*_id^index2:120002:6.35276e-06
w^d*j*_id^index2:120113:0.00028824
Q^d*n^d*_id^index2:120253:6.35276e-06
Baction^d*j:120267:6.35276e-06
H^d*x^d*_id^index2:120341:6.35276e-06
F^d*action^d*_id^index2:120559:6.35276e-06
Action^d*l^d*_id^index2:120564:6.35276e-06
h^d*j*_id^index2:120600:6.35276e-06
P^d*l^d*_id^index2:120708:6.35276e-06
W^d*l^d*_id^index2:120762:6.35276e-06
Caction^d*g^d*_id^index2:120765:6.35276e-06
q^d*q^d:120786:6.35276e-06
M^d*u^f:120874:6.35276e-06
N^d*p^d:120995:6.35276e-06
I^g*e^d:120996:6.35276e-06
I^g*x^d*_id^index2:121066:6.35276e-06
Ection^d*J^d:121171:6.35276e-06
Ection^d*I^g*_id^index2:121173:6.35276e-06
Y^d*x^d:121241:0.000286904
$^ff*(^ff*_id^index0:121284:0.000438273
User^b*_id^index0:121303:0.000438273
i^g*n^d:121373:6.35276e-06
P^d*t^d:121561:6.35276e-06
Daction^d*x^d:121612:6.35276e-06
Action^d*n^d:121625:6.35276e-06
W^d*p^d*_id^index2:121634:6.35276e-06
Ection^d*q^d*_id^index2:121651:6.35276e-06
W^d*y^d*_id^index2:121655:0.000286904
User^c*V^d:121746:0.000285502
h^d*w^d:121759:6.35276e-06
O^d*w^d:121846:6.35276e-06
action^d*g^d*_id^index2:121944:6.35276e-06
P^d*v^d*_id^index2:121960:6.35276e-06
m^d*t^d:122026:6.35276e-06
e^d*y^d:122059:6.35276e-06
e^d*s^d*_id^index2:122328:6.35276e-06
$^ff*7^ff*_id^index0:122355:0.000438273
O^d*g^d*_id^index2:122484:6.35276e-06
Y^d*Z^d*_id^index2:122678:0.000286904
User^c*User^c*_id^index1:122751:0.00631952
Q^d*User^b*_id^index2:122822:6.35276e-06
!^ff*7^ff:122881:0.000438273
Daction^d*w^d:122911:6.35276e-06
Q^d*e^d*_id^index2:122974:6.35276e-06
o^d*j:122997:6.35276e-06
h^d*x^d:123020:6.35276e-06
O^d*x^d:123109:6.35276e-06
V^d*daction^d:123160:6.35276e-06
(^ff*5^ff:123203:0.000438273
F^d*Q^d:123316:6.35276e-06
Z^d*w^d*_id^index2:123372:0.000286904
Y^d*w^d:123530:0.000286904
J^d*caction^d:123538:6.35276e-06
g^d*g^d*_id^index2:123654:6.35276e-06
O^d*p^d*_id^index2:123655:6.35276e-06
q^d*t^d:123683:8.98431e-06
Action^d*P^d*_id^index2:123712:6.35276e-06
e^d*m^d:123761:6.35276e-06
X^d*o^d:123881:6.35276e-06
R^d*baction^d:123915:6.35276e-06
Caction^d*h^d*_id^index2:123970:6.35276e-06
R^d*j^d:124079:6.35276e-06
J^d*caction^d*_id^index2:124104:6.35276e-06
H^d*N^d*_id^index2:124342:6.35276e-06
Z^d*p^d*_id^index2:124343:6.35276e-06
I^g*baction^d*_id^index2:124355:6.35276e-06
n^d*r^d*_id^index2:124572:6.35276e-06
g^d*o^d*_id^index2:124654:6.35276e-06
W^d*daction^d*_id^index2:124668:6.35276e-06
0^ff*User^b:124673:0.000438273
&^ff*User^b*_id^index0:124790:0.000438273
H^d*v^d*_id^index2:124927:6.35276e-06
m^d*q^d:125019:6.35276e-06
L^d*v^d*_id^index2:125159:6.35276e-06
O^d*e^d:125181:6.35276e-06
s^d*u^f:125196:0.000286904
2^ff*6^ff*_id^index0:125233:0.000438273
Action^e*Slot^i*_id^index1:125257:0.00631952
)^ff:125289:0.000438273
o^d*z^d*_id^index2:125334:6.35276e-06
R^d*x^d*_id^index2:125686:0.000286904
User^b*V^d*_id^index2:125722:6.35276e-06
4^ff*8^ff:125785:0.000438273
I^g*w^d:125871:6.35276e-06
F^d*f^d:126064:6.35276e-06
F^d*p^d*_id^index2:126094:6.35276e-06
Q^d*n^d:126129:6.35276e-06
1^ff*User^b*_id^index0:126183:0.000438273
W^d*v^d*_id^index2:126238:0.000286904
G^d*R^d*_id^index2:126459:6.35276e-06
P^d*q^d:126504:6.35276e-06
baction^d:126564:6.35276e-06
N^d*User^b:126581:6.35276e-06
j^d:126656:6.35276e-06
action^d*n^d:126912:6.35276e-06
Caction^d*x^d*_id^index2:126992:6.35276e-06
L^d*s^d:127033:6.35276e-06
v^d*x^d:127048:0.000286904
V^d*baction^d*_id^index2:127203:6.35276e-06
M^d*Q^d:127646:6.35276e-06
Baction^d*daction^d:127649:6.35276e-06
!^ff*£^ff*_id^index0:127673:0.000438273
(^ff*4^ff*_id^index0:127702:0.000438273
g^d*x^d*_id^index2:127847:6.35276e-06
o^d*z^d:128088:6.35276e-06
r^d*w^d:128128:0.000286904
baction^d*x^d*_id^index2:128191:6.35276e-06
G^d*h^d:128331:6.35276e-06
P^d*j*_id^index2:128340:6.35276e-06
0^ff*_id^index0:128468:0.000438273
u^f*_id^index2:128557:0.000286904
&^ff*6^ff*_id^index0:128587:0.000438273
n^d*p^d:128651:6.35276e-06
G^d*_id^index2:128652:6.35276e-06
1^ff*Slot^h:128697:0.000438273
Caction^d*f^d:128764:6.35276e-06
X^d*i^g*_id^index2:128778:6.35276e-06
g^d*s^d:128811:6.35276e-06
Slot^h*Slot^h*_id^index0:128980:-0.0311956
Action^d*j*_id^index2:128996:6.35276e-06
1^ff*1^ff*_id^index0:129074:0.000438273
Z^d*j^d:129090:6.35276e-06
action^d*r^d:129106:6.35276e-06
T^d*m^d:129143:6.35276e-06
r^d*t^d*_id^index2:129152:0.000286904
Z^d*baction^d:129254:6.35276e-06
3^ff*7^ff*_id^index0:129405:0.000438273
User^c*s^d:129412:0.000285502
j^d*w^d:129604:6.35276e-06
3^ff*9^ff:129701:0.000438273
i^g*q^d*_id^index2:129770:6.35276e-06
Q^d*r^d:129827:6.35276e-06
Caction^d*Q^d:129848:6.35276e-06
6^ff*Slot^h*_id^index0:129937:0.000438273
2^ff*5^ff:129965:0.000438273
R^d*daction^d*_id^index2:130154:6.35276e-06
W^d*baction^d*_id^index2:130349:6.35276e-06
I^g*t^d*_id^index2:130369:6.35276e-06
J^d*v^d:130380:6.35276e-06
I^g*action^d*_id^index2:130413:6.35276e-06
Daction^d*Ection^d*_id^index2:130431:6.35276e-06
Action^fff*Slot^h:130445:-0.0310489
l^d*q^d:130484:6.35276e-06
User^b*p^d:130516:6.35276e-06
Baction^d*m^d*_id^index2:130596:6.35276e-06
M^d*O^d*_id^index2:130601:6.35276e-06
L^d*x^d*_id^index2:130717:6.35276e-06
(^ff*8^ff*_id^index0:130735:0.000438273
I^g*z^d*_id^index2:130739:6.35276e-06
)^ff*1^ff*_id^index0:130803:0.000438273
Z^d*f^d*_id^index2:130807:6.35276e-06
y^d*y^d:130868:0.000286904
M^d*f^d:130906:6.35276e-06
P^d*R^d*_id^index2:130936:6.35276e-06
!^ff*&^ff:131020:0.000438273
H^d*V^d:131543:6.35276e-06
Ection^d*m^d*_id^index2:131578:6.35276e-06
4^ff*6^ff*_id^index0:131993:0.000438273
J^d*s^d*_id^index2:131996:6.35276e-06
Ection^d*h^d*_id^index2:132005:6.35276e-06
v^d*y^d*_id^index2:132149:0.000286904
Daction^d*q^d:132292:6.35276e-06
u^f*y^d*_id^index2:132321:0.000286904
F^d*j^d*_id^index2:132333:6.35276e-06
0^ff*£^ff*_id^index0:132364:0.000438273
1^ff*5^ff*_id^index0:132478:0.000438273
l^d*x^d*_id^index2:132650:6.35276e-06
Y^d*q^d:132689:6.35276e-06
&^ff*&^ff*_id^index0:132692:0.000438273
y^d:132694:0.000286904
daction^d*daction^d*_id^index1:132823:6.35276e-06
X^d*t^d*_id^index2:132839:0.000286904
3^ff*7^ff:132853:0.000438273
H^d*r^d*_id^index2:132872:6.35276e-06
Baction^d*e^d*_id^index2:132953:6.35276e-06
N^d*r^d:133022:6.35276e-06
X^d*u^f*_id^index2:133114:0.000286904
q^d*x^d:133146:6.35276e-06
F^d*v^d*_id^index2:133234:6.35276e-06
baction^d*z^d:133496:6.35276e-06
Daction^d*u^f*_id^index2:133520:6.35276e-06
H^d*I^g:133687:6.35276e-06
caction^d*z^d:133717:6.35276e-06
baction^d*f^d*_id^index2:133721:6.35276e-06
Y^d*u^f*_id^index2:133795:0.000286904
J^d*N^d:133839:6.35276e-06
P^d*w^d:133875:6.35276e-06
Y^d*caction^d*_id^index2:133969:6.35276e-06
h^d*t^d:134069:6.35276e-06
O^d*t^d:134108:6.35276e-06
R^d*y^d:134201:0.000286904
m^d*w^d:134272:6.35276e-06
J^d*i^g*_id^index2:134454:6.35276e-06
P^d*W^d*_id^index2:134478:6.35276e-06
action^d*h^d*_id^index2:134715:6.35276e-06
F^d*P^d:135020:6.35276e-06
I^g*q^d:135028:6.35276e-06
9^ff*9^ff*_id^index0:135146:0.000438273
J^d*l^d:135168:6.35276e-06
N^d*n^d:135180:6.35276e-06
L^d*_id^index2:135256:6.35276e-06
Ection^d*daction^d:135347:6.35276e-06
Z^d*y^d:135380:0.000286904
J^d*T^d:135440:8.98431e-06
H^d*O^d:135480:6.35276e-06
G^d*T^d*_id^index2:135695:6.35276e-06
Caction^d*l^d*_id^index2:135730:6.35276e-06
daction^d*u^f*_id^index2:135750:6.35276e-06
G^d*User^b*_id^index2:135825:6.35276e-06
i^g*p^d:135858:6.35276e-06
Q^d*User^b:135880:6.35276e-06
L^d*h^d:136095:6.35276e-06
Action^d*p^d:136118:6.35276e-06
g^d*h^d:136333:6.35276e-06
J^d*W^d*_id^index2:136404:6.35276e-06
Daction^d*User^b*_id^index2:136458:6.35276e-06
Caction^d*P^d:136672:6.35276e-06
I^g*Q^d*_id^index2:136900:6.35276e-06
R^d*g^d*_id^index2:136919:6.35276e-06
G^d*s^d:136941:6.35276e-06
O^d*u^f*_id^index2:136951:6.35276e-06
o^d*j*_id^index2:137009:6.35276e-06
g^d*_id^index2:137034:6.35276e-06
caction^d*v^d*_id^index2:137106:6.35276e-06
X^d*v^d*_id^index2:137126:0.000286904
T^d*e^d*_id^index2:137186:6.35276e-06
u^f*w^d*_id^index2:137355:0.000286904
l^d*w^d:137583:6.35276e-06
Daction^d*F^d*_id^index2:137598:6.35276e-06
User^c*_id^index2:137701:0.000285502
Ection^d*f^d*_id^index2:137725:6.35276e-06
)^ff*5^ff*_id^index0:137791:0.000438273
f^d*m^d:138159:6.35276e-06
M^d*P^d:138310:6.35276e-06
!^ff*9^ff:138321:0.000438273
t^d*w^d:138350:0.000286904
m^d*v^d*_id^index2:138381:6.35276e-06
0^ff*1^ff:138422:0.000438273
8^ff*£^ff*_id^index0:138430:0.000438273
User^a*j:138472:-0.0217888
baction^d*j:138581:6.35276e-06
R^d*m^d*_id^index0:138731:6.35276e-06
daction^d*f^d*_id^index2:138806:6.35276e-06
caction^d*j:138872:6.35276e-06
j^d*q^d:138911:6.35276e-06
p^d*u^f:138978:6.35276e-06
V^d*j^d*_id^index2:139215:6.35276e-06
!^ff*Slot^h:139276:0.000438273
Ection^d*Y^d:139290:6.35276e-06
Caction^d*P^d*_id^index2:139454:6.35276e-06
action^d*v^d*_id^index2:139519:6.35276e-06
e^d*j^d*_id^index2:139641:6.35276e-06
Action^d*o^d*_id^index2:139719:6.35276e-06
User^a*User^a:139866:-0.00617495
Caction^d*action^d:139879:6.35276e-06
l^d*x^d:139900:6.35276e-06
User^b*r^d:140009:6.35276e-06
h^d*t^d*_id^index2:140017:6.35276e-06
Z^d*i^g*_id^index2:140055:6.35276e-06
Ection^d*W^d:140135:6.35276e-06
H^d*s^d:140225:6.35276e-06
Ection^d*z^d:140276:6.35276e-06
G^d*O^d:140308:6.35276e-06
f^d*y^d:140309:6.35276e-06
Q^d*p^d:140318:6.35276e-06
action^d*n^d*_id^index2:140382:6.35276e-06
r^d*t^d:140458:0.000286904
Caction^d*m^d*_id^index2:140557:6.35276e-06
V^d*caction^d*_id^index2:140590:6.35276e-06
Action^d*User^b:140640:6.35276e-06
Ection^d*X^d:140703:6.35276e-06
v^d*j*_id^index2:140940:0.000286904
action^d*p^d:141167:6.35276e-06
t^d*x^d:141181:0.000286904
Z^d*caction^d*_id^index2:141189:6.35276e-06
&^ff*5^ff:141695:0.000438273
n^d*r^d:141750:6.35276e-06
j^d*t^d:141934:6.35276e-06
Ection^d*L^d:141954:6.35276e-06
User^b*w^d*_id^index2:142221:6.35276e-06
M^d*action^d:142273:6.35276e-06
daction^d*l^d:142432:6.35276e-06
V^d*e^d*_id^index2:142610:6.35276e-06
O^d*o^d*_id^index2:142684:6.35276e-06
T^d*j^d:143195:6.35276e-06
Z^d*m^d:143214:6.35276e-06
daction^d*i^g*_id^index2:143254:6.35276e-06
I^g*Z^d*_id^index2:143289:6.35276e-06
$^ff*1^ff*_id^index0:143343:0.000438273
T^d*baction^d:143359:6.35276e-06
J^d*P^d*_id^index2:143378:6.35276e-06
x^d*_id^index2:143403:0.000286904
Daction^d*Y^d*_id^index2:143405:6.35276e-06
Daction^d*t^d:143413:6.35276e-06
Action^d*Daction^d*_id^index2:143748:6.35276e-06
Action^d*N^d*_id^index2:143789:6.35276e-06
P^d*x^d:143840:6.35276e-06
W^d*s^d:143866:0.000286904
Q^d*W^d*_id^index2:143942:6.35276e-06
action^d*j*_id^index2:144027:6.35276e-06
Y^d*t^d:144032:0.000286904
Z^d*y^d*_id^index2:144034:0.000286904
q^d*w^d:144137:6.35276e-06
h^d*x^d*_id^index2:144250:6.35276e-06
)^ff*5^ff:144255:0.000438273
R^d*m^d:144259:6.35276e-06
5^ff*6^ff:144436:0.000438273
e^d*j^d:144477:6.35276e-06
G^d*V^d:144635:6.35276e-06
$^ff*2^ff:144636:0.000438273
User^b*n^d:144763:6.35276e-06
Caction^d*Caction^d:144786:6.35276e-06
R^d*W^d*_id^index2:144934:0.000286904
1^ff*7^ff:145076:0.000438273
M^d*j*_id^index2:145128:6.35276e-06
X^d*Z^d:145243:0.000286904
G^d*baction^d*_id^index2:145244:6.35276e-06
2^ff*£^ff*_id^index0:145277:0.000438273
m^d*x^d:145299:6.35276e-06
Ection^d*j:145369:6.35276e-06
0^ff*1^ff*_id^index0:145488:0.000438273
F^d*action^d:145643:6.35276e-06
O^d*P^d*_id^index2:145651:6.35276e-06
caction^d*daction^d:145682:6.35276e-06
e^d*e^d*_id^index2:145864:6.35276e-06
m^d:145900:6.35276e-06
P^d*e^d:145912:6.35276e-06
baction^d*daction^d:145983:6.35276e-06
X^d*w^d*_id^index2:146133:0.000286904
Baction^d*J^d:146241:6.35276e-06
I^g*g^d*_id^index2:146251:6.35276e-06
F^d*w^d*_id^index2:146273:6.35276e-06
Caction^d*z^d*_id^index2:146277:6.35276e-06
2^ff*5^ff*_id^index0:146309:0.000438682
W^d*W^d*_id^index2:146488:0.000286904
Q^d*j*_id^index2:146524:6.35276e-06
Action^e*User^c*_id^index1:146795:0.00631952
Baction^d*Y^d*_id^index2:146822:6.35276e-06
M^d:146921:6.35276e-06
n^d*n^d:146980:6.35276e-06
Slot^h*£^ff:147047:0.000438273
Action^e*Action^e*_id^index2:147184:-0.0217888
%^ff*6^ff:147188:0.000438273
H^d*m^d*_id^index2:147208:6.35276e-06
T^d*q^d*_id^index2:147218:6.35276e-06
G^d*I^g:147227:6.35276e-06
O^d*q^d:147245:6.35276e-06
h^d*q^d:147268:6.35276e-06
2^ff*3^ff*_id^index0:147460:0.000438273
J^d*j^d*_id^index2:147509:6.35276e-06
i^g*u^f*_id^index2:147640:6.35276e-06
I^g*v^d:147758:6.35276e-06
Baction^d*R^d:148167:6.35276e-06
p^d*r^d:148207:6.35276e-06
s^d*y^d*_id^index2:148351:0.000286904
o^d*r^d*_id^index2:148478:6.35276e-06
n^d*q^d*_id^index2:148545:6.35276e-06
action^d*y^d*_id^index2:148774:6.35276e-06
caction^d*y^d*_id^index2:148779:6.35276e-06
Baction^d*g^d:148782:6.35276e-06
v^d*v^d*_id^index2:148784:0.000286904
I^g*e^d*_id^index2:148786:6.35276e-06
Ection^d*Z^d:148822:6.35276e-06
I^g*T^d*_id^index2:148840:6.35276e-06
R^d*_id^index2:148849:0.000286904
User^b*v^d*_id^index2:148894:6.35276e-06
X^d*j:148948:0.000286904
o^d*o^d:149064:6.35276e-06
User^b*j*_id^index2:149098:6.35276e-06
2^ff*6^ff:149105:0.000438273
R^d*h^d:149174:6.35276e-06
User^c*X^d*_id^index2:149202:0.000285502
&^ff:149353:0.000438273
N^d*p^d*_id^index2:149383:6.35276e-06
P^d*j^d*_id^index2:149387:6.35276e-06
N^d*y^d*_id^index2:149426:6.35276e-06
V^d*i^g:149434:6.35276e-06
Ection^d*baction^d*_id^index2:149458:6.35276e-06
Y^d*v^d:149515:0.000286904
F^d*p^d:149552:6.35276e-06
Slot^h*User^b:150028:0.000438273
Daction^d*v^d:150174:6.35276e-06
P^d*T^d:150574:6.35276e-06
h^d:150745:6.35276e-06
T^d*V^d:150770:0.000286904
P^d*l^d:150846:6.35276e-06
Z^d*q^d*_id^index2:150905:6.35276e-06
Ection^d*G^d:151174:6.35276e-06
_id^index2:151326:-0.0214331
H^d*User^b*_id^index2:151589:6.35276e-06
User^c*y^d:151725:0.000285502
daction^d*x^d:151742:6.35276e-06
j^d*v^d:151749:6.35276e-06
G^d*p^d*_id^index2:151911:6.35276e-06
!^ff*)^ff:152012:0.000438273
X^d*z^d:152057:0.000286904
X^d*Y^d:152087:0.000286904
Daction^d*L^d*_id^index2:152165:6.35276e-06
Caction^d*p^d:152252:6.35276e-06
4^ff*7^ff*_id^index0:152301:0.000438273
&^ff*Slot^h*_id^index0:152340:0.000438273
f^d*u^f*_id^index2:152344:6.35276e-06
f^d*h^d*_id^index2:152432:6.35276e-06
2^ff*8^ff*_id^index0:152449:0.000438273
Action^d*Q^d*_id^index2:152488:6.35276e-06
Baction^d*i^g:152579:6.35276e-06
f^d*t^d*_id^index2:152713:6.35276e-06
Q^d*action^d:152773:6.35276e-06
Action^d*P^d:152810:6.35276e-06
Baction^d*V^d*_id^index2:152863:6.35276e-06
T^d*v^d*_id^index2:152868:0.000286904
Daction^d*caction^d:152896:6.35276e-06
V^d*g^d:153239:6.35276e-06
baction^d*j^d*_id^index2:153306:6.35276e-06
R^d*e^d*_id^index2:153406:6.35276e-06
G^d*j^d:153426:6.35276e-06
X^d*X^d:153490:0.000286904
g^d*s^d*_id^index2:153519:6.35276e-06
u^f*x^d*_id^index2:153522:0.000286904
action^d*action^d:153524:6.35276e-06
J^d*w^d:153549:6.35276e-06
Y^d*caction^d:153557:6.35276e-06
G^d*baction^d:153590:6.35276e-06
j^d*o^d*_id^index2:153618:6.35276e-06
&^ff*5^ff*_id^index0:153663:0.000438273
7^ff:153764:0.000438273
daction^d*e^d:153766:6.35276e-06
L^d*y^d:153872:6.35276e-06
t^d*z^d*_id^index2:153924:0.000286904
User^b*f^d:154004:6.35276e-06
Z^d*_id^index2:154012:0.000286904
Z^d*h^d:154203:6.35276e-06
User^c*j*_id^index2:154232:0.000285502
W^d*q^d*_id^index2:154288:6.35276e-06
M^d*p^d:154394:6.35276e-06
N^d*u^f:154515:6.35276e-06
(^ff*6^ff:154783:0.000438273
n^d*o^d*_id^index1:154787:6.35276e-06
User^a*User^a*_id^index2:154800:-0.0217888
h^d*v^d*_id^index2:154916:6.35276e-06
j*j:155010:-0.0214331
Caction^d*User^b*_id^index2:155072:6.35276e-06
r^d*v^d:155137:0.000286904
g^d*y^d:155138:6.35276e-06
W^d*t^d*_id^index2:155183:0.000286904
l^d*l^d:155298:6.35276e-06
T^d*Z^d*_id^index2:155337:0.000286904
I^g*caction^d:155376:6.35276e-06
action^d*action^d*_id^index2:155458:6.35276e-06
(^ff*0^ff*_id^index0:155549:0.000438273
0^ff*3^ff:155661:0.000438273
V^d*o^d:155727:6.35276e-06
Ection^d*R^d*_id^index2:155729:6.35276e-06
Action^d*y^d*_id^index2:155965:6.35276e-06
g^d*m^d:156088:6.35276e-06
v^d*v^d:156122:0.000286904
H^d*j^d:156286:6.35276e-06
L^d*M^d:156335:6.35276e-06
X^d*daction^d:156350:6.35276e-06
H^d*baction^d:156378:6.35276e-06
Action^d*action^d:156525:6.35276e-06
baction^d*j*_id^index2:156625:6.35276e-06
&^ff*)^ff*_id^index0:156756:0.000438273
Caction^d*User^b:156778:6.35276e-06
J^d*e^d:156870:6.35276e-06
M^d*Z^d*_id^index2:156889:6.35276e-06
L^d*m^d:157354:6.35276e-06
t^d*x^d*_id^index2:157401:0.000286904
0^ff*4^ff:157469:0.000438273
Caction^d*action^d*_id^index2:157499:6.35276e-06
T^d*T^d*_id^index2:158200:0.000286904
J^d*X^d*_id^index2:158364:6.35276e-06
&^ff*0^ff:158441:0.000438273
Ection^d*Ection^d:158528:6.35276e-06
daction^d*w^d:158637:6.35276e-06
J^d*x^d:158942:6.35276e-06
Daction^d*H^d:158993:6.35276e-06
f^d*_id^index2:159069:6.35276e-06
M^d*User^b:159180:6.35276e-06
f^d*h^d:159386:6.35276e-06
O^d*caction^d:159401:6.35276e-06
T^d*s^d:159460:0.000286904
N^d*Q^d*_id^index2:159611:6.35276e-06
Baction^d:159622:6.35276e-06
1^ff*Slot^h*_id^index0:159721:0.000438273
W^d*j^d:159813:6.35276e-06
Y^d*p^d*_id^index2:159891:6.35276e-06
W^d*baction^d:159969:6.35276e-06
)^ff*0^ff:159977:0.000438273
h^d*v^d:160030:6.35276e-06
N^d*Q^d:160039:6.35276e-06
O^d*v^d:160119:6.35276e-06
User^b*j^d*_id^index2:160257:6.35276e-06
Baction^d*z^d*_id^index2:160268:6.35276e-06
Z^d*h^d*_id^index2:160351:6.35276e-06
H^d*e^d*_id^index2:160445:6.35276e-06
Caction^d*p^d*_id^index2:160490:6.35276e-06
H^d*J^d*_id^index2:160617:6.35276e-06
!^ff*2^ff*_id^index0:160672:0.000438273
g^d*i^g*_id^index2:160673:6.35276e-06
H^d*t^d*_id^index2:160686:6.35276e-06
Baction^d*h^d*_id^index2:160687:6.35276e-06
L^d*e^d*_id^index2:160757:6.35276e-06
Baction^d*o^d:160758:6.35276e-06
Action^d*G^d*_id^index2:160909:6.35276e-06
Action^d*Caction^d:160920:6.35276e-06
n^d*u^f:161211:6.35276e-06
User^b*Z^d*_id^index2:161239:6.35276e-06
e^d*s^d:161250:6.35276e-06
G^d*t^d*_id^index2:161770:6.35276e-06
Q^d*w^d*_id^index2:161935:6.35276e-06
J^d*w^d*_id^index2:161961:6.35276e-06
x^d*y^d:162147:0.000286904
User^b*t^d*_id^index2:162223:6.35276e-06
Caction^d*J^d*_id^index2:162404:6.35276e-06
z^d*j*_id^index2:162433:0.000286904
l^d*j*_id^index2:162568:6.35276e-06
O^d*caction^d*_id^index2:162581:6.35276e-06
Baction^d*T^d*_id^index2:162735:6.35276e-06
N^d*action^d*_id^index2:162806:6.35276e-06
Daction^d*caction^d*_id^index2:163038:6.35276e-06
N^d*f^d:163043:6.35276e-06
Caction^d*e^d*_id^index2:163416:6.35276e-06
%^ff*£^ff*_id^index0:163458:0.000438273
Ection^d*F^d*_id^index2:163551:6.35276e-06
User^b*u^f:163556:6.35276e-06
F^d*User^b:163558:6.35276e-06
$^ff*9^ff*_id^index0:163811:0.000438273
)^ff*6^ff*_id^index0:163915:0.000438273
R^d*f^d:164094:6.35276e-06
Y^d*e^d*_id^index2:164109:6.35276e-06
1^ff*2^ff*_id^index0:164123:0.000438273
baction^d*q^d:164275:6.35276e-06
Baction^d*F^d:164297:6.35276e-06
L^d*Z^d*_id^index2:164302:6.35276e-06
I^g*X^d:164308:6.35276e-06
j^d*j:164473:6.35276e-06
caction^d*q^d:164510:6.35276e-06
daction^d*g^d:164725:6.35276e-06
j^d*t^d*_id^index2:164916:6.35276e-06
I^g*Y^d:164945:6.35276e-06
N^d*V^d*_id^index2:165023:6.35276e-06
O^d*daction^d:165025:6.35276e-06
F^d*e^d*_id^index2:165044:6.35276e-06
g^d*u^f*_id^index2:165105:6.35276e-06
Q^d*t^d*_id^index2:165165:6.35276e-06
V^d*x^d:165212:0.000286904
Daction^d*L^d:165241:6.35276e-06
Z^d*j*_id^index2:165247:0.000286904
Daction^d*o^d*_id^index2:165331:6.35276e-06
F^d*r^d*_id^index2:165481:6.35276e-06
W^d*g^d*_id^index2:165637:6.35276e-06
F^d*j*_id^index2:165654:6.35276e-06
I^g*W^d:165676:6.35276e-06
Q^d:165717:6.35276e-06
Q^d*V^d:165798:6.35276e-06
I^g*z^d:165823:6.35276e-06
V^d*t^d*_id^index2:165857:0.000286904
F^d*V^d*_id^index2:165894:6.35276e-06
F^d*j^d:165921:6.35276e-06
O^d*r^d*_id^index2:165924:6.35276e-06
m^d*q^d*_id^index2:165983:6.35276e-06
F^d*baction^d:166021:6.35276e-06
6^ff*6^ff*_id^index0:166050:0.000438273
X^d*caction^d:166070:6.35276e-06
F^d*N^d*_id^index2:166331:6.35276e-06
J^d*o^d:166349:6.35276e-06
Z^d*v^d*_id^index2:166427:0.000286904
Daction^d*X^d:166500:6.35276e-06
f^d:166545:6.35276e-06
Daction^d*z^d:166927:6.35276e-06
User^b*l^d*_id^index2:166970:6.35276e-06
4^ff*6^ff:167017:0.000438273
Daction^d*W^d:167068:6.35276e-06
r^d*j:167101:0.000286904
Ection^d*w^d*_id^index2:167154:6.35276e-06
V^d*e^d:167236:6.35276e-06
R^d*l^d*_id^index2:167244:6.35276e-06
Y^d*Y^d:167284:0.000286904
1^ff*1^ff:167328:0.000438273
e^d*o^d*_id^index2:167365:6.35276e-06
User^b*X^d*_id^index2:167440:6.35276e-06
Y^d*z^d:167578:0.000286904
I^g*L^d:167625:6.35276e-06
Ection^d*N^d*_id^index2:167692:6.35276e-06
f^d*u^f:167842:6.35276e-06
caction^d*p^d*_id^index2:167854:6.35276e-06
Daction^d*Y^d:167905:6.35276e-06
&^ff*(^ff:168006:0.000438273
Caction^d*u^f*_id^index2:168058:6.35276e-06
6^ff*9^ff*_id^index0:168182:0.000438273
)^ff*Slot^h*_id^index0:168212:0.000438273
J^d*m^d*_id^index2:168225:6.35276e-06
Caction^d*baction^d:168457:6.35276e-06
Action^d*s^d:168472:6.35276e-06
daction^d*i^g:168536:6.35276e-06
Caction^d*j^d:168621:6.35276e-06
i^g*s^d:168732:6.35276e-06
J^d*T^d*_id^index2:168750:6.35276e-06
I^g*j:168850:6.35276e-06
J^d*User^b*_id^index2:169044:6.35276e-06
F^d*Y^d*_id^index2:169119:6.35276e-06
H^d*User^b:169145:6.35276e-06
j^d*z^d:169556:6.35276e-06
Action^d*F^d*_id^index2:169674:6.35276e-06
Baction^d*x^d:169701:6.35276e-06
G^d*p^d:169795:6.35276e-06
n^d*_id^index2:169796:6.35276e-06
X^d*v^d:169832:0.000286904
R^d*p^d*_id^index2:169988:6.35276e-06
4^ff:170011:0.000438273
Daction^d*j:170018:6.35276e-06
5^ff*7^ff*_id^index0:170042:0.000438273
o^d*w^d:170056:8.98431e-06
r^d*z^d:170128:0.000286904
Action^d*User^b*_id^index2:170302:6.35276e-06
Ection^d*H^d*_id^index2:170304:6.35276e-06
s^d*s^d*_id^index2:170440:0.000286904
%^ff*4^ff*_id^index0:170455:0.000438273
daction^d*q^d*_id^index2:170460:6.35276e-06
&^ff*2^ff*_id^index0:170474:0.000438273
N^d*m^d*_id^index2:170660:6.35276e-06
f^d*v^d*_id^index2:170668:6.35276e-06
Y^d*j:170679:0.000286904
action^d*w^d*_id^index2:170704:6.35276e-06
M^d*j^d:170763:6.35276e-06
M^d*baction^d:170927:6.35276e-06
Z^d*f^d:171027:6.35276e-06
User^b*_id^index2:171035:6.35276e-06
$^ff*User^b*_id^index0:171098:0.000438273
M^d*g^d*_id^index2:171563:6.35276e-06
Daction^d*g^d*_id^index2:171611:6.35276e-06
Baction^d*e^d:171773:6.35276e-06
3^ff:171787:0.000438273
T^d*action^d:171921:6.35276e-06
Ection^d*t^d:171982:6.35276e-06
User^b*h^d:171996:6.35276e-06
!^ff*User^b:172194:0.000438273
Action^d*O^d:172257:6.35276e-06
G^d*G^d*_id^index2:172290:6.35276e-06
G^d*User^b:172437:6.35276e-06
M^d*Q^d*_id^index2:172452:6.35276e-06
t^d*j*_id^index2:172471:0.000286904
G^d*w^d*_id^index2:172604:6.35276e-06
H^d*p^d:172655:6.35276e-06
$^ff*6^ff:172727:0.000438273
o^d*x^d:172891:6.35276e-06
h^d*j:172962:6.35276e-06
O^d*j:173003:6.35276e-06
Y^d*h^d*_id^index2:173035:6.35276e-06
J^d*q^d*_id^index2:173244:6.35276e-06
R^d*o^d*_id^index2:173423:6.35276e-06
Q^d*s^d:173488:6.35276e-06
Ection^d*L^d*_id^index2:173496:6.35276e-06
N^d*baction^d*_id^index2:173500:6.35276e-06
F^d*baction^d*_id^index2:173633:6.35276e-06
8^ff*User^b*_id^index0:173647:0.000438273
H^d*caction^d*_id^index2:173665:6.35276e-06
action^d*s^d:173761:6.35276e-06
User^c*r^d:173847:0.000285502
v^d*z^d:173899:0.000286904
z^d*z^d:173928:0.000286904
R^d*u^f:173966:0.000286904
0^ff*7^ff:173986:0.000438273
%^ff*2^ff:174271:0.000438273
W^d*v^d*_id^index0:174290:6.35276e-06
baction^d*z^d*_id^index2:174326:6.35276e-06
Caction^d*j^d*_id^index2:174409:6.35276e-06
g^d*r^d:174520:6.35276e-06
Action^fff*Action^fff:174568:-0.0303955
H^d*V^d*_id^index2:174699:6.35276e-06
Ection^d*q^d:174911:6.35276e-06
!^ff*7^ff*_id^index0:174913:0.000438273
T^d*x^d*_id^index2:174970:0.000286904
$^ff*%^ff*_id^index0:175075:0.000438273
L^d*h^d*_id^index2:175187:6.35276e-06
J^d*action^d*_id^index2:175335:6.35276e-06
X^d*n^d*_id^index2:175479:6.35276e-06
u^f:175585:0.000286904
Z^d*e^d*_id^index2:175593:6.35276e-06
Baction^d*w^d:175606:6.35276e-06
Y^d*daction^d*_id^index2:175609:6.35276e-06
J^d*i^g:175672:6.35276e-06
%^ff*Slot^h*_id^index0:175677:0.000438273
%^ff*2^ff*_id^index0:175743:0.000438273
G^d*y^d*_id^index2:175762:6.35276e-06
L^d*r^d:175786:6.35276e-06
Action^d*V^d:176142:6.35276e-06
W^d*p^d:176212:6.35276e-06
O^d*X^d:176525:6.35276e-06
Action^d*r^d*_id^index2:176591:6.35276e-06
Daction^d:176729:6.35276e-06
0^ff*2^ff*_id^index0:176749:0.000438273
!^ff*_id^index0:176759:0.000438273
h^d*u^f*_id^index2:176912:6.35276e-06
z^d*j:176965:0.000286904
v^d*j:176998:0.000286904
Action^d*caction^d*_id^index2:177002:6.35276e-06
Z^d*u^f*_id^index2:177095:0.000286904
O^d*Y^d:177160:6.35276e-06
)^ff*0^ff*_id^index0:177177:0.000438273
Action^d*Action^d:177210:6.35276e-06
I^g*daction^d:177400:6.35276e-06
baction^d*t^d:177474:6.35276e-06
Slot^i*T^d*_id^index1:177493:6.35276e-06
l^d*m^d*_id^index2:177563:6.35276e-06
L^d*t^d*_id^index2:177574:6.35276e-06
daction^d*o^d:177581:6.35276e-06
M^d*f^d*_id^index2:177584:6.35276e-06
j^d*w^d*_id^index2:177682:6.35276e-06
V^d*f^d*_id^index2:177712:6.35276e-06
caction^d*t^d:177775:6.35276e-06
8^ff*8^ff:177872:0.000438273
0^ff*9^ff*_id^index0:177956:0.000438273
!^ff*£^ff*_id^index2:178037:6.35276e-06
h^d*z^d:178063:6.35276e-06
Action^d*J^d*_id^index2:178082:6.35276e-06
O^d*z^d:178150:6.35276e-06
P^d*z^d*_id^index2:178247:6.35276e-06
Daction^d*G^d*_id^index2:178393:6.35276e-06
F^d*l^d*_id^index2:178406:6.35276e-06
J^d*R^d:178428:6.35276e-06
L^d*n^d:178488:6.35276e-06
N^d*_id^index2:178540:6.35276e-06
4^ff*User^b*_id^index0:178720:0.000438273
L^d*r^d*_id^index2:178816:6.35276e-06
N^d*h^d:178859:6.35276e-06
Z^d*u^f:179043:0.000286904
User^b*r^d*_id^index2:179157:6.35276e-06
Action^d*I^g:179182:6.35276e-06
Caction^d*I^g*_id^index2:179186:6.35276e-06
Caction^d*t^d*_id^index2:179303:6.35276e-06
Baction^d*daction^d*_id^index2:179309:6.35276e-06
N^d*caction^d*_id^index2:179349:6.35276e-06
f^d*j^d*_id^index2:179495:6.35276e-06
o^d*t^d*_id^index2:179544:6.35276e-06
Y^d*daction^d:179677:6.35276e-06
N^d*O^d*_id^index2:179714:6.35276e-06
g^d*n^d:179754:6.35276e-06
daction^d*g^d*_id^index2:179761:6.35276e-06
V^d*w^d:179791:0.000286904
Daction^d*I^g*_id^index2:179912:6.35276e-06
J^d*g^d:179989:6.35276e-06
Daction^d*daction^d:180040:6.35276e-06
J^d*t^d*_id^index2:180155:6.35276e-06
M^d*o^d*_id^index2:180163:6.35276e-06
O^d*l^d*_id^index2:180223:6.35276e-06
t^d*t^d*_id^index2:180242:0.000286904
W^d*action^d:180367:6.35276e-06
%^ff:180468:0.000438273
3^ff*3^ff:180570:0.000438273
J^d*J^d:180602:6.35276e-06
L^d*X^d*_id^index2:180645:6.35276e-06
w^d*z^d:180824:0.000286904
M^d*M^d*_id^index2:180888:6.35276e-06
Ection^d*H^d:180970:6.35276e-06
Baction^d*o^d*_id^index2:181084:6.35276e-06
T^d*j^d*_id^index2:181087:6.35276e-06
f^d*n^d:181309:6.35276e-06
(^ff*6^ff*_id^index0:181407:0.000438273
Daction^d*Ection^d:181435:6.35276e-06
J^d*daction^d*_id^index2:181616:6.35276e-06
O^d*i^g*_id^index2:181671:6.35276e-06
i^g*i^g*_id^index2:181704:6.35276e-06
3^ff*4^ff:181834:0.000438273
W^d*caction^d*_id^index2:182116:6.35276e-06
l^d*o^d:182127:6.35276e-06
Ection^d*Y^d*_id^index2:182256:6.35276e-06
F^d*s^d:182686:6.35276e-06
Slot^h*Slot^h:182946:-0.0311956
m^d*p^d*_id^index2:182993:6.35276e-06
(^ff*2^ff:182996:0.000438273
N^d*g^d*_id^index2:183028:6.35276e-06
P^d*x^d*_id^index2:183486:6.35276e-06
caction^d*v^d:183492:6.35276e-06
Action^fff:183500:-0.0303955
I^g*M^d*_id^index2:183544:6.35276e-06
L^d*g^d*_id^index2:183920:6.35276e-06
X^d*y^d*_id^index2:183935:0.000286904
Q^d*o^d*_id^index2:183951:6.35276e-06
action^d*s^d*_id^index2:184013:6.35276e-06
N^d*m^d:184222:6.35276e-06
baction^d*v^d:184297:6.35276e-06
G^d*P^d:184351:6.35276e-06
baction^d*caction^d:184375:6.35276e-06
2^ff*2^ff:184378:0.000438273
Caction^d*w^d*_id^index2:184405:6.35276e-06
(^ff*7^ff*_id^index0:184571:0.000438273
m^d*s^d*_id^index2:184639:6.35276e-06
O^d*Z^d:184644:6.35276e-06
O^d*v^d*_id^index2:184651:6.35276e-06
m^d*o^d:184960:6.35276e-06
i^g*j^d:184995:6.35276e-06
H^d*action^d:185012:6.35276e-06
Action^d*baction^d:185091:6.35276e-06
Caction^d*s^d:185106:6.35276e-06
caction^d*caction^d:185114:6.35276e-06
Action^d*j^d:185255:6.35276e-06
f^d*r^d:185263:6.35276e-06
n^d*z^d*_id^index2:185300:6.35276e-06
I^g*v^d*_id^index2:185460:6.35276e-06
!^ff*£^ff:185545:0.000438273
P^d*o^d:185587:6.35276e-06
User^b*y^d:185683:6.35276e-06
V^d*s^d*_id^index2:185794:0.000286904
L^d*f^d:185815:6.35276e-06
G^d*N^d*_id^index2:185826:6.35276e-06
F^d*daction^d*_id^index2:185896:6.35276e-06
w^d*j:185973:0.000286904
P^d*baction^d*_id^index2:185975:6.35276e-06
Action^d*f^d*_id^index2:186204:6.35276e-06
F^d*W^d*_id^index2:186252:6.35276e-06
Action^e*Slot^i:186288:0.00631952
L^d*Q^d:186387:6.35276e-06
I^g*r^d*_id^index2:186587:6.35276e-06
X^d*q^d:186674:6.35276e-06
T^d*User^b:186780:6.35276e-06
Y^d*m^d*_id^index2:186968:6.35276e-06
M^d*s^d:187060:6.35276e-06
$^ff*&^ff*_id^index0:187600:0.000438273
P^d*i^g*_id^index2:187756:6.35276e-06
n^d*y^d:187916:6.35276e-06
G^d*H^d*_id^index2:187990:6.35276e-06
6^ff*8^ff:188128:0.000438273
q^d*t^d*_id^index2:188167:6.35276e-06
O^d*V^d*_id^index2:188191:6.35276e-06
T^d*User^b*_id^index2:188298:6.35276e-06
T^d*s^d*_id^index2:188402:0.000286904
F^d*I^g:188520:6.35276e-06
R^d*Y^d*_id^index2:188561:0.000286904
I^g*Z^d:188701:6.35276e-06
Daction^d*G^d:188797:6.35276e-06
Y^d*f^d*_id^index2:188883:6.35276e-06
Caction^d*O^d:188907:6.35276e-06
P^d*g^d:188971:6.35276e-06
)^ff*9^ff*_id^index0:189055:0.000438273
Y^d*Y^d*_id^index2:189058:0.000286904
W^d*s^d*_id^index2:189328:0.000286904
1^ff:189360:0.000438273
Q^d*j^d:189455:6.35276e-06
5^ff*User^b*_id^index0:189459:0.000438273
O^d*t^d*_id^index2:189514:6.35276e-06
Q^d*baction^d:189611:6.35276e-06
H^d*P^d:189747:6.35276e-06
Z^d*m^d*_id^index2:189748:6.35276e-06
Ection^d*v^d:189797:6.35276e-06
P^d*R^d:189890:6.35276e-06
G^d*J^d*_id^index2:189933:6.35276e-06
n^d:190078:6.35276e-06
X^d*j^d*_id^index2:190153:6.35276e-06
Ection^d*o^d*_id^index2:190194:6.35276e-06
Z^d*r^d:190318:0.000286904
action^d*j^d:190334:6.35276e-06
G^d*action^d:190360:6.35276e-06
action^d*baction^d:190426:6.35276e-06
Y^d*Z^d:190520:0.000286904
M^d*O^d:190541:6.35276e-06
P^d*f^d*_id^index2:190860:6.35276e-06
)^ff*8^ff:190867:0.000438273
User^c*V^d*_id^index2:190920:0.000285502
L^d*j*_id^index2:190963:6.35276e-06
N^d*i^g*_id^index2:191015:6.35276e-06
Baction^d*l^d:191035:6.35276e-06
$^ff*£^ff*_id^index0:191131:0.000438273
Daction^d*Z^d:191149:6.35276e-06
Daction^d*m^d*_id^index2:191179:6.35276e-06
User^b*m^d:191209:6.35276e-06
Baction^d*T^d:191275:6.35276e-06
F^d*V^d:191368:6.35276e-06
s^d*s^d:191378:0.000286904
R^d*n^d:191505:6.35276e-06
o^d*o^d*_id^index2:191558:6.35276e-06
J^d*e^d*_id^index2:191660:6.35276e-06
X^d*t^d:191939:0.000286904
F^d*m^d*_id^index2:192105:6.35276e-06
N^d*q^d*_id^index2:192329:6.35276e-06
T^d*p^d:192330:6.35276e-06
R^d*w^d*_id^index2:192367:0.000286904
W^d*w^d*_id^index2:192525:0.000286904
N^d*y^d:192548:6.35276e-06
Baction^d*N^d:192756:6.35276e-06
Z^d*n^d:192764:6.35276e-06
Caction^d*V^d:192772:6.35276e-06
1^ff*3^ff:192795:0.000438273
X^d*action^d*_id^index2:192955:6.35276e-06
y^d*y^d*_id^index2:192962:0.000286904
r^d:193004:0.000286904
9^ff*Slot^h*_id^index0:193085:0.000438273
p^d*x^d*_id^index2:193122:6.35276e-06
L^d*u^f:193191:6.35276e-06
P^d*i^g:193286:6.35276e-06
&^ff*8^ff:193427:0.000438273
e^d*p^d:193612:6.35276e-06
h^d*w^d*_id^index2:193619:6.35276e-06
Daction^d*h^d*_id^index2:193656:6.35276e-06
P^d*caction^d*_id^index2:193754:6.35276e-06
H^d*f^d*_id^index2:193763:6.35276e-06
r^d*y^d*_id^index2:193928:0.000286904
g^d*u^f:193973:6.35276e-06
1^ff*4^ff:194059:0.000438273
g^d*v^d*_id^index2:194077:6.35276e-06
j^d*s^d*_id^index2:194355:6.35276e-06
User^b*User^b*_id^index1:194431:0.00505362
Slot^i*User^c:194660:0.00631952
M^d*V^d:194722:6.35276e-06
P^d*V^d*_id^index2:194724:6.35276e-06
Daction^d*Daction^d*_id^index2:194808:6.35276e-06
V^d*l^d:194946:6.35276e-06
9^ff*£^ff*_id^index0:195202:0.000438273
Ection^d*caction^d:195259:6.35276e-06
Caction^d*I^g:195300:6.35276e-06
User^c*u^f:195354:0.000285502
q^d*z^d*_id^index2:195397:6.35276e-06
F^d*O^d:195431:6.35276e-06
Ection^d*caction^d*_id^index2:195455:6.35276e-06
R^d*r^d:195459:0.000286904
O^d*User^b*_id^index2:195505:6.35276e-06
Daction^d*N^d*_id^index2:195513:6.35276e-06
s^d*t^d*_id^index2:195559:0.000286904
p^d*_id^index2:195613:6.35276e-06
q^d*v^d*_id^index2:196102:6.35276e-06
G^d*x^d*_id^index2:196161:6.35276e-06
m^d*r^d*_id^index2:196518:6.35276e-06
f^d*w^d:196679:6.35276e-06
%^ff*%^ff:196840:0.000438273
p^d*w^d*_id^index2:196891:6.35276e-06
Caction^d*daction^d:196926:6.35276e-06
0^ff*6^ff:197102:0.000438273
l^d*m^d:197255:6.35276e-06
User^c*User^c:197378:-0.0357829
n^d*x^d*_id^index2:197417:6.35276e-06
£^ff*£^ff*_id^index0:197482:0.000438273
Q^d*T^d*_id^index2:197564:6.35276e-06
H^d*v^d:197691:6.35276e-06
Ection^d*P^d:197741:6.35276e-06
Y^d*n^d*_id^index2:197838:6.35276e-06
baction^d*v^d*_id^index2:197845:6.35276e-06
$^ff*7^ff:197883:0.000438273
1^ff*8^ff*_id^index0:197898:0.000438273
Baction^d*f^d:197987:6.35276e-06
daction^d*h^d:198000:6.35276e-06
Q^d*daction^d*_id^index2:198026:6.35276e-06
$^ff*Slot^h*_id^index0:198032:0.000438273
Daction^d*n^d*_id^index2:198113:6.35276e-06
&^ff*£^ff:198183:0.000438273
1^ff*2^ff:198323:0.000438273
daction^d*_id^index2:198327:6.35276e-06
caction^d*e^d*_id^index2:198356:6.35276e-06
User^c*u^f*_id^index2:198384:0.000285502
T^d*q^d:198468:6.35276e-06
Z^d*e^d:198541:6.35276e-06
M^d*daction^d:198808:6.35276e-06
Baction^d*Q^d:198823:6.35276e-06
9^ff*9^ff:198888:0.000438273
User^b*i^g:198900:6.35276e-06
Action^d*T^d*_id^index2:198916:6.35276e-06
G^d*m^d*_id^index2:198980:6.35276e-06
W^d*caction^d:199134:6.35276e-06
J^d*u^f*_id^index2:199142:6.35276e-06
3^ff*6^ff*_id^index0:199145:0.000438273
N^d*o^d:199286:6.35276e-06
2^ff*7^ff*_id^index0:199381:0.000438273
s^d*z^d:199417:0.000286904
O^d*w^d*_id^index2:199516:6.35276e-06
t^d*u^f*_id^index2:199887:0.000286904
m^d*y^d*_id^index2:200072:6.35276e-06
Action^d*q^d*_id^index2:200118:6.35276e-06
F^d:200251:6.35276e-06
v^d*x^d*_id^index2:200262:0.000286904
P^d*e^d*_id^index2:200310:6.35276e-06
F^d*q^d*_id^index2:200324:6.35276e-06
L^d*P^d*_id^index2:200335:6.35276e-06
n^d*j*_id^index2:200391:6.35276e-06
Z^d*x^d:200597:0.000286904
o^d*s^d*_id^index2:200791:6.35276e-06
m^d*o^d*_id^index2:200862:6.35276e-06
e^d:200975:6.35276e-06
P^d*m^d:200987:6.35276e-06
j^d*l^d*_id^index2:201141:6.35276e-06
T^d*h^d*_id^index2:201208:6.35276e-06
g^d*n^d*_id^index2:201472:6.35276e-06
Action^d*x^d*_id^index2:201550:6.35276e-06
7^ff*User^b*_id^index0:201571:0.000438273
R^d*x^d:201592:0.000286904
Z^d*n^d*_id^index2:201642:6.35276e-06
P^d*s^d*_id^index2:201734:6.35276e-06
v^d*z^d*_id^index2:201743:0.000286904
w^d*w^d*_id^index2:201798:0.000286904
Action^d*Z^d:202193:6.35276e-06
W^d*v^d:202240:0.000286904
L^d*M^d*_id^index2:202339:6.35276e-06
3^ff*8^ff*_id^index0:202361:0.000438273
G^d*H^d:202392:6.35276e-06
V^d*f^d:202458:6.35276e-06
O^d*j^d:202546:6.35276e-06
q^d*y^d:202587:8.98431e-06
m^d*m^d:202600:6.35276e-06
p^d*y^d*_id^index1:202646:6.35276e-06
o^d*u^f:202669:6.35276e-06
V^d*daction^d*_id^index2:202710:6.35276e-06
G^d*I^g*_id^index2:202911:6.35276e-06
8^ff*Slot^h*_id^index0:202913:0.000438273
&^ff*3^ff*_id^index0:203026:0.000438273
x^d:203031:0.000286904
Caction^d*j*_id^index2:203042:6.35276e-06
User^b*g^d:203225:6.35276e-06
x^d*z^d*_id^index2:203245:0.000286904
h^d*h^d*_id^index2:203256:6.35276e-06
)^ff*)^ff*_id^index0:203348:0.000438273
f^d*s^d*_id^index2:203370:6.35276e-06
W^d*i^g*_id^index2:203394:6.35276e-06
V^d*h^d*_id^index2:203464:6.35276e-06
$^ff*&^ff:203574:0.000438273
W^d*z^d*_id^index2:203613:0.000286904
R^d*e^d:203616:6.35276e-06
F^d*daction^d:203698:6.35276e-06
Q^d*h^d*_id^index2:203708:6.35276e-06
Action^d*X^d*_id^index2:203734:6.35276e-06
H^d*caction^d:203749:6.35276e-06
)^ff*£^ff:203815:0.000438273
e^d*q^d:203842:6.35276e-06
O^d*z^d*_id^index1:203851:6.35276e-06
3^ff*£^ff*_id^index0:203989:0.000438273
Action^d*G^d:204289:6.35276e-06
s^d*j:204500:0.000286904
Baction^d*N^d*_id^index2:204546:6.35276e-06
R^d*h^d*_id^index2:204700:6.35276e-06
G^d*e^d*_id^index2:204857:6.35276e-06
L^d*N^d:204864:6.35276e-06
2^ff*4^ff:204930:0.000438273
f^d*w^d*_id^index2:205019:6.35276e-06
!^ff*8^ff:205181:0.000438273
F^d*L^d:205187:6.35276e-06
w^d:205316:0.000286904
Baction^d*u^f:205331:6.35276e-06
Q^d*Z^d:205433:6.35276e-06
%^ff*1^ff:205740:0.000438273
H^d*H^d:205748:6.35276e-06
n^d*o^d:205918:6.35276e-06
O^d*action^d*_id^index2:205942:6.35276e-06
W^d*x^d*_id^index2:206280:0.000286904
8^ff*_id^index0:206298:0.000438273
caction^d*j^d*_id^index2:206349:6.35276e-06
Caction^d*V^d*_id^index2:206418:6.35276e-06
Caction^d*j:206420:6.35276e-06
N^d*e^d*_id^index2:206553:6.35276e-06
M^d*p^d*_id^index2:206576:6.35276e-06
!^ff*!^ff:206658:0.000438273
Action^d*baction^d*_id^index0:206699:6.35276e-06
O^d*Y^d*_id^index2:206726:6.35276e-06
2^ff*3^ff:206738:0.000438273
Action^d*w^d*_id^index2:206791:6.35276e-06
I^g*baction^d:206799:6.35276e-06
M^d*V^d*_id^index2:206872:6.35276e-06
l^d*y^d*_id^index2:206873:6.35276e-06
G^d*V^d*_id^index2:206911:6.35276e-06
F^d*W^d:206950:6.35276e-06
R^d*w^d:206955:0.000286904
e^d*t^d:207027:6.35276e-06
m^d*y^d:207058:6.35276e-06
F^d*z^d:207093:6.35276e-06
G^d*q^d*_id^index2:207145:6.35276e-06
w^d*y^d*_id^index2:207344:0.000286904
I^g*p^d*_id^index2:207376:6.35276e-06
4^ff*7^ff:207397:0.000438273
F^d*Y^d:207643:6.35276e-06
6^ff*£^ff:207700:0.000438273
Q^d*i^g*_id^index2:207748:6.35276e-06
Q^d*z^d*_id^index2:207839:6.35276e-06
Daction^d*baction^d:207999:6.35276e-06
3^ff*4^ff*_id^index0:208044:0.000438273
$^ff*6^ff*_id^index0:208071:0.000438273
Daction^d*j^d:208091:6.35276e-06
N^d*i^g:208259:6.35276e-06
q^d*j*_id^index2:208322:6.35276e-06
Action^fff*Slot^h*_id^index0:208421:-0.0310489
Y^d*j^d:208462:6.35276e-06
J^d*x^d*_id^index2:208484:6.35276e-06
Caction^d*N^d*_id^index2:208495:6.35276e-06
V^d*n^d*_id^index2:208497:6.35276e-06
N^d*N^d*_id^index2:208514:6.35276e-06
m^d*n^d*_id^index2:208528:6.35276e-06
F^d*X^d:208542:6.35276e-06
P^d*y^d:208545:6.35276e-06
G^d*caction^d:208585:6.35276e-06
Y^d*baction^d:208618:6.35276e-06
User^b*o^d:208641:6.35276e-06
Baction^d*M^d*_id^index2:208799:6.35276e-06
M^d*j:208882:6.35276e-06
Action^fff*User^c:209117:-0.0364969
G^d*v^d:209175:6.35276e-06
X^d*p^d:209212:6.35276e-06
Caction^d*Y^d:209303:6.35276e-06
User^b*User^c*_id^index2:209322:0.000286904
u^f*v^d:209334:0.000286904
Caction^d*z^d:209529:6.35276e-06
Daction^d*j*_id^index2:209560:6.35276e-06
0^ff*Slot^h*_id^index0:209583:0.000438273
L^d*Y^d*_id^index2:209642:8.98431e-06
P^d*Q^d*_id^index2:209688:6.35276e-06
m^d*x^d*_id^index2:209783:6.35276e-06
T^d*t^d:209845:0.000286904
Ection^d*action^d:209898:6.35276e-06
Caction^d*X^d:209938:6.35276e-06
Z^d*w^d:210054:0.000286904
G^d*Z^d*_id^index2:210098:6.35276e-06
9^ff*Slot^h:210101:0.000438273
e^d*q^d*_id^index2:210168:6.35276e-06
F^d*n^d*_id^index2:210259:6.35276e-06
Baction^d*f^d*_id^index2:210375:6.35276e-06
Ection^d*Q^d*_id^index2:210417:6.35276e-06
Slot^h*User^a:210560:0.0147189
Action^e:210597:-0.0153953
F^d*z^d*_id^index2:210609:6.35276e-06
8^ff*User^b:210703:0.000438273
Action^d*Baction^d*_id^index2:210733:6.35276e-06
%^ff*&^ff*_id^index0:210941:0.000438273
M^d*Y^d:210993:6.35276e-06
t^d*y^d:211004:0.000286904
N^d*o^d*_id^index2:211164:6.35276e-06
J^d*h^d:211216:6.35276e-06
F^d*h^d*_id^index2:211254:6.35276e-06
M^d*Y^d*_id^index2:211517:6.35276e-06
(^ff*4^ff:211564:0.000438273
L^d*l^d:211599:6.35276e-06
J^d*_id^index2:211671:6.35276e-06
Caction^d*L^d:211727:6.35276e-06
N^d*R^d:211783:6.35276e-06
M^d*W^d:211788:6.35276e-06
f^d*x^d:211796:6.35276e-06
L^d*T^d:211871:6.35276e-06
Action^d*Ection^d:211911:6.35276e-06
H^d*o^d*_id^index2:211920:6.35276e-06
M^d*z^d:211935:6.35276e-06
Action^fff*Slot^i*_id^index1:211944:0.00505362
W^d*n^d*_id^index2:212031:6.35276e-06
N^d*g^d:212142:6.35276e-06
O^d*q^d*_id^index2:212169:6.35276e-06
F^d*j:212184:6.35276e-06
l^d*y^d:212285:6.35276e-06
(^ff*3^ff:212348:0.000438273
g^d*l^d:212381:6.35276e-06
Baction^d*Daction^d:212395:6.35276e-06
M^d*X^d:212404:6.35276e-06
X^d*daction^d*_id^index2:212484:6.35276e-06
H^d*i^g*_id^index2:212547:6.35276e-06
F^d*x^d*_id^index2:212828:6.35276e-06
)^ff*2^ff*_id^index0:212970:0.000438273
F^d*F^d*_id^index2:213040:6.35276e-06
Action^d*daction^d:213044:6.35276e-06
R^d*f^d*_id^index2:213188:6.35276e-06
Q^d*caction^d*_id^index2:213218:6.35276e-06
g^d*x^d:213315:6.35276e-06
User^b*action^d*_id^index2:213379:6.35276e-06
(^ff*1^ff:213447:0.000438273
X^d*action^d:213479:6.35276e-06
!^ff*(^ff:213672:0.000438273
Q^d*X^d:213680:6.35276e-06
V^d*X^d*_id^index2:213698:0.000286904
(^ff*(^ff*_id^index0:213724:0.000438273
Ection^d*p^d:213809:6.35276e-06
H^d*j^d*_id^index2:213828:6.35276e-06
8^ff*£^ff:213860:0.000438273
Baction^d*O^d*_id^index2:213890:6.35276e-06
Q^d*W^d:214088:6.35276e-06
Daction^d*I^g:214162:6.35276e-06
I^g*V^d:214210:6.35276e-06
Q^d*z^d:214235:6.35276e-06
F^d*G^d:214407:6.35276e-06
L^d*action^d*_id^index2:214458:6.35276e-06
e^d*m^d*_id^index2:214525:6.35276e-06
&^ff*0^ff*_id^index0:214553:0.000438273
User^c*r^d*_id^index2:214571:0.000285502
L^d*x^d:214609:6.35276e-06
P^d*User^b*_id^index2:214734:6.35276e-06
l^d*n^d*_id^index2:214801:6.35276e-06
Q^d*Y^d:214837:6.35276e-06
O^d*x^d*_id^index2:214881:6.35276e-06
f^d*l^d:214922:6.35276e-06
action^d*z^d:214954:6.35276e-06
J^d*M^d:215072:6.35276e-06
Action^d*p^d*_id^index2:215196:6.35276e-06
Y^d*y^d*_id^index2:215318:0.000286904
T^d*v^d:215326:0.000286904
J^d*r^d*_id^index2:215329:6.35276e-06
r^d*s^d*_id^index2:215359:0.000286904
Daction^d*y^d*_id^index2:215593:6.35276e-06
H^d*q^d:215649:6.35276e-06
(^ff*)^ff*_id^index0:215784:0.000438273
(^ff*9^ff*_id^index0:215787:0.000438273
o^d*r^d:215968:6.35276e-06
G^d*t^d:215996:6.35276e-06
User^a*_id^index0:216067:0.0147185
J^d*m^d:216101:6.35276e-06
Q^d*j^d*_id^index2:216195:6.35276e-06
action^d*t^d*_id^index2:216238:6.35276e-06
6^ff*_id^index0:216554:0.000438273
e^d*f^d*_id^index2:216570:6.35276e-06
L^d*e^d:216649:6.35276e-06
T^d*o^d*_id^index2:216659:6.35276e-06
F^d*Z^d:216663:6.35276e-06
Baction^d*j^d*_id^index2:216744:6.35276e-06
I^g*I^g:216866:6.35276e-06
3^ff*5^ff*_id^index0:216877:0.000438273
M^d*y^d*_id^index2:216889:6.35276e-06
User^c*y^d*_id^index2:216905:0.000285502
Daction^d*V^d:216946:6.35276e-06
M^d*N^d*_id^index2:217001:6.35276e-06
User^c*x^d:217068:0.000285502
daction^d*y^d:217087:6.35276e-06
Q^d*j:217334:6.35276e-06
G^d*r^d*_id^index2:217412:6.35276e-06
e^d*v^d:217624:6.35276e-06
Ection^d*J^d*_id^index2:217783:6.35276e-06
action^d*j:217991:6.35276e-06
o^d*y^d*_id^index2:218096:6.35276e-06
daction^d*x^d*_id^index2:218116:6.35276e-06
I^g*O^d:218157:6.35276e-06
H^d*O^d*_id^index2:218166:6.35276e-06
l^d*s^d*_id^index2:218210:6.35276e-06
I^g*P^d*_id^index2:218316:6.35276e-06
Caction^d*Z^d:218331:6.35276e-06
User^c:218617:-0.0357829
O^d*s^d:218765:6.35276e-06
V^d*Y^d*_id^index2:218813:0.000286904
T^d*caction^d:218816:6.35276e-06
Daction^d*Q^d*_id^index2:218836:6.35276e-06
h^d*s^d:218852:6.35276e-06
Q^d*Y^d*_id^index2:218993:6.35276e-06
%^ff*4^ff:219143:0.000438273
W^d*q^d:219226:6.35276e-06
x^d*y^d*_id^index2:219591:0.000286904
h^d*l^d*_id^index2:219656:6.35276e-06
4^ff*4^ff*_id^index0:219836:0.000438273
Action^d*L^d*_id^index2:219841:6.35276e-06
caction^d*o^d*_id^index2:220033:6.35276e-06
Q^d*f^d*_id^index2:220388:6.35276e-06
M^d*Z^d:220541:6.35276e-06
action^d*daction^d*_id^index2:220681:6.35276e-06
q^d*_id^index2:220691:6.35276e-06
J^d*baction^d*_id^index2:220745:6.35276e-06
e^d*t^d*_id^index2:220887:6.35276e-06
Caction^d*G^d:220939:6.35276e-06
%^ff*3^ff:220951:0.000438273
6^ff*User^b:220991:0.000438273
Action^e*j:221062:-0.0217888
R^d*User^c:221078:0.000285502
Daction^d*O^d:221085:6.35276e-06
L^d*l^d*_id^index2:221187:6.35276e-06
&^ff*_id^index0:221337:0.000438273
Z^d*action^d*_id^index2:221446:6.35276e-06
Action^e*User^a:221492:-0.0217888
m^d*_id^index2:221594:6.35276e-06
%^ff*0^ff*_id^index0:221640:0.000438273
%^ff*(^ff*_id^index0:221713:0.000438273
User^c*w^d*_id^index2:221811:0.000285502
j^d*u^f*_id^index2:222061:6.35276e-06
g^d*r^d*_id^index2:222134:6.35276e-06
h^d*i^g*_id^index2:222144:6.35276e-06
7^ff*8^ff*_id^index0:222158:0.000438273
P^d*h^d:222254:6.35276e-06
O^d*O^d:222324:6.35276e-06
T^d:222425:0.000286904
l^d:222665:6.35276e-06
0^ff*0^ff*_id^index0:222718:0.000438273
x^d*x^d:222754:0.000286904
i^g*j:222810:6.35276e-06
L^d*s^d*_id^index2:222885:6.35276e-06
I^g*s^d:222932:6.35276e-06
Action^e*_id^index1:222950:0.00631952
Action^d*j:223070:6.35276e-06
V^d*p^d*_id^index2:223088:6.35276e-06
P^d*_id^index2:223209:6.35276e-06
%^ff*%^ff*_id^index0:223210:0.000438273
)^ff*User^b:223308:0.000438273
2^ff:223395:0.000438273
Action^ff*User^c*_id^index1:223453:0.000438273
j^d*v^d*_id^index2:223489:6.35276e-06
Caction^d*W^d*_id^index2:223552:6.35276e-06
j^d*p^d*_id^index2:223581:6.35276e-06
i^g*l^d*_id^index2:223616:6.35276e-06
Baction^d*n^d:223628:6.35276e-06
baction^d*p^d:223677:6.35276e-06
G^d*h^d*_id^index2:223759:6.35276e-06
3^ff*3^ff*_id^index0:223868:0.000438273
caction^d*p^d:223888:6.35276e-06
X^d*Z^d*_id^index2:224095:0.000286904
W^d*t^d:224427:0.000286904
Daction^d*s^d:224612:6.35276e-06
V^d*r^d:224679:0.000286904
5^ff*£^ff*_id^index0:224706:0.000438273
Baction^d*X^d*_id^index2:224745:6.35276e-06
W^d*action^d*_id^index2:224771:6.35276e-06
1^ff*9^ff*_id^index0:224830:0.000438273
Baction^d*t^d*_id^index2:224842:6.35276e-06
R^d*T^d:224950:0.000286904
T^d*f^d*_id^index2:225184:6.35276e-06
R^d*l^d:225190:6.35276e-06
Y^d*s^d:225265:0.000286904
daction^d*m^d:225349:6.35276e-06
Action^d*Y^d:225437:6.35276e-06
O^d*s^d*_id^index2:225513:6.35276e-06
H^d*Y^d*_id^index2:225554:6.35276e-06
t^d*_id^index2:225652:0.000286904
&^ff*User^b:225868:0.000438273
i^g*z^d:225911:6.35276e-06
I^g*V^d*_id^index2:225912:6.35276e-06
R^d*y^d*_id^index2:225957:0.000286904
Z^d*l^d:226123:6.35276e-06
Action^d*z^d:226163:6.35276e-06
J^d*y^d:226207:6.35276e-06
Action^d*W^d:226272:6.35276e-06
J^d*z^d*_id^index2:226297:6.35276e-06
l^d*_id^index2:226421:6.35276e-06
O^d*V^d:226459:6.35276e-06
baction^d*u^f*_id^index2:226537:6.35276e-06
action^d*daction^d:226541:6.35276e-06
User^c*w^d:226559:0.000285502
Action^d*X^d:226584:6.35276e-06
P^d*o^d*_id^index2:226711:6.35276e-06
X^d*baction^d*_id^index2:226741:6.35276e-06
Ection^d*User^b:226791:6.35276e-06
Ection^d*X^d*_id^index2:226899:6.35276e-06
j^d*s^d:227135:6.35276e-06
Y^d*s^d*_id^index2:227197:0.000286904
Q^d*daction^d:227228:6.35276e-06
X^d*caction^d*_id^index2:227740:6.35276e-06
r^d*s^d:227835:0.000286904
Action^d*L^d:227845:6.35276e-06
V^d*n^d:227893:6.35276e-06
g^d*w^d:227920:6.35276e-06
)^ff*_id^index0:227993:0.000438273
Caction^d*Ection^d:228045:6.35276e-06
H^d*H^d*_id^index2:228162:6.35276e-06
Daction^d*s^d*_id^index2:228210:6.35276e-06
J^d*R^d*_id^index2:228266:6.35276e-06
7^ff*£^ff*_id^index0:228370:0.000438273
M^d*l^d*_id^index2:228408:6.35276e-06
&^ff*9^ff*_id^index0:228479:0.000438273
j*j*_id^index2:228536:-0.0214331
L^d*w^d:228674:6.35276e-06
O^d*h^d*_id^index2:228783:6.35276e-06
Baction^d*r^d:228894:6.35276e-06
e^d*l^d*_id^index2:228898:6.35276e-06
i^g*z^d*_id^index2:228939:6.35276e-06
T^d*action^d*_id^index2:228957:6.35276e-06
H^d*t^d:229008:6.35276e-06
N^d:229126:6.35276e-06
G^d*q^d:229197:6.35276e-06
caction^d*t^d*_id^index2:229283:6.35276e-06
daction^d*n^d*_id^index2:229483:6.35276e-06
e^d*j:229540:6.35276e-06
Z^d*j^d*_id^index2:229624:6.35276e-06
action^d*v^d:229691:6.35276e-06
!^ff*4^ff*_id^index0:229832:0.000438273
y^d*z^d*_id^index2:229852:0.000286904
Q^d*v^d:229962:6.35276e-06
T^d*n^d*_id^index2:229985:6.35276e-06
Daction^d*r^d*_id^index2:230091:6.35276e-06
Ection^d*j^d:230176:6.35276e-06
&^ff*)^ff:230178:0.000438273
V^d*action^d*_id^index2:230221:6.35276e-06
m^d*u^f:230245:6.35276e-06
Ection^d*baction^d:230276:6.35276e-06
g^d*i^g:230309:6.35276e-06
J^d*r^d:230437:6.35276e-06
Caction^d*H^d*_id^index2:230459:6.35276e-06
daction^d*j*_id^index2:230574:6.35276e-06
L^d*i^g:230583:6.35276e-06
L^d*q^d*_id^index2:230597:6.35276e-06
P^d*u^f:230678:6.35276e-06
Daction^d*J^d*_id^index2:230758:6.35276e-06
%^ff*&^ff:231285:0.000438273
M^d*t^d:231397:6.35276e-06
h^d*s^d*_id^index2:231410:6.35276e-06
x^d*x^d*_id^index2:231576:0.000286904
X^d*o^d*_id^index2:231637:6.35276e-06
i^g*v^d*_id^index2:231692:6.35276e-06
O^d*e^d*_id^index2:231769:6.35276e-06
N^d*N^d:231796:6.35276e-06
baction^d*caction^d*_id^index2:231819:6.35276e-06
Baction^d*y^d:231844:6.35276e-06
T^d*X^d:231908:0.000286904
V^d*m^d*_id^index2:232187:6.35276e-06
F^d*User^b*_id^index2:232204:6.35276e-06
T^d*u^f*_id^index2:232208:0.000286904
q^d*y^d*_id^index2:232287:8.98431e-06
r^d*x^d*_id^index2:232311:0.000286904
R^d*u^f*_id^index2:232340:0.000286904
8^ff*9^ff:232444:0.000438273
i^g*t^d*_id^index2:232489:6.35276e-06
F^d*O^d*_id^index2:232507:6.35276e-06
T^d*Y^d:232545:0.000286904
Caction^d*r^d*_id^index2:232717:6.35276e-06
H^d*Q^d*_id^index2:232943:6.35276e-06
F^d*L^d*_id^index2:232999:6.35276e-06
Caction^d*t^d:233027:6.35276e-06
action^d*u^f*_id^index2:233107:6.35276e-06
Daction^d*p^d*_id^index2:233184:6.35276e-06
T^d*W^d:233244:0.000286904
T^d*z^d:233359:0.000286904
T^d*g^d*_id^index2:233435:6.35276e-06
User^b*u^f*_id^index2:233458:6.35276e-06
O^d*P^d:233599:6.35276e-06
L^d*V^d*_id^index2:233699:6.35276e-06
1^ff*6^ff:233720:0.000438273
p^d*w^d:233735:6.35276e-06
!^ff*$^ff:233760:0.000438273
G^d*Z^d:233764:6.35276e-06
Action^d*H^d:234093:6.35276e-06
L^d*R^d:234099:6.35276e-06
5^ff*7^ff:234104:0.000438273
g^d*g^d:234120:6.35276e-06
N^d*T^d:234155:6.35276e-06
s^d*u^f*_id^index2:234234:0.000286904
t^d*u^f:234379:0.000286904
J^d*n^d:234423:6.35276e-06
N^d*l^d:234427:6.35276e-06
e^d*z^d:234633:6.35276e-06
F^d*t^d:234703:6.35276e-06
N^d*x^d*_id^index2:234721:6.35276e-06
H^d*T^d*_id^index2:234811:6.35276e-06
L^d*g^d:234906:6.35276e-06
l^d*u^f:235146:6.35276e-06
G^d*X^d*_id^index2:235273:8.98431e-06
L^d*baction^d*_id^index2:235416:6.35276e-06
I^g*action^d:235425:6.35276e-06
0^ff*2^ff:235429:0.000438273
m^d*m^d*_id^index2:235430:6.35276e-06
caction^d*m^d*_id^index2:235593:6.35276e-06
Action^d*I^g*_id^index2:235700:6.35276e-06
%^ff*7^ff:235704:0.000438273
)^ff*)^ff:235810:0.000438273
!^ff*9^ff*_id^index0:235857:0.000438273
V^d*y^d:236061:0.000286904
Slot^h*User^b*_id^index0:236086:0.000438273
G^d*G^d:236276:6.35276e-06
I^g*f^d*_id^index2:236368:6.35276e-06
T^d*j:236450:0.000286904
Daction^d*action^d:236561:6.35276e-06
G^d*Q^d*_id^index2:236635:6.35276e-06
$^ff*%^ff:236715:0.000438273
Baction^d*caction^d*_id^index2:236821:6.35276e-06
Action^fff*User^b*_id^index1:236864:0.00505362
Q^d*caction^d:236948:6.35276e-06
P^d*daction^d*_id^index2:237106:6.35276e-06
Y^d*action^d:237188:6.35276e-06
User^b*y^d*_id^index2:237239:6.35276e-06
action^d*caction^d:237285:6.35276e-06
User^b*User^b*_id^index0:237300:0.000438273
action^d*z^d*_id^index2:237440:6.35276e-06
L^d*p^d*_id^index2:237483:6.35276e-06
I^g*P^d:237606:6.35276e-06
R^d*r^d*_id^index2:237607:0.000286904
F^d*q^d:237630:6.35276e-06
3^ff*6^ff:237753:0.000438273
2^ff*Slot^h*_id^index0:237890:0.000438273
caction^d*x^d*_id^index2:237948:6.35276e-06
!^ff*6^ff*_id^index0:238053:0.000438273
P^d*f^d:238182:6.35276e-06
L^d*i^g*_id^index2:238347:6.35276e-06
L^d*o^d:238402:6.35276e-06
y^d*j:238427:0.000286904
P^d*T^d*_id^index2:238452:6.35276e-06
H^d*Z^d:238600:6.35276e-06
H^d*L^d*_id^index2:238666:6.35276e-06
g^d*o^d:238672:6.35276e-06
Z^d*Z^d*_id^index2:238786:0.000286904
Ection^d*j*_id^index2:238981:6.35276e-06
V^d*m^d:239015:6.35276e-06
&^ff*£^ff*_id^index0:239031:0.000438273
action^d*r^d*_id^index2:239112:6.35276e-06
Q^d*Q^d*_id^index2:239216:6.35276e-06
9^ff*_id^index0:239310:0.000438273
P^d*q^d*_id^index2:239590:6.35276e-06
O^d*action^d:239608:6.35276e-06
Action^d*e^d*_id^index2:239782:6.35276e-06
baction^d*baction^d:239880:6.35276e-06
baction^d*j^d:240044:6.35276e-06
p^d*x^d:240148:6.35276e-06
Action^d*caction^d:240188:6.35276e-06
caction^d*j^d:240257:6.35276e-06
Daction^d*P^d:240534:6.35276e-06
Y^d*j^d*_id^index2:240596:6.35276e-06
0^ff*User^b*_id^index0:240705:0.000438273
Daction^d*t^d*_id^index2:240753:6.35276e-06
Action^fff*User^a*_id^index0:240815:0.0147185
H^d*h^d*_id^index2:240955:6.35276e-06
N^d*j^d*_id^index2:241448:6.35276e-06
I^g*u^f*_id^index2:241504:6.35276e-06
P^d*Q^d:241570:6.35276e-06
daction^d*n^d:241623:6.35276e-06
caction^d*r^d*_id^index2:241737:6.35276e-06
X^d*s^d:241810:0.000286904
Ection^d*M^d*_id^index2:241973:6.35276e-06
g^d*l^d*_id^index2:241977:6.35276e-06
Baction^d*M^d:242203:6.35276e-06
g^d*y^d*_id^index2:242232:6.35276e-06
R^d*baction^d*_id^index2:242255:6.35276e-06
N^d*r^d*_id^index2:242340:6.35276e-06
M^d*q^d:242452:6.35276e-06
T^d*Y^d*_id^index2:242605:0.000286904
Q^d*X^d*_id^index2:242702:6.35276e-06
9^ff*User^b:242715:0.000438273
l^d*u^f*_id^index2:242720:6.35276e-06
Action^d*g^d*_id^index2:242815:6.35276e-06
j^d*n^d*_id^index2:242820:6.35276e-06
r^d*v^d*_id^index2:242829:0.000286904
X^d*x^d*_id^index2:242832:0.000286904
J^d:242867:6.35276e-06
i^g*v^d:242918:6.35276e-06
Action^d*v^d:243170:6.35276e-06
Baction^d*m^d:243230:6.35276e-06
Q^d*baction^d*_id^index2:243247:6.35276e-06
W^d*Z^d:243251:0.000286904
s^d*t^d:243395:0.000286904
User^b*l^d:243404:6.35276e-06
y^d*z^d:243574:0.000286904
Caction^d*L^d*_id^index2:243587:6.35276e-06
8^ff*Slot^h:243617:0.000438273
!^ff*0^ff:243719:0.000438273
daction^d*r^d:243781:6.35276e-06
G^d*W^d*_id^index2:243985:6.35276e-06
W^d*e^d*_id^index2:244000:6.35276e-06
!^ff*0^ff*_id^index0:244183:0.000438273
caction^d*j*_id^index2:244214:6.35276e-06
