Version 8.11.0
Id
Min label:-1
Max label:0
bits:18
lda:0
0 ngram:
0 skip:
options: --cb_adf --cb_explore_adf --cb_sample --cb_type mtr --ccb_explore_adf --csoaa_ldf multiline --csoaa_rank --quadratic ::
Checksum: 1827071792
CCB: has_seen_multi_slot_example = 1
event_sum 33
action_sum 132
:0
m^d*p^d:85:7.22729e-06
Baction^d*F^d*_id^index2:117:7.22729e-06
0^ff:162:0.00048373
V^d*g^d*_id^index2:171:7.22729e-06
F^d*Q^d*_id^index2:322:7.22729e-06
e^d*i^g:364:7.22729e-06
Action^fff*User^a:431:0.0151324
I^g*j*_id^index2:456:7.22729e-06
Y^d*o^d*_id^index2:544:7.22729e-06
F^d*T^d:568:7.22729e-06
g^d*j:621:7.22729e-06
F^d*M^d*_id^index2:646:7.22729e-06
Baction^d*V^d:667:7.22729e-06
F^d*l^d:808:7.22729e-06
Caction^d*N^d:875:7.22729e-06
N^d*t^d:1116:7.22729e-06
User^b*Y^d*_id^index2:1139:7.22729e-06
I^g*Y^d*_id^index2:1181:7.22729e-06
L^d*j:1407:7.22729e-06
T^d*W^d*_id^index2:1546:0.00028729
P^d*p^d:1574:7.22729e-06
M^d*s^d*_id^index2:1602:7.22729e-06
Action^fff*_id^index1:1661:0.00504854
(^ff*9^ff:1667:0.00048373
Ection^d:1696:7.22729e-06
N^d*z^d*_id^index2:1932:7.22729e-06
H^d*s^d*_id^index2:1997:7.22729e-06
Slot^h*User^c:2034:-0.0364944
Y^d*i^g*_id^index2:2035:7.22729e-06
F^d*P^d*_id^index2:2074:7.22729e-06
O^d*r^d:2078:7.22729e-06
G^d*v^d*_id^index2:2091:7.22729e-06
Action^d*Y^d*_id^index2:2105:7.22729e-06
baction^d*_id^index2:2162:7.22729e-06
h^d*r^d:2167:7.22729e-06
caction^d*h^d:2200:7.22729e-06
Baction^d*I^g:2427:7.22729e-06
User^a*_id^index2:2511:-0.0224039
Caction^d*s^d*_id^index2:2632:7.22729e-06
o^d*u^f*_id^index2:2633:7.22729e-06
M^d*i^g*_id^index2:2640:7.22729e-06
M^d*N^d:2765:7.22729e-06
s^d*z^d*_id^index2:2789:0.00028729
T^d*g^d:2887:7.22729e-06
caction^d*_id^index2:2911:7.22729e-06
I^g*R^d*_id^index2:2980:7.22729e-06
baction^d*h^d:2997:7.22729e-06
Ection^d*g^d*_id^index2:3178:7.22729e-06
User^c*j:3266:0.000285482
caction^d*z^d*_id^index2:3281:7.22729e-06
G^d*J^d:3361:7.22729e-06
Ection^d*u^f*_id^index2:3725:7.22729e-06
User^c*v^d*_id^index2:3908:0.000285482
!^ff*5^ff*_id^index0:3985:0.00048373
Baction^d*i^g*_id^index2:4007:7.22729e-06
M^d*l^d:4098:7.22729e-06
e^d*g^d:4161:7.22729e-06
m^d*t^d*_id^index2:4224:7.22729e-06
action^d*x^d:4265:7.22729e-06
%^ff*6^ff*_id^index0:4302:0.00048373
M^d*T^d:4370:7.22729e-06
V^d*V^d:4386:0.00028729
L^d*z^d:4434:7.22729e-06
I^g*l^d*_id^index2:4440:7.22729e-06
L^d*W^d:4545:7.22729e-06
Baction^d*O^d:4724:7.22729e-06
7^ff*Slot^h:4741:0.00048373
Action^e*Action^e*_id^index1:4791:0.00631908
L^d*Y^d:4796:7.22729e-06
Q^d*g^d*_id^index2:4855:7.22729e-06
Q^d*x^d:5080:7.22729e-06
i^g*n^d*_id^index2:5305:7.22729e-06
&^ff*(^ff*_id^index0:5344:0.00048373
o^d*s^d:5427:7.22729e-06
l^d*p^d:5562:7.22729e-06
User^b*q^d:5594:7.22729e-06
g^d*z^d:5696:7.22729e-06
g^d*h^d*_id^index2:5865:7.22729e-06
Q^d*r^d*_id^index2:5895:7.22729e-06
L^d*X^d:5945:7.22729e-06
M^d*W^d*_id^index2:6074:7.22729e-06
L^d*L^d:6180:7.22729e-06
q^d*w^d*_id^index2:6197:7.22729e-06
User^c*W^d:6268:0.000285482
action^d*e^d:6321:7.22729e-06
Caction^d*T^d:6324:7.22729e-06
User^c*z^d:6383:0.000285482
Baction^d*Baction^d*_id^index2:6530:7.22729e-06
Caction^d*l^d:6564:7.22729e-06
X^d*y^d:6587:0.00028729
F^d*N^d:6631:7.22729e-06
T^d*i^g:6762:7.22729e-06
baction^d*s^d*_id^index2:6903:7.22729e-06
User^c*Y^d:6913:0.000285482
Q^d*e^d:7104:7.22729e-06
Caction^d*Caction^d*_id^index2:7112:7.22729e-06
J^d*P^d:7236:7.22729e-06
T^d*w^d*_id^index2:7251:0.00028729
2^ff*9^ff:7277:0.00048373
I^g*q^d*_id^index2:7298:7.22729e-06
G^d*L^d*_id^index2:7374:7.22729e-06
Z^d*r^d*_id^index2:7476:0.00028729
3^ff*5^ff:7525:0.00048373
Action^d*R^d*_id^index2:7688:7.22729e-06
i^g*w^d:7783:7.22729e-06
User^c*X^d:7812:0.000285482
n^d*q^d:7813:7.22729e-06
caction^d*caction^d*_id^index2:7920:7.22729e-06
x^d*j*_id^index2:7930:0.00028729
Baction^d*Z^d*_id^index2:7954:7.22729e-06
Action^d*w^d:8035:7.22729e-06
O^d*n^d:8076:7.22729e-06
6^ff*7^ff:8092:0.00048373
Caction^d*Ection^d*_id^index2:8105:7.22729e-06
N^d*R^d*_id^index2:8155:7.22729e-06
h^d*n^d:8165:7.22729e-06
O^d*m^d*_id^index2:8228:7.22729e-06
2^ff*Slot^h:8240:0.00048373
0^ff*0^ff*_id^index2:8242:7.22729e-06
Baction^d*s^d:8333:7.22729e-06
User^b*t^d:8491:7.22729e-06
Ection^d*h^d:8505:7.22729e-06
L^d*daction^d:8725:7.22729e-06
X^d*e^d*_id^index2:8920:7.22729e-06
R^d*Z^d:8921:0.00028729
baction^d*h^d*_id^index2:8945:7.22729e-06
Ection^d*_id^index2:8958:7.22729e-06
G^d:9062:7.22729e-06
p^d*z^d*_id^index2:9259:7.22729e-06
action^d*j^d*_id^index2:9284:7.22729e-06
Daction^d*n^d:9317:7.22729e-06
Action^d*x^d:9328:7.22729e-06
x^d*j:9484:0.00028729
i^g*x^d:9588:7.22729e-06
)^ff*User^b*_id^index0:9590:0.00048373
O^d*T^d*_id^index2:9647:7.22729e-06
g^d*j^d*_id^index2:9698:7.22729e-06
X^d*m^d:9729:7.22729e-06
e^d*o^d:9881:7.22729e-06
Y^d*n^d:9968:7.22729e-06
r^d*r^d:10088:0.00028729
u^f*j*_id^index2:10144:0.00028729
P^d*y^d*_id^index2:10349:7.22729e-06
q^d*u^f*_id^index2:10394:7.22729e-06
Z^d:10422:0.00028729
Q^d*w^d:10443:7.22729e-06
)^ff*7^ff:10479:0.00048373
User^b*q^d*_id^index2:10544:7.22729e-06
%^ff*)^ff:10613:0.00048373
$^ff:10629:0.00048373
j^d*r^d:10668:7.22729e-06
f^d*x^d*_id^index2:10786:7.22729e-06
n^d*t^d:10868:7.22729e-06
Ection^d*daction^d*_id^index1:10896:7.22729e-06
T^d*t^d*_id^index2:10993:0.00028729
action^d*w^d:11194:7.22729e-06
J^d*action^d:11203:7.22729e-06
Action^d*e^d:11368:7.22729e-06
caction^d*i^g*_id^index2:11534:7.22729e-06
%^ff*1^ff*_id^index0:11542:0.00048373
&^ff*&^ff:11554:0.00048373
1^ff*5^ff:11556:0.00048373
N^d*User^b*_id^index2:11569:7.22729e-06
l^d*q^d*_id^index2:11586:7.22729e-06
W^d*r^d*_id^index2:11605:0.00028729
7^ff*Slot^h*_id^index0:11661:0.00048373
F^d*X^d*_id^index2:11684:7.22729e-06
7^ff*9^ff:11992:0.00048373
I^g*X^d*_id^index2:12194:7.22729e-06
I^g*n^d:12245:7.22729e-06
Z^d*l^d*_id^index2:12303:7.22729e-06
N^d*q^d:12461:7.22729e-06
P^d*User^b:12528:7.22729e-06
x^d*z^d:12577:0.00028729
Y^d*r^d:12642:0.00028729
F^d*R^d*_id^index2:12706:7.22729e-06
&^ff*7^ff:13039:0.00048373
Action^e*Action^e:13082:-0.0160167
V^d*s^d:13108:0.00028729
Action^d*F^d:13148:7.22729e-06
Y^d*z^d*_id^index2:13168:0.00028729
Daction^d*r^d:13303:7.22729e-06
Daction^d*z^d*_id^index2:13443:7.22729e-06
4^ff*5^ff*_id^index0:13629:0.00048373
User^c*_id^index1:13730:0.00631908
Caction^d*Q^d*_id^index2:13878:7.22729e-06
H^d*J^d:14349:7.22729e-06
I^g*r^d:14407:7.22729e-06
R^d*j*_id^index2:14460:0.00028729
Ection^d*V^d*_id^index2:14517:7.22729e-06
J^d*j*_id^index2:14798:7.22729e-06
User^b*e^d*_id^index2:15008:7.22729e-06
(^ff*Slot^h:15070:0.00048373
L^d*j^d*_id^index2:15084:7.22729e-06
p^d*v^d:15238:7.22729e-06
F^d*G^d*_id^index2:15515:7.22729e-06
1^ff*6^ff*_id^index0:15546:0.00048373
&^ff*1^ff*_id^index0:15603:0.00048373
T^d*o^d:15775:7.22729e-06
Z^d*Z^d:15924:0.00028729
j^d*n^d:15934:7.22729e-06
User^b*daction^d*_id^index2:15996:7.22729e-06
0^ff*3^ff*_id^index0:16037:0.00048373
Action^d*h^d*_id^index2:16644:7.22729e-06
p^d*t^d:16685:7.22729e-06
baction^d*y^d:16698:7.22729e-06
(^ff*2^ff*_id^index0:16750:0.00048373
P^d*P^d:16762:7.22729e-06
H^d*R^d:16779:7.22729e-06
R^d*X^d:16912:0.00028729
caction^d*y^d:16919:7.22729e-06
Action^d*N^d:16993:7.22729e-06
baction^d*g^d*_id^index2:17166:7.22729e-06
5^ff:17204:0.00048373
I^g*f^d:17210:7.22729e-06
$^ff*User^b:17496:0.00048373
User^b*caction^d:17502:7.22729e-06
R^d*z^d:17531:0.00028729
F^d*w^d:17637:7.22729e-06
R^d*W^d:17640:0.00028729
Daction^d*Q^d:17742:7.22729e-06
W^d*i^g:17780:7.22729e-06
G^d*o^d:17814:7.22729e-06
!^ff*6^ff:17997:0.00048373
H^d*g^d:18018:7.22729e-06
l^d*w^d*_id^index2:18083:7.22729e-06
P^d*g^d*_id^index2:18095:7.22729e-06
L^d:18274:7.22729e-06
R^d*Y^d:18325:0.00028729
r^d*r^d*_id^index2:18342:0.00028729
X^d:18559:0.00028729
Daction^d*f^d:18570:7.22729e-06
%^ff*)^ff*_id^index0:18941:0.00048373
Y^d*f^d:18975:7.22729e-06
(^ff*)^ff:19230:0.00048373
I^g*w^d*_id^index2:19299:7.22729e-06
baction^d*o^d*_id^index2:19366:7.22729e-06
Action^e*User^a*_id^index2:19394:-0.0224039
Z^d*j:19643:0.00028729
Y^d:19962:0.00028729
z^d:19988:0.00028729
W^d:20103:0.00028729
$^ff*)^ff*_id^index0:20176:0.00048373
I^g*Q^d:20222:7.22729e-06
T^d*j*_id^index2:20248:0.00028729
G^d*n^d*_id^index2:20378:7.22729e-06
L^d*L^d*_id^index2:20402:7.22729e-06
s^d*w^d*_id^index2:20437:0.00028729
L^d*o^d*_id^index2:20472:7.22729e-06
Ection^d*M^d:20489:7.22729e-06
Action^e*User^c:20550:0.00631908
R^d*j:20566:0.00028729
i^g*j*_id^index2:20656:7.22729e-06
n^d*v^d:20703:7.22729e-06
X^d*_id^index2:20723:0.00028729
w^d*x^d*_id^index2:20831:0.00028729
5^ff*Slot^h:21109:0.00048373
X^d*h^d:21300:7.22729e-06
Ection^d*m^d:21516:7.22729e-06
O^d*u^f:21523:7.22729e-06
W^d*g^d:21593:7.22729e-06
h^d*u^f:21626:7.22729e-06
Q^d*v^d*_id^index2:21856:7.22729e-06
$^ff*_id^index0:22157:0.00048373
H^d*i^g:22351:7.22729e-06
8^ff*9^ff*_id^index0:22374:0.00048373
M^d*w^d:22479:7.22729e-06
G^d*s^d*_id^index2:22537:7.22729e-06
Z^d*z^d:22678:0.00028729
Action^d*l^d:22702:7.22729e-06
%^ff*Slot^h:22709:0.00048373
R^d*v^d*_id^index2:22848:0.00028729
1^ff*4^ff*_id^index0:22915:0.00048373
i^g*l^d:22954:7.22729e-06
H^d*q^d*_id^index2:22957:7.22729e-06
Action^d*T^d:22974:7.22729e-06
j:23097:-0.0220582
O^d*R^d*_id^index2:23131:7.22729e-06
J^d*p^d:23320:7.22729e-06
Baction^d*Daction^d*_id^index2:23343:7.22729e-06
User^b*v^d:23424:7.22729e-06
H^d*I^g*_id^index2:23435:7.22729e-06
f^d*i^g*_id^index2:23592:7.22729e-06
P^d*Y^d*_id^index2:23657:7.22729e-06
M^d*j^d*_id^index2:23887:7.22729e-06
I^g*h^d*_id^index2:23912:7.22729e-06
u^f*z^d*_id^index2:23931:0.00028729
s^d*x^d:24058:0.00028729
Caction^d*w^d:24169:7.22729e-06
Action^d*daction^d*_id^index2:24258:7.22729e-06
T^d*X^d*_id^index2:24306:0.00028729
Daction^d*V^d*_id^index2:24424:7.22729e-06
N^d*caction^d:24873:7.22729e-06
Baction^d*j^d:24882:7.22729e-06
Baction^d*baction^d:24982:7.22729e-06
T^d*daction^d*_id^index2:25030:7.22729e-06
J^d*Z^d*_id^index2:25075:7.22729e-06
L^d*w^d*_id^index2:25080:7.22729e-06
5^ff*9^ff*_id^index0:25130:0.00048373
G^d*i^g:25187:7.22729e-06
$^ff*2^ff*_id^index0:25190:0.00048373
Q^d*u^f*_id^index2:25204:7.22729e-06
W^d*o^d:25217:7.22729e-06
Action^d*baction^d*_id^index2:25255:7.22729e-06
_id^index1:25433:0.0102997
%^ff*7^ff*_id^index0:25466:0.00048373
baction^d*q^d*_id^index2:25559:7.22729e-06
I^g*u^f:25674:7.22729e-06
User^a:25739:-0.00636254
V^d*z^d*_id^index2:25747:0.00028729
M^d*e^d:25796:7.22729e-06
%^ff*9^ff:25832:0.00048373
H^d*M^d*_id^index2:25835:7.22729e-06
Caction^d*x^d:25978:7.22729e-06
r^d*z^d*_id^index2:26030:0.00028729
0^ff*8^ff:26334:0.00048373
s^d*w^d:26345:0.00028729
y^d*j*_id^index2:26463:0.00028729
N^d*u^f*_id^index2:26487:7.22729e-06
daction^d*p^d:26488:7.22729e-06
$^ff*0^ff*_id^index0:26773:0.00048373
F^d*F^d:26842:7.22729e-06
W^d*h^d*_id^index2:27082:7.22729e-06
Action^d*m^d*_id^index2:27087:7.22729e-06
Caction^d*o^d*_id^index2:27221:7.22729e-06
4^ff*User^b:27270:0.00048373
L^d*Q^d*_id^index2:27383:7.22729e-06
Ection^d*y^d:27574:7.22729e-06
Z^d*daction^d:27601:7.22729e-06
T^d*m^d*_id^index2:27723:7.22729e-06
f^d*z^d:27735:7.22729e-06
action^d*l^d:27767:7.22729e-06
M^d*x^d:27868:7.22729e-06
M^d*X^d*_id^index2:27970:7.22729e-06
Caction^d*e^d:28002:7.22729e-06
Y^d*u^f:28015:0.00028729
J^d*User^b:28110:7.22729e-06
Caction^d*M^d*_id^index2:28114:7.22729e-06
Q^d*T^d:28182:7.22729e-06
5^ff*9^ff:28200:0.00048373
O^d*baction^d*_id^index2:28220:7.22729e-06
P^d*n^d*_id^index2:28341:7.22729e-06
Q^d*l^d:28422:7.22729e-06
Daction^d*u^f:28666:7.22729e-06
Daction^d*Daction^d:28738:7.22729e-06
l^d*v^d*_id^index2:28852:7.22729e-06
H^d*o^d:28858:7.22729e-06
I^g*m^d*_id^index2:28891:7.22729e-06
r^d*u^f*_id^index2:28897:0.00028729
n^d*o^d*_id^index2:28900:7.22729e-06
e^d*i^g*_id^index2:29210:7.22729e-06
Q^d*q^d*_id^index2:29230:7.22729e-06
V^d*baction^d:29231:7.22729e-06
Caction^d*F^d:29270:7.22729e-06
V^d*j^d:29323:7.22729e-06
Action^fff*Action^fff*_id^index0:29418:-0.0308956
G^d*g^d:29518:7.22729e-06
O^d*f^d:29539:7.22729e-06
(^ff*User^b*_id^index0:29826:0.00048373
G^d*R^d:29863:7.22729e-06
e^d*v^d*_id^index2:29910:7.22729e-06
action^d*x^d*_id^index2:29973:7.22729e-06
j^d*u^f:30113:7.22729e-06
M^d*w^d*_id^index2:30147:7.22729e-06
p^d*q^d:30172:7.22729e-06
R^d*q^d*_id^index2:30222:7.22729e-06
P^d*action^d:30461:7.22729e-06
R^d*daction^d:30524:7.22729e-06
4^ff*8^ff*_id^index0:30665:0.00048373
F^d*e^d:30702:7.22729e-06
L^d*Z^d:30704:7.22729e-06
4^ff*_id^index0:30803:0.00048373
f^d*j:30842:7.22729e-06
&^ff*4^ff*_id^index0:31010:0.00048373
h^d*n^d*_id^index2:31329:7.22729e-06
daction^d*t^d*_id^index2:31387:7.22729e-06
&^ff*8^ff*_id^index0:31419:0.00048373
L^d*y^d*_id^index2:31534:7.22729e-06
j^d*q^d*_id^index2:31571:7.22729e-06
r^d*u^f:31589:0.00028729
!^ff*3^ff*_id^index0:31800:0.00048373
l^d*p^d*_id^index2:31952:7.22729e-06
%^ff*5^ff*_id^index0:32042:0.00048373
daction^d:32083:7.22729e-06
caction^d*m^d:32173:7.22729e-06
Daction^d*f^d*_id^index2:32288:7.22729e-06
User^c*Z^d:32333:0.000285482
baction^d*m^d:32384:7.22729e-06
O^d*Q^d:32423:7.22729e-06
Baction^d*q^d*_id^index2:32457:7.22729e-06
N^d*v^d:32503:7.22729e-06
Slot^i*Slot^i:32658:0.0102997
!^ff*$^ff*_id^index0:32690:0.00048373
User^b*n^d*_id^index2:32703:7.22729e-06
Z^d*o^d*_id^index2:32748:7.22729e-06
F^d*x^d:32758:7.22729e-06
H^d*P^d*_id^index2:32855:7.22729e-06
Caction^d*o^d:32873:7.22729e-06
7^ff*_id^index0:33022:0.00048373
J^d*g^d*_id^index2:33041:7.22729e-06
R^d*t^d*_id^index2:33101:0.00028729
Q^d*R^d*_id^index2:33168:7.22729e-06
Z^d*caction^d:33241:7.22729e-06
m^d*s^d:33275:7.22729e-06
f^d*y^d*_id^index2:33297:7.22729e-06
O^d*W^d*_id^index2:33329:7.22729e-06
n^d*j:33379:7.22729e-06
R^d*v^d:33514:0.00028729
H^d*g^d*_id^index2:33624:7.22729e-06
G^d*O^d*_id^index2:33890:7.22729e-06
j^d*j^d*_id^index2:33950:7.22729e-06
I^g*W^d*_id^index2:34138:7.22729e-06
I^g*h^d:34162:7.22729e-06
O^d*daction^d*_id^index2:34413:7.22729e-06
I^g*_id^index2:34485:7.22729e-06
f^d*p^d*_id^index2:34504:7.22729e-06
1^ff*3^ff*_id^index0:34643:0.00048373
P^d*s^d:34696:7.22729e-06
W^d*x^d:34706:0.00028729
v^d:34949:0.00028729
s^d*v^d*_id^index2:34982:0.00028729
V^d*l^d*_id^index2:35000:7.22729e-06
User^b*j:35132:7.22729e-06
Ection^d*p^d*_id^index2:35133:7.22729e-06
Q^d*l^d*_id^index2:35180:7.22729e-06
I^g*L^d*_id^index2:35189:7.22729e-06
M^d*o^d:35279:7.22729e-06
Action^d*J^d:35284:7.22729e-06
&^ff*1^ff:35323:0.00048373
w^d*y^d:35354:0.00028729
m^d*j*_id^index2:35481:7.22729e-06
P^d*r^d*_id^index2:35487:7.22729e-06
N^d*daction^d:35617:7.22729e-06
Ection^d*n^d:35742:7.22729e-06
J^d*L^d*_id^index2:35887:7.22729e-06
Y^d*h^d:35927:7.22729e-06
Daction^d*_id^index2:36101:7.22729e-06
t^d*w^d*_id^index2:36404:0.00028729
Daction^d*h^d:36546:7.22729e-06
Baction^d*v^d*_id^index2:36683:7.22729e-06
W^d*e^d:36746:7.22729e-06
Y^d*_id^index2:36752:0.00028729
q^d*x^d*_id^index2:36848:7.22729e-06
M^d*T^d*_id^index2:36936:7.22729e-06
I^g*s^d*_id^index2:37026:7.22729e-06
4^ff*9^ff*_id^index0:37117:0.00048373
N^d*P^d*_id^index2:37235:7.22729e-06
action^d*e^d*_id^index2:37309:7.22729e-06
7^ff*User^b:37419:0.00048373
N^d*t^d*_id^index2:37834:7.22729e-06
F^d*H^d*_id^index2:37871:7.22729e-06
)^ff*1^ff:37883:0.00048373
l^d*s^d:37908:7.22729e-06
Q^d*p^d*_id^index2:37924:7.22729e-06
L^d*T^d*_id^index2:37971:7.22729e-06
T^d*User^c:37986:0.000285482
R^d*Z^d*_id^index2:38021:0.00028729
o^d*p^d:38045:7.22729e-06
Y^d*baction^d*_id^index2:38208:7.22729e-06
X^d*f^d:38268:7.22729e-06
H^d*x^d:38313:7.22729e-06
e^d*n^d*_id^index2:38471:7.22729e-06
n^d*z^d:38478:7.22729e-06
(^ff*5^ff*_id^index0:38571:0.00048373
Baction^d*P^d*_id^index2:38643:7.22729e-06
R^d*s^d*_id^index2:38702:0.00028729
M^d*User^b*_id^index2:38714:7.22729e-06
caction^d:38747:7.22729e-06
j^d*_id^index2:38750:7.22729e-06
Baction^d*User^b:38901:7.22729e-06
V^d*W^d*_id^index2:38970:0.00028729
L^d*q^d:39321:7.22729e-06
r^d*_id^index2:39322:0.00028729
8^ff:39384:0.00048373
Ection^d*Ection^d*_id^index2:39646:7.22729e-06
F^d*o^d:39653:7.22729e-06
J^d*j^d:39689:7.22729e-06
Q^d*s^d*_id^index2:39694:7.22729e-06
J^d*h^d*_id^index2:39726:7.22729e-06
u^f*w^d:39735:0.00028729
3^ff*9^ff*_id^index0:39789:0.00048373
User^b*X^d:39802:7.22729e-06
n^d*t^d*_id^index2:39810:7.22729e-06
G^d*w^d:39830:7.22729e-06
J^d*baction^d:39853:7.22729e-06
Q^d*y^d*_id^index2:39877:7.22729e-06
Ection^d*r^d:39948:7.22729e-06
User^c*Z^d*_id^index2:39977:0.000285482
e^d*z^d*_id^index2:40117:7.22729e-06
action^d*o^d*_id^index2:40144:7.22729e-06
Z^d*baction^d*_id^index2:40204:7.22729e-06
User^b*z^d:40209:7.22729e-06
R^d*caction^d:40244:7.22729e-06
User^b*W^d:40322:7.22729e-06
R^d*R^d*_id^index2:40368:0.00028729
H^d*e^d:40369:7.22729e-06
Z^d*v^d:40455:0.00028729
g^d*q^d:40587:7.22729e-06
User^b*Y^d:40703:7.22729e-06
User^c*x^d*_id^index2:40858:0.000285482
!^ff:40935:0.00048373
u^f*x^d:40996:0.00028729
G^d*x^d:41093:7.22729e-06
2^ff*User^b:41118:0.00048373
baction^d*n^d:41234:7.22729e-06
Baction^d*p^d:41251:7.22729e-06
daction^d*y^d*_id^index2:41331:7.22729e-06
caction^d*n^d:41535:7.22729e-06
M^d*t^d*_id^index2:41569:7.22729e-06
J^d*o^d*_id^index2:41641:7.22729e-06
f^d*n^d*_id^index2:41753:7.22729e-06
Baction^d*I^g*_id^index2:41919:7.22729e-06
T^d*l^d:42066:7.22729e-06
J^d*Q^d*_id^index2:42122:7.22729e-06
User^c*t^d:42197:0.000285482
!^ff*&^ff*_id^index0:42230:0.00048373
T^d*T^d:42306:0.00028729
5^ff*8^ff*_id^index0:42398:0.000484261
v^d*_id^index2:42561:0.00028729
z^d*_id^index2:42594:0.00028729
V^d*i^g*_id^index2:42704:7.22729e-06
f^d*o^d*_id^index2:42715:7.22729e-06
Daction^d*M^d*_id^index2:42728:7.22729e-06
M^d*q^d*_id^index2:42850:7.22729e-06
daction^d*j^d:42857:7.22729e-06
Caction^d*i^g:42908:7.22729e-06
Baction^d*g^d*_id^index2:43124:7.22729e-06
G^d*e^d:43165:7.22729e-06
(^ff*_id^index0:43173:0.00048373
P^d*Slot^h*_id^index0:43304:7.22729e-06
Baction^d*H^d*_id^index2:43382:7.22729e-06
Daction^d*R^d*_id^index2:43636:7.22729e-06
g^d*t^d:43642:7.22729e-06
f^d*v^d:43718:7.22729e-06
F^d*R^d:43988:7.22729e-06
F^d*g^d:44093:7.22729e-06
Caction^d*T^d*_id^index2:44098:7.22729e-06
N^d*j:44107:7.22729e-06
G^d*l^d*_id^index2:44127:7.22729e-06
i^g*o^d*_id^index2:44347:7.22729e-06
L^d*t^d:44392:7.22729e-06
I^g*daction^d*_id^index2:44406:7.22729e-06
M^d*i^g:44602:7.22729e-06
User^b*daction^d:44630:7.22729e-06
M^d*m^d*_id^index2:44667:7.22729e-06
H^d*w^d:44730:7.22729e-06
G^d*i^g*_id^index2:44743:7.22729e-06
daction^d*p^d*_id^index2:44790:7.22729e-06
H^d:44810:7.22729e-06
M^d*action^d*_id^index2:45005:7.22729e-06
User^b*_id^index1:45148:0.00504854
R^d*j^d*_id^index2:45155:7.22729e-06
T^d*z^d*_id^index2:45315:0.00028729
Action^d*i^g*_id^index2:45372:7.22729e-06
Caction^d*R^d:45400:7.22729e-06
User^b*o^d*_id^index2:45453:7.22729e-06
Slot^i*Slot^i*_id^index1:45455:0.0102997
X^d*u^f:45580:0.00028729
2^ff*_id^index0:45643:0.00048373
V^d*p^d:45722:7.22729e-06
baction^d*e^d*_id^index2:45767:7.22729e-06
action^d*baction^d*_id^index2:45872:7.22729e-06
3^ff*User^b*_id^index0:46000:0.00048373
h^d*m^d*_id^index2:46155:7.22729e-06
R^d*i^g*_id^index2:46244:7.22729e-06
7^ff*9^ff*_id^index0:46298:0.00048373
t^d*v^d*_id^index2:46371:0.00028729
O^d*h^d:46379:7.22729e-06
$^ff*)^ff:46390:0.00048373
h^d*h^d:46402:7.22729e-06
Slot^i*User^b:46490:0.00504854
caction^d*r^d:46509:7.22729e-06
X^d*h^d*_id^index2:46530:7.22729e-06
l^d*l^d*_id^index2:46616:7.22729e-06
baction^d*r^d:46720:7.22729e-06
h^d*_id^index2:46725:7.22729e-06
Caction^d*g^d:46769:7.22729e-06
O^d*_id^index2:46828:7.22729e-06
User^c*User^c*_id^index0:46836:-0.0364944
Caction^d*X^d*_id^index2:46920:7.22729e-06
V^d*V^d*_id^index2:47000:0.00028729
N^d*z^d:47206:7.22729e-06
J^d*f^d*_id^index2:47254:7.22729e-06
)^ff*8^ff*_id^index0:47291:0.00048373
N^d*W^d:47349:7.22729e-06
M^d*R^d:47358:7.22729e-06
h^d*z^d*_id^index2:47363:7.22729e-06
P^d*X^d*_id^index2:47366:7.22729e-06
(^ff*User^b:47728:0.00048373
i^g*x^d*_id^index2:47746:7.22729e-06
X^d*s^d*_id^index2:47816:0.00028729
User^b*s^d*_id^index2:47888:7.22729e-06
Caction^d*daction^d*_id^index2:48004:7.22729e-06
N^d*Y^d:48008:7.22729e-06
0^ff*5^ff:48178:0.00048373
W^d*w^d:48257:0.00028729
F^d*i^g:48400:7.22729e-06
!^ff*8^ff*_id^index0:48405:0.00048373
o^d*v^d*_id^index2:48501:7.22729e-06
N^d*X^d:48653:7.22729e-06
q^d*s^d:48754:7.22729e-06
M^d*g^d:48919:7.22729e-06
)^ff*4^ff*_id^index0:48930:0.00048373
e^d*l^d:48980:7.22729e-06
Ection^d*u^f:49153:7.22729e-06
5^ff*_id^index0:49166:0.00048373
Q^d*g^d:49171:7.22729e-06
O^d*m^d:49182:7.22729e-06
n^d*s^d*_id^index2:49185:7.22729e-06
i^g*o^d:49255:7.22729e-06
h^d*m^d:49271:7.22729e-06
(^ff*3^ff*_id^index0:49382:0.00048373
Action^d*o^d:49507:7.22729e-06
2^ff*2^ff*_id^index0:49564:0.00048373
V^d*action^d:49729:7.22729e-06
w^d*_id^index2:50002:0.00028729
action^d*g^d:50018:7.22729e-06
e^d*x^d:50058:7.22729e-06
8^ff*8^ff*_id^index0:50082:0.00048373
f^d*z^d*_id^index2:50155:7.22729e-06
User^c*W^d*_id^index2:50218:0.000285482
Daction^d*y^d:50253:7.22729e-06
$^ff*Slot^h:50422:0.00048373
5^ff*Slot^h*_id^index0:50429:0.00048373
W^d*m^d*_id^index2:50517:7.22729e-06
J^d*M^d*_id^index2:50558:7.22729e-06
Baction^d*Caction^d:50701:7.22729e-06
Caction^d*v^d*_id^index2:50726:7.22729e-06
P^d*j^d:50743:7.22729e-06
Baction^d*action^d*_id^index2:50806:7.22729e-06
P^d*baction^d:50835:7.22729e-06
G^d*N^d:50836:7.22729e-06
Y^d*action^d*_id^index2:50898:7.22729e-06
Y^d*y^d:50904:0.00028729
q^d:50911:7.22729e-06
3^ff*8^ff:51081:0.00048373
Q^d*R^d:51194:7.22729e-06
L^d*caction^d:51229:7.22729e-06
6^ff*7^ff*_id^index0:51270:0.00048373
M^d*daction^d*_id^index2:51286:7.22729e-06
Caction^d*J^d:51422:7.22729e-06
%^ff*_id^index0:51918:0.00048373
Action^d*action^d*_id^index2:52105:7.22729e-06
e^d*e^d:52114:7.22729e-06
R^d*q^d:52400:7.22729e-06
M^d*P^d*_id^index2:52524:7.22729e-06
User^c*Y^d*_id^index2:52621:0.000285482
Action^d*u^f*_id^index2:52716:7.22729e-06
baction^d*f^d:52733:7.22729e-06
X^d*p^d*_id^index2:52842:7.22729e-06
P^d*u^f*_id^index2:52924:7.22729e-06
caction^d*f^d:52944:7.22729e-06
I^g*y^d:53245:7.22729e-06
!^ff*2^ff:53254:0.00048373
Z^d*q^d:53341:7.22729e-06
f^d*t^d:53357:7.22729e-06
T^d*e^d:53396:7.22729e-06
g^d*v^d:53457:7.22729e-06
r^d*y^d:53458:0.00028729
Q^d*i^g:53566:7.22729e-06
Caction^d*G^d*_id^index2:53583:7.22729e-06
Baction^d*action^d:53752:7.22729e-06
Baction^d*Q^d*_id^index2:53755:7.22729e-06
action^d*i^g:53839:7.22729e-06
F^d*J^d:53842:7.22729e-06
p^d*u^f*_id^index2:53976:7.22729e-06
5^ff*User^b:53979:0.00048373
X^d*g^d*_id^index2:54077:7.22729e-06
W^d*f^d*_id^index2:54370:7.22729e-06
Ection^d*User^b*_id^index2:54715:7.22729e-06
Ection^d*z^d*_id^index2:54786:7.22729e-06
N^d*f^d*_id^index2:54855:7.22729e-06
4^ff*9^ff:54901:0.00048373
p^d*t^d*_id^index2:54985:7.22729e-06
i^g*r^d*_id^index2:55043:7.22729e-06
L^d*v^d:55235:7.22729e-06
%^ff*User^b:55323:0.00048373
T^d*x^d:55436:0.00028729
J^d*s^d:55990:7.22729e-06
User^b*User^b*_id^index2:56120:7.22729e-06
G^d*action^d*_id^index2:56150:7.22729e-06
User^b*p^d*_id^index2:56226:7.22729e-06
Caction^d*Z^d*_id^index2:56287:7.22729e-06
J^d*J^d*_id^index2:56336:7.22729e-06
G^d*l^d:56411:7.22729e-06
e^d*y^d*_id^index2:56463:7.22729e-06
e^d*p^d*_id^index2:56506:7.22729e-06
I^g*N^d*_id^index2:56649:7.22729e-06
G^d*T^d:56651:7.22729e-06
j^d*y^d:56854:7.22729e-06
F^d*u^f*_id^index2:56862:7.22729e-06
User^c*v^d:56958:0.000285482
N^d*Z^d:57028:7.22729e-06
h^d*y^d*_id^index2:57513:7.22729e-06
Action^fff*User^c*_id^index0:57653:-0.0364944
baction^d*y^d*_id^index2:57680:7.22729e-06
N^d*Z^d*_id^index2:57746:7.22729e-06
j^d*m^d:57772:7.22729e-06
Daction^d*action^d*_id^index2:57821:7.22729e-06
T^d*l^d*_id^index2:57864:7.22729e-06
T^d*w^d:58271:0.00028729
Baction^d*G^d*_id^index2:58338:7.22729e-06
X^d*r^d*_id^index2:58509:0.00028729
f^d*q^d:58524:7.22729e-06
!^ff*(^ff*_id^index0:58538:0.00048373
Z^d*t^d:58540:0.00028729
0^ff*8^ff*_id^index0:58792:0.00048373
Baction^d*P^d:59007:7.22729e-06
m^d*p^d*_id^index1:59030:7.22729e-06
daction^d*s^d:59094:7.22729e-06
Ection^d*f^d:59249:7.22729e-06
i^g*i^g:59282:7.22729e-06
J^d*O^d:59471:7.22729e-06
)^ff*4^ff:59472:0.00048373
H^d*T^d:59495:7.22729e-06
G^d*z^d*_id^index2:59628:7.22729e-06
j^d*z^d*_id^index2:59682:7.22729e-06
p^d*j:59706:7.22729e-06
G^d*caction^d*_id^index2:59765:7.22729e-06
H^d*l^d:59767:7.22729e-06
caction^d*u^f:59808:7.22729e-06
4^ff*Slot^h:59944:0.00048373
baction^d*u^f:60045:7.22729e-06
Ection^d*Q^d:60085:7.22729e-06
Baction^d*u^f*_id^index2:60663:7.22729e-06
baction^d*w^d*_id^index2:60838:7.22729e-06
X^d*r^d:60929:0.00028729
L^d*f^d*_id^index2:61035:7.22729e-06
i^g*y^d*_id^index2:61041:7.22729e-06
0^ff*7^ff*_id^index0:61140:0.00048373
v^d*y^d:61193:0.00028729
)^ff*3^ff:61248:0.00048373
M^d*e^d*_id^index2:61330:7.22729e-06
I^g*m^d:61511:7.22729e-06
action^d*l^d*_id^index2:61515:7.22729e-06
Action^d*R^d:61522:7.22729e-06
q^d*q^d*_id^index2:61576:7.22729e-06
H^d*W^d*_id^index2:61605:7.22729e-06
Action^d*z^d*_id^index2:61719:7.22729e-06
t^d:61998:0.00028729
&^ff*4^ff:62032:0.00048373
W^d*j^d*_id^index2:62337:7.22729e-06
H^d*N^d:62392:7.22729e-06
I^g*M^d:62530:7.22729e-06
H^d*X^d*_id^index2:62669:1.02196e-05
&^ff*3^ff:62784:0.00048373
Baction^d*L^d*_id^index2:62894:7.22729e-06
action^d*o^d:62906:7.22729e-06
Baction^d*l^d*_id^index2:62975:7.22729e-06
Ection^d*action^d*_id^index2:63040:7.22729e-06
Q^d*o^d:63179:7.22729e-06
Action^d*g^d:63419:7.22729e-06
1^ff*8^ff:63432:0.00048373
R^d*t^d:63553:0.00028729
e^d*w^d:63641:7.22729e-06
J^d*V^d:63648:7.22729e-06
$^ff*9^ff:63659:0.00048373
$^ff*8^ff*_id^index0:63831:0.00048373
Y^d*m^d:63842:7.22729e-06
X^d*n^d:63891:7.22729e-06
H^d*j*_id^index2:63899:7.22729e-06
(^ff:64013:0.00048373
W^d*l^d:64332:7.22729e-06
P^d*h^d*_id^index2:64372:7.22729e-06
User^b*Z^d:64435:7.22729e-06
Daction^d*m^d:64503:7.22729e-06
W^d*j*_id^index2:64746:0.00028729
p^d*z^d:64791:7.22729e-06
$^ff*4^ff*_id^index0:64990:0.00048373
T^d*p^d*_id^index2:65120:7.22729e-06
0^ff*0^ff:65444:0.000484261
h^d*y^d:65485:7.22729e-06
Daction^d*M^d:65522:7.22729e-06
n^d*v^d*_id^index2:65555:7.22729e-06
P^d*Z^d:65601:7.22729e-06
Action^d*M^d:65678:7.22729e-06
Action^d*t^d*_id^index2:65781:7.22729e-06
L^d*action^d:65868:7.22729e-06
G^d*f^d*_id^index2:66215:7.22729e-06
&^ff*2^ff:66280:0.00048373
I^g*n^d*_id^index2:66385:7.22729e-06
I^g*g^d:66423:7.22729e-06
0^ff*6^ff*_id^index0:66424:0.00048373
T^d*r^d*_id^index2:66635:0.00028729
Action^d*m^d:66699:7.22729e-06
I^g*R^d:66718:1.02196e-05
M^d*u^f*_id^index2:66816:7.22729e-06
i^g*m^d:66959:7.22729e-06
h^d*o^d:66975:7.22729e-06
O^d*o^d:67062:7.22729e-06
H^d*f^d:67119:7.22729e-06
X^d*x^d:67322:0.00028729
Daction^d*e^d*_id^index2:67426:7.22729e-06
Baction^d*v^d:67447:7.22729e-06
R^d*T^d*_id^index2:67484:0.00028729
daction^d*z^d:67517:7.22729e-06
Ection^d*l^d:67625:7.22729e-06
Baction^d*J^d*_id^index2:67661:7.22729e-06
J^d*daction^d:67738:7.22729e-06
Daction^d*g^d:67783:7.22729e-06
Caction^d*caction^d*_id^index2:67868:7.22729e-06
Ection^d*T^d:67897:7.22729e-06
X^d*l^d*_id^index2:68018:7.22729e-06
Y^d*g^d:68178:7.22729e-06
_id^index0:68306:-0.0310355
L^d*z^d*_id^index2:68360:7.22729e-06
V^d*caction^d:68368:7.22729e-06
Q^d*Z^d*_id^index2:68453:7.22729e-06
H^d*Q^d:68587:7.22729e-06
s^d*_id^index2:68595:0.00028729
f^d*p^d:68754:7.22729e-06
Q^d*y^d:68761:7.22729e-06
F^d*I^g*_id^index2:68774:7.22729e-06
Action^d*O^d*_id^index2:68909:7.22729e-06
N^d*n^d*_id^index2:69114:7.22729e-06
u^f*v^d*_id^index2:69276:0.00028729
F^d*t^d*_id^index2:69315:7.22729e-06
j^d*m^d*_id^index2:69338:7.22729e-06
User^b*z^d*_id^index2:69341:7.22729e-06
X^d*e^d:69346:7.22729e-06
F^d*y^d*_id^index2:69387:7.22729e-06
M^d*z^d*_id^index2:69395:7.22729e-06
User^c*z^d*_id^index2:69411:0.000285482
Daction^d*R^d:69422:7.22729e-06
action^d*y^d:69608:7.22729e-06
Action^e*j*_id^index2:69868:-0.0224039
p^d*r^d*_id^index2:69923:7.22729e-06
M^d*x^d*_id^index2:69962:7.22729e-06
I^g*i^g:70234:7.22729e-06
R^d*User^b:70248:7.22729e-06
Ection^d*N^d:70374:7.22729e-06
5^ff*5^ff*_id^index0:70378:0.00048373
daction^d*j:70544:7.22729e-06
7^ff*8^ff:70644:0.00048373
W^d*f^d:70676:7.22729e-06
G^d*u^f:70771:7.22729e-06
V^d*v^d:70862:0.00028729
u^f*u^f:70866:0.00028729
j^d*x^d*_id^index2:70891:7.22729e-06
Daction^d*W^d*_id^index2:71306:7.22729e-06
Action^d*Z^d*_id^index2:71453:7.22729e-06
1^ff*7^ff*_id^index0:71566:0.00048373
e^d*w^d*_id^index2:71621:7.22729e-06
User^b:71687:0.00225402
N^d*baction^d:71702:7.22729e-06
Baction^d*caction^d:71849:7.22729e-06
N^d*j^d:71858:7.22729e-06
)^ff*2^ff:71912:0.00048373
User^a*User^a*_id^index0:72060:0.0151324
Daction^d*i^g:72170:7.22729e-06
baction^d*t^d*_id^index2:72184:7.22729e-06
n^d*u^f*_id^index2:72319:7.22729e-06
Action^fff*Action^fff*_id^index1:72545:0.00504854
Y^d*i^g:72575:7.22729e-06
p^d*s^d:72828:7.22729e-06
X^d*f^d*_id^index2:73002:7.22729e-06
caction^d*s^d*_id^index2:73092:7.22729e-06
Action^d*v^d*_id^index2:73176:7.22729e-06
P^d*action^d*_id^index2:73561:7.22729e-06
$^ff*5^ff:73579:0.00048373
!^ff*4^ff:73918:0.00048373
Baction^d*H^d:73976:7.22729e-06
O^d*Z^d*_id^index2:74002:7.22729e-06
i^g*p^d*_id^index2:74024:7.22729e-06
2^ff*8^ff:74049:0.00048373
Daction^d*Z^d*_id^index2:74057:7.22729e-06
H^d*u^f:74079:7.22729e-06
caction^d*l^d:74120:7.22729e-06
O^d*i^g:74243:7.22729e-06
h^d*i^g:74346:7.22729e-06
baction^d*l^d:74405:7.22729e-06
j^d*o^d:74820:7.22729e-06
I^g*y^d*_id^index2:74841:7.22729e-06
Ection^d*j^d*_id^index2:74878:7.22729e-06
W^d*X^d*_id^index2:74896:0.00028729
R^d*p^d:74942:7.22729e-06
&^ff*7^ff*_id^index0:74991:0.00048373
Caction^d*y^d*_id^index2:75263:7.22729e-06
caction^d*n^d*_id^index2:75315:7.22729e-06
Y^d*v^d*_id^index2:75343:0.00028729
2^ff*4^ff*_id^index0:75380:0.00048373
Action^d*W^d*_id^index2:75454:7.22729e-06
5^ff*6^ff*_id^index0:75534:0.00048373
!^ff*3^ff:75694:0.00048373
T^d*n^d:75749:7.22729e-06
G^d*j*_id^index2:76079:7.22729e-06
P^d*Z^d*_id^index2:76109:7.22729e-06
J^d*p^d*_id^index2:76246:7.22729e-06
F^d*_id^index2:76287:7.22729e-06
F^d*h^d:76344:7.22729e-06
V^d*j*_id^index2:76392:0.00028729
j^d*j*_id^index2:76645:7.22729e-06
e^d*r^d:76657:7.22729e-06
F^d*s^d*_id^index2:76964:7.22729e-06
J^d*V^d*_id^index2:77054:7.22729e-06
daction^d*s^d*_id^index2:77308:7.22729e-06
e^d*r^d*_id^index2:77309:7.22729e-06
p^d:77521:7.22729e-06
Ection^d*s^d*_id^index2:77651:7.22729e-06
J^d*j:77808:7.22729e-06
Q^d*T^d*_id^index1:77819:7.22729e-06
h^d*r^d*_id^index1:77836:7.22729e-06
action^d*m^d:77906:7.22729e-06
T^d*r^d:77943:0.00028729
Caction^d*h^d:78004:7.22729e-06
F^d*T^d*_id^index2:78134:7.22729e-06
4^ff*5^ff:78261:0.00048373
J^d*L^d:78507:7.22729e-06
3^ff*Slot^h*_id^index0:78522:0.00048373
o^d*v^d:78537:7.22729e-06
G^d*f^d:78595:7.22729e-06
Q^d*m^d:78627:7.22729e-06
O^d*g^d:78638:7.22729e-06
W^d*u^f:78692:0.00028729
Caction^d*_id^index2:78707:7.22729e-06
User^c*t^d*_id^index2:78929:0.000285482
O^d*R^d:79047:7.22729e-06
daction^d*daction^d:79098:7.22729e-06
I^g*o^d:79279:7.22729e-06
R^d*User^c*_id^index2:79420:0.000285482
L^d*P^d:79563:7.22729e-06
J^d*Y^d*_id^index2:79703:7.22729e-06
R^d*caction^d*_id^index2:79810:7.22729e-06
J^d*Y^d:79923:7.22729e-06
Z^d*p^d:79955:0.000484261
G^d*j^d*_id^index2:80136:7.22729e-06
M^d*h^d:80146:7.22729e-06
Daction^d*v^d*_id^index2:80292:7.22729e-06
%^ff*(^ff:80401:0.00048373
i^g*y^d:80437:7.22729e-06
action^d*q^d*_id^index2:80557:7.22729e-06
M^d*_id^index2:80597:7.22729e-06
N^d*w^d*_id^index2:80604:7.22729e-06
Action^d*y^d:80689:7.22729e-06
Z^d*z^d*_id^index2:80700:0.00028729
J^d*W^d:80718:7.22729e-06
baction^d*p^d*_id^index2:80793:7.22729e-06
(^ff*8^ff:80815:0.00048373
p^d*y^d*_id^index2:80849:7.22729e-06
J^d*z^d:80861:7.22729e-06
Y^d*o^d:81034:7.22729e-06
I^g*caction^d*_id^index2:81102:7.22729e-06
e^d*n^d:81123:7.22729e-06
Q^d*action^d*_id^index2:81153:7.22729e-06
User^b*baction^d:81249:7.22729e-06
J^d*X^d:81334:7.22729e-06
User^b*j^d:81349:7.22729e-06
X^d*w^d:81385:0.00028729
Daction^d*o^d:81439:7.22729e-06
H^d*z^d*_id^index2:81536:7.22729e-06
p^d*p^d*_id^index2:81544:7.22729e-06
G^d*Q^d:81607:7.22729e-06
Ection^d*O^d*_id^index2:81804:7.22729e-06
Caction^d*M^d:82308:7.22729e-06
H^d*w^d*_id^index2:82384:7.22729e-06
I^g*j^d*_id^index2:82543:7.22729e-06
s^d*y^d:82619:0.00028729
H^d*n^d*_id^index2:82782:7.22729e-06
Daction^d*baction^d*_id^index2:83187:7.22729e-06
%^ff*8^ff*_id^index0:83294:0.00048373
action^d*h^d:83303:7.22729e-06
Caction^d*m^d:83329:7.22729e-06
Q^d*_id^index2:83409:7.22729e-06
X^d*z^d*_id^index2:83429:0.00028729
Q^d*h^d:83478:7.22729e-06
3^ff*User^b:83542:0.00048373
M^d*r^d*_id^index2:83579:7.22729e-06
action^d*_id^index2:83616:7.22729e-06
L^d*User^b:83777:7.22729e-06
M^d*M^d:84002:7.22729e-06
o^d*t^d:84066:7.22729e-06
0^ff*5^ff*_id^index0:84068:0.00048373
G^d*r^d:84094:7.22729e-06
Z^d*action^d:84104:7.22729e-06
Baction^d*q^d:84269:7.22729e-06
g^d*z^d*_id^index2:84446:7.22729e-06
Caction^d:84479:7.22729e-06
Action^e*_id^index2:84641:-0.0224039
L^d*caction^d*_id^index2:84665:7.22729e-06
T^d*f^d:84746:7.22729e-06
q^d*j:84788:7.22729e-06
N^d*daction^d*_id^index2:84973:7.22729e-06
M^d*m^d:85031:7.22729e-06
J^d*y^d*_id^index2:85075:7.22729e-06
J^d*N^d*_id^index2:85187:7.22729e-06
User^b*f^d*_id^index2:85218:7.22729e-06
q^d*r^d*_id^index2:85293:7.22729e-06
m^d*z^d*_id^index2:85422:7.22729e-06
Ection^d*w^d:85988:7.22729e-06
e^d*f^d:86028:7.22729e-06
Baction^d*R^d*_id^index2:86107:7.22729e-06
Daction^d*daction^d*_id^index2:86342:7.22729e-06
Daction^d*P^d*_id^index2:86588:7.22729e-06
Action^d*Baction^d:86753:1.02196e-05
5^ff*8^ff:86788:0.00048373
n^d*p^d*_id^index2:86991:7.22729e-06
R^d*action^d:87141:7.22729e-06
o^d*q^d*_id^index2:87159:7.22729e-06
3^ff*_id^index0:87171:0.00048373
User^b*x^d*_id^index2:87368:7.22729e-06
caction^d*e^d:87374:7.22729e-06
Action^d*Ection^d*_id^index2:87387:7.22729e-06
P^d*daction^d:87460:7.22729e-06
baction^d*e^d:87651:7.22729e-06
User^b*i^g*_id^index2:87810:7.22729e-06
e^d*u^f*_id^index2:87850:7.22729e-06
daction^d*v^d*_id^index2:87898:7.22729e-06
F^d*J^d*_id^index2:88072:7.22729e-06
F^d*Z^d*_id^index0:88103:7.22729e-06
0^ff*4^ff*_id^index0:88181:0.00048373
(^ff*(^ff:88186:0.00048373
baction^d*baction^d*_id^index2:88198:7.22729e-06
N^d*s^d:88333:7.22729e-06
%^ff*8^ff:88516:0.00048373
V^d*q^d:88724:7.22729e-06
F^d*M^d:88840:7.22729e-06
!^ff*1^ff:88853:0.00048373
M^d*baction^d*_id^index2:88931:7.22729e-06
daction^d*r^d*_id^index2:88961:7.22729e-06
0^ff*9^ff:89074:0.00048373
P^d*P^d*_id^index2:89104:7.22729e-06
User^c*_id^index0:89129:-0.0364944
$^ff*0^ff:89341:0.00048373
action^d*i^g*_id^index2:89411:7.22729e-06
caction^d*x^d:89430:7.22729e-06
J^d*Z^d:89471:7.22729e-06
action^d*m^d*_id^index2:89608:7.22729e-06
action^d:89610:7.22729e-06
W^d*o^d*_id^index2:89613:7.22729e-06
User^b*V^d:89708:7.22729e-06
baction^d*x^d:89723:7.22729e-06
I^g*User^b*_id^index2:89818:7.22729e-06
F^d*m^d:89869:7.22729e-06
q^d*z^d:89881:7.22729e-06
Caction^d*Y^d*_id^index2:90027:7.22729e-06
G^d*n^d:90092:7.22729e-06
N^d*s^d*_id^index2:90217:7.22729e-06
P^d*X^d:90248:1.02196e-05
m^d*z^d:90256:7.22729e-06
F^d*y^d:90295:7.22729e-06
Action^d*j^d*_id^index2:90363:7.22729e-06
l^d*j:90450:7.22729e-06
N^d*X^d*_id^index2:90473:7.22729e-06
V^d*u^f*_id^index2:90496:0.00028729
daction^d*z^d*_id^index2:90521:7.22729e-06
Y^d*l^d*_id^index2:90587:7.22729e-06
Caction^d*R^d*_id^index2:90774:7.22729e-06
H^d*R^d*_id^index2:90831:7.22729e-06
Baction^d*Ection^d*_id^index2:90888:7.22729e-06
Ection^d*F^d:91099:7.22729e-06
L^d*User^b*_id^index2:91213:7.22729e-06
t^d*j:91219:0.00028729
1^ff*_id^index0:91330:0.00048373
P^d*Y^d:91405:7.22729e-06
baction^d*w^d:91496:7.22729e-06
Slot^i*User^c*_id^index1:91701:0.00631908
caction^d*w^d:91717:7.22729e-06
P^d*W^d:91760:7.22729e-06
N^d*W^d*_id^index2:91825:7.22729e-06
7^ff*7^ff*_id^index0:91850:0.00048373
P^d*z^d:91875:7.22729e-06
o^d*x^d*_id^index2:91999:7.22729e-06
0^ff*Slot^h:92079:0.00048373
Baction^d*n^d*_id^index2:92282:7.22729e-06
Action^d*V^d*_id^index2:92436:7.22729e-06
p^d*j*_id^index2:92496:7.22729e-06
Ection^d*Z^d*_id^index2:92540:7.22729e-06
P^d:92557:7.22729e-06
H^d*n^d:92864:7.22729e-06
F^d*g^d*_id^index2:92953:7.22729e-06
N^d*O^d:93172:7.22729e-06
T^d*u^f:93306:0.00028729
baction^d*m^d*_id^index2:93342:7.22729e-06
!^ff*%^ff*_id^index0:93521:0.00048373
action^d*caction^d*_id^index2:93537:7.22729e-06
O^d*O^d*_id^index2:93570:7.22729e-06
V^d*t^d:93797:0.00028729
n^d*w^d*_id^index2:93924:7.22729e-06
v^d*w^d*_id^index2:94047:0.00028729
W^d*r^d:94057:0.00028729
Ection^d*x^d*_id^index2:94155:7.22729e-06
T^d*V^d*_id^index2:94184:0.00028729
Action^fff*_id^index0:94198:-0.0308956
Y^d*g^d*_id^index2:94216:7.22729e-06
t^d*z^d:94334:0.00028729
L^d*p^d:94615:7.22729e-06
Action^d*h^d:94654:7.22729e-06
Q^d*x^d*_id^index2:94742:7.22729e-06
Action^d*_id^index2:94841:7.22729e-06
P^d*j:94926:7.22729e-06
Baction^d*s^d*_id^index2:94953:7.22729e-06
f^d*r^d*_id^index2:95075:7.22729e-06
i^g*_id^index2:95101:7.22729e-06
P^d*w^d*_id^index2:95127:7.22729e-06
M^d*y^d:95133:7.22729e-06
m^d*j:95421:7.22729e-06
Ection^d*x^d:95479:7.22729e-06
N^d*j*_id^index2:95503:7.22729e-06
X^d*Y^d*_id^index2:95531:0.00028729
l^d*z^d:95615:7.22729e-06
$^ff*$^ff:95706:0.00048373
1^ff*User^b:95767:0.00048373
g^d*p^d:95877:7.22729e-06
Daction^d*J^d:95912:7.22729e-06
n^d*s^d:96037:7.22729e-06
e^d*u^f:96124:7.22729e-06
H^d*Z^d*_id^index2:96134:7.22729e-06
$^ff*3^ff*_id^index0:96238:0.00048373
N^d*Y^d*_id^index2:96262:7.22729e-06
!^ff*Slot^h*_id^index0:96310:0.00048373
!^ff*%^ff:96337:0.00048373
M^d*R^d*_id^index2:96452:7.22729e-06
W^d*n^d:96507:7.22729e-06
Baction^d*User^b*_id^index2:96689:7.22729e-06
X^d*l^d:96804:7.22729e-06
Caction^d*y^d:96827:7.22729e-06
)^ff*7^ff*_id^index0:97007:0.00048373
N^d*V^d:97051:7.22729e-06
F^d*f^d*_id^index2:97102:7.22729e-06
User^b*s^d:97402:7.22729e-06
o^d*q^d:97427:7.22729e-06
Ection^d*e^d:97519:7.22729e-06
I^g*J^d:97560:7.22729e-06
Action^fff*User^b:97571:0.00504854
H^d*r^d:97618:7.22729e-06
f^d*g^d*_id^index2:97619:7.22729e-06
Baction^d*t^d:97756:7.22729e-06
G^d*u^f*_id^index2:97815:7.22729e-06
J^d*l^d*_id^index2:98078:7.22729e-06
$^ff*5^ff*_id^index0:98211:0.00048373
Q^d*f^d:98398:7.22729e-06
G^d*m^d:98430:7.22729e-06
F^d*n^d:98463:7.22729e-06
Caction^d*f^d*_id^index2:98730:7.22729e-06
Slot^i*User^b*_id^index1:98871:0.00504854
q^d*s^d*_id^index2:98920:7.22729e-06
R^d*z^d*_id^index2:99007:0.00028729
%^ff*5^ff:99112:0.00048373
action^d*f^d:99119:7.22729e-06
User^b*m^d*_id^index2:99285:7.22729e-06
M^d*r^d:99367:7.22729e-06
Daction^d*i^g*_id^index2:99392:7.22729e-06
G^d*M^d:99451:7.22729e-06
User^c*s^d*_id^index2:99794:0.000285482
caction^d*l^d*_id^index2:99846:7.22729e-06
Z^d*s^d*_id^index2:99929:0.00028729
I^g:99977:7.22729e-06
(^ff*1^ff*_id^index0:99991:0.00048373
Ection^d*n^d*_id^index2:100004:7.22729e-06
R^d*V^d:100102:0.00028729
J^d*t^d:100327:7.22729e-06
Baction^d*Ection^d:100690:7.22729e-06
Action^d:100701:7.22729e-06
Baction^d*Caction^d*_id^index2:100713:7.22729e-06
u^f*u^f*_id^index2:100744:0.00028729
5^ff*5^ff:100840:0.00048373
caction^d*u^f*_id^index2:100862:7.22729e-06
H^d*y^d:101096:7.22729e-06
Slot^h*User^c*_id^index0:101156:-0.0364944
L^d*N^d*_id^index2:101342:7.22729e-06
9^ff*User^b*_id^index0:101459:0.00048373
$^ff*$^ff*_id^index0:101628:0.00048373
User^b*action^d:101647:7.22729e-06
f^d*s^d:101692:7.22729e-06
T^d*h^d:101698:7.22729e-06
V^d:101737:0.00028729
Caction^d*r^d:101761:7.22729e-06
f^d*f^d*_id^index2:101768:7.22729e-06
Q^d*Q^d:101786:7.22729e-06
baction^d*g^d:101808:7.22729e-06
T^d*_id^index2:102021:0.00028729
caction^d*g^d:102045:7.22729e-06
)^ff*6^ff:102051:0.00048373
M^d*v^d*_id^index2:102100:7.22729e-06
i^g*m^d*_id^index2:102147:7.22729e-06
Action^d*Daction^d:102206:7.22729e-06
V^d*v^d*_id^index2:102228:0.00028729
daction^d*q^d:102262:7.22729e-06
Action^d*u^f:102534:7.22729e-06
Action^d*M^d*_id^index2:102548:7.22729e-06
i^g*u^f:102786:7.22729e-06
N^d*v^d*_id^index2:102859:7.22729e-06
Ection^d*o^d:102884:7.22729e-06
i^g*w^d*_id^index2:103227:7.22729e-06
M^d*n^d:103349:7.22729e-06
N^d*h^d*_id^index2:103471:7.22729e-06
daction^d*l^d*_id^index2:103486:7.22729e-06
Daction^d*X^d*_id^index2:103538:7.22729e-06
&^ff*6^ff:103587:0.00048373
w^d*x^d:103771:0.00028729
Baction^d*w^d*_id^index2:103772:7.22729e-06
e^d*_id^index2:103811:7.22729e-06
Caction^d*i^g*_id^index2:103818:7.22729e-06
X^d*X^d*_id^index2:103880:0.00028729
R^d*action^d*_id^index2:103905:7.22729e-06
4^ff*Slot^h*_id^index0:103978:0.00048373
e^d*h^d:104004:7.22729e-06
h^d*o^d*_id^index2:104019:7.22729e-06
F^d*r^d:104205:7.22729e-06
O^d*j*_id^index2:104335:7.22729e-06
Ection^d*l^d*_id^index2:104341:7.22729e-06
p^d*s^d*_id^index2:104490:7.22729e-06
caction^d*daction^d*_id^index2:104520:7.22729e-06
l^d*t^d*_id^index2:104577:7.22729e-06
Slot^h:104617:-0.0310355
W^d*y^d:104659:0.00028729
m^d*u^f*_id^index2:104673:7.22729e-06
F^d*o^d*_id^index2:104801:7.22729e-06
q^d*v^d:104840:7.22729e-06
Caction^d*n^d:104979:7.22729e-06
g^d*m^d*_id^index2:105398:7.22729e-06
O^d*l^d:105531:7.22729e-06
h^d*l^d:105554:7.22729e-06
X^d*m^d*_id^index2:105613:7.22729e-06
baction^d*i^g:105629:7.22729e-06
Daction^d*x^d*_id^index2:105722:7.22729e-06
User^a*i^g:105760:7.22729e-06
O^d*T^d:105771:7.22729e-06
W^d*Z^d*_id^index2:105815:0.00028729
O^d:105862:7.22729e-06
l^d*r^d*_id^index2:105883:7.22729e-06
n^d*n^d*_id^index2:105906:7.22729e-06
p^d*p^d:105938:7.22729e-06
g^d*j*_id^index2:106121:7.22729e-06
caction^d*i^g:106416:7.22729e-06
Daction^d*w^d*_id^index2:106451:7.22729e-06
N^d*P^d:106495:7.22729e-06
P^d*v^d:106610:7.22729e-06
V^d*x^d*_id^index2:106698:0.00028729
Ection^d*R^d:106709:7.22729e-06
(^ff*Slot^h*_id^index0:106920:0.00048373
P^d*m^d*_id^index2:107167:7.22729e-06
(^ff*0^ff:107221:0.00048373
X^d*j*_id^index2:107426:0.00028729
I^g*J^d*_id^index2:107478:7.22729e-06
action^d*u^f:107615:7.22729e-06
9^ff:107764:0.00048373
R^d*s^d:107792:0.00028729
Y^d*l^d:107847:7.22729e-06
V^d*Z^d*_id^index2:107865:0.00028729
m^d*v^d:108033:7.22729e-06
$^ff*(^ff:108114:0.00048373
h^d*p^d*_id^index2:108128:7.22729e-06
X^d*q^d*_id^index2:108200:7.22729e-06
Daction^d*T^d:108226:7.22729e-06
Q^d*u^f:108334:7.22729e-06
Ection^d*g^d:108348:7.22729e-06
Baction^d*Z^d:108356:7.22729e-06
Action^d*n^d*_id^index2:108357:7.22729e-06
W^d*m^d:108393:7.22729e-06
Daction^d*l^d:108498:7.22729e-06
N^d*action^d:108664:7.22729e-06
Z^d*g^d*_id^index2:108772:7.22729e-06
W^d*u^f*_id^index2:108914:0.00028729
r^d*w^d*_id^index2:109214:0.00028729
)^ff*3^ff*_id^index0:109330:0.00048373
Caction^d*baction^d*_id^index2:109365:7.22729e-06
N^d*T^d*_id^index2:109615:7.22729e-06
I^g*l^d:109666:7.22729e-06
Baction^d*G^d:109716:7.22729e-06
I^g*i^g*_id^index2:109744:7.22729e-06
I^g*T^d:109938:7.22729e-06
w^d*w^d:110152:0.00028729
f^d*q^d*_id^index2:110218:7.22729e-06
s^d:110463:0.00028729
R^d*X^d*_id^index2:110638:0.00028729
daction^d*o^d*_id^index2:110665:7.22729e-06
L^d*baction^d:110882:7.22729e-06
H^d*M^d:110935:7.22729e-06
caction^d*w^d*_id^index2:110977:7.22729e-06
L^d*j^d:110982:7.22729e-06
Caction^d*F^d*_id^index2:111228:7.22729e-06
J^d*q^d:111382:7.22729e-06
l^d*v^d:111598:7.22729e-06
L^d*u^f*_id^index2:111611:7.22729e-06
Action^d*s^d*_id^index2:111830:7.22729e-06
V^d*Z^d:111869:0.00028729
2^ff*9^ff*_id^index0:111941:0.00048373
H^d*m^d:111954:7.22729e-06
Z^d*t^d*_id^index2:112090:0.00028729
Ection^d*i^g:112145:7.22729e-06
y^d*_id^index2:112252:0.00028729
g^d*j^d:112276:7.22729e-06
R^d*User^b*_id^index2:112294:7.22729e-06
I^g*N^d:112301:7.22729e-06
t^d*v^d:112367:0.00028729
Action^fff*Slot^i:112427:0.00504854
Action^d*f^d:112630:7.22729e-06
caction^d*o^d:112709:7.22729e-06
Ection^d*P^d*_id^index2:112777:7.22729e-06
6^ff*6^ff:113104:0.00048373
l^d*z^d*_id^index2:113139:7.22729e-06
Z^d*s^d:113149:0.00028729
Action^d*Q^d:113202:7.22729e-06
baction^d*o^d:113512:7.22729e-06
daction^d*t^d:113543:7.22729e-06
l^d*o^d*_id^index2:113827:7.22729e-06
User^b*W^d*_id^index2:113848:7.22729e-06
Daction^d*N^d:113949:7.22729e-06
j^d*l^d:114057:7.22729e-06
L^d*W^d*_id^index2:114125:7.22729e-06
Y^d*q^d*_id^index2:114333:7.22729e-06
u^f*y^d:114533:0.00028729
s^d*x^d*_id^index2:114576:0.00028729
w^d*z^d*_id^index2:114582:0.00028729
P^d*caction^d:114604:7.22729e-06
G^d*y^d:114628:7.22729e-06
H^d*h^d:114791:7.22729e-06
%^ff*0^ff:114878:0.00048373
daction^d*v^d:114988:7.22729e-06
j^d*x^d:115031:7.22729e-06
R^d*V^d*_id^index2:115052:0.00028729
Baction^d*W^d:115061:7.22729e-06
Baction^d*j*_id^index2:115087:7.22729e-06
Baction^d*z^d:115174:7.22729e-06
Baction^d*Y^d:115208:7.22729e-06
e^d*h^d*_id^index2:115218:7.22729e-06
r^d*j*_id^index2:115353:0.00028729
G^d*M^d*_id^index2:115391:7.22729e-06
L^d*O^d:115392:7.22729e-06
H^d*_id^index2:115616:7.22729e-06
n^d*y^d*_id^index2:115706:7.22729e-06
L^d*R^d*_id^index2:115735:7.22729e-06
X^d*i^g:115740:7.22729e-06
Baction^d*W^d*_id^index2:115761:7.22729e-06
Q^d*V^d*_id^index2:116044:7.22729e-06
daction^d*j^d*_id^index2:116053:7.22729e-06
Constant:116060:-0.0467699
Baction^d*x^d*_id^index2:116065:7.22729e-06
$^ff*8^ff:116103:0.00048373
Baction^d*r^d*_id^index2:116260:7.22729e-06
V^d*j:116338:0.00028729
3^ff*Slot^h:116472:0.00048373
Baction^d*X^d:116621:7.22729e-06
H^d*u^f*_id^index2:116627:7.22729e-06
T^d*y^d:116685:0.00028729
Baction^d*L^d:116880:7.22729e-06
l^d*t^d:117061:7.22729e-06
H^d*l^d*_id^index2:117067:7.22729e-06
1^ff*9^ff:117476:0.00048373
M^d*n^d*_id^index2:117489:7.22729e-06
F^d*u^f:117504:7.22729e-06
User^b*User^b:117506:0.00225402
Daction^d*O^d*_id^index2:117561:7.22729e-06
v^d*w^d:117595:0.00028729
Daction^d*F^d:117792:7.22729e-06
t^d*t^d:117828:0.00028729
f^d*j^d:117891:7.22729e-06
P^d*t^d*_id^index2:117893:7.22729e-06
Action^d*r^d:117899:7.22729e-06
e^d*j*_id^index2:118066:7.22729e-06
I^g*o^d*_id^index2:118115:7.22729e-06
i^g*r^d:118159:7.22729e-06
User^a*j*_id^index2:118310:-0.0224039
Caction^d*Daction^d:118324:7.22729e-06
caction^d*g^d*_id^index2:118329:7.22729e-06
daction^d*w^d*_id^index2:118345:7.22729e-06
Action^d*H^d*_id^index2:118409:7.22729e-06
Slot^i*_id^index1:118468:0.0102997
Q^d*m^d*_id^index2:118535:7.22729e-06
r^d*x^d:118675:0.00028729
Y^d*w^d*_id^index2:118816:0.00028729
6^ff*8^ff*_id^index0:118898:0.00048373
User^b*baction^d*_id^index2:118957:7.22729e-06
I^g*x^d:118972:7.22729e-06
User^b*caction^d*_id^index2:119012:7.22729e-06
Y^d*e^d:119169:7.22729e-06
Caction^d*u^f:119180:7.22729e-06
W^d*_id^index2:119195:0.00028729
caction^d*q^d*_id^index2:119204:7.22729e-06
V^d*Y^d:119217:0.00028729
Slot^i:119311:0.0102997
L^d*V^d:119343:7.22729e-06
W^d*h^d:119388:7.22729e-06
V^d*z^d:119391:0.00028729
2^ff*User^b*_id^index0:119400:0.00048373
L^d*m^d*_id^index2:119424:7.22729e-06
V^d*W^d:119500:0.00028729
Daction^d*e^d:119572:7.22729e-06
Daction^d*j^d*_id^index2:119775:7.22729e-06
V^d*X^d:119860:0.00028729
V^d*y^d*_id^index2:119993:0.00028729
Caction^d*Daction^d*_id^index2:120002:7.22729e-06
w^d*j*_id^index2:120113:0.000288991
Q^d*n^d*_id^index2:120253:7.22729e-06
Baction^d*j:120267:7.22729e-06
H^d*x^d*_id^index2:120341:7.22729e-06
F^d*action^d*_id^index2:120559:7.22729e-06
Action^d*l^d*_id^index2:120564:7.22729e-06
h^d*j*_id^index2:120600:7.22729e-06
P^d*l^d*_id^index2:120708:7.22729e-06
W^d*l^d*_id^index2:120762:7.22729e-06
Caction^d*g^d*_id^index2:120765:7.22729e-06
q^d*q^d:120786:7.22729e-06
M^d*u^f:120874:7.22729e-06
N^d*p^d:120995:7.22729e-06
I^g*e^d:120996:7.22729e-06
I^g*x^d*_id^index2:121066:7.22729e-06
Ection^d*J^d:121171:7.22729e-06
Ection^d*I^g*_id^index2:121173:7.22729e-06
Y^d*x^d:121241:0.00028729
$^ff*(^ff*_id^index0:121284:0.00048373
User^b*_id^index0:121303:0.00048373
i^g*n^d:121373:7.22729e-06
P^d*t^d:121561:7.22729e-06
Daction^d*x^d:121612:7.22729e-06
Action^d*n^d:121625:7.22729e-06
W^d*p^d*_id^index2:121634:7.22729e-06
Ection^d*q^d*_id^index2:121651:7.22729e-06
W^d*y^d*_id^index2:121655:0.00028729
User^c*V^d:121746:0.000285482
h^d*w^d:121759:7.22729e-06
O^d*w^d:121846:7.22729e-06
action^d*g^d*_id^index2:121944:7.22729e-06
P^d*v^d*_id^index2:121960:7.22729e-06
m^d*t^d:122026:7.22729e-06
e^d*y^d:122059:7.22729e-06
e^d*s^d*_id^index2:122328:7.22729e-06
$^ff*7^ff*_id^index0:122355:0.00048373
O^d*g^d*_id^index2:122484:7.22729e-06
Y^d*Z^d*_id^index2:122678:0.00028729
User^c*User^c*_id^index1:122751:0.00631908
Q^d*User^b*_id^index2:122822:7.22729e-06
!^ff*7^ff:122881:0.00048373
Daction^d*w^d:122911:7.22729e-06
Q^d*e^d*_id^index2:122974:7.22729e-06
o^d*j:122997:7.22729e-06
h^d*x^d:123020:7.22729e-06
O^d*x^d:123109:7.22729e-06
V^d*daction^d:123160:7.22729e-06
(^ff*5^ff:123203:0.00048373
F^d*Q^d:123316:7.22729e-06
Z^d*w^d*_id^index2:123372:0.00028729
Y^d*w^d:123530:0.00028729
J^d*caction^d:123538:7.22729e-06
g^d*g^d*_id^index2:123654:7.22729e-06
O^d*p^d*_id^index2:123655:7.22729e-06
q^d*t^d:123683:1.02196e-05
Action^d*P^d*_id^index2:123712:7.22729e-06
e^d*m^d:123761:7.22729e-06
X^d*o^d:123881:7.22729e-06
R^d*baction^d:123915:7.22729e-06
Caction^d*h^d*_id^index2:123970:7.22729e-06
R^d*j^d:124079:7.22729e-06
J^d*caction^d*_id^index2:124104:7.22729e-06
H^d*N^d*_id^index2:124342:7.22729e-06
Z^d*p^d*_id^index2:124343:7.22729e-06
I^g*baction^d*_id^index2:124355:7.22729e-06
n^d*r^d*_id^index2:124572:7.22729e-06
g^d*o^d*_id^index2:124654:7.22729e-06
W^d*daction^d*_id^index2:124668:7.22729e-06
0^ff*User^b:124673:0.00048373
&^ff*User^b*_id^index0:124790:0.00048373
H^d*v^d*_id^index2:124927:7.22729e-06
m^d*q^d:125019:7.22729e-06
L^d*v^d*_id^index2:125159:7.22729e-06
O^d*e^d:125181:7.22729e-06
s^d*u^f:125196:0.00028729
2^ff*6^ff*_id^index0:125233:0.00048373
Action^e*Slot^i*_id^index1:125257:0.00631908
)^ff:125289:0.00048373
o^d*z^d*_id^index2:125334:7.22729e-06
R^d*x^d*_id^index2:125686:0.00028729
User^b*V^d*_id^index2:125722:7.22729e-06
4^ff*8^ff:125785:0.00048373
I^g*w^d:125871:7.22729e-06
F^d*f^d:126064:7.22729e-06
F^d*p^d*_id^index2:126094:7.22729e-06
Q^d*n^d:126129:7.22729e-06
1^ff*User^b*_id^index0:126183:0.00048373
W^d*v^d*_id^index2:126238:0.00028729
G^d*R^d*_id^index2:126459:7.22729e-06
P^d*q^d:126504:7.22729e-06
baction^d:126564:7.22729e-06
N^d*User^b:126581:7.22729e-06
j^d:126656:7.22729e-06
action^d*n^d:126912:7.22729e-06
Caction^d*x^d*_id^index2:126992:7.22729e-06
L^d*s^d:127033:7.22729e-06
v^d*x^d:127048:0.00028729
V^d*baction^d*_id^index2:127203:7.22729e-06
M^d*Q^d:127646:7.22729e-06
Baction^d*daction^d:127649:7.22729e-06
(^ff*4^ff*_id^index0:127702:0.00048373
g^d*x^d*_id^index2:127847:7.22729e-06
o^d*z^d:128088:7.22729e-06
r^d*w^d:128128:0.00028729
baction^d*x^d*_id^index2:128191:7.22729e-06
G^d*h^d:128331:7.22729e-06
P^d*j*_id^index2:128340:7.22729e-06
0^ff*_id^index0:128468:0.00048373
u^f*_id^index2:128557:0.00028729
&^ff*6^ff*_id^index0:128587:0.00048373
n^d*p^d:128651:7.22729e-06
G^d*_id^index2:128652:7.22729e-06
1^ff*Slot^h:128697:0.00048373
Caction^d*f^d:128764:7.22729e-06
X^d*i^g*_id^index2:128778:7.22729e-06
g^d*s^d:128811:7.22729e-06
Slot^h*Slot^h*_id^index0:128980:-0.0310355
Action^d*j*_id^index2:128996:7.22729e-06
1^ff*1^ff*_id^index0:129074:0.00048373
Z^d*j^d:129090:7.22729e-06
action^d*r^d:129106:7.22729e-06
T^d*m^d:129143:7.22729e-06
r^d*t^d*_id^index2:129152:0.00028729
Z^d*baction^d:129254:7.22729e-06
3^ff*7^ff*_id^index0:129405:0.00048373
User^c*s^d:129412:0.000285482
j^d*w^d:129604:7.22729e-06
3^ff*9^ff:129701:0.00048373
i^g*q^d*_id^index2:129770:7.22729e-06
Q^d*r^d:129827:7.22729e-06
Caction^d*Q^d:129848:7.22729e-06
6^ff*Slot^h*_id^index0:129937:0.00048373
2^ff*5^ff:129965:0.00048373
R^d*daction^d*_id^index2:130154:7.22729e-06
W^d*baction^d*_id^index2:130349:7.22729e-06
I^g*t^d*_id^index2:130369:7.22729e-06
J^d*v^d:130380:7.22729e-06
I^g*action^d*_id^index2:130413:7.22729e-06
Daction^d*Ection^d*_id^index2:130431:7.22729e-06
Action^fff*Slot^h:130445:-0.0308956
l^d*q^d:130484:7.22729e-06
User^b*p^d:130516:7.22729e-06
Baction^d*m^d*_id^index2:130596:7.22729e-06
M^d*O^d*_id^index2:130601:7.22729e-06
L^d*x^d*_id^index2:130717:7.22729e-06
(^ff*8^ff*_id^index0:130735:0.00048373
I^g*z^d*_id^index2:130739:7.22729e-06
)^ff*1^ff*_id^index0:130803:0.00048373
Z^d*f^d*_id^index2:130807:7.22729e-06
y^d*y^d:130868:0.00028729
M^d*f^d:130906:7.22729e-06
P^d*R^d*_id^index2:130936:7.22729e-06
!^ff*&^ff:131020:0.00048373
H^d*V^d:131543:7.22729e-06
Ection^d*m^d*_id^index2:131578:7.22729e-06
4^ff*6^ff*_id^index0:131993:0.00048373
J^d*s^d*_id^index2:131996:7.22729e-06
Ection^d*h^d*_id^index2:132005:7.22729e-06
v^d*y^d*_id^index2:132149:0.00028729
Daction^d*q^d:132292:7.22729e-06
u^f*y^d*_id^index2:132321:0.00028729
F^d*j^d*_id^index2:132333:7.22729e-06
1^ff*5^ff*_id^index0:132478:0.00048373
l^d*x^d*_id^index2:132650:7.22729e-06
Y^d*q^d:132689:7.22729e-06
&^ff*&^ff*_id^index0:132692:0.00048373
y^d:132694:0.00028729
daction^d*daction^d*_id^index1:132823:7.22729e-06
X^d*t^d*_id^index2:132839:0.00028729
3^ff*7^ff:132853:0.00048373
H^d*r^d*_id^index2:132872:7.22729e-06
Baction^d*e^d*_id^index2:132953:7.22729e-06
N^d*r^d:133022:7.22729e-06
X^d*u^f*_id^index2:133114:0.00028729
q^d*x^d:133146:7.22729e-06
F^d*v^d*_id^index2:133234:7.22729e-06
baction^d*z^d:133496:7.22729e-06
Daction^d*u^f*_id^index2:133520:7.22729e-06
H^d*I^g:133687:7.22729e-06
caction^d*z^d:133717:7.22729e-06
baction^d*f^d*_id^index2:133721:7.22729e-06
Y^d*u^f*_id^index2:133795:0.00028729
J^d*N^d:133839:7.22729e-06
P^d*w^d:133875:7.22729e-06
Y^d*caction^d*_id^index2:133969:7.22729e-06
h^d*t^d:134069:7.22729e-06
O^d*t^d:134108:7.22729e-06
R^d*y^d:134201:0.00028729
m^d*w^d:134272:7.22729e-06
J^d*i^g*_id^index2:134454:7.22729e-06
P^d*W^d*_id^index2:134478:7.22729e-06
action^d*h^d*_id^index2:134715:7.22729e-06
F^d*P^d:135020:7.22729e-06
I^g*q^d:135028:7.22729e-06
9^ff*9^ff*_id^index0:135146:0.00048373
J^d*l^d:135168:7.22729e-06
N^d*n^d:135180:7.22729e-06
L^d*_id^index2:135256:7.22729e-06
Ection^d*daction^d:135347:7.22729e-06
Z^d*y^d:135380:0.00028729
J^d*T^d:135440:1.02196e-05
H^d*O^d:135480:7.22729e-06
G^d*T^d*_id^index2:135695:7.22729e-06
Caction^d*l^d*_id^index2:135730:7.22729e-06
daction^d*u^f*_id^index2:135750:7.22729e-06
G^d*User^b*_id^index2:135825:7.22729e-06
i^g*p^d:135858:7.22729e-06
Q^d*User^b:135880:7.22729e-06
L^d*h^d:136095:7.22729e-06
Action^d*p^d:136118:7.22729e-06
g^d*h^d:136333:7.22729e-06
J^d*W^d*_id^index2:136404:7.22729e-06
Daction^d*User^b*_id^index2:136458:7.22729e-06
Caction^d*P^d:136672:7.22729e-06
I^g*Q^d*_id^index2:136900:7.22729e-06
R^d*g^d*_id^index2:136919:7.22729e-06
G^d*s^d:136941:7.22729e-06
O^d*u^f*_id^index2:136951:7.22729e-06
o^d*j*_id^index2:137009:7.22729e-06
g^d*_id^index2:137034:7.22729e-06
caction^d*v^d*_id^index2:137106:7.22729e-06
X^d*v^d*_id^index2:137126:0.00028729
T^d*e^d*_id^index2:137186:7.22729e-06
u^f*w^d*_id^index2:137355:0.00028729
l^d*w^d:137583:7.22729e-06
Daction^d*F^d*_id^index2:137598:7.22729e-06
User^c*_id^index2:137701:0.000285482
Ection^d*f^d*_id^index2:137725:7.22729e-06
)^ff*5^ff*_id^index0:137791:0.00048373
f^d*m^d:138159:7.22729e-06
M^d*P^d:138310:7.22729e-06
!^ff*9^ff:138321:0.00048373
t^d*w^d:138350:0.00028729
m^d*v^d*_id^index2:138381:7.22729e-06
0^ff*1^ff:138422:0.00048373
User^a*j:138472:-0.0224039
baction^d*j:138581:7.22729e-06
R^d*m^d*_id^index0:138731:7.22729e-06
daction^d*f^d*_id^index2:138806:7.22729e-06
caction^d*j:138872:7.22729e-06
j^d*q^d:138911:7.22729e-06
p^d*u^f:138978:7.22729e-06
V^d*j^d*_id^index2:139215:7.22729e-06
!^ff*Slot^h:139276:0.00048373
Ection^d*Y^d:139290:7.22729e-06
Caction^d*P^d*_id^index2:139454:7.22729e-06
action^d*v^d*_id^index2:139519:7.22729e-06
e^d*j^d*_id^index2:139641:7.22729e-06
Action^d*o^d*_id^index2:139719:7.22729e-06
User^a*User^a:139866:-0.00636254
Caction^d*action^d:139879:7.22729e-06
l^d*x^d:139900:7.22729e-06
User^b*r^d:140009:7.22729e-06
h^d*t^d*_id^index2:140017:7.22729e-06
Z^d*i^g*_id^index2:140055:7.22729e-06
Ection^d*W^d:140135:7.22729e-06
H^d*s^d:140225:7.22729e-06
Ection^d*z^d:140276:7.22729e-06
G^d*O^d:140308:7.22729e-06
f^d*y^d:140309:7.22729e-06
Q^d*p^d:140318:7.22729e-06
action^d*n^d*_id^index2:140382:7.22729e-06
r^d*t^d:140458:0.00028729
Caction^d*m^d*_id^index2:140557:7.22729e-06
V^d*caction^d*_id^index2:140590:7.22729e-06
Action^d*User^b:140640:7.22729e-06
Ection^d*X^d:140703:7.22729e-06
v^d*j*_id^index2:140940:0.00028729
action^d*p^d:141167:7.22729e-06
t^d*x^d:141181:0.00028729
Z^d*caction^d*_id^index2:141189:7.22729e-06
&^ff*5^ff:141695:0.00048373
n^d*r^d:141750:7.22729e-06
j^d*t^d:141934:7.22729e-06
Ection^d*L^d:141954:7.22729e-06
User^b*w^d*_id^index2:142221:7.22729e-06
M^d*action^d:142273:7.22729e-06
daction^d*l^d:142432:7.22729e-06
V^d*e^d*_id^index2:142610:7.22729e-06
O^d*o^d*_id^index2:142684:7.22729e-06
T^d*j^d:143195:7.22729e-06
Z^d*m^d:143214:7.22729e-06
daction^d*i^g*_id^index2:143254:7.22729e-06
I^g*Z^d*_id^index2:143289:7.22729e-06
$^ff*1^ff*_id^index0:143343:0.00048373
T^d*baction^d:143359:7.22729e-06
J^d*P^d*_id^index2:143378:7.22729e-06
x^d*_id^index2:143403:0.00028729
Daction^d*Y^d*_id^index2:143405:7.22729e-06
Daction^d*t^d:143413:7.22729e-06
Action^d*Daction^d*_id^index2:143748:7.22729e-06
Action^d*N^d*_id^index2:143789:7.22729e-06
P^d*x^d:143840:7.22729e-06
W^d*s^d:143866:0.00028729
Q^d*W^d*_id^index2:143942:7.22729e-06
action^d*j*_id^index2:144027:7.22729e-06
Y^d*t^d:144032:0.00028729
Z^d*y^d*_id^index2:144034:0.00028729
q^d*w^d:144137:7.22729e-06
h^d*x^d*_id^index2:144250:7.22729e-06
)^ff*5^ff:144255:0.00048373
R^d*m^d:144259:7.22729e-06
5^ff*6^ff:144436:0.00048373
e^d*j^d:144477:7.22729e-06
G^d*V^d:144635:7.22729e-06
$^ff*2^ff:144636:0.00048373
User^b*n^d:144763:7.22729e-06
Caction^d*Caction^d:144786:7.22729e-06
R^d*W^d*_id^index2:144934:0.00028729
1^ff*7^ff:145076:0.00048373
M^d*j*_id^index2:145128:7.22729e-06
X^d*Z^d:145243:0.00028729
G^d*baction^d*_id^index2:145244:7.22729e-06
m^d*x^d:145299:7.22729e-06
Ection^d*j:145369:7.22729e-06
0^ff*1^ff*_id^index0:145488:0.00048373
F^d*action^d:145643:7.22729e-06
O^d*P^d*_id^index2:145651:7.22729e-06
caction^d*daction^d:145682:7.22729e-06
e^d*e^d*_id^index2:145864:7.22729e-06
m^d:145900:7.22729e-06
P^d*e^d:145912:7.22729e-06
baction^d*daction^d:145983:7.22729e-06
X^d*w^d*_id^index2:146133:0.00028729
Baction^d*J^d:146241:7.22729e-06
I^g*g^d*_id^index2:146251:7.22729e-06
F^d*w^d*_id^index2:146273:7.22729e-06
Caction^d*z^d*_id^index2:146277:7.22729e-06
2^ff*5^ff*_id^index0:146309:0.000484261
W^d*W^d*_id^index2:146488:0.00028729
Q^d*j*_id^index2:146524:7.22729e-06
Action^e*User^c*_id^index1:146795:0.00631908
Baction^d*Y^d*_id^index2:146822:7.22729e-06
M^d:146921:7.22729e-06
n^d*n^d:146980:7.22729e-06
Action^e*Action^e*_id^index2:147184:-0.0224039
%^ff*6^ff:147188:0.00048373
H^d*m^d*_id^index2:147208:7.22729e-06
T^d*q^d*_id^index2:147218:7.22729e-06
G^d*I^g:147227:7.22729e-06
O^d*q^d:147245:7.22729e-06
h^d*q^d:147268:7.22729e-06
2^ff*3^ff*_id^index0:147460:0.00048373
J^d*j^d*_id^index2:147509:7.22729e-06
i^g*u^f*_id^index2:147640:7.22729e-06
I^g*v^d:147758:7.22729e-06
Baction^d*R^d:148167:7.22729e-06
p^d*r^d:148207:7.22729e-06
s^d*y^d*_id^index2:148351:0.00028729
o^d*r^d*_id^index2:148478:7.22729e-06
n^d*q^d*_id^index2:148545:7.22729e-06
action^d*y^d*_id^index2:148774:7.22729e-06
caction^d*y^d*_id^index2:148779:7.22729e-06
Baction^d*g^d:148782:7.22729e-06
v^d*v^d*_id^index2:148784:0.00028729
I^g*e^d*_id^index2:148786:7.22729e-06
Ection^d*Z^d:148822:7.22729e-06
I^g*T^d*_id^index2:148840:7.22729e-06
R^d*_id^index2:148849:0.00028729
User^b*v^d*_id^index2:148894:7.22729e-06
X^d*j:148948:0.00028729
o^d*o^d:149064:7.22729e-06
User^b*j*_id^index2:149098:7.22729e-06
2^ff*6^ff:149105:0.00048373
R^d*h^d:149174:7.22729e-06
User^c*X^d*_id^index2:149202:0.000285482
&^ff:149353:0.00048373
N^d*p^d*_id^index2:149383:7.22729e-06
P^d*j^d*_id^index2:149387:7.22729e-06
N^d*y^d*_id^index2:149426:7.22729e-06
V^d*i^g:149434:7.22729e-06
Ection^d*baction^d*_id^index2:149458:7.22729e-06
Y^d*v^d:149515:0.00028729
F^d*p^d:149552:7.22729e-06
Slot^h*User^b:150028:0.00048373
Daction^d*v^d:150174:7.22729e-06
P^d*T^d:150574:7.22729e-06
h^d:150745:7.22729e-06
T^d*V^d:150770:0.00028729
P^d*l^d:150846:7.22729e-06
Z^d*q^d*_id^index2:150905:7.22729e-06
Ection^d*G^d:151174:7.22729e-06
_id^index2:151326:-0.0220582
H^d*User^b*_id^index2:151589:7.22729e-06
User^c*y^d:151725:0.000285482
daction^d*x^d:151742:7.22729e-06
j^d*v^d:151749:7.22729e-06
G^d*p^d*_id^index2:151911:7.22729e-06
!^ff*)^ff:152012:0.00048373
X^d*z^d:152057:0.00028729
X^d*Y^d:152087:0.00028729
Daction^d*L^d*_id^index2:152165:7.22729e-06
Caction^d*p^d:152252:7.22729e-06
4^ff*7^ff*_id^index0:152301:0.00048373
&^ff*Slot^h*_id^index0:152340:0.00048373
f^d*u^f*_id^index2:152344:7.22729e-06
f^d*h^d*_id^index2:152432:7.22729e-06
2^ff*8^ff*_id^index0:152449:0.00048373
Action^d*Q^d*_id^index2:152488:7.22729e-06
Baction^d*i^g:152579:7.22729e-06
f^d*t^d*_id^index2:152713:7.22729e-06
Q^d*action^d:152773:7.22729e-06
Action^d*P^d:152810:7.22729e-06
Baction^d*V^d*_id^index2:152863:7.22729e-06
T^d*v^d*_id^index2:152868:0.00028729
Daction^d*caction^d:152896:7.22729e-06
V^d*g^d:153239:7.22729e-06
baction^d*j^d*_id^index2:153306:7.22729e-06
R^d*e^d*_id^index2:153406:7.22729e-06
G^d*j^d:153426:7.22729e-06
X^d*X^d:153490:0.00028729
g^d*s^d*_id^index2:153519:7.22729e-06
u^f*x^d*_id^index2:153522:0.00028729
action^d*action^d:153524:7.22729e-06
J^d*w^d:153549:7.22729e-06
Y^d*caction^d:153557:7.22729e-06
G^d*baction^d:153590:7.22729e-06
j^d*o^d*_id^index2:153618:7.22729e-06
&^ff*5^ff*_id^index0:153663:0.00048373
7^ff:153764:0.00048373
daction^d*e^d:153766:7.22729e-06
L^d*y^d:153872:7.22729e-06
t^d*z^d*_id^index2:153924:0.00028729
User^b*f^d:154004:7.22729e-06
Z^d*_id^index2:154012:0.00028729
Z^d*h^d:154203:7.22729e-06
User^c*j*_id^index2:154232:0.000285482
W^d*q^d*_id^index2:154288:7.22729e-06
M^d*p^d:154394:7.22729e-06
N^d*u^f:154515:7.22729e-06
(^ff*6^ff:154783:0.00048373
n^d*o^d*_id^index1:154787:7.22729e-06
User^a*User^a*_id^index2:154800:-0.0224039
h^d*v^d*_id^index2:154916:7.22729e-06
j*j:155010:-0.0220582
Caction^d*User^b*_id^index2:155072:7.22729e-06
r^d*v^d:155137:0.00028729
g^d*y^d:155138:7.22729e-06
W^d*t^d*_id^index2:155183:0.00028729
l^d*l^d:155298:7.22729e-06
T^d*Z^d*_id^index2:155337:0.00028729
I^g*caction^d:155376:7.22729e-06
action^d*action^d*_id^index2:155458:7.22729e-06
(^ff*0^ff*_id^index0:155549:0.00048373
0^ff*3^ff:155661:0.00048373
V^d*o^d:155727:7.22729e-06
Ection^d*R^d*_id^index2:155729:7.22729e-06
Action^d*y^d*_id^index2:155965:7.22729e-06
g^d*m^d:156088:7.22729e-06
v^d*v^d:156122:0.00028729
H^d*j^d:156286:7.22729e-06
L^d*M^d:156335:7.22729e-06
X^d*daction^d:156350:7.22729e-06
H^d*baction^d:156378:7.22729e-06
Action^d*action^d:156525:7.22729e-06
baction^d*j*_id^index2:156625:7.22729e-06
&^ff*)^ff*_id^index0:156756:0.00048373
Caction^d*User^b:156778:7.22729e-06
J^d*e^d:156870:7.22729e-06
M^d*Z^d*_id^index2:156889:7.22729e-06
L^d*m^d:157354:7.22729e-06
t^d*x^d*_id^index2:157401:0.00028729
0^ff*4^ff:157469:0.00048373
Caction^d*action^d*_id^index2:157499:7.22729e-06
T^d*T^d*_id^index2:158200:0.00028729
J^d*X^d*_id^index2:158364:7.22729e-06
&^ff*0^ff:158441:0.00048373
Ection^d*Ection^d:158528:7.22729e-06
daction^d*w^d:158637:7.22729e-06
J^d*x^d:158942:7.22729e-06
Daction^d*H^d:158993:7.22729e-06
f^d*_id^index2:159069:7.22729e-06
M^d*User^b:159180:7.22729e-06
f^d*h^d:159386:7.22729e-06
O^d*caction^d:159401:7.22729e-06
T^d*s^d:159460:0.00028729
N^d*Q^d*_id^index2:159611:7.22729e-06
Baction^d:159622:7.22729e-06
1^ff*Slot^h*_id^index0:159721:0.00048373
W^d*j^d:159813:7.22729e-06
Y^d*p^d*_id^index2:159891:7.22729e-06
W^d*baction^d:159969:7.22729e-06
)^ff*0^ff:159977:0.00048373
h^d*v^d:160030:7.22729e-06
N^d*Q^d:160039:7.22729e-06
O^d*v^d:160119:7.22729e-06
User^b*j^d*_id^index2:160257:7.22729e-06
Baction^d*z^d*_id^index2:160268:7.22729e-06
Z^d*h^d*_id^index2:160351:7.22729e-06
H^d*e^d*_id^index2:160445:7.22729e-06
Caction^d*p^d*_id^index2:160490:7.22729e-06
H^d*J^d*_id^index2:160617:7.22729e-06
!^ff*2^ff*_id^index0:160672:0.00048373
g^d*i^g*_id^index2:160673:7.22729e-06
H^d*t^d*_id^index2:160686:7.22729e-06
Baction^d*h^d*_id^index2:160687:7.22729e-06
L^d*e^d*_id^index2:160757:7.22729e-06
Baction^d*o^d:160758:7.22729e-06
Action^d*G^d*_id^index2:160909:7.22729e-06
Action^d*Caction^d:160920:7.22729e-06
n^d*u^f:161211:7.22729e-06
User^b*Z^d*_id^index2:161239:7.22729e-06
e^d*s^d:161250:7.22729e-06
G^d*t^d*_id^index2:161770:7.22729e-06
Q^d*w^d*_id^index2:161935:7.22729e-06
J^d*w^d*_id^index2:161961:7.22729e-06
x^d*y^d:162147:0.00028729
User^b*t^d*_id^index2:162223:7.22729e-06
Caction^d*J^d*_id^index2:162404:7.22729e-06
z^d*j*_id^index2:162433:0.00028729
l^d*j*_id^index2:162568:7.22729e-06
O^d*caction^d*_id^index2:162581:7.22729e-06
Baction^d*T^d*_id^index2:162735:7.22729e-06
N^d*action^d*_id^index2:162806:7.22729e-06
Daction^d*caction^d*_id^index2:163038:7.22729e-06
N^d*f^d:163043:7.22729e-06
Caction^d*e^d*_id^index2:163416:7.22729e-06
Ection^d*F^d*_id^index2:163551:7.22729e-06
User^b*u^f:163556:7.22729e-06
F^d*User^b:163558:7.22729e-06
$^ff*9^ff*_id^index0:163811:0.00048373
)^ff*6^ff*_id^index0:163915:0.00048373
R^d*f^d:164094:7.22729e-06
Y^d*e^d*_id^index2:164109:7.22729e-06
1^ff*2^ff*_id^index0:164123:0.00048373
baction^d*q^d:164275:7.22729e-06
Baction^d*F^d:164297:7.22729e-06
L^d*Z^d*_id^index2:164302:7.22729e-06
I^g*X^d:164308:7.22729e-06
j^d*j:164473:7.22729e-06
caction^d*q^d:164510:7.22729e-06
daction^d*g^d:164725:7.22729e-06
j^d*t^d*_id^index2:164916:7.22729e-06
I^g*Y^d:164945:7.22729e-06
N^d*V^d*_id^index2:165023:7.22729e-06
O^d*daction^d:165025:7.22729e-06
F^d*e^d*_id^index2:165044:7.22729e-06
g^d*u^f*_id^index2:165105:7.22729e-06
Q^d*t^d*_id^index2:165165:7.22729e-06
V^d*x^d:165212:0.00028729
Daction^d*L^d:165241:7.22729e-06
Z^d*j*_id^index2:165247:0.00028729
Daction^d*o^d*_id^index2:165331:7.22729e-06
F^d*r^d*_id^index2:165481:7.22729e-06
W^d*g^d*_id^index2:165637:7.22729e-06
F^d*j*_id^index2:165654:7.22729e-06
I^g*W^d:165676:7.22729e-06
Q^d:165717:7.22729e-06
Q^d*V^d:165798:7.22729e-06
I^g*z^d:165823:7.22729e-06
V^d*t^d*_id^index2:165857:0.00028729
F^d*V^d*_id^index2:165894:7.22729e-06
F^d*j^d:165921:7.22729e-06
O^d*r^d*_id^index2:165924:7.22729e-06
m^d*q^d*_id^index2:165983:7.22729e-06
F^d*baction^d:166021:7.22729e-06
6^ff*6^ff*_id^index0:166050:0.00048373
X^d*caction^d:166070:7.22729e-06
F^d*N^d*_id^index2:166331:7.22729e-06
J^d*o^d:166349:7.22729e-06
Z^d*v^d*_id^index2:166427:0.00028729
Daction^d*X^d:166500:7.22729e-06
f^d:166545:7.22729e-06
Daction^d*z^d:166927:7.22729e-06
User^b*l^d*_id^index2:166970:7.22729e-06
4^ff*6^ff:167017:0.00048373
Daction^d*W^d:167068:7.22729e-06
r^d*j:167101:0.00028729
Ection^d*w^d*_id^index2:167154:7.22729e-06
V^d*e^d:167236:7.22729e-06
R^d*l^d*_id^index2:167244:7.22729e-06
Y^d*Y^d:167284:0.00028729
1^ff*1^ff:167328:0.00048373
e^d*o^d*_id^index2:167365:7.22729e-06
User^b*X^d*_id^index2:167440:7.22729e-06
Y^d*z^d:167578:0.00028729
I^g*L^d:167625:7.22729e-06
Ection^d*N^d*_id^index2:167692:7.22729e-06
f^d*u^f:167842:7.22729e-06
caction^d*p^d*_id^index2:167854:7.22729e-06
Daction^d*Y^d:167905:7.22729e-06
&^ff*(^ff:168006:0.00048373
Caction^d*u^f*_id^index2:168058:7.22729e-06
6^ff*9^ff*_id^index0:168182:0.00048373
)^ff*Slot^h*_id^index0:168212:0.00048373
J^d*m^d*_id^index2:168225:7.22729e-06
Caction^d*baction^d:168457:7.22729e-06
Action^d*s^d:168472:7.22729e-06
daction^d*i^g:168536:7.22729e-06
Caction^d*j^d:168621:7.22729e-06
i^g*s^d:168732:7.22729e-06
J^d*T^d*_id^index2:168750:7.22729e-06
I^g*j:168850:7.22729e-06
J^d*User^b*_id^index2:169044:7.22729e-06
F^d*Y^d*_id^index2:169119:7.22729e-06
H^d*User^b:169145:7.22729e-06
j^d*z^d:169556:7.22729e-06
Action^d*F^d*_id^index2:169674:7.22729e-06
Baction^d*x^d:169701:7.22729e-06
G^d*p^d:169795:7.22729e-06
n^d*_id^index2:169796:7.22729e-06
X^d*v^d:169832:0.00028729
R^d*p^d*_id^index2:169988:7.22729e-06
4^ff:170011:0.00048373
Daction^d*j:170018:7.22729e-06
5^ff*7^ff*_id^index0:170042:0.00048373
o^d*w^d:170056:1.02196e-05
r^d*z^d:170128:0.00028729
Action^d*User^b*_id^index2:170302:7.22729e-06
Ection^d*H^d*_id^index2:170304:7.22729e-06
s^d*s^d*_id^index2:170440:0.00028729
%^ff*4^ff*_id^index0:170455:0.00048373
daction^d*q^d*_id^index2:170460:7.22729e-06
&^ff*2^ff*_id^index0:170474:0.00048373
N^d*m^d*_id^index2:170660:7.22729e-06
f^d*v^d*_id^index2:170668:7.22729e-06
Y^d*j:170679:0.00028729
action^d*w^d*_id^index2:170704:7.22729e-06
M^d*j^d:170763:7.22729e-06
M^d*baction^d:170927:7.22729e-06
Z^d*f^d:171027:7.22729e-06
User^b*_id^index2:171035:7.22729e-06
$^ff*User^b*_id^index0:171098:0.00048373
M^d*g^d*_id^index2:171563:7.22729e-06
Daction^d*g^d*_id^index2:171611:7.22729e-06
Baction^d*e^d:171773:7.22729e-06
3^ff:171787:0.00048373
T^d*action^d:171921:7.22729e-06
Ection^d*t^d:171982:7.22729e-06
User^b*h^d:171996:7.22729e-06
!^ff*User^b:172194:0.00048373
Action^d*O^d:172257:7.22729e-06
G^d*G^d*_id^index2:172290:7.22729e-06
G^d*User^b:172437:7.22729e-06
M^d*Q^d*_id^index2:172452:7.22729e-06
t^d*j*_id^index2:172471:0.00028729
G^d*w^d*_id^index2:172604:7.22729e-06
H^d*p^d:172655:7.22729e-06
$^ff*6^ff:172727:0.00048373
o^d*x^d:172891:7.22729e-06
h^d*j:172962:7.22729e-06
O^d*j:173003:7.22729e-06
Y^d*h^d*_id^index2:173035:7.22729e-06
J^d*q^d*_id^index2:173244:7.22729e-06
R^d*o^d*_id^index2:173423:7.22729e-06
Q^d*s^d:173488:7.22729e-06
Ection^d*L^d*_id^index2:173496:7.22729e-06
N^d*baction^d*_id^index2:173500:7.22729e-06
F^d*baction^d*_id^index2:173633:7.22729e-06
8^ff*User^b*_id^index0:173647:0.00048373
H^d*caction^d*_id^index2:173665:7.22729e-06
action^d*s^d:173761:7.22729e-06
User^c*r^d:173847:0.000285482
v^d*z^d:173899:0.00028729
z^d*z^d:173928:0.00028729
R^d*u^f:173966:0.00028729
0^ff*7^ff:173986:0.00048373
%^ff*2^ff:174271:0.00048373
W^d*v^d*_id^index0:174290:7.22729e-06
baction^d*z^d*_id^index2:174326:7.22729e-06
Caction^d*j^d*_id^index2:174409:7.22729e-06
g^d*r^d:174520:7.22729e-06
Action^fff*Action^fff:174568:-0.0302458
H^d*V^d*_id^index2:174699:7.22729e-06
Ection^d*q^d:174911:7.22729e-06
!^ff*7^ff*_id^index0:174913:0.00048373
T^d*x^d*_id^index2:174970:0.00028729
$^ff*%^ff*_id^index0:175075:0.00048373
L^d*h^d*_id^index2:175187:7.22729e-06
J^d*action^d*_id^index2:175335:7.22729e-06
X^d*n^d*_id^index2:175479:7.22729e-06
u^f:175585:0.00028729
Z^d*e^d*_id^index2:175593:7.22729e-06
Baction^d*w^d:175606:7.22729e-06
Y^d*daction^d*_id^index2:175609:7.22729e-06
J^d*i^g:175672:7.22729e-06
%^ff*Slot^h*_id^index0:175677:0.00048373
%^ff*2^ff*_id^index0:175743:0.00048373
G^d*y^d*_id^index2:175762:7.22729e-06
L^d*r^d:175786:7.22729e-06
Action^d*V^d:176142:7.22729e-06
W^d*p^d:176212:7.22729e-06
O^d*X^d:176525:7.22729e-06
Action^d*r^d*_id^index2:176591:7.22729e-06
Daction^d:176729:7.22729e-06
0^ff*2^ff*_id^index0:176749:0.00048373
!^ff*_id^index0:176759:0.00048373
h^d*u^f*_id^index2:176912:7.22729e-06
z^d*j:176965:0.00028729
v^d*j:176998:0.00028729
Action^d*caction^d*_id^index2:177002:7.22729e-06
Z^d*u^f*_id^index2:177095:0.00028729
O^d*Y^d:177160:7.22729e-06
)^ff*0^ff*_id^index0:177177:0.00048373
Action^d*Action^d:177210:7.22729e-06
I^g*daction^d:177400:7.22729e-06
baction^d*t^d:177474:7.22729e-06
Slot^i*T^d*_id^index1:177493:7.22729e-06
l^d*m^d*_id^index2:177563:7.22729e-06
L^d*t^d*_id^index2:177574:7.22729e-06
daction^d*o^d:177581:7.22729e-06
M^d*f^d*_id^index2:177584:7.22729e-06
j^d*w^d*_id^index2:177682:7.22729e-06
V^d*f^d*_id^index2:177712:7.22729e-06
caction^d*t^d:177775:7.22729e-06
8^ff*8^ff:177872:0.00048373
0^ff*9^ff*_id^index0:177956:0.00048373
O^d*W^d:178037:7.22729e-06
h^d*z^d:178063:7.22729e-06
Action^d*J^d*_id^index2:178082:7.22729e-06
O^d*z^d:178150:7.22729e-06
P^d*z^d*_id^index2:178247:7.22729e-06
Daction^d*G^d*_id^index2:178393:7.22729e-06
F^d*l^d*_id^index2:178406:7.22729e-06
J^d*R^d:178428:7.22729e-06
L^d*n^d:178488:7.22729e-06
N^d*_id^index2:178540:7.22729e-06
4^ff*User^b*_id^index0:178720:0.00048373
L^d*r^d*_id^index2:178816:7.22729e-06
N^d*h^d:178859:7.22729e-06
Z^d*u^f:179043:0.00028729
User^b*r^d*_id^index2:179157:7.22729e-06
Action^d*I^g:179182:7.22729e-06
Caction^d*I^g*_id^index2:179186:7.22729e-06
Caction^d*t^d*_id^index2:179303:7.22729e-06
Baction^d*daction^d*_id^index2:179309:7.22729e-06
N^d*caction^d*_id^index2:179349:7.22729e-06
f^d*j^d*_id^index2:179495:7.22729e-06
o^d*t^d*_id^index2:179544:7.22729e-06
Y^d*daction^d:179677:7.22729e-06
N^d*O^d*_id^index2:179714:7.22729e-06
g^d*n^d:179754:7.22729e-06
daction^d*g^d*_id^index2:179761:7.22729e-06
V^d*w^d:179791:0.00028729
Daction^d*I^g*_id^index2:179912:7.22729e-06
J^d*g^d:179989:7.22729e-06
Daction^d*daction^d:180040:7.22729e-06
J^d*t^d*_id^index2:180155:7.22729e-06
M^d*o^d*_id^index2:180163:7.22729e-06
O^d*l^d*_id^index2:180223:7.22729e-06
t^d*t^d*_id^index2:180242:0.00028729
W^d*action^d:180367:7.22729e-06
%^ff:180468:0.00048373
3^ff*3^ff:180570:0.00048373
J^d*J^d:180602:7.22729e-06
L^d*X^d*_id^index2:180645:7.22729e-06
w^d*z^d:180824:0.00028729
M^d*M^d*_id^index2:180888:7.22729e-06
Ection^d*H^d:180970:7.22729e-06
Baction^d*o^d*_id^index2:181084:7.22729e-06
T^d*j^d*_id^index2:181087:7.22729e-06
f^d*n^d:181309:7.22729e-06
(^ff*6^ff*_id^index0:181407:0.00048373
Daction^d*Ection^d:181435:7.22729e-06
J^d*daction^d*_id^index2:181616:7.22729e-06
O^d*i^g*_id^index2:181671:7.22729e-06
i^g*i^g*_id^index2:181704:7.22729e-06
3^ff*4^ff:181834:0.00048373
W^d*caction^d*_id^index2:182116:7.22729e-06
l^d*o^d:182127:7.22729e-06
Ection^d*Y^d*_id^index2:182256:7.22729e-06
F^d*s^d:182686:7.22729e-06
Slot^h*Slot^h:182946:-0.0310355
m^d*p^d*_id^index2:182993:7.22729e-06
(^ff*2^ff:182996:0.00048373
N^d*g^d*_id^index2:183028:7.22729e-06
P^d*x^d*_id^index2:183486:7.22729e-06
caction^d*v^d:183492:7.22729e-06
Action^fff:183500:-0.0302458
I^g*M^d*_id^index2:183544:7.22729e-06
L^d*g^d*_id^index2:183920:7.22729e-06
X^d*y^d*_id^index2:183935:0.00028729
Q^d*o^d*_id^index2:183951:7.22729e-06
action^d*s^d*_id^index2:184013:7.22729e-06
N^d*m^d:184222:7.22729e-06
baction^d*v^d:184297:7.22729e-06
G^d*P^d:184351:7.22729e-06
baction^d*caction^d:184375:7.22729e-06
2^ff*2^ff:184378:0.00048373
Caction^d*w^d*_id^index2:184405:7.22729e-06
(^ff*7^ff*_id^index0:184571:0.00048373
m^d*s^d*_id^index2:184639:7.22729e-06
O^d*Z^d:184644:7.22729e-06
O^d*v^d*_id^index2:184651:7.22729e-06
m^d*o^d:184960:7.22729e-06
i^g*j^d:184995:7.22729e-06
H^d*action^d:185012:7.22729e-06
Action^d*baction^d:185091:7.22729e-06
Caction^d*s^d:185106:7.22729e-06
caction^d*caction^d:185114:7.22729e-06
Action^d*j^d:185255:7.22729e-06
f^d*r^d:185263:7.22729e-06
n^d*z^d*_id^index2:185300:7.22729e-06
I^g*v^d*_id^index2:185460:7.22729e-06
P^d*o^d:185587:7.22729e-06
User^b*y^d:185683:7.22729e-06
V^d*s^d*_id^index2:185794:0.00028729
L^d*f^d:185815:7.22729e-06
G^d*N^d*_id^index2:185826:7.22729e-06
F^d*daction^d*_id^index2:185896:7.22729e-06
w^d*j:185973:0.00028729
P^d*baction^d*_id^index2:185975:7.22729e-06
Action^d*f^d*_id^index2:186204:7.22729e-06
F^d*W^d*_id^index2:186252:7.22729e-06
Action^e*Slot^i:186288:0.00631908
L^d*Q^d:186387:7.22729e-06
I^g*r^d*_id^index2:186587:7.22729e-06
X^d*q^d:186674:7.22729e-06
T^d*User^b:186780:7.22729e-06
Y^d*m^d*_id^index2:186968:7.22729e-06
M^d*s^d:187060:7.22729e-06
$^ff*&^ff*_id^index0:187600:0.00048373
P^d*i^g*_id^index2:187756:7.22729e-06
n^d*y^d:187916:7.22729e-06
G^d*H^d*_id^index2:187990:7.22729e-06
6^ff*8^ff:188128:0.00048373
q^d*t^d*_id^index2:188167:7.22729e-06
O^d*V^d*_id^index2:188191:7.22729e-06
T^d*User^b*_id^index2:188298:7.22729e-06
T^d*s^d*_id^index2:188402:0.00028729
F^d*I^g:188520:7.22729e-06
R^d*Y^d*_id^index2:188561:0.00028729
I^g*Z^d:188701:7.22729e-06
Daction^d*G^d:188797:7.22729e-06
Y^d*f^d*_id^index2:188883:7.22729e-06
Caction^d*O^d:188907:7.22729e-06
P^d*g^d:188971:7.22729e-06
)^ff*9^ff*_id^index0:189055:0.00048373
Y^d*Y^d*_id^index2:189058:0.00028729
W^d*s^d*_id^index2:189328:0.00028729
1^ff:189360:0.00048373
Q^d*j^d:189455:7.22729e-06
5^ff*User^b*_id^index0:189459:0.00048373
O^d*t^d*_id^index2:189514:7.22729e-06
Q^d*baction^d:189611:7.22729e-06
H^d*P^d:189747:7.22729e-06
Z^d*m^d*_id^index2:189748:7.22729e-06
Ection^d*v^d:189797:7.22729e-06
P^d*R^d:189890:7.22729e-06
G^d*J^d*_id^index2:189933:7.22729e-06
n^d:190078:7.22729e-06
X^d*j^d*_id^index2:190153:7.22729e-06
Ection^d*o^d*_id^index2:190194:7.22729e-06
Z^d*r^d:190318:0.00028729
action^d*j^d:190334:7.22729e-06
G^d*action^d:190360:7.22729e-06
action^d*baction^d:190426:7.22729e-06
Y^d*Z^d:190520:0.00028729
M^d*O^d:190541:7.22729e-06
P^d*f^d*_id^index2:190860:7.22729e-06
)^ff*8^ff:190867:0.00048373
User^c*V^d*_id^index2:190920:0.000285482
L^d*j*_id^index2:190963:7.22729e-06
N^d*i^g*_id^index2:191015:7.22729e-06
Baction^d*l^d:191035:7.22729e-06
Daction^d*Z^d:191149:7.22729e-06
Daction^d*m^d*_id^index2:191179:7.22729e-06
User^b*m^d:191209:7.22729e-06
Baction^d*T^d:191275:7.22729e-06
F^d*V^d:191368:7.22729e-06
s^d*s^d:191378:0.00028729
R^d*n^d:191505:7.22729e-06
o^d*o^d*_id^index2:191558:7.22729e-06
J^d*e^d*_id^index2:191660:7.22729e-06
X^d*t^d:191939:0.00028729
F^d*m^d*_id^index2:192105:7.22729e-06
N^d*q^d*_id^index2:192329:7.22729e-06
T^d*p^d:192330:7.22729e-06
R^d*w^d*_id^index2:192367:0.00028729
W^d*w^d*_id^index2:192525:0.00028729
N^d*y^d:192548:7.22729e-06
Baction^d*N^d:192756:7.22729e-06
Z^d*n^d:192764:7.22729e-06
Caction^d*V^d:192772:7.22729e-06
1^ff*3^ff:192795:0.00048373
X^d*action^d*_id^index2:192955:7.22729e-06
y^d*y^d*_id^index2:192962:0.00028729
r^d:193004:0.00028729
9^ff*Slot^h*_id^index0:193085:0.00048373
p^d*x^d*_id^index2:193122:7.22729e-06
L^d*u^f:193191:7.22729e-06
P^d*i^g:193286:7.22729e-06
&^ff*8^ff:193427:0.00048373
e^d*p^d:193612:7.22729e-06
h^d*w^d*_id^index2:193619:7.22729e-06
Daction^d*h^d*_id^index2:193656:7.22729e-06
P^d*caction^d*_id^index2:193754:7.22729e-06
H^d*f^d*_id^index2:193763:7.22729e-06
r^d*y^d*_id^index2:193928:0.00028729
g^d*u^f:193973:7.22729e-06
1^ff*4^ff:194059:0.00048373
g^d*v^d*_id^index2:194077:7.22729e-06
j^d*s^d*_id^index2:194355:7.22729e-06
User^b*User^b*_id^index1:194431:0.00504854
Slot^i*User^c:194660:0.00631908
M^d*V^d:194722:7.22729e-06
P^d*V^d*_id^index2:194724:7.22729e-06
Daction^d*Daction^d*_id^index2:194808:7.22729e-06
V^d*l^d:194946:7.22729e-06
Ection^d*caction^d:195259:7.22729e-06
Caction^d*I^g:195300:7.22729e-06
User^c*u^f:195354:0.000285482
q^d*z^d*_id^index2:195397:7.22729e-06
F^d*O^d:195431:7.22729e-06
Ection^d*caction^d*_id^index2:195455:7.22729e-06
R^d*r^d:195459:0.00028729
O^d*User^b*_id^index2:195505:7.22729e-06
Daction^d*N^d*_id^index2:195513:7.22729e-06
s^d*t^d*_id^index2:195559:0.00028729
p^d*_id^index2:195613:7.22729e-06
q^d*v^d*_id^index2:196102:7.22729e-06
G^d*x^d*_id^index2:196161:7.22729e-06
m^d*r^d*_id^index2:196518:7.22729e-06
f^d*w^d:196679:7.22729e-06
%^ff*%^ff:196840:0.00048373
p^d*w^d*_id^index2:196891:7.22729e-06
Caction^d*daction^d:196926:7.22729e-06
0^ff*6^ff:197102:0.00048373
l^d*m^d:197255:7.22729e-06
User^c*User^c:197378:-0.0357804
n^d*x^d*_id^index2:197417:7.22729e-06
Q^d*T^d*_id^index2:197564:7.22729e-06
H^d*v^d:197691:7.22729e-06
Ection^d*P^d:197741:7.22729e-06
Y^d*n^d*_id^index2:197838:7.22729e-06
baction^d*v^d*_id^index2:197845:7.22729e-06
$^ff*7^ff:197883:0.00048373
1^ff*8^ff*_id^index0:197898:0.00048373
Baction^d*f^d:197987:7.22729e-06
daction^d*h^d:198000:7.22729e-06
Q^d*daction^d*_id^index2:198026:7.22729e-06
$^ff*Slot^h*_id^index0:198032:0.00048373
Daction^d*n^d*_id^index2:198113:7.22729e-06
1^ff*2^ff:198323:0.00048373
daction^d*_id^index2:198327:7.22729e-06
caction^d*e^d*_id^index2:198356:7.22729e-06
User^c*u^f*_id^index2:198384:0.000285482
T^d*q^d:198468:7.22729e-06
Z^d*e^d:198541:7.22729e-06
M^d*daction^d:198808:7.22729e-06
Baction^d*Q^d:198823:7.22729e-06
9^ff*9^ff:198888:0.00048373
User^b*i^g:198900:7.22729e-06
Action^d*T^d*_id^index2:198916:7.22729e-06
G^d*m^d*_id^index2:198980:7.22729e-06
W^d*caction^d:199134:7.22729e-06
J^d*u^f*_id^index2:199142:7.22729e-06
3^ff*6^ff*_id^index0:199145:0.00048373
N^d*o^d:199286:7.22729e-06
2^ff*7^ff*_id^index0:199381:0.00048373
s^d*z^d:199417:0.00028729
O^d*w^d*_id^index2:199516:7.22729e-06
t^d*u^f*_id^index2:199887:0.00028729
m^d*y^d*_id^index2:200072:7.22729e-06
Action^d*q^d*_id^index2:200118:7.22729e-06
F^d:200251:7.22729e-06
v^d*x^d*_id^index2:200262:0.00028729
P^d*e^d*_id^index2:200310:7.22729e-06
F^d*q^d*_id^index2:200324:7.22729e-06
L^d*P^d*_id^index2:200335:7.22729e-06
n^d*j*_id^index2:200391:7.22729e-06
Z^d*x^d:200597:0.00028729
o^d*s^d*_id^index2:200791:7.22729e-06
m^d*o^d*_id^index2:200862:7.22729e-06
e^d:200975:7.22729e-06
P^d*m^d:200987:7.22729e-06
j^d*l^d*_id^index2:201141:7.22729e-06
T^d*h^d*_id^index2:201208:7.22729e-06
g^d*n^d*_id^index2:201472:7.22729e-06
Action^d*x^d*_id^index2:201550:7.22729e-06
7^ff*User^b*_id^index0:201571:0.00048373
R^d*x^d:201592:0.00028729
Z^d*n^d*_id^index2:201642:7.22729e-06
P^d*s^d*_id^index2:201734:7.22729e-06
v^d*z^d*_id^index2:201743:0.00028729
w^d*w^d*_id^index2:201798:0.00028729
Action^d*Z^d:202193:7.22729e-06
W^d*v^d:202240:0.00028729
L^d*M^d*_id^index2:202339:7.22729e-06
3^ff*8^ff*_id^index0:202361:0.00048373
G^d*H^d:202392:7.22729e-06
V^d*f^d:202458:7.22729e-06
O^d*j^d:202546:7.22729e-06
q^d*y^d:202587:1.02196e-05
m^d*m^d:202600:7.22729e-06
p^d*y^d*_id^index1:202646:7.22729e-06
o^d*u^f:202669:7.22729e-06
V^d*daction^d*_id^index2:202710:7.22729e-06
G^d*I^g*_id^index2:202911:7.22729e-06
8^ff*Slot^h*_id^index0:202913:0.00048373
&^ff*3^ff*_id^index0:203026:0.00048373
x^d:203031:0.00028729
Caction^d*j*_id^index2:203042:7.22729e-06
User^b*g^d:203225:7.22729e-06
x^d*z^d*_id^index2:203245:0.00028729
h^d*h^d*_id^index2:203256:7.22729e-06
)^ff*)^ff*_id^index0:203348:0.00048373
f^d*s^d*_id^index2:203370:7.22729e-06
W^d*i^g*_id^index2:203394:7.22729e-06
V^d*h^d*_id^index2:203464:7.22729e-06
$^ff*&^ff:203574:0.00048373
W^d*z^d*_id^index2:203613:0.00028729
R^d*e^d:203616:7.22729e-06
F^d*daction^d:203698:7.22729e-06
Q^d*h^d*_id^index2:203708:7.22729e-06
Action^d*X^d*_id^index2:203734:7.22729e-06
H^d*caction^d:203749:7.22729e-06
e^d*q^d:203842:7.22729e-06
O^d*z^d*_id^index1:203851:7.22729e-06
Action^d*G^d:204289:7.22729e-06
s^d*j:204500:0.00028729
Baction^d*N^d*_id^index2:204546:7.22729e-06
R^d*h^d*_id^index2:204700:7.22729e-06
G^d*e^d*_id^index2:204857:7.22729e-06
L^d*N^d:204864:7.22729e-06
2^ff*4^ff:204930:0.00048373
f^d*w^d*_id^index2:205019:7.22729e-06
!^ff*8^ff:205181:0.00048373
F^d*L^d:205187:7.22729e-06
w^d:205316:0.00028729
Baction^d*u^f:205331:7.22729e-06
Q^d*Z^d:205433:7.22729e-06
%^ff*1^ff:205740:0.00048373
H^d*H^d:205748:7.22729e-06
n^d*o^d:205918:7.22729e-06
O^d*action^d*_id^index2:205942:7.22729e-06
W^d*x^d*_id^index2:206280:0.00028729
8^ff*_id^index0:206298:0.00048373
caction^d*j^d*_id^index2:206349:7.22729e-06
Caction^d*V^d*_id^index2:206418:7.22729e-06
Caction^d*j:206420:7.22729e-06
N^d*e^d*_id^index2:206553:7.22729e-06
M^d*p^d*_id^index2:206576:7.22729e-06
!^ff*!^ff:206658:0.00048373
Action^d*baction^d*_id^index0:206699:7.22729e-06
O^d*Y^d*_id^index2:206726:7.22729e-06
2^ff*3^ff:206738:0.00048373
Action^d*w^d*_id^index2:206791:7.22729e-06
I^g*baction^d:206799:7.22729e-06
M^d*V^d*_id^index2:206872:7.22729e-06
l^d*y^d*_id^index2:206873:7.22729e-06
G^d*V^d*_id^index2:206911:7.22729e-06
F^d*W^d:206950:7.22729e-06
R^d*w^d:206955:0.00028729
e^d*t^d:207027:7.22729e-06
m^d*y^d:207058:7.22729e-06
F^d*z^d:207093:7.22729e-06
G^d*q^d*_id^index2:207145:7.22729e-06
w^d*y^d*_id^index2:207344:0.00028729
I^g*p^d*_id^index2:207376:7.22729e-06
4^ff*7^ff:207397:0.00048373
F^d*Y^d:207643:7.22729e-06
Q^d*i^g*_id^index2:207748:7.22729e-06
Q^d*z^d*_id^index2:207839:7.22729e-06
Daction^d*baction^d:207999:7.22729e-06
3^ff*4^ff*_id^index0:208044:0.00048373
$^ff*6^ff*_id^index0:208071:0.00048373
Daction^d*j^d:208091:7.22729e-06
N^d*i^g:208259:7.22729e-06
q^d*j*_id^index2:208322:7.22729e-06
Action^fff*Slot^h*_id^index0:208421:-0.0308956
Y^d*j^d:208462:7.22729e-06
J^d*x^d*_id^index2:208484:7.22729e-06
Caction^d*N^d*_id^index2:208495:7.22729e-06
V^d*n^d*_id^index2:208497:7.22729e-06
N^d*N^d*_id^index2:208514:7.22729e-06
m^d*n^d*_id^index2:208528:7.22729e-06
F^d*X^d:208542:7.22729e-06
P^d*y^d:208545:7.22729e-06
G^d*caction^d:208585:7.22729e-06
Y^d*baction^d:208618:7.22729e-06
User^b*o^d:208641:7.22729e-06
Baction^d*M^d*_id^index2:208799:7.22729e-06
M^d*j:208882:7.22729e-06
Action^fff*User^c:209117:-0.0364944
G^d*v^d:209175:7.22729e-06
X^d*p^d:209212:7.22729e-06
Caction^d*Y^d:209303:7.22729e-06
User^b*User^c*_id^index2:209322:0.00028729
u^f*v^d:209334:0.00028729
Caction^d*z^d:209529:7.22729e-06
Daction^d*j*_id^index2:209560:7.22729e-06
0^ff*Slot^h*_id^index0:209583:0.00048373
L^d*Y^d*_id^index2:209642:1.02196e-05
P^d*Q^d*_id^index2:209688:7.22729e-06
m^d*x^d*_id^index2:209783:7.22729e-06
T^d*t^d:209845:0.00028729
Ection^d*action^d:209898:7.22729e-06
Caction^d*X^d:209938:7.22729e-06
Z^d*w^d:210054:0.00028729
G^d*Z^d*_id^index2:210098:7.22729e-06
9^ff*Slot^h:210101:0.00048373
e^d*q^d*_id^index2:210168:7.22729e-06
F^d*n^d*_id^index2:210259:7.22729e-06
Baction^d*f^d*_id^index2:210375:7.22729e-06
Ection^d*Q^d*_id^index2:210417:7.22729e-06
Slot^h*User^a:210560:0.0151329
Action^e:210597:-0.0160167
F^d*z^d*_id^index2:210609:7.22729e-06
8^ff*User^b:210703:0.00048373
Action^d*Baction^d*_id^index2:210733:7.22729e-06
%^ff*&^ff*_id^index0:210941:0.00048373
M^d*Y^d:210993:7.22729e-06
t^d*y^d:211004:0.00028729
N^d*o^d*_id^index2:211164:7.22729e-06
J^d*h^d:211216:7.22729e-06
F^d*h^d*_id^index2:211254:7.22729e-06
M^d*Y^d*_id^index2:211517:7.22729e-06
(^ff*4^ff:211564:0.00048373
L^d*l^d:211599:7.22729e-06
J^d*_id^index2:211671:7.22729e-06
Caction^d*L^d:211727:7.22729e-06
N^d*R^d:211783:7.22729e-06
M^d*W^d:211788:7.22729e-06
f^d*x^d:211796:7.22729e-06
L^d*T^d:211871:7.22729e-06
Action^d*Ection^d:211911:7.22729e-06
H^d*o^d*_id^index2:211920:7.22729e-06
M^d*z^d:211935:7.22729e-06
Action^fff*Slot^i*_id^index1:211944:0.00504854
W^d*n^d*_id^index2:212031:7.22729e-06
N^d*g^d:212142:7.22729e-06
O^d*q^d*_id^index2:212169:7.22729e-06
F^d*j:212184:7.22729e-06
l^d*y^d:212285:7.22729e-06
(^ff*3^ff:212348:0.00048373
g^d*l^d:212381:7.22729e-06
Baction^d*Daction^d:212395:7.22729e-06
M^d*X^d:212404:7.22729e-06
X^d*daction^d*_id^index2:212484:7.22729e-06
H^d*i^g*_id^index2:212547:7.22729e-06
F^d*x^d*_id^index2:212828:7.22729e-06
)^ff*2^ff*_id^index0:212970:0.00048373
F^d*F^d*_id^index2:213040:7.22729e-06
Action^d*daction^d:213044:7.22729e-06
R^d*f^d*_id^index2:213188:7.22729e-06
Q^d*caction^d*_id^index2:213218:7.22729e-06
g^d*x^d:213315:7.22729e-06
User^b*action^d*_id^index2:213379:7.22729e-06
(^ff*1^ff:213447:0.00048373
X^d*action^d:213479:7.22729e-06
!^ff*(^ff:213672:0.00048373
Q^d*X^d:213680:7.22729e-06
V^d*X^d*_id^index2:213698:0.00028729
(^ff*(^ff*_id^index0:213724:0.00048373
Ection^d*p^d:213809:7.22729e-06
H^d*j^d*_id^index2:213828:7.22729e-06
Baction^d*O^d*_id^index2:213890:7.22729e-06
Q^d*W^d:214088:7.22729e-06
Daction^d*I^g:214162:7.22729e-06
I^g*V^d:214210:7.22729e-06
Q^d*z^d:214235:7.22729e-06
F^d*G^d:214407:7.22729e-06
L^d*action^d*_id^index2:214458:7.22729e-06
e^d*m^d*_id^index2:214525:7.22729e-06
&^ff*0^ff*_id^index0:214553:0.00048373
User^c*r^d*_id^index2:214571:0.000285482
L^d*x^d:214609:7.22729e-06
P^d*User^b*_id^index2:214734:7.22729e-06
l^d*n^d*_id^index2:214801:7.22729e-06
Q^d*Y^d:214837:7.22729e-06
O^d*x^d*_id^index2:214881:7.22729e-06
f^d*l^d:214922:7.22729e-06
action^d*z^d:214954:7.22729e-06
J^d*M^d:215072:7.22729e-06
Action^d*p^d*_id^index2:215196:7.22729e-06
Y^d*y^d*_id^index2:215318:0.00028729
T^d*v^d:215326:0.00028729
J^d*r^d*_id^index2:215329:7.22729e-06
r^d*s^d*_id^index2:215359:0.00028729
Daction^d*y^d*_id^index2:215593:7.22729e-06
H^d*q^d:215649:7.22729e-06
(^ff*)^ff*_id^index0:215784:0.00048373
(^ff*9^ff*_id^index0:215787:0.00048373
o^d*r^d:215968:7.22729e-06
G^d*t^d:215996:7.22729e-06
User^a*_id^index0:216067:0.0151324
J^d*m^d:216101:7.22729e-06
Q^d*j^d*_id^index2:216195:7.22729e-06
action^d*t^d*_id^index2:216238:7.22729e-06
6^ff*_id^index0:216554:0.00048373
e^d*f^d*_id^index2:216570:7.22729e-06
L^d*e^d:216649:7.22729e-06
T^d*o^d*_id^index2:216659:7.22729e-06
F^d*Z^d:216663:7.22729e-06
Baction^d*j^d*_id^index2:216744:7.22729e-06
I^g*I^g:216866:7.22729e-06
3^ff*5^ff*_id^index0:216877:0.00048373
M^d*y^d*_id^index2:216889:7.22729e-06
User^c*y^d*_id^index2:216905:0.000285482
Daction^d*V^d:216946:7.22729e-06
M^d*N^d*_id^index2:217001:7.22729e-06
User^c*x^d:217068:0.000285482
daction^d*y^d:217087:7.22729e-06
Q^d*j:217334:7.22729e-06
G^d*r^d*_id^index2:217412:7.22729e-06
e^d*v^d:217624:7.22729e-06
Ection^d*J^d*_id^index2:217783:7.22729e-06
action^d*j:217991:7.22729e-06
o^d*y^d*_id^index2:218096:7.22729e-06
daction^d*x^d*_id^index2:218116:7.22729e-06
I^g*O^d:218157:7.22729e-06
H^d*O^d*_id^index2:218166:7.22729e-06
l^d*s^d*_id^index2:218210:7.22729e-06
I^g*P^d*_id^index2:218316:7.22729e-06
Caction^d*Z^d:218331:7.22729e-06
User^c:218617:-0.0357804
O^d*s^d:218765:7.22729e-06
V^d*Y^d*_id^index2:218813:0.00028729
T^d*caction^d:218816:7.22729e-06
Daction^d*Q^d*_id^index2:218836:7.22729e-06
h^d*s^d:218852:7.22729e-06
Q^d*Y^d*_id^index2:218993:7.22729e-06
%^ff*4^ff:219143:0.00048373
W^d*q^d:219226:7.22729e-06
x^d*y^d*_id^index2:219591:0.00028729
h^d*l^d*_id^index2:219656:7.22729e-06
4^ff*4^ff*_id^index0:219836:0.00048373
Action^d*L^d*_id^index2:219841:7.22729e-06
caction^d*o^d*_id^index2:220033:7.22729e-06
Q^d*f^d*_id^index2:220388:7.22729e-06
M^d*Z^d:220541:7.22729e-06
action^d*daction^d*_id^index2:220681:7.22729e-06
q^d*_id^index2:220691:7.22729e-06
J^d*baction^d*_id^index2:220745:7.22729e-06
e^d*t^d*_id^index2:220887:7.22729e-06
Caction^d*G^d:220939:7.22729e-06
%^ff*3^ff:220951:0.00048373
6^ff*User^b:220991:0.00048373
Action^e*j:221062:-0.0224039
R^d*User^c:221078:0.000285482
Daction^d*O^d:221085:7.22729e-06
L^d*l^d*_id^index2:221187:7.22729e-06
&^ff*_id^index0:221337:0.00048373
Z^d*action^d*_id^index2:221446:7.22729e-06
Action^e*User^a:221492:-0.0224039
m^d*_id^index2:221594:7.22729e-06
%^ff*0^ff*_id^index0:221640:0.00048373
%^ff*(^ff*_id^index0:221713:0.00048373
User^c*w^d*_id^index2:221811:0.000285482
j^d*u^f*_id^index2:222061:7.22729e-06
g^d*r^d*_id^index2:222134:7.22729e-06
h^d*i^g*_id^index2:222144:7.22729e-06
7^ff*8^ff*_id^index0:222158:0.00048373
P^d*h^d:222254:7.22729e-06
O^d*O^d:222324:7.22729e-06
T^d:222425:0.00028729
l^d:222665:7.22729e-06
0^ff*0^ff*_id^index0:222718:0.00048373
x^d*x^d:222754:0.00028729
i^g*j:222810:7.22729e-06
L^d*s^d*_id^index2:222885:7.22729e-06
I^g*s^d:222932:7.22729e-06
Action^e*_id^index1:222950:0.00631908
Action^d*j:223070:7.22729e-06
V^d*p^d*_id^index2:223088:7.22729e-06
P^d*_id^index2:223209:7.22729e-06
%^ff*%^ff*_id^index0:223210:0.00048373
)^ff*User^b:223308:0.00048373
2^ff:223395:0.00048373
Action^ff*User^c*_id^index1:223453:0.00048373
j^d*v^d*_id^index2:223489:7.22729e-06
Caction^d*W^d*_id^index2:223552:7.22729e-06
j^d*p^d*_id^index2:223581:7.22729e-06
i^g*l^d*_id^index2:223616:7.22729e-06
Baction^d*n^d:223628:7.22729e-06
baction^d*p^d:223677:7.22729e-06
G^d*h^d*_id^index2:223759:7.22729e-06
3^ff*3^ff*_id^index0:223868:0.00048373
caction^d*p^d:223888:7.22729e-06
X^d*Z^d*_id^index2:224095:0.00028729
W^d*t^d:224427:0.00028729
Daction^d*s^d:224612:7.22729e-06
V^d*r^d:224679:0.00028729
Baction^d*X^d*_id^index2:224745:7.22729e-06
W^d*action^d*_id^index2:224771:7.22729e-06
1^ff*9^ff*_id^index0:224830:0.00048373
Baction^d*t^d*_id^index2:224842:7.22729e-06
R^d*T^d:224950:0.00028729
T^d*f^d*_id^index2:225184:7.22729e-06
R^d*l^d:225190:7.22729e-06
Y^d*s^d:225265:0.00028729
daction^d*m^d:225349:7.22729e-06
Action^d*Y^d:225437:7.22729e-06
O^d*s^d*_id^index2:225513:7.22729e-06
H^d*Y^d*_id^index2:225554:7.22729e-06
t^d*_id^index2:225652:0.00028729
&^ff*User^b:225868:0.00048373
i^g*z^d:225911:7.22729e-06
I^g*V^d*_id^index2:225912:7.22729e-06
R^d*y^d*_id^index2:225957:0.00028729
Z^d*l^d:226123:7.22729e-06
Action^d*z^d:226163:7.22729e-06
J^d*y^d:226207:7.22729e-06
Action^d*W^d:226272:7.22729e-06
J^d*z^d*_id^index2:226297:7.22729e-06
l^d*_id^index2:226421:7.22729e-06
O^d*V^d:226459:7.22729e-06
baction^d*u^f*_id^index2:226537:7.22729e-06
action^d*daction^d:226541:7.22729e-06
User^c*w^d:226559:0.000285482
Action^d*X^d:226584:7.22729e-06
P^d*o^d*_id^index2:226711:7.22729e-06
X^d*baction^d*_id^index2:226741:7.22729e-06
Ection^d*User^b:226791:7.22729e-06
Ection^d*X^d*_id^index2:226899:7.22729e-06
j^d*s^d:227135:7.22729e-06
Y^d*s^d*_id^index2:227197:0.00028729
Q^d*daction^d:227228:7.22729e-06
X^d*caction^d*_id^index2:227740:7.22729e-06
r^d*s^d:227835:0.00028729
Action^d*L^d:227845:7.22729e-06
V^d*n^d:227893:7.22729e-06
g^d*w^d:227920:7.22729e-06
)^ff*_id^index0:227993:0.00048373
Caction^d*Ection^d:228045:7.22729e-06
H^d*H^d*_id^index2:228162:7.22729e-06
Daction^d*s^d*_id^index2:228210:7.22729e-06
J^d*R^d*_id^index2:228266:7.22729e-06
M^d*l^d*_id^index2:228408:7.22729e-06
&^ff*9^ff*_id^index0:228479:0.00048373
j*j*_id^index2:228536:-0.0220582
L^d*w^d:228674:7.22729e-06
O^d*h^d*_id^index2:228783:7.22729e-06
Baction^d*r^d:228894:7.22729e-06
e^d*l^d*_id^index2:228898:7.22729e-06
i^g*z^d*_id^index2:228939:7.22729e-06
T^d*action^d*_id^index2:228957:7.22729e-06
H^d*t^d:229008:7.22729e-06
N^d:229126:7.22729e-06
G^d*q^d:229197:7.22729e-06
caction^d*t^d*_id^index2:229283:7.22729e-06
daction^d*n^d*_id^index2:229483:7.22729e-06
e^d*j:229540:7.22729e-06
Z^d*j^d*_id^index2:229624:7.22729e-06
action^d*v^d:229691:7.22729e-06
!^ff*4^ff*_id^index0:229832:0.00048373
y^d*z^d*_id^index2:229852:0.00028729
Q^d*v^d:229962:7.22729e-06
T^d*n^d*_id^index2:229985:7.22729e-06
Daction^d*r^d*_id^index2:230091:7.22729e-06
Ection^d*j^d:230176:7.22729e-06
&^ff*)^ff:230178:0.00048373
V^d*action^d*_id^index2:230221:7.22729e-06
m^d*u^f:230245:7.22729e-06
Ection^d*baction^d:230276:7.22729e-06
g^d*i^g:230309:7.22729e-06
J^d*r^d:230437:7.22729e-06
Caction^d*H^d*_id^index2:230459:7.22729e-06
daction^d*j*_id^index2:230574:7.22729e-06
L^d*i^g:230583:7.22729e-06
L^d*q^d*_id^index2:230597:7.22729e-06
P^d*u^f:230678:7.22729e-06
Daction^d*J^d*_id^index2:230758:7.22729e-06
%^ff*&^ff:231285:0.00048373
M^d*t^d:231397:7.22729e-06
h^d*s^d*_id^index2:231410:7.22729e-06
x^d*x^d*_id^index2:231576:0.00028729
X^d*o^d*_id^index2:231637:7.22729e-06
i^g*v^d*_id^index2:231692:7.22729e-06
O^d*e^d*_id^index2:231769:7.22729e-06
N^d*N^d:231796:7.22729e-06
baction^d*caction^d*_id^index2:231819:7.22729e-06
Baction^d*y^d:231844:7.22729e-06
T^d*X^d:231908:0.00028729
V^d*m^d*_id^index2:232187:7.22729e-06
F^d*User^b*_id^index2:232204:7.22729e-06
T^d*u^f*_id^index2:232208:0.00028729
q^d*y^d*_id^index2:232287:1.02196e-05
r^d*x^d*_id^index2:232311:0.00028729
R^d*u^f*_id^index2:232340:0.00028729
8^ff*9^ff:232444:0.00048373
i^g*t^d*_id^index2:232489:7.22729e-06
F^d*O^d*_id^index2:232507:7.22729e-06
T^d*Y^d:232545:0.00028729
Caction^d*r^d*_id^index2:232717:7.22729e-06
H^d*Q^d*_id^index2:232943:7.22729e-06
F^d*L^d*_id^index2:232999:7.22729e-06
Caction^d*t^d:233027:7.22729e-06
action^d*u^f*_id^index2:233107:7.22729e-06
Daction^d*p^d*_id^index2:233184:7.22729e-06
T^d*W^d:233244:0.00028729
T^d*z^d:233359:0.00028729
T^d*g^d*_id^index2:233435:7.22729e-06
User^b*u^f*_id^index2:233458:7.22729e-06
O^d*P^d:233599:7.22729e-06
L^d*V^d*_id^index2:233699:7.22729e-06
1^ff*6^ff:233720:0.00048373
p^d*w^d:233735:7.22729e-06
!^ff*$^ff:233760:0.00048373
G^d*Z^d:233764:7.22729e-06
Action^d*H^d:234093:7.22729e-06
L^d*R^d:234099:7.22729e-06
5^ff*7^ff:234104:0.00048373
g^d*g^d:234120:7.22729e-06
N^d*T^d:234155:7.22729e-06
s^d*u^f*_id^index2:234234:0.00028729
t^d*u^f:234379:0.00028729
J^d*n^d:234423:7.22729e-06
N^d*l^d:234427:7.22729e-06
e^d*z^d:234633:7.22729e-06
F^d*t^d:234703:7.22729e-06
N^d*x^d*_id^index2:234721:7.22729e-06
H^d*T^d*_id^index2:234811:7.22729e-06
L^d*g^d:234906:7.22729e-06
l^d*u^f:235146:7.22729e-06
G^d*X^d*_id^index2:235273:1.02196e-05
L^d*baction^d*_id^index2:235416:7.22729e-06
I^g*action^d:235425:7.22729e-06
0^ff*2^ff:235429:0.00048373
m^d*m^d*_id^index2:235430:7.22729e-06
caction^d*m^d*_id^index2:235593:7.22729e-06
Action^d*I^g*_id^index2:235700:7.22729e-06
%^ff*7^ff:235704:0.00048373
)^ff*)^ff:235810:0.00048373
!^ff*9^ff*_id^index0:235857:0.00048373
V^d*y^d:236061:0.00028729
Slot^h*User^b*_id^index0:236086:0.00048373
G^d*G^d:236276:7.22729e-06
I^g*f^d*_id^index2:236368:7.22729e-06
T^d*j:236450:0.00028729
Daction^d*action^d:236561:7.22729e-06
G^d*Q^d*_id^index2:236635:7.22729e-06
$^ff*%^ff:236715:0.00048373
Baction^d*caction^d*_id^index2:236821:7.22729e-06
Action^fff*User^b*_id^index1:236864:0.00504854
Q^d*caction^d:236948:7.22729e-06
P^d*daction^d*_id^index2:237106:7.22729e-06
Y^d*action^d:237188:7.22729e-06
User^b*y^d*_id^index2:237239:7.22729e-06
action^d*caction^d:237285:7.22729e-06
User^b*User^b*_id^index0:237300:0.00048373
action^d*z^d*_id^index2:237440:7.22729e-06
L^d*p^d*_id^index2:237483:7.22729e-06
I^g*P^d:237606:7.22729e-06
R^d*r^d*_id^index2:237607:0.00028729
F^d*q^d:237630:7.22729e-06
3^ff*6^ff:237753:0.00048373
2^ff*Slot^h*_id^index0:237890:0.00048373
caction^d*x^d*_id^index2:237948:7.22729e-06
!^ff*6^ff*_id^index0:238053:0.00048373
P^d*f^d:238182:7.22729e-06
L^d*i^g*_id^index2:238347:7.22729e-06
L^d*o^d:238402:7.22729e-06
y^d*j:238427:0.00028729
P^d*T^d*_id^index2:238452:7.22729e-06
H^d*Z^d:238600:7.22729e-06
H^d*L^d*_id^index2:238666:7.22729e-06
g^d*o^d:238672:7.22729e-06
Z^d*Z^d*_id^index2:238786:0.00028729
Ection^d*j*_id^index2:238981:7.22729e-06
V^d*m^d:239015:7.22729e-06
action^d*r^d*_id^index2:239112:7.22729e-06
Q^d*Q^d*_id^index2:239216:7.22729e-06
9^ff*_id^index0:239310:0.00048373
P^d*q^d*_id^index2:239590:7.22729e-06
O^d*action^d:239608:7.22729e-06
Action^d*e^d*_id^index2:239782:7.22729e-06
baction^d*baction^d:239880:7.22729e-06
baction^d*j^d:240044:7.22729e-06
p^d*x^d:240148:7.22729e-06
Action^d*caction^d:240188:7.22729e-06
caction^d*j^d:240257:7.22729e-06
Daction^d*P^d:240534:7.22729e-06
Y^d*j^d*_id^index2:240596:7.22729e-06
0^ff*User^b*_id^index0:240705:0.00048373
Daction^d*t^d*_id^index2:240753:7.22729e-06
Action^fff*User^a*_id^index0:240815:0.0151324
H^d*h^d*_id^index2:240955:7.22729e-06
N^d*j^d*_id^index2:241448:7.22729e-06
I^g*u^f*_id^index2:241504:7.22729e-06
P^d*Q^d:241570:7.22729e-06
daction^d*n^d:241623:7.22729e-06
caction^d*r^d*_id^index2:241737:7.22729e-06
X^d*s^d:241810:0.00028729
Ection^d*M^d*_id^index2:241973:7.22729e-06
g^d*l^d*_id^index2:241977:7.22729e-06
Baction^d*M^d:242203:7.22729e-06
g^d*y^d*_id^index2:242232:7.22729e-06
R^d*baction^d*_id^index2:242255:7.22729e-06
N^d*r^d*_id^index2:242340:7.22729e-06
M^d*q^d:242452:7.22729e-06
T^d*Y^d*_id^index2:242605:0.00028729
Q^d*X^d*_id^index2:242702:7.22729e-06
9^ff*User^b:242715:0.00048373
l^d*u^f*_id^index2:242720:7.22729e-06
Action^d*g^d*_id^index2:242815:7.22729e-06
j^d*n^d*_id^index2:242820:7.22729e-06
r^d*v^d*_id^index2:242829:0.00028729
X^d*x^d*_id^index2:242832:0.00028729
J^d:242867:7.22729e-06
i^g*v^d:242918:7.22729e-06
Action^d*v^d:243170:7.22729e-06
Baction^d*m^d:243230:7.22729e-06
Q^d*baction^d*_id^index2:243247:7.22729e-06
W^d*Z^d:243251:0.00028729
s^d*t^d:243395:0.00028729
User^b*l^d:243404:7.22729e-06
y^d*z^d:243574:0.00028729
Caction^d*L^d*_id^index2:243587:7.22729e-06
8^ff*Slot^h:243617:0.00048373
!^ff*0^ff:243719:0.00048373
daction^d*r^d:243781:7.22729e-06
G^d*W^d*_id^index2:243985:7.22729e-06
W^d*e^d*_id^index2:244000:7.22729e-06
!^ff*0^ff*_id^index0:244183:0.00048373
caction^d*j*_id^index2:244214:7.22729e-06
Caction^d*q^d:244402:7.22729e-06
%^ff*3^ff*_id^index0:244711:0.00048373
o^d*y^d:244762:7.22729e-06
o^d*p^d*_id^index2:244793:7.22729e-06
T^d*daction^d:244936:7.22729e-06
q^d*u^f:244972:7.22729e-06
$^ff*1^ff:245743:0.00048373
W^d*Y^d*_id^index2:245747:0.00028729
baction^d*n^d*_id^index2:245832:7.22729e-06
daction^d*h^d*_id^index2:245838:7.22729e-06
N^d*l^d*_id^index2:245887:7.22729e-06
Ection^d*y^d*_id^index2:245916:7.22729e-06
R^d*g^d:245939:7.22729e-06
Baction^d*_id^index2:245996:7.22729e-06
Y^d*j*_id^index2:246027:0.00028729
H^d*Y^d:246084:7.22729e-06
n^d*x^d:246093:7.22729e-06
Slot^h*User^a*_id^index0:246098:0.0151324
T^d*baction^d*_id^index2:246131:7.22729e-06
User^b*e^d:246282:7.22729e-06
H^d*W^d:246329:7.22729e-06
daction^d*e^d*_id^index2:246348:7.22729e-06
1^ff*3^ff*_id^index2:246431:7.22729e-06
H^d*z^d:246442:7.22729e-06
Baction^d*h^d:246571:7.22729e-06
daction^d*f^d:246584:7.22729e-06
$^ff*3^ff:246612:0.00048373
baction^d*i^g*_id^index2:246841:7.22729e-06
G^d*o^d*_id^index2:246844:7.22729e-06
$^ff*4^ff:246852:0.00048373
Action^d*Caction^d*_id^index2:246870:7.22729e-06
W^d*j:246972:0.00028729
H^d*X^d:246977:1.02196e-05
Y^d*x^d*_id^index2:246981:0.00028729
User^a*v^d*_id^index0:247022:7.22729e-06
Caction^d*n^d*_id^index2:247031:7.22729e-06
J^d*n^d*_id^index2:247307:7.22729e-06
!^ff*!^ff*_id^index0:247348:0.00048373
p^d*q^d*_id^index2:247370:7.22729e-06
baction^d*l^d*_id^index2:247457:7.22729e-06
R^d*R^d:247642:0.00028729
z^d*z^d*_id^index2:247718:0.00028729
caction^d*h^d*_id^index2:247894:7.22729e-06
Z^d*x^d*_id^index2:247953:0.00028729
s^d*j*_id^index2:247970:0.00028729
T^d*y^d*_id^index2:247977:0.00028729
F^d*caction^d*_id^index2:248016:7.22729e-06
m^d*n^d:248058:7.22729e-06
t^d*y^d*_id^index2:248170:0.00028729
F^d*H^d:248299:7.22729e-06
User^b*x^d:248338:7.22729e-06
l^d*r^d:248455:7.22729e-06
g^d:248540:7.22729e-06
Ection^d*T^d*_id^index2:248741:7.22729e-06
H^d*L^d:248796:7.22729e-06
Q^d*q^d:248848:7.22729e-06
