Version 9.9.0
Id
Min label:-1
Max label:0
bits:17
lda:0
0 ngram:
0 skip:
options: --cb_adf --cb_explore_adf --cb_type mtr --csoaa_ldf multiline --csoaa_rank --noconstant
Checksum: 4293058053
event_sum 36
action_sum 108
:0
E^9:12816:-0.213881
E^13:12820:-0.269567
E^20:12827:-0.190444
E^23:12830:-0.129985
E^24:12831:-0.520385
E^26:12833:-0.198087
E^39:12846:-0.234515
E^42:12849:-0.171657
E^45:12852:-0.361283
E^49:12856:-0.242972
E^50:12857:-0.301883
E^51:12858:-0.283487
E^52:12859:-0.243499
E^53:12860:-0.190368
E^55:12862:-0.155774
E^63:12870:-0.2532
E^69:12876:-0.503332
E^73:12880:-0.391708
E^79:12886:-0.326499
E^85:12892:-0.172791
E^101:12908:-0.20637
E^107:12914:-0.274397
E^110:12917:-0.2042
E^111:12918:-0.0623351
E^130:12937:-0.158499
E^131:12938:-0.121691
E^140:12947:-0.33045
E^152:12959:-0.140617
E^161:12968:-0.277034
E^169:12976:-0.250883
E^179:12986:-0.143989
E^182:12989:-0.119878
E^188:12995:-0.485159
E^189:12996:-0.20094
E^193:13000:-0.236114
E^217:13024:-0.0903949
E^221:13028:-0.075951
E^225:13032:-0.199461
E^231:13038:-0.191387
E^232:13039:-0.306322
E^233:13040:-0.345125
E^236:13043:-0.19881
E^239:13046:-0.188992
E^246:13053:-0.0839881
E^252:13059:-0.212556
E^269:13076:-0.297167
E^271:13078:-0.262485
E^276:13083:-0.402684
E^286:13093:-0.213572
E^293:13100:-0.256983
E^297:13104:-0.0583866
E^298:13105:-0.128573
E^301:13108:-0.0762486
E^309:13116:-0.150883
E^312:13119:-0.19987
E^339:13146:-0.212352
E^342:13149:-0.0953405
E^354:13161:-0.312556
E^360:13167:-0.135879
E^363:13170:-0.0874653
E^365:13172:-0.215562
E^378:13185:-0.153416
E^438:13245:-0.163289
E^454:13261:-0.185451
E^464:13271:-0.331811
E^478:13285:-0.196603
E^480:13287:-0.134172
E^481:13288:-0.166513
E^497:13304:-0.17274
E^510:13317:-0.210726
E^512:13319:-0.133739
E^516:13323:-0.192621
E^526:13333:-0.263198
E^533:13340:-0.493857
E^548:13355:-0.121617
E^557:13364:-0.137948
E^558:13365:-0.183847
E^564:13371:-0.162571
E^581:13388:-0.116289
E^585:13392:-0.15394
E^586:13393:-0.187719
E^607:13414:-0.179033
E^613:13420:-0.18057
E^617:13424:-0.176306
E^623:13430:-0.260997
E^638:13445:-0.149074
E^642:13449:-0.0924648
E^651:13458:-0.13891
E^655:13462:-0.250179
E^664:13471:-0.148005
E^673:13480:-0.196126
E^702:13509:-0.249794
E^723:13530:-0.122556
E^724:13531:-0.095375
E^725:13532:-0.0882805
E^726:13533:-0.068398
E^733:13540:-0.1061
E^750:13557:-0.0542471
E^751:13558:-0.155798
E^760:13567:-0.150251
E^768:13575:-0.194629
E^789:13596:-0.162945
E^800:13607:-0.117444
E^802:13609:-0.293174
E^805:13612:-0.102584
E^836:13643:-0.180267
E^842:13649:-0.446641
E^882:13689:-0.0374215
E^889:13696:-0.104597
E^945:13752:-0.144107
E^955:13762:-0.131438
E^968:13775:-0.107832
E^973:13780:-0.131448
E^1003:13810:-0.121053
E^1011:13818:-0.197726
E^1036:13843:-0.110978
E^1038:13845:-0.17033
E^1040:13847:-0.163442
E^1056:13863:-0.1464
E^1059:13866:-0.268632
E^1062:13869:-0.16822
E^1063:13870:-0.0962921
E^1081:13888:-0.0814555
E^1110:13917:-0.179689
E^1118:13925:-0.143479
E^1126:13933:-0.100967
E^1130:13937:-0.157194
E^1131:13938:-0.106584
E^1133:13940:-0.153416
E^1136:13943:-0.133841
E^1162:13969:-0.143394
E^1164:13971:-0.0549858
E^1173:13980:-0.28556
E^1188:13995:-0.195692
E^1193:14000:-0.193298
E^1196:14003:-0.268409
E^1213:14020:-0.246284
E^1214:14021:-0.141879
E^1221:14028:-0.150489
E^1223:14030:-0.0908534
E^1263:14070:-0.0904739
E^1287:14094:-0.0593547
E^1298:14105:-0.0730155
E^1304:14111:-0.0541834
E^1305:14112:-0.177477
E^1335:14142:-0.15784
E^1350:14157:-0.148992
E^1380:14187:-0.194084
E^1389:14196:-0.156819
E^1394:14201:-0.118709
E^1416:14223:-0.230465
E^1417:14224:-0.162537
E^1419:14226:-0.201135
E^1422:14229:-0.179289
E^1443:14250:-0.130351
E^1451:14258:-0.101209
E^1454:14261:-0.332125
E^1455:14262:-0.166339
E^1456:14263:-0.11904
E^1479:14286:-0.14256
E^1540:14347:-0.135446
E^1546:14353:-0.074741
E^1575:14382:-0.231345
E^1589:14396:-0.0662072
E^1594:14401:-0.0453949
E^1647:14454:-0.130427
E^1690:14497:-0.149707
E^1705:14512:-0.110366
E^1735:14542:-0.0789315
E^1776:14583:-0.0827654
E^1865:14672:-0.0946939
E^1881:14688:-0.0652647
E^1890:14697:-0.156751
E^1933:14740:-0.0680031
E^1965:14772:-0.0914393
E^1998:14805:-0.198702
E^2014:14821:-0.108676
E^2024:14831:-0.151748
E^2028:14835:-0.0998327
E^2071:14878:-0.0920634
E^2074:14881:-0.208027
E^2083:14890:-0.110405
E^2098:14905:-0.121027
E^2099:14906:-0.120314
E^2107:14914:-0.0661308
E^2115:14922:-0.107881
E^2126:14933:-0.157874
E^2166:14973:-0.137693
E^2207:15014:-0.0483881
E^2234:15041:-0.144591
E^2248:15055:-0.162094
E^2259:15066:-0.0910354
E^2298:15105:-0.631916
E^2323:15130:-0.127058
E^2362:15169:-0.240708
E^2367:15174:-0.198938
E^2380:15187:-0.119537
E^2433:15240:-0.146916
E^2477:15284:-0.128385
E^2493:15300:-0.268653
E^2495:15302:-0.118251
E^2538:15345:-0.147324
E^2563:15370:-0.120933
E^2602:15409:-0.201587
E^2614:15421:-0.153008
E^2812:15619:-0.104495
E^2849:15656:-0.063405
E^2974:15781:-0.0788169
E^3008:15815:-0.169547
E^3027:15834:-0.0700888
E^3144:15951:-0.113947
E^3231:16038:-0.102189
E^3236:16043:-0.0696464
E^3306:16113:-0.15566
E^3307:16114:-0.0681111
E^3327:16134:-0.155896
E^3457:16264:-0.123677
E^3536:16343:-0.103253
E^3577:16384:-0.0754658
E^3772:16579:-0.122607
E^3800:16607:-0.132265
E^3825:16632:-0.0646692
E^3845:16652:-0.13589
E^3910:16717:-0.0716969
E^3993:16800:-0.090726
E^4045:16852:-0.0701909
E^4138:16945:-0.0777597
E^4300:17107:-0.0574567
E^4337:17144:-0.10638
E^4594:17401:-0.0774227
E^4599:17406:-0.085199
E^4728:17535:-0.0845231
E^5158:17965:-0.125595
E^5230:18037:-0.0484072
E^5313:18120:-0.235126
E^5492:18299:-0.0854019
E^5597:18404:-0.0534727
E^6051:18858:-0.0447605
E^6229:19036:-0.135181
E^6578:19385:-0.0949491
E^6762:19569:-0.10019
E^7351:20158:-0.1145
E^8066:20873:-0.0812624
E^8081:20888:-0.0999008
E^8240:21047:-0.0424144
E^8256:21063:-0.0342617
E^8269:21076:-0.0904399
E^8272:21079:-0.0857094
E^8273:21080:-0.046377
E^8284:21091:-0.0278296
E^8287:21094:-0.0317901
E^8395:21202:-0.0811492
E^8421:21228:-0.0929582
E^8467:21274:-0.0900996
E^8615:21422:-0.0978759
E^8734:21541:-0.039141
E^9898:22705:-0.0261173
D^5:22795:-0.537042
D^9:22799:-0.235053
D^13:22803:-0.120201
D^14:22804:-0.203782
D^15:22805:-0.192092
D^16:22806:-0.13905
D^17:22807:-0.412993
D^18:22808:-0.270572
D^19:22809:-0.175139
D^20:22810:-0.601726
D^21:22811:-0.406531
D^24:22814:-0.692882
D^26:22816:-0.109151
D^33:22823:-0.237161
D^35:22825:-0.0805041
D^36:22826:-0.0992233
D^39:22829:-0.100072
D^40:22830:-0.0848872
D^41:22831:-0.127264
D^45:22835:-0.164027
D^47:22837:-0.109975
D^49:22839:-0.293419
D^50:22840:-0.132748
D^51:22841:-0.115856
D^52:22842:-0.285127
D^54:22844:-0.0569728
D^55:22845:-0.0763219
D^61:22851:-0.368765
D^63:22853:-0.170544
D^64:22854:-0.326935
D^69:22859:-0.574102
D^70:22860:-0.177523
D^73:22863:-0.465038
D^74:22864:-0.102921
D^77:22867:-0.16185
D^79:22869:-0.167818
D^80:22870:-0.131127
D^84:22874:-0.144618
D^85:22875:-0.306734
D^90:22880:-0.0876243
D^91:22881:-0.114057
D^92:22882:-0.0963714
D^95:22885:-0.118283
D^99:22889:-0.203176
D^102:22892:-0.542641
D^103:22893:-0.189223
D^104:22894:-0.0603111
D^107:22897:-0.23799
D^111:22901:-0.0844581
D^112:22902:-0.135549
D^117:22907:-0.20274
D^121:22911:-0.123876
D^125:22915:-0.0852079
D^128:22918:-0.201152
D^138:22928:-0.292425
D^140:22930:-0.350679
D^142:22932:-0.138638
D^144:22934:-0.127577
D^147:22937:-0.279443
D^148:22938:-0.0738414
D^152:22942:-0.106171
D^161:22951:-0.158022
D^167:22957:-0.104753
D^169:22959:-0.147093
D^171:22961:-0.0893852
D^175:22965:-0.208719
D^176:22966:-0.220972
D^179:22969:-0.165138
D^180:22970:-0.225307
D^182:22972:-0.178859
D^183:22973:-0.149237
D^184:22974:-0.190928
D^187:22977:-0.116492
D^189:22979:-0.0896149
D^193:22983:-0.0817865
D^197:22987:-0.110446
D^204:22994:-0.110604
D^207:22997:-0.16699
D^208:22998:-0.0757307
D^209:22999:-0.156308
D^210:23000:-0.146213
D^213:23003:-0.178236
D^215:23005:-0.115435
D^218:23008:-0.182172
D^220:23010:-0.110872
D^221:23011:-0.120373
D^222:23012:-0.0473722
D^223:23013:-0.342695
D^224:23014:-0.292965
D^225:23015:-0.0690869
D^228:23018:-0.0611038
D^229:23019:-0.182522
D^231:23021:-0.134689
D^232:23022:-0.250411
D^234:23024:-0.148892
D^236:23026:-0.228406
D^239:23029:-0.225157
D^240:23030:-0.301802
D^242:23032:-0.200543
D^246:23036:-0.0455601
D^252:23042:-0.160472
D^257:23047:-0.173234
D^258:23048:-0.132695
D^259:23049:-0.146844
D^262:23052:-0.0889071
D^263:23053:-0.0749262
D^264:23054:-0.0697281
D^269:23059:-0.174292
D^271:23061:-0.148999
D^276:23066:-0.0781498
D^277:23067:-0.134529
D^279:23069:-0.0867195
D^283:23073:-0.0725555
D^284:23074:-0.100749
D^286:23076:-0.196991
D^288:23078:-0.184589
D^293:23083:-0.599119
D^295:23085:-0.280051
D^298:23088:-0.225169
D^301:23091:-0.1141
D^305:23095:-0.167471
D^309:23099:-0.131048
D^313:23103:-0.175615
D^318:23108:-0.160433
D^319:23109:-0.164437
D^320:23110:-0.250887
D^321:23111:-0.109616
D^326:23116:-0.136847
D^327:23117:-0.321992
D^331:23121:-0.0697563
D^334:23124:-0.119206
D^336:23126:-0.199991
D^339:23129:-0.419464
D^347:23137:-0.215303
D^348:23138:-0.0952403
D^349:23139:-0.235252
D^354:23144:-0.0607704
D^359:23149:-0.106094
D^364:23154:-0.37905
D^365:23155:-0.187211
D^370:23160:-0.114229
D^374:23164:-0.127589
D^388:23178:-0.118741
D^394:23184:-0.107434
D^411:23201:-0.181441
D^417:23207:-0.206332
D^425:23215:-0.127349
D^426:23216:-0.0580812
D^430:23220:-0.0677471
D^433:23223:-0.161408
D^434:23224:-0.109004
D^437:23227:-0.114134
D^439:23229:-0.103836
D^443:23233:-0.0761049
D^453:23243:-0.121453
D^454:23244:-0.161122
D^466:23256:-0.093919
D^469:23259:-0.121329
D^474:23264:-0.103862
D^475:23265:-0.0771833
D^476:23266:-0.105616
D^478:23268:-0.132682
D^481:23271:-0.0833001
D^489:23279:-0.105482
D^493:23283:-0.0579548
D^495:23285:-0.0522052
D^497:23287:-0.15006
D^501:23291:-0.105329
D^504:23294:-0.131272
D^506:23296:-0.316213
D^507:23297:-0.0787697
D^511:23301:-0.258755
D^512:23302:-0.116178
D^514:23304:-0.138452
D^516:23306:-0.100569
D^518:23308:-0.0790303
D^519:23309:-0.134626
D^532:23322:-0.112327
D^533:23323:-0.303414
D^539:23329:-0.130228
D^545:23335:-0.0711445
D^546:23336:-0.287674
D^550:23340:-0.122598
D^555:23345:-0.0932133
D^557:23347:-0.0930457
D^558:23348:-0.081997
D^559:23349:-0.106527
D^561:23351:-0.110244
D^571:23361:-0.0761497
D^575:23365:-0.160225
D^576:23366:-0.114006
D^580:23370:-0.146049
D^581:23371:-0.101018
D^582:23372:-0.11908
D^584:23374:-0.0501859
D^585:23375:-0.0686754
D^587:23377:-0.234318
D^591:23381:-0.110468
D^593:23383:-0.14917
D^603:23393:-0.107955
D^605:23395:-0.0466684
D^606:23396:-0.176863
D^613:23403:-0.192513
D^620:23410:-0.199348
D^627:23417:-0.122001
D^631:23421:-0.0513404
D^638:23428:-0.112545
D^642:23432:-0.20424
D^644:23434:-0.168109
D^646:23436:-0.145221
D^647:23437:-0.110401
D^648:23438:-0.0632013
D^655:23445:-0.260158
D^660:23450:-0.217442
D^675:23465:-0.160603
D^678:23468:-0.0658043
D^697:23487:-0.0750778
D^702:23492:-0.362033
D^724:23514:-0.2765
D^733:23523:-0.0746581
D^751:23541:-0.137745
D^755:23545:-0.101936
D^763:23553:-0.0502178
D^764:23554:-0.130555
D^767:23557:-0.159838
D^768:23558:-0.172063
E^10752:23559:-0.0450498
D^773:23563:-0.294203
D^774:23564:-0.0631775
D^777:23567:-0.0688572
D^778:23568:-0.0695941
D^784:23574:-0.109169
D^802:23592:-0.154531
D^811:23601:-0.179646
D^812:23602:-0.0976588
D^814:23604:-0.133153
D^817:23607:-0.108251
D^820:23610:-0.254983
D^838:23628:-0.138518
D^842:23632:-0.543578
D^858:23648:-0.13247
D^860:23650:-0.0870692
D^865:23655:-0.0892129
E^10873:23680:-0.050254
D^910:23700:-0.0935386
E^10894:23701:-0.0201659
D^915:23705:-0.131661
D^925:23715:-0.107602
D^926:23716:-0.0404339
D^927:23717:-0.12789
D^937:23727:-0.0398121
D^945:23735:-0.108793
D^954:23744:-0.0595263
D^963:23753:-0.0308491
D^965:23755:-0.0823751
D^995:23785:-0.286726
E^10983:23790:-0.121486
D^1009:23799:-0.0429902
D^1012:23802:-0.0642157
D^1028:23818:-0.264161
D^1029:23819:-0.123646
D^1036:23826:-0.11021
D^1040:23830:-0.0354143
D^1056:23846:-0.174426
D^1059:23849:-0.295073
D^1071:23861:-0.218087
D^1086:23876:-0.177575
D^1094:23884:-0.113751
D^1099:23889:-0.103606
D^1100:23890:-0.0913438
D^1110:23900:-0.166259
D^1118:23908:-0.126822
D^1121:23911:-0.0722833
D^1122:23912:-0.155553
D^1124:23914:-0.125361
D^1127:23917:-0.286722
D^1132:23922:-0.0756903
D^1136:23926:-0.0597082
D^1142:23932:-0.139062
D^1145:23935:-0.259003
D^1173:23963:-0.146565
D^1179:23969:-0.174898
D^1183:23973:-0.0712195
D^1185:23975:-0.104217
D^1186:23976:-0.10422
D^1204:23994:-0.0508653
D^1213:24003:-0.131039
D^1217:24007:-0.103935
E^11205:24012:-0.204631
D^1232:24022:-0.112919
D^1235:24025:-0.102018
D^1237:24027:-0.13565
D^1238:24028:-0.0345961
D^1240:24030:-0.116239
D^1243:24033:-0.0342372
D^1250:24040:-0.0694305
D^1264:24054:-0.0745709
D^1288:24078:-0.0644166
D^1295:24085:-0.111677
D^1297:24087:-0.081233
D^1298:24088:-0.0920257
D^1304:24094:-0.112327
D^1314:24104:-0.0930755
D^1315:24105:-0.0772215
D^1317:24107:-0.0647421
D^1321:24111:-0.0600335
D^1331:24121:-0.0375374
D^1339:24129:-0.0575535
D^1342:24132:-0.171444
D^1345:24135:-0.0260021
D^1360:24150:-0.0884856
D^1373:24163:-0.10721
D^1389:24179:-0.0919691
D^1392:24182:-0.0316437
D^1398:24188:-0.115462
D^1399:24189:-0.159384
D^1411:24201:-0.0973901
D^1420:24210:-0.0399267
D^1422:24212:-0.101974
D^1424:24214:-0.073671
D^1426:24216:-0.295153
D^1434:24224:-0.093998
D^1452:24242:-0.264823
D^1454:24244:-0.135284
D^1455:24245:-0.103262
D^1506:24296:-0.143709
D^1511:24301:-0.179155
D^1527:24317:-0.072312
D^1528:24318:-0.150779
D^1536:24326:-0.117527
D^1538:24328:-0.0547604
D^1540:24330:-0.117656
D^1544:24334:-0.112181
D^1545:24335:-0.0783412
D^1546:24336:-0.11844
D^1548:24338:-0.0762837
D^1557:24347:-0.137318
D^1573:24363:-0.105765
D^1574:24364:-0.0808076
D^1623:24413:-0.117273
D^1629:24419:-0.162981
D^1643:24433:-0.162159
D^1654:24444:-0.115187
D^1659:24449:-0.122044
D^1665:24455:-0.104412
D^1666:24456:-0.348121
D^1674:24464:-0.253055
D^1725:24515:-0.117161
D^1727:24517:-0.162773
D^1750:24540:-0.0892947
D^1757:24547:-0.0876601
D^1765:24555:-0.2755
D^1772:24562:-0.106653
D^1775:24565:-0.0910158
D^1776:24566:-0.121687
D^1777:24567:-0.119078
D^1784:24574:-0.0895546
D^1788:24578:-0.0732021
D^1798:24588:-0.123695
D^1837:24627:-0.115462
D^1854:24644:-0.0749821
D^1865:24655:-0.14839
D^1871:24661:-0.15804
D^1888:24678:-0.0874137
D^1898:24688:-0.0777732
D^1935:24725:-0.108945
D^1987:24777:-0.0891658
D^1994:24784:-0.137273
D^2025:24815:-0.110795
D^2028:24818:-0.114006
E^12062:24869:-0.0748449
D^2080:24870:-0.13523
D^2097:24887:-0.0881884
E^12092:24899:-0.0601953
D^2123:24913:-0.124198
D^2125:24915:-0.1078
D^2126:24916:-0.0629038
D^2128:24918:-0.0936152
D^2153:24943:-0.121349
D^2160:24950:-0.0562529
D^2173:24963:-0.102695
D^2182:24972:-0.130605
D^2212:25002:-0.110177
D^2213:25003:-0.107459
D^2214:25004:-0.135479
D^2229:25019:-0.158098
D^2234:25024:-0.0391132
D^2262:25052:-0.0782891
D^2269:25059:-0.043582
D^2305:25095:-0.0868426
D^2311:25101:-0.0610563
D^2339:25129:-0.0864759
D^2360:25150:-0.0686855
D^2377:25167:-0.096085
D^2409:25199:-0.0464535
D^2470:25260:-0.124245
D^2509:25299:-0.115712
D^2520:25310:-0.0930233
D^2577:25367:-0.0834708
D^2658:25448:-0.0723091
D^2678:25468:-0.0728018
D^2757:25547:-0.0709435
D^2760:25550:-0.0634501
D^2773:25563:-0.139827
D^2791:25581:-0.0621532
D^2800:25590:-0.0238716
D^2801:25591:-0.0255904
D^2803:25593:-0.0761114
D^2874:25664:-0.0899689
D^2933:25723:-0.0695508
D^2938:25728:-0.0536563
D^2942:25732:-0.0831263
D^2984:25774:-0.113261
D^2986:25776:-0.0911835
D^2988:25778:-0.10572
D^3008:25798:-0.149905
D^3045:25835:-0.0684173
D^3065:25855:-0.072937
D^3069:25859:-0.0525715
D^3118:25908:-0.0686275
D^3192:25982:-0.117917
D^3247:26037:-0.102339
D^3257:26047:-0.0645093
D^3266:26056:-0.154433
D^3270:26060:-0.0641019
D^3272:26062:-0.066168
D^3287:26077:-0.0692748
D^3309:26099:-0.0636511
D^3368:26158:-0.144259
D^3369:26159:-0.0883135
D^3457:26247:-0.0934238
D^3478:26268:-0.0677471
D^3486:26276:-0.030321
D^3533:26323:-0.0452094
D^3540:26330:-0.181431
D^3562:26352:-0.0305096
D^3635:26425:-0.0849952
D^3641:26431:-0.0610339
D^3737:26527:-0.0639533
D^3741:26531:-0.0361734
D^3811:26601:-0.0731064
D^3815:26605:-0.0773433
E^13810:26617:-0.0396557
E^13811:26618:-0.0694297
D^3834:26624:-0.0965202
D^3841:26631:-0.12639
D^3843:26633:-0.0673515
D^3844:26634:-0.0952173
D^3899:26689:-0.0426829
D^3909:26699:-0.059332
D^3912:26702:-0.0781763
D^4075:26865:-0.116381
D^4107:26897:-0.0701875
D^4123:26913:-0.0360364
D^4253:27043:-0.136684
D^4254:27044:-0.12935
D^4277:27067:-0.0714316
D^4347:27137:-0.116698
E^14387:27194:-0.0869346
D^4456:27246:-0.0819944
D^4531:27321:-0.0702895
B^99:27373:-0.061762
B^107:27381:-0.0642457
D^4608:27398:-0.0519421
D^4779:27569:-0.114777
B^326:27600:-0.038243
D^4852:27642:-0.0595359
B^478:27752:-0.123351
D^5020:27810:-0.0564543
D^5148:27938:-0.0543494
D^5158:27948:-0.0736423
D^5224:28014:-0.0697787
D^5237:28027:-0.0724092
D^5388:28178:-0.0642157
D^5483:28273:-0.0783442
D^5500:28290:-0.0431231
E^const:28308:-3.09774
D^5670:28460:-0.0555834
D^5671:28461:-0.0351512
D^5695:28485:-0.0691516
D^5733:28523:-0.0638329
D^5775:28565:-0.103657
B^1458:28732:-0.0590745
D^5991:28781:-0.103518
B^1596:28870:-0.105528
D^6198:28988:-0.0621103
D^6429:29219:-0.0767207
D^6527:29317:-0.055392
D^6607:29397:-0.0634884
B^2125:29399:-0.0241964
D^7703:30493:-0.0547604
D^7851:30641:-0.0653651
D^7877:30667:-0.0560632
D^8002:30792:-0.0500274
D^8058:30848:-0.0572295
D^8240:31030:-0.0672016
D^8288:31078:-0.0668563
E^18535:31342:-0.0889084
E^18656:31463:-0.0754148
E^18661:31468:-0.0192621
E^18665:31472:-0.0370608
E^18666:31473:-0.0963104
E^18668:31475:-0.0743598
D^8871:31661:-0.0889017
E^18873:31680:-0.0529225
D^9133:31923:-0.042604
D^9271:32061:-0.0589065
D^9412:32202:-0.0678164
D^9527:32317:-0.063766
D^9725:32515:-0.0838444
D^9982:32772:-0.0675681
D^10008:32798:-0.0539799
D^10103:32893:-0.0775441
E^20228:33035:-0.0690423
D^10258:33048:-0.0274098
E^20770:33577:-0.0618257
D^10924:33714:-0.0603398
D^11197:33987:-0.0709193
D^11276:34066:-0.0643482
D^11730:34520:-0.047956
D^12090:34880:-0.0465301
D^14007:36797:-0.0499603
E^24559:37366:-0.0690423
E^25081:37888:-0.0932816
D^15455:38245:-0.0240033
D^16540:39330:-0.0695143
D^18856:41646:-0.0434006
D^18857:41647:-0.0202839
D^18871:41661:-0.0443385
D^19029:41819:-0.0528938
D^const:42027:-4.35979
D^19665:42455:-0.0440819
D^19673:42463:-0.0548542
D^21829:44619:-0.0343999
E^32020:44827:-0.0640292
D^22746:45536:-0.0458602
D^23196:45986:-0.0623011
E^33705:46512:-0.0615383
D^24525:47315:-0.0680907
D^25512:48302:-0.0453864
D^26948:49738:-0.0341568
E^40982:53789:-0.0296582
D^31213:54003:-0.0376585
D^31214:54004:-0.0361752
D^31407:54197:-0.0457391
D^32228:55018:-0.0385619
D^34095:56885:-0.0439812
D^35602:58392:-0.0568704
D^36353:59143:-0.0390175
D^36354:59144:-0.0450371
D^36877:59667:-0.065315
A^5:63443:-0.142443
A^10:63448:-0.217064
A^13:63451:-0.697412
A^14:63452:-0.159938
A^15:63453:-0.279971
A^17:63455:-0.572064
A^18:63456:-0.144003
A^19:63457:-0.223013
A^20:63458:-0.397327
A^21:63459:-0.481788
A^24:63462:-0.548386
A^26:63464:-0.217932
A^35:63473:-0.481763
A^39:63477:-0.235114
A^41:63479:-0.185465
A^45:63483:-0.42484
A^48:63486:-0.0661902
A^49:63487:-0.0978348
A^50:63488:-0.189687
A^51:63489:-0.296335
A^53:63491:-0.044053
A^54:63492:-0.340508
A^55:63493:-0.243886
A^56:63494:-0.15593
A^63:63501:-0.102128
A^64:63502:-0.143312
A^67:63505:-0.105666
A^69:63507:-0.321149
A^70:63508:-0.209049
A^73:63511:-0.387345
A^74:63512:-0.195679
A^79:63517:-0.0850974
A^84:63522:-0.153908
A^85:63523:-0.295559
A^90:63528:-0.289597
A^91:63529:-0.102948
A^92:63530:-0.140474
A^98:63536:-0.181954
A^104:63542:-0.125037
A^106:63544:-0.113176
A^107:63545:-0.157082
A^136:63574:-0.114832
A^140:63578:-0.295413
A^144:63582:-0.10015
A^156:63594:-0.177672
A^157:63595:-0.0940829
A^161:63599:-0.342669
A^170:63608:-0.213795
A^173:63611:-0.115391
A^175:63613:-0.101225
A^182:63620:-0.13318
A^183:63621:-0.134724
A^188:63626:-0.75099
A^191:63629:-0.090716
A^205:63643:-0.0842559
A^217:63655:-0.147009
A^218:63656:-0.0812466
A^220:63658:-0.1457
A^223:63661:-0.0912416
A^224:63662:-0.230022
A^229:63667:-0.339889
A^230:63668:-0.240202
A^234:63672:-0.480113
A^236:63674:-0.341776
A^238:63676:-0.342231
A^239:63677:-0.240703
A^240:63678:-0.353482
A^247:63685:-0.125164
A^252:63690:-0.331433
A^254:63692:-0.0586462
A^257:63695:-0.196288
A^263:63701:-0.0899713
A^271:63709:-0.242666
A^284:63722:-0.0980277
A^286:63724:-0.313267
A^287:63725:-0.0880013
A^288:63726:-0.226001
A^297:63735:-0.131443
A^305:63743:-0.100963
A^309:63747:-0.139514
A^311:63749:-0.0529295
A^312:63750:-0.299608
A^320:63758:-0.0731349
A^321:63759:-0.226414
A^334:63772:-0.246274
A^337:63775:-0.516314
A^338:63776:-0.0407484
A^339:63777:-0.312982
A^341:63779:-0.0822149
A^345:63783:-0.0860637
A^348:63786:-0.184647
A^353:63791:-0.231089
A^354:63792:-0.185827
A^363:63801:-0.0596271
A^364:63802:-0.138519
A^368:63806:-0.135353
A^374:63812:-0.0680373
A^386:63824:-0.0936013
A^387:63825:-0.13003
A^388:63826:-0.058606
A^394:63832:-0.244209
A^417:63855:-0.177647
A^433:63871:-0.188885
A^434:63872:-0.170149
A^437:63875:-0.139725
A^438:63876:-0.279313
A^443:63881:-0.163241
A^452:63890:-0.251591
A^453:63891:-0.123162
A^456:63894:-0.062985
A^464:63902:-0.238206
A^465:63903:-0.0807248
A^467:63905:-0.186907
A^468:63906:-0.212761
A^471:63909:-0.239457
A^484:63922:-0.11523
A^488:63926:-0.223527
A^497:63935:-0.117759
A^501:63939:-0.0561617
A^510:63948:-0.104228
A^518:63956:-0.178992
A^520:63958:-0.0464249
A^529:63967:-0.084536
A^533:63971:-0.973147
A^534:63972:-0.194086
A^535:63973:-0.103674
A^545:63983:-0.175511
A^549:63987:-0.186623
A^550:63988:-0.263755
A^553:63991:-0.123133
A^557:63995:-0.320947
A^559:63997:-0.0835873
A^560:63998:-0.0594147
A^565:64003:-0.0750485
A^575:64013:-0.108659
A^587:64025:-0.108528
A^613:64051:-0.255778
A^615:64053:-0.0818149
A^616:64054:-0.146922
A^620:64058:-0.120332
A^622:64060:-0.145469
A^626:64064:-0.110875
A^637:64075:-0.0806124
A^642:64080:-0.116842
A^644:64082:-0.131958
A^646:64084:-0.242835
A^649:64087:-0.078152
A^651:64089:-0.128404
A^652:64090:-0.0737459
A^656:64094:-0.0410179
A^660:64098:-0.252923
A^668:64106:-0.123969
A^673:64111:-0.167585
A^676:64114:-0.0633706
A^678:64116:-0.073671
A^693:64131:-0.108582
A^709:64147:-0.201671
A^724:64162:-0.0806124
A^752:64190:-0.172809
A^757:64195:-0.351083
A^764:64202:-0.165449
A^767:64205:-0.252579
A^768:64206:-0.291729
A^782:64220:-0.0791973
A^784:64222:-0.0862512
A^802:64240:-0.466412
A^811:64249:-0.0832013
A^812:64250:-0.0805804
A^865:64303:-0.150469
A^871:64309:-0.119545
A^921:64359:-0.0914736
A^925:64363:-0.0844235
A^929:64367:-0.149245
A^931:64369:-0.0570286
A^932:64370:-0.267852
A^984:64422:-0.0919653
A^992:64430:-0.13619
A^1026:64464:-0.17585
A^1028:64466:-0.431785
A^1033:64471:-0.106952
A^1071:64509:-0.118956
A^1102:64540:-0.132718
A^1122:64560:-0.189454
A^1127:64565:-0.171709
A^1145:64583:-0.506002
A^1156:64594:-0.0759007
A^1160:64598:-0.140213
A^1189:64627:-0.2556
A^1191:64629:-0.0731027
A^1195:64633:-0.225725
A^1240:64678:-0.169394
A^1280:64718:-0.0481214
A^1288:64726:-0.0638
A^1340:64778:-0.0817862
A^1355:64793:-0.119655
A^1380:64818:-0.145815
A^1426:64864:-0.252801
A^1443:64881:-0.213461
A^1455:64893:-0.3611
A^1456:64894:-0.194913
A^1470:64908:-0.104183
A^1500:64938:-0.0760615
A^1528:64966:-0.116999
A^1530:64968:-0.1973
A^1533:64971:-0.0597477
A^1536:64974:-0.0672493
A^1540:64978:-0.149089
A^1546:64984:-0.10692
A^1553:64991:-0.0500611
A^1557:64995:-0.232965
A^1590:65028:-0.228629
A^1603:65041:-0.116219
A^1617:65055:-0.142356
A^1623:65061:-0.254286
A^1629:65067:-0.307194
A^1636:65074:-0.0601408
A^1643:65081:-0.121236
A^1654:65092:-0.0706745
A^1664:65102:-0.319407
A^1674:65112:-0.169394
C^13:65176:-0.41874
C^18:65181:-0.344167
C^20:65183:-0.656668
C^24:65187:-1.05945
C^25:65188:-0.0950297
C^32:65195:-0.226192
A^1765:65203:-0.113369
C^45:65208:-0.435989
C^51:65214:-0.481479
C^52:65215:-0.261113
C^64:65227:-0.0928859
C^69:65232:-0.379314
C^73:65236:-0.420074
A^1800:65238:-0.111228
C^76:65239:-0.201835
C^80:65243:-0.185836
A^1807:65245:-0.104183
C^87:65250:-0.219742
A^1827:65265:-0.107677
C^107:65270:-0.252297
C^125:65288:-0.338149
C^126:65289:-0.339935
A^1857:65295:-0.0330373
A^1865:65303:-0.252727
C^147:65310:-0.0646925
C^182:65345:-0.269791
A^1910:65348:-0.186511
C^187:65350:-0.273086
C^208:65371:-0.308932
C^220:65383:-0.320821
C^224:65387:-0.170475
A^1958:65396:-0.168244
C^238:65401:-0.148103
A^1971:65409:-0.0562823
C^257:65420:-0.255368
A^1990:65428:-0.0865975
C^271:65434:-0.362507
A^2000:65438:-0.0531144
C^276:65439:-0.337436
C^283:65446:-0.195324
C^286:65449:-0.455431
A^2018:65456:-0.354876
A^2026:65464:-0.0747108
A^2031:65469:-0.123672
C^307:65470:-0.17882
A^2039:65477:-0.110977
A^2058:65496:-0.0178294
C^355:65518:-0.197397
C^357:65520:-0.207751
C^359:65522:-0.306982
A^2088:65526:-0.112537
C^365:65528:-0.205448
A^2096:65534:-0.083025
A^2107:65545:-0.0946025
A^2121:65559:-0.0765433
C^413:65576:-0.121002
C^423:65586:-0.121921
A^2153:65591:-0.109558
C^438:65601:-0.225507
A^2173:65611:-0.0992839
C^476:65639:-0.240639
C^478:65641:-0.210908
A^2212:65650:-0.117251
A^2229:65667:-0.0997429
C^506:65669:-0.308001
C^514:65677:-0.32423
C^524:65687:-0.21112
C^526:65689:-0.36344
C^533:65696:-0.368044
C^540:65703:-0.156929
C^550:65713:-0.209532
A^2277:65715:-0.0944519
C^560:65723:-0.186272
C^573:65736:-0.583242
C^579:65742:-0.136052
C^587:65750:-0.247289
A^2330:65768:-0.162799
A^2347:65785:-0.0787069
C^626:65789:-0.18625
A^2362:65800:-0.127471
C^660:65823:-0.388958
C^664:65827:-0.229929
C^676:65839:-0.18024
A^2448:65886:-0.0708996
C^726:65889:-0.25358
C^755:65918:-0.238931
A^2490:65928:-0.077802
A^2524:65962:-0.111412
A^2525:65963:-0.158582
A^2526:65964:-0.188228
A^2536:65974:-0.0318421
C^812:65975:-0.174674
A^2543:65981:-0.12205
C^820:65983:-0.146655
C^842:66005:-0.215584
A^2577:66015:-0.181009
A^2581:66019:-0.0355676
A^2582:66020:-0.0549325
C^858:66021:-0.0184257
A^2586:66024:-0.0789533
A^2609:66047:-0.263703
A^2632:66070:-0.0911581
C^946:66109:-0.154103
A^2682:66120:-0.0770802
A^2736:66174:-0.0608331
C^1024:66187:-0.194624
C^1028:66191:-0.451544
C^1029:66192:-0.254357
C^1032:66195:-0.153831
C^1033:66196:-0.216621
C^1062:66225:-0.202944
C^1098:66261:-0.077425
A^2848:66286:-0.174994
C^1145:66308:-0.137757
C^1150:66313:-0.198896
A^2911:66349:-0.0500913
A^2927:66365:-0.178615
C^1212:66375:-0.181834
A^2940:66378:-0.30956
A^2942:66380:-0.101785
C^1218:66381:-0.167133
A^2950:66388:-0.0992805
C^1236:66399:-0.119213
C^1282:66445:-0.175084
C^1293:66456:-0.152294
C^1296:66459:-0.150008
D^43701:66491:-0.0613553
C^1335:66498:-0.249609
C^1383:66546:-0.286503
C^1399:66562:-0.272427
C^1401:66564:-0.144362
C^1403:66566:-0.207776
C^1405:66568:-0.0578698
A^3137:66575:-0.0880738
C^1426:66589:-0.266432
C^1429:66592:-0.193454
A^3158:66596:-0.0815306
A^3188:66626:-0.223456
C^1486:66649:-0.189697
C^1489:66652:-0.107327
C^1590:66753:-0.167914
C^1609:66772:-0.132881
A^3355:66793:-0.101364
A^3370:66808:-0.197836
A^3404:66842:-0.103754
C^1726:66889:-0.19381
C^1731:66894:-0.0913812
A^3484:66922:-0.0659842
A^3486:66924:-0.0770165
A^3495:66933:-0.0184284
C^1772:66935:-0.145541
C^1778:66941:-0.0960807
A^3525:66963:-0.0856926
C^1885:67048:-0.122476
A^3669:67107:-0.0966496
C^2016:67179:-0.168552
A^3751:67189:-0.106921
A^3752:67190:-0.0540712
C^2094:67257:-0.104873
C^2097:67260:-0.267039
C^2131:67294:-0.160818
A^3868:67306:-0.175637
A^3899:67337:-0.10531
A^3923:67361:-0.127462
C^2202:67365:-0.146487
C^2221:67384:-0.105784
C^2223:67386:-0.191979
C^2226:67389:-0.0847491
A^3960:67398:-0.117514
C^2298:67461:-0.761502
A^4031:67469:-0.146874
C^2311:67474:-0.184802
A^4072:67510:-0.0579521
C^2350:67513:-0.10859
A^4119:67557:-0.0770238
C^2423:67586:-0.0981871
A^4175:67613:-0.0920087
C^2493:67656:-0.154271
C^2580:67743:-0.0870587
A^4331:67769:-0.0449161
A^4398:67836:-0.184128
C^2731:67894:-0.168246
A^4525:67963:-0.0278557
A^4546:67984:-0.0458781
A^4547:67985:-0.0514018
A^4550:67988:-0.0935289
C^2871:68034:-0.164434
F^const:68056:-0.154337
C^2940:68103:-0.16051
C^3094:68257:-0.228954
C^3250:68413:-0.114464
C^3617:68780:-0.0891438
C^3736:68899:-0.0921028
C^3756:68919:-0.127844
A^5493:68931:-0.0714932
C^3772:68935:-0.190394
A^5510:68948:-0.0519405
C^3841:69004:-0.226009
C^3855:69018:-0.0754007
C^3863:69026:-0.113142
C^3864:69027:-0.0618084
A^5808:69246:-0.0594147
A^5829:69267:-0.0778694
C^4132:69295:-0.13917
A^5874:69312:-0.0902108
C^4256:69419:-0.242289
C^4276:69439:-0.187472
A^6018:69456:-0.0587632
A^6057:69495:-0.0476412
A^6060:69498:-0.0281645
C^4340:69503:-0.12679
A^6280:69718:-0.0673267
C^4595:69758:-0.118332
A^6694:70132:-0.0831589
A^6708:70146:-0.0491184
F^417:70311:-0.106224
C^5261:70424:-0.0614747
C^5295:70458:-0.133495
C^5300:70463:-0.115244
A^7052:70490:-0.144727
A^7486:70924:-0.179961
C^5775:70938:-0.141452
A^7541:70979:-0.0630233
C^5991:71154:-0.059845
C^6020:71183:-0.120308
A^8275:71713:-0.0899636
A^8408:71846:-0.0781213
A^8462:71900:-0.0329785
C^7031:72194:-0.1076
A^8877:72315:-0.263945
C^7213:72376:-0.186136
C^7559:72722:-0.081674
C^7838:73001:-0.0870755
C^7890:73053:-0.117207
C^8857:74020:-0.150073
A^11273:74711:-0.130992
C^9840:75003:-0.0996063
A^11815:75253:-0.0472465
A^11905:75343:-0.0621384
A^12048:75486:-0.0403785
C^10622:75785:-0.113378
C^11306:76469:-0.0975481
C^11408:76571:-0.0865299
A^13136:76574:-0.0677306
A^13519:76957:-0.0439243
A^13847:77285:-0.0541011
C^const:78455:-4.48594
C^13492:78655:-0.0900081
C^13494:78657:-0.0339577
A^16190:79628:-0.064835
A^16404:79842:-0.0258858
A^16409:79847:-0.0385686
A^16893:80331:-0.0925064
C^15759:80922:-0.107145
C^16056:81219:-0.0694741
A^18017:81455:-0.0514065
A^18097:81535:-0.0212639
C^17679:82842:-0.076695
A^20284:83722:-0.0289925
A^20698:84136:-0.0425012
A^20896:84334:-0.0495605
A^21901:85339:-0.0339061
C^22275:87438:-0.0554224
A^24036:87474:-0.055943
A^24303:87741:-0.0806919
A^30665:94103:-0.0491352
C^29168:94331:-0.0446684
A^34707:98145:-0.0420489
C^33393:98556:-0.0782676
C^37562:102725:-0.0681104
A^43682:107120:-0.0550903
A^const:109445:-7.07001
C^44781:109944:-0.0512982
C^44966:110129:-0.0736901
