Version 9.10.0
Id 
Min label:0
Max label:0.8
bits:18
lda:0
0 ngram:
0 skip:
options: --cb_adf --cb_explore_adf --cb_sample --cb_type mtr --ccb_explore_adf --csoaa_ldf multiline --csoaa_rank --quadratic :: --slates --random_seed 47301407393651090
Checksum: 397819236
CCB: has_seen_multi_slot_example = true
event_sum 4
action_sum 10
:0
S^slot_1*U^shared_0:4974:0.0171209
A^action_1*A^action_1:5668:0.0147285
action_3*U^shared_0*_ccb_slot_index^index1:16253:0.0222789
S^slot_0*_ccb_slot_index^index0:19542:0.0280168
U^shared_1*slot_1*_ccb_slot_index^index1:21588:0.0222789
_ccb_slot_index^index1:25433:0.0313272
A^action_1:26750:0.0147285
S^slot_1*S^slot_1:28322:0.0171209
action_3:38067:0.0222789
A^action_3:38812:0.0171209
S^slot_0*U^shared_1:40831:0.0280168
action_1*U^shared_1*_ccb_slot_index^index0:47327:0.0237405
A^action_1*S^slot_0:49078:0.0147285
A^action_1*S^slot_0*_ccb_slot_index^index0:49488:0.0147285
S^slot_0:49644:0.0280168
U^shared_0*_ccb_slot_index^index1:51334:0.0313272
U^shared_1*slot_1:51423:0.0222789
action_1*U^shared_0:54305:0.0237405
slot_1*slot_1:55076:0.0222789
action_1*U^shared_0*_ccb_slot_index^index0:58657:0.0237405
U^shared_0*U^shared_0*_ccb_slot_index^index0:63228:0.0280168
action_3*slot_1:64311:0.0222789
_ccb_slot_index^index0:68306:0.0280168
S^slot_0*S^slot_0*_ccb_slot_index^index0:74346:0.0280168
action_1*action_1:79336:0.0237405
A^action_1*U^shared_0*_ccb_slot_index^index0:82271:0.0147285
action_3*U^shared_0:88524:0.0222789
U^shared_0*U^shared_1:94756:0.0497121
A^action_1*_ccb_slot_index^index0:95368:0.0147285
S^slot_0*S^slot_0:100200:0.0280168
A^action_3*U^shared_0*_ccb_slot_index^index1:103706:0.0171209
A^action_3*S^slot_1:105309:0.0171209
U^shared_0*U^shared_0*_ccb_slot_index^index1:106359:0.0313272
U^shared_0*_ccb_slot_index^index0:106765:0.0280168
A^action_1*U^shared_1:108449:0.0147285
action_3*action_3*_ccb_slot_index^index1:110679:0.0222789
S^slot_1*U^shared_1*_ccb_slot_index^index1:112617:0.0171209
Constant:116060:0.0497121
U^shared_1:121339:0.0497121
A^action_3*U^shared_0:124561:0.0171209
S^slot_0*U^shared_0:133761:0.0280168
action_3*U^shared_1*_ccb_slot_index^index1:135663:0.0222789
S^slot_0*U^shared_1*_ccb_slot_index^index0:138815:0.0280168
A^action_3*A^action_3:146696:0.0171209
action_1*U^shared_1:147935:0.0237405
U^shared_0*slot_1:148769:0.0222789
U^shared_1*_ccb_slot_index^index1:148856:0.0313272
S^slot_1*S^slot_1*_ccb_slot_index^index1:150111:0.0171209
slot_1*_ccb_slot_index^index1:154243:0.0222789
A^action_3*A^action_3*_ccb_slot_index^index1:159937:0.0171209
action_3*_ccb_slot_index^index1:161424:0.0222789
action_3*action_3:164218:0.0222789
S^slot_1*U^shared_1:165520:0.0171209
action_1*_ccb_slot_index^index0:168694:0.0237405
action_1:175564:0.0237405
U^shared_0*slot_1*_ccb_slot_index^index1:176554:0.0222789
A^action_3*_ccb_slot_index^index1:182733:0.0171209
U^shared_0*U^shared_1*_ccb_slot_index^index1:183797:0.0313272
slot_1*slot_1*_ccb_slot_index^index1:184053:0.0222789
U^shared_1*U^shared_1*_ccb_slot_index^index0:184060:0.0280168
A^action_3*U^shared_1*_ccb_slot_index^index1:185572:0.0171209
action_1*action_1*_ccb_slot_index^index0:186090:0.0237405
slot_1:192254:0.0222789
S^slot_1*U^shared_0*_ccb_slot_index^index1:193907:0.0171209
action_3*slot_1*_ccb_slot_index^index1:201932:0.0222789
U^shared_1*_ccb_slot_index^index0:208115:0.0280168
S^slot_1:209353:0.0171209
A^action_1*U^shared_0:209503:0.0147285
S^slot_1*_ccb_slot_index^index1:212018:0.0171209
U^shared_0:216069:0.0497121
action_1*S^slot_0:219592:0.0237405
action_1*S^slot_0*_ccb_slot_index^index0:220938:0.0237405
A^action_3*U^shared_1:226159:0.0171209
S^slot_0*U^shared_0*_ccb_slot_index^index0:230337:0.0280168
U^shared_0*U^shared_1*_ccb_slot_index^index0:238718:0.0280168
U^shared_1*U^shared_1*_ccb_slot_index^index1:239479:0.0313272
action_3*U^shared_1:248882:0.0222789
A^action_1*A^action_1*_ccb_slot_index^index0:249982:0.0147285
U^shared_0*U^shared_0:255962:0.0497121
A^action_1*U^shared_1*_ccb_slot_index^index0:256161:0.0147285
A^action_3*S^slot_1*_ccb_slot_index^index1:258110:0.0171209
U^shared_1*U^shared_1:262106:0.0497121
