Version 9.8.0
Id 
Min label:0
Max label:1
bits:18
lda:0
0 ngram:
0 skip:
options: --interact ab
Checksum: 2819888933
:0
80026:0.148807
80029:-22.8098
80031:9.01437
80035:-7.0515
80039:36.8635
80040:-57.7986
80045:-13.8749
80046:-93.9521
80049:-9.62701
80050:47.4637
80051:-32.8502
80059:-58.2916
80065:34.3662
80068:-16.7818
80071:5.35853
80076:-25.505
80081:-40.3158
80086:6.06048
80095:54.9062
80111:30.7634
116060:0.148807
